SVM-light Version V6.01
0 # kernel type
3 # kernel parameter -d
1.0 # kernel parameter -g
1.0 # kernel parameter -s
0.0 # kernel parameter -r
empty# kernel parameter -u
34 # highest feature index
78 # number of training documents
48 # number of support vectors plus 1
-0.3831560216805351 # threshold b, each following line is a SV (starting with alpha*y)
-0.373308085845649 2:1.0 4:1.0
-0.373308085845649 1:1.0 4:1.0
-0.373308085845649 1:1.0 5:1.0
-0.373308085845649 1:1.0
0.3552014638543562 1:1.0 5:1.0 25:1.0 32:1.0
0.33447610137593353 1:1.0 4:1.0 11:1.0
0.3552014638543562 1:1.0 5:1.0 17:1.0 21:1.0
-0.16967281475433982 1:1.0 5:1.0 19:1.0
-0.373308085845649 1:1.0 3:1.0 5:1.0
-0.373308085845649 1:1.0 5:1.0 20:1.0
-0.373308085845649 5:1.0
0.373308085845649 1:1.0 2:1.0
0.373308085845649 1:1.0
-0.373308085845649 19:1.0
0.373308085845649 1:1.0 4:1.0
0.373308085845649 1:1.0
-0.373308085845649 1:1.0 2:1.0 4:1.0
-0.1819575023410056 1:1.0 2:1.0 3:1.0 4:1.0 20:1.0
-0.373308085845649 1:1.0 2:1.0
0.373308085845649 1:1.0 5:1.0
0.373308085845649 1:1.0 5:1.0 8:1.0
0.373308085845649 3:1.0 9:1.0
0.373308085845649 1:1.0 3:1.0
0.373308085845649 1:1.0
-0.373308085845649 1:1.0 3:1.0
-0.373308085845649 1:1.0
-0.373308085845649 1:1.0 19:1.0
0.373308085845649 2:1.0 14:1.0
0.373308085845649 2:1.0
0.373308085845649 2:1.0 10:1.0 33:1.0
0.08116227384933883 8:1.0 18:1.0 30:1.0
0.373308085845649 1:1.0 4:1.0 5:1.0 26:1.0 29:1.0
-0.373308085845649 5:1.0
-0.373308085845649 2:1.0
0.373308085845649 1:1.0 3:1.0
0.373308085845649 1:1.0
-0.373308085845649 1:1.0 3:1.0 4:1.0 20:1.0
-0.373308085845649 1:1.0 2:1.0
-0.373308085845649 5:1.0
0.18737233779997664 22:1.0 27:1.0
0.29943176425408313 28:1.0 31:1.0
0.3084219891597321 24:1.0 34:1.0
-0.373308085845649 5:1.0
-0.373308085845649 19:1.0
0.24209930271951063 1:1.0 4:1.0 5:1.0 9:1.0 27:1.0
0.017522168560925595 1:1.0 4:1.0 23:1.0 31:1.0
0.03728188089537694 1:1.0
