SVM-light Version V6.01
0 # kernel type
3 # kernel parameter -d
1.0 # kernel parameter -g
1.0 # kernel parameter -s
0.0 # kernel parameter -r
empty# kernel parameter -u
15 # highest feature index
477 # number of training documents
175 # number of support vectors plus 1
0.0 # threshold b, each following line is a SV (starting with alpha*y)
-14.616038659177091 1:1.0 3:1.0
1.0677222953453849 1:1.0 3:1.0
-0.31773997085167577 3:1.0 6:1.0 8:1.0
-0.31773997085167577 3:1.0 7:1.0
-0.31773997085167577 3:1.0 9:1.0 15:1.0
-3.177399708516758 3:1.0 15:1.0
0.9532199125550274 1:1.0 3:1.0
-0.31773997085167577 3:1.0 9:1.0
4.448359591923461 1:1.0 3:1.0 15:1.0
-0.017331269292991558 3:1.0 7:1.0
-0.4462083572876046 2:1.0 15:1.0
-1.5886998542583788 2:1.0
-0.31773997085167577 2:1.0 15:1.0
17.50144468543227 3:1.0
-0.002664279130293795 3:1.0 7:1.0 15:1.0
3.177399708516758 1:1.0 3:1.0 15:1.0
-0.0063156413305584524 3:1.0 7:1.0 15:1.0
-4.32275972072236 3:1.0 8:1.0
-0.6354799417033515 2:1.0 15:1.0
1.4630999830572768 1:1.0 3:1.0 15:1.0
-0.005269841855543691 3:1.0 7:1.0
-0.6354799417033515 2:1.0 15:1.0
1.270959883406703 1:1.0 3:1.0 15:1.0
1.410011239623477 1:1.0 3:1.0
-0.0010166158651738755 8:1.0 15:1.0
-0.31773997085167577 3:1.0 6:1.0 8:1.0
1.270959883406703 1:1.0 3:1.0 15:1.0
-0.6354799417033515 2:1.0 15:1.0
-3.177399708516758 3:1.0 15:1.0
1.1464521727559653 1:1.0 3:1.0
-0.6354799417033515 2:1.0 15:1.0
-0.31773997085167577 3:1.0 10:1.0 15:1.0
0.9532199125550274 1:1.0 3:1.0
-0.6354799417033515 2:1.0 15:1.0
-0.6354799417033515 2:1.0 15:1.0
-3.177399708516758 3:1.0 15:1.0
0.9532199125550274 1:1.0 3:1.0
-0.006891922681068308 3:1.0 7:1.0
-0.6354799417033515 2:1.0 15:1.0
1.270959883406703 1:1.0 3:1.0 15:1.0
-3.177399708516758 3:1.0 15:1.0
1.270959883406703 1:1.0 3:1.0 15:1.0
-0.31773997085167577 3:1.0 7:1.0 15:1.0
-0.09243041349484685 3:1.0 10:1.0 15:1.0
0.9532199125550274 1:1.0 3:1.0
-1.5886998542583788 2:1.0
-3.177399708516758 3:1.0 15:1.0
-0.6354799417033515 2:1.0 15:1.0
1.270959883406703 1:1.0 3:1.0 15:1.0
-0.32886296290971684 2:1.0 15:1.0
1.270959883406703 1:1.0 3:1.0 15:1.0
-3.177399708516758 3:1.0 15:1.0
-0.31773997085167577 2:1.0 15:1.0
-0.018409925810416727 15:1.0
1.270959883406703 1:1.0 3:1.0 15:1.0
-0.31773997085167577 3:1.0 9:1.0
1.270959883406703 1:1.0 3:1.0 15:1.0
-0.31773997085167577 8:1.0 15:1.0
-0.31773997085167577 3:1.0 6:1.0 8:1.0
-0.31773997085167577 2:1.0 15:1.0
-3.81287965022011 3:1.0
0.9532199125550274 1:1.0 3:1.0
-3.177399708516758 3:1.0 15:1.0
-0.008248708986575204 15:1.0
36.321389194406635 2:1.0 15:1.0
-0.0013105025683874394 5:1.0
-14.616038659177091 1:1.0 3:1.0
-0.31773997085167577 3:1.0 9:1.0
-3.177399708516758 3:1.0 15:1.0
-1.6535803936377085 2:1.0
0.9532199125550274 1:1.0 3:1.0
-0.31773997085167577 3:1.0 7:1.0
-0.31773997085167577 2:1.0 15:1.0
1.270959883406703 1:1.0 3:1.0 15:1.0
-0.31773997085167577 3:1.0 7:1.0
-0.31773997085167577 15:1.0
1.270959883406703 1:1.0 3:1.0 15:1.0
-0.31773997085167577 3:1.0 7:1.0
-0.31773997085167577 2:1.0 15:1.0
-0.31773997085167577 15:1.0
-3.177399708516758 3:1.0 15:1.0
0.9532199125550274 1:1.0 3:1.0
-0.31773997085167577 3:1.0 7:1.0
-0.05428597063490667 3:1.0 7:1.0
-14.616038659177091 1:1.0 3:1.0 15:1.0
-0.31773997085167577 2:1.0 15:1.0
-4.1466221403818615E-4 3:1.0 7:1.0 15:1.0
-0.31773997085167577 15:1.0
-0.31773997085167577 15:1.0
-0.31773997085167577 3:1.0 10:1.0 15:1.0
-3.81287965022011 3:1.0
-0.31773997085167577 2:1.0 15:1.0
-0.31773997085167577 2:1.0 15:1.0
-0.31773997085167577 15:1.0
-3.81287965022011 3:1.0
13.211093824217444 3:1.0
-3.177399708516758 3:1.0 15:1.0
-3.81287965022011 3:1.0
-3.81287965022011 3:1.0
17.205106857678274 3:1.0 8:1.0
-2.22417979596173 2:1.0
-0.31773997085167577 15:1.0
-3.495139679368434 3:1.0
-2.22417979596173 2:1.0
-0.4007291356724362 2:1.0 15:1.0
-3.177399708516758 3:1.0 15:1.0
-0.31773997085167577 15:1.0
-3.495139679368434 3:1.0
-0.10844181823922461 15:1.0
-0.31773997085167577 3:1.0 6:1.0 15:1.0
-3.624185707724828 3:1.0 8:1.0 15:1.0
-0.31773997085167577 3:1.0 6:1.0 15:1.0
1.270959883406703 1:1.0 3:1.0 15:1.0
-0.31773997085167577 3:1.0 10:1.0 15:1.0
-0.31773997085167577 3:1.0 10:1.0
-0.0924304134948469 3:1.0 6:1.0 15:1.0
-0.5443127646948526 2:1.0 15:1.0
0.9959055712223368 1:1.0 3:1.0 15:1.0
-0.6354799417033515 2:1.0 15:1.0
0.9532199125550274 1:1.0 3:1.0
-0.6354799417033515 2:1.0 15:1.0
-3.177399708516758 3:1.0 15:1.0
-3.495139679368434 3:1.0
-0.31773997085167577 3:1.0 9:1.0 15:1.0
-0.31773997085167577 8:1.0
-7.66844495910753 3:1.0 8:1.0
-0.4925621770419187 2:1.0 15:1.0
-3.177399708516758 3:1.0 15:1.0
0.9532199125550274 1:1.0 3:1.0 15:1.0
-0.6354799417033515 2:1.0 15:1.0
0.9532199125550274 1:1.0 3:1.0 15:1.0
-2.083418356685537 2:1.0
0.9532199125550274 1:1.0 3:1.0 15:1.0
-0.0013105025683878835 4:1.0
-0.6354799417033515 2:1.0 15:1.0
0.9532199125550274 1:1.0 3:1.0 15:1.0
-0.6354799417033515 2:1.0 15:1.0
0.9532199125550274 1:1.0 3:1.0 15:1.0
-3.177399708516758 3:1.0 15:1.0
-0.6354799417033515 2:1.0 15:1.0
-3.177399708516758 3:1.0 15:1.0
0.9532199125550274 1:1.0 3:1.0
-1.9132163128333055 2:1.0
-3.177399708516758 3:1.0 15:1.0
12.074118892363684 3:1.0
-3.177399708516758 3:1.0 15:1.0
-1.9064398251100545 2:1.0
-0.31773997085167577 3:1.0 6:1.0
0.9532199125550274 1:1.0 3:1.0 15:1.0
-0.6354799417033515 2:1.0 15:1.0
-0.31773997085167577 3:1.0 10:1.0 15:1.0
12.39185886321536 3:1.0
-0.6354799417033515 2:1.0 15:1.0
-3.177399708516758 3:1.0 15:1.0
0.9532199125550274 1:1.0 3:1.0 15:1.0
-3.177399708516758 3:1.0 15:1.0
-1.7220635234159953 2:1.0
-3.177399708516758 3:1.0 15:1.0
0.9532199125550274 1:1.0 3:1.0
-0.31773997085167577 3:1.0 10:1.0 15:1.0
15.36182894782326 3:1.0 15:1.0
-0.6354799417033515 2:1.0 15:1.0
-0.3177399708516763 2:1.0 15:1.0
-3.177399708516758 3:1.0 15:1.0
15.255053343841498 3:1.0 15:1.0
-3.177399708516758 3:1.0 15:1.0
12.074118892363684 3:1.0
-1.9064398251100543 2:1.0
-0.31773997085167577 2:1.0 15:1.0
0.9532199125550274 1:1.0 3:1.0 15:1.0
-3.177399708516758 3:1.0 15:1.0
-3.495139679368434 3:1.0
-0.31773997085167577 2:1.0 15:1.0
15.251518600880443 3:1.0 15:1.0
