SVM-light Version V6.01
0 # kernel type
3 # kernel parameter -d
1.0 # kernel parameter -g
1.0 # kernel parameter -s
0.0 # kernel parameter -r
empty# kernel parameter -u
36 # highest feature index
83 # number of training documents
55 # number of support vectors plus 1
-0.18217730032913226 # threshold b, each following line is a SV (starting with alpha*y)
-0.3791827734189618 2:1.0 4:1.0
-0.3791827734189618 1:1.0 4:1.0
-0.3791827734189618 1:1.0 5:1.0
-0.3791827734189618 1:1.0
0.3791827734189618 1:1.0 5:1.0 27:1.0 34:1.0
0.3791827734189618 1:1.0
0.3791827734189618 1:1.0 5:1.0 19:1.0 23:1.0
-0.25791112531642757 1:1.0 5:1.0 21:1.0
-0.3791827734189618 1:1.0 3:1.0 5:1.0
-0.3791827734189618 1:1.0 5:1.0 22:1.0
-0.3791827734189618 5:1.0
0.3791827734189618 2:1.0 17:1.0
0.3791827734189618 2:1.0
0.3791827734189618 2:1.0 11:1.0 35:1.0
0.3791827734189618 1:1.0 2:1.0
-0.3791827734189618 1:1.0 2:1.0 4:1.0
-0.3791827734189618 2:1.0
-0.3791827734189618 1:1.0 2:1.0
0.3791827734189618 1:1.0 5:1.0
0.3791827734189618 1:1.0 5:1.0 8:1.0
0.3791827734189618 1:1.0 4:1.0 5:1.0 28:1.0 32:1.0
-0.3791827734189618 5:1.0
0.3791827734189618 1:1.0 3:1.0
-0.3791827734189618 1:1.0 5:1.0
-0.3791827734189618 1:1.0
-0.3791827734189618 1:1.0 3:1.0 4:1.0 22:1.0
0.3791827734189618 30:1.0
0.029728576416471947 17:1.0 36:1.0
0.3791827734189618 26:1.0 36:1.0
-0.3791827734189618 34:1.0
-0.3791827734189618 21:1.0
-0.3791827734189618 1:1.0 2:1.0
0.1984539724834834 1:1.0 4:1.0 5:1.0 9:1.0 29:1.0
0.3791827734189618 1:1.0 4:1.0
0.10646608772991417 1:1.0 4:1.0 10:1.0 25:1.0
-0.21650650142776207 1:1.0 2:1.0 3:1.0 4:1.0 22:1.0
0.3791827734189618 1:1.0 3:1.0
0.3791827734189618 3:1.0 9:1.0
0.3428536296774045 1:1.0
-0.3791827734189618 1:1.0 3:1.0
-0.3791827734189618 34:1.0
-0.3791827734189618 5:1.0
0.1462133087506352 8:1.0 20:1.0 33:1.0
0.3791827734189618 1:1.0
0.2679997371623571 1:1.0 4:1.0 12:1.0
0.1339998685811786 1:1.0 4:1.0 16:1.0 31:1.0
-0.3791827734189618 1:1.0 21:1.0
0.3791827734189618 1:1.0 5:1.0 27:1.0 34:1.0
0.309684363593692 24:1.0 29:1.0
0.05502020684892393 1:1.0 3:1.0 25:1.0
0.3678134119040402 1:1.0
-0.3791827734189618 5:1.0
0.19881618544671636 1:1.0
-0.16590062817478096 21:1.0
