SVM-light Version V6.01
0 # kernel type
3 # kernel parameter -d
1.0 # kernel parameter -g
1.0 # kernel parameter -s
0.0 # kernel parameter -r
empty# kernel parameter -u
50 # highest feature index
43 # number of training documents
33 # number of support vectors plus 1
-0.8346047181998257 # threshold b, each following line is a SV (starting with alpha*y)
-0.18230067857119167 1:1.0 4:1.0 15:1.0 28:1.0 31:1.0 40:1.0
-0.18230067857119167 1:1.0 3:1.0 24:1.0 37:1.0 40:1.0
-0.18230067857119167 1:1.0 10:1.0 17:1.0 38:1.0 45:1.0 47:1.0
-0.18230067857119167 1:1.0 9:1.0 11:1.0 39:1.0 42:1.0 46:1.0 48:1.0
-0.18230067857119167 1:1.0 23:1.0 36:1.0 38:1.0
0.16933415960095363 1:1.0 19:1.0 22:1.0 30:1.0 43:1.0 48:1.0
0.18230067857119167 1:1.0 24:1.0 34:1.0 38:1.0
0.03258392369823245 1:1.0 15:1.0 20:1.0 26:1.0 32:1.0 37:1.0 45:1.0 50:1.0
0.0380512592908656 1:1.0 6:1.0 19:1.0 30:1.0 33:1.0 38:1.0 45:1.0
0.18230067857119167 1:1.0 30:1.0 32:1.0 38:1.0
-0.18230067857119167 1:1.0 19:1.0 30:1.0 38:1.0 43:1.0 48:1.0
-0.18230067857119167 1:1.0 30:1.0 38:1.0
-0.18230067857119167 1:1.0 25:1.0 29:1.0 32:1.0
-0.18230067857119167 1:1.0 30:1.0 37:1.0 39:1.0
-0.18230067857119167 1:1.0 11:1.0 32:1.0 39:1.0
0.07700110835410792 1:1.0 10:1.0 12:1.0 23:1.0 31:1.0 41:1.0 46:1.0 49:1.0
0.16041708591884823 1:1.0 28:1.0 37:1.0 40:1.0 44:1.0
0.13874560806801067 1:1.0 4:1.0 21:1.0 25:1.0 31:1.0 39:1.0 45:1.0
0.18230067857119167 1:1.0 40:1.0
0.17722178073093897 1:1.0 3:1.0 13:1.0 32:1.0 39:1.0 41:1.0
-0.18230067857119167 1:1.0 9:1.0 37:1.0 41:1.0
-0.18230067857119167 1:1.0 16:1.0 39:1.0 44:1.0
0.13764428617278768 1:1.0 4:1.0 29:1.0 38:1.0
0.047526742884800924 1:1.0 6:1.0 29:1.0 37:1.0 43:1.0 48:1.0
0.18230067857119167 1:1.0 29:1.0 37:1.0
0.18230067857119167 1:1.0 28:1.0 39:1.0
0.09762330342713406 1:1.0 11:1.0 22:1.0 26:1.0 31:1.0 37:1.0 42:1.0 47:1.0
0.07371617558327326 1:1.0 5:1.0 9:1.0 14:1.0 33:1.0 36:1.0 41:1.0
0.016766851346651637 1:1.0 3:1.0 11:1.0 14:1.0 21:1.0 34:1.0 42:1.0 46:1.0 50:1.0
0.0342767825223541 1:1.0 7:1.0 11:1.0 19:1.0 33:1.0 41:1.0 48:1.0
0.043061812029647484 1:1.0 20:1.0 24:1.0 30:1.0 33:1.0 38:1.0 40:1.0
0.03213387036973431 1:1.0 4:1.0 15:1.0 30:1.0 33:1.0 40:1.0 42:1.0
