SVM-light Version V6.01
0 # kernel type
3 # kernel parameter -d
1.0 # kernel parameter -g
1.0 # kernel parameter -s
0.0 # kernel parameter -r
empty# kernel parameter -u
51 # highest feature index
49 # number of training documents
42 # number of support vectors plus 1
-0.7484065289140341 # threshold b, each following line is a SV (starting with alpha*y)
-0.18422964624518648 1:1.0 4:1.0 15:1.0 29:1.0 32:1.0 41:1.0
-0.18422964624518648 1:1.0 3:1.0 25:1.0 38:1.0 41:1.0
-0.18422964624518648 1:1.0 10:1.0 17:1.0 39:1.0 46:1.0 48:1.0
-0.18422964624518648 1:1.0 9:1.0 11:1.0 40:1.0 43:1.0 47:1.0 49:1.0
-0.18422964624518648 1:1.0 24:1.0 37:1.0 39:1.0
0.18422964624518648 1:1.0 20:1.0 23:1.0 31:1.0 45:1.0 49:1.0
0.18422964624518648 1:1.0 25:1.0 35:1.0 39:1.0
0.07401053102696911 1:1.0 15:1.0 21:1.0 27:1.0 33:1.0 38:1.0 47:1.0 51:1.0
0.04518655315959755 1:1.0 6:1.0 20:1.0 31:1.0 34:1.0 39:1.0 47:1.0
0.18422964624518648 1:1.0 31:1.0 33:1.0 39:1.0
-0.18422964624518648 1:1.0 20:1.0 31:1.0 39:1.0 45:1.0 49:1.0
-0.18422964624518648 1:1.0 31:1.0 39:1.0
-0.18422964624518648 1:1.0 26:1.0 30:1.0 33:1.0
-0.18422964624518648 1:1.0 31:1.0 38:1.0 40:1.0
-0.18422964624518648 1:1.0 11:1.0 33:1.0 40:1.0
0.06797385613475031 1:1.0 10:1.0 12:1.0 24:1.0 32:1.0 42:1.0 46:1.0 50:1.0
0.010648325164511585 1:1.0 7:1.0 11:1.0 19:1.0 34:1.0 42:1.0 49:1.0
0.17311020652508985 1:1.0 29:1.0 38:1.0 41:1.0 44:1.0
0.0773643404576751 1:1.0 3:1.0 11:1.0 14:1.0 22:1.0 35:1.0 43:1.0 48:1.0 51:1.0
0.18422964624518648 1:1.0 18:1.0 32:1.0 39:1.0 41:1.0
-0.18422964624518648 1:1.0 35:1.0 37:1.0
-0.18422964624518648 1:1.0 9:1.0 38:1.0 42:1.0
-0.18422964624518648 1:1.0 29:1.0 39:1.0
-0.18422964624518648 1:1.0 16:1.0 40:1.0 45:1.0
0.15933227656025029 1:1.0 4:1.0 19:1.0 31:1.0 40:1.0
0.18422964624518648 1:1.0 29:1.0 40:1.0
0.1315132701096616 1:1.0 4:1.0 30:1.0 39:1.0
0.11637979363537344 1:1.0 14:1.0 26:1.0 36:1.0 40:1.0
0.11447773136526807 1:1.0 3:1.0 13:1.0 33:1.0 40:1.0 42:1.0
0.10383537027808254 1:1.0 6:1.0 30:1.0 38:1.0 45:1.0 49:1.0
0.18350817154511423 1:1.0 30:1.0 38:1.0
0.16399049748920064 1:1.0 42:1.0
0.013777533110689522 1:1.0 15:1.0 29:1.0 32:1.0 34:1.0 37:1.0 42:1.0
0.03561346452902983 1:1.0 5:1.0 9:1.0 14:1.0 29:1.0 35:1.0 38:1.0 43:1.0
0.06376737157538054 1:1.0 5:1.0 9:1.0 14:1.0 34:1.0 37:1.0 42:1.0
0.02042934289879569 1:1.0 17:1.0 21:1.0 24:1.0 32:1.0 35:1.0 50:1.0
0.03155326314227863 1:1.0 23:1.0 32:1.0 39:1.0
0.023906299468322637 1:1.0 21:1.0 25:1.0 31:1.0 34:1.0 39:1.0 41:1.0
0.036299860129389794 1:1.0 4:1.0 22:1.0 26:1.0 32:1.0 40:1.0 47:1.0
0.010350451454691469 1:1.0 4:1.0 15:1.0 31:1.0 34:1.0 41:1.0 43:1.0
0.0010383064465548653 1:1.0 11:1.0 23:1.0 27:1.0 32:1.0 42:1.0 46:1.0 49:1.0
