SVM-light Version V6.01
0 # kernel type
3 # kernel parameter -d
1.0 # kernel parameter -g
1.0 # kernel parameter -s
0.0 # kernel parameter -r
empty# kernel parameter -u
89 # highest feature index
200 # number of training documents
104 # number of support vectors plus 1
-0.054707541274630844 # threshold b, each following line is a SV (starting with alpha*y)
0.05245258956214404 27:1.0 31:1.0 38:1.0 44:1.0 45:1.0 51:1.0 74:1.0
-0.2512370926962252 16:1.0 31:1.0 49:1.0
-0.1562143242101712 2:1.0 29:1.0 38:1.0 39:1.0 53:1.0
-0.2512370926962252 7:1.0 14:1.0 19:1.0 31:1.0 32:1.0 62:1.0
-0.2512370926962252 29:1.0 50:1.0 51:1.0
-0.2512370926962252 35:1.0 41:1.0 63:1.0
0.2151388300977476 51:1.0 68:1.0
0.08579168199716486 2:1.0 8:1.0 22:1.0 32:1.0 70:1.0 77:1.0
0.19817931399909433 1:1.0 7:1.0 20:1.0 39:1.0 60:1.0
-0.18852249389942105 23:1.0 34:1.0 55:1.0
-0.2512370926962252 1:1.0 7:1.0 13:1.0 35:1.0 42:1.0 77:1.0
-0.2512370926962252 1:1.0 2:1.0 8:1.0 12:1.0 45:1.0 86:1.0
-0.2512370926962252 2:1.0 3:1.0 13:1.0 56:1.0 69:1.0
-0.2512370926962252 2:1.0 22:1.0 28:1.0 38:1.0 43:1.0 77:1.0
-0.2512370926962252 2:1.0 28:1.0 38:1.0 40:1.0 77:1.0
0.2512370926962252 16:1.0 31:1.0 37:1.0 62:1.0 75:1.0 82:1.0
0.19553837370724497 31:1.0 37:1.0 62:1.0 75:1.0
-0.08431519684948378 1:1.0 7:1.0 29:1.0 48:1.0
0.2512370926962252 11:1.0 29:1.0 33:1.0 71:1.0
0.2512370926962252 26:1.0 29:1.0 51:1.0 52:1.0 74:1.0 89:1.0
-0.2512370926962252 29:1.0 32:1.0 55:1.0 70:1.0
0.2512370926962252 74:1.0
-0.2512370926962252 1:1.0 6:1.0 29:1.0 48:1.0 51:1.0
-0.2512370926962252 23:1.0 32:1.0 52:1.0
0.2512370926962252 2:1.0 13:1.0 29:1.0 54:1.0 56:1.0 69:1.0 77:1.0 80:1.0
0.2512370926962252 2:1.0 3:1.0 13:1.0 19:1.0 66:1.0
0.014441432714190502 20:1.0 41:1.0 73:1.0
0.24095619911801194 13:1.0 25:1.0 31:1.0 38:1.0 42:1.0 61:1.0 79:1.0
-0.2512370926962252 2:1.0 3:1.0 13:1.0 19:1.0 31:1.0 56:1.0
-0.2512370926962252 13:1.0 31:1.0 59:1.0 79:1.0
-0.2512370926962252 3:1.0 7:1.0 13:1.0 19:1.0 30:1.0 59:1.0
0.019204125589750487 11:1.0 33:1.0 34:1.0 71:1.0
0.2512370926962252 23:1.0 50:1.0 73:1.0
0.2512370926962252 1:1.0 7:1.0 8:1.0 23:1.0 32:1.0 70:1.0 77:1.0
0.2093562852558767 1:1.0 6:1.0 7:1.0 46:1.0 67:1.0
0.20790695890452784 2:1.0 14:1.0 46:1.0 67:1.0
-0.2512370926962252 15:1.0 26:1.0 50:1.0
-0.2512370926962252 16:1.0 31:1.0 62:1.0 69:1.0 82:1.0
-0.2512370926962252 7:1.0 30:1.0
-0.2512370926962252 72:1.0 85:1.0
-0.2512370926962252 24:1.0 84:1.0
0.2512370926962252 2:1.0 3:1.0 13:1.0 19:1.0 56:1.0 66:1.0
0.2512370926962252 2:1.0 19:1.0 59:1.0 66:1.0
0.2512370926962252 2:1.0 18:1.0 19:1.0 59:1.0 66:1.0
0.14531114219710206 10:1.0 13:1.0 27:1.0 31:1.0 42:1.0 79:1.0
-0.24893707969261367 2:1.0 19:1.0 38:1.0 64:1.0
-0.2512370926962252 2:1.0 19:1.0 58:1.0
-0.2512370926962252 2:1.0 21:1.0 56:1.0
-0.2512370926962252 2:1.0 14:1.0 56:1.0
0.2512370926962252 72:1.0 85:1.0
0.2512370926962252 7:1.0 30:1.0 62:1.0 69:1.0
0.18966644651786946 3:1.0 7:1.0 13:1.0 30:1.0 62:1.0 69:1.0
0.2512370926962252 9:1.0 31:1.0 32:1.0 62:1.0 70:1.0
-0.2512370926962252 7:1.0 19:1.0 30:1.0 62:1.0
0.2512370926962252 2:1.0 14:1.0 56:1.0 69:1.0
0.2512370926962252 2:1.0 57:1.0
0.2512370926962252 2:1.0 15:1.0 22:1.0 48:1.0 68:1.0 77:1.0
0.0377141884270866 2:1.0 56:1.0 69:1.0
-0.2512370926962252 2:1.0
-0.23641570691505967 4:1.0 17:1.0 22:1.0 31:1.0 34:1.0
0.2512370926962252 38:1.0 40:1.0 51:1.0 88:1.0
0.2512370926962252 28:1.0 73:1.0 84:1.0
0.22011838286503646 74:1.0 84:1.0
0.2512370926962252 25:1.0 31:1.0 38:1.0 44:1.0 61:1.0
0.1554390200470806 3:1.0 7:1.0 13:1.0 58:1.0 69:1.0
-0.17310999715173078 29:1.0 38:1.0 54:1.0 88:1.0
-0.04987108195929796 29:1.0 38:1.0 44:1.0 53:1.0 84:1.0
-0.10338972413857556 8:1.0 23:1.0 29:1.0 32:1.0 35:1.0 52:1.0 70:1.0
0.1577387218432913 2:1.0 17:1.0 56:1.0 69:1.0 85:1.0
0.2110787976357965 3:1.0 22:1.0 48:1.0 68:1.0 76:1.0
0.2512370926962252 2:1.0 19:1.0 59:1.0 66:1.0
-0.2512370926962252 3:1.0 13:1.0 19:1.0 31:1.0 59:1.0
-0.2512370926962252 28:1.0
-0.2512370926962252 3:1.0 19:1.0 72:1.0 85:1.0
0.2512370926962252 21:1.0 32:1.0 70:1.0 81:1.0
0.21776290901173553 1:1.0 38:1.0 39:1.0 61:1.0
-0.21703743492904295 5:1.0 21:1.0 32:1.0 63:1.0 77:1.0
-0.2512370926962252 31:1.0 44:1.0
-0.20195860772884217 26:1.0 35:1.0 42:1.0 52:1.0
0.23571739622186896 11:1.0 33:1.0 35:1.0 41:1.0 71:1.0
0.15047409590126054 4:1.0 10:1.0 13:1.0 27:1.0 31:1.0 44:1.0
0.22106984299458002 10:1.0 27:1.0 43:1.0
-0.11018652176612266 29:1.0
0.16797650828050698 2:1.0 13:1.0 57:1.0 78:1.0
0.09140302414659898 46:1.0 52:1.0 73:1.0
-0.0479194464631797 28:1.0 31:1.0
0.13145924237511192 37:1.0 60:1.0 72:1.0 85:1.0
0.03962858699557938 18:1.0 37:1.0 59:1.0 72:1.0 85:1.0
-0.16809277905058545 30:1.0 34:1.0
-0.1109061413689878 29:1.0 43:1.0 89:1.0
0.038999874871763894 8:1.0 20:1.0 24:1.0 32:1.0 56:1.0 70:1.0
-0.018084143022053835 29:1.0 49:1.0 51:1.0
-0.009042071511027636 12:1.0 29:1.0 51:1.0 83:1.0
-0.14159159365851537 2:1.0 29:1.0 48:1.0
0.12797531408419757 3:1.0 8:1.0 22:1.0 32:1.0 70:1.0
0.01796985918518896 9:1.0 32:1.0 70:1.0
-0.03951335278618244 29:1.0 47:1.0 54:1.0
-0.009964452022353402 29:1.0
-0.025729883636682424 2:1.0 29:1.0 48:1.0
-0.022062971378653973 2:1.0 29:1.0 48:1.0
0.04286554529218535 20:1.0 73:1.0
0.05406001839588748 1:1.0 7:1.0 56:1.0 69:1.0
0.028129944776677268 32:1.0 51:1.0 70:1.0
