SVM-light Version V6.01
0 # kernel type
3 # kernel parameter -d
1.0 # kernel parameter -g
1.0 # kernel parameter -s
0.0 # kernel parameter -r
empty# kernel parameter -u
1729 # highest feature index
462 # number of training documents
155 # number of support vectors plus 1
0.1614332252380326 # threshold b, each following line is a SV (starting with alpha*y)
-0.02252122555896721 1:1.0 103:1.0 176:1.0 215:1.0 266:1.0 311:1.0 346:1.0 362:1.0 445:1.0 458:1.0 462:1.0 659:1.0 914:1.0 1083:1.0 1521:1.0 1678:1.0 1689:1.0
0.009104657955812796 2:1.0 3:1.0 172:1.0 222:1.0 304:1.0 315:1.0 320:1.0 354:1.0 377:1.0 391:1.0 417:1.0 447:1.0 472:1.0 482:1.0 700:1.0 846:1.0 1004:1.0 1181:1.0 1310:1.0 1341:1.0 1443:1.0 1678:1.0
-0.016951584846336305 171:1.0 201:1.0 306:1.0 384:1.0 444:1.0 445:1.0 462:1.0 472:1.0 836:1.0 1105:1.0 1162:1.0 1521:1.0 1667:1.0
-0.0026085730890815714 36:1.0 55:1.0 71:1.0 212:1.0 291:1.0 313:1.0 349:1.0 351:1.0 388:1.0 398:1.0 446:1.0 450:1.0 464:1.0 489:1.0 739:1.0 1142:1.0 1268:1.0 1298:1.0 1521:1.0 1622:1.0 1678:1.0 1726:1.0
-0.004253665811588292 55:1.0 85:1.0 251:1.0 284:1.0 291:1.0 388:1.0 398:1.0 426:1.0 464:1.0 531:1.0 670:1.0 688:1.0 726:1.0 739:1.0 1315:1.0 1341:1.0 1353:1.0 1521:1.0
-0.03126173555642079 2:1.0 3:1.0 9:1.0 28:1.0 39:1.0 47:1.0 79:1.0 156:1.0 257:1.0 307:1.0 319:1.0 320:1.0 365:1.0 375:1.0 406:1.0 427:1.0 430:1.0 432:1.0 445:1.0 465:1.0 472:1.0 591:1.0 646:1.0 836:1.0 925:1.0 1024:1.0 1195:1.0 1362:1.0 1372:1.0 1521:1.0 1535:1.0 1596:1.0 1690:1.0
-0.008550386828578487 1:1.0 3:1.0 21:1.0 114:1.0 185:1.0 311:1.0 339:1.0 375:1.0 427:1.0 433:1.0 435:1.0 473:1.0 596:1.0 1024:1.0 1049:1.0 1318:1.0 1521:1.0 1652:1.0
0.010383433024511321 2:1.0 3:1.0 55:1.0 59:1.0 118:1.0 140:1.0 238:1.0 261:1.0 291:1.0 315:1.0 320:1.0 380:1.0 388:1.0 391:1.0 398:1.0 434:1.0 457:1.0 464:1.0 502:1.0 646:1.0 648:1.0 670:1.0 718:1.0 739:1.0 888:1.0 1004:1.0 1063:1.0 1116:1.0 1341:1.0 1690:1.0
0.034617392254948275 13:1.0 131:1.0 277:1.0 309:1.0 311:1.0 351:1.0 416:1.0 417:1.0 419:1.0 460:1.0 464:1.0 482:1.0 668:1.0 708:1.0 847:1.0 950:1.0 957:1.0 1004:1.0 1601:1.0 1643:1.0 1690:1.0
0.043888863419037305 2:1.0 3:1.0 70:1.0 93:1.0 144:1.0 265:1.0 288:1.0 315:1.0 320:1.0 331:1.0 390:1.0 412:1.0 485:1.0 518:1.0 609:1.0 612:1.0 883:1.0 1051:1.0 1313:1.0 1344:1.0 1496:1.0 1521:1.0 1568:1.0
-0.044182075779017144 2:1.0 3:1.0 6:1.0 12:1.0 90:1.0 170:1.0 207:1.0 278:1.0 302:1.0 356:1.0 363:1.0 414:1.0 420:1.0 445:1.0 464:1.0 495:1.0 529:1.0 570:1.0 658:1.0 724:1.0 836:1.0 1004:1.0 1148:1.0 1341:1.0 1521:1.0 1690:1.0 1702:1.0
-8.922797137249829E-4 1:1.0 3:1.0 30:1.0 39:1.0 40:1.0 125:1.0 131:1.0 311:1.0 322:1.0 351:1.0 387:1.0 419:1.0 445:1.0 460:1.0 464:1.0 465:1.0 486:1.0 543:1.0 560:1.0 703:1.0 723:1.0 767:1.0 783:1.0 836:1.0 1180:1.0 1279:1.0 1521:1.0 1585:1.0 1596:1.0 1690:1.0
-0.0176028334069682 2:1.0 3:1.0 16:1.0 30:1.0 32:1.0 39:1.0 47:1.0 121:1.0 147:1.0 158:1.0 170:1.0 259:1.0 275:1.0 282:1.0 296:1.0 299:1.0 315:1.0 319:1.0 320:1.0 345:1.0 347:1.0 351:1.0 356:1.0 369:1.0 402:1.0 427:1.0 430:1.0 436:1.0 445:1.0 448:1.0 458:1.0 460:1.0 465:1.0 600:1.0 603:1.0 646:1.0 836:1.0 847:1.0 854:1.0 1124:1.0 1309:1.0 1345:1.0 1372:1.0 1408:1.0 1415:1.0 1521:1.0 1572:1.0 1596:1.0 1638:1.0 1653:1.0 1690:1.0 1691:1.0
-0.044182075779017144 2:1.0 3:1.0 292:1.0 320:1.0 334:1.0 337:1.0 459:1.0 700:1.0 813:1.0 1521:1.0 1633:1.0 1643:1.0 1678:1.0
-0.044182075779017144 2:1.0 3:1.0 40:1.0 302:1.0 445:1.0 464:1.0 658:1.0 697:1.0 836:1.0 925:1.0 1521:1.0 1690:1.0
0.010388754891043728 46:1.0 67:1.0 138:1.0 146:1.0 166:1.0 167:1.0 207:1.0 232:1.0 278:1.0 284:1.0 287:1.0 314:1.0 315:1.0 316:1.0 317:1.0 322:1.0 329:1.0 332:1.0 337:1.0 349:1.0 370:1.0 373:1.0 375:1.0 381:1.0 404:1.0 405:1.0 411:1.0 414:1.0 420:1.0 427:1.0 438:1.0 445:1.0 464:1.0 474:1.0 504:1.0 575:1.0 583:1.0 587:1.0 709:1.0 726:1.0 785:1.0 836:1.0 846:1.0 847:1.0 883:1.0 897:1.0 1004:1.0 1043:1.0 1050:1.0 1128:1.0 1165:1.0 1204:1.0 1279:1.0 1293:1.0 1322:1.0 1341:1.0 1344:1.0 1436:1.0 1596:1.0 1634:1.0 1662:1.0 1673:1.0 1691:1.0
0.044182075779017144 3:1.0 42:1.0 62:1.0 89:1.0 103:1.0 108:1.0 215:1.0 249:1.0 305:1.0 346:1.0 355:1.0 357:1.0 369:1.0 399:1.0 411:1.0 427:1.0 445:1.0 452:1.0 458:1.0 462:1.0 467:1.0 487:1.0 583:1.0 600:1.0 624:1.0 770:1.0 797:1.0 1024:1.0 1304:1.0 1308:1.0 1345:1.0 1412:1.0 1521:1.0 1559:1.0 1662:1.0 1691:1.0
0.044182075779017144 9:1.0 28:1.0 42:1.0 160:1.0 166:1.0 167:1.0 171:1.0 173:1.0 201:1.0 208:1.0 223:1.0 299:1.0 306:1.0 314:1.0 315:1.0 319:1.0 342:1.0 353:1.0 355:1.0 375:1.0 389:1.0 411:1.0 427:1.0 430:1.0 445:1.0 462:1.0 472:1.0 487:1.0 532:1.0 571:1.0 583:1.0 717:1.0 836:1.0 1004:1.0 1024:1.0 1037:1.0 1241:1.0 1273:1.0 1344:1.0 1372:1.0 1588:1.0 1633:1.0 1634:1.0 1643:1.0 1667:1.0 1691:1.0
0.044182075779017144 3:1.0 40:1.0 67:1.0 90:1.0 97:1.0 153:1.0 185:1.0 230:1.0 260:1.0 280:1.0 329:1.0 356:1.0 363:1.0 375:1.0 396:1.0 403:1.0 411:1.0 414:1.0 419:1.0 427:1.0 445:1.0 464:1.0 473:1.0 495:1.0 570:1.0 583:1.0 598:1.0 724:1.0 836:1.0 915:1.0 956:1.0 1049:1.0 1341:1.0 1342:1.0 1428:1.0 1501:1.0 1521:1.0 1577:1.0 1691:1.0
0.044182075779017144 67:1.0 271:1.0 277:1.0 351:1.0 375:1.0 411:1.0 427:1.0 443:1.0 464:1.0 630:1.0 633:1.0 866:1.0 1004:1.0 1293:1.0 1362:1.0 1693:1.0
-0.0030418680117509987 13:1.0 18:1.0 42:1.0 45:1.0 52:1.0 67:1.0 97:1.0 112:1.0 131:1.0 138:1.0 248:1.0 258:1.0 260:1.0 316:1.0 329:1.0 349:1.0 351:1.0 355:1.0 356:1.0 359:1.0 375:1.0 411:1.0 419:1.0 427:1.0 445:1.0 458:1.0 460:1.0 487:1.0 505:1.0 583:1.0 607:1.0 645:1.0 716:1.0 836:1.0 867:1.0 1024:1.0 1058:1.0 1063:1.0 1227:1.0 1521:1.0 1612:1.0 1637:1.0 1689:1.0 1691:1.0 1714:1.0
-0.021900248515744097 3:1.0 9:1.0 42:1.0 88:1.0 160:1.0 204:1.0 208:1.0 223:1.0 224:1.0 299:1.0 319:1.0 353:1.0 355:1.0 357:1.0 375:1.0 381:1.0 404:1.0 405:1.0 411:1.0 427:1.0 472:1.0 487:1.0 498:1.0 506:1.0 550:1.0 583:1.0 657:1.0 669:1.0 671:1.0 717:1.0 856:1.0 931:1.0 1043:1.0 1158:1.0 1260:1.0 1273:1.0 1279:1.0 1294:1.0 1310:1.0 1342:1.0 1372:1.0 1521:1.0 1691:1.0
-0.015451434200804467 20:1.0 30:1.0 40:1.0 53:1.0 167:1.0 311:1.0 314:1.0 315:1.0 397:1.0 445:1.0 460:1.0 464:1.0 664:1.0 708:1.0 836:1.0 904:1.0 1344:1.0 1362:1.0 1521:1.0 1690:1.0
0.026452755046999663 2:1.0 3:1.0 4:1.0 14:1.0 77:1.0 198:1.0 216:1.0 302:1.0 338:1.0 359:1.0 427:1.0 470:1.0 535:1.0 539:1.0 566:1.0 658:1.0 722:1.0 883:1.0 1004:1.0 1024:1.0 1302:1.0 1521:1.0 1690:1.0
-0.003239489679197847 1:1.0 183:1.0 194:1.0 219:1.0 278:1.0 291:1.0 311:1.0 313:1.0 328:1.0 399:1.0 420:1.0 438:1.0 464:1.0 491:1.0 739:1.0 1063:1.0 1268:1.0 1521:1.0 1643:1.0 1659:1.0 1690:1.0
0.044182075779017144 2:1.0 3:1.0 6:1.0 40:1.0 44:1.0 170:1.0 195:1.0 207:1.0 211:1.0 313:1.0 356:1.0 378:1.0 407:1.0 414:1.0 420:1.0 445:1.0 464:1.0 489:1.0 658:1.0 663:1.0 738:1.0 1148:1.0 1298:1.0 1307:1.0 1360:1.0 1389:1.0 1521:1.0 1690:1.0
0.044182075779017144 2:1.0 3:1.0 12:1.0 90:1.0 138:1.0 207:1.0 212:1.0 302:1.0 349:1.0 363:1.0 414:1.0 445:1.0 464:1.0 529:1.0 587:1.0 658:1.0 724:1.0 847:1.0 968:1.0 1341:1.0 1408:1.0 1521:1.0 1690:1.0
0.044182075779017144 3:1.0 11:1.0 31:1.0 212:1.0 349:1.0 451:1.0 464:1.0 479:1.0 483:1.0 545:1.0 569:1.0 620:1.0 1146:1.0 1158:1.0 1417:1.0 1521:1.0 1690:1.0
0.044182075779017144 2:1.0 3:1.0 12:1.0 90:1.0 91:1.0 168:1.0 207:1.0 302:1.0 304:1.0 336:1.0 363:1.0 414:1.0 445:1.0 472:1.0 495:1.0 529:1.0 570:1.0 628:1.0 650:1.0 658:1.0 724:1.0 836:1.0 1341:1.0 1362:1.0 1521:1.0 1590:1.0 1687:1.0 1690:1.0
0.044182075779017144 2:1.0 3:1.0 57:1.0 119:1.0 314:1.0 315:1.0 320:1.0 422:1.0 436:1.0 472:1.0 700:1.0 921:1.0 1310:1.0 1521:1.0 1535:1.0 1659:1.0 1678:1.0
-0.029186641402691966 131:1.0 213:1.0 230:1.0 277:1.0 309:1.0 318:1.0 351:1.0 384:1.0 414:1.0 419:1.0 444:1.0 464:1.0 587:1.0 847:1.0 1263:1.0 1329:1.0 1341:1.0 1443:1.0 1521:1.0
-0.044182075779017144 2:1.0 3:1.0 26:1.0 44:1.0 172:1.0 304:1.0 313:1.0 320:1.0 354:1.0 420:1.0 453:1.0 476:1.0 489:1.0 700:1.0 1341:1.0 1389:1.0 1509:1.0 1521:1.0 1659:1.0 1678:1.0
-0.021955168245723203 78:1.0 131:1.0 190:1.0 195:1.0 230:1.0 243:1.0 277:1.0 313:1.0 351:1.0 414:1.0 419:1.0 426:1.0 445:1.0 464:1.0 489:1.0 692:1.0 782:1.0 847:1.0 946:1.0 1202:1.0 1461:1.0 1488:1.0 1521:1.0
-0.017394579909120265 1:1.0 40:1.0 108:1.0 215:1.0 219:1.0 249:1.0 305:1.0 311:1.0 346:1.0 399:1.0 445:1.0 464:1.0 1146:1.0 1173:1.0 1308:1.0 1521:1.0
-0.044182075779017144 3:1.0 54:1.0 293:1.0 300:1.0 308:1.0 309:1.0 378:1.0 445:1.0 461:1.0 472:1.0 924:1.0 1049:1.0 1219:1.0 1341:1.0 1362:1.0 1521:1.0 1596:1.0 1717:1.0
0.012316637299817666 3:1.0 147:1.0 149:1.0 296:1.0 315:1.0 324:1.0 350:1.0 351:1.0 380:1.0 391:1.0 446:1.0 458:1.0 482:1.0 567:1.0 1004:1.0 1029:1.0 1136:1.0 1214:1.0 1219:1.0 1341:1.0 1370:1.0 1500:1.0
0.044182075779017144 2:1.0 3:1.0 9:1.0 144:1.0 263:1.0 265:1.0 290:1.0 319:1.0 320:1.0 331:1.0 375:1.0 412:1.0 427:1.0 485:1.0 518:1.0 609:1.0 612:1.0 883:1.0 1129:1.0 1313:1.0 1344:1.0 1521:1.0 1691:1.0
0.021198323143313075 3:1.0 84:1.0 145:1.0 148:1.0 194:1.0 198:1.0 254:1.0 259:1.0 291:1.0 315:1.0 317:1.0 328:1.0 380:1.0 391:1.0 398:1.0 399:1.0 411:1.0 427:1.0 448:1.0 465:1.0 470:1.0 519:1.0 583:1.0 672:1.0 679:1.0 739:1.0 923:1.0 1004:1.0 1029:1.0 1158:1.0 1262:1.0 1273:1.0 1279:1.0 1294:1.0 1411:1.0 1596:1.0 1691:1.0
0.013806429818351364 3:1.0 32:1.0 42:1.0 160:1.0 173:1.0 208:1.0 223:1.0 277:1.0 299:1.0 319:1.0 351:1.0 353:1.0 355:1.0 369:1.0 389:1.0 411:1.0 427:1.0 430:1.0 464:1.0 487:1.0 498:1.0 506:1.0 532:1.0 550:1.0 571:1.0 583:1.0 657:1.0 671:1.0 717:1.0 856:1.0 1004:1.0 1029:1.0 1249:1.0 1273:1.0 1372:1.0 1422:1.0 1634:1.0 1691:1.0 1718:1.0 1719:1.0
0.044182075779017144 2:1.0 3:1.0 21:1.0 139:1.0 159:1.0 217:1.0 259:1.0 263:1.0 290:1.0 314:1.0 315:1.0 319:1.0 320:1.0 359:1.0 375:1.0 385:1.0 393:1.0 394:1.0 427:1.0 435:1.0 448:1.0 556:1.0 588:1.0 594:1.0 612:1.0 883:1.0 1049:1.0 1173:1.0 1288:1.0 1304:1.0 1313:1.0 1344:1.0 1484:1.0 1521:1.0 1691:1.0 1718:1.0
-0.029690855548852133 2:1.0 3:1.0 9:1.0 28:1.0 30:1.0 40:1.0 47:1.0 188:1.0 319:1.0 320:1.0 343:1.0 375:1.0 427:1.0 430:1.0 445:1.0 459:1.0 460:1.0 464:1.0 633:1.0 646:1.0 836:1.0 873:1.0 883:1.0 1024:1.0 1293:1.0 1419:1.0 1521:1.0 1632:1.0 1690:1.0
-0.015704980954920008 3:1.0 20:1.0 30:1.0 56:1.0 61:1.0 89:1.0 304:1.0 315:1.0 369:1.0 411:1.0 427:1.0 435:1.0 445:1.0 460:1.0 462:1.0 468:1.0 583:1.0 596:1.0 836:1.0 851:1.0 921:1.0 1024:1.0 1049:1.0 1087:1.0 1148:1.0 1344:1.0 1521:1.0 1535:1.0 1617:1.0 1691:1.0
-0.03757913823754157 3:1.0 24:1.0 67:1.0 98:1.0 166:1.0 167:1.0 182:1.0 290:1.0 296:1.0 314:1.0 315:1.0 337:1.0 351:1.0 375:1.0 389:1.0 411:1.0 427:1.0 428:1.0 450:1.0 504:1.0 583:1.0 709:1.0 883:1.0 1029:1.0 1058:1.0 1344:1.0 1459:1.0 1521:1.0 1634:1.0 1648:1.0 1691:1.0
-0.010115586399418938 3:1.0 60:1.0 137:1.0 148:1.0 159:1.0 175:1.0 212:1.0 225:1.0 247:1.0 259:1.0 299:1.0 307:1.0 315:1.0 349:1.0 361:1.0 390:1.0 393:1.0 411:1.0 413:1.0 448:1.0 456:1.0 464:1.0 583:1.0 705:1.0 1029:1.0 1032:1.0 1140:1.0 1326:1.0 1329:1.0 1372:1.0 1463:1.0 1521:1.0 1634:1.0 1648:1.0 1691:1.0
-0.022897093811423963 3:1.0 32:1.0 319:1.0 321:1.0 333:1.0 369:1.0 426:1.0 427:1.0 430:1.0 662:1.0 1315:1.0 1338:1.0 1345:1.0 1420:1.0 1421:1.0 1521:1.0 1691:1.0
0.044182075779017144 3:1.0 79:1.0 103:1.0 115:1.0 239:1.0 301:1.0 310:1.0 316:1.0 349:1.0 355:1.0 364:1.0 406:1.0 413:1.0 420:1.0 445:1.0 446:1.0 458:1.0 462:1.0 480:1.0 749:1.0 797:1.0 840:1.0 855:1.0 914:1.0 1049:1.0 1136:1.0 1372:1.0 1480:1.0 1486:1.0 1521:1.0 1662:1.0 1667:1.0 1678:1.0
0.029799228038675053 3:1.0 18:1.0 29:1.0 30:1.0 42:1.0 81:1.0 86:1.0 190:1.0 277:1.0 295:1.0 348:1.0 351:1.0 355:1.0 426:1.0 445:1.0 460:1.0 464:1.0 487:1.0 712:1.0 774:1.0 836:1.0 1004:1.0 1026:1.0 1034:1.0 1061:1.0 1196:1.0 1372:1.0 1398:1.0 1441:1.0 1663:1.0
0.02422385092018003 3:1.0 7:1.0 29:1.0 42:1.0 81:1.0 190:1.0 278:1.0 295:1.0 355:1.0 381:1.0 420:1.0 426:1.0 445:1.0 464:1.0 487:1.0 712:1.0 1004:1.0 1026:1.0 1441:1.0 1538:1.0 1659:1.0 1663:1.0 1670:1.0 1671:1.0
0.012760016757660796 10:1.0 55:1.0 291:1.0 308:1.0 315:1.0 336:1.0 357:1.0 388:1.0 395:1.0 398:1.0 439:1.0 452:1.0 1004:1.0 1063:1.0 1086:1.0 1098:1.0 1341:1.0 1690:1.0 1714:1.0 1729:1.0
0.044182075779017144 311:1.0 372:1.0 402:1.0 416:1.0 442:1.0 583:1.0 653:1.0 695:1.0 904:1.0 1004:1.0 1659:1.0 1690:1.0
-0.044182075779017144 3:1.0 31:1.0 76:1.0 164:1.0 202:1.0 278:1.0 286:1.0 399:1.0 420:1.0 427:1.0 451:1.0 464:1.0 483:1.0 554:1.0 556:1.0 618:1.0 689:1.0 690:1.0 925:1.0 1024:1.0 1173:1.0 1304:1.0 1521:1.0 1659:1.0 1690:1.0
-0.044182075779017144 3:1.0 31:1.0 257:1.0 259:1.0 315:1.0 365:1.0 448:1.0 451:1.0 472:1.0 483:1.0 593:1.0 618:1.0 1026:1.0 1484:1.0 1521:1.0 1535:1.0 1690:1.0 1722:1.0
-0.004444059178736118 3:1.0 22:1.0 40:1.0 42:1.0 48:1.0 87:1.0 97:1.0 194:1.0 220:1.0 260:1.0 291:1.0 299:1.0 301:1.0 319:1.0 328:1.0 329:1.0 355:1.0 356:1.0 390:1.0 399:1.0 445:1.0 446:1.0 464:1.0 487:1.0 644:1.0 739:1.0 868:1.0 897:1.0 915:1.0 1110:1.0 1155:1.0 1219:1.0 1372:1.0 1433:1.0 1521:1.0 1540:1.0 1587:1.0 1691:1.0
-0.044182075779017144 2:1.0 3:1.0 12:1.0 55:1.0 118:1.0 161:1.0 238:1.0 261:1.0 291:1.0 302:1.0 363:1.0 388:1.0 398:1.0 434:1.0 457:1.0 464:1.0 529:1.0 547:1.0 611:1.0 658:1.0 724:1.0 739:1.0 1063:1.0 1116:1.0 1341:1.0 1518:1.0 1521:1.0 1690:1.0
-0.025789612229183613 3:1.0 6:1.0 92:1.0 184:1.0 210:1.0 235:1.0 255:1.0 283:1.0 285:1.0 296:1.0 351:1.0 355:1.0 356:1.0 413:1.0 420:1.0 458:1.0 468:1.0 475:1.0 635:1.0 879:1.0 915:1.0 1148:1.0 1283:1.0 1521:1.0 1538:1.0 1663:1.0 1723:1.0
0.044182075779017144 3:1.0 31:1.0 88:1.0 113:1.0 142:1.0 164:1.0 321:1.0 357:1.0 381:1.0 427:1.0 451:1.0 455:1.0 483:1.0 500:1.0 618:1.0 635:1.0 1024:1.0 1439:1.0 1521:1.0 1690:1.0 1691:1.0 1714:1.0
0.044182075779017144 3:1.0 31:1.0 88:1.0 113:1.0 142:1.0 164:1.0 321:1.0 357:1.0 381:1.0 427:1.0 451:1.0 455:1.0 483:1.0 500:1.0 618:1.0 635:1.0 1024:1.0 1129:1.0 1521:1.0 1690:1.0 1691:1.0 1714:1.0
0.044182075779017144 3:1.0 31:1.0 74:1.0 76:1.0 164:1.0 321:1.0 399:1.0 427:1.0 451:1.0 455:1.0 483:1.0 554:1.0 618:1.0 641:1.0 689:1.0 1024:1.0 1130:1.0 1173:1.0 1521:1.0 1690:1.0
0.044182075779017144 2:1.0 3:1.0 107:1.0 193:1.0 197:1.0 207:1.0 273:1.0 320:1.0 326:1.0 414:1.0 424:1.0 428:1.0 445:1.0 450:1.0 461:1.0 484:1.0 570:1.0 700:1.0 753:1.0 836:1.0 886:1.0 1159:1.0 1341:1.0 1467:1.0 1521:1.0 1678:1.0
-0.029467594798929832 1:1.0 3:1.0 21:1.0 88:1.0 114:1.0 142:1.0 185:1.0 311:1.0 321:1.0 339:1.0 343:1.0 357:1.0 373:1.0 375:1.0 381:1.0 427:1.0 435:1.0 455:1.0 473:1.0 596:1.0 721:1.0 770:1.0 783:1.0 1024:1.0 1049:1.0 1119:1.0 1318:1.0 1521:1.0 1539:1.0 1652:1.0 1714:1.0
-0.044182075779017144 3:1.0 4:1.0 74:1.0 93:1.0 160:1.0 254:1.0 315:1.0 321:1.0 331:1.0 399:1.0 411:1.0 455:1.0 487:1.0 583:1.0 883:1.0 1024:1.0 1309:1.0 1344:1.0 1521:1.0 1691:1.0
-0.0025998916098428568 1:1.0 88:1.0 142:1.0 191:1.0 311:1.0 321:1.0 343:1.0 357:1.0 381:1.0 455:1.0 699:1.0 721:1.0 770:1.0 1521:1.0 1539:1.0 1593:1.0 1714:1.0
-0.023562843864969527 30:1.0 86:1.0 242:1.0 271:1.0 321:1.0 348:1.0 357:1.0 375:1.0 400:1.0 427:1.0 443:1.0 445:1.0 455:1.0 460:1.0 477:1.0 583:1.0 624:1.0 633:1.0 853:1.0 995:1.0 1024:1.0 1173:1.0 1243:1.0 1293:1.0 1307:1.0 1372:1.0 1521:1.0 1690:1.0
-0.008378983533535188 1:1.0 3:1.0 21:1.0 27:1.0 39:1.0 97:1.0 105:1.0 145:1.0 150:1.0 217:1.0 232:1.0 263:1.0 290:1.0 311:1.0 317:1.0 329:1.0 373:1.0 375:1.0 381:1.0 394:1.0 399:1.0 427:1.0 432:1.0 435:1.0 445:1.0 447:1.0 465:1.0 474:1.0 588:1.0 596:1.0 615:1.0 619:1.0 656:1.0 699:1.0 745:1.0 776:1.0 783:1.0 897:1.0 984:1.0 1024:1.0 1049:1.0 1092:1.0 1173:1.0 1309:1.0 1310:1.0 1521:1.0 1593:1.0 1596:1.0 1637:1.0
0.044182075779017144 2:1.0 124:1.0 139:1.0 151:1.0 205:1.0 216:1.0 315:1.0 320:1.0 359:1.0 385:1.0 393:1.0 413:1.0 427:1.0 464:1.0 612:1.0 883:1.0 984:1.0 1026:1.0 1283:1.0 1313:1.0 1521:1.0
0.0407122021366147 30:1.0 39:1.0 127:1.0 165:1.0 229:1.0 251:1.0 272:1.0 275:1.0 284:1.0 293:1.0 299:1.0 315:1.0 379:1.0 395:1.0 425:1.0 426:1.0 445:1.0 460:1.0 464:1.0 465:1.0 531:1.0 655:1.0 684:1.0 688:1.0 691:1.0 726:1.0 847:1.0 925:1.0 1004:1.0 1315:1.0 1341:1.0 1344:1.0 1362:1.0 1372:1.0 1566:1.0 1587:1.0 1596:1.0
0.044182075779017144 2:1.0 3:1.0 24:1.0 92:1.0 197:1.0 237:1.0 296:1.0 313:1.0 320:1.0 351:1.0 420:1.0 428:1.0 450:1.0 468:1.0 491:1.0 496:1.0 565:1.0 575:1.0 700:1.0 865:1.0 962:1.0 1146:1.0 1148:1.0 1156:1.0 1293:1.0 1521:1.0 1678:1.0
0.0024659130244484313 3:1.0 40:1.0 70:1.0 93:1.0 97:1.0 104:1.0 260:1.0 315:1.0 329:1.0 331:1.0 341:1.0 356:1.0 360:1.0 390:1.0 410:1.0 437:1.0 445:1.0 456:1.0 464:1.0 598:1.0 836:1.0 868:1.0 915:1.0 1004:1.0 1082:1.0 1156:1.0 1263:1.0 1544:1.0 1567:1.0 1587:1.0 1597:1.0 1690:1.0
-0.044182075779017144 2:1.0 3:1.0 188:1.0 197:1.0 292:1.0 320:1.0 375:1.0 427:1.0 428:1.0 450:1.0 459:1.0 553:1.0 580:1.0 700:1.0 713:1.0 1218:1.0 1440:1.0 1521:1.0 1643:1.0 1678:1.0 1691:1.0
-0.044182075779017144 2:1.0 168:1.0 172:1.0 304:1.0 320:1.0 354:1.0 472:1.0 612:1.0 1313:1.0 1322:1.0 1521:1.0
-0.044182075779017144 64:1.0 138:1.0 157:1.0 207:1.0 212:1.0 349:1.0 374:1.0 411:1.0 414:1.0 427:1.0 445:1.0 464:1.0 558:1.0 847:1.0 848:1.0 1521:1.0 1554:1.0
0.044182075779017144 162:1.0 165:1.0 257:1.0 299:1.0 365:1.0 367:1.0 411:1.0 425:1.0 427:1.0 472:1.0 655:1.0 848:1.0 1004:1.0 1156:1.0 1372:1.0 1439:1.0 1566:1.0
0.044182075779017144 384:1.0 444:1.0 484:1.0 1004:1.0 1219:1.0
0.02399825681082414 54:1.0 185:1.0 229:1.0 240:1.0 300:1.0 308:1.0 347:1.0 358:1.0 375:1.0 379:1.0 427:1.0 432:1.0 464:1.0 473:1.0 684:1.0 1004:1.0 1024:1.0 1043:1.0 1119:1.0 1318:1.0 1362:1.0 1596:1.0 1634:1.0 1690:1.0
-0.0012788980480134791 3:1.0 27:1.0 67:1.0 78:1.0 204:1.0 244:1.0 299:1.0 313:1.0 323:1.0 375:1.0 381:1.0 411:1.0 427:1.0 429:1.0 445:1.0 447:1.0 466:1.0 472:1.0 490:1.0 583:1.0 683:1.0 704:1.0 836:1.0 1056:1.0 1106:1.0 1129:1.0 1272:1.0 1310:1.0 1372:1.0 1521:1.0 1634:1.0 1661:1.0 1691:1.0
-0.023183642794038097 262:1.0 273:1.0 326:1.0 384:1.0 417:1.0 424:1.0 444:1.0 482:1.0 484:1.0 885:1.0 1341:1.0 1498:1.0 1521:1.0 1600:1.0 1673:1.0
-0.017052662426978955 165:1.0 213:1.0 234:1.0 299:1.0 309:1.0 318:1.0 371:1.0 384:1.0 425:1.0 444:1.0 470:1.0 655:1.0 944:1.0 1119:1.0 1341:1.0 1372:1.0 1521:1.0 1566:1.0
-0.044182075779017144 74:1.0 254:1.0 315:1.0 321:1.0 399:1.0 446:1.0 455:1.0 883:1.0 1158:1.0 1521:1.0 1678:1.0
-0.005098789634365833 190:1.0 287:1.0 332:1.0 341:1.0 379:1.0 420:1.0 426:1.0 445:1.0 461:1.0 484:1.0 692:1.0 767:1.0 915:1.0 1339:1.0 1461:1.0 1475:1.0 1521:1.0 1558:1.0 1596:1.0 1696:1.0
-0.023144830827403918 70:1.0 111:1.0 251:1.0 272:1.0 284:1.0 293:1.0 315:1.0 372:1.0 390:1.0 426:1.0 688:1.0 923:1.0 1315:1.0 1344:1.0 1362:1.0 1521:1.0 1618:1.0
0.044182075779017144 2:1.0 3:1.0 144:1.0 265:1.0 320:1.0 331:1.0 334:1.0 390:1.0 409:1.0 412:1.0 456:1.0 485:1.0 518:1.0 609:1.0 612:1.0 883:1.0 1313:1.0 1344:1.0 1459:1.0 1521:1.0 1587:1.0
0.044182075779017144 45:1.0 67:1.0 231:1.0 321:1.0 359:1.0 375:1.0 411:1.0 427:1.0 455:1.0 630:1.0 1004:1.0 1634:1.0 1693:1.0 1729:1.0
-0.03854374644046154 3:1.0 42:1.0 45:1.0 67:1.0 68:1.0 208:1.0 258:1.0 353:1.0 355:1.0 359:1.0 375:1.0 382:1.0 411:1.0 427:1.0 484:1.0 487:1.0 583:1.0 797:1.0 999:1.0 1288:1.0 1372:1.0 1521:1.0 1601:1.0 1691:1.0
-0.027499966907641022 3:1.0 37:1.0 42:1.0 62:1.0 109:1.0 237:1.0 296:1.0 351:1.0 352:1.0 355:1.0 357:1.0 381:1.0 443:1.0 446:1.0 468:1.0 474:1.0 481:1.0 487:1.0 639:1.0 712:1.0 1026:1.0 1043:1.0 1155:1.0 1156:1.0 1219:1.0 1264:1.0 1293:1.0 1499:1.0 1521:1.0 1596:1.0 1659:1.0 1663:1.0
-0.001960980541724871 40:1.0 67:1.0 79:1.0 185:1.0 201:1.0 239:1.0 306:1.0 375:1.0 406:1.0 411:1.0 425:1.0 427:1.0 429:1.0 445:1.0 462:1.0 464:1.0 473:1.0 494:1.0 561:1.0 591:1.0 604:1.0 655:1.0 836:1.0 897:1.0 1318:1.0 1372:1.0 1438:1.0 1476:1.0 1521:1.0 1566:1.0 1689:1.0 1693:1.0
-0.011864800500216384 29:1.0 60:1.0 97:1.0 103:1.0 104:1.0 110:1.0 137:1.0 156:1.0 170:1.0 179:1.0 203:1.0 225:1.0 260:1.0 295:1.0 299:1.0 307:1.0 329:1.0 356:1.0 375:1.0 390:1.0 400:1.0 427:1.0 437:1.0 445:1.0 456:1.0 458:1.0 462:1.0 522:1.0 532:1.0 571:1.0 584:1.0 697:1.0 717:1.0 748:1.0 836:1.0 912:1.0 1081:1.0 1123:1.0 1148:1.0 1273:1.0 1343:1.0 1372:1.0 1521:1.0 1597:1.0 1634:1.0 1655:1.0 1691:1.0
-0.014149815930392039 53:1.0 111:1.0 167:1.0 311:1.0 314:1.0 315:1.0 372:1.0 390:1.0 397:1.0 432:1.0 708:1.0 866:1.0 945:1.0 1344:1.0 1521:1.0 1587:1.0 1596:1.0 1690:1.0
-0.020514833536867692 53:1.0 70:1.0 167:1.0 278:1.0 311:1.0 314:1.0 315:1.0 330:1.0 390:1.0 397:1.0 420:1.0 464:1.0 708:1.0 984:1.0 1206:1.0 1344:1.0 1521:1.0 1587:1.0 1653:1.0 1690:1.0
0.044182075779017144 3:1.0 152:1.0 309:1.0 318:1.0 372:1.0 384:1.0 424:1.0 428:1.0 444:1.0 450:1.0 713:1.0 1004:1.0 1029:1.0 1218:1.0 1341:1.0
0.024404578802935197 3:1.0 78:1.0 123:1.0 129:1.0 243:1.0 245:1.0 313:1.0 378:1.0 400:1.0 445:1.0 470:1.0 482:1.0 489:1.0 748:1.0 923:1.0 984:1.0 1004:1.0 1049:1.0 1590:1.0 1666:1.0
0.011803894788292867 2:1.0 3:1.0 172:1.0 184:1.0 285:1.0 304:1.0 320:1.0 354:1.0 420:1.0 458:1.0 514:1.0 665:1.0 700:1.0 837:1.0 1004:1.0 1142:1.0 1498:1.0 1568:1.0 1678:1.0
0.0028110047954805865 2:1.0 3:1.0 6:1.0 12:1.0 112:1.0 241:1.0 278:1.0 302:1.0 351:1.0 356:1.0 363:1.0 420:1.0 449:1.0 464:1.0 542:1.0 585:1.0 610:1.0 915:1.0 972:1.0 1004:1.0 1191:1.0 1315:1.0 1341:1.0 1424:1.0
-0.028154940101840126 34:1.0 102:1.0 295:1.0 336:1.0 369:1.0 427:1.0 444:1.0 472:1.0 984:1.0 1207:1.0 1217:1.0 1521:1.0 1690:1.0 1691:1.0
-0.014950351131113211 3:1.0 40:1.0 79:1.0 154:1.0 208:1.0 353:1.0 355:1.0 406:1.0 444:1.0 445:1.0 464:1.0 497:1.0 517:1.0 591:1.0 622:1.0 675:1.0 836:1.0 868:1.0 898:1.0 1129:1.0 1372:1.0 1521:1.0 1690:1.0 1691:1.0
0.016727154743037227 3:1.0 37:1.0 93:1.0 97:1.0 133:1.0 292:1.0 310:1.0 315:1.0 325:1.0 329:1.0 331:1.0 343:1.0 392:1.0 445:1.0 446:1.0 471:1.0 474:1.0 710:1.0 855:1.0 1004:1.0 1049:1.0 1322:1.0 1352:1.0 1587:1.0 1596:1.0 1659:1.0 1662:1.0 1663:1.0 1678:1.0
-0.018544106769380352 64:1.0 151:1.0 165:1.0 247:1.0 299:1.0 371:1.0 374:1.0 411:1.0 413:1.0 425:1.0 427:1.0 464:1.0 583:1.0 655:1.0 691:1.0 694:1.0 803:1.0 1169:1.0 1341:1.0 1372:1.0 1521:1.0 1566:1.0 1587:1.0
-0.010681058320272425 58:1.0 67:1.0 127:1.0 131:1.0 224:1.0 273:1.0 276:1.0 351:1.0 375:1.0 379:1.0 405:1.0 411:1.0 419:1.0 424:1.0 427:1.0 465:1.0 484:1.0 563:1.0 630:1.0 730:1.0 847:1.0 944:1.0 1139:1.0 1318:1.0 1389:1.0 1521:1.0 1596:1.0 1693:1.0
-0.02180631785980371 51:1.0 148:1.0 151:1.0 159:1.0 167:1.0 259:1.0 314:1.0 315:1.0 393:1.0 411:1.0 413:1.0 448:1.0 464:1.0 519:1.0 583:1.0 672:1.0 883:1.0 1262:1.0 1273:1.0 1344:1.0 1498:1.0 1521:1.0 1691:1.0
0.00295107362529778 6:1.0 212:1.0 214:1.0 216:1.0 291:1.0 299:1.0 313:1.0 323:1.0 349:1.0 356:1.0 357:1.0 359:1.0 360:1.0 362:1.0 386:1.0 400:1.0 420:1.0 427:1.0 439:1.0 447:1.0 464:1.0 491:1.0 739:1.0 747:1.0 795:1.0 925:1.0 1004:1.0 1026:1.0 1119:1.0 1202:1.0 1293:1.0 1372:1.0 1421:1.0 1484:1.0 1530:1.0 1537:1.0 1565:1.0 1567:1.0 1671:1.0 1714:1.0
0.021954281604174265 3:1.0 74:1.0 76:1.0 84:1.0 132:1.0 135:1.0 148:1.0 194:1.0 254:1.0 259:1.0 291:1.0 315:1.0 321:1.0 328:1.0 344:1.0 399:1.0 411:1.0 422:1.0 427:1.0 448:1.0 455:1.0 465:1.0 519:1.0 583:1.0 666:1.0 672:1.0 679:1.0 739:1.0 888:1.0 921:1.0 1004:1.0 1024:1.0 1158:1.0 1262:1.0 1273:1.0 1338:1.0 1535:1.0 1596:1.0 1691:1.0
-0.01816714074593951 69:1.0 71:1.0 120:1.0 180:1.0 245:1.0 291:1.0 298:1.0 313:1.0 349:1.0 411:1.0 464:1.0 482:1.0 489:1.0 630:1.0 888:1.0 1061:1.0 1341:1.0 1417:1.0 1441:1.0 1521:1.0
-0.009731349000817235 82:1.0 267:1.0 288:1.0 298:1.0 312:1.0 334:1.0 372:1.0 411:1.0 480:1.0 720:1.0 1159:1.0 1260:1.0 1333:1.0 1441:1.0 1521:1.0 1667:1.0
-0.010704341673872471 67:1.0 152:1.0 166:1.0 264:1.0 314:1.0 372:1.0 375:1.0 411:1.0 427:1.0 450:1.0 630:1.0 633:1.0 1293:1.0 1373:1.0 1509:1.0 1521:1.0 1693:1.0
-0.028676665070618113 3:1.0 18:1.0 42:1.0 142:1.0 160:1.0 321:1.0 355:1.0 357:1.0 411:1.0 455:1.0 460:1.0 487:1.0 583:1.0 686:1.0 883:1.0 1024:1.0 1521:1.0 1653:1.0 1659:1.0 1663:1.0 1691:1.0
-0.0025404234597339696 3:1.0 35:1.0 42:1.0 65:1.0 67:1.0 166:1.0 167:1.0 254:1.0 314:1.0 315:1.0 355:1.0 375:1.0 399:1.0 411:1.0 427:1.0 470:1.0 487:1.0 504:1.0 577:1.0 583:1.0 680:1.0 709:1.0 883:1.0 1344:1.0 1439:1.0 1521:1.0 1637:1.0 1663:1.0 1691:1.0
0.034887389205895354 278:1.0 336:1.0 404:1.0 410:1.0 420:1.0 453:1.0 464:1.0 1004:1.0 1043:1.0 1050:1.0 1180:1.0 1484:1.0 1690:1.0
0.007388005556408366 80:1.0 97:1.0 103:1.0 112:1.0 131:1.0 179:1.0 260:1.0 282:1.0 311:1.0 323:1.0 329:1.0 332:1.0 351:1.0 356:1.0 371:1.0 386:1.0 402:1.0 416:1.0 419:1.0 445:1.0 458:1.0 462:1.0 469:1.0 697:1.0 708:1.0 711:1.0 776:1.0 785:1.0 836:1.0 890:1.0 912:1.0 1004:1.0 1034:1.0 1066:1.0 1148:1.0 1165:1.0 1187:1.0 1202:1.0 1302:1.0 1372:1.0 1448:1.0 1554:1.0 1567:1.0 1633:1.0 1653:1.0 1659:1.0 1664:1.0 1686:1.0 1690:1.0
0.007589732694227008 4:1.0 30:1.0 40:1.0 106:1.0 200:1.0 216:1.0 311:1.0 359:1.0 397:1.0 427:1.0 445:1.0 460:1.0 464:1.0 521:1.0 668:1.0 708:1.0 722:1.0 847:1.0 1004:1.0 1024:1.0 1063:1.0 1643:1.0 1690:1.0
0.008687172939422156 3:1.0 80:1.0 131:1.0 147:1.0 177:1.0 296:1.0 310:1.0 329:1.0 351:1.0 410:1.0 419:1.0 458:1.0 836:1.0 928:1.0 1004:1.0 1049:1.0 1123:1.0 1459:1.0 1559:1.0
-0.007609639331495801 148:1.0 159:1.0 259:1.0 297:1.0 315:1.0 316:1.0 349:1.0 393:1.0 409:1.0 411:1.0 448:1.0 519:1.0 583:1.0 672:1.0 1032:1.0 1236:1.0 1262:1.0 1288:1.0 1291:1.0 1430:1.0 1521:1.0 1691:1.0
0.0022418653916455537 2:1.0 3:1.0 95:1.0 175:1.0 228:1.0 247:1.0 252:1.0 297:1.0 299:1.0 320:1.0 322:1.0 361:1.0 370:1.0 373:1.0 413:1.0 464:1.0 507:1.0 700:1.0 705:1.0 749:1.0 783:1.0 1004:1.0 1112:1.0 1237:1.0 1309:1.0 1372:1.0 1678:1.0
-0.02062153331443639 85:1.0 214:1.0 221:1.0 270:1.0 291:1.0 356:1.0 357:1.0 439:1.0 464:1.0 482:1.0 692:1.0 707:1.0 739:1.0 915:1.0 984:1.0 1313:1.0 1341:1.0 1521:1.0
-0.013893620718874601 3:1.0 45:1.0 67:1.0 78:1.0 216:1.0 313:1.0 333:1.0 359:1.0 369:1.0 375:1.0 411:1.0 427:1.0 429:1.0 445:1.0 466:1.0 478:1.0 583:1.0 836:1.0 1029:1.0 1184:1.0 1288:1.0 1435:1.0 1521:1.0 1634:1.0 1691:1.0
-0.008842469372520843 85:1.0 214:1.0 286:1.0 291:1.0 357:1.0 377:1.0 384:1.0 439:1.0 444:1.0 464:1.0 624:1.0 739:1.0 1024:1.0 1273:1.0 1334:1.0 1521:1.0 1662:1.0
-0.01692851543612669 51:1.0 80:1.0 131:1.0 206:1.0 260:1.0 277:1.0 315:1.0 329:1.0 351:1.0 356:1.0 413:1.0 419:1.0 446:1.0 464:1.0 846:1.0 957:1.0 1172:1.0 1268:1.0 1521:1.0 1535:1.0 1659:1.0 1670:1.0
-0.007570191217072481 2:1.0 3:1.0 29:1.0 30:1.0 47:1.0 110:1.0 185:1.0 250:1.0 291:1.0 295:1.0 313:1.0 319:1.0 320:1.0 375:1.0 427:1.0 430:1.0 433:1.0 445:1.0 460:1.0 473:1.0 489:1.0 646:1.0 718:1.0 723:1.0 739:1.0 836:1.0 1063:1.0 1230:1.0 1309:1.0 1342:1.0 1389:1.0 1513:1.0 1521:1.0 1690:1.0 1691:1.0
0.005720989235315492 3:1.0 4:1.0 158:1.0 276:1.0 286:1.0 314:1.0 319:1.0 321:1.0 351:1.0 368:1.0 402:1.0 411:1.0 432:1.0 455:1.0 465:1.0 630:1.0 741:1.0 883:1.0 1004:1.0 1024:1.0 1268:1.0 1273:1.0 1344:1.0 1596:1.0 1693:1.0
0.017084142442186208 200:1.0 274:1.0 294:1.0 311:1.0 359:1.0 372:1.0 397:1.0 492:1.0 606:1.0 660:1.0 887:1.0 1004:1.0 1024:1.0 1690:1.0
0.005908627004684825 3:1.0 6:1.0 20:1.0 30:1.0 50:1.0 97:1.0 131:1.0 170:1.0 179:1.0 228:1.0 259:1.0 278:1.0 315:1.0 322:1.0 329:1.0 344:1.0 351:1.0 356:1.0 373:1.0 383:1.0 414:1.0 419:1.0 420:1.0 421:1.0 444:1.0 445:1.0 448:1.0 460:1.0 462:1.0 464:1.0 468:1.0 570:1.0 666:1.0 711:1.0 785:1.0 822:1.0 836:1.0 897:1.0 921:1.0 1004:1.0 1024:1.0 1167:1.0 1190:1.0 1256:1.0 1279:1.0 1341:1.0 1378:1.0 1411:1.0 1484:1.0 1653:1.0
0.012683752459877913 246:1.0 311:1.0 398:1.0 416:1.0 479:1.0 583:1.0 640:1.0 695:1.0 996:1.0 1004:1.0 1432:1.0 1690:1.0
-0.010057711562047744 3:1.0 89:1.0 94:1.0 115:1.0 163:1.0 325:1.0 341:1.0 343:1.0 344:1.0 355:1.0 364:1.0 366:1.0 369:1.0 411:1.0 427:1.0 453:1.0 479:1.0 583:1.0 644:1.0 776:1.0 868:1.0 907:1.0 917:1.0 1061:1.0 1173:1.0 1211:1.0 1521:1.0 1587:1.0 1625:1.0 1691:1.0
-0.019570307471066008 3:1.0 70:1.0 93:1.0 111:1.0 315:1.0 331:1.0 372:1.0 390:1.0 429:1.0 446:1.0 700:1.0 710:1.0 798:1.0 897:1.0 1219:1.0 1252:1.0 1322:1.0 1521:1.0 1587:1.0
-0.018413085654681402 445:1.0 462:1.0 470:1.0 475:1.0 836:1.0 1215:1.0 1521:1.0 1632:1.0 1667:1.0
-0.0038616341215050093 45:1.0 49:1.0 67:1.0 72:1.0 84:1.0 99:1.0 128:1.0 145:1.0 166:1.0 223:1.0 225:1.0 242:1.0 277:1.0 291:1.0 293:1.0 299:1.0 304:1.0 314:1.0 315:1.0 317:1.0 330:1.0 351:1.0 353:1.0 357:1.0 359:1.0 374:1.0 375:1.0 390:1.0 411:1.0 427:1.0 431:1.0 450:1.0 464:1.0 465:1.0 583:1.0 584:1.0 678:1.0 679:1.0 739:1.0 783:1.0 887:1.0 923:1.0 990:1.0 1142:1.0 1158:1.0 1262:1.0 1273:1.0 1288:1.0 1322:1.0 1342:1.0 1344:1.0 1372:1.0 1411:1.0 1521:1.0 1596:1.0 1662:1.0 1671:1.0 1691:1.0
-0.010612674533521313 3:1.0 19:1.0 97:1.0 138:1.0 212:1.0 235:1.0 283:1.0 316:1.0 329:1.0 330:1.0 349:1.0 355:1.0 390:1.0 444:1.0 445:1.0 464:1.0 804:1.0 836:1.0 853:1.0 1160:1.0 1311:1.0 1521:1.0 1587:1.0 1616:1.0 1663:1.0 1723:1.0
-0.012576923925887135 67:1.0 253:1.0 297:1.0 375:1.0 411:1.0 415:1.0 427:1.0 458:1.0 561:1.0 816:1.0 1273:1.0 1521:1.0 1693:1.0
-0.010009854108472164 40:1.0 46:1.0 311:1.0 340:1.0 397:1.0 405:1.0 445:1.0 461:1.0 464:1.0 486:1.0 649:1.0 668:1.0 783:1.0 847:1.0 1084:1.0 1521:1.0 1547:1.0 1690:1.0
0.009317178741807156 41:1.0 85:1.0 206:1.0 214:1.0 221:1.0 246:1.0 247:1.0 270:1.0 291:1.0 299:1.0 311:1.0 348:1.0 356:1.0 357:1.0 398:1.0 413:1.0 416:1.0 439:1.0 464:1.0 479:1.0 538:1.0 583:1.0 613:1.0 681:1.0 693:1.0 695:1.0 739:1.0 984:1.0 1004:1.0 1039:1.0 1158:1.0 1372:1.0 1535:1.0 1559:1.0 1690:1.0 1714:1.0
-0.0030840466502297607 78:1.0 97:1.0 138:1.0 203:1.0 244:1.0 313:1.0 329:1.0 349:1.0 372:1.0 400:1.0 445:1.0 465:1.0 469:1.0 490:1.0 747:1.0 783:1.0 836:1.0 922:1.0 1002:1.0 1146:1.0 1227:1.0 1364:1.0 1387:1.0 1521:1.0 1596:1.0
-0.0010143432931024017 3:1.0 10:1.0 46:1.0 70:1.0 93:1.0 214:1.0 224:1.0 240:1.0 242:1.0 288:1.0 289:1.0 291:1.0 304:1.0 315:1.0 331:1.0 336:1.0 347:1.0 357:1.0 364:1.0 375:1.0 390:1.0 405:1.0 410:1.0 427:1.0 439:1.0 445:1.0 453:1.0 603:1.0 645:1.0 710:1.0 739:1.0 765:1.0 797:1.0 818:1.0 825:1.0 897:1.0 928:1.0 1139:1.0 1240:1.0 1322:1.0 1372:1.0 1451:1.0 1492:1.0 1521:1.0 1587:1.0 1596:1.0 1637:1.0 1653:1.0 1691:1.0
-0.005185762728570227 30:1.0 39:1.0 40:1.0 97:1.0 127:1.0 260:1.0 275:1.0 299:1.0 329:1.0 356:1.0 379:1.0 445:1.0 460:1.0 464:1.0 465:1.0 598:1.0 745:1.0 836:1.0 847:1.0 915:1.0 994:1.0 1433:1.0 1441:1.0 1521:1.0 1534:1.0 1596:1.0
-0.0065468812097534326 41:1.0 67:1.0 86:1.0 166:1.0 167:1.0 207:1.0 275:1.0 299:1.0 314:1.0 315:1.0 348:1.0 375:1.0 411:1.0 414:1.0 418:1.0 427:1.0 445:1.0 460:1.0 504:1.0 577:1.0 583:1.0 709:1.0 715:1.0 774:1.0 883:1.0 1116:1.0 1156:1.0 1176:1.0 1344:1.0 1372:1.0 1521:1.0 1538:1.0 1637:1.0 1659:1.0 1691:1.0
-0.011493285802754665 152:1.0 251:1.0 284:1.0 372:1.0 398:1.0 426:1.0 448:1.0 450:1.0 662:1.0 866:1.0 1173:1.0 1298:1.0 1315:1.0 1407:1.0 1521:1.0
-0.013395073990556205 67:1.0 165:1.0 185:1.0 234:1.0 299:1.0 375:1.0 411:1.0 425:1.0 427:1.0 470:1.0 473:1.0 583:1.0 655:1.0 1294:1.0 1342:1.0 1372:1.0 1521:1.0 1566:1.0 1691:1.0
-0.008367395839900486 152:1.0 251:1.0 272:1.0 279:1.0 284:1.0 293:1.0 372:1.0 426:1.0 450:1.0 531:1.0 688:1.0 726:1.0 877:1.0 1315:1.0 1341:1.0 1509:1.0 1521:1.0
0.006012957435928882 2:1.0 3:1.0 12:1.0 55:1.0 85:1.0 161:1.0 291:1.0 302:1.0 363:1.0 388:1.0 398:1.0 464:1.0 529:1.0 547:1.0 611:1.0 658:1.0 724:1.0 739:1.0 1004:1.0 1341:1.0 1518:1.0 1690:1.0
0.004353834873396505 2:1.0 3:1.0 12:1.0 161:1.0 174:1.0 236:1.0 277:1.0 302:1.0 312:1.0 351:1.0 363:1.0 388:1.0 398:1.0 464:1.0 542:1.0 585:1.0 610:1.0 611:1.0 739:1.0 957:1.0 1004:1.0 1063:1.0 1315:1.0 1341:1.0
0.0048838056907868615 2:1.0 3:1.0 16:1.0 17:1.0 138:1.0 212:1.0 268:1.0 302:1.0 335:1.0 349:1.0 436:1.0 445:1.0 464:1.0 610:1.0 836:1.0 1004:1.0 1315:1.0 1410:1.0 1444:1.0 1721:1.0
-0.0026196402740635335 3:1.0 40:1.0 69:1.0 115:1.0 163:1.0 291:1.0 298:1.0 325:1.0 342:1.0 343:1.0 355:1.0 364:1.0 411:1.0 445:1.0 464:1.0 720:1.0 774:1.0 805:1.0 1441:1.0 1518:1.0 1521:1.0 1587:1.0 1659:1.0 1663:1.0
-0.010485015277440956 383:1.0 444:1.0 458:1.0 822:1.0 1521:1.0
-0.006107417938246703 267:1.0 372:1.0 384:1.0 444:1.0 480:1.0 805:1.0 1521:1.0 1667:1.0
0.007264778634361811 200:1.0 216:1.0 311:1.0 359:1.0 369:1.0 397:1.0 427:1.0 464:1.0 649:1.0 999:1.0 1004:1.0 1024:1.0 1557:1.0 1690:1.0
-0.006758837002282451 43:1.0 78:1.0 181:1.0 190:1.0 243:1.0 313:1.0 372:1.0 426:1.0 445:1.0 449:1.0 489:1.0 688:1.0 1315:1.0 1341:1.0 1450:1.0 1521:1.0 1559:1.0
-0.002789035364175656 45:1.0 67:1.0 75:1.0 100:1.0 216:1.0 271:1.0 359:1.0 372:1.0 375:1.0 411:1.0 427:1.0 443:1.0 505:1.0 583:1.0 607:1.0 633:1.0 645:1.0 877:1.0 1024:1.0 1293:1.0 1521:1.0 1637:1.0 1691:1.0
-0.004470248047684522 1:1.0 3:1.0 21:1.0 105:1.0 217:1.0 263:1.0 290:1.0 311:1.0 373:1.0 375:1.0 394:1.0 399:1.0 427:1.0 435:1.0 588:1.0 596:1.0 615:1.0 619:1.0 656:1.0 699:1.0 783:1.0 1024:1.0 1049:1.0 1173:1.0 1309:1.0 1521:1.0 1593:1.0 1637:1.0
-0.003299107772556813 1:1.0 29:1.0 30:1.0 45:1.0 110:1.0 125:1.0 231:1.0 295:1.0 311:1.0 321:1.0 359:1.0 375:1.0 427:1.0 445:1.0 455:1.0 460:1.0 543:1.0 557:1.0 560:1.0 723:1.0 836:1.0 1173:1.0 1283:1.0 1415:1.0 1521:1.0 1690:1.0 1691:1.0
-0.0016183446921052605 78:1.0 181:1.0 190:1.0 241:1.0 243:1.0 277:1.0 313:1.0 351:1.0 426:1.0 445:1.0 449:1.0 464:1.0 489:1.0 692:1.0 1039:1.0 1139:1.0 1341:1.0 1417:1.0 1461:1.0 1521:1.0
0.004651566914112235 40:1.0 311:1.0 416:1.0 445:1.0 464:1.0 570:1.0 583:1.0 695:1.0 937:1.0 1004:1.0 1156:1.0 1176:1.0 1690:1.0
0.005523593214520063 311:1.0 416:1.0 442:1.0 583:1.0 653:1.0 695:1.0 1004:1.0 1559:1.0 1659:1.0 1690:1.0
-0.0010120931754352082 37:1.0 131:1.0 157:1.0 230:1.0 277:1.0 347:1.0 351:1.0 374:1.0 414:1.0 419:1.0 427:1.0 446:1.0 464:1.0 474:1.0 563:1.0 603:1.0 715:1.0 847:1.0 1035:1.0 1116:1.0 1139:1.0 1158:1.0 1521:1.0 1596:1.0
-0.0019406184082815308 158:1.0 277:1.0 351:1.0 377:1.0 384:1.0 402:1.0 444:1.0 464:1.0 831:1.0 1271:1.0 1521:1.0 1653:1.0 1688:1.0
-7.216130506212311E-4 6:1.0 245:1.0 250:1.0 278:1.0 291:1.0 313:1.0 319:1.0 356:1.0 420:1.0 446:1.0 464:1.0 482:1.0 489:1.0 567:1.0 663:1.0 739:1.0 1148:1.0 1159:1.0 1219:1.0 1341:1.0 1360:1.0 1521:1.0 1726:1.0
8.639047735832728E-5 3:1.0 35:1.0 42:1.0 64:1.0 81:1.0 97:1.0 138:1.0 164:1.0 248:1.0 295:1.0 316:1.0 329:1.0 337:1.0 343:1.0 349:1.0 355:1.0 374:1.0 378:1.0 399:1.0 411:1.0 427:1.0 442:1.0 443:1.0 445:1.0 451:1.0 470:1.0 487:1.0 583:1.0 627:1.0 694:1.0 712:1.0 746:1.0 770:1.0 797:1.0 803:1.0 863:1.0 899:1.0 931:1.0 984:1.0 1004:1.0 1024:1.0 1026:1.0 1213:1.0 1293:1.0 1304:1.0 1596:1.0 1627:1.0 1632:1.0 1634:1.0 1647:1.0 1659:1.0 1663:1.0
-2.8838143156357306E-4 102:1.0 110:1.0 227:1.0 281:1.0 287:1.0 295:1.0 375:1.0 420:1.0 427:1.0 438:1.0 444:1.0 484:1.0 1121:1.0 1521:1.0 1612:1.0 1653:1.0 1690:1.0 1691:1.0
