SVM-light Version V6.01
0 # kernel type
3 # kernel parameter -d
1.0 # kernel parameter -g
1.0 # kernel parameter -s
0.0 # kernel parameter -r
empty# kernel parameter -u
2875 # highest feature index
1043 # number of training documents
419 # number of support vectors plus 1
1.0234251849597225 # threshold b, each following line is a SV (starting with alpha*y)
-0.03464610941648511 2:1.0 3:1.0 92:1.0 223:1.0 838:1.0 892:1.0 1150:1.0 1168:1.0 1800:1.0 1885:1.0 2209:1.0 2262:1.0 2667:1.0 2824:1.0
0.03464610941648511 1:1.0 366:1.0 379:1.0 485:1.0 565:1.0 791:1.0 873:1.0 910:1.0 919:1.0 944:1.0 958:1.0 1098:1.0 1168:1.0 1359:1.0 1908:1.0 1993:1.0 2520:1.0 2600:1.0 2667:1.0 2836:1.0
-0.007117094046492111 4:1.0 12:1.0 28:1.0 65:1.0 228:1.0 276:1.0 365:1.0 491:1.0 502:1.0 541:1.0 607:1.0 691:1.0 707:1.0 732:1.0 774:1.0 790:1.0 830:1.0 853:1.0 869:1.0 875:1.0 877:1.0 889:1.0 951:1.0 954:1.0 958:1.0 960:1.0 965:1.0 968:1.0 992:1.0 1076:1.0 1080:1.0 1099:1.0 1108:1.0 1111:1.0 1123:1.0 1136:1.0 1160:1.0 1170:1.0 1204:1.0 1206:1.0 1371:1.0 1376:1.0 1465:1.0 1576:1.0 1697:1.0 1882:1.0 1885:1.0 1889:1.0 1902:1.0 1981:1.0 1985:1.0 1993:1.0 2011:1.0 2079:1.0 2136:1.0 2167:1.0 2294:1.0 2304:1.0 2308:1.0 2365:1.0 2506:1.0 2518:1.0 2567:1.0 2630:1.0 2667:1.0 2703:1.0 2742:1.0 2817:1.0 2823:1.0 2837:1.0
0.03464610941648511 4:1.0 696:1.0 947:1.0 1027:1.0 1079:1.0 1126:1.0 1135:1.0 1145:1.0 1885:1.0 1929:1.0 1936:1.0 2159:1.0 2655:1.0 2667:1.0 2739:1.0
-0.008810695114312816 7:1.0 69:1.0 103:1.0 172:1.0 285:1.0 297:1.0 468:1.0 494:1.0 626:1.0 823:1.0 965:1.0 972:1.0 1008:1.0 1031:1.0 1055:1.0 1070:1.0 1085:1.0 1102:1.0 1108:1.0 1121:1.0 1128:1.0 1136:1.0 1160:1.0 1162:1.0 1268:1.0 1281:1.0 1404:1.0 1498:1.0 1596:1.0 1605:1.0 1621:1.0 1705:1.0 1929:1.0 1993:1.0 2139:1.0 2170:1.0 2294:1.0 2364:1.0 2603:1.0 2667:1.0 2789:1.0 2839:1.0
-0.003093893459062474 996:1.0 1000:1.0 1138:1.0 1543:1.0 1968:1.0 2646:1.0 2667:1.0
0.02718063692483993 1:1.0 407:1.0 508:1.0 754:1.0 873:1.0 894:1.0 968:1.0 979:1.0 1078:1.0 1155:1.0 1439:1.0 1799:1.0 2015:1.0 2567:1.0 2667:1.0 2704:1.0 2799:1.0
-0.003954270878736834 3:1.0 13:1.0 62:1.0 172:1.0 208:1.0 362:1.0 445:1.0 605:1.0 853:1.0 876:1.0 900:1.0 957:1.0 1008:1.0 1022:1.0 1070:1.0 1108:1.0 1112:1.0 1136:1.0 1139:1.0 1172:1.0 1188:1.0 1454:1.0 1515:1.0 1749:1.0 1803:1.0 1982:1.0 2202:1.0 2252:1.0 2275:1.0 2418:1.0 2456:1.0 2518:1.0 2667:1.0 2780:1.0 2807:1.0 2837:1.0
0.03464610941648511 96:1.0 266:1.0 316:1.0 590:1.0 685:1.0 745:1.0 747:1.0 913:1.0 924:1.0 932:1.0 958:1.0 965:1.0 1027:1.0 1120:1.0 1135:1.0 1136:1.0 1158:1.0 1168:1.0 1493:1.0 1546:1.0 1835:1.0 1982:1.0 2197:1.0 2220:1.0 2262:1.0 2441:1.0 2667:1.0 2713:1.0 2799:1.0 2836:1.0
0.03464610941648511 69:1.0 391:1.0 398:1.0 457:1.0 543:1.0 573:1.0 618:1.0 704:1.0 787:1.0 842:1.0 853:1.0 865:1.0 878:1.0 955:1.0 973:1.0 977:1.0 1135:1.0 1136:1.0 1162:1.0 1166:1.0 1168:1.0 1982:1.0 1993:1.0 2011:1.0 2374:1.0 2462:1.0 2518:1.0 2581:1.0 2596:1.0 2602:1.0 2667:1.0 2868:1.0
-0.008525162215594654 14:1.0 26:1.0 208:1.0 214:1.0 266:1.0 339:1.0 398:1.0 413:1.0 454:1.0 490:1.0 494:1.0 502:1.0 604:1.0 670:1.0 684:1.0 699:1.0 745:1.0 747:1.0 791:1.0 796:1.0 875:1.0 876:1.0 902:1.0 913:1.0 936:1.0 955:1.0 956:1.0 958:1.0 965:1.0 968:1.0 973:1.0 1052:1.0 1061:1.0 1099:1.0 1120:1.0 1124:1.0 1127:1.0 1130:1.0 1136:1.0 1158:1.0 1168:1.0 1170:1.0 1218:1.0 1459:1.0 1491:1.0 1713:1.0 1760:1.0 1788:1.0 1894:1.0 1913:1.0 1945:1.0 1982:1.0 1993:1.0 2044:1.0 2148:1.0 2262:1.0 2294:1.0 2338:1.0 2444:1.0 2479:1.0 2557:1.0 2667:1.0 2683:1.0 2690:1.0 2713:1.0 2714:1.0 2716:1.0 2717:1.0 2742:1.0 2854:1.0
-0.03464610941648511 32:1.0 261:1.0 266:1.0 269:1.0 308:1.0 316:1.0 379:1.0 385:1.0 495:1.0 529:1.0 602:1.0 745:1.0 865:1.0 895:1.0 913:1.0 958:1.0 963:1.0 965:1.0 1098:1.0 1099:1.0 1135:1.0 1136:1.0 1152:1.0 1159:1.0 1165:1.0 1188:1.0 1214:1.0 1931:1.0 1940:1.0 1982:1.0 1993:1.0 2001:1.0 2038:1.0 2127:1.0 2207:1.0 2238:1.0 2511:1.0 2650:1.0 2666:1.0 2667:1.0
0.019591839269390277 1:1.0 90:1.0 508:1.0 624:1.0 769:1.0 873:1.0 952:1.0 979:1.0 1136:1.0 1168:1.0 1982:1.0 2249:1.0 2657:1.0 2667:1.0
0.018357601942435808 1:1.0 69:1.0 264:1.0 372:1.0 516:1.0 743:1.0 753:1.0 829:1.0 873:1.0 894:1.0 1048:1.0 1073:1.0 1136:1.0 1155:1.0 1162:1.0 1187:1.0 1231:1.0 1507:1.0 1626:1.0 1819:1.0 1839:1.0 1993:1.0 2170:1.0 2368:1.0 2667:1.0 2693:1.0 2805:1.0 2841:1.0
0.03464610941648511 1:1.0 232:1.0 430:1.0 695:1.0 760:1.0 837:1.0 873:1.0 968:1.0 1008:1.0 1022:1.0 1108:1.0 1616:1.0 1829:1.0 1948:1.0 2170:1.0 2441:1.0 2667:1.0 2824:1.0
0.03464610941648511 3:1.0 73:1.0 199:1.0 749:1.0 777:1.0 910:1.0 934:1.0 944:1.0 949:1.0 996:1.0 1003:1.0 1008:1.0 1018:1.0 1027:1.0 1108:1.0 1134:1.0 1135:1.0 1136:1.0 1165:1.0 1268:1.0 1404:1.0 1705:1.0 1929:1.0 1963:1.0 2170:1.0 2195:1.0 2268:1.0 2376:1.0 2426:1.0 2667:1.0 2680:1.0 2789:1.0
0.03464610941648511 3:1.0 42:1.0 61:1.0 329:1.0 397:1.0 451:1.0 679:1.0 853:1.0 868:1.0 881:1.0 931:1.0 1008:1.0 1108:1.0 1122:1.0 1138:1.0 1183:1.0 1230:1.0 1505:1.0 1510:1.0 1518:1.0 1534:1.0 1599:1.0 2170:1.0 2195:1.0 2274:1.0 2434:1.0 2450:1.0 2518:1.0 2667:1.0 2780:1.0
0.03464610941648511 3:1.0 4:1.0 21:1.0 46:1.0 58:1.0 89:1.0 180:1.0 208:1.0 231:1.0 239:1.0 286:1.0 296:1.0 320:1.0 412:1.0 425:1.0 519:1.0 569:1.0 574:1.0 632:1.0 838:1.0 847:1.0 853:1.0 856:1.0 876:1.0 878:1.0 889:1.0 912:1.0 915:1.0 955:1.0 958:1.0 959:1.0 1005:1.0 1033:1.0 1049:1.0 1108:1.0 1113:1.0 1134:1.0 1136:1.0 1144:1.0 1160:1.0 1170:1.0 1176:1.0 1207:1.0 1438:1.0 1484:1.0 1624:1.0 1629:1.0 1636:1.0 1674:1.0 1788:1.0 1885:1.0 1993:1.0 2023:1.0 2093:1.0 2101:1.0 2117:1.0 2141:1.0 2265:1.0 2302:1.0 2304:1.0 2418:1.0 2439:1.0 2453:1.0 2484:1.0 2487:1.0 2518:1.0 2609:1.0 2643:1.0 2667:1.0 2742:1.0 2836:1.0 2855:1.0
0.03464610941648511 3:1.0 42:1.0 205:1.0 351:1.0 356:1.0 433:1.0 442:1.0 466:1.0 800:1.0 817:1.0 908:1.0 930:1.0 971:1.0 1008:1.0 1027:1.0 1099:1.0 1104:1.0 1108:1.0 1122:1.0 1125:1.0 1135:1.0 1168:1.0 1194:1.0 1209:1.0 1404:1.0 1477:1.0 1518:1.0 2016:1.0 2145:1.0 2170:1.0 2189:1.0 2195:1.0 2474:1.0 2667:1.0 2787:1.0 2789:1.0
0.03464610941648511 17:1.0 103:1.0 373:1.0 415:1.0 502:1.0 791:1.0 875:1.0 889:1.0 958:1.0 972:1.0 1008:1.0 1108:1.0 1114:1.0 1138:1.0 1168:1.0 1378:1.0 1404:1.0 1621:1.0 1830:1.0 1837:1.0 1885:1.0 1889:1.0 2170:1.0 2368:1.0 2667:1.0 2789:1.0 2836:1.0
-0.03464610941648511 1:1.0 5:1.0 99:1.0 194:1.0 314:1.0 397:1.0 451:1.0 629:1.0 632:1.0 853:1.0 868:1.0 873:1.0 894:1.0 1008:1.0 1049:1.0 1108:1.0 1155:1.0 1230:1.0 1279:1.0 1505:1.0 1534:1.0 1824:1.0 1862:1.0 1873:1.0 2029:1.0 2170:1.0 2319:1.0 2434:1.0 2518:1.0 2667:1.0 2681:1.0
-0.03464610941648511 3:1.0 180:1.0 231:1.0 380:1.0 447:1.0 574:1.0 595:1.0 618:1.0 632:1.0 641:1.0 838:1.0 853:1.0 873:1.0 912:1.0 950:1.0 955:1.0 961:1.0 1045:1.0 1049:1.0 1108:1.0 1168:1.0 1275:1.0 1704:1.0 1847:1.0 1885:1.0 2170:1.0 2255:1.0 2431:1.0 2518:1.0 2608:1.0 2632:1.0 2667:1.0 2836:1.0
0.02164079301311507 1:1.0 315:1.0 425:1.0 514:1.0 847:1.0 873:1.0 958:1.0 985:1.0 1145:1.0 1160:1.0 2308:1.0 2571:1.0 2667:1.0 2710:1.0 2821:1.0
-0.03464610941648511 3:1.0 5:1.0 186:1.0 219:1.0 518:1.0 539:1.0 600:1.0 626:1.0 755:1.0 837:1.0 838:1.0 845:1.0 873:1.0 908:1.0 929:1.0 931:1.0 966:1.0 972:1.0 1046:1.0 1108:1.0 1151:1.0 1153:1.0 1279:1.0 1455:1.0 1577:1.0 1824:1.0 1862:1.0 1885:1.0 2117:1.0 2170:1.0 2195:1.0 2209:1.0 2439:1.0 2667:1.0 2780:1.0 2836:1.0
-0.011741299672058371 869:1.0 1168:1.0 1831:1.0 2667:1.0 2778:1.0
0.02881839848361459 14:1.0 46:1.0 69:1.0 76:1.0 95:1.0 97:1.0 117:1.0 139:1.0 166:1.0 171:1.0 178:1.0 188:1.0 195:1.0 218:1.0 228:1.0 261:1.0 269:1.0 293:1.0 332:1.0 385:1.0 417:1.0 429:1.0 443:1.0 473:1.0 488:1.0 494:1.0 567:1.0 762:1.0 787:1.0 791:1.0 808:1.0 830:1.0 846:1.0 847:1.0 853:1.0 856:1.0 880:1.0 881:1.0 884:1.0 885:1.0 895:1.0 905:1.0 953:1.0 954:1.0 958:1.0 964:1.0 965:1.0 974:1.0 1034:1.0 1052:1.0 1071:1.0 1098:1.0 1099:1.0 1136:1.0 1162:1.0 1165:1.0 1168:1.0 1214:1.0 1215:1.0 1454:1.0 1530:1.0 1548:1.0 1619:1.0 1699:1.0 1722:1.0 1776:1.0 1786:1.0 1816:1.0 1917:1.0 1929:1.0 1931:1.0 1936:1.0 1944:1.0 1993:1.0 2023:1.0 2029:1.0 2130:1.0 2139:1.0 2141:1.0 2196:1.0 2294:1.0 2304:1.0 2322:1.0 2383:1.0 2468:1.0 2518:1.0 2598:1.0 2665:1.0 2667:1.0 2696:1.0 2733:1.0 2742:1.0 2786:1.0 2804:1.0 2805:1.0 2829:1.0
0.03464610941648511 7:1.0 14:1.0 49:1.0 211:1.0 279:1.0 285:1.0 316:1.0 379:1.0 604:1.0 614:1.0 733:1.0 830:1.0 846:1.0 913:1.0 944:1.0 958:1.0 965:1.0 985:1.0 1031:1.0 1052:1.0 1098:1.0 1099:1.0 1102:1.0 1115:1.0 1128:1.0 1188:1.0 1445:1.0 1467:1.0 1893:1.0 1929:1.0 1993:1.0 2050:1.0 2294:1.0 2411:1.0 2456:1.0 2511:1.0 2637:1.0 2667:1.0 2742:1.0 2778:1.0 2812:1.0
0.020490806291894217 211:1.0 218:1.0 257:1.0 266:1.0 271:1.0 316:1.0 379:1.0 392:1.0 398:1.0 412:1.0 429:1.0 494:1.0 529:1.0 543:1.0 745:1.0 771:1.0 782:1.0 821:1.0 824:1.0 878:1.0 905:1.0 908:1.0 909:1.0 913:1.0 955:1.0 958:1.0 965:1.0 997:1.0 1050:1.0 1051:1.0 1098:1.0 1110:1.0 1135:1.0 1136:1.0 1160:1.0 1165:1.0 1193:1.0 1695:1.0 1734:1.0 1760:1.0 1787:1.0 1795:1.0 1801:1.0 1835:1.0 1950:1.0 1969:1.0 1982:1.0 2081:1.0 2189:1.0 2294:1.0 2364:1.0 2373:1.0 2376:1.0 2390:1.0 2414:1.0 2487:1.0 2489:1.0 2505:1.0 2553:1.0 2658:1.0 2665:1.0 2667:1.0 2710:1.0 2798:1.0 2799:1.0 2805:1.0
0.03464610941648511 26:1.0 60:1.0 82:1.0 95:1.0 127:1.0 227:1.0 242:1.0 323:1.0 464:1.0 494:1.0 511:1.0 670:1.0 734:1.0 762:1.0 781:1.0 846:1.0 853:1.0 910:1.0 936:1.0 944:1.0 954:1.0 965:1.0 973:1.0 1019:1.0 1051:1.0 1052:1.0 1099:1.0 1118:1.0 1136:1.0 1142:1.0 1160:1.0 1166:1.0 1193:1.0 1454:1.0 1776:1.0 1781:1.0 1792:1.0 1823:1.0 1917:1.0 1993:1.0 2029:1.0 2217:1.0 2390:1.0 2404:1.0 2518:1.0 2544:1.0 2582:1.0 2592:1.0 2667:1.0 2742:1.0 2749:1.0 2776:1.0 2799:1.0
0.03196990988435343 10:1.0 41:1.0 56:1.0 130:1.0 319:1.0 377:1.0 790:1.0 895:1.0 958:1.0 1019:1.0 1027:1.0 1031:1.0 1035:1.0 1135:1.0 1168:1.0 1170:1.0 1671:1.0 1929:1.0 2092:1.0 2130:1.0 2667:1.0 2727:1.0 2739:1.0 2742:1.0
-0.011237827562780165 3:1.0 14:1.0 47:1.0 73:1.0 90:1.0 118:1.0 129:1.0 211:1.0 255:1.0 266:1.0 275:1.0 299:1.0 316:1.0 379:1.0 474:1.0 614:1.0 731:1.0 826:1.0 830:1.0 881:1.0 885:1.0 913:1.0 918:1.0 934:1.0 958:1.0 965:1.0 985:1.0 995:1.0 1003:1.0 1027:1.0 1031:1.0 1098:1.0 1099:1.0 1125:1.0 1128:1.0 1135:1.0 1136:1.0 1168:1.0 1180:1.0 1190:1.0 1388:1.0 1536:1.0 1548:1.0 1555:1.0 1929:1.0 1982:1.0 2071:1.0 2165:1.0 2186:1.0 2189:1.0 2292:1.0 2294:1.0 2439:1.0 2468:1.0 2542:1.0 2667:1.0 2742:1.0 2784:1.0 2799:1.0 2805:1.0 2809:1.0 2835:1.0
-0.0026594242652908874 49:1.0 161:1.0 174:1.0 204:1.0 234:1.0 258:1.0 266:1.0 303:1.0 306:1.0 379:1.0 450:1.0 463:1.0 515:1.0 516:1.0 525:1.0 529:1.0 544:1.0 575:1.0 620:1.0 667:1.0 780:1.0 829:1.0 830:1.0 841:1.0 847:1.0 871:1.0 881:1.0 888:1.0 898:1.0 908:1.0 909:1.0 913:1.0 958:1.0 970:1.0 971:1.0 991:1.0 996:1.0 1003:1.0 1004:1.0 1027:1.0 1055:1.0 1065:1.0 1073:1.0 1087:1.0 1098:1.0 1099:1.0 1102:1.0 1135:1.0 1136:1.0 1137:1.0 1165:1.0 1180:1.0 1183:1.0 1187:1.0 1403:1.0 1452:1.0 1522:1.0 1703:1.0 1876:1.0 1929:1.0 1982:1.0 2003:1.0 2048:1.0 2061:1.0 2069:1.0 2128:1.0 2237:1.0 2294:1.0 2321:1.0 2336:1.0 2414:1.0 2468:1.0 2479:1.0 2487:1.0 2524:1.0 2667:1.0 2700:1.0 2735:1.0 2805:1.0 2845:1.0
-0.026278599152466275 208:1.0 234:1.0 237:1.0 266:1.0 279:1.0 413:1.0 490:1.0 689:1.0 699:1.0 781:1.0 825:1.0 846:1.0 876:1.0 902:1.0 913:1.0 986:1.0 1014:1.0 1051:1.0 1052:1.0 1055:1.0 1056:1.0 1061:1.0 1065:1.0 1115:1.0 1136:1.0 1174:1.0 1193:1.0 1197:1.0 1218:1.0 1219:1.0 1454:1.0 1530:1.0 1532:1.0 1636:1.0 1724:1.0 1776:1.0 1788:1.0 1917:1.0 1982:1.0 1993:1.0 1999:1.0 2189:1.0 2222:1.0 2367:1.0 2487:1.0 2667:1.0 2708:1.0 2742:1.0 2772:1.0 2773:1.0 2788:1.0
-0.00493284623148855 4:1.0 14:1.0 218:1.0 266:1.0 316:1.0 337:1.0 394:1.0 429:1.0 494:1.0 505:1.0 529:1.0 533:1.0 613:1.0 625:1.0 668:1.0 834:1.0 839:1.0 850:1.0 876:1.0 905:1.0 913:1.0 939:1.0 955:1.0 958:1.0 965:1.0 981:1.0 989:1.0 1017:1.0 1074:1.0 1081:1.0 1098:1.0 1099:1.0 1107:1.0 1136:1.0 1163:1.0 1165:1.0 1185:1.0 1197:1.0 1522:1.0 1554:1.0 1555:1.0 1663:1.0 1739:1.0 1772:1.0 1877:1.0 1913:1.0 1940:1.0 1971:1.0 1982:1.0 2061:1.0 2090:1.0 2130:1.0 2237:1.0 2294:1.0 2491:1.0 2538:1.0 2560:1.0 2570:1.0 2607:1.0 2613:1.0 2667:1.0 2720:1.0 2742:1.0 2860:1.0
-0.01639895703728243 11:1.0 13:1.0 69:1.0 202:1.0 208:1.0 266:1.0 288:1.0 306:1.0 337:1.0 529:1.0 631:1.0 787:1.0 834:1.0 853:1.0 873:1.0 876:1.0 900:1.0 913:1.0 971:1.0 1017:1.0 1092:1.0 1099:1.0 1100:1.0 1136:1.0 1160:1.0 1162:1.0 1165:1.0 1234:1.0 1346:1.0 1403:1.0 1454:1.0 1676:1.0 1730:1.0 1769:1.0 1778:1.0 1835:1.0 1942:1.0 1947:1.0 1993:1.0 2058:1.0 2061:1.0 2302:1.0 2518:1.0 2667:1.0 2711:1.0 2733:1.0 2799:1.0 2836:1.0
-0.013921364898913604 44:1.0 211:1.0 252:1.0 301:1.0 377:1.0 379:1.0 414:1.0 421:1.0 494:1.0 563:1.0 572:1.0 657:1.0 711:1.0 745:1.0 796:1.0 882:1.0 885:1.0 913:1.0 955:1.0 958:1.0 965:1.0 996:1.0 1019:1.0 1079:1.0 1098:1.0 1099:1.0 1107:1.0 1136:1.0 1170:1.0 1180:1.0 1522:1.0 1536:1.0 1786:1.0 1837:1.0 1929:1.0 1953:1.0 1982:1.0 2061:1.0 2130:1.0 2174:1.0 2186:1.0 2204:1.0 2305:1.0 2544:1.0 2667:1.0 2742:1.0 2817:1.0 2860:1.0
0.01855869519941846 4:1.0 181:1.0 186:1.0 219:1.0 416:1.0 697:1.0 838:1.0 845:1.0 966:1.0 1138:1.0 1153:1.0 1160:1.0 1206:1.0 1244:1.0 1297:1.0 1379:1.0 1459:1.0 1593:1.0 1682:1.0 1885:1.0 2104:1.0 2650:1.0 2667:1.0 2824:1.0
0.018558695199418898 4:1.0 181:1.0 186:1.0 219:1.0 416:1.0 697:1.0 838:1.0 845:1.0 966:1.0 1138:1.0 1153:1.0 1160:1.0 1206:1.0 1244:1.0 1297:1.0 1379:1.0 1459:1.0 1593:1.0 1682:1.0 1885:1.0 2293:1.0 2650:1.0 2667:1.0 2824:1.0
-0.003559773509737999 3:1.0 4:1.0 66:1.0 166:1.0 171:1.0 188:1.0 311:1.0 335:1.0 341:1.0 563:1.0 621:1.0 635:1.0 681:1.0 838:1.0 847:1.0 876:1.0 894:1.0 921:1.0 958:1.0 964:1.0 968:1.0 982:1.0 1034:1.0 1107:1.0 1127:1.0 1136:1.0 1180:1.0 1197:1.0 1238:1.0 1459:1.0 1814:1.0 2101:1.0 2145:1.0 2220:1.0 2239:1.0 2657:1.0 2667:1.0 2760:1.0 2776:1.0 2809:1.0 2854:1.0 2860:1.0
-0.03464610941648511 137:1.0 223:1.0 838:1.0 873:1.0 876:1.0 1032:1.0 1044:1.0 1048:1.0 1168:1.0 1193:1.0 1218:1.0 1707:1.0 1885:1.0 1893:1.0 2249:1.0 2324:1.0 2487:1.0 2667:1.0
-0.03464610941648511 223:1.0 706:1.0 838:1.0 843:1.0 873:1.0 879:1.0 1048:1.0 1092:1.0 1168:1.0 1686:1.0 1885:1.0 2124:1.0 2304:1.0 2614:1.0 2667:1.0 2836:1.0
-0.03464610941648511 223:1.0 499:1.0 621:1.0 838:1.0 968:1.0 1052:1.0 1127:1.0 1168:1.0 1459:1.0 1713:1.0 1885:1.0 1922:1.0 2667:1.0 2816:1.0
-0.030749128290536172 137:1.0 180:1.0 315:1.0 618:1.0 666:1.0 838:1.0 876:1.0 955:1.0 958:1.0 1032:1.0 1048:1.0 1138:1.0 1145:1.0 1168:1.0 1218:1.0 1386:1.0 1885:1.0 2288:1.0 2414:1.0 2444:1.0 2667:1.0 2768:1.0 2824:1.0 2872:1.0
-0.00284043381543412 2:1.0 3:1.0 402:1.0 698:1.0 800:1.0 881:1.0 892:1.0 1021:1.0 1037:1.0 1099:1.0 1131:1.0 1168:1.0 1800:1.0 2069:1.0 2440:1.0 2667:1.0 2805:1.0 2824:1.0
0.0019668260697789357 1:1.0 211:1.0 379:1.0 425:1.0 430:1.0 512:1.0 675:1.0 847:1.0 873:1.0 913:1.0 958:1.0 1022:1.0 1098:1.0 1160:1.0 1829:1.0 2077:1.0 2202:1.0 2398:1.0 2667:1.0 2824:1.0 2855:1.0
-0.02311324852663035 114:1.0 1135:1.0 1168:1.0 1685:1.0 2667:1.0
0.03464610941648511 3:1.0 14:1.0 89:1.0 98:1.0 99:1.0 208:1.0 218:1.0 220:1.0 247:1.0 266:1.0 279:1.0 326:1.0 417:1.0 445:1.0 452:1.0 470:1.0 502:1.0 521:1.0 563:1.0 675:1.0 684:1.0 699:1.0 723:1.0 800:1.0 846:1.0 847:1.0 875:1.0 876:1.0 878:1.0 905:1.0 913:1.0 958:1.0 965:1.0 968:1.0 975:1.0 1022:1.0 1049:1.0 1085:1.0 1098:1.0 1099:1.0 1107:1.0 1108:1.0 1112:1.0 1115:1.0 1127:1.0 1131:1.0 1136:1.0 1168:1.0 1170:1.0 1172:1.0 1218:1.0 1355:1.0 1515:1.0 1636:1.0 1646:1.0 1657:1.0 1758:1.0 1764:1.0 1982:1.0 1993:1.0 2034:1.0 2061:1.0 2130:1.0 2139:1.0 2189:1.0 2209:1.0 2237:1.0 2287:1.0 2312:1.0 2450:1.0 2461:1.0 2667:1.0 2714:1.0 2733:1.0 2742:1.0 2773:1.0 2805:1.0 2807:1.0 2875:1.0
0.03464610941648511 3:1.0 24:1.0 34:1.0 69:1.0 89:1.0 90:1.0 97:1.0 195:1.0 209:1.0 228:1.0 283:1.0 379:1.0 446:1.0 447:1.0 499:1.0 536:1.0 561:1.0 640:1.0 641:1.0 790:1.0 853:1.0 953:1.0 954:1.0 958:1.0 961:1.0 964:1.0 968:1.0 1052:1.0 1062:1.0 1098:1.0 1108:1.0 1115:1.0 1136:1.0 1162:1.0 1168:1.0 1170:1.0 1215:1.0 1319:1.0 1454:1.0 1496:1.0 1586:1.0 1588:1.0 1774:1.0 1788:1.0 1982:1.0 1993:1.0 2014:1.0 2118:1.0 2141:1.0 2170:1.0 2255:1.0 2518:1.0 2556:1.0 2641:1.0 2667:1.0 2681:1.0 2724:1.0 2727:1.0 2742:1.0 2836:1.0 2864:1.0
0.03464610941648511 17:1.0 249:1.0 266:1.0 316:1.0 379:1.0 398:1.0 559:1.0 610:1.0 618:1.0 745:1.0 776:1.0 810:1.0 860:1.0 889:1.0 913:1.0 927:1.0 955:1.0 958:1.0 965:1.0 971:1.0 1008:1.0 1087:1.0 1098:1.0 1108:1.0 1136:1.0 1161:1.0 1168:1.0 1171:1.0 1191:1.0 1403:1.0 1524:1.0 1613:1.0 1770:1.0 1982:1.0 1992:1.0 2077:1.0 2170:1.0 2363:1.0 2414:1.0 2424:1.0 2439:1.0 2487:1.0 2530:1.0 2553:1.0 2602:1.0 2667:1.0 2860:1.0
-0.03464610941648511 1:1.0 3:1.0 17:1.0 24:1.0 171:1.0 312:1.0 316:1.0 372:1.0 379:1.0 731:1.0 817:1.0 873:1.0 889:1.0 913:1.0 958:1.0 964:1.0 965:1.0 996:1.0 1008:1.0 1034:1.0 1098:1.0 1108:1.0 1125:1.0 1132:1.0 1139:1.0 1162:1.0 1288:1.0 1338:1.0 1420:1.0 1577:1.0 1660:1.0 1694:1.0 1705:1.0 1951:1.0 1993:1.0 2002:1.0 2170:1.0 2207:1.0 2456:1.0 2564:1.0 2658:1.0 2667:1.0 2733:1.0 2780:1.0 2789:1.0 2805:1.0
-0.03464610941648511 3:1.0 34:1.0 41:1.0 69:1.0 89:1.0 97:1.0 195:1.0 246:1.0 257:1.0 368:1.0 397:1.0 398:1.0 451:1.0 499:1.0 524:1.0 621:1.0 634:1.0 640:1.0 656:1.0 695:1.0 774:1.0 787:1.0 838:1.0 853:1.0 868:1.0 895:1.0 953:1.0 955:1.0 964:1.0 965:1.0 968:1.0 1003:1.0 1008:1.0 1031:1.0 1052:1.0 1108:1.0 1127:1.0 1136:1.0 1162:1.0 1170:1.0 1183:1.0 1215:1.0 1319:1.0 1453:1.0 1454:1.0 1468:1.0 1588:1.0 1603:1.0 1688:1.0 1774:1.0 1885:1.0 1915:1.0 1929:1.0 1931:1.0 1993:1.0 2061:1.0 2130:1.0 2170:1.0 2209:1.0 2220:1.0 2256:1.0 2265:1.0 2518:1.0 2560:1.0 2667:1.0 2684:1.0 2742:1.0 2809:1.0 2836:1.0
-0.03464610941648511 3:1.0 17:1.0 34:1.0 64:1.0 69:1.0 97:1.0 131:1.0 184:1.0 195:1.0 206:1.0 248:1.0 378:1.0 499:1.0 517:1.0 574:1.0 630:1.0 836:1.0 838:1.0 889:1.0 894:1.0 912:1.0 916:1.0 926:1.0 953:1.0 964:1.0 968:1.0 1006:1.0 1008:1.0 1049:1.0 1052:1.0 1099:1.0 1108:1.0 1113:1.0 1136:1.0 1153:1.0 1162:1.0 1200:1.0 1215:1.0 1319:1.0 1453:1.0 1454:1.0 1521:1.0 1588:1.0 1774:1.0 1850:1.0 1885:1.0 1919:1.0 1944:1.0 2039:1.0 2044:1.0 2170:1.0 2209:1.0 2237:1.0 2453:1.0 2528:1.0 2549:1.0 2667:1.0 2742:1.0 2807:1.0 2836:1.0
-0.03464610941648511 3:1.0 69:1.0 96:1.0 97:1.0 98:1.0 99:1.0 145:1.0 184:1.0 191:1.0 245:1.0 266:1.0 279:1.0 335:1.0 428:1.0 462:1.0 494:1.0 574:1.0 621:1.0 635:1.0 717:1.0 733:1.0 745:1.0 747:1.0 787:1.0 838:1.0 846:1.0 853:1.0 863:1.0 893:1.0 912:1.0 913:1.0 945:1.0 964:1.0 965:1.0 968:1.0 985:1.0 1049:1.0 1108:1.0 1115:1.0 1120:1.0 1127:1.0 1136:1.0 1153:1.0 1158:1.0 1162:1.0 1180:1.0 1188:1.0 1215:1.0 1386:1.0 1555:1.0 1582:1.0 1733:1.0 1885:1.0 1982:1.0 1993:1.0 2014:1.0 2034:1.0 2127:1.0 2130:1.0 2170:1.0 2240:1.0 2262:1.0 2275:1.0 2294:1.0 2304:1.0 2343:1.0 2445:1.0 2450:1.0 2557:1.0 2587:1.0 2605:1.0 2667:1.0 2742:1.0 2752:1.0 2758:1.0 2854:1.0
0.015812099765389363 4:1.0 90:1.0 251:1.0 266:1.0 325:1.0 394:1.0 576:1.0 583:1.0 767:1.0 783:1.0 847:1.0 865:1.0 913:1.0 955:1.0 956:1.0 958:1.0 1017:1.0 1027:1.0 1099:1.0 1135:1.0 1136:1.0 1152:1.0 1168:1.0 1522:1.0 1851:1.0 1914:1.0 1982:1.0 2044:1.0 2061:1.0 2099:1.0 2117:1.0 2353:1.0 2570:1.0 2667:1.0 2799:1.0 2835:1.0
0.03464610941648511 223:1.0 336:1.0 546:1.0 621:1.0 678:1.0 838:1.0 873:1.0 927:1.0 968:1.0 1044:1.0 1127:1.0 1152:1.0 1168:1.0 1193:1.0 1370:1.0 1415:1.0 1791:1.0 1885:1.0 2226:1.0 2240:1.0 2667:1.0 2794:1.0 2825:1.0
0.03464610941648511 239:1.0 252:1.0 257:1.0 305:1.0 394:1.0 729:1.0 800:1.0 823:1.0 897:1.0 955:1.0 965:1.0 973:1.0 1055:1.0 1099:1.0 1135:1.0 1166:1.0 1168:1.0 1180:1.0 1212:1.0 1219:1.0 1429:1.0 1864:1.0 1922:1.0 1959:1.0 1962:1.0 2294:1.0 2323:1.0 2334:1.0 2374:1.0 2424:1.0 2544:1.0 2667:1.0 2676:1.0 2683:1.0 2739:1.0 2791:1.0
0.029483042092522907 30:1.0 335:1.0 416:1.0 462:1.0 621:1.0 635:1.0 658:1.0 838:1.0 839:1.0 890:1.0 940:1.0 954:1.0 968:1.0 1127:1.0 1135:1.0 1153:1.0 1160:1.0 1180:1.0 1195:1.0 1385:1.0 1415:1.0 1791:1.0 1885:1.0 1886:1.0 1951:1.0 2269:1.0 2518:1.0 2574:1.0 2603:1.0 2667:1.0 2739:1.0
0.03464610941648511 223:1.0 444:1.0 838:1.0 940:1.0 1027:1.0 1135:1.0 1168:1.0 1195:1.0 1415:1.0 1791:1.0 1885:1.0 2518:1.0 2667:1.0 2851:1.0
0.03464610941648511 81:1.0 208:1.0 379:1.0 490:1.0 579:1.0 667:1.0 699:1.0 791:1.0 876:1.0 902:1.0 958:1.0 1087:1.0 1098:1.0 1136:1.0 1138:1.0 1168:1.0 1190:1.0 1218:1.0 1993:1.0 2043:1.0 2364:1.0 2365:1.0 2474:1.0 2667:1.0 2742:1.0 2768:1.0
-0.03464610941648511 31:1.0 45:1.0 161:1.0 209:1.0 218:1.0 236:1.0 398:1.0 429:1.0 458:1.0 485:1.0 536:1.0 563:1.0 618:1.0 905:1.0 919:1.0 954:1.0 955:1.0 958:1.0 1062:1.0 1098:1.0 1107:1.0 1110:1.0 1136:1.0 1165:1.0 1168:1.0 1180:1.0 1459:1.0 1636:1.0 1982:1.0 2043:1.0 2050:1.0 2189:1.0 2194:1.0 2438:1.0 2518:1.0 2587:1.0 2646:1.0 2664:1.0 2667:1.0 2697:1.0
-0.03464610941648511 266:1.0 398:1.0 537:1.0 767:1.0 880:1.0 897:1.0 913:1.0 955:1.0 1136:1.0 1138:1.0 1152:1.0 1188:1.0 1522:1.0 1745:1.0 1828:1.0 1837:1.0 1982:1.0 1989:1.0 2029:1.0 2061:1.0 2490:1.0 2667:1.0 2739:1.0 2824:1.0 2837:1.0
-0.03464610941648511 125:1.0 218:1.0 425:1.0 429:1.0 547:1.0 847:1.0 873:1.0 880:1.0 905:1.0 923:1.0 958:1.0 1046:1.0 1098:1.0 1118:1.0 1160:1.0 1206:1.0 1459:1.0 1606:1.0 1982:1.0 2006:1.0 2029:1.0 2180:1.0 2490:1.0 2556:1.0 2667:1.0 2776:1.0
0.02992797328135459 1:1.0 3:1.0 42:1.0 329:1.0 552:1.0 592:1.0 627:1.0 873:1.0 931:1.0 1008:1.0 1108:1.0 1117:1.0 1122:1.0 1189:1.0 1518:1.0 2170:1.0 2195:1.0 2464:1.0 2667:1.0 2798:1.0
-0.03464610941648511 659:1.0 795:1.0 1019:1.0 1027:1.0 1135:1.0 1168:1.0 1208:1.0 1759:1.0 2508:1.0 2667:1.0 2742:1.0
0.026385254056904388 123:1.0 180:1.0 186:1.0 257:1.0 410:1.0 425:1.0 429:1.0 547:1.0 823:1.0 838:1.0 845:1.0 847:1.0 905:1.0 955:1.0 958:1.0 965:1.0 966:1.0 1055:1.0 1135:1.0 1160:1.0 1654:1.0 1885:1.0 1899:1.0 2011:1.0 2101:1.0 2130:1.0 2499:1.0 2667:1.0 2799:1.0
-0.00741606067852629 165:1.0 421:1.0 790:1.0 885:1.0 958:1.0 985:1.0 996:1.0 1000:1.0 1170:1.0 1176:1.0 1191:1.0 1786:1.0 1909:1.0 1931:1.0 2013:1.0 2043:1.0 2591:1.0 2667:1.0 2733:1.0 2738:1.0 2742:1.0 2743:1.0
0.002902278807136324 1:1.0 66:1.0 367:1.0 460:1.0 570:1.0 621:1.0 838:1.0 873:1.0 876:1.0 886:1.0 949:1.0 968:1.0 1080:1.0 1084:1.0 1127:1.0 1183:1.0 1214:1.0 1217:1.0 1454:1.0 1688:1.0 1842:1.0 1885:1.0 1929:1.0 2060:1.0 2061:1.0 2141:1.0 2170:1.0 2381:1.0 2667:1.0 2787:1.0
0.019424086563896627 1:1.0 15:1.0 118:1.0 129:1.0 211:1.0 379:1.0 393:1.0 430:1.0 791:1.0 830:1.0 873:1.0 913:1.0 958:1.0 1022:1.0 1098:1.0 1099:1.0 1168:1.0 1180:1.0 1256:1.0 1522:1.0 1634:1.0 1709:1.0 1968:1.0 1982:1.0 2021:1.0 2061:1.0 2102:1.0 2402:1.0 2667:1.0 2799:1.0
0.02679458566707142 3:1.0 59:1.0 74:1.0 187:1.0 497:1.0 577:1.0 889:1.0 1027:1.0 1072:1.0 1077:1.0 1113:1.0 1135:1.0 1136:1.0 1165:1.0 1215:1.0 1468:1.0 1805:1.0 1850:1.0 1982:1.0 2170:1.0 2360:1.0 2635:1.0 2667:1.0 2807:1.0 2809:1.0
-0.015348005381338868 14:1.0 17:1.0 90:1.0 104:1.0 156:1.0 232:1.0 235:1.0 327:1.0 397:1.0 415:1.0 451:1.0 494:1.0 605:1.0 642:1.0 684:1.0 695:1.0 774:1.0 853:1.0 868:1.0 875:1.0 889:1.0 965:1.0 968:1.0 1008:1.0 1022:1.0 1059:1.0 1099:1.0 1108:1.0 1127:1.0 1136:1.0 1138:1.0 1168:1.0 1171:1.0 1237:1.0 1285:1.0 1299:1.0 1353:1.0 1408:1.0 1446:1.0 1529:1.0 1626:1.0 1705:1.0 1732:1.0 1792:1.0 1810:1.0 1885:1.0 1993:1.0 2029:1.0 2043:1.0 2139:1.0 2189:1.0 2294:1.0 2429:1.0 2440:1.0 2518:1.0 2543:1.0 2553:1.0 2667:1.0 2707:1.0 2789:1.0 2805:1.0 2837:1.0
-0.03464610941648511 1:1.0 28:1.0 223:1.0 257:1.0 398:1.0 408:1.0 621:1.0 634:1.0 774:1.0 838:1.0 873:1.0 904:1.0 955:1.0 965:1.0 968:1.0 1003:1.0 1034:1.0 1123:1.0 1127:1.0 1136:1.0 1168:1.0 1181:1.0 1805:1.0 1929:1.0 1993:1.0 2166:1.0 2189:1.0 2204:1.0 2330:1.0 2667:1.0 2733:1.0 2872:1.0 2873:1.0 2875:1.0
-0.016558957642775256 41:1.0 69:1.0 157:1.0 170:1.0 266:1.0 392:1.0 397:1.0 424:1.0 450:1.0 451:1.0 463:1.0 494:1.0 751:1.0 756:1.0 787:1.0 791:1.0 823:1.0 825:1.0 832:1.0 845:1.0 847:1.0 853:1.0 868:1.0 895:1.0 913:1.0 958:1.0 965:1.0 1008:1.0 1031:1.0 1050:1.0 1052:1.0 1055:1.0 1078:1.0 1102:1.0 1108:1.0 1136:1.0 1162:1.0 1168:1.0 1173:1.0 1441:1.0 1446:1.0 1459:1.0 1461:1.0 1561:1.0 1739:1.0 1782:1.0 1783:1.0 1801:1.0 1816:1.0 1929:1.0 1982:1.0 1993:1.0 2061:1.0 2145:1.0 2180:1.0 2196:1.0 2227:1.0 2237:1.0 2269:1.0 2294:1.0 2304:1.0 2489:1.0 2518:1.0 2519:1.0 2544:1.0 2667:1.0 2774:1.0 2789:1.0 2837:1.0
0.03464610941648511 1:1.0 3:1.0 504:1.0 587:1.0 679:1.0 704:1.0 842:1.0 853:1.0 873:1.0 980:1.0 1033:1.0 1183:1.0 1481:1.0 1806:1.0 2145:1.0 2175:1.0 2518:1.0 2667:1.0
-0.03464610941648511 1:1.0 99:1.0 314:1.0 397:1.0 421:1.0 451:1.0 493:1.0 572:1.0 629:1.0 711:1.0 734:1.0 853:1.0 868:1.0 873:1.0 885:1.0 973:1.0 996:1.0 1008:1.0 1049:1.0 1079:1.0 1108:1.0 1142:1.0 1164:1.0 1170:1.0 1194:1.0 1785:1.0 1786:1.0 1824:1.0 1931:1.0 2101:1.0 2167:1.0 2172:1.0 2518:1.0 2570:1.0 2595:1.0 2667:1.0 2742:1.0 2765:1.0 2789:1.0 2836:1.0
0.03464610941648511 3:1.0 15:1.0 176:1.0 331:1.0 488:1.0 528:1.0 530:1.0 680:1.0 826:1.0 846:1.0 880:1.0 881:1.0 927:1.0 945:1.0 964:1.0 986:1.0 1022:1.0 1025:1.0 1040:1.0 1076:1.0 1099:1.0 1120:1.0 1135:1.0 1142:1.0 1822:1.0 1943:1.0 2029:1.0 2148:1.0 2189:1.0 2262:1.0 2326:1.0 2456:1.0 2490:1.0 2553:1.0 2667:1.0 2713:1.0 2742:1.0 2758:1.0 2835:1.0
0.03464610941648511 61:1.0 194:1.0 724:1.0 881:1.0 894:1.0 1049:1.0 1138:1.0 1155:1.0 1622:1.0 2029:1.0 2304:1.0 2667:1.0 2824:1.0
0.03464610941648511 126:1.0 143:1.0 266:1.0 533:1.0 586:1.0 653:1.0 834:1.0 913:1.0 989:1.0 1052:1.0 1099:1.0 1110:1.0 1136:1.0 1147:1.0 1163:1.0 1210:1.0 1459:1.0 1486:1.0 1893:1.0 1982:1.0 1987:1.0 2061:1.0 2613:1.0 2667:1.0 2860:1.0
0.03464610941648511 3:1.0 17:1.0 64:1.0 266:1.0 325:1.0 337:1.0 432:1.0 486:1.0 517:1.0 759:1.0 763:1.0 880:1.0 889:1.0 913:1.0 996:1.0 1006:1.0 1008:1.0 1017:1.0 1027:1.0 1108:1.0 1113:1.0 1135:1.0 1136:1.0 1145:1.0 1491:1.0 1850:1.0 1921:1.0 1922:1.0 1993:1.0 2170:1.0 2464:1.0 2468:1.0 2667:1.0 2739:1.0 2773:1.0 2807:1.0
0.03464610941648511 90:1.0 118:1.0 266:1.0 576:1.0 681:1.0 847:1.0 913:1.0 956:1.0 958:1.0 1135:1.0 1136:1.0 1168:1.0 1180:1.0 1361:1.0 1426:1.0 1982:1.0 2204:1.0 2238:1.0 2266:1.0 2363:1.0 2474:1.0 2667:1.0
-0.02590891806285816 2:1.0 3:1.0 14:1.0 143:1.0 266:1.0 401:1.0 494:1.0 800:1.0 851:1.0 881:1.0 892:1.0 908:1.0 913:1.0 965:1.0 1028:1.0 1040:1.0 1089:1.0 1099:1.0 1136:1.0 1147:1.0 1168:1.0 1309:1.0 1702:1.0 1795:1.0 1800:1.0 1922:1.0 1982:1.0 2175:1.0 2228:1.0 2439:1.0 2554:1.0 2667:1.0 2712:1.0 2860:1.0
-0.03464610941648511 1:1.0 24:1.0 372:1.0 379:1.0 425:1.0 485:1.0 512:1.0 847:1.0 873:1.0 876:1.0 919:1.0 958:1.0 1098:1.0 1160:1.0 1162:1.0 1198:1.0 1735:1.0 1895:1.0 1977:1.0 1993:1.0 2077:1.0 2092:1.0 2469:1.0 2558:1.0 2637:1.0 2667:1.0
-0.013168962748710726 44:1.0 63:1.0 111:1.0 301:1.0 463:1.0 494:1.0 563:1.0 823:1.0 839:1.0 882:1.0 908:1.0 909:1.0 955:1.0 958:1.0 965:1.0 991:1.0 1055:1.0 1107:1.0 1136:1.0 1168:1.0 1772:1.0 2116:1.0 2130:1.0 2189:1.0 2487:1.0 2552:1.0 2607:1.0 2626:1.0 2667:1.0 2813:1.0
-0.026786835596520755 3:1.0 31:1.0 214:1.0 266:1.0 296:1.0 340:1.0 346:1.0 488:1.0 529:1.0 548:1.0 681:1.0 745:1.0 840:1.0 847:1.0 880:1.0 881:1.0 913:1.0 928:1.0 943:1.0 958:1.0 965:1.0 973:1.0 1039:1.0 1068:1.0 1110:1.0 1134:1.0 1136:1.0 1165:1.0 1180:1.0 1760:1.0 1812:1.0 1953:1.0 1982:1.0 2007:1.0 2095:1.0 2271:1.0 2294:1.0 2363:1.0 2439:1.0 2598:1.0 2605:1.0 2645:1.0 2667:1.0 2719:1.0 2788:1.0 2799:1.0
-6.669132944213752E-4 26:1.0 82:1.0 227:1.0 229:1.0 538:1.0 625:1.0 666:1.0 727:1.0 876:1.0 916:1.0 936:1.0 958:1.0 973:1.0 1027:1.0 1074:1.0 1103:1.0 1135:1.0 1144:1.0 1160:1.0 1166:1.0 1218:1.0 1922:1.0 1945:1.0 2373:1.0 2487:1.0 2538:1.0 2581:1.0 2667:1.0 2673:1.0 2716:1.0
0.03464610941648511 19:1.0 172:1.0 192:1.0 279:1.0 397:1.0 407:1.0 451:1.0 707:1.0 846:1.0 853:1.0 868:1.0 894:1.0 968:1.0 1008:1.0 1070:1.0 1080:1.0 1084:1.0 1108:1.0 1115:1.0 1155:1.0 1162:1.0 1217:1.0 1285:1.0 1320:1.0 1353:1.0 1454:1.0 1529:1.0 1651:1.0 1919:1.0 2319:1.0 2429:1.0 2518:1.0 2603:1.0 2667:1.0 2742:1.0 2774:1.0 2799:1.0 2805:1.0 2837:1.0
0.03464610941648511 95:1.0 105:1.0 147:1.0 223:1.0 231:1.0 236:1.0 574:1.0 632:1.0 654:1.0 718:1.0 798:1.0 838:1.0 853:1.0 908:1.0 912:1.0 929:1.0 954:1.0 958:1.0 1025:1.0 1049:1.0 1059:1.0 1079:1.0 1098:1.0 1135:1.0 1168:1.0 1181:1.0 1885:1.0 1920:1.0 1993:1.0 2024:1.0 2209:1.0 2425:1.0 2439:1.0 2518:1.0 2524:1.0 2564:1.0 2667:1.0
0.03464610941648511 53:1.0 97:1.0 209:1.0 245:1.0 398:1.0 446:1.0 471:1.0 561:1.0 596:1.0 618:1.0 853:1.0 955:1.0 961:1.0 964:1.0 1049:1.0 1062:1.0 1066:1.0 1070:1.0 1136:1.0 1168:1.0 1215:1.0 1229:1.0 1276:1.0 1333:1.0 1424:1.0 1454:1.0 1496:1.0 1581:1.0 1721:1.0 1803:1.0 1982:1.0 2044:1.0 2170:1.0 2275:1.0 2429:1.0 2518:1.0 2563:1.0 2667:1.0 2809:1.0 2837:1.0
0.01821226124811636 4:1.0 14:1.0 97:1.0 104:1.0 162:1.0 235:1.0 310:1.0 390:1.0 494:1.0 605:1.0 612:1.0 641:1.0 774:1.0 853:1.0 873:1.0 961:1.0 964:1.0 965:1.0 968:1.0 1022:1.0 1046:1.0 1059:1.0 1099:1.0 1136:1.0 1203:1.0 1215:1.0 1288:1.0 1660:1.0 1705:1.0 1817:1.0 1819:1.0 1849:1.0 1993:1.0 2061:1.0 2170:1.0 2258:1.0 2368:1.0 2387:1.0 2419:1.0 2518:1.0 2524:1.0 2667:1.0 2805:1.0 2836:1.0
0.03464610941648511 10:1.0 41:1.0 130:1.0 221:1.0 356:1.0 377:1.0 621:1.0 634:1.0 657:1.0 774:1.0 838:1.0 895:1.0 965:1.0 968:1.0 1019:1.0 1027:1.0 1031:1.0 1127:1.0 1135:1.0 1168:1.0 1170:1.0 1194:1.0 1419:1.0 1493:1.0 1885:1.0 1931:1.0 2204:1.0 2294:1.0 2431:1.0 2598:1.0 2667:1.0 2742:1.0 2815:1.0 2827:1.0 2836:1.0
-0.03464610941648511 90:1.0 209:1.0 397:1.0 446:1.0 451:1.0 561:1.0 853:1.0 868:1.0 961:1.0 1008:1.0 1027:1.0 1062:1.0 1108:1.0 1126:1.0 1135:1.0 1136:1.0 1168:1.0 1229:1.0 1230:1.0 1276:1.0 1333:1.0 1496:1.0 1505:1.0 1534:1.0 1581:1.0 1721:1.0 1803:1.0 1982:1.0 2044:1.0 2090:1.0 2170:1.0 2275:1.0 2434:1.0 2518:1.0 2667:1.0
-0.03464610941648511 31:1.0 95:1.0 135:1.0 228:1.0 339:1.0 453:1.0 679:1.0 747:1.0 761:1.0 824:1.0 853:1.0 871:1.0 919:1.0 954:1.0 965:1.0 1014:1.0 1027:1.0 1029:1.0 1050:1.0 1078:1.0 1080:1.0 1110:1.0 1115:1.0 1116:1.0 1120:1.0 1135:1.0 1136:1.0 1158:1.0 1180:1.0 1182:1.0 1183:1.0 1201:1.0 1217:1.0 1833:1.0 1982:1.0 1992:1.0 2130:1.0 2237:1.0 2240:1.0 2262:1.0 2376:1.0 2394:1.0 2518:1.0 2567:1.0 2667:1.0 2742:1.0 2758:1.0 2794:1.0 2806:1.0 2872:1.0
-0.016163914993582332 623:1.0 849:1.0 873:1.0 1092:1.0 1131:1.0 1307:1.0 1454:1.0 1665:1.0 1778:1.0 2667:1.0 2705:1.0 2805:1.0 2836:1.0
-0.025311201636402627 4:1.0 17:1.0 307:1.0 415:1.0 635:1.0 655:1.0 719:1.0 777:1.0 851:1.0 856:1.0 889:1.0 894:1.0 968:1.0 1008:1.0 1076:1.0 1089:1.0 1108:1.0 1134:1.0 1138:1.0 1155:1.0 1156:1.0 1180:1.0 1195:1.0 1492:1.0 1788:1.0 1791:1.0 2136:1.0 2170:1.0 2285:1.0 2464:1.0 2518:1.0 2603:1.0 2667:1.0 2742:1.0 2759:1.0 2811:1.0 2860:1.0 2864:1.0
-0.03464610941648511 4:1.0 192:1.0 325:1.0 406:1.0 662:1.0 707:1.0 853:1.0 1017:1.0 1027:1.0 1080:1.0 1116:1.0 1135:1.0 1160:1.0 1217:1.0 1849:1.0 2419:1.0 2518:1.0 2667:1.0 2681:1.0 2835:1.0
0.03464610941648511 82:1.0 183:1.0 208:1.0 266:1.0 593:1.0 686:1.0 745:1.0 827:1.0 876:1.0 913:1.0 936:1.0 965:1.0 973:1.0 1135:1.0 1136:1.0 1147:1.0 1160:1.0 1166:1.0 1167:1.0 1198:1.0 1417:1.0 1929:1.0 1993:1.0 2016:1.0 2059:1.0 2162:1.0 2177:1.0 2582:1.0 2667:1.0 2817:1.0 2860:1.0
0.032278561873970366 4:1.0 14:1.0 24:1.0 39:1.0 61:1.0 108:1.0 235:1.0 335:1.0 379:1.0 425:1.0 450:1.0 463:1.0 512:1.0 621:1.0 635:1.0 681:1.0 823:1.0 838:1.0 847:1.0 881:1.0 958:1.0 965:1.0 968:1.0 1055:1.0 1098:1.0 1099:1.0 1127:1.0 1138:1.0 1160:1.0 1162:1.0 1180:1.0 1419:1.0 1459:1.0 1593:1.0 1652:1.0 1885:1.0 1965:1.0 1982:1.0 2054:1.0 2061:1.0 2200:1.0 2285:1.0 2294:1.0 2455:1.0 2605:1.0 2665:1.0 2667:1.0 2824:1.0
0.03464610941648511 39:1.0 61:1.0 69:1.0 124:1.0 211:1.0 218:1.0 248:1.0 425:1.0 429:1.0 547:1.0 764:1.0 847:1.0 881:1.0 905:1.0 913:1.0 926:1.0 958:1.0 1078:1.0 1098:1.0 1136:1.0 1138:1.0 1160:1.0 1162:1.0 1394:1.0 1417:1.0 1772:1.0 1804:1.0 1928:1.0 1962:1.0 1982:1.0 1993:1.0 2006:1.0 2038:1.0 2394:1.0 2567:1.0 2667:1.0 2836:1.0 2860:1.0
0.03464610941648511 118:1.0 148:1.0 156:1.0 239:1.0 266:1.0 282:1.0 340:1.0 409:1.0 414:1.0 424:1.0 488:1.0 534:1.0 548:1.0 656:1.0 840:1.0 880:1.0 881:1.0 882:1.0 895:1.0 908:1.0 913:1.0 929:1.0 955:1.0 1003:1.0 1034:1.0 1039:1.0 1135:1.0 1136:1.0 1165:1.0 1171:1.0 1180:1.0 1361:1.0 1388:1.0 1666:1.0 1729:1.0 1816:1.0 1929:1.0 1947:1.0 1982:1.0 2033:1.0 2063:1.0 2136:1.0 2189:1.0 2196:1.0 2211:1.0 2266:1.0 2439:1.0 2527:1.0 2667:1.0 2834:1.0
0.02829680959916944 19:1.0 39:1.0 266:1.0 479:1.0 529:1.0 600:1.0 693:1.0 742:1.0 768:1.0 791:1.0 872:1.0 873:1.0 881:1.0 908:1.0 913:1.0 930:1.0 958:1.0 972:1.0 1014:1.0 1046:1.0 1084:1.0 1115:1.0 1133:1.0 1136:1.0 1140:1.0 1162:1.0 1165:1.0 1168:1.0 1190:1.0 1298:1.0 1347:1.0 1352:1.0 1382:1.0 1530:1.0 1608:1.0 1660:1.0 1724:1.0 1760:1.0 1916:1.0 1978:1.0 1982:1.0 2063:1.0 2077:1.0 2092:1.0 2116:1.0 2227:1.0 2294:1.0 2367:1.0 2460:1.0 2667:1.0 2684:1.0 2742:1.0 2836:1.0
-0.011383538558761327 14:1.0 99:1.0 108:1.0 211:1.0 232:1.0 316:1.0 326:1.0 327:1.0 379:1.0 426:1.0 541:1.0 614:1.0 621:1.0 724:1.0 742:1.0 745:1.0 830:1.0 838:1.0 881:1.0 913:1.0 958:1.0 965:1.0 968:1.0 1022:1.0 1049:1.0 1070:1.0 1098:1.0 1099:1.0 1108:1.0 1127:1.0 1140:1.0 1160:1.0 1419:1.0 1426:1.0 1475:1.0 1605:1.0 1606:1.0 1885:1.0 1982:1.0 2139:1.0 2170:1.0 2180:1.0 2238:1.0 2294:1.0 2319:1.0 2450:1.0 2475:1.0 2666:1.0 2667:1.0 2776:1.0 2780:1.0
-0.004691485539285414 61:1.0 161:1.0 216:1.0 266:1.0 303:1.0 381:1.0 441:1.0 463:1.0 481:1.0 533:1.0 667:1.0 745:1.0 791:1.0 794:1.0 813:1.0 881:1.0 913:1.0 958:1.0 965:1.0 1036:1.0 1037:1.0 1047:1.0 1055:1.0 1056:1.0 1087:1.0 1098:1.0 1136:1.0 1138:1.0 1148:1.0 1163:1.0 1165:1.0 1168:1.0 1180:1.0 1194:1.0 1236:1.0 1311:1.0 1382:1.0 1403:1.0 1417:1.0 1459:1.0 1522:1.0 1612:1.0 1755:1.0 1771:1.0 1982:1.0 2026:1.0 2061:1.0 2077:1.0 2130:1.0 2159:1.0 2186:1.0 2336:1.0 2487:1.0 2536:1.0 2592:1.0 2667:1.0 2817:1.0 2860:1.0
-0.026914426803412134 3:1.0 69:1.0 113:1.0 122:1.0 139:1.0 189:1.0 208:1.0 239:1.0 251:1.0 266:1.0 282:1.0 332:1.0 337:1.0 396:1.0 398:1.0 558:1.0 602:1.0 609:1.0 619:1.0 708:1.0 713:1.0 762:1.0 767:1.0 834:1.0 864:1.0 865:1.0 876:1.0 882:1.0 908:1.0 913:1.0 929:1.0 941:1.0 945:1.0 955:1.0 1017:1.0 1052:1.0 1099:1.0 1103:1.0 1120:1.0 1136:1.0 1152:1.0 1160:1.0 1161:1.0 1162:1.0 1165:1.0 1170:1.0 1214:1.0 1548:1.0 1636:1.0 1754:1.0 1760:1.0 1767:1.0 1893:1.0 1929:1.0 1943:1.0 1982:1.0 1993:1.0 2011:1.0 2025:1.0 2058:1.0 2140:1.0 2210:1.0 2215:1.0 2253:1.0 2262:1.0 2294:1.0 2421:1.0 2439:1.0 2453:1.0 2597:1.0 2598:1.0 2667:1.0 2693:1.0 2742:1.0 2793:1.0 2803:1.0 2823:1.0
-0.03464610941648511 39:1.0 61:1.0 69:1.0 463:1.0 494:1.0 791:1.0 823:1.0 881:1.0 958:1.0 965:1.0 1055:1.0 1136:1.0 1138:1.0 1162:1.0 1168:1.0 1454:1.0 1555:1.0 1730:1.0 1776:1.0 1950:1.0 1993:1.0 2233:1.0 2270:1.0 2294:1.0 2667:1.0 2733:1.0
-0.012462165759698513 3:1.0 14:1.0 33:1.0 39:1.0 69:1.0 118:1.0 174:1.0 175:1.0 222:1.0 266:1.0 344:1.0 379:1.0 436:1.0 494:1.0 529:1.0 560:1.0 656:1.0 742:1.0 800:1.0 881:1.0 895:1.0 904:1.0 913:1.0 950:1.0 958:1.0 965:1.0 1003:1.0 1013:1.0 1025:1.0 1036:1.0 1087:1.0 1098:1.0 1099:1.0 1102:1.0 1135:1.0 1136:1.0 1140:1.0 1162:1.0 1165:1.0 1168:1.0 1180:1.0 1235:1.0 1369:1.0 1403:1.0 1598:1.0 1610:1.0 1704:1.0 1750:1.0 1835:1.0 1931:1.0 1968:1.0 1982:1.0 2043:1.0 2067:1.0 2170:1.0 2313:1.0 2336:1.0 2402:1.0 2425:1.0 2487:1.0 2524:1.0 2557:1.0 2630:1.0 2667:1.0 2799:1.0
0.03464610941648511 3:1.0 4:1.0 14:1.0 146:1.0 262:1.0 313:1.0 397:1.0 451:1.0 593:1.0 679:1.0 845:1.0 853:1.0 868:1.0 965:1.0 1008:1.0 1099:1.0 1108:1.0 1135:1.0 1151:1.0 1183:1.0 1209:1.0 1230:1.0 1252:1.0 1505:1.0 1534:1.0 1664:1.0 1697:1.0 1769:1.0 2118:1.0 2170:1.0 2195:1.0 2294:1.0 2434:1.0 2506:1.0 2518:1.0 2549:1.0 2586:1.0 2667:1.0
0.004973245393814903 1:1.0 4:1.0 95:1.0 232:1.0 368:1.0 397:1.0 430:1.0 451:1.0 535:1.0 656:1.0 695:1.0 707:1.0 740:1.0 853:1.0 868:1.0 873:1.0 895:1.0 954:1.0 968:1.0 1003:1.0 1008:1.0 1022:1.0 1080:1.0 1108:1.0 1183:1.0 1230:1.0 1260:1.0 1505:1.0 1534:1.0 1588:1.0 1931:1.0 2170:1.0 2224:1.0 2434:1.0 2518:1.0 2667:1.0 2681:1.0 2774:1.0 2794:1.0 2808:1.0 2869:1.0
0.03464610941648511 121:1.0 125:1.0 199:1.0 251:1.0 488:1.0 546:1.0 695:1.0 746:1.0 777:1.0 789:1.0 865:1.0 873:1.0 880:1.0 881:1.0 968:1.0 996:1.0 1008:1.0 1046:1.0 1080:1.0 1108:1.0 1134:1.0 1152:1.0 1217:1.0 1754:1.0 1824:1.0 2056:1.0 2228:1.0 2305:1.0 2464:1.0 2490:1.0 2630:1.0 2667:1.0 2774:1.0 2836:1.0 2864:1.0
0.03464610941648511 2:1.0 3:1.0 17:1.0 64:1.0 89:1.0 107:1.0 209:1.0 283:1.0 451:1.0 733:1.0 868:1.0 889:1.0 892:1.0 985:1.0 1008:1.0 1062:1.0 1108:1.0 1113:1.0 1115:1.0 1136:1.0 1170:1.0 1188:1.0 1349:1.0 1434:1.0 1496:1.0 1650:1.0 1850:1.0 1982:1.0 2071:1.0 2170:1.0 2341:1.0 2508:1.0 2518:1.0 2667:1.0 2681:1.0 2742:1.0 2836:1.0
-0.00443178379461365 3:1.0 81:1.0 199:1.0 400:1.0 695:1.0 777:1.0 866:1.0 960:1.0 968:1.0 996:1.0 1008:1.0 1108:1.0 1134:1.0 1138:1.0 1139:1.0 1190:1.0 1371:1.0 1376:1.0 1414:1.0 1530:1.0 1588:1.0 1779:1.0 2050:1.0 2170:1.0 2195:1.0 2365:1.0 2464:1.0 2553:1.0 2667:1.0 2742:1.0 2808:1.0
-0.03464610941648511 1:1.0 486:1.0 488:1.0 540:1.0 575:1.0 629:1.0 695:1.0 873:1.0 880:1.0 881:1.0 912:1.0 968:1.0 1008:1.0 1049:1.0 1108:1.0 1183:1.0 1368:1.0 1626:1.0 1828:1.0 2029:1.0 2145:1.0 2490:1.0 2667:1.0 2805:1.0 2836:1.0 2837:1.0 2875:1.0
-0.015979332547974977 3:1.0 4:1.0 14:1.0 115:1.0 427:1.0 494:1.0 613:1.0 638:1.0 653:1.0 834:1.0 965:1.0 1018:1.0 1057:1.0 1099:1.0 1135:1.0 1136:1.0 1170:1.0 1210:1.0 1252:1.0 1627:1.0 1664:1.0 1685:1.0 1697:1.0 2195:1.0 2294:1.0 2506:1.0 2667:1.0 2742:1.0
-0.018416783169587166 3:1.0 4:1.0 97:1.0 184:1.0 191:1.0 252:1.0 291:1.0 409:1.0 414:1.0 541:1.0 574:1.0 688:1.0 690:1.0 763:1.0 792:1.0 802:1.0 806:1.0 830:1.0 834:1.0 838:1.0 871:1.0 880:1.0 881:1.0 882:1.0 885:1.0 891:1.0 912:1.0 942:1.0 955:1.0 964:1.0 999:1.0 1003:1.0 1039:1.0 1049:1.0 1090:1.0 1099:1.0 1135:1.0 1143:1.0 1145:1.0 1153:1.0 1160:1.0 1180:1.0 1215:1.0 1366:1.0 1382:1.0 1763:1.0 1886:1.0 1929:1.0 1944:1.0 2012:1.0 2061:1.0 2099:1.0 2390:1.0 2419:1.0 2425:1.0 2439:1.0 2468:1.0 2589:1.0 2667:1.0 2742:1.0 2774:1.0 2807:1.0 2835:1.0 2864:1.0
-0.03464610941648511 1:1.0 243:1.0 460:1.0 785:1.0 873:1.0 1080:1.0 1106:1.0 1194:1.0 1210:1.0 2090:1.0 2667:1.0 2836:1.0
0.03464610941648511 3:1.0 4:1.0 211:1.0 266:1.0 301:1.0 339:1.0 379:1.0 396:1.0 494:1.0 604:1.0 612:1.0 618:1.0 745:1.0 747:1.0 913:1.0 955:1.0 958:1.0 961:1.0 964:1.0 965:1.0 1023:1.0 1052:1.0 1098:1.0 1103:1.0 1106:1.0 1120:1.0 1136:1.0 1158:1.0 1168:1.0 1182:1.0 1194:1.0 1388:1.0 1413:1.0 1805:1.0 1835:1.0 1893:1.0 1899:1.0 1982:1.0 2014:1.0 2036:1.0 2044:1.0 2189:1.0 2258:1.0 2262:1.0 2265:1.0 2272:1.0 2318:1.0 2518:1.0 2581:1.0 2607:1.0 2667:1.0 2761:1.0 2799:1.0
0.03286108936298008 59:1.0 149:1.0 187:1.0 258:1.0 266:1.0 306:1.0 398:1.0 494:1.0 516:1.0 525:1.0 745:1.0 800:1.0 829:1.0 913:1.0 955:1.0 965:1.0 971:1.0 991:1.0 1027:1.0 1073:1.0 1077:1.0 1099:1.0 1135:1.0 1136:1.0 1137:1.0 1168:1.0 1187:1.0 1452:1.0 1466:1.0 1580:1.0 1636:1.0 1902:1.0 1982:1.0 1993:1.0 2061:1.0 2174:1.0 2189:1.0 2381:1.0 2499:1.0 2519:1.0 2667:1.0 2700:1.0 2735:1.0 2805:1.0 2861:1.0
0.03464610941648511 325:1.0 463:1.0 791:1.0 958:1.0 1017:1.0 1027:1.0 1055:1.0 1135:1.0 1168:1.0 1977:1.0 2417:1.0 2667:1.0 2799:1.0 2834:1.0
0.03464610941648511 1:1.0 3:1.0 14:1.0 24:1.0 90:1.0 129:1.0 266:1.0 316:1.0 372:1.0 379:1.0 568:1.0 614:1.0 830:1.0 873:1.0 913:1.0 958:1.0 965:1.0 971:1.0 1098:1.0 1099:1.0 1111:1.0 1136:1.0 1162:1.0 1168:1.0 1180:1.0 1647:1.0 1993:1.0 2043:1.0 2061:1.0 2132:1.0 2257:1.0 2405:1.0 2475:1.0 2523:1.0 2597:1.0 2600:1.0 2667:1.0 2860:1.0
0.03464610941648511 463:1.0 593:1.0 791:1.0 823:1.0 958:1.0 965:1.0 1055:1.0 1135:1.0 1168:1.0 1906:1.0 2092:1.0 2189:1.0 2611:1.0 2667:1.0
-0.03464610941648511 239:1.0 266:1.0 398:1.0 553:1.0 568:1.0 618:1.0 717:1.0 853:1.0 863:1.0 906:1.0 913:1.0 944:1.0 955:1.0 971:1.0 1136:1.0 1168:1.0 1386:1.0 1739:1.0 1769:1.0 1947:1.0 1982:1.0 2174:1.0 2237:1.0 2368:1.0 2518:1.0 2542:1.0 2667:1.0 2733:1.0
-0.03464610941648511 211:1.0 379:1.0 593:1.0 745:1.0 791:1.0 913:1.0 958:1.0 965:1.0 1098:1.0 1135:1.0 1168:1.0 1417:1.0 1993:1.0 2130:1.0 2204:1.0 2450:1.0 2667:1.0 2860:1.0
-0.01712206348633199 3:1.0 69:1.0 97:1.0 176:1.0 228:1.0 247:1.0 264:1.0 266:1.0 297:1.0 333:1.0 471:1.0 480:1.0 516:1.0 596:1.0 611:1.0 675:1.0 679:1.0 829:1.0 853:1.0 913:1.0 936:1.0 954:1.0 964:1.0 968:1.0 1017:1.0 1022:1.0 1023:1.0 1066:1.0 1070:1.0 1073:1.0 1108:1.0 1131:1.0 1136:1.0 1146:1.0 1162:1.0 1182:1.0 1183:1.0 1187:1.0 1215:1.0 1454:1.0 1499:1.0 1506:1.0 1507:1.0 1636:1.0 1641:1.0 1768:1.0 1913:1.0 1916:1.0 1922:1.0 1993:1.0 2014:1.0 2172:1.0 2189:1.0 2380:1.0 2390:1.0 2518:1.0 2589:1.0 2667:1.0 2672:1.0 2680:1.0 2685:1.0 2733:1.0 2773:1.0 2799:1.0 2805:1.0 2836:1.0 2837:1.0
-0.03464610941648511 90:1.0 266:1.0 593:1.0 745:1.0 913:1.0 965:1.0 1135:1.0 1136:1.0 1168:1.0 1760:1.0 1982:1.0 2034:1.0 2294:1.0 2561:1.0 2667:1.0
-0.009257527716744152 3:1.0 90:1.0 109:1.0 153:1.0 208:1.0 209:1.0 228:1.0 234:1.0 266:1.0 281:1.0 341:1.0 463:1.0 494:1.0 536:1.0 563:1.0 663:1.0 689:1.0 700:1.0 745:1.0 767:1.0 823:1.0 860:1.0 876:1.0 913:1.0 954:1.0 958:1.0 964:1.0 965:1.0 982:1.0 985:1.0 1030:1.0 1055:1.0 1058:1.0 1062:1.0 1065:1.0 1107:1.0 1136:1.0 1152:1.0 1168:1.0 1197:1.0 1382:1.0 1459:1.0 1469:1.0 1496:1.0 1524:1.0 1760:1.0 1929:1.0 1982:1.0 1992:1.0 1993:1.0 2014:1.0 2044:1.0 2061:1.0 2063:1.0 2130:1.0 2133:1.0 2294:1.0 2342:1.0 2388:1.0 2518:1.0 2521:1.0 2533:1.0 2567:1.0 2636:1.0 2658:1.0 2667:1.0 2760:1.0
0.03464610941648511 3:1.0 4:1.0 14:1.0 319:1.0 369:1.0 486:1.0 494:1.0 613:1.0 773:1.0 834:1.0 866:1.0 871:1.0 879:1.0 880:1.0 888:1.0 965:1.0 1008:1.0 1027:1.0 1035:1.0 1099:1.0 1106:1.0 1108:1.0 1135:1.0 1136:1.0 1192:1.0 1194:1.0 1493:1.0 1577:1.0 1729:1.0 1795:1.0 1982:1.0 2033:1.0 2170:1.0 2195:1.0 2294:1.0 2487:1.0 2570:1.0 2667:1.0 2757:1.0 2780:1.0 2836:1.0
0.03464610941648511 1:1.0 5:1.0 108:1.0 540:1.0 574:1.0 629:1.0 821:1.0 838:1.0 873:1.0 894:1.0 912:1.0 965:1.0 1029:1.0 1049:1.0 1110:1.0 1279:1.0 1824:1.0 1862:1.0 1885:1.0 2244:1.0 2549:1.0 2667:1.0 2702:1.0 2836:1.0 2841:1.0
0.004726237404024211 1:1.0 184:1.0 540:1.0 574:1.0 629:1.0 838:1.0 858:1.0 873:1.0 887:1.0 912:1.0 1049:1.0 1153:1.0 1160:1.0 1743:1.0 1885:1.0 2245:1.0 2667:1.0 2788:1.0
0.03464610941648511 99:1.0 125:1.0 312:1.0 488:1.0 724:1.0 873:1.0 880:1.0 881:1.0 996:1.0 1034:1.0 1046:1.0 1049:1.0 1108:1.0 1824:1.0 2015:1.0 2085:1.0 2450:1.0 2490:1.0 2667:1.0 2681:1.0 2836:1.0
0.011633690554164475 1:1.0 66:1.0 433:1.0 540:1.0 574:1.0 629:1.0 800:1.0 838:1.0 873:1.0 876:1.0 912:1.0 1049:1.0 1099:1.0 1125:1.0 1168:1.0 1221:1.0 1832:1.0 1885:1.0 2209:1.0 2414:1.0 2667:1.0 2789:1.0 2805:1.0 2836:1.0
-0.03464610941648511 1:1.0 166:1.0 188:1.0 267:1.0 355:1.0 408:1.0 648:1.0 731:1.0 847:1.0 873:1.0 908:1.0 913:1.0 929:1.0 958:1.0 1034:1.0 1096:1.0 1125:1.0 1553:1.0 1824:1.0 2043:1.0 2416:1.0 2665:1.0 2667:1.0 2799:1.0 2806:1.0 2836:1.0
-0.0051584818417991975 182:1.0 600:1.0 843:1.0 873:1.0 972:1.0 996:1.0 1046:1.0 1226:1.0 1459:1.0 1533:1.0 1693:1.0 2170:1.0 2305:1.0 2667:1.0 2836:1.0
-0.02833944430828871 2:1.0 3:1.0 7:1.0 119:1.0 148:1.0 189:1.0 204:1.0 207:1.0 285:1.0 306:1.0 375:1.0 465:1.0 468:1.0 616:1.0 776:1.0 830:1.0 838:1.0 858:1.0 895:1.0 908:1.0 911:1.0 928:1.0 929:1.0 971:1.0 972:1.0 1018:1.0 1031:1.0 1064:1.0 1099:1.0 1102:1.0 1114:1.0 1128:1.0 1136:1.0 1153:1.0 1160:1.0 1161:1.0 1165:1.0 1491:1.0 1510:1.0 1691:1.0 1719:1.0 1886:1.0 1929:1.0 2061:1.0 2195:1.0 2252:1.0 2261:1.0 2286:1.0 2336:1.0 2439:1.0 2565:1.0 2667:1.0 2836:1.0 2869:1.0
-0.011028619794668484 3:1.0 18:1.0 75:1.0 133:1.0 206:1.0 378:1.0 380:1.0 574:1.0 838:1.0 855:1.0 869:1.0 912:1.0 927:1.0 950:1.0 1010:1.0 1049:1.0 1108:1.0 1115:1.0 1188:1.0 1434:1.0 1704:1.0 1831:1.0 1885:1.0 2067:1.0 2170:1.0 2348:1.0 2667:1.0 2681:1.0 2734:1.0 2742:1.0 2778:1.0
0.03464610941648511 69:1.0 89:1.0 90:1.0 266:1.0 377:1.0 717:1.0 745:1.0 787:1.0 853:1.0 863:1.0 913:1.0 965:1.0 1019:1.0 1136:1.0 1162:1.0 1168:1.0 1170:1.0 1386:1.0 1472:1.0 1507:1.0 1522:1.0 1891:1.0 1982:1.0 1993:1.0 2061:1.0 2140:1.0 2579:1.0 2587:1.0 2667:1.0 2680:1.0 2742:1.0
0.03464610941648511 3:1.0 69:1.0 97:1.0 176:1.0 249:1.0 266:1.0 398:1.0 618:1.0 675:1.0 717:1.0 787:1.0 853:1.0 863:1.0 879:1.0 913:1.0 927:1.0 955:1.0 964:1.0 1000:1.0 1022:1.0 1136:1.0 1162:1.0 1168:1.0 1215:1.0 1386:1.0 1468:1.0 1576:1.0 1636:1.0 1993:1.0 2043:1.0 2136:1.0 2170:1.0 2189:1.0 2275:1.0 2369:1.0 2469:1.0 2587:1.0 2667:1.0 2676:1.0 2743:1.0 2809:1.0
0.026298803505303073 1:1.0 69:1.0 372:1.0 407:1.0 494:1.0 774:1.0 873:1.0 894:1.0 965:1.0 968:1.0 1136:1.0 1155:1.0 1162:1.0 1240:1.0 1500:1.0 1614:1.0 1841:1.0 1993:1.0 2304:1.0 2664:1.0 2667:1.0 2693:1.0 2799:1.0
0.03464610941648511 36:1.0 90:1.0 266:1.0 913:1.0 916:1.0 1136:1.0 1168:1.0 1191:1.0 1795:1.0 1922:1.0 1982:1.0 2052:1.0 2368:1.0 2667:1.0
0.03464610941648511 15:1.0 266:1.0 279:1.0 293:1.0 494:1.0 529:1.0 604:1.0 745:1.0 800:1.0 846:1.0 913:1.0 965:1.0 1022:1.0 1052:1.0 1099:1.0 1115:1.0 1136:1.0 1165:1.0 1168:1.0 1388:1.0 1760:1.0 1851:1.0 1914:1.0 1982:1.0 2027:1.0 2189:1.0 2294:1.0 2667:1.0 2733:1.0 2742:1.0 2773:1.0
-0.016287109661096547 3:1.0 89:1.0 377:1.0 405:1.0 589:1.0 610:1.0 647:1.0 673:1.0 784:1.0 791:1.0 833:1.0 873:1.0 881:1.0 934:1.0 958:1.0 970:1.0 988:1.0 1002:1.0 1019:1.0 1021:1.0 1031:1.0 1037:1.0 1082:1.0 1087:1.0 1090:1.0 1092:1.0 1106:1.0 1115:1.0 1129:1.0 1136:1.0 1137:1.0 1168:1.0 1170:1.0 1194:1.0 1208:1.0 1322:1.0 1358:1.0 1403:1.0 1655:1.0 1686:1.0 1767:1.0 1788:1.0 1929:1.0 1931:1.0 1975:1.0 1982:1.0 1993:1.0 2379:1.0 2405:1.0 2459:1.0 2487:1.0 2581:1.0 2600:1.0 2667:1.0 2735:1.0 2742:1.0 2807:1.0 2836:1.0
-0.00380350281065228 4:1.0 14:1.0 252:1.0 266:1.0 356:1.0 369:1.0 381:1.0 414:1.0 439:1.0 533:1.0 597:1.0 613:1.0 650:1.0 690:1.0 767:1.0 768:1.0 831:1.0 834:1.0 840:1.0 871:1.0 882:1.0 888:1.0 913:1.0 955:1.0 965:1.0 1027:1.0 1084:1.0 1085:1.0 1099:1.0 1106:1.0 1135:1.0 1136:1.0 1144:1.0 1152:1.0 1163:1.0 1180:1.0 1194:1.0 1298:1.0 1352:1.0 1760:1.0 1915:1.0 1982:1.0 1992:1.0 2025:1.0 2061:1.0 2077:1.0 2090:1.0 2221:1.0 2224:1.0 2294:1.0 2444:1.0 2555:1.0 2667:1.0 2690:1.0 2693:1.0 2743:1.0 2747:1.0 2840:1.0
-0.03464610941648511 1:1.0 69:1.0 90:1.0 372:1.0 873:1.0 1136:1.0 1162:1.0 1168:1.0 1397:1.0 1993:1.0 2273:1.0 2619:1.0 2667:1.0
-0.03464610941648511 14:1.0 60:1.0 90:1.0 209:1.0 266:1.0 328:1.0 459:1.0 494:1.0 536:1.0 913:1.0 954:1.0 965:1.0 1062:1.0 1069:1.0 1099:1.0 1136:1.0 1141:1.0 1168:1.0 1459:1.0 1491:1.0 1524:1.0 1555:1.0 1726:1.0 1929:1.0 1982:1.0 1992:1.0 2294:1.0 2386:1.0 2518:1.0 2534:1.0 2667:1.0 2761:1.0 2805:1.0
-0.03012342522776918 58:1.0 61:1.0 90:1.0 118:1.0 266:1.0 386:1.0 429:1.0 547:1.0 652:1.0 681:1.0 847:1.0 881:1.0 905:1.0 913:1.0 958:1.0 959:1.0 1040:1.0 1134:1.0 1136:1.0 1138:1.0 1168:1.0 1178:1.0 1180:1.0 1295:1.0 1408:1.0 1522:1.0 1629:1.0 1630:1.0 1906:1.0 1982:1.0 2000:1.0 2061:1.0 2302:1.0 2439:1.0 2665:1.0 2667:1.0 2824:1.0
0.03464610941648511 501:1.0 1007:1.0 1096:1.0 1135:1.0 1187:1.0 1969:1.0 2667:1.0 2805:1.0
0.00699157017864132 1:1.0 31:1.0 271:1.0 408:1.0 429:1.0 547:1.0 681:1.0 782:1.0 847:1.0 873:1.0 905:1.0 958:1.0 1034:1.0 1051:1.0 1110:1.0 1160:1.0 1180:1.0 1193:1.0 1727:1.0 1894:1.0 2101:1.0 2130:1.0 2336:1.0 2376:1.0 2394:1.0 2667:1.0
0.03464610941648511 1:1.0 3:1.0 99:1.0 147:1.0 166:1.0 188:1.0 346:1.0 379:1.0 629:1.0 677:1.0 791:1.0 847:1.0 873:1.0 928:1.0 943:1.0 958:1.0 1034:1.0 1049:1.0 1059:1.0 1098:1.0 1108:1.0 1168:1.0 1389:1.0 1652:1.0 1672:1.0 1812:1.0 1832:1.0 1916:1.0 1982:1.0 2007:1.0 2029:1.0 2158:1.0 2368:1.0 2605:1.0 2665:1.0 2667:1.0 2685:1.0 2836:1.0
0.03464610941648511 75:1.0 110:1.0 210:1.0 429:1.0 905:1.0 927:1.0 958:1.0 1188:1.0 1191:1.0 1895:1.0 2063:1.0 2533:1.0 2613:1.0 2667:1.0
0.003998634452031625 1:1.0 76:1.0 408:1.0 425:1.0 461:1.0 847:1.0 873:1.0 958:1.0 974:1.0 999:1.0 1034:1.0 1160:1.0 1454:1.0 1842:1.0 2402:1.0 2667:1.0 2742:1.0 2841:1.0
-0.03464610941648511 118:1.0 211:1.0 344:1.0 379:1.0 425:1.0 512:1.0 847:1.0 913:1.0 958:1.0 1025:1.0 1098:1.0 1135:1.0 1160:1.0 1180:1.0 1388:1.0 2058:1.0 2189:1.0 2665:1.0 2667:1.0 2788:1.0
-0.03464610941648511 105:1.0 791:1.0 798:1.0 958:1.0 1079:1.0 1168:1.0 1181:1.0 1191:1.0 1929:1.0 1932:1.0 2024:1.0 2364:1.0 2667:1.0
-0.03464610941648511 14:1.0 377:1.0 425:1.0 450:1.0 463:1.0 593:1.0 796:1.0 847:1.0 908:1.0 917:1.0 958:1.0 965:1.0 990:1.0 1019:1.0 1055:1.0 1060:1.0 1099:1.0 1124:1.0 1135:1.0 1160:1.0 1170:1.0 2103:1.0 2125:1.0 2234:1.0 2667:1.0 2690:1.0 2742:1.0 2743:1.0 2799:1.0 2835:1.0 2857:1.0
-0.03464610941648511 1:1.0 5:1.0 14:1.0 99:1.0 314:1.0 331:1.0 489:1.0 565:1.0 719:1.0 810:1.0 851:1.0 860:1.0 873:1.0 927:1.0 944:1.0 965:1.0 1008:1.0 1049:1.0 1099:1.0 1108:1.0 1188:1.0 1584:1.0 1862:1.0 1927:1.0 2029:1.0 2077:1.0 2170:1.0 2308:1.0 2434:1.0 2587:1.0 2597:1.0 2667:1.0 2684:1.0 2799:1.0
0.01665990685219518 1:1.0 4:1.0 14:1.0 41:1.0 50:1.0 69:1.0 150:1.0 243:1.0 252:1.0 269:1.0 360:1.0 372:1.0 394:1.0 398:1.0 414:1.0 690:1.0 771:1.0 773:1.0 784:1.0 834:1.0 871:1.0 873:1.0 876:1.0 882:1.0 895:1.0 899:1.0 939:1.0 955:1.0 965:1.0 1019:1.0 1031:1.0 1081:1.0 1099:1.0 1106:1.0 1129:1.0 1136:1.0 1147:1.0 1162:1.0 1180:1.0 1193:1.0 1194:1.0 1198:1.0 1208:1.0 1210:1.0 1430:1.0 1735:1.0 1876:1.0 1899:1.0 1908:1.0 1929:1.0 1992:1.0 1993:1.0 2090:1.0 2096:1.0 2210:1.0 2246:1.0 2294:1.0 2364:1.0 2376:1.0 2419:1.0 2496:1.0 2570:1.0 2667:1.0 2742:1.0 2860:1.0
0.03464610941648511 14:1.0 266:1.0 494:1.0 767:1.0 800:1.0 913:1.0 965:1.0 1099:1.0 1136:1.0 1138:1.0 1152:1.0 1168:1.0 1417:1.0 1555:1.0 2294:1.0 2323:1.0 2667:1.0 2672:1.0 2739:1.0 2860:1.0 2862:1.0
0.03464610941648511 3:1.0 61:1.0 121:1.0 174:1.0 208:1.0 254:1.0 445:1.0 699:1.0 789:1.0 876:1.0 880:1.0 881:1.0 995:1.0 997:1.0 1003:1.0 1015:1.0 1080:1.0 1102:1.0 1112:1.0 1117:1.0 1136:1.0 1138:1.0 1172:1.0 1217:1.0 1218:1.0 1459:1.0 1515:1.0 1593:1.0 1680:1.0 1929:1.0 1982:1.0 2012:1.0 2118:1.0 2256:1.0 2487:1.0 2667:1.0 2758:1.0 2807:1.0 2824:1.0 2853:1.0
-0.03464610941648511 4:1.0 869:1.0 1168:1.0 1831:1.0 2170:1.0 2667:1.0 2778:1.0
0.03464610941648511 2:1.0 3:1.0 263:1.0 377:1.0 379:1.0 443:1.0 485:1.0 790:1.0 851:1.0 881:1.0 882:1.0 884:1.0 892:1.0 919:1.0 955:1.0 958:1.0 1019:1.0 1043:1.0 1071:1.0 1098:1.0 1168:1.0 1170:1.0 1626:1.0 1650:1.0 1993:1.0 2208:1.0 2333:1.0 2410:1.0 2432:1.0 2474:1.0 2519:1.0 2598:1.0 2667:1.0 2742:1.0 2805:1.0 2836:1.0
-0.014514438133376509 2:1.0 3:1.0 17:1.0 48:1.0 64:1.0 89:1.0 104:1.0 107:1.0 200:1.0 208:1.0 241:1.0 251:1.0 266:1.0 316:1.0 379:1.0 391:1.0 454:1.0 455:1.0 490:1.0 529:1.0 546:1.0 642:1.0 667:1.0 699:1.0 703:1.0 745:1.0 858:1.0 865:1.0 876:1.0 889:1.0 892:1.0 902:1.0 913:1.0 958:1.0 965:1.0 968:1.0 973:1.0 991:1.0 1005:1.0 1008:1.0 1059:1.0 1087:1.0 1098:1.0 1108:1.0 1113:1.0 1136:1.0 1152:1.0 1165:1.0 1166:1.0 1168:1.0 1170:1.0 1218:1.0 1349:1.0 1650:1.0 1672:1.0 1767:1.0 1788:1.0 1850:1.0 1902:1.0 1959:1.0 1973:1.0 1982:1.0 1993:1.0 2034:1.0 2056:1.0 2130:1.0 2158:1.0 2165:1.0 2170:1.0 2220:1.0 2262:1.0 2304:1.0 2357:1.0 2487:1.0 2557:1.0 2597:1.0 2603:1.0 2667:1.0 2742:1.0 2836:1.0
0.03464610941648511 133:1.0 855:1.0 869:1.0 971:1.0 1002:1.0 1115:1.0 1203:1.0 1584:1.0 2061:1.0 2265:1.0 2587:1.0 2667:1.0 2742:1.0
-0.0293005850014837 121:1.0 406:1.0 488:1.0 615:1.0 789:1.0 871:1.0 880:1.0 881:1.0 891:1.0 1027:1.0 1080:1.0 1135:1.0 1160:1.0 1217:1.0 2029:1.0 2490:1.0 2613:1.0 2667:1.0 2789:1.0 2841:1.0
-0.030916161176397273 266:1.0 319:1.0 383:1.0 440:1.0 568:1.0 785:1.0 809:1.0 835:1.0 881:1.0 913:1.0 937:1.0 971:1.0 1027:1.0 1035:1.0 1039:1.0 1106:1.0 1135:1.0 1136:1.0 1159:1.0 1194:1.0 1210:1.0 1599:1.0 1636:1.0 1876:1.0 1971:1.0 1993:1.0 2063:1.0 2090:1.0 2124:1.0 2162:1.0 2189:1.0 2274:1.0 2414:1.0 2667:1.0
-0.0019273126668270949 2:1.0 3:1.0 29:1.0 223:1.0 284:1.0 357:1.0 621:1.0 838:1.0 857:1.0 871:1.0 899:1.0 925:1.0 968:1.0 1012:1.0 1095:1.0 1127:1.0 1147:1.0 1168:1.0 1427:1.0 1691:1.0 1876:1.0 2491:1.0 2554:1.0 2667:1.0 2798:1.0 2836:1.0 2860:1.0 2874:1.0
-0.03464610941648511 1:1.0 629:1.0 710:1.0 862:1.0 873:1.0 952:1.0 1049:1.0 1096:1.0 1459:1.0 2043:1.0 2319:1.0 2667:1.0
-0.03464610941648511 61:1.0 121:1.0 406:1.0 789:1.0 881:1.0 1080:1.0 1138:1.0 1160:1.0 1217:1.0 1926:1.0 2138:1.0 2667:1.0 2855:1.0
0.03464610941648511 2:1.0 3:1.0 17:1.0 64:1.0 69:1.0 90:1.0 107:1.0 559:1.0 889:1.0 892:1.0 944:1.0 1008:1.0 1108:1.0 1113:1.0 1136:1.0 1161:1.0 1162:1.0 1168:1.0 1349:1.0 1389:1.0 1613:1.0 1650:1.0 1850:1.0 1982:1.0 2019:1.0 2029:1.0 2170:1.0 2439:1.0 2565:1.0 2667:1.0 2778:1.0 2836:1.0
0.03464610941648511 1:1.0 4:1.0 65:1.0 153:1.0 379:1.0 387:1.0 514:1.0 546:1.0 691:1.0 791:1.0 860:1.0 873:1.0 958:1.0 968:1.0 985:1.0 992:1.0 1098:1.0 1108:1.0 1123:1.0 1152:1.0 1168:1.0 1570:1.0 1588:1.0 1708:1.0 1763:1.0 1993:1.0 2170:1.0 2226:1.0 2285:1.0 2318:1.0 2445:1.0 2667:1.0 2703:1.0 2773:1.0 2808:1.0
0.03464610941648511 7:1.0 59:1.0 170:1.0 285:1.0 379:1.0 468:1.0 512:1.0 847:1.0 958:1.0 1027:1.0 1031:1.0 1077:1.0 1098:1.0 1102:1.0 1128:1.0 1135:1.0 1160:1.0 1929:1.0 1975:1.0 1982:1.0 2227:1.0 2667:1.0 2841:1.0
-0.0014378857481723017 379:1.0 515:1.0 620:1.0 667:1.0 791:1.0 871:1.0 888:1.0 958:1.0 1027:1.0 1087:1.0 1098:1.0 1135:1.0 1168:1.0 1484:1.0 1993:1.0 2409:1.0 2475:1.0 2487:1.0 2589:1.0 2667:1.0
-0.030751277964832513 3:1.0 4:1.0 131:1.0 147:1.0 316:1.0 379:1.0 677:1.0 800:1.0 823:1.0 916:1.0 928:1.0 958:1.0 965:1.0 1041:1.0 1055:1.0 1059:1.0 1070:1.0 1098:1.0 1099:1.0 1168:1.0 1605:1.0 1658:1.0 1899:1.0 1953:1.0 1982:1.0 2007:1.0 2189:1.0 2294:1.0 2419:1.0 2574:1.0 2667:1.0 2710:1.0 2839:1.0
-0.01625453176499805 24:1.0 379:1.0 397:1.0 403:1.0 451:1.0 512:1.0 618:1.0 687:1.0 787:1.0 847:1.0 853:1.0 858:1.0 868:1.0 953:1.0 955:1.0 958:1.0 1008:1.0 1047:1.0 1058:1.0 1098:1.0 1108:1.0 1112:1.0 1162:1.0 1168:1.0 1181:1.0 1191:1.0 1530:1.0 1534:1.0 1982:1.0 2026:1.0 2258:1.0 2286:1.0 2334:1.0 2425:1.0 2434:1.0 2454:1.0 2455:1.0 2468:1.0 2518:1.0 2519:1.0 2565:1.0 2667:1.0 2742:1.0 2837:1.0
-0.011937329883769821 3:1.0 4:1.0 71:1.0 83:1.0 211:1.0 242:1.0 379:1.0 445:1.0 480:1.0 494:1.0 584:1.0 745:1.0 791:1.0 913:1.0 958:1.0 965:1.0 1033:1.0 1098:1.0 1108:1.0 1112:1.0 1118:1.0 1136:1.0 1146:1.0 1165:1.0 1168:1.0 1172:1.0 1207:1.0 1350:1.0 1522:1.0 1573:1.0 1765:1.0 1982:1.0 2058:1.0 2103:1.0 2165:1.0 2170:1.0 2213:1.0 2446:1.0 2455:1.0 2476:1.0 2484:1.0 2561:1.0 2667:1.0 2836:1.0
-0.018419658776320784 3:1.0 71:1.0 364:1.0 379:1.0 428:1.0 472:1.0 480:1.0 791:1.0 842:1.0 958:1.0 985:1.0 1062:1.0 1098:1.0 1108:1.0 1146:1.0 1168:1.0 1207:1.0 1340:1.0 1399:1.0 1496:1.0 1635:1.0 1982:1.0 2023:1.0 2170:1.0 2518:1.0 2535:1.0 2667:1.0 2758:1.0 2836:1.0 2868:1.0
-3.91350628749358E-4 2:1.0 3:1.0 42:1.0 329:1.0 418:1.0 480:1.0 555:1.0 760:1.0 837:1.0 892:1.0 931:1.0 1008:1.0 1075:1.0 1108:1.0 1122:1.0 1146:1.0 1455:1.0 1518:1.0 1550:1.0 1577:1.0 1623:1.0 1818:1.0 2002:1.0 2170:1.0 2195:1.0 2429:1.0 2459:1.0 2667:1.0 2780:1.0
0.03464610941648511 114:1.0 1135:1.0 1168:1.0 2667:1.0 2721:1.0
0.03464610941648511 114:1.0 1135:1.0 1168:1.0 2667:1.0
0.03464610941648511 356:1.0 421:1.0 493:1.0 726:1.0 861:1.0 885:1.0 916:1.0 939:1.0 968:1.0 1011:1.0 1027:1.0 1055:1.0 1127:1.0 1135:1.0 1141:1.0 1170:1.0 1194:1.0 1219:1.0 1429:1.0 1786:1.0 1885:1.0 1922:1.0 1931:1.0 1991:1.0 2023:1.0 2209:1.0 2334:1.0 2560:1.0 2667:1.0 2742:1.0 2860:1.0
0.03464610941648511 1:1.0 184:1.0 416:1.0 460:1.0 570:1.0 574:1.0 838:1.0 873:1.0 908:1.0 912:1.0 1049:1.0 1080:1.0 1153:1.0 1160:1.0 1217:1.0 1832:1.0 1886:1.0 2233:1.0 2255:1.0 2667:1.0 2806:1.0 2836:1.0
0.03464610941648511 108:1.0 123:1.0 148:1.0 186:1.0 266:1.0 432:1.0 529:1.0 534:1.0 745:1.0 763:1.0 838:1.0 845:1.0 880:1.0 908:1.0 913:1.0 929:1.0 965:1.0 966:1.0 996:1.0 1135:1.0 1136:1.0 1145:1.0 1165:1.0 1431:1.0 1885:1.0 2023:1.0 2081:1.0 2281:1.0 2439:1.0 2553:1.0 2602:1.0 2667:1.0 2818:1.0 2853:1.0
-0.03464610941648511 90:1.0 412:1.0 543:1.0 878:1.0 1135:1.0 1136:1.0 1168:1.0 1982:1.0 2451:1.0 2462:1.0 2667:1.0
-0.02888850485365837 18:1.0 75:1.0 137:1.0 501:1.0 516:1.0 753:1.0 829:1.0 838:1.0 927:1.0 1032:1.0 1048:1.0 1073:1.0 1135:1.0 1187:1.0 1188:1.0 1685:1.0 1885:1.0 2071:1.0 2262:1.0 2472:1.0 2667:1.0 2805:1.0
-0.03464610941648511 873:1.0 1044:1.0 1117:1.0 2653:1.0 2667:1.0
-0.03464610941648511 873:1.0 1044:1.0 1117:1.0 1824:1.0 2654:1.0 2667:1.0
-0.03464610941648511 115:1.0 377:1.0 659:1.0 1019:1.0 1135:1.0 1168:1.0 1170:1.0 1401:1.0 1685:1.0 2667:1.0 2742:1.0
-0.009022145080237486 13:1.0 188:1.0 272:1.0 600:1.0 626:1.0 644:1.0 791:1.0 853:1.0 873:1.0 900:1.0 958:1.0 972:1.0 1016:1.0 1034:1.0 1046:1.0 1108:1.0 1168:1.0 1226:1.0 1459:1.0 1533:1.0 1693:1.0 1974:1.0 1979:1.0 2170:1.0 2518:1.0 2667:1.0 2758:1.0 2781:1.0 2836:1.0
0.006651097846012785 1:1.0 232:1.0 379:1.0 430:1.0 552:1.0 695:1.0 791:1.0 873:1.0 958:1.0 968:1.0 1008:1.0 1022:1.0 1098:1.0 1108:1.0 1168:1.0 1189:1.0 1359:1.0 1964:1.0 2170:1.0 2173:1.0 2376:1.0 2417:1.0 2464:1.0 2667:1.0 2672:1.0 2713:1.0 2836:1.0
0.03464610941648511 379:1.0 470:1.0 543:1.0 791:1.0 878:1.0 958:1.0 1098:1.0 1135:1.0 1168:1.0 1971:1.0 1982:1.0 2308:1.0 2667:1.0 2847:1.0
-0.027555660613932248 69:1.0 90:1.0 95:1.0 280:1.0 600:1.0 626:1.0 705:1.0 787:1.0 853:1.0 873:1.0 919:1.0 939:1.0 954:1.0 969:1.0 972:1.0 987:1.0 1046:1.0 1054:1.0 1081:1.0 1106:1.0 1108:1.0 1136:1.0 1162:1.0 1168:1.0 1194:1.0 1226:1.0 1459:1.0 1533:1.0 1693:1.0 1982:1.0 2170:1.0 2298:1.0 2376:1.0 2441:1.0 2462:1.0 2518:1.0 2667:1.0 2785:1.0 2836:1.0
-0.0042035430988285934 3:1.0 39:1.0 45:1.0 51:1.0 69:1.0 90:1.0 162:1.0 164:1.0 245:1.0 255:1.0 522:1.0 563:1.0 601:1.0 680:1.0 826:1.0 832:1.0 881:1.0 918:1.0 964:1.0 968:1.0 1049:1.0 1078:1.0 1107:1.0 1136:1.0 1162:1.0 1165:1.0 1168:1.0 1215:1.0 1408:1.0 1507:1.0 1795:1.0 1952:1.0 2014:1.0 2015:1.0 2029:1.0 2221:1.0 2322:1.0 2414:1.0 2490:1.0 2667:1.0 2680:1.0 2681:1.0 2808:1.0 2864:1.0
0.03464610941648511 156:1.0 908:1.0 1136:1.0 1165:1.0 1171:1.0 1183:1.0 1191:1.0 1982:1.0 2361:1.0 2667:1.0 2778:1.0 2813:1.0
0.03464610941648511 3:1.0 425:1.0 845:1.0 847:1.0 862:1.0 952:1.0 958:1.0 1000:1.0 1135:1.0 1160:1.0 1205:1.0 1916:1.0 1982:1.0 2024:1.0 2411:1.0 2570:1.0 2667:1.0 2743:1.0
0.03464610941648511 4:1.0 61:1.0 178:1.0 188:1.0 791:1.0 881:1.0 958:1.0 1034:1.0 1138:1.0 1168:1.0 1459:1.0 1593:1.0 2285:1.0 2315:1.0 2455:1.0 2667:1.0 2824:1.0
0.03464610941648511 113:1.0 398:1.0 618:1.0 873:1.0 941:1.0 955:1.0 1136:1.0 1168:1.0 1815:1.0 2167:1.0 2667:1.0
0.03464610941648511 181:1.0 239:1.0 618:1.0 955:1.0 1138:1.0 1168:1.0 1206:1.0 2424:1.0 2498:1.0 2622:1.0 2667:1.0 2739:1.0
-0.03464610941648511 218:1.0 320:1.0 398:1.0 429:1.0 470:1.0 610:1.0 673:1.0 791:1.0 873:1.0 878:1.0 905:1.0 955:1.0 958:1.0 1087:1.0 1092:1.0 1098:1.0 1136:1.0 1168:1.0 1454:1.0 1750:1.0 1778:1.0 1971:1.0 1993:1.0 2001:1.0 2043:1.0 2092:1.0 2667:1.0 2836:1.0
-0.03464610941648511 4:1.0 996:1.0 1191:1.0 1763:1.0 2602:1.0 2667:1.0
-0.02897426347655445 4:1.0 73:1.0 147:1.0 379:1.0 718:1.0 791:1.0 908:1.0 929:1.0 934:1.0 958:1.0 1027:1.0 1031:1.0 1059:1.0 1098:1.0 1128:1.0 1135:1.0 1168:1.0 1615:1.0 1636:1.0 1876:1.0 1929:1.0 1993:1.0 2136:1.0 2145:1.0 2564:1.0 2667:1.0 2835:1.0
-0.03464610941648511 114:1.0 1135:1.0 1168:1.0 1376:1.0 2642:1.0 2667:1.0
-0.03464610941648511 73:1.0 379:1.0 385:1.0 791:1.0 934:1.0 958:1.0 1027:1.0 1098:1.0 1135:1.0 1168:1.0 1214:1.0 1548:1.0 1859:1.0 1887:1.0 1929:1.0 2453:1.0 2535:1.0 2667:1.0
0.019352049618013942 4:1.0 97:1.0 195:1.0 208:1.0 223:1.0 325:1.0 337:1.0 363:1.0 500:1.0 538:1.0 612:1.0 641:1.0 699:1.0 726:1.0 737:1.0 798:1.0 838:1.0 853:1.0 874:1.0 876:1.0 886:1.0 913:1.0 916:1.0 953:1.0 961:1.0 964:1.0 968:1.0 1017:1.0 1018:1.0 1027:1.0 1079:1.0 1097:1.0 1135:1.0 1136:1.0 1144:1.0 1168:1.0 1173:1.0 1181:1.0 1215:1.0 1218:1.0 1360:1.0 1439:1.0 1453:1.0 1461:1.0 1555:1.0 1599:1.0 1885:1.0 1929:1.0 1944:1.0 2009:1.0 2023:1.0 2077:1.0 2170:1.0 2274:1.0 2282:1.0 2285:1.0 2294:1.0 2368:1.0 2487:1.0 2518:1.0 2667:1.0 2742:1.0 2780:1.0 2789:1.0 2799:1.0
0.016067288306303388 17:1.0 18:1.0 209:1.0 264:1.0 336:1.0 415:1.0 492:1.0 502:1.0 546:1.0 559:1.0 684:1.0 737:1.0 755:1.0 791:1.0 838:1.0 874:1.0 875:1.0 881:1.0 889:1.0 900:1.0 908:1.0 927:1.0 929:1.0 958:1.0 968:1.0 974:1.0 1001:1.0 1008:1.0 1020:1.0 1042:1.0 1062:1.0 1108:1.0 1127:1.0 1134:1.0 1136:1.0 1138:1.0 1140:1.0 1152:1.0 1153:1.0 1161:1.0 1168:1.0 1173:1.0 1181:1.0 1187:1.0 1396:1.0 1415:1.0 1496:1.0 1791:1.0 1817:1.0 1885:1.0 1965:1.0 1982:1.0 2015:1.0 2034:1.0 2164:1.0 2170:1.0 2201:1.0 2226:1.0 2232:1.0 2240:1.0 2310:1.0 2387:1.0 2425:1.0 2439:1.0 2518:1.0 2667:1.0 2742:1.0 2782:1.0 2805:1.0 2836:1.0
-0.03464610941648511 68:1.0 165:1.0 186:1.0 219:1.0 266:1.0 407:1.0 494:1.0 534:1.0 579:1.0 610:1.0 666:1.0 755:1.0 774:1.0 838:1.0 845:1.0 876:1.0 880:1.0 894:1.0 908:1.0 913:1.0 929:1.0 958:1.0 965:1.0 966:1.0 968:1.0 994:1.0 1087:1.0 1136:1.0 1153:1.0 1155:1.0 1191:1.0 1218:1.0 1403:1.0 1885:1.0 1895:1.0 1916:1.0 1982:1.0 2294:1.0 2487:1.0 2557:1.0 2602:1.0 2667:1.0 2690:1.0 2784:1.0
-0.03464610941648511 90:1.0 93:1.0 108:1.0 127:1.0 208:1.0 242:1.0 260:1.0 266:1.0 413:1.0 699:1.0 745:1.0 838:1.0 873:1.0 876:1.0 913:1.0 965:1.0 973:1.0 1044:1.0 1061:1.0 1118:1.0 1136:1.0 1166:1.0 1168:1.0 1213:1.0 1218:1.0 1220:1.0 1885:1.0 1945:1.0 1993:1.0 2071:1.0 2220:1.0 2312:1.0 2415:1.0 2667:1.0 2717:1.0 2793:1.0
-0.025397585416833714 4:1.0 101:1.0 256:1.0 511:1.0 532:1.0 538:1.0 542:1.0 747:1.0 762:1.0 830:1.0 846:1.0 876:1.0 955:1.0 996:1.0 1019:1.0 1052:1.0 1099:1.0 1120:1.0 1144:1.0 1158:1.0 1218:1.0 1893:1.0 2001:1.0 2145:1.0 2209:1.0 2262:1.0 2326:1.0 2487:1.0 2562:1.0 2667:1.0 2742:1.0
-0.014622797384310864 55:1.0 100:1.0 204:1.0 239:1.0 282:1.0 289:1.0 306:1.0 409:1.0 473:1.0 511:1.0 523:1.0 541:1.0 830:1.0 833:1.0 846:1.0 876:1.0 882:1.0 885:1.0 908:1.0 917:1.0 955:1.0 971:1.0 1019:1.0 1031:1.0 1099:1.0 1123:1.0 1135:1.0 1160:1.0 1196:1.0 1218:1.0 1536:1.0 1929:1.0 2003:1.0 2021:1.0 2077:1.0 2096:1.0 2117:1.0 2237:1.0 2389:1.0 2390:1.0 2437:1.0 2603:1.0 2628:1.0 2667:1.0 2742:1.0 2818:1.0
-0.03464610941648511 4:1.0 208:1.0 432:1.0 563:1.0 628:1.0 699:1.0 805:1.0 841:1.0 876:1.0 996:1.0 1107:1.0 1136:1.0 1145:1.0 1218:1.0 1764:1.0 2285:1.0 2461:1.0 2487:1.0 2553:1.0 2667:1.0 2727:1.0
0.03464610941648511 162:1.0 325:1.0 497:1.0 588:1.0 968:1.0 1017:1.0 1027:1.0 1072:1.0 1135:1.0 1215:1.0 1588:1.0 2013:1.0 2170:1.0 2667:1.0 2808:1.0
0.03464610941648511 224:1.0 656:1.0 733:1.0 895:1.0 985:1.0 1003:1.0 1135:1.0 1188:1.0 1891:1.0 1929:1.0 1973:1.0 2667:1.0 2721:1.0
0.03464610941648511 3:1.0 42:1.0 205:1.0 356:1.0 442:1.0 760:1.0 837:1.0 1008:1.0 1027:1.0 1104:1.0 1108:1.0 1122:1.0 1135:1.0 1180:1.0 1194:1.0 1209:1.0 1493:1.0 1518:1.0 1623:1.0 2170:1.0 2195:1.0 2294:1.0 2336:1.0 2429:1.0 2667:1.0 2836:1.0
0.01263463294486745 1:1.0 68:1.0 69:1.0 103:1.0 313:1.0 372:1.0 674:1.0 845:1.0 873:1.0 894:1.0 972:1.0 1008:1.0 1108:1.0 1136:1.0 1155:1.0 1162:1.0 1326:1.0 1353:1.0 1368:1.0 1863:1.0 1982:1.0 2319:1.0 2429:1.0 2561:1.0 2667:1.0 2836:1.0 2837:1.0
0.03464610941648511 1:1.0 475:1.0 601:1.0 629:1.0 832:1.0 873:1.0 1049:1.0 1076:1.0 1078:1.0 1188:1.0 1201:1.0 1354:1.0 1502:1.0 1768:1.0 2319:1.0 2667:1.0 2742:1.0 2805:1.0 2833:1.0 2836:1.0
-0.013327716124838011 3:1.0 58:1.0 81:1.0 97:1.0 162:1.0 176:1.0 296:1.0 310:1.0 635:1.0 681:1.0 847:1.0 915:1.0 958:1.0 959:1.0 964:1.0 968:1.0 1022:1.0 1134:1.0 1138:1.0 1180:1.0 1190:1.0 1203:1.0 1215:1.0 1629:1.0 1674:1.0 1788:1.0 2172:1.0 2189:1.0 2301:1.0 2302:1.0 2365:1.0 2410:1.0 2439:1.0 2645:1.0 2667:1.0 2742:1.0 2805:1.0 2809:1.0
-0.03464610941648511 1:1.0 263:1.0 522:1.0 601:1.0 629:1.0 695:1.0 719:1.0 832:1.0 851:1.0 873:1.0 968:1.0 1008:1.0 1049:1.0 1078:1.0 1108:1.0 1168:1.0 1353:1.0 1494:1.0 1626:1.0 1768:1.0 2319:1.0 2414:1.0 2429:1.0 2667:1.0 2805:1.0 2837:1.0
-0.03464610941648511 356:1.0 442:1.0 1027:1.0 1104:1.0 1135:1.0 1160:1.0 1194:1.0 2667:1.0 2693:1.0 2788:1.0
-0.034171678052384566 199:1.0 356:1.0 442:1.0 908:1.0 929:1.0 996:1.0 1027:1.0 1104:1.0 1134:1.0 1135:1.0 1194:1.0 2184:1.0 2312:1.0 2439:1.0 2667:1.0 2693:1.0
-0.03464610941648511 75:1.0 467:1.0 927:1.0 1135:1.0 1188:1.0 1459:1.0 2456:1.0 2588:1.0 2667:1.0
0.03464610941648511 55:1.0 75:1.0 104:1.0 208:1.0 249:1.0 266:1.0 604:1.0 699:1.0 876:1.0 913:1.0 927:1.0 993:1.0 1052:1.0 1059:1.0 1115:1.0 1136:1.0 1188:1.0 1196:1.0 1218:1.0 1459:1.0 1914:1.0 1982:1.0 1993:1.0 2390:1.0 2642:1.0 2667:1.0 2681:1.0 2742:1.0 2824:1.0 2868:1.0
0.03464610941648511 252:1.0 303:1.0 305:1.0 417:1.0 450:1.0 463:1.0 511:1.0 800:1.0 825:1.0 846:1.0 847:1.0 897:1.0 958:1.0 973:1.0 1019:1.0 1026:1.0 1052:1.0 1055:1.0 1091:1.0 1099:1.0 1166:1.0 1168:1.0 1180:1.0 1445:1.0 1893:1.0 1897:1.0 1959:1.0 1962:1.0 2217:1.0 2294:1.0 2405:1.0 2518:1.0 2544:1.0 2582:1.0 2667:1.0 2676:1.0 2683:1.0 2742:1.0 2791:1.0 2872:1.0
0.03464610941648511 96:1.0 339:1.0 407:1.0 412:1.0 543:1.0 747:1.0 774:1.0 878:1.0 894:1.0 965:1.0 968:1.0 1120:1.0 1135:1.0 1136:1.0 1155:1.0 1158:1.0 1651:1.0 1843:1.0 1864:1.0 1993:1.0 2262:1.0 2319:1.0 2561:1.0 2664:1.0 2667:1.0 2739:1.0 2799:1.0
-0.015418524084679456 28:1.0 65:1.0 88:1.0 97:1.0 249:1.0 318:1.0 489:1.0 494:1.0 502:1.0 804:1.0 810:1.0 845:1.0 860:1.0 874:1.0 875:1.0 927:1.0 938:1.0 958:1.0 964:1.0 965:1.0 992:1.0 1069:1.0 1108:1.0 1123:1.0 1136:1.0 1173:1.0 1188:1.0 1215:1.0 1459:1.0 1561:1.0 1636:1.0 1726:1.0 1877:1.0 1885:1.0 1929:1.0 1982:1.0 1993:1.0 2093:1.0 2189:1.0 2196:1.0 2308:1.0 2387:1.0 2408:1.0 2667:1.0 2780:1.0 2803:1.0 2837:1.0 2865:1.0
-0.03464610941648511 3:1.0 26:1.0 176:1.0 227:1.0 252:1.0 305:1.0 680:1.0 800:1.0 826:1.0 936:1.0 964:1.0 973:1.0 1022:1.0 1025:1.0 1099:1.0 1135:1.0 1166:1.0 1168:1.0 1180:1.0 2440:1.0 2503:1.0 2582:1.0 2667:1.0 2741:1.0 2799:1.0 2809:1.0 2814:1.0
-0.03464610941648511 161:1.0 252:1.0 800:1.0 844:1.0 1099:1.0 1135:1.0 1136:1.0 1165:1.0 1168:1.0 1180:1.0 2189:1.0 2196:1.0 2322:1.0 2390:1.0 2667:1.0
-0.009742318490294614 89:1.0 283:1.0 624:1.0 757:1.0 766:1.0 872:1.0 877:1.0 922:1.0 952:1.0 992:1.0 1002:1.0 1058:1.0 1108:1.0 1115:1.0 1126:1.0 1136:1.0 1138:1.0 1145:1.0 1170:1.0 1175:1.0 1181:1.0 1185:1.0 1188:1.0 1206:1.0 1596:1.0 1685:1.0 1740:1.0 1866:1.0 1929:1.0 1993:1.0 2139:1.0 2260:1.0 2556:1.0 2658:1.0 2667:1.0 2703:1.0 2705:1.0 2742:1.0 2782:1.0 2811:1.0 2863:1.0 2864:1.0
-0.029471799030372125 179:1.0 374:1.0 398:1.0 426:1.0 469:1.0 671:1.0 742:1.0 761:1.0 880:1.0 881:1.0 889:1.0 894:1.0 919:1.0 927:1.0 955:1.0 993:1.0 1040:1.0 1070:1.0 1115:1.0 1136:1.0 1140:1.0 1155:1.0 1189:1.0 1190:1.0 1737:1.0 1772:1.0 1982:1.0 1990:1.0 2292:1.0 2408:1.0 2439:1.0 2490:1.0 2581:1.0 2667:1.0 2699:1.0 2742:1.0 2864:1.0
0.03464610941648511 119:1.0 223:1.0 375:1.0 574:1.0 600:1.0 801:1.0 838:1.0 873:1.0 908:1.0 912:1.0 972:1.0 1046:1.0 1049:1.0 1114:1.0 1153:1.0 1168:1.0 1224:1.0 1272:1.0 1378:1.0 1621:1.0 1660:1.0 1885:1.0 1923:1.0 1971:1.0 2603:1.0 2667:1.0 2836:1.0
0.03464610941648511 119:1.0 375:1.0 600:1.0 801:1.0 838:1.0 839:1.0 873:1.0 890:1.0 908:1.0 930:1.0 972:1.0 1046:1.0 1114:1.0 1153:1.0 1160:1.0 1224:1.0 1272:1.0 1378:1.0 1621:1.0 1660:1.0 1885:1.0 1902:1.0 2245:1.0 2667:1.0 2821:1.0 2836:1.0
-0.03464610941648511 1:1.0 90:1.0 99:1.0 113:1.0 629:1.0 873:1.0 941:1.0 1016:1.0 1049:1.0 1108:1.0 1136:1.0 1168:1.0 1224:1.0 1582:1.0 1621:1.0 1660:1.0 1993:1.0 2170:1.0 2187:1.0 2667:1.0 2782:1.0 2789:1.0
-0.026268619612285833 190:1.0 278:1.0 600:1.0 626:1.0 873:1.0 972:1.0 992:1.0 1046:1.0 1095:1.0 1108:1.0 1168:1.0 1224:1.0 1621:1.0 1660:1.0 1708:1.0 2145:1.0 2170:1.0 2667:1.0 2703:1.0 2836:1.0
-0.03464610941648511 2:1.0 3:1.0 90:1.0 857:1.0 1136:1.0 1168:1.0 1691:1.0 1795:1.0 1982:1.0 2071:1.0 2667:1.0 2836:1.0
0.0022615072746790697 1:1.0 425:1.0 460:1.0 570:1.0 847:1.0 873:1.0 935:1.0 958:1.0 1080:1.0 1160:1.0 1217:1.0 1359:1.0 1971:1.0 2518:1.0 2667:1.0 2821:1.0 2836:1.0 2855:1.0
0.03464610941648511 467:1.0 474:1.0 885:1.0 927:1.0 1003:1.0 1034:1.0 1067:1.0 1135:1.0 1157:1.0 1536:1.0 1918:1.0 1929:1.0 2667:1.0 2742:1.0 2743:1.0
0.03464610941648511 59:1.0 187:1.0 495:1.0 577:1.0 602:1.0 865:1.0 1027:1.0 1077:1.0 1135:1.0 1136:1.0 1165:1.0 1188:1.0 1490:1.0 1982:1.0 2251:1.0 2308:1.0 2667:1.0 2813:1.0
-0.0028536310235022463 3:1.0 4:1.0 5:1.0 193:1.0 283:1.0 374:1.0 463:1.0 671:1.0 790:1.0 832:1.0 880:1.0 889:1.0 894:1.0 958:1.0 993:1.0 1055:1.0 1070:1.0 1078:1.0 1115:1.0 1155:1.0 1170:1.0 1547:1.0 1605:1.0 1681:1.0 1887:1.0 2029:1.0 2170:1.0 2414:1.0 2419:1.0 2490:1.0 2667:1.0 2742:1.0 2839:1.0
-0.0321239474644887 8:1.0 82:1.0 118:1.0 211:1.0 549:1.0 604:1.0 681:1.0 722:1.0 829:1.0 847:1.0 913:1.0 942:1.0 958:1.0 973:1.0 976:1.0 991:1.0 1052:1.0 1098:1.0 1160:1.0 1166:1.0 1180:1.0 1184:1.0 1408:1.0 1522:1.0 1604:1.0 1638:1.0 1695:1.0 1885:1.0 1982:1.0 2023:1.0 2061:1.0 2197:1.0 2222:1.0 2228:1.0 2262:1.0 2374:1.0 2667:1.0 2735:1.0 2776:1.0 2805:1.0 2824:1.0
-0.016248184268217013 2:1.0 3:1.0 264:1.0 266:1.0 434:1.0 494:1.0 510:1.0 516:1.0 616:1.0 638:1.0 733:1.0 745:1.0 829:1.0 853:1.0 901:1.0 913:1.0 965:1.0 985:1.0 1018:1.0 1064:1.0 1073:1.0 1136:1.0 1187:1.0 1188:1.0 1519:1.0 1522:1.0 1691:1.0 1769:1.0 1881:1.0 1982:1.0 2061:1.0 2185:1.0 2195:1.0 2508:1.0 2518:1.0 2667:1.0 2733:1.0 2779:1.0 2805:1.0
-0.029965232222503257 133:1.0 475:1.0 855:1.0 869:1.0 1076:1.0 1188:1.0 2408:1.0 2667:1.0 2742:1.0 2841:1.0
0.008016214582347716 1:1.0 90:1.0 104:1.0 553:1.0 565:1.0 642:1.0 695:1.0 873:1.0 906:1.0 944:1.0 968:1.0 971:1.0 1008:1.0 1059:1.0 1108:1.0 1136:1.0 1168:1.0 1522:1.0 1616:1.0 1805:1.0 1948:1.0 1982:1.0 2170:1.0 2255:1.0 2479:1.0 2667:1.0 2693:1.0 2769:1.0
0.03464610941648511 1:1.0 90:1.0 300:1.0 624:1.0 629:1.0 710:1.0 862:1.0 873:1.0 952:1.0 1049:1.0 1136:1.0 1168:1.0 1607:1.0 2130:1.0 2319:1.0 2454:1.0 2667:1.0 2824:1.0
0.023854664691840877 1:1.0 14:1.0 300:1.0 494:1.0 624:1.0 629:1.0 710:1.0 800:1.0 862:1.0 873:1.0 952:1.0 965:1.0 1049:1.0 1099:1.0 1136:1.0 1168:1.0 1993:1.0 2044:1.0 2130:1.0 2294:1.0 2319:1.0 2667:1.0
0.03464610941648511 125:1.0 131:1.0 178:1.0 230:1.0 488:1.0 800:1.0 873:1.0 880:1.0 881:1.0 916:1.0 1034:1.0 1046:1.0 1099:1.0 1168:1.0 1824:1.0 2130:1.0 2352:1.0 2490:1.0 2667:1.0 2733:1.0 2799:1.0 2836:1.0
-0.03464610941648511 10:1.0 36:1.0 41:1.0 147:1.0 266:1.0 358:1.0 424:1.0 469:1.0 706:1.0 742:1.0 873:1.0 881:1.0 895:1.0 913:1.0 916:1.0 1031:1.0 1040:1.0 1048:1.0 1059:1.0 1092:1.0 1098:1.0 1136:1.0 1140:1.0 1168:1.0 1467:1.0 1824:1.0 1892:1.0 1929:1.0 1993:1.0 2063:1.0 2130:1.0 2304:1.0 2414:1.0 2638:1.0 2667:1.0 2799:1.0 2805:1.0 2836:1.0
-0.03464610941648511 104:1.0 288:1.0 354:1.0 615:1.0 871:1.0 891:1.0 1027:1.0 1059:1.0 1135:1.0 1136:1.0 1160:1.0 1165:1.0 2428:1.0 2613:1.0 2667:1.0 2789:1.0 2841:1.0
-0.03464610941648511 270:1.0 800:1.0 1050:1.0 1052:1.0 1099:1.0 1168:1.0 1509:1.0 2294:1.0 2667:1.0 2739:1.0 2843:1.0
-0.0075499305036498005 111:1.0 189:1.0 356:1.0 442:1.0 839:1.0 908:1.0 929:1.0 1027:1.0 1104:1.0 1135:1.0 1161:1.0 1168:1.0 1194:1.0 2312:1.0 2363:1.0 2439:1.0 2667:1.0 2673:1.0 2693:1.0
-0.01883078247431721 467:1.0 545:1.0 837:1.0 881:1.0 927:1.0 1040:1.0 1135:1.0 1636:1.0 2208:1.0 2255:1.0 2270:1.0 2667:1.0
0.03464610941648511 425:1.0 502:1.0 723:1.0 847:1.0 875:1.0 879:1.0 958:1.0 1160:1.0 1191:1.0 1360:1.0 1687:1.0 1830:1.0 1885:1.0 1889:1.0 2410:1.0 2667:1.0
0.023774508293734137 30:1.0 118:1.0 191:1.0 211:1.0 236:1.0 379:1.0 444:1.0 658:1.0 696:1.0 838:1.0 913:1.0 940:1.0 947:1.0 954:1.0 958:1.0 1027:1.0 1098:1.0 1126:1.0 1135:1.0 1153:1.0 1158:1.0 1180:1.0 1195:1.0 1415:1.0 1490:1.0 1555:1.0 1791:1.0 1885:1.0 1993:1.0 2209:1.0 2251:1.0 2262:1.0 2285:1.0 2294:1.0 2518:1.0 2562:1.0 2642:1.0 2667:1.0
-0.023982776448960443 229:1.0 316:1.0 317:1.0 479:1.0 670:1.0 936:1.0 958:1.0 965:1.0 986:1.0 1027:1.0 1103:1.0 1133:1.0 1135:1.0 1782:1.0 1922:1.0 2180:1.0 2262:1.0 2289:1.0 2544:1.0 2582:1.0 2653:1.0 2667:1.0
-0.026899279065242778 18:1.0 173:1.0 407:1.0 635:1.0 838:1.0 852:1.0 894:1.0 923:1.0 927:1.0 968:1.0 1070:1.0 1155:1.0 1180:1.0 1206:1.0 1651:1.0 1859:1.0 2209:1.0 2319:1.0 2406:1.0 2587:1.0 2605:1.0 2667:1.0 2799:1.0
-0.034601995722099 301:1.0 379:1.0 387:1.0 618:1.0 871:1.0 873:1.0 898:1.0 955:1.0 958:1.0 1092:1.0 1093:1.0 1098:1.0 1123:1.0 1168:1.0 1202:1.0 1686:1.0 1898:1.0 1982:1.0 2090:1.0 2116:1.0 2233:1.0 2405:1.0 2667:1.0 2836:1.0
0.009646116396573584 4:1.0 104:1.0 111:1.0 200:1.0 208:1.0 211:1.0 338:1.0 412:1.0 435:1.0 449:1.0 543:1.0 544:1.0 581:1.0 622:1.0 656:1.0 745:1.0 769:1.0 780:1.0 828:1.0 829:1.0 839:1.0 841:1.0 858:1.0 876:1.0 878:1.0 881:1.0 895:1.0 913:1.0 919:1.0 952:1.0 965:1.0 979:1.0 995:1.0 1003:1.0 1039:1.0 1059:1.0 1085:1.0 1098:1.0 1135:1.0 1136:1.0 1165:1.0 1168:1.0 1292:1.0 1358:1.0 1361:1.0 1441:1.0 1466:1.0 1522:1.0 1531:1.0 1608:1.0 1678:1.0 1679:1.0 1767:1.0 1926:1.0 1929:1.0 1982:1.0 1993:1.0 2035:1.0 2061:1.0 2137:1.0 2164:1.0 2266:1.0 2271:1.0 2322:1.0 2513:1.0 2549:1.0 2554:1.0 2667:1.0 2700:1.0 2782:1.0 2789:1.0 2805:1.0 2814:1.0 2816:1.0
0.03464610941648511 104:1.0 126:1.0 193:1.0 200:1.0 266:1.0 283:1.0 288:1.0 354:1.0 381:1.0 435:1.0 458:1.0 493:1.0 533:1.0 745:1.0 761:1.0 820:1.0 858:1.0 913:1.0 919:1.0 965:1.0 993:1.0 1052:1.0 1059:1.0 1110:1.0 1115:1.0 1136:1.0 1160:1.0 1163:1.0 1165:1.0 1170:1.0 1194:1.0 1535:1.0 1571:1.0 1632:1.0 1739:1.0 1805:1.0 1893:1.0 1982:1.0 2211:1.0 2237:1.0 2354:1.0 2469:1.0 2667:1.0 2684:1.0 2739:1.0 2742:1.0
0.03464610941648511 1:1.0 250:1.0 430:1.0 841:1.0 873:1.0 1022:1.0 1110:1.0 1168:1.0 1206:1.0 2326:1.0 2469:1.0 2487:1.0 2490:1.0 2667:1.0 2805:1.0
0.03464610941648511 7:1.0 285:1.0 404:1.0 468:1.0 511:1.0 846:1.0 990:1.0 1019:1.0 1025:1.0 1031:1.0 1102:1.0 1128:1.0 1135:1.0 1160:1.0 1929:1.0 2311:1.0 2667:1.0 2742:1.0
-0.010417020699054943 7:1.0 33:1.0 115:1.0 216:1.0 285:1.0 687:1.0 760:1.0 794:1.0 837:1.0 953:1.0 983:1.0 1008:1.0 1031:1.0 1036:1.0 1102:1.0 1108:1.0 1128:1.0 1135:1.0 1136:1.0 1148:1.0 1165:1.0 1170:1.0 1232:1.0 1453:1.0 1548:1.0 1577:1.0 1685:1.0 1755:1.0 1929:1.0 1982:1.0 2077:1.0 2170:1.0 2311:1.0 2667:1.0 2716:1.0 2742:1.0 2780:1.0
-0.03464610941648511 1025:1.0 1135:1.0 1160:1.0 2355:1.0 2667:1.0
-0.0028717283397634696 2:1.0 4:1.0 143:1.0 223:1.0 295:1.0 496:1.0 722:1.0 780:1.0 823:1.0 829:1.0 838:1.0 841:1.0 860:1.0 889:1.0 913:1.0 933:1.0 946:1.0 965:1.0 1055:1.0 1064:1.0 1073:1.0 1147:1.0 1168:1.0 1202:1.0 1363:1.0 1697:1.0 1840:1.0 1885:1.0 2023:1.0 2262:1.0 2294:1.0 2408:1.0 2468:1.0 2487:1.0 2495:1.0 2506:1.0 2667:1.0 2785:1.0 2798:1.0 2805:1.0
0.03464610941648511 75:1.0 249:1.0 761:1.0 873:1.0 919:1.0 927:1.0 1044:1.0 1136:1.0 1188:1.0 1370:1.0 1857:1.0 1982:1.0 2209:1.0 2667:1.0 2868:1.0
0.03464610941648511 41:1.0 124:1.0 248:1.0 266:1.0 289:1.0 424:1.0 618:1.0 761:1.0 764:1.0 873:1.0 895:1.0 913:1.0 919:1.0 926:1.0 955:1.0 1031:1.0 1044:1.0 1078:1.0 1136:1.0 1168:1.0 1370:1.0 1382:1.0 1387:1.0 1857:1.0 1926:1.0 1931:1.0 1982:1.0 2061:1.0 2071:1.0 2254:1.0 2389:1.0 2453:1.0 2567:1.0 2667:1.0
-0.03464610941648511 90:1.0 266:1.0 604:1.0 913:1.0 1052:1.0 1136:1.0 1168:1.0 1445:1.0 1467:1.0 1993:1.0 2667:1.0 2702:1.0 2799:1.0
-0.02282417986084206 3:1.0 4:1.0 14:1.0 28:1.0 108:1.0 146:1.0 213:1.0 348:1.0 388:1.0 494:1.0 613:1.0 773:1.0 786:1.0 834:1.0 838:1.0 866:1.0 925:1.0 950:1.0 965:1.0 1017:1.0 1041:1.0 1099:1.0 1106:1.0 1119:1.0 1123:1.0 1136:1.0 1138:1.0 1194:1.0 1203:1.0 1209:1.0 1223:1.0 1408:1.0 1414:1.0 1427:1.0 1532:1.0 1752:1.0 1885:1.0 1982:1.0 2061:1.0 2195:1.0 2267:1.0 2304:1.0 2419:1.0 2452:1.0 2491:1.0 2532:1.0 2667:1.0 2773:1.0 2824:1.0
0.02858636227207933 31:1.0 41:1.0 319:1.0 468:1.0 479:1.0 560:1.0 748:1.0 895:1.0 933:1.0 958:1.0 1027:1.0 1031:1.0 1035:1.0 1051:1.0 1110:1.0 1128:1.0 1133:1.0 1135:1.0 1160:1.0 1180:1.0 1193:1.0 1495:1.0 1671:1.0 1929:1.0 2001:1.0 2099:1.0 2651:1.0 2667:1.0 2723:1.0 2739:1.0 2799:1.0 2835:1.0 2841:1.0
0.03464610941648511 1:1.0 3:1.0 508:1.0 539:1.0 837:1.0 873:1.0 908:1.0 923:1.0 929:1.0 979:1.0 1169:1.0 1206:1.0 1839:1.0 2255:1.0 2549:1.0 2667:1.0 2693:1.0 2807:1.0
-0.03464610941648511 840:1.0 873:1.0 2481:1.0 2667:1.0
-0.030115934930140045 793:1.0 1027:1.0 1135:1.0 1210:1.0 2667:1.0 2819:1.0
0.03464610941648511 4:1.0 223:1.0 325:1.0 522:1.0 588:1.0 621:1.0 832:1.0 838:1.0 968:1.0 1017:1.0 1027:1.0 1078:1.0 1127:1.0 1135:1.0 1168:1.0 1547:1.0 1588:1.0 1885:1.0 2170:1.0 2419:1.0 2480:1.0 2667:1.0 2808:1.0
0.024063628186026927 56:1.0 66:1.0 90:1.0 316:1.0 319:1.0 579:1.0 610:1.0 621:1.0 634:1.0 715:1.0 774:1.0 838:1.0 876:1.0 958:1.0 965:1.0 968:1.0 1027:1.0 1035:1.0 1087:1.0 1127:1.0 1135:1.0 1136:1.0 1168:1.0 1218:1.0 1431:1.0 1493:1.0 1565:1.0 1718:1.0 1729:1.0 1885:1.0 1970:1.0 1982:1.0 2033:1.0 2189:1.0 2326:1.0 2556:1.0 2561:1.0 2667:1.0 2836:1.0
0.03464610941648511 1:1.0 194:1.0 629:1.0 873:1.0 894:1.0 1049:1.0 1155:1.0 1448:1.0 1790:1.0 2319:1.0 2461:1.0 2667:1.0
0.03464610941648511 59:1.0 96:1.0 145:1.0 187:1.0 747:1.0 945:1.0 1027:1.0 1077:1.0 1120:1.0 1135:1.0 1136:1.0 1158:1.0 1160:1.0 1982:1.0 2262:1.0 2667:1.0 2693:1.0 2841:1.0
-0.008820244924105632 41:1.0 165:1.0 223:1.0 267:1.0 534:1.0 554:1.0 566:1.0 621:1.0 634:1.0 774:1.0 838:1.0 847:1.0 880:1.0 895:1.0 908:1.0 929:1.0 958:1.0 965:1.0 968:1.0 1031:1.0 1127:1.0 1168:1.0 1191:1.0 1454:1.0 1476:1.0 1522:1.0 1776:1.0 1886:1.0 1929:1.0 2061:1.0 2174:1.0 2209:1.0 2605:1.0 2613:1.0 2667:1.0 2743:1.0 2789:1.0
-7.781343927700168E-4 2:1.0 3:1.0 4:1.0 25:1.0 44:1.0 122:1.0 147:1.0 301:1.0 379:1.0 677:1.0 857:1.0 882:1.0 928:1.0 955:1.0 958:1.0 1059:1.0 1098:1.0 1160:1.0 1289:1.0 1491:1.0 1691:1.0 1719:1.0 2091:1.0 2285:1.0 2433:1.0 2439:1.0 2454:1.0 2667:1.0 2836:1.0
0.03464610941648511 1:1.0 873:1.0 1183:1.0 1763:1.0 2318:1.0 2667:1.0
0.03464610941648511 1:1.0 408:1.0 835:1.0 873:1.0 1034:1.0 1188:1.0 1584:1.0 2307:1.0 2587:1.0 2658:1.0 2667:1.0
0.03335210354790427 1:1.0 430:1.0 541:1.0 830:1.0 873:1.0 938:1.0 1022:1.0 1099:1.0 1141:1.0 1160:1.0 1548:1.0 1763:1.0 1929:1.0 1978:1.0 2318:1.0 2355:1.0 2667:1.0
0.03464610941648511 1:1.0 514:1.0 733:1.0 873:1.0 985:1.0 1188:1.0 2667:1.0 2740:1.0
0.03464610941648511 125:1.0 312:1.0 488:1.0 873:1.0 880:1.0 881:1.0 996:1.0 1034:1.0 1046:1.0 1115:1.0 1186:1.0 1824:1.0 2012:1.0 2091:1.0 2490:1.0 2667:1.0 2733:1.0 2742:1.0 2836:1.0
-0.03464610941648511 1025:1.0 1135:1.0 1160:1.0 1968:1.0 2667:1.0
-0.03464610941648511 1:1.0 5:1.0 99:1.0 585:1.0 629:1.0 873:1.0 1049:1.0 1108:1.0 1183:1.0 1279:1.0 1824:1.0 1862:1.0 2029:1.0 2170:1.0 2667:1.0 2780:1.0
-0.03464610941648511 630:1.0 894:1.0 926:1.0 1135:1.0 2549:1.0 2667:1.0
-0.015764560807365754 159:1.0 299:1.0 663:1.0 752:1.0 863:1.0 881:1.0 894:1.0 979:1.0 985:1.0 1003:1.0 1030:1.0 1204:1.0 1386:1.0 1929:1.0 2238:1.0 2265:1.0 2275:1.0 2549:1.0 2587:1.0 2630:1.0 2667:1.0
-0.0316231342760044 177:1.0 266:1.0 381:1.0 533:1.0 564:1.0 795:1.0 913:1.0 960:1.0 1027:1.0 1054:1.0 1106:1.0 1135:1.0 1136:1.0 1163:1.0 1194:1.0 1208:1.0 1937:1.0 1982:1.0 2415:1.0 2661:1.0 2667:1.0 2669:1.0 2742:1.0
0.03464610941648511 61:1.0 223:1.0 574:1.0 637:1.0 724:1.0 838:1.0 881:1.0 912:1.0 1049:1.0 1138:1.0 1168:1.0 1459:1.0 1593:1.0 1885:1.0 2118:1.0 2276:1.0 2667:1.0 2824:1.0
0.03464610941648511 123:1.0 186:1.0 223:1.0 838:1.0 845:1.0 966:1.0 1135:1.0 1168:1.0 1885:1.0 1899:1.0 2209:1.0 2667:1.0
0.03464610941648511 3:1.0 351:1.0 356:1.0 442:1.0 466:1.0 698:1.0 800:1.0 908:1.0 930:1.0 971:1.0 978:1.0 1027:1.0 1099:1.0 1104:1.0 1131:1.0 1135:1.0 1168:1.0 1194:1.0 1209:1.0 1477:1.0 2016:1.0 2189:1.0 2195:1.0 2262:1.0 2393:1.0 2474:1.0 2534:1.0 2667:1.0 2787:1.0
0.03464610941648511 41:1.0 85:1.0 130:1.0 315:1.0 356:1.0 377:1.0 442:1.0 468:1.0 748:1.0 790:1.0 865:1.0 895:1.0 958:1.0 1019:1.0 1027:1.0 1031:1.0 1076:1.0 1104:1.0 1128:1.0 1135:1.0 1145:1.0 1160:1.0 1170:1.0 1190:1.0 1194:1.0 1495:1.0 1876:1.0 1929:1.0 1987:1.0 2063:1.0 2414:1.0 2644:1.0 2667:1.0 2742:1.0 2813:1.0 2835:1.0
0.03464610941648511 95:1.0 679:1.0 696:1.0 838:1.0 853:1.0 947:1.0 954:1.0 1027:1.0 1126:1.0 1135:1.0 1183:1.0 1885:1.0 1899:1.0 2518:1.0 2667:1.0 2794:1.0 2815:1.0
-0.019770120660212356 3:1.0 38:1.0 81:1.0 137:1.0 223:1.0 448:1.0 657:1.0 838:1.0 978:1.0 1019:1.0 1032:1.0 1048:1.0 1138:1.0 1168:1.0 1170:1.0 1190:1.0 1408:1.0 1627:1.0 1885:1.0 2195:1.0 2201:1.0 2262:1.0 2553:1.0 2581:1.0 2667:1.0 2742:1.0
-0.03464610941648511 2:1.0 3:1.0 14:1.0 188:1.0 316:1.0 504:1.0 541:1.0 614:1.0 644:1.0 704:1.0 830:1.0 842:1.0 853:1.0 892:1.0 958:1.0 965:1.0 980:1.0 1034:1.0 1099:1.0 1160:1.0 1800:1.0 1806:1.0 1895:1.0 1936:1.0 1992:1.0 2383:1.0 2518:1.0 2667:1.0 2824:1.0
-0.029162539531861247 4:1.0 14:1.0 66:1.0 295:1.0 415:1.0 702:1.0 715:1.0 800:1.0 838:1.0 876:1.0 889:1.0 946:1.0 965:1.0 1099:1.0 1138:1.0 1168:1.0 1202:1.0 1218:1.0 1459:1.0 1697:1.0 1885:1.0 2294:1.0 2305:1.0 2365:1.0 2487:1.0 2506:1.0 2667:1.0 2872:1.0
0.03464610941648511 1:1.0 69:1.0 139:1.0 161:1.0 372:1.0 815:1.0 873:1.0 1136:1.0 1162:1.0 1165:1.0 1180:1.0 1203:1.0 1454:1.0 1776:1.0 2238:1.0 2454:1.0 2603:1.0 2667:1.0
-0.016398276974523313 90:1.0 239:1.0 242:1.0 282:1.0 380:1.0 882:1.0 950:1.0 955:1.0 987:1.0 1027:1.0 1108:1.0 1118:1.0 1135:1.0 1136:1.0 1168:1.0 1193:1.0 1927:1.0 1932:1.0 1985:1.0 2043:1.0 2170:1.0 2254:1.0 2318:1.0 2333:1.0 2410:1.0 2622:1.0 2667:1.0
0.02805882627677837 1:1.0 3:1.0 66:1.0 596:1.0 679:1.0 715:1.0 838:1.0 853:1.0 873:1.0 876:1.0 1020:1.0 1048:1.0 1066:1.0 1183:1.0 1218:1.0 1424:1.0 1792:1.0 1824:1.0 1885:1.0 2029:1.0 2118:1.0 2170:1.0 2195:1.0 2358:1.0 2518:1.0 2667:1.0 2836:1.0
-0.03464610941648511 356:1.0 439:1.0 791:1.0 833:1.0 958:1.0 970:1.0 1027:1.0 1077:1.0 1106:1.0 1135:1.0 1168:1.0 1194:1.0 1882:1.0 1950:1.0 1993:1.0 2667:1.0
-0.03464610941648511 793:1.0 1027:1.0 1135:1.0 1210:1.0 2667:1.0
0.03464610941648511 14:1.0 209:1.0 228:1.0 494:1.0 501:1.0 536:1.0 800:1.0 954:1.0 965:1.0 1018:1.0 1062:1.0 1099:1.0 1135:1.0 1136:1.0 1168:1.0 1187:1.0 1496:1.0 1982:1.0 2189:1.0 2306:1.0 2518:1.0 2667:1.0 2727:1.0 2739:1.0 2773:1.0 2805:1.0
0.03464610941648511 90:1.0 179:1.0 239:1.0 266:1.0 325:1.0 394:1.0 583:1.0 678:1.0 767:1.0 913:1.0 927:1.0 955:1.0 1017:1.0 1027:1.0 1099:1.0 1135:1.0 1136:1.0 1152:1.0 1168:1.0 1522:1.0 1851:1.0 1914:1.0 1982:1.0 2044:1.0 2061:1.0 2117:1.0 2414:1.0 2570:1.0 2584:1.0 2667:1.0 2799:1.0
0.03464610941648511 96:1.0 211:1.0 301:1.0 316:1.0 379:1.0 412:1.0 543:1.0 618:1.0 625:1.0 745:1.0 878:1.0 913:1.0 955:1.0 958:1.0 965:1.0 1074:1.0 1098:1.0 1135:1.0 1136:1.0 1158:1.0 1168:1.0 1361:1.0 1425:1.0 1541:1.0 1636:1.0 1928:1.0 1982:1.0 1993:1.0 2103:1.0 2189:1.0 2262:1.0 2266:1.0 2290:1.0 2418:1.0 2499:1.0 2667:1.0
-0.03464610941648511 32:1.0 238:1.0 678:1.0 800:1.0 927:1.0 1058:1.0 1069:1.0 1099:1.0 1152:1.0 1168:1.0 1206:1.0 1833:1.0 2189:1.0 2196:1.0 2326:1.0 2630:1.0 2667:1.0 2836:1.0
-0.012725508022165193 3:1.0 14:1.0 17:1.0 147:1.0 316:1.0 379:1.0 467:1.0 642:1.0 800:1.0 889:1.0 927:1.0 958:1.0 965:1.0 1008:1.0 1059:1.0 1098:1.0 1099:1.0 1108:1.0 1135:1.0 1168:1.0 1573:1.0 1615:1.0 1669:1.0 1993:1.0 2029:1.0 2136:1.0 2166:1.0 2170:1.0 2285:1.0 2294:1.0 2490:1.0 2590:1.0 2667:1.0
0.03464610941648511 416:1.0 696:1.0 838:1.0 947:1.0 1027:1.0 1126:1.0 1135:1.0 1153:1.0 1160:1.0 1885:1.0 2667:1.0 2725:1.0 2778:1.0
-0.03385139264942677 288:1.0 490:1.0 795:1.0 902:1.0 1027:1.0 1135:1.0 1136:1.0 1160:1.0 1165:1.0 1208:1.0 1837:1.0 2090:1.0 2322:1.0 2667:1.0 2742:1.0 2861:1.0
-0.02733671606555753 3:1.0 379:1.0 669:1.0 837:1.0 876:1.0 885:1.0 911:1.0 958:1.0 1098:1.0 1135:1.0 1176:1.0 1186:1.0 1221:1.0 1510:1.0 1522:1.0 1525:1.0 1536:1.0 1929:1.0 1982:1.0 2014:1.0 2035:1.0 2195:1.0 2337:1.0 2556:1.0 2612:1.0 2667:1.0 2733:1.0 2742:1.0
-0.03464610941648511 894:1.0 1027:1.0 1126:1.0 1135:1.0 1155:1.0 1824:1.0 2304:1.0 2667:1.0
-0.01984368777102925 376:1.0 620:1.0 766:1.0 805:1.0 841:1.0 871:1.0 872:1.0 888:1.0 916:1.0 1027:1.0 1111:1.0 1135:1.0 1145:1.0 1188:1.0 2003:1.0 2015:1.0 2099:1.0 2487:1.0 2655:1.0 2667:1.0 2808:1.0
-0.03464610941648511 840:1.0 1135:1.0 1158:1.0 2262:1.0 2326:1.0 2363:1.0 2667:1.0
0.01581033669667928 4:1.0 8:1.0 69:1.0 104:1.0 139:1.0 148:1.0 208:1.0 211:1.0 390:1.0 549:1.0 618:1.0 648:1.0 713:1.0 731:1.0 873:1.0 876:1.0 908:1.0 913:1.0 929:1.0 955:1.0 973:1.0 1046:1.0 1059:1.0 1098:1.0 1125:1.0 1136:1.0 1162:1.0 1165:1.0 1166:1.0 1168:1.0 1184:1.0 1292:1.0 1347:1.0 1531:1.0 1535:1.0 1608:1.0 1658:1.0 1660:1.0 1678:1.0 1787:1.0 1795:1.0 1959:1.0 1982:1.0 2022:1.0 2137:1.0 2419:1.0 2440:1.0 2513:1.0 2554:1.0 2665:1.0 2667:1.0 2684:1.0 2713:1.0 2836:1.0
0.027006340146132148 4:1.0 36:1.0 208:1.0 266:1.0 319:1.0 538:1.0 650:1.0 699:1.0 727:1.0 800:1.0 876:1.0 913:1.0 916:1.0 1027:1.0 1035:1.0 1084:1.0 1099:1.0 1135:1.0 1136:1.0 1144:1.0 1168:1.0 1218:1.0 1493:1.0 1531:1.0 1734:1.0 1795:1.0 1948:1.0 1951:1.0 1982:1.0 2000:1.0 2043:1.0 2244:1.0 2487:1.0 2554:1.0 2667:1.0 2805:1.0 2836:1.0 2860:1.0
0.03464610941648511 1:1.0 151:1.0 629:1.0 712:1.0 873:1.0 1049:1.0 1140:1.0 1188:1.0 1442:1.0 1899:1.0 2319:1.0 2456:1.0 2667:1.0
0.009519622318629089 3:1.0 17:1.0 18:1.0 64:1.0 486:1.0 593:1.0 621:1.0 634:1.0 774:1.0 800:1.0 838:1.0 880:1.0 889:1.0 927:1.0 965:1.0 968:1.0 1008:1.0 1015:1.0 1099:1.0 1108:1.0 1113:1.0 1127:1.0 1135:1.0 1168:1.0 1431:1.0 1748:1.0 1850:1.0 1885:1.0 2061:1.0 2170:1.0 2189:1.0 2368:1.0 2464:1.0 2468:1.0 2624:1.0 2642:1.0 2667:1.0 2739:1.0 2807:1.0
-0.02624074041086029 218:1.0 429:1.0 452:1.0 470:1.0 610:1.0 673:1.0 791:1.0 873:1.0 878:1.0 905:1.0 958:1.0 1087:1.0 1092:1.0 1098:1.0 1136:1.0 1168:1.0 1346:1.0 1403:1.0 1454:1.0 1636:1.0 1778:1.0 1982:1.0 1993:1.0 2102:1.0 2392:1.0 2667:1.0 2706:1.0 2817:1.0 2836:1.0
-0.022997663996306515 180:1.0 233:1.0 488:1.0 574:1.0 618:1.0 637:1.0 724:1.0 741:1.0 838:1.0 880:1.0 881:1.0 912:1.0 955:1.0 992:1.0 1049:1.0 1070:1.0 1108:1.0 1168:1.0 1179:1.0 1303:1.0 1409:1.0 1454:1.0 1885:1.0 2029:1.0 2490:1.0 2598:1.0 2644:1.0 2667:1.0 2773:1.0 2837:1.0 2863:1.0
-0.03364105145324705 211:1.0 275:1.0 379:1.0 512:1.0 523:1.0 554:1.0 745:1.0 847:1.0 872:1.0 873:1.0 885:1.0 908:1.0 913:1.0 917:1.0 958:1.0 965:1.0 998:1.0 1001:1.0 1010:1.0 1031:1.0 1045:1.0 1098:1.0 1115:1.0 1185:1.0 1190:1.0 1366:1.0 1760:1.0 1787:1.0 1982:1.0 2011:1.0 2294:1.0 2425:1.0 2491:1.0 2665:1.0 2667:1.0 2703:1.0 2742:1.0 2763:1.0 2813:1.0
-0.03464610941648511 1:1.0 99:1.0 519:1.0 629:1.0 692:1.0 791:1.0 873:1.0 958:1.0 1005:1.0 1049:1.0 1108:1.0 1144:1.0 1168:1.0 1685:1.0 2262:1.0 2304:1.0 2305:1.0 2508:1.0 2667:1.0
-0.020387013015875595 121:1.0 255:1.0 410:1.0 425:1.0 429:1.0 491:1.0 547:1.0 619:1.0 676:1.0 847:1.0 881:1.0 905:1.0 918:1.0 955:1.0 958:1.0 960:1.0 1055:1.0 1080:1.0 1160:1.0 1170:1.0 1207:1.0 1624:1.0 2000:1.0 2001:1.0 2302:1.0 2336:1.0 2610:1.0 2667:1.0 2733:1.0 2742:1.0 2799:1.0 2836:1.0
-0.022486519206209397 95:1.0 236:1.0 355:1.0 379:1.0 605:1.0 675:1.0 853:1.0 862:1.0 913:1.0 952:1.0 954:1.0 958:1.0 972:1.0 1022:1.0 1027:1.0 1096:1.0 1098:1.0 1135:1.0 1533:1.0 1549:1.0 1810:1.0 1891:1.0 1922:1.0 1982:1.0 1985:1.0 2043:1.0 2090:1.0 2170:1.0 2439:1.0 2508:1.0 2518:1.0 2561:1.0 2667:1.0
-0.03464610941648511 46:1.0 69:1.0 90:1.0 787:1.0 853:1.0 856:1.0 1136:1.0 1162:1.0 1168:1.0 1191:1.0 1459:1.0 1918:1.0 2043:1.0 2404:1.0 2518:1.0 2667:1.0 2686:1.0
-0.0039836652859820375 4:1.0 825:1.0 960:1.0 999:1.0 1052:1.0 1055:1.0 1644:1.0 2023:1.0 2419:1.0 2742:1.0
-0.03464610941648511 409:1.0 618:1.0 955:1.0 1135:1.0 1168:1.0 2212:1.0 2557:1.0 2667:1.0
-0.03464610941648511 84:1.0 1138:1.0 1188:1.0 2667:1.0 2836:1.0
-0.03464610941648511 114:1.0 1135:1.0 1168:1.0 1464:1.0 2667:1.0
-0.01091229364373728 172:1.0 209:1.0 340:1.0 486:1.0 488:1.0 494:1.0 880:1.0 881:1.0 900:1.0 965:1.0 1008:1.0 1039:1.0 1062:1.0 1070:1.0 1108:1.0 1136:1.0 1203:1.0 1454:1.0 1496:1.0 1948:1.0 1982:1.0 2270:1.0 2368:1.0 2387:1.0 2518:1.0 2667:1.0 2735:1.0 2837:1.0
0.03464610941648511 59:1.0 301:1.0 379:1.0 618:1.0 955:1.0 958:1.0 1027:1.0 1077:1.0 1098:1.0 1135:1.0 1168:1.0 1477:1.0 2023:1.0 2453:1.0 2474:1.0 2556:1.0 2642:1.0 2667:1.0
-0.022332598215480247 218:1.0 379:1.0 429:1.0 470:1.0 667:1.0 673:1.0 791:1.0 873:1.0 878:1.0 905:1.0 958:1.0 1087:1.0 1092:1.0 1098:1.0 1168:1.0 1346:1.0 1403:1.0 1454:1.0 1778:1.0 1982:1.0 2036:1.0 2098:1.0 2596:1.0 2667:1.0 2836:1.0
-0.023735056876367767 301:1.0 342:1.0 479:1.0 618:1.0 873:1.0 889:1.0 914:1.0 955:1.0 958:1.0 987:1.0 1045:1.0 1108:1.0 1133:1.0 1168:1.0 2197:1.0 2209:1.0 2490:1.0 2619:1.0 2667:1.0 2814:1.0 2836:1.0 2837:1.0
-0.02343514116639332 2:1.0 3:1.0 418:1.0 618:1.0 864:1.0 892:1.0 955:1.0 1075:1.0 1168:1.0 1650:1.0 2014:1.0 2489:1.0 2644:1.0 2667:1.0 2836:1.0
-0.03464610941648511 387:1.0 720:1.0 873:1.0 996:1.0 1045:1.0 1098:1.0 1123:1.0 1993:1.0 2206:1.0 2667:1.0 2867:1.0
-0.0328930447296502 114:1.0 1135:1.0 1168:1.0 1454:1.0 1776:1.0 2667:1.0
-0.030461992876817386 5:1.0 18:1.0 185:1.0 232:1.0 266:1.0 288:1.0 326:1.0 327:1.0 384:1.0 467:1.0 529:1.0 621:1.0 626:1.0 675:1.0 838:1.0 881:1.0 913:1.0 927:1.0 968:1.0 972:1.0 1022:1.0 1040:1.0 1108:1.0 1127:1.0 1135:1.0 1136:1.0 1160:1.0 1165:1.0 1395:1.0 1486:1.0 1832:1.0 1862:1.0 1885:1.0 1982:1.0 2029:1.0 2170:1.0 2273:1.0 2348:1.0 2448:1.0 2603:1.0 2662:1.0 2667:1.0 2799:1.0 2833:1.0 2860:1.0
-0.013055991062013174 3:1.0 118:1.0 161:1.0 176:1.0 225:1.0 266:1.0 304:1.0 305:1.0 335:1.0 341:1.0 398:1.0 416:1.0 462:1.0 529:1.0 563:1.0 621:1.0 635:1.0 636:1.0 822:1.0 838:1.0 896:1.0 913:1.0 916:1.0 936:1.0 955:1.0 964:1.0 968:1.0 973:1.0 982:1.0 1022:1.0 1055:1.0 1107:1.0 1127:1.0 1136:1.0 1153:1.0 1160:1.0 1165:1.0 1166:1.0 1180:1.0 1522:1.0 1772:1.0 1901:1.0 1982:1.0 1989:1.0 2044:1.0 2061:1.0 2108:1.0 2209:1.0 2221:1.0 2294:1.0 2357:1.0 2597:1.0 2607:1.0 2667:1.0 2809:1.0 2854:1.0
-0.02198252011443483 13:1.0 14:1.0 129:1.0 189:1.0 356:1.0 494:1.0 526:1.0 597:1.0 614:1.0 624:1.0 633:1.0 769:1.0 830:1.0 853:1.0 882:1.0 900:1.0 908:1.0 929:1.0 952:1.0 955:1.0 965:1.0 973:1.0 979:1.0 1026:1.0 1027:1.0 1099:1.0 1116:1.0 1135:1.0 1136:1.0 1137:1.0 1161:1.0 1168:1.0 1180:1.0 1194:1.0 1566:1.0 1922:1.0 1945:1.0 1962:1.0 1982:1.0 2126:1.0 2145:1.0 2165:1.0 2272:1.0 2518:1.0 2567:1.0 2590:1.0 2657:1.0 2667:1.0 2735:1.0 2771:1.0 2789:1.0
-0.02947890532347368 3:1.0 7:1.0 255:1.0 285:1.0 356:1.0 442:1.0 575:1.0 826:1.0 881:1.0 918:1.0 1027:1.0 1031:1.0 1102:1.0 1104:1.0 1128:1.0 1135:1.0 1183:1.0 1194:1.0 1929:1.0 2029:1.0 2130:1.0 2490:1.0 2603:1.0 2667:1.0 2682:1.0 2835:1.0
-0.006267617925492482 39:1.0 69:1.0 82:1.0 177:1.0 228:1.0 304:1.0 486:1.0 488:1.0 499:1.0 611:1.0 636:1.0 695:1.0 880:1.0 881:1.0 896:1.0 936:1.0 954:1.0 960:1.0 968:1.0 973:1.0 1008:1.0 1023:1.0 1052:1.0 1108:1.0 1136:1.0 1160:1.0 1162:1.0 1166:1.0 1182:1.0 1208:1.0 1408:1.0 1559:1.0 1989:1.0 1993:1.0 2029:1.0 2044:1.0 2170:1.0 2221:1.0 2357:1.0 2434:1.0 2490:1.0 2518:1.0 2593:1.0 2667:1.0 2742:1.0 2799:1.0 2824:1.0
0.03464610941648511 1:1.0 508:1.0 720:1.0 769:1.0 873:1.0 952:1.0 979:1.0 996:1.0 1098:1.0 1448:1.0 1790:1.0 2461:1.0 2476:1.0 2549:1.0 2665:1.0 2667:1.0
0.03464610941648511 1:1.0 3:1.0 618:1.0 627:1.0 873:1.0 931:1.0 955:1.0 978:1.0 1168:1.0 1202:1.0 1510:1.0 1687:1.0 2195:1.0 2414:1.0 2617:1.0 2667:1.0 2813:1.0
0.02530920233531112 1:1.0 145:1.0 252:1.0 578:1.0 641:1.0 685:1.0 707:1.0 747:1.0 853:1.0 873:1.0 945:1.0 961:1.0 1080:1.0 1099:1.0 1120:1.0 1158:1.0 1168:1.0 1180:1.0 1265:1.0 1481:1.0 1868:1.0 2166:1.0 2240:1.0 2262:1.0 2336:1.0 2341:1.0 2518:1.0 2563:1.0 2667:1.0
0.03464610941648511 1:1.0 408:1.0 711:1.0 798:1.0 873:1.0 996:1.0 1034:1.0 1079:1.0 1181:1.0 1805:1.0 1929:1.0 2533:1.0 2667:1.0 2693:1.0 2866:1.0
0.01586862663011947 1:1.0 14:1.0 578:1.0 607:1.0 641:1.0 707:1.0 800:1.0 853:1.0 873:1.0 961:1.0 965:1.0 1080:1.0 1099:1.0 1168:1.0 1265:1.0 1481:1.0 1868:1.0 1992:1.0 2141:1.0 2479:1.0 2518:1.0 2667:1.0 2772:1.0
-0.011827160119185024 315:1.0 316:1.0 701:1.0 821:1.0 958:1.0 965:1.0 983:1.0 1069:1.0 1076:1.0 1110:1.0 1112:1.0 1117:1.0 1145:1.0 1205:1.0 1405:1.0 1459:1.0 1726:1.0 1993:1.0 2074:1.0 2139:1.0 2189:1.0 2287:1.0 2469:1.0 2655:1.0 2667:1.0 2742:1.0 2845:1.0
-0.02435081774239102 394:1.0 618:1.0 648:1.0 650:1.0 654:1.0 731:1.0 908:1.0 913:1.0 929:1.0 955:1.0 1025:1.0 1084:1.0 1099:1.0 1125:1.0 1135:1.0 1168:1.0 1382:1.0 2041:1.0 2061:1.0 2077:1.0 2391:1.0 2473:1.0 2667:1.0 2805:1.0 2866:1.0
-0.015983001388227176 3:1.0 43:1.0 124:1.0 211:1.0 301:1.0 379:1.0 595:1.0 764:1.0 873:1.0 883:1.0 913:1.0 926:1.0 950:1.0 955:1.0 958:1.0 1045:1.0 1078:1.0 1098:1.0 1168:1.0 1194:1.0 1199:1.0 1275:1.0 1394:1.0 1704:1.0 1847:1.0 2067:1.0 2148:1.0 2170:1.0 2184:1.0 2216:1.0 2567:1.0 2619:1.0 2644:1.0 2667:1.0 2805:1.0 2860:1.0
-0.03464610941648511 4:1.0 131:1.0 800:1.0 916:1.0 1099:1.0 1168:1.0 1191:1.0 1973:1.0 2231:1.0 2385:1.0 2667:1.0
0.025759263973481106 301:1.0 502:1.0 618:1.0 696:1.0 875:1.0 947:1.0 955:1.0 958:1.0 1027:1.0 1126:1.0 1135:1.0 1168:1.0 1885:1.0 1899:1.0 1971:1.0 2118:1.0 2614:1.0 2667:1.0
0.029919867015694875 56:1.0 95:1.0 166:1.0 188:1.0 236:1.0 319:1.0 425:1.0 644:1.0 847:1.0 853:1.0 954:1.0 958:1.0 1027:1.0 1034:1.0 1035:1.0 1135:1.0 1160:1.0 1490:1.0 1895:1.0 2000:1.0 2071:1.0 2251:1.0 2507:1.0 2518:1.0 2667:1.0 2841:1.0
-0.020242942397127088 487:1.0 620:1.0 679:1.0 853:1.0 871:1.0 888:1.0 997:1.0 1027:1.0 1105:1.0 1135:1.0 1183:1.0 1677:1.0 1805:1.0 2090:1.0 2265:1.0 2487:1.0 2518:1.0 2667:1.0 2712:1.0
-0.03464610941648511 793:1.0 1027:1.0 1135:1.0 1210:1.0 2667:1.0 2693:1.0
0.03464610941648511 39:1.0 69:1.0 125:1.0 398:1.0 488:1.0 618:1.0 873:1.0 880:1.0 881:1.0 955:1.0 1046:1.0 1136:1.0 1162:1.0 1168:1.0 1824:1.0 1993:1.0 2071:1.0 2490:1.0 2586:1.0 2651:1.0 2667:1.0 2836:1.0
0.023715109390325482 1:1.0 3:1.0 164:1.0 445:1.0 478:1.0 584:1.0 587:1.0 680:1.0 826:1.0 840:1.0 873:1.0 906:1.0 944:1.0 964:1.0 1033:1.0 1112:1.0 1136:1.0 1165:1.0 1172:1.0 1641:1.0 2014:1.0 2060:1.0 2175:1.0 2621:1.0 2667:1.0 2733:1.0 2821:1.0
0.028524134439131675 1:1.0 69:1.0 122:1.0 372:1.0 398:1.0 708:1.0 873:1.0 882:1.0 955:1.0 1136:1.0 1160:1.0 1162:1.0 1459:1.0 2322:1.0 2364:1.0 2667:1.0 2793:1.0
0.03464610941648511 75:1.0 123:1.0 179:1.0 180:1.0 186:1.0 838:1.0 845:1.0 927:1.0 955:1.0 966:1.0 1135:1.0 1188:1.0 1654:1.0 1885:1.0 2063:1.0 2251:1.0 2499:1.0 2667:1.0
0.03464610941648511 1:1.0 24:1.0 372:1.0 379:1.0 791:1.0 873:1.0 958:1.0 1098:1.0 1162:1.0 1168:1.0 1447:1.0 1459:1.0 1968:1.0 1982:1.0 2369:1.0 2667:1.0 2850:1.0
-0.011460351478678785 209:1.0 240:1.0 243:1.0 381:1.0 398:1.0 466:1.0 490:1.0 531:1.0 532:1.0 538:1.0 636:1.0 784:1.0 873:1.0 876:1.0 896:1.0 902:1.0 908:1.0 930:1.0 955:1.0 971:1.0 973:1.0 989:1.0 1044:1.0 1061:1.0 1062:1.0 1096:1.0 1105:1.0 1106:1.0 1112:1.0 1136:1.0 1139:1.0 1144:1.0 1163:1.0 1166:1.0 1194:1.0 1208:1.0 1218:1.0 1459:1.0 1496:1.0 1788:1.0 1913:1.0 1968:1.0 1982:1.0 2160:1.0 2162:1.0 2252:1.0 2374:1.0 2378:1.0 2403:1.0 2487:1.0 2517:1.0 2518:1.0 2564:1.0 2607:1.0 2611:1.0 2667:1.0 2700:1.0 2742:1.0 2757:1.0 2799:1.0 2805:1.0
-0.010955440246500543 3:1.0 4:1.0 14:1.0 97:1.0 117:1.0 164:1.0 171:1.0 332:1.0 438:1.0 473:1.0 534:1.0 541:1.0 542:1.0 614:1.0 654:1.0 683:1.0 766:1.0 826:1.0 830:1.0 846:1.0 860:1.0 864:1.0 872:1.0 880:1.0 881:1.0 885:1.0 908:1.0 929:1.0 964:1.0 965:1.0 1025:1.0 1034:1.0 1039:1.0 1099:1.0 1124:1.0 1135:1.0 1136:1.0 1157:1.0 1160:1.0 1165:1.0 1188:1.0 1214:1.0 1215:1.0 1536:1.0 1740:1.0 1929:1.0 1982:1.0 1990:1.0 2063:1.0 2071:1.0 2165:1.0 2178:1.0 2270:1.0 2410:1.0 2419:1.0 2439:1.0 2468:1.0 2603:1.0 2667:1.0 2690:1.0 2742:1.0 2782:1.0 2809:1.0
-0.004581218442965617 2:1.0 3:1.0 4:1.0 31:1.0 69:1.0 140:1.0 281:1.0 315:1.0 379:1.0 381:1.0 447:1.0 458:1.0 480:1.0 485:1.0 580:1.0 618:1.0 641:1.0 649:1.0 730:1.0 787:1.0 848:1.0 853:1.0 892:1.0 919:1.0 955:1.0 958:1.0 961:1.0 982:1.0 1098:1.0 1104:1.0 1106:1.0 1108:1.0 1109:1.0 1110:1.0 1136:1.0 1145:1.0 1146:1.0 1162:1.0 1163:1.0 1168:1.0 1180:1.0 1194:1.0 1273:1.0 1547:1.0 1701:1.0 1800:1.0 1818:1.0 1849:1.0 1948:1.0 1982:1.0 2002:1.0 2041:1.0 2103:1.0 2140:1.0 2170:1.0 2196:1.0 2210:1.0 2254:1.0 2288:1.0 2419:1.0 2450:1.0 2469:1.0 2518:1.0 2667:1.0 2824:1.0
-0.0011622044394975577 14:1.0 67:1.0 306:1.0 394:1.0 494:1.0 563:1.0 618:1.0 668:1.0 876:1.0 955:1.0 965:1.0 971:1.0 1099:1.0 1107:1.0 1136:1.0 1168:1.0 1185:1.0 1197:1.0 1772:1.0 2124:1.0 2130:1.0 2189:1.0 2196:1.0 2266:1.0 2294:1.0 2491:1.0 2607:1.0 2667:1.0 2746:1.0
0.033209866606405944 1:1.0 62:1.0 430:1.0 489:1.0 860:1.0 873:1.0 1022:1.0 1139:1.0 1188:1.0 1692:1.0 2658:1.0 2667:1.0 2805:1.0 2824:1.0 2833:1.0
-0.031270439050659314 84:1.0 1138:1.0 1188:1.0 2456:1.0 2667:1.0
-0.00788521466761315 12:1.0 68:1.0 69:1.0 97:1.0 212:1.0 276:1.0 365:1.0 415:1.0 478:1.0 787:1.0 839:1.0 844:1.0 845:1.0 853:1.0 889:1.0 906:1.0 944:1.0 951:1.0 964:1.0 992:1.0 1108:1.0 1136:1.0 1138:1.0 1162:1.0 1215:1.0 1371:1.0 1376:1.0 1769:1.0 1982:1.0 2013:1.0 2209:1.0 2308:1.0 2326:1.0 2518:1.0 2578:1.0 2603:1.0 2667:1.0 2733:1.0 2779:1.0 2789:1.0 2865:1.0
-0.009230486696031258 3:1.0 88:1.0 115:1.0 220:1.0 263:1.0 313:1.0 379:1.0 719:1.0 845:1.0 851:1.0 958:1.0 975:1.0 1008:1.0 1098:1.0 1108:1.0 1135:1.0 1150:1.0 1168:1.0 1170:1.0 1397:1.0 1606:1.0 1657:1.0 1838:1.0 1982:1.0 2170:1.0 2180:1.0 2262:1.0 2265:1.0 2273:1.0 2381:1.0 2667:1.0 2742:1.0 2773:1.0 2807:1.0
0.01511874477107921 1:1.0 90:1.0 266:1.0 430:1.0 494:1.0 675:1.0 745:1.0 873:1.0 913:1.0 965:1.0 1022:1.0 1136:1.0 1168:1.0 1467:1.0 1555:1.0 1829:1.0 1993:1.0 2294:1.0 2453:1.0 2556:1.0 2557:1.0 2667:1.0 2799:1.0 2824:1.0
-0.014586216224905484 2:1.0 3:1.0 22:1.0 379:1.0 458:1.0 485:1.0 494:1.0 727:1.0 761:1.0 791:1.0 821:1.0 857:1.0 916:1.0 919:1.0 958:1.0 965:1.0 978:1.0 1098:1.0 1110:1.0 1136:1.0 1144:1.0 1168:1.0 1440:1.0 1539:1.0 1960:1.0 1993:1.0 2077:1.0 2103:1.0 2335:1.0 2403:1.0 2461:1.0 2469:1.0 2487:1.0 2562:1.0 2667:1.0 2799:1.0
-0.011669081515922827 4:1.0 189:1.0 229:1.0 247:1.0 264:1.0 266:1.0 370:1.0 396:1.0 398:1.0 482:1.0 516:1.0 618:1.0 703:1.0 753:1.0 761:1.0 768:1.0 788:1.0 829:1.0 908:1.0 913:1.0 919:1.0 929:1.0 945:1.0 955:1.0 968:1.0 997:1.0 1005:1.0 1027:1.0 1048:1.0 1073:1.0 1084:1.0 1103:1.0 1108:1.0 1120:1.0 1131:1.0 1135:1.0 1136:1.0 1161:1.0 1168:1.0 1187:1.0 1754:1.0 1790:1.0 1916:1.0 1982:1.0 2044:1.0 2056:1.0 2185:1.0 2262:1.0 2304:1.0 2305:1.0 2344:1.0 2359:1.0 2419:1.0 2439:1.0 2444:1.0 2667:1.0 2693:1.0 2723:1.0 2805:1.0
0.018371972479890548 1:1.0 3:1.0 212:1.0 497:1.0 508:1.0 845:1.0 873:1.0 979:1.0 1072:1.0 1215:1.0 1468:1.0 1841:1.0 2170:1.0 2326:1.0 2567:1.0 2667:1.0 2693:1.0 2809:1.0
-0.024965157924391267 61:1.0 121:1.0 211:1.0 379:1.0 607:1.0 745:1.0 791:1.0 881:1.0 913:1.0 958:1.0 965:1.0 1080:1.0 1098:1.0 1138:1.0 1168:1.0 1992:1.0 2103:1.0 2318:1.0 2414:1.0 2667:1.0 2681:1.0 2805:1.0 2816:1.0
-0.011759301421663875 1:1.0 3:1.0 43:1.0 91:1.0 97:1.0 98:1.0 99:1.0 201:1.0 206:1.0 245:1.0 301:1.0 379:1.0 629:1.0 818:1.0 854:1.0 873:1.0 883:1.0 941:1.0 955:1.0 958:1.0 964:1.0 991:1.0 1005:1.0 1041:1.0 1049:1.0 1098:1.0 1108:1.0 1115:1.0 1126:1.0 1156:1.0 1215:1.0 1604:1.0 1685:1.0 1758:1.0 1993:1.0 2090:1.0 2170:1.0 2195:1.0 2262:1.0 2304:1.0 2319:1.0 2450:1.0 2455:1.0 2667:1.0 2710:1.0 2735:1.0 2742:1.0 2785:1.0 2809:1.0 2837:1.0
-0.03464610941648511 182:1.0 600:1.0 843:1.0 873:1.0 972:1.0 996:1.0 1046:1.0 1226:1.0 1459:1.0 1533:1.0 1693:1.0 2033:1.0 2170:1.0 2667:1.0 2836:1.0
-0.02006525555573408 5:1.0 14:1.0 24:1.0 297:1.0 316:1.0 379:1.0 394:1.0 600:1.0 618:1.0 626:1.0 873:1.0 955:1.0 958:1.0 965:1.0 972:1.0 1046:1.0 1098:1.0 1099:1.0 1108:1.0 1162:1.0 1168:1.0 1268:1.0 1279:1.0 1325:1.0 1404:1.0 1511:1.0 1705:1.0 1824:1.0 1862:1.0 2168:1.0 2170:1.0 2189:1.0 2322:1.0 2451:1.0 2475:1.0 2667:1.0 2789:1.0 2836:1.0
-0.0052045914027358895 211:1.0 334:1.0 379:1.0 521:1.0 747:1.0 779:1.0 791:1.0 876:1.0 913:1.0 958:1.0 1098:1.0 1120:1.0 1131:1.0 1135:1.0 1158:1.0 1168:1.0 1218:1.0 1993:1.0 2130:1.0 2262:1.0 2264:1.0 2274:1.0 2307:1.0 2667:1.0 2729:1.0
0.024651842303892266 4:1.0 90:1.0 104:1.0 257:1.0 390:1.0 398:1.0 458:1.0 761:1.0 821:1.0 873:1.0 919:1.0 955:1.0 965:1.0 1046:1.0 1059:1.0 1110:1.0 1136:1.0 1168:1.0 1292:1.0 1347:1.0 1531:1.0 1608:1.0 1660:1.0 1982:1.0 2165:1.0 2237:1.0 2554:1.0 2591:1.0 2667:1.0 2798:1.0 2836:1.0
0.02170432050550173 1:1.0 24:1.0 218:1.0 372:1.0 429:1.0 791:1.0 873:1.0 905:1.0 958:1.0 1098:1.0 1162:1.0 1168:1.0 1382:1.0 1706:1.0 1893:1.0 2373:1.0 2453:1.0 2545:1.0 2590:1.0 2667:1.0
