SVM-light Version V6.01
0 # kernel type
3 # kernel parameter -d
1.0 # kernel parameter -g
1.0 # kernel parameter -s
0.0 # kernel parameter -r
empty# kernel parameter -u
1730 # highest feature index
462 # number of training documents
193 # number of support vectors plus 1
0.5708534362611395 # threshold b, each following line is a SV (starting with alpha*y)
0.00582952586197183 10:1.0 53:1.0 129:1.0 167:1.0 265:1.0 286:1.0 315:1.0 317:1.0 320:1.0 331:1.0 350:1.0 376:1.0 388:1.0 421:1.0 422:1.0 428:1.0 447:1.0 451:1.0 459:1.0 568:1.0 730:1.0 784:1.0 854:1.0 916:1.0 1082:1.0 1137:1.0 1220:1.0 1343:1.0 1510:1.0 1522:1.0 1692:1.0
0.02384281796027514 85:1.0 215:1.0 238:1.0 292:1.0 297:1.0 352:1.0 353:1.0 358:1.0 401:1.0 440:1.0 444:1.0 459:1.0 466:1.0 469:1.0 584:1.0 640:1.0 708:1.0 740:1.0 772:1.0 963:1.0 1088:1.0 1149:1.0 1157:1.0 1231:1.0 1241:1.0 1294:1.0 1522:1.0 1597:1.0
0.0439722861486455 4:1.0 52:1.0 149:1.0 152:1.0 160:1.0 168:1.0 260:1.0 315:1.0 316:1.0 394:1.0 412:1.0 414:1.0 449:1.0 465:1.0 520:1.0 584:1.0 673:1.0 884:1.0 1263:1.0 1274:1.0 1345:1.0 1499:1.0 1522:1.0 1692:1.0
-0.013007782495224843 3:1.0 81:1.0 132:1.0 148:1.0 178:1.0 297:1.0 311:1.0 330:1.0 352:1.0 411:1.0 420:1.0 459:1.0 837:1.0 929:1.0 1005:1.0 1050:1.0 1124:1.0 1460:1.0 1560:1.0
-0.03672909349734583 2:1.0 125:1.0 140:1.0 152:1.0 206:1.0 217:1.0 316:1.0 321:1.0 360:1.0 386:1.0 394:1.0 414:1.0 428:1.0 465:1.0 613:1.0 884:1.0 985:1.0 1027:1.0 1284:1.0 1314:1.0 1522:1.0
0.014774468895275627 68:1.0 98:1.0 139:1.0 213:1.0 257:1.0 282:1.0 330:1.0 350:1.0 376:1.0 412:1.0 428:1.0 439:1.0 446:1.0 465:1.0 584:1.0 712:1.0 837:1.0 985:1.0 1051:1.0 1295:1.0 1522:1.0 1654:1.0 1692:1.0
0.01552088823250233 4:1.0 68:1.0 254:1.0 298:1.0 376:1.0 412:1.0 416:1.0 428:1.0 459:1.0 562:1.0 817:1.0 1274:1.0 1522:1.0 1694:1.0
-0.0015375836569530568 2:1.0 3:1.0 13:1.0 56:1.0 86:1.0 162:1.0 292:1.0 303:1.0 364:1.0 389:1.0 399:1.0 465:1.0 530:1.0 548:1.0 612:1.0 659:1.0 725:1.0 740:1.0 1005:1.0 1342:1.0 1519:1.0 1691:1.0
0.012549599894564608 37:1.0 56:1.0 72:1.0 213:1.0 292:1.0 314:1.0 350:1.0 352:1.0 389:1.0 399:1.0 447:1.0 451:1.0 465:1.0 490:1.0 740:1.0 1143:1.0 1269:1.0 1299:1.0 1522:1.0 1623:1.0 1679:1.0 1727:1.0
0.019856081338928737 3:1.0 46:1.0 68:1.0 79:1.0 217:1.0 314:1.0 334:1.0 360:1.0 370:1.0 376:1.0 412:1.0 428:1.0 430:1.0 446:1.0 467:1.0 479:1.0 584:1.0 837:1.0 1030:1.0 1185:1.0 1289:1.0 1436:1.0 1522:1.0 1635:1.0 1692:1.0
-0.0439722861486455 40:1.0 52:1.0 65:1.0 152:1.0 158:1.0 168:1.0 208:1.0 315:1.0 316:1.0 375:1.0 394:1.0 412:1.0 414:1.0 415:1.0 428:1.0 446:1.0 465:1.0 466:1.0 584:1.0 695:1.0 716:1.0 804:1.0 844:1.0 848:1.0 884:1.0 1117:1.0 1181:1.0 1310:1.0 1345:1.0 1408:1.0 1522:1.0 1597:1.0
-0.0439722861486455 68:1.0 138:1.0 143:1.0 157:1.0 248:1.0 300:1.0 308:1.0 322:1.0 358:1.0 376:1.0 412:1.0 414:1.0 428:1.0 433:1.0 456:1.0 461:1.0 525:1.0 541:1.0 558:1.0 584:1.0 603:1.0 648:1.0 774:1.0 1174:1.0 1284:1.0 1373:1.0 1458:1.0 1522:1.0 1597:1.0 1629:1.0 1654:1.0 1660:1.0 1692:1.0
-0.0439722861486455 26:1.0 43:1.0 80:1.0 139:1.0 155:1.0 161:1.0 190:1.0 200:1.0 213:1.0 300:1.0 350:1.0 354:1.0 356:1.0 400:1.0 407:1.0 409:1.0 412:1.0 446:1.0 465:1.0 488:1.0 498:1.0 518:1.0 550:1.0 584:1.0 592:1.0 623:1.0 676:1.0 705:1.0 837:1.0 899:1.0 1025:1.0 1130:1.0 1284:1.0 1373:1.0 1418:1.0 1522:1.0 1664:1.0 1692:1.0
-0.0439722861486455 86:1.0 292:1.0 465:1.0 476:1.0 740:1.0 985:1.0 1522:1.0 1548:1.0
0.01023403923641927 44:1.0 79:1.0 182:1.0 191:1.0 244:1.0 314:1.0 373:1.0 427:1.0 446:1.0 450:1.0 490:1.0 689:1.0 1316:1.0 1342:1.0 1451:1.0 1522:1.0 1560:1.0
0.0439722861486455 2:1.0 3:1.0 7:1.0 13:1.0 91:1.0 171:1.0 208:1.0 279:1.0 303:1.0 357:1.0 364:1.0 415:1.0 421:1.0 446:1.0 465:1.0 496:1.0 530:1.0 571:1.0 659:1.0 725:1.0 837:1.0 1005:1.0 1149:1.0 1342:1.0 1522:1.0 1691:1.0 1703:1.0
0.0439722861486455 2:1.0 3:1.0 4:1.0 17:1.0 31:1.0 33:1.0 40:1.0 48:1.0 122:1.0 148:1.0 159:1.0 171:1.0 260:1.0 276:1.0 283:1.0 297:1.0 300:1.0 316:1.0 320:1.0 321:1.0 346:1.0 348:1.0 352:1.0 357:1.0 370:1.0 403:1.0 428:1.0 431:1.0 437:1.0 446:1.0 449:1.0 459:1.0 461:1.0 466:1.0 601:1.0 604:1.0 647:1.0 837:1.0 848:1.0 855:1.0 1125:1.0 1310:1.0 1346:1.0 1373:1.0 1409:1.0 1416:1.0 1522:1.0 1573:1.0 1597:1.0 1639:1.0 1654:1.0 1691:1.0 1692:1.0
0.0439722861486455 2:1.0 3:1.0 41:1.0 303:1.0 446:1.0 465:1.0 659:1.0 698:1.0 837:1.0 926:1.0 1522:1.0 1691:1.0
0.0439722861486455 2:1.0 3:1.0 293:1.0 321:1.0 335:1.0 338:1.0 460:1.0 701:1.0 814:1.0 1522:1.0 1634:1.0 1644:1.0 1679:1.0
0.0439722861486455 2:1.0 3:1.0 189:1.0 198:1.0 293:1.0 321:1.0 376:1.0 428:1.0 429:1.0 451:1.0 460:1.0 554:1.0 581:1.0 701:1.0 714:1.0 1219:1.0 1441:1.0 1522:1.0 1644:1.0 1679:1.0 1692:1.0
-0.0439722861486455 2:1.0 3:1.0 4:1.0 7:1.0 41:1.0 45:1.0 171:1.0 196:1.0 208:1.0 212:1.0 314:1.0 357:1.0 379:1.0 408:1.0 415:1.0 421:1.0 446:1.0 465:1.0 490:1.0 659:1.0 664:1.0 739:1.0 1149:1.0 1299:1.0 1308:1.0 1361:1.0 1390:1.0 1522:1.0 1691:1.0
-0.04122532296512067 2:1.0 3:1.0 13:1.0 91:1.0 92:1.0 169:1.0 208:1.0 303:1.0 305:1.0 337:1.0 364:1.0 415:1.0 446:1.0 473:1.0 496:1.0 530:1.0 571:1.0 629:1.0 651:1.0 659:1.0 725:1.0 837:1.0 1342:1.0 1363:1.0 1522:1.0 1591:1.0 1688:1.0 1691:1.0
-0.0439722861486455 2:1.0 3:1.0 30:1.0 31:1.0 48:1.0 111:1.0 186:1.0 251:1.0 292:1.0 296:1.0 314:1.0 320:1.0 321:1.0 376:1.0 428:1.0 431:1.0 434:1.0 446:1.0 461:1.0 474:1.0 490:1.0 647:1.0 719:1.0 724:1.0 740:1.0 837:1.0 1064:1.0 1231:1.0 1310:1.0 1343:1.0 1390:1.0 1514:1.0 1522:1.0 1691:1.0 1692:1.0
-0.042049915949500076 1:1.0 3:1.0 22:1.0 115:1.0 186:1.0 312:1.0 340:1.0 376:1.0 428:1.0 434:1.0 436:1.0 474:1.0 597:1.0 1025:1.0 1050:1.0 1319:1.0 1522:1.0 1653:1.0
-0.018536244427858 1:1.0 289:1.0 312:1.0 391:1.0 473:1.0 624:1.0 1162:1.0 1442:1.0 1513:1.0 1522:1.0
0.01104851059020185 68:1.0 88:1.0 138:1.0 157:1.0 195:1.0 213:1.0 221:1.0 292:1.0 300:1.0 308:1.0 329:1.0 350:1.0 376:1.0 400:1.0 412:1.0 428:1.0 455:1.0 465:1.0 525:1.0 541:1.0 558:1.0 584:1.0 603:1.0 740:1.0 985:1.0 1284:1.0 1373:1.0 1387:1.0 1418:1.0 1458:1.0 1522:1.0 1692:1.0
-0.03089586028710881 3:1.0 4:1.0 85:1.0 146:1.0 149:1.0 195:1.0 199:1.0 255:1.0 260:1.0 292:1.0 316:1.0 318:1.0 329:1.0 381:1.0 392:1.0 399:1.0 400:1.0 412:1.0 428:1.0 449:1.0 466:1.0 471:1.0 520:1.0 584:1.0 673:1.0 680:1.0 740:1.0 924:1.0 1005:1.0 1030:1.0 1159:1.0 1263:1.0 1274:1.0 1280:1.0 1295:1.0 1412:1.0 1597:1.0 1692:1.0
0.012618777121703876 41:1.0 68:1.0 80:1.0 138:1.0 155:1.0 157:1.0 190:1.0 300:1.0 308:1.0 354:1.0 376:1.0 407:1.0 412:1.0 428:1.0 446:1.0 465:1.0 518:1.0 525:1.0 541:1.0 550:1.0 558:1.0 584:1.0 592:1.0 603:1.0 623:1.0 705:1.0 837:1.0 1130:1.0 1284:1.0 1373:1.0 1522:1.0 1673:1.0 1692:1.0
0.004069534692239447 41:1.0 68:1.0 98:1.0 138:1.0 157:1.0 205:1.0 233:1.0 300:1.0 308:1.0 330:1.0 376:1.0 382:1.0 412:1.0 428:1.0 446:1.0 465:1.0 525:1.0 541:1.0 558:1.0 584:1.0 587:1.0 603:1.0 705:1.0 848:1.0 1020:1.0 1130:1.0 1284:1.0 1373:1.0 1522:1.0 1654:1.0 1692:1.0
0.0439722861486455 3:1.0 19:1.0 43:1.0 143:1.0 161:1.0 322:1.0 356:1.0 358:1.0 412:1.0 456:1.0 461:1.0 488:1.0 584:1.0 687:1.0 884:1.0 1025:1.0 1522:1.0 1654:1.0 1660:1.0 1664:1.0 1692:1.0
-0.0439722861486455 3:1.0 43:1.0 63:1.0 90:1.0 104:1.0 109:1.0 216:1.0 250:1.0 306:1.0 347:1.0 356:1.0 358:1.0 370:1.0 400:1.0 412:1.0 428:1.0 446:1.0 453:1.0 459:1.0 463:1.0 468:1.0 488:1.0 584:1.0 601:1.0 625:1.0 771:1.0 798:1.0 1025:1.0 1305:1.0 1309:1.0 1346:1.0 1413:1.0 1522:1.0 1560:1.0 1663:1.0 1692:1.0
-0.018212107800683972 3:1.0 4:1.0 43:1.0 133:1.0 136:1.0 161:1.0 174:1.0 209:1.0 224:1.0 282:1.0 300:1.0 316:1.0 345:1.0 354:1.0 356:1.0 376:1.0 390:1.0 412:1.0 423:1.0 428:1.0 439:1.0 482:1.0 488:1.0 499:1.0 507:1.0 533:1.0 551:1.0 572:1.0 584:1.0 658:1.0 667:1.0 672:1.0 687:1.0 718:1.0 857:1.0 884:1.0 922:1.0 1005:1.0 1025:1.0 1030:1.0 1274:1.0 1373:1.0 1635:1.0 1660:1.0 1692:1.0
-0.014092252221831313 4:1.0 10:1.0 29:1.0 43:1.0 161:1.0 167:1.0 168:1.0 172:1.0 174:1.0 202:1.0 209:1.0 224:1.0 300:1.0 307:1.0 315:1.0 316:1.0 320:1.0 343:1.0 354:1.0 356:1.0 376:1.0 390:1.0 412:1.0 428:1.0 431:1.0 446:1.0 463:1.0 473:1.0 488:1.0 533:1.0 572:1.0 584:1.0 718:1.0 837:1.0 1005:1.0 1025:1.0 1038:1.0 1242:1.0 1274:1.0 1345:1.0 1373:1.0 1589:1.0 1634:1.0 1635:1.0 1644:1.0 1668:1.0 1692:1.0
-0.0439722861486455 2:1.0 3:1.0 10:1.0 145:1.0 264:1.0 266:1.0 291:1.0 320:1.0 321:1.0 332:1.0 376:1.0 413:1.0 428:1.0 486:1.0 519:1.0 610:1.0 613:1.0 884:1.0 1130:1.0 1314:1.0 1345:1.0 1522:1.0 1692:1.0
0.008533472012427988 79:1.0 132:1.0 191:1.0 196:1.0 231:1.0 244:1.0 278:1.0 314:1.0 352:1.0 415:1.0 420:1.0 427:1.0 446:1.0 465:1.0 490:1.0 693:1.0 783:1.0 848:1.0 947:1.0 1203:1.0 1462:1.0 1489:1.0 1522:1.0
0.009514300689851913 41:1.0 98:1.0 132:1.0 179:1.0 215:1.0 251:1.0 292:1.0 314:1.0 330:1.0 352:1.0 358:1.0 359:1.0 411:1.0 420:1.0 440:1.0 443:1.0 446:1.0 465:1.0 487:1.0 490:1.0 491:1.0 588:1.0 615:1.0 708:1.0 732:1.0 740:1.0 837:1.0 916:1.0 929:1.0 1075:1.0 1124:1.0 1155:1.0 1342:1.0 1522:1.0 1528:1.0 1640:1.0
0.0439722861486455 132:1.0 214:1.0 231:1.0 278:1.0 310:1.0 319:1.0 352:1.0 385:1.0 415:1.0 420:1.0 445:1.0 465:1.0 588:1.0 848:1.0 1264:1.0 1330:1.0 1342:1.0 1444:1.0 1522:1.0
0.0439722861486455 4:1.0 38:1.0 132:1.0 158:1.0 231:1.0 278:1.0 348:1.0 352:1.0 375:1.0 415:1.0 420:1.0 428:1.0 447:1.0 465:1.0 475:1.0 564:1.0 604:1.0 716:1.0 848:1.0 1036:1.0 1117:1.0 1140:1.0 1159:1.0 1522:1.0 1597:1.0
0.0439722861486455 65:1.0 139:1.0 158:1.0 208:1.0 213:1.0 350:1.0 375:1.0 412:1.0 415:1.0 428:1.0 446:1.0 465:1.0 559:1.0 848:1.0 849:1.0 1522:1.0 1555:1.0
-0.0439722861486455 159:1.0 278:1.0 352:1.0 378:1.0 385:1.0 403:1.0 445:1.0 465:1.0 832:1.0 1272:1.0 1522:1.0 1654:1.0 1689:1.0
-0.0439722861486455 3:1.0 41:1.0 68:1.0 91:1.0 98:1.0 154:1.0 186:1.0 231:1.0 261:1.0 281:1.0 330:1.0 357:1.0 364:1.0 376:1.0 397:1.0 404:1.0 412:1.0 415:1.0 420:1.0 428:1.0 446:1.0 465:1.0 474:1.0 496:1.0 571:1.0 584:1.0 599:1.0 725:1.0 837:1.0 916:1.0 957:1.0 1050:1.0 1342:1.0 1343:1.0 1429:1.0 1502:1.0 1522:1.0 1578:1.0 1692:1.0
0.0439722861486455 35:1.0 103:1.0 296:1.0 337:1.0 370:1.0 428:1.0 445:1.0 473:1.0 985:1.0 1208:1.0 1218:1.0 1522:1.0 1691:1.0 1692:1.0
-0.010679024487252223 1:1.0 81:1.0 98:1.0 132:1.0 147:1.0 151:1.0 187:1.0 193:1.0 229:1.0 233:1.0 278:1.0 312:1.0 323:1.0 326:1.0 330:1.0 344:1.0 352:1.0 359:1.0 374:1.0 382:1.0 420:1.0 446:1.0 465:1.0 632:1.0 698:1.0 731:1.0 777:1.0 784:1.0 837:1.0 898:1.0 1035:1.0 1057:1.0 1196:1.0 1218:1.0 1353:1.0 1363:1.0 1522:1.0
-0.0439722861486455 68:1.0 272:1.0 278:1.0 352:1.0 376:1.0 412:1.0 428:1.0 444:1.0 465:1.0 631:1.0 634:1.0 867:1.0 1005:1.0 1294:1.0 1363:1.0 1694:1.0
0.03673181651891934 3:1.0 4:1.0 10:1.0 43:1.0 89:1.0 161:1.0 205:1.0 209:1.0 224:1.0 225:1.0 300:1.0 320:1.0 354:1.0 356:1.0 358:1.0 376:1.0 382:1.0 405:1.0 406:1.0 412:1.0 428:1.0 473:1.0 488:1.0 499:1.0 507:1.0 551:1.0 584:1.0 658:1.0 670:1.0 672:1.0 718:1.0 857:1.0 932:1.0 1044:1.0 1159:1.0 1261:1.0 1274:1.0 1280:1.0 1295:1.0 1311:1.0 1343:1.0 1373:1.0 1522:1.0 1692:1.0
0.0439722861486455 3:1.0 5:1.0 75:1.0 94:1.0 161:1.0 255:1.0 316:1.0 322:1.0 332:1.0 400:1.0 412:1.0 456:1.0 488:1.0 584:1.0 884:1.0 1025:1.0 1310:1.0 1345:1.0 1522:1.0 1692:1.0
0.0439722861486455 1:1.0 3:1.0 22:1.0 106:1.0 218:1.0 264:1.0 291:1.0 312:1.0 374:1.0 376:1.0 395:1.0 400:1.0 428:1.0 436:1.0 589:1.0 597:1.0 616:1.0 620:1.0 657:1.0 700:1.0 784:1.0 1025:1.0 1050:1.0 1174:1.0 1310:1.0 1522:1.0 1594:1.0 1638:1.0
0.039425161751793086 3:1.0 21:1.0 31:1.0 57:1.0 62:1.0 90:1.0 305:1.0 316:1.0 370:1.0 412:1.0 428:1.0 436:1.0 446:1.0 461:1.0 463:1.0 469:1.0 584:1.0 597:1.0 837:1.0 852:1.0 922:1.0 1025:1.0 1050:1.0 1088:1.0 1149:1.0 1345:1.0 1522:1.0 1536:1.0 1618:1.0 1692:1.0
0.0439722861486455 31:1.0 87:1.0 243:1.0 272:1.0 322:1.0 349:1.0 358:1.0 376:1.0 401:1.0 428:1.0 444:1.0 446:1.0 456:1.0 461:1.0 478:1.0 584:1.0 625:1.0 634:1.0 854:1.0 996:1.0 1025:1.0 1174:1.0 1244:1.0 1294:1.0 1308:1.0 1373:1.0 1522:1.0 1691:1.0
-0.0439722861486455 75:1.0 255:1.0 316:1.0 322:1.0 400:1.0 447:1.0 456:1.0 884:1.0 1159:1.0 1522:1.0 1679:1.0
-0.0439722861486455 1:1.0 31:1.0 112:1.0 126:1.0 138:1.0 157:1.0 171:1.0 226:1.0 243:1.0 271:1.0 300:1.0 308:1.0 312:1.0 357:1.0 358:1.0 373:1.0 376:1.0 391:1.0 428:1.0 446:1.0 461:1.0 606:1.0 625:1.0 692:1.0 748:1.0 848:1.0 1025:1.0 1145:1.0 1228:1.0 1289:1.0 1373:1.0 1522:1.0 1588:1.0 1663:1.0
-0.020818609763477977 3:1.0 41:1.0 90:1.0 98:1.0 108:1.0 147:1.0 194:1.0 208:1.0 229:1.0 323:1.0 327:1.0 330:1.0 334:1.0 370:1.0 374:1.0 412:1.0 415:1.0 428:1.0 429:1.0 446:1.0 451:1.0 453:1.0 465:1.0 468:1.0 571:1.0 584:1.0 601:1.0 653:1.0 698:1.0 777:1.0 784:1.0 811:1.0 837:1.0 1005:1.0 1030:1.0 1224:1.0 1336:1.0 1342:1.0 1346:1.0 1419:1.0 1436:1.0 1692:1.0
-0.035004269093463665 3:1.0 32:1.0 89:1.0 114:1.0 143:1.0 165:1.0 322:1.0 358:1.0 382:1.0 428:1.0 452:1.0 456:1.0 484:1.0 501:1.0 619:1.0 636:1.0 1025:1.0 1440:1.0 1522:1.0 1691:1.0 1692:1.0 1715:1.0
-0.042200067481179444 3:1.0 32:1.0 89:1.0 114:1.0 143:1.0 165:1.0 322:1.0 358:1.0 382:1.0 428:1.0 452:1.0 456:1.0 484:1.0 501:1.0 619:1.0 636:1.0 1025:1.0 1130:1.0 1522:1.0 1691:1.0 1692:1.0 1715:1.0
0.002058504701639514 7:1.0 30:1.0 51:1.0 71:1.0 73:1.0 98:1.0 111:1.0 113:1.0 167:1.0 168:1.0 171:1.0 208:1.0 211:1.0 270:1.0 286:1.0 296:1.0 315:1.0 316:1.0 328:1.0 330:1.0 352:1.0 357:1.0 376:1.0 385:1.0 391:1.0 415:1.0 421:1.0 428:1.0 445:1.0 446:1.0 469:1.0 482:1.0 581:1.0 588:1.0 738:1.0 837:1.0 847:1.0 916:1.0 1080:1.0 1113:1.0 1143:1.0 1149:1.0 1215:1.0 1308:1.0 1323:1.0 1342:1.0 1436:1.0 1522:1.0 1644:1.0 1661:1.0 1692:1.0
0.0439722861486455 52:1.0 81:1.0 132:1.0 207:1.0 261:1.0 278:1.0 316:1.0 330:1.0 352:1.0 357:1.0 414:1.0 420:1.0 447:1.0 465:1.0 847:1.0 958:1.0 1173:1.0 1269:1.0 1522:1.0 1536:1.0 1660:1.0 1671:1.0
0.03886660750889123 3:1.0 7:1.0 93:1.0 185:1.0 211:1.0 236:1.0 256:1.0 284:1.0 286:1.0 297:1.0 352:1.0 356:1.0 357:1.0 414:1.0 421:1.0 459:1.0 469:1.0 476:1.0 636:1.0 880:1.0 916:1.0 1149:1.0 1284:1.0 1522:1.0 1539:1.0 1664:1.0 1724:1.0
0.0439722861486455 2:1.0 3:1.0 13:1.0 56:1.0 119:1.0 162:1.0 239:1.0 262:1.0 292:1.0 303:1.0 364:1.0 389:1.0 399:1.0 435:1.0 458:1.0 465:1.0 530:1.0 548:1.0 612:1.0 659:1.0 725:1.0 740:1.0 1064:1.0 1117:1.0 1342:1.0 1519:1.0 1522:1.0 1691:1.0
0.0439722861486455 3:1.0 41:1.0 80:1.0 155:1.0 209:1.0 354:1.0 356:1.0 407:1.0 445:1.0 446:1.0 465:1.0 498:1.0 518:1.0 592:1.0 623:1.0 676:1.0 837:1.0 869:1.0 899:1.0 1130:1.0 1373:1.0 1522:1.0 1691:1.0 1692:1.0
-0.0439722861486455 7:1.0 80:1.0 87:1.0 171:1.0 279:1.0 349:1.0 357:1.0 379:1.0 407:1.0 421:1.0 445:1.0 446:1.0 465:1.0 472:1.0 592:1.0 837:1.0 1044:1.0 1161:1.0 1373:1.0 1522:1.0 1582:1.0 1594:1.0 1628:1.0 1660:1.0
-0.003356233175385238 2:1.0 3:1.0 4:1.0 7:1.0 13:1.0 113:1.0 162:1.0 175:1.0 237:1.0 279:1.0 303:1.0 313:1.0 352:1.0 357:1.0 364:1.0 389:1.0 399:1.0 421:1.0 465:1.0 530:1.0 548:1.0 612:1.0 659:1.0 725:1.0 740:1.0 826:1.0 1005:1.0 1149:1.0 1269:1.0 1342:1.0 1361:1.0 1691:1.0
-0.0439722861486455 7:1.0 81:1.0 113:1.0 132:1.0 204:1.0 211:1.0 258:1.0 286:1.0 330:1.0 344:1.0 352:1.0 357:1.0 366:1.0 388:1.0 401:1.0 420:1.0 421:1.0 422:1.0 433:1.0 441:1.0 473:1.0 587:1.0 748:1.0 784:1.0 848:1.0 905:1.0 1149:1.0 1266:1.0 1311:1.0 1366:1.0 1492:1.0 1522:1.0 1597:1.0 1633:1.0 1667:1.0
-0.0439722861486455 445:1.0 465:1.0 1522:1.0 1594:1.0
0.0439722861486455 3:1.0 55:1.0 294:1.0 301:1.0 309:1.0 310:1.0 379:1.0 446:1.0 462:1.0 473:1.0 925:1.0 1050:1.0 1220:1.0 1342:1.0 1363:1.0 1522:1.0 1597:1.0 1718:1.0
0.0439722861486455 1:1.0 96:1.0 203:1.0 220:1.0 243:1.0 254:1.0 287:1.0 298:1.0 312:1.0 358:1.0 376:1.0 400:1.0 428:1.0 465:1.0 558:1.0 639:1.0 691:1.0 1174:1.0 1269:1.0 1284:1.0 1522:1.0 1660:1.0 1692:1.0
0.032941619247618736 4:1.0 30:1.0 61:1.0 98:1.0 104:1.0 105:1.0 111:1.0 138:1.0 157:1.0 171:1.0 180:1.0 204:1.0 226:1.0 261:1.0 296:1.0 300:1.0 308:1.0 330:1.0 357:1.0 376:1.0 391:1.0 401:1.0 428:1.0 438:1.0 446:1.0 457:1.0 459:1.0 463:1.0 523:1.0 533:1.0 572:1.0 585:1.0 698:1.0 718:1.0 749:1.0 837:1.0 913:1.0 1082:1.0 1124:1.0 1149:1.0 1274:1.0 1344:1.0 1373:1.0 1522:1.0 1598:1.0 1635:1.0 1656:1.0 1692:1.0
0.0439722861486455 79:1.0 98:1.0 139:1.0 204:1.0 245:1.0 314:1.0 330:1.0 350:1.0 373:1.0 401:1.0 446:1.0 466:1.0 470:1.0 491:1.0 748:1.0 784:1.0 837:1.0 923:1.0 1003:1.0 1147:1.0 1228:1.0 1365:1.0 1388:1.0 1522:1.0 1597:1.0
-0.014273341948829532 1:1.0 98:1.0 139:1.0 203:1.0 213:1.0 220:1.0 287:1.0 312:1.0 330:1.0 350:1.0 400:1.0 446:1.0 465:1.0 698:1.0 749:1.0 777:1.0 837:1.0 965:1.0 1174:1.0 1198:1.0 1522:1.0
-0.0439722861486455 3:1.0 80:1.0 104:1.0 116:1.0 240:1.0 302:1.0 311:1.0 317:1.0 350:1.0 356:1.0 365:1.0 407:1.0 414:1.0 421:1.0 446:1.0 447:1.0 459:1.0 463:1.0 481:1.0 750:1.0 798:1.0 841:1.0 856:1.0 915:1.0 1050:1.0 1137:1.0 1373:1.0 1481:1.0 1487:1.0 1522:1.0 1663:1.0 1668:1.0 1679:1.0
-0.0439722861486455 2:1.0 3:1.0 58:1.0 120:1.0 315:1.0 316:1.0 321:1.0 423:1.0 437:1.0 473:1.0 701:1.0 922:1.0 1311:1.0 1522:1.0 1536:1.0 1660:1.0 1679:1.0
-0.0439722861486455 55:1.0 301:1.0 309:1.0 359:1.0 433:1.0 482:1.0 624:1.0 916:1.0 1120:1.0 1442:1.0 1522:1.0 1597:1.0
-0.0439722861486455 144:1.0 292:1.0 385:1.0 445:1.0 455:1.0 459:1.0 740:1.0 1522:1.0 1580:1.0 1633:1.0
0.0439722861486455 4:1.0 59:1.0 132:1.0 278:1.0 338:1.0 341:1.0 352:1.0 385:1.0 388:1.0 406:1.0 420:1.0 441:1.0 445:1.0 465:1.0 731:1.0 784:1.0 848:1.0 991:1.0 1000:1.0 1419:1.0 1522:1.0 1690:1.0
0.0439722861486455 3:1.0 32:1.0 258:1.0 260:1.0 316:1.0 366:1.0 449:1.0 452:1.0 473:1.0 484:1.0 594:1.0 619:1.0 1027:1.0 1485:1.0 1522:1.0 1536:1.0 1691:1.0 1723:1.0
0.0439722861486455 2:1.0 169:1.0 173:1.0 305:1.0 321:1.0 355:1.0 473:1.0 613:1.0 1314:1.0 1323:1.0 1522:1.0
0.037914773273705196 4:1.0 7:1.0 246:1.0 251:1.0 279:1.0 292:1.0 314:1.0 320:1.0 357:1.0 421:1.0 447:1.0 465:1.0 483:1.0 490:1.0 568:1.0 664:1.0 740:1.0 1149:1.0 1160:1.0 1220:1.0 1342:1.0 1361:1.0 1522:1.0 1727:1.0
0.0439722861486455 86:1.0 215:1.0 222:1.0 271:1.0 292:1.0 357:1.0 358:1.0 440:1.0 465:1.0 483:1.0 693:1.0 708:1.0 740:1.0 916:1.0 985:1.0 1314:1.0 1342:1.0 1522:1.0
-0.028821520033847844 1:1.0 34:1.0 312:1.0 471:1.0 688:1.0 1173:1.0 1522:1.0
-0.0439722861486455 4:1.0 86:1.0 215:1.0 287:1.0 292:1.0 358:1.0 378:1.0 385:1.0 440:1.0 445:1.0 465:1.0 625:1.0 740:1.0 1025:1.0 1274:1.0 1335:1.0 1522:1.0 1663:1.0
-0.0439722861486455 445:1.0 465:1.0 1522:1.0
-0.0439722861486455 2:1.0 3:1.0 22:1.0 140:1.0 160:1.0 218:1.0 260:1.0 264:1.0 291:1.0 315:1.0 316:1.0 320:1.0 321:1.0 360:1.0 376:1.0 386:1.0 394:1.0 395:1.0 428:1.0 436:1.0 449:1.0 557:1.0 589:1.0 595:1.0 613:1.0 884:1.0 1050:1.0 1174:1.0 1289:1.0 1305:1.0 1314:1.0 1345:1.0 1485:1.0 1522:1.0 1692:1.0 1719:1.0
-0.0439722861486455 41:1.0 47:1.0 312:1.0 341:1.0 398:1.0 406:1.0 446:1.0 462:1.0 465:1.0 487:1.0 650:1.0 669:1.0 784:1.0 848:1.0 1085:1.0 1522:1.0 1548:1.0 1691:1.0
0.03618851868322745 41:1.0 68:1.0 80:1.0 186:1.0 202:1.0 240:1.0 307:1.0 376:1.0 407:1.0 412:1.0 426:1.0 428:1.0 430:1.0 446:1.0 463:1.0 465:1.0 474:1.0 495:1.0 562:1.0 592:1.0 605:1.0 656:1.0 837:1.0 898:1.0 1319:1.0 1373:1.0 1439:1.0 1477:1.0 1522:1.0 1567:1.0 1690:1.0 1694:1.0
0.0439722861486455 3:1.0 20:1.0 98:1.0 139:1.0 213:1.0 236:1.0 284:1.0 317:1.0 330:1.0 331:1.0 350:1.0 356:1.0 391:1.0 445:1.0 446:1.0 465:1.0 805:1.0 837:1.0 854:1.0 1161:1.0 1312:1.0 1522:1.0 1588:1.0 1617:1.0 1664:1.0 1724:1.0
0.0439722861486455 1:1.0 86:1.0 184:1.0 195:1.0 220:1.0 292:1.0 312:1.0 329:1.0 400:1.0 465:1.0 697:1.0 740:1.0 1129:1.0 1416:1.0 1522:1.0
0.031251902904612036 35:1.0 80:1.0 90:1.0 92:1.0 102:1.0 337:1.0 346:1.0 370:1.0 407:1.0 412:1.0 428:1.0 446:1.0 473:1.0 562:1.0 592:1.0 837:1.0 1373:1.0 1499:1.0 1522:1.0 1573:1.0 1694:1.0 1723:1.0
0.005170569810740967 46:1.0 68:1.0 287:1.0 288:1.0 342:1.0 360:1.0 367:1.0 376:1.0 412:1.0 421:1.0 428:1.0 584:1.0 766:1.0 847:1.0 1025:1.0 1044:1.0 1144:1.0 1373:1.0 1522:1.0 1674:1.0 1687:1.0 1692:1.0
-0.001538618680854759 1:1.0 41:1.0 49:1.0 98:1.0 184:1.0 195:1.0 220:1.0 261:1.0 292:1.0 312:1.0 329:1.0 330:1.0 357:1.0 400:1.0 446:1.0 465:1.0 580:1.0 599:1.0 740:1.0 754:1.0 837:1.0 916:1.0 926:1.0 1434:1.0 1522:1.0
-0.025145093816637338 1:1.0 11:1.0 26:1.0 35:1.0 88:1.0 195:1.0 200:1.0 220:1.0 221:1.0 292:1.0 300:1.0 312:1.0 329:1.0 337:1.0 400:1.0 409:1.0 473:1.0 678:1.0 697:1.0 740:1.0 781:1.0 1064:1.0 1174:1.0 1373:1.0 1439:1.0 1522:1.0
-0.0439722861486455 3:1.0 4:1.0 33:1.0 43:1.0 161:1.0 174:1.0 209:1.0 224:1.0 278:1.0 300:1.0 320:1.0 352:1.0 354:1.0 356:1.0 370:1.0 390:1.0 412:1.0 428:1.0 431:1.0 465:1.0 488:1.0 499:1.0 507:1.0 533:1.0 551:1.0 572:1.0 584:1.0 658:1.0 672:1.0 718:1.0 857:1.0 1005:1.0 1030:1.0 1250:1.0 1274:1.0 1373:1.0 1423:1.0 1635:1.0 1692:1.0 1719:1.0 1720:1.0
-0.0439722861486455 172:1.0 202:1.0 307:1.0 385:1.0 445:1.0 446:1.0 463:1.0 473:1.0 837:1.0 1106:1.0 1163:1.0 1522:1.0 1668:1.0
-0.0035915060993648995 1:1.0 31:1.0 41:1.0 192:1.0 312:1.0 344:1.0 446:1.0 461:1.0 465:1.0 688:1.0 837:1.0 985:1.0 1000:1.0 1173:1.0 1522:1.0
0.0439722861486455 2:1.0 3:1.0 27:1.0 45:1.0 173:1.0 305:1.0 314:1.0 321:1.0 355:1.0 421:1.0 454:1.0 477:1.0 490:1.0 701:1.0 1342:1.0 1390:1.0 1510:1.0 1522:1.0 1660:1.0 1679:1.0
0.0439722861486455 384:1.0 445:1.0 459:1.0 823:1.0 1522:1.0
0.0439722861486455 4:1.0 268:1.0 373:1.0 385:1.0 445:1.0 481:1.0 806:1.0 1522:1.0 1668:1.0
0.0439722861486455 103:1.0 111:1.0 228:1.0 282:1.0 288:1.0 296:1.0 376:1.0 421:1.0 428:1.0 439:1.0 445:1.0 485:1.0 1122:1.0 1522:1.0 1613:1.0 1654:1.0 1691:1.0 1692:1.0
0.0439722861486455 263:1.0 274:1.0 327:1.0 385:1.0 418:1.0 425:1.0 445:1.0 483:1.0 485:1.0 886:1.0 1342:1.0 1499:1.0 1522:1.0 1601:1.0 1674:1.0
-0.0439722861486455 2:1.0 3:1.0 25:1.0 93:1.0 198:1.0 238:1.0 297:1.0 314:1.0 321:1.0 352:1.0 421:1.0 429:1.0 451:1.0 469:1.0 492:1.0 497:1.0 566:1.0 576:1.0 701:1.0 866:1.0 963:1.0 1147:1.0 1149:1.0 1157:1.0 1294:1.0 1522:1.0 1679:1.0
-0.0439722861486455 419:1.0 445:1.0 472:1.0 674:1.0 824:1.0 1522:1.0 1660:1.0
-0.0439722861486455 2:1.0 3:1.0 108:1.0 194:1.0 198:1.0 208:1.0 274:1.0 321:1.0 327:1.0 415:1.0 425:1.0 429:1.0 446:1.0 451:1.0 462:1.0 485:1.0 571:1.0 701:1.0 754:1.0 837:1.0 887:1.0 1160:1.0 1342:1.0 1468:1.0 1522:1.0 1679:1.0
-0.0439722861486455 3:1.0 12:1.0 32:1.0 213:1.0 350:1.0 452:1.0 465:1.0 480:1.0 484:1.0 546:1.0 570:1.0 621:1.0 1147:1.0 1159:1.0 1418:1.0 1522:1.0 1691:1.0
-0.0439722861486455 3:1.0 153:1.0 310:1.0 319:1.0 373:1.0 385:1.0 425:1.0 429:1.0 445:1.0 451:1.0 714:1.0 1005:1.0 1030:1.0 1219:1.0 1342:1.0
0.026673688815494107 3:1.0 23:1.0 41:1.0 43:1.0 49:1.0 88:1.0 98:1.0 195:1.0 221:1.0 261:1.0 292:1.0 300:1.0 302:1.0 320:1.0 329:1.0 330:1.0 356:1.0 357:1.0 391:1.0 400:1.0 446:1.0 447:1.0 465:1.0 488:1.0 645:1.0 740:1.0 869:1.0 898:1.0 916:1.0 1111:1.0 1156:1.0 1220:1.0 1373:1.0 1434:1.0 1522:1.0 1541:1.0 1588:1.0 1692:1.0
0.01900421441499187 41:1.0 68:1.0 100:1.0 167:1.0 168:1.0 203:1.0 221:1.0 224:1.0 287:1.0 300:1.0 315:1.0 316:1.0 354:1.0 376:1.0 400:1.0 412:1.0 428:1.0 446:1.0 465:1.0 505:1.0 584:1.0 606:1.0 710:1.0 837:1.0 847:1.0 884:1.0 948:1.0 1025:1.0 1289:1.0 1305:1.0 1323:1.0 1373:1.0 1522:1.0 1653:1.0 1692:1.0
0.0439722861486455 41:1.0 47:1.0 99:1.0 297:1.0 338:1.0 352:1.0 406:1.0 446:1.0 465:1.0 476:1.0 765:1.0 848:1.0 991:1.0 1465:1.0 1522:1.0
-0.03231692378407798 47:1.0 68:1.0 139:1.0 147:1.0 167:1.0 168:1.0 208:1.0 233:1.0 279:1.0 285:1.0 288:1.0 315:1.0 316:1.0 317:1.0 318:1.0 323:1.0 330:1.0 333:1.0 338:1.0 350:1.0 371:1.0 374:1.0 376:1.0 382:1.0 405:1.0 406:1.0 412:1.0 415:1.0 421:1.0 428:1.0 439:1.0 446:1.0 465:1.0 475:1.0 505:1.0 576:1.0 584:1.0 588:1.0 710:1.0 727:1.0 786:1.0 837:1.0 847:1.0 848:1.0 884:1.0 898:1.0 1005:1.0 1044:1.0 1051:1.0 1129:1.0 1166:1.0 1205:1.0 1280:1.0 1294:1.0 1323:1.0 1342:1.0 1345:1.0 1437:1.0 1597:1.0 1635:1.0 1663:1.0 1674:1.0 1692:1.0
-0.0439722861486455 31:1.0 40:1.0 41:1.0 98:1.0 128:1.0 261:1.0 276:1.0 300:1.0 330:1.0 357:1.0 380:1.0 446:1.0 461:1.0 465:1.0 466:1.0 599:1.0 746:1.0 837:1.0 848:1.0 916:1.0 995:1.0 1434:1.0 1442:1.0 1522:1.0 1535:1.0 1597:1.0
-0.0439722861486455 143:1.0 262:1.0 271:1.0 322:1.0 357:1.0 358:1.0 435:1.0 445:1.0 446:1.0 456:1.0 458:1.0 648:1.0 716:1.0 848:1.0 1117:1.0 1174:1.0 1416:1.0 1519:1.0 1522:1.0 1594:1.0 1654:1.0
-0.0021365025974704023 3:1.0 41:1.0 71:1.0 94:1.0 98:1.0 105:1.0 261:1.0 316:1.0 330:1.0 332:1.0 342:1.0 357:1.0 361:1.0 391:1.0 411:1.0 438:1.0 446:1.0 457:1.0 465:1.0 599:1.0 837:1.0 869:1.0 916:1.0 1005:1.0 1083:1.0 1157:1.0 1264:1.0 1545:1.0 1568:1.0 1588:1.0 1598:1.0 1691:1.0
-0.031084912087855975 3:1.0 148:1.0 150:1.0 297:1.0 316:1.0 325:1.0 351:1.0 352:1.0 381:1.0 392:1.0 447:1.0 459:1.0 483:1.0 568:1.0 1005:1.0 1030:1.0 1137:1.0 1215:1.0 1220:1.0 1342:1.0 1371:1.0 1501:1.0
0.0439722861486455 11:1.0 70:1.0 143:1.0 292:1.0 299:1.0 322:1.0 335:1.0 337:1.0 358:1.0 412:1.0 456:1.0 469:1.0 648:1.0 721:1.0 1064:1.0 1174:1.0 1261:1.0 1442:1.0 1460:1.0 1522:1.0 1654:1.0
0.0439722861486455 153:1.0 252:1.0 285:1.0 373:1.0 399:1.0 427:1.0 449:1.0 451:1.0 663:1.0 867:1.0 1174:1.0 1299:1.0 1316:1.0 1408:1.0 1522:1.0
0.0439722861486455 37:1.0 56:1.0 86:1.0 292:1.0 312:1.0 314:1.0 389:1.0 399:1.0 465:1.0 490:1.0 671:1.0 740:1.0 748:1.0 1104:1.0 1179:1.0 1342:1.0 1522:1.0
0.00549004014453955 4:1.0 175:1.0 214:1.0 237:1.0 278:1.0 310:1.0 313:1.0 319:1.0 352:1.0 385:1.0 389:1.0 399:1.0 445:1.0 465:1.0 635:1.0 671:1.0 740:1.0 826:1.0 972:1.0 1216:1.0 1342:1.0 1522:1.0
-0.0439722861486455 1:1.0 86:1.0 292:1.0 312:1.0 391:1.0 457:1.0 465:1.0 624:1.0 740:1.0 1019:1.0 1442:1.0 1469:1.0 1522:1.0
-0.0439722861486455 79:1.0 103:1.0 109:1.0 124:1.0 216:1.0 296:1.0 306:1.0 314:1.0 347:1.0 445:1.0 446:1.0 471:1.0 837:1.0 964:1.0 985:1.0 1174:1.0 1522:1.0 1633:1.0
-0.032543145672931824 1:1.0 184:1.0 195:1.0 220:1.0 279:1.0 292:1.0 312:1.0 314:1.0 329:1.0 400:1.0 421:1.0 439:1.0 465:1.0 492:1.0 740:1.0 1064:1.0 1269:1.0 1522:1.0 1644:1.0 1660:1.0 1691:1.0
-0.03270393461754987 2:1.0 3:1.0 4:1.0 145:1.0 266:1.0 321:1.0 332:1.0 335:1.0 391:1.0 410:1.0 413:1.0 457:1.0 486:1.0 519:1.0 610:1.0 613:1.0 884:1.0 1314:1.0 1345:1.0 1460:1.0 1522:1.0 1588:1.0
-0.0439722861486455 446:1.0 463:1.0 471:1.0 476:1.0 837:1.0 1216:1.0 1522:1.0 1633:1.0 1668:1.0
0.027596737720300597 3:1.0 38:1.0 43:1.0 63:1.0 110:1.0 238:1.0 297:1.0 352:1.0 353:1.0 356:1.0 358:1.0 382:1.0 444:1.0 447:1.0 469:1.0 475:1.0 482:1.0 488:1.0 640:1.0 713:1.0 1027:1.0 1044:1.0 1156:1.0 1157:1.0 1220:1.0 1265:1.0 1294:1.0 1500:1.0 1522:1.0 1597:1.0 1660:1.0 1664:1.0
0.0439722861486455 41:1.0 208:1.0 214:1.0 310:1.0 319:1.0 385:1.0 415:1.0 445:1.0 446:1.0 465:1.0 559:1.0 848:1.0 945:1.0 1522:1.0 1555:1.0 1639:1.0
0.0439722861486455 4:1.0 191:1.0 288:1.0 333:1.0 342:1.0 380:1.0 421:1.0 427:1.0 446:1.0 462:1.0 485:1.0 693:1.0 768:1.0 916:1.0 1340:1.0 1462:1.0 1476:1.0 1522:1.0 1559:1.0 1597:1.0 1697:1.0
0.0439722861486455 153:1.0 265:1.0 315:1.0 338:1.0 373:1.0 384:1.0 445:1.0 451:1.0 1173:1.0 1294:1.0 1408:1.0 1427:1.0 1522:1.0
-0.0439722861486455 163:1.0 166:1.0 258:1.0 300:1.0 366:1.0 368:1.0 412:1.0 426:1.0 428:1.0 473:1.0 656:1.0 849:1.0 1005:1.0 1157:1.0 1373:1.0 1440:1.0 1567:1.0
-0.0439722861486455 2:1.0 3:1.0 13:1.0 91:1.0 139:1.0 208:1.0 213:1.0 303:1.0 350:1.0 364:1.0 415:1.0 446:1.0 465:1.0 530:1.0 588:1.0 659:1.0 725:1.0 848:1.0 969:1.0 1342:1.0 1409:1.0 1522:1.0 1691:1.0
-0.02216133562368034 3:1.0 4:1.0 75:1.0 77:1.0 85:1.0 133:1.0 136:1.0 149:1.0 195:1.0 255:1.0 260:1.0 292:1.0 316:1.0 322:1.0 329:1.0 345:1.0 400:1.0 412:1.0 423:1.0 428:1.0 449:1.0 456:1.0 466:1.0 520:1.0 584:1.0 667:1.0 673:1.0 680:1.0 740:1.0 889:1.0 922:1.0 1005:1.0 1025:1.0 1159:1.0 1263:1.0 1274:1.0 1339:1.0 1536:1.0 1597:1.0 1692:1.0
0.0439722861486455 71:1.0 112:1.0 252:1.0 273:1.0 285:1.0 294:1.0 316:1.0 373:1.0 391:1.0 427:1.0 689:1.0 924:1.0 1316:1.0 1345:1.0 1363:1.0 1522:1.0 1619:1.0
-0.043180494199980164 54:1.0 71:1.0 168:1.0 279:1.0 312:1.0 315:1.0 316:1.0 331:1.0 391:1.0 398:1.0 421:1.0 465:1.0 709:1.0 985:1.0 1207:1.0 1345:1.0 1522:1.0 1588:1.0 1654:1.0 1691:1.0
-0.0439722861486455 1:1.0 177:1.0 312:1.0 322:1.0 363:1.0 1422:1.0 1522:1.0 1559:1.0
0.0439722861486455 166:1.0 214:1.0 235:1.0 300:1.0 310:1.0 319:1.0 372:1.0 385:1.0 426:1.0 445:1.0 471:1.0 656:1.0 945:1.0 1120:1.0 1342:1.0 1373:1.0 1522:1.0 1567:1.0
-0.0439722861486455 385:1.0 445:1.0 485:1.0 1005:1.0 1220:1.0
-0.021752337083515833 11:1.0 56:1.0 292:1.0 309:1.0 316:1.0 337:1.0 358:1.0 389:1.0 396:1.0 399:1.0 440:1.0 453:1.0 1005:1.0 1064:1.0 1087:1.0 1099:1.0 1342:1.0 1691:1.0 1715:1.0 1730:1.0
-0.009824278693882178 2:1.0 141:1.0 153:1.0 280:1.0 294:1.0 310:1.0 316:1.0 319:1.0 321:1.0 372:1.0 373:1.0 381:1.0 392:1.0 451:1.0 613:1.0 791:1.0 1005:1.0 1188:1.0 1314:1.0 1342:1.0 1408:1.0
0.0439722861486455 3:1.0 33:1.0 320:1.0 322:1.0 334:1.0 370:1.0 427:1.0 428:1.0 431:1.0 663:1.0 1316:1.0 1339:1.0 1346:1.0 1421:1.0 1422:1.0 1522:1.0 1692:1.0
0.016051763673590427 74:1.0 137:1.0 181:1.0 246:1.0 314:1.0 350:1.0 385:1.0 418:1.0 424:1.0 435:1.0 445:1.0 483:1.0 485:1.0 490:1.0 889:1.0 945:1.0 1117:1.0 1144:1.0 1342:1.0 1355:1.0 1522:1.0
-0.0439722861486455 1:1.0 34:1.0 312:1.0 471:1.0 1522:1.0
-0.012338723151655098 3:1.0 32:1.0 77:1.0 165:1.0 203:1.0 279:1.0 287:1.0 400:1.0 421:1.0 428:1.0 452:1.0 465:1.0 484:1.0 555:1.0 557:1.0 619:1.0 690:1.0 691:1.0 926:1.0 1025:1.0 1174:1.0 1305:1.0 1522:1.0 1660:1.0 1691:1.0
-0.025973863033259832 3:1.0 19:1.0 30:1.0 31:1.0 43:1.0 82:1.0 87:1.0 191:1.0 278:1.0 296:1.0 349:1.0 352:1.0 356:1.0 427:1.0 446:1.0 461:1.0 465:1.0 488:1.0 713:1.0 775:1.0 837:1.0 1005:1.0 1027:1.0 1035:1.0 1062:1.0 1197:1.0 1373:1.0 1399:1.0 1442:1.0 1664:1.0
-0.004547701857044992 3:1.0 114:1.0 165:1.0 170:1.0 243:1.0 342:1.0 358:1.0 367:1.0 376:1.0 382:1.0 401:1.0 428:1.0 452:1.0 486:1.0 584:1.0 594:1.0 777:1.0 1005:1.0 1027:1.0 1207:1.0 1344:1.0 1422:1.0 1613:1.0 1646:1.0 1664:1.0 1691:1.0
0.01699187270425447 3:1.0 61:1.0 138:1.0 149:1.0 160:1.0 176:1.0 213:1.0 226:1.0 248:1.0 260:1.0 300:1.0 308:1.0 316:1.0 350:1.0 362:1.0 391:1.0 394:1.0 412:1.0 414:1.0 449:1.0 457:1.0 465:1.0 584:1.0 706:1.0 1030:1.0 1033:1.0 1141:1.0 1327:1.0 1330:1.0 1373:1.0 1464:1.0 1522:1.0 1635:1.0 1649:1.0 1692:1.0
0.023929142069678208 7:1.0 70:1.0 171:1.0 196:1.0 208:1.0 251:1.0 279:1.0 292:1.0 299:1.0 314:1.0 357:1.0 412:1.0 415:1.0 421:1.0 446:1.0 465:1.0 490:1.0 559:1.0 683:1.0 721:1.0 848:1.0 985:1.0 1064:1.0 1113:1.0 1149:1.0 1442:1.0 1522:1.0 1555:1.0
0.0439722861486455 3:1.0 71:1.0 94:1.0 112:1.0 316:1.0 332:1.0 373:1.0 391:1.0 430:1.0 447:1.0 701:1.0 711:1.0 799:1.0 898:1.0 1220:1.0 1253:1.0 1323:1.0 1522:1.0 1588:1.0
0.03839550706005732 70:1.0 292:1.0 299:1.0 328:1.0 412:1.0 455:1.0 477:1.0 721:1.0 1191:1.0 1299:1.0 1442:1.0 1522:1.0
-0.028613333045328416 1:1.0 258:1.0 312:1.0 366:1.0 473:1.0 1522:1.0 1595:1.0
-0.015552197667334051 1:1.0 258:1.0 312:1.0 366:1.0 473:1.0 688:1.0 1084:1.0 1173:1.0 1522:1.0
0.022134254834458134 3:1.0 31:1.0 90:1.0 95:1.0 100:1.0 171:1.0 224:1.0 271:1.0 276:1.0 300:1.0 316:1.0 322:1.0 345:1.0 354:1.0 357:1.0 358:1.0 370:1.0 412:1.0 428:1.0 446:1.0 456:1.0 461:1.0 606:1.0 639:1.0 694:1.0 698:1.0 837:1.0 849:1.0 922:1.0 1012:1.0 1269:1.0 1289:1.0 1323:1.0 1373:1.0 1522:1.0 1536:1.0 1660:1.0 1692:1.0 1730:1.0
0.017053390746924614 42:1.0 68:1.0 87:1.0 167:1.0 168:1.0 208:1.0 276:1.0 300:1.0 315:1.0 316:1.0 349:1.0 376:1.0 412:1.0 415:1.0 419:1.0 428:1.0 446:1.0 461:1.0 505:1.0 578:1.0 584:1.0 710:1.0 716:1.0 775:1.0 884:1.0 1117:1.0 1157:1.0 1177:1.0 1345:1.0 1373:1.0 1522:1.0 1539:1.0 1638:1.0 1660:1.0 1692:1.0
0.015891279027142963 3:1.0 41:1.0 70:1.0 116:1.0 164:1.0 292:1.0 299:1.0 326:1.0 343:1.0 344:1.0 356:1.0 365:1.0 412:1.0 446:1.0 465:1.0 721:1.0 775:1.0 806:1.0 1442:1.0 1519:1.0 1522:1.0 1588:1.0 1660:1.0 1664:1.0
0.02033625822251512 83:1.0 268:1.0 289:1.0 299:1.0 313:1.0 335:1.0 373:1.0 412:1.0 481:1.0 721:1.0 1160:1.0 1261:1.0 1334:1.0 1442:1.0 1522:1.0 1668:1.0
-0.012487263467709597 3:1.0 4:1.0 79:1.0 124:1.0 130:1.0 244:1.0 246:1.0 314:1.0 379:1.0 401:1.0 446:1.0 471:1.0 483:1.0 490:1.0 749:1.0 924:1.0 985:1.0 1005:1.0 1050:1.0 1591:1.0 1667:1.0
0.019461058502015568 9:1.0 68:1.0 186:1.0 376:1.0 402:1.0 412:1.0 428:1.0 473:1.0 474:1.0 584:1.0 1249:1.0 1343:1.0 1522:1.0 1567:1.0 1692:1.0
0.012985088991391898 149:1.0 160:1.0 260:1.0 298:1.0 316:1.0 317:1.0 350:1.0 394:1.0 410:1.0 412:1.0 449:1.0 520:1.0 584:1.0 673:1.0 1033:1.0 1237:1.0 1263:1.0 1289:1.0 1292:1.0 1431:1.0 1522:1.0 1692:1.0
0.01777702184058357 3:1.0 25:1.0 68:1.0 99:1.0 167:1.0 168:1.0 183:1.0 291:1.0 297:1.0 315:1.0 316:1.0 338:1.0 352:1.0 376:1.0 390:1.0 412:1.0 428:1.0 429:1.0 451:1.0 505:1.0 584:1.0 710:1.0 884:1.0 1030:1.0 1059:1.0 1345:1.0 1460:1.0 1522:1.0 1635:1.0 1649:1.0 1692:1.0
-0.02497168312397699 31:1.0 40:1.0 128:1.0 166:1.0 230:1.0 252:1.0 273:1.0 276:1.0 285:1.0 294:1.0 300:1.0 316:1.0 380:1.0 396:1.0 426:1.0 427:1.0 446:1.0 461:1.0 465:1.0 466:1.0 532:1.0 656:1.0 685:1.0 689:1.0 692:1.0 727:1.0 848:1.0 926:1.0 1005:1.0 1316:1.0 1342:1.0 1345:1.0 1363:1.0 1373:1.0 1567:1.0 1588:1.0 1597:1.0
0.02480564650901449 79:1.0 134:1.0 191:1.0 244:1.0 293:1.0 300:1.0 314:1.0 326:1.0 344:1.0 427:1.0 446:1.0 490:1.0 692:1.0 693:1.0 757:1.0 985:1.0 1167:1.0 1373:1.0 1462:1.0 1522:1.0 1588:1.0
-0.005704149658258679 3:1.0 8:1.0 30:1.0 43:1.0 82:1.0 191:1.0 279:1.0 296:1.0 356:1.0 382:1.0 421:1.0 427:1.0 446:1.0 465:1.0 488:1.0 713:1.0 1005:1.0 1027:1.0 1442:1.0 1539:1.0 1660:1.0 1664:1.0 1671:1.0 1672:1.0
0.025623496683594045 65:1.0 152:1.0 166:1.0 248:1.0 300:1.0 372:1.0 375:1.0 412:1.0 414:1.0 426:1.0 428:1.0 465:1.0 584:1.0 656:1.0 692:1.0 695:1.0 804:1.0 1170:1.0 1342:1.0 1373:1.0 1522:1.0 1567:1.0 1588:1.0
0.010948346914668384 20:1.0 129:1.0 214:1.0 280:1.0 294:1.0 310:1.0 319:1.0 330:1.0 331:1.0 385:1.0 419:1.0 445:1.0 451:1.0 945:1.0 1219:1.0 1342:1.0 1517:1.0 1522:1.0 1654:1.0 1660:1.0
-0.015193963648118234 1:1.0 31:1.0 41:1.0 98:1.0 126:1.0 171:1.0 312:1.0 330:1.0 357:1.0 446:1.0 461:1.0 465:1.0 726:1.0 748:1.0 783:1.0 837:1.0 1149:1.0 1404:1.0 1522:1.0 1660:1.0 1668:1.0
-0.004769149189081639 2:1.0 3:1.0 5:1.0 14:1.0 15:1.0 19:1.0 43:1.0 66:1.0 67:1.0 77:1.0 78:1.0 132:1.0 148:1.0 178:1.0 217:1.0 297:1.0 303:1.0 339:1.0 352:1.0 356:1.0 360:1.0 400:1.0 420:1.0 422:1.0 428:1.0 459:1.0 461:1.0 487:1.0 488:1.0 536:1.0 540:1.0 567:1.0 620:1.0 659:1.0 681:1.0 717:1.0 723:1.0 786:1.0 837:1.0 868:1.0 884:1.0 896:1.0 1005:1.0 1025:1.0 1059:1.0 1613:1.0 1638:1.0 1690:1.0 1691:1.0 1692:1.0
4.4119391618059264E-4 70:1.0 72:1.0 121:1.0 181:1.0 246:1.0 292:1.0 299:1.0 314:1.0 350:1.0 412:1.0 465:1.0 483:1.0 490:1.0 631:1.0 889:1.0 1062:1.0 1342:1.0 1418:1.0 1442:1.0 1522:1.0
-0.013033092512755442 1:1.0 34:1.0 312:1.0 471:1.0 1522:1.0 1576:1.0
-0.04020524953520667 46:1.0 68:1.0 232:1.0 322:1.0 360:1.0 376:1.0 412:1.0 428:1.0 456:1.0 631:1.0 1005:1.0 1635:1.0 1694:1.0 1730:1.0
-0.024851641740221055 54:1.0 112:1.0 168:1.0 312:1.0 315:1.0 316:1.0 373:1.0 391:1.0 398:1.0 433:1.0 709:1.0 867:1.0 946:1.0 1345:1.0 1522:1.0 1588:1.0 1597:1.0 1691:1.0
-0.01889441554004329 2:1.0 3:1.0 13:1.0 162:1.0 175:1.0 237:1.0 278:1.0 303:1.0 313:1.0 352:1.0 364:1.0 389:1.0 399:1.0 465:1.0 543:1.0 586:1.0 611:1.0 612:1.0 740:1.0 958:1.0 1005:1.0 1064:1.0 1316:1.0 1342:1.0
-0.0011985889895632304 2:1.0 3:1.0 13:1.0 74:1.0 197:1.0 303:1.0 364:1.0 418:1.0 483:1.0 485:1.0 543:1.0 586:1.0 611:1.0 1005:1.0 1316:1.0 1342:1.0
-0.01761412367640316 2:1.0 3:1.0 10:1.0 29:1.0 31:1.0 41:1.0 48:1.0 189:1.0 320:1.0 321:1.0 344:1.0 376:1.0 428:1.0 431:1.0 446:1.0 460:1.0 461:1.0 465:1.0 634:1.0 647:1.0 837:1.0 874:1.0 884:1.0 1025:1.0 1294:1.0 1420:1.0 1522:1.0 1633:1.0 1691:1.0
0.01674369120356334 3:1.0 19:1.0 22:1.0 31:1.0 41:1.0 68:1.0 186:1.0 356:1.0 376:1.0 412:1.0 428:1.0 436:1.0 446:1.0 461:1.0 465:1.0 474:1.0 506:1.0 584:1.0 646:1.0 730:1.0 736:1.0 837:1.0 869:1.0 957:1.0 1050:1.0 1343:1.0 1522:1.0 1638:1.0 1653:1.0 1692:1.0
0.012112473482212975 43:1.0 63:1.0 68:1.0 186:1.0 258:1.0 356:1.0 358:1.0 366:1.0 376:1.0 412:1.0 428:1.0 453:1.0 473:1.0 474:1.0 488:1.0 584:1.0 639:1.0 1120:1.0 1343:1.0 1429:1.0 1439:1.0 1522:1.0 1660:1.0 1664:1.0 1692:1.0
0.01190032045729018 3:1.0 36:1.0 43:1.0 66:1.0 68:1.0 167:1.0 168:1.0 255:1.0 315:1.0 316:1.0 356:1.0 376:1.0 400:1.0 412:1.0 428:1.0 471:1.0 488:1.0 505:1.0 578:1.0 584:1.0 681:1.0 710:1.0 884:1.0 1345:1.0 1440:1.0 1522:1.0 1638:1.0 1664:1.0 1692:1.0
0.016748449559778986 3:1.0 36:1.0 43:1.0 66:1.0 68:1.0 167:1.0 168:1.0 255:1.0 315:1.0 316:1.0 356:1.0 376:1.0 400:1.0 412:1.0 428:1.0 471:1.0 488:1.0 505:1.0 578:1.0 584:1.0 608:1.0 710:1.0 884:1.0 1025:1.0 1345:1.0 1522:1.0 1613:1.0 1638:1.0 1664:1.0 1692:1.0
0.018372051700837548 56:1.0 86:1.0 252:1.0 285:1.0 292:1.0 389:1.0 399:1.0 427:1.0 465:1.0 532:1.0 671:1.0 689:1.0 727:1.0 740:1.0 1316:1.0 1342:1.0 1354:1.0 1522:1.0
-0.027002553946729145 1:1.0 31:1.0 41:1.0 107:1.0 220:1.0 312:1.0 400:1.0 428:1.0 446:1.0 461:1.0 465:1.0 642:1.0 898:1.0 1047:1.0 1174:1.0 1316:1.0 1522:1.0 1535:1.0
-0.007986824744749073 1:1.0 28:1.0 151:1.0 169:1.0 305:1.0 312:1.0 382:1.0 448:1.0 473:1.0 660:1.0 1513:1.0 1522:1.0 1660:1.0 1679:1.0 1688:1.0
0.013800066733514142 68:1.0 86:1.0 215:1.0 272:1.0 292:1.0 331:1.0 358:1.0 376:1.0 412:1.0 428:1.0 440:1.0 444:1.0 465:1.0 562:1.0 740:1.0 1062:1.0 1207:1.0 1319:1.0 1522:1.0 1654:1.0 1694:1.0
0.008591124202643985 39:1.0 79:1.0 179:1.0 191:1.0 244:1.0 314:1.0 342:1.0 361:1.0 427:1.0 443:1.0 446:1.0 459:1.0 464:1.0 490:1.0 693:1.0 817:1.0 877:1.0 916:1.0 1462:1.0 1515:1.0 1522:1.0 1673:1.0
0.007978939931118506 4:1.0 83:1.0 175:1.0 299:1.0 313:1.0 314:1.0 352:1.0 412:1.0 434:1.0 468:1.0 479:1.0 635:1.0 721:1.0 826:1.0 1179:1.0 1269:1.0 1346:1.0 1442:1.0 1522:1.0
-0.013002564178382848 1:1.0 220:1.0 312:1.0 400:1.0 449:1.0 473:1.0 580:1.0 754:1.0 1174:1.0 1311:1.0 1522:1.0
-0.002054748290994904 1:1.0 80:1.0 143:1.0 155:1.0 171:1.0 271:1.0 312:1.0 322:1.0 354:1.0 357:1.0 358:1.0 407:1.0 446:1.0 456:1.0 498:1.0 518:1.0 592:1.0 623:1.0 648:1.0 676:1.0 688:1.0 837:1.0 899:1.0 1173:1.0 1174:1.0 1373:1.0 1522:1.0 1654:1.0
-0.0062915032772990435 3:1.0 4:1.0 128:1.0 159:1.0 161:1.0 230:1.0 277:1.0 283:1.0 332:1.0 352:1.0 357:1.0 380:1.0 403:1.0 412:1.0 465:1.0 466:1.0 488:1.0 631:1.0 685:1.0 1000:1.0 1004:1.0 1005:1.0 1363:1.0 1403:1.0 1564:1.0 1597:1.0 1664:1.0 1694:1.0 1715:1.0
0.01743092199043112 68:1.0 153:1.0 167:1.0 265:1.0 315:1.0 373:1.0 376:1.0 412:1.0 428:1.0 451:1.0 631:1.0 634:1.0 1294:1.0 1374:1.0 1510:1.0 1522:1.0 1694:1.0
0.014613360111082031 31:1.0 41:1.0 68:1.0 138:1.0 157:1.0 276:1.0 300:1.0 308:1.0 376:1.0 412:1.0 428:1.0 446:1.0 461:1.0 465:1.0 525:1.0 541:1.0 558:1.0 584:1.0 603:1.0 837:1.0 1284:1.0 1373:1.0 1453:1.0 1522:1.0 1692:1.0
-0.002790859294365376 2:1.0 3:1.0 58:1.0 76:1.0 99:1.0 120:1.0 132:1.0 135:1.0 178:1.0 297:1.0 316:1.0 321:1.0 338:1.0 352:1.0 373:1.0 420:1.0 423:1.0 437:1.0 444:1.0 510:1.0 602:1.0 647:1.0 806:1.0 837:1.0 922:1.0 1005:1.0 1378:1.0 1400:1.0 1441:1.0 1691:1.0
-0.0046474619206569355 1:1.0 31:1.0 86:1.0 87:1.0 126:1.0 292:1.0 312:1.0 349:1.0 446:1.0 461:1.0 465:1.0 478:1.0 740:1.0 848:1.0 1203:1.0 1373:1.0 1390:1.0 1522:1.0 1679:1.0
0.0066240423499180955 68:1.0 98:1.0 239:1.0 257:1.0 262:1.0 282:1.0 330:1.0 376:1.0 412:1.0 428:1.0 435:1.0 439:1.0 446:1.0 458:1.0 465:1.0 584:1.0 837:1.0 951:1.0 1056:1.0 1110:1.0 1117:1.0 1522:1.0 1692:1.0 1715:1.0
-0.005237874843967311 1:1.0 7:1.0 49:1.0 184:1.0 195:1.0 220:1.0 279:1.0 292:1.0 312:1.0 329:1.0 357:1.0 400:1.0 421:1.0 465:1.0 740:1.0 795:1.0 1062:1.0 1127:1.0 1522:1.0 1696:1.0
-7.102795749975234E-4 4:1.0 16:1.0 132:1.0 247:1.0 278:1.0 312:1.0 352:1.0 368:1.0 399:1.0 417:1.0 420:1.0 428:1.0 465:1.0 564:1.0 584:1.0 641:1.0 696:1.0 848:1.0 1005:1.0 1140:1.0 1433:1.0 1469:1.0 1653:1.0 1691:1.0
0.001867071673352067 3:1.0 28:1.0 68:1.0 79:1.0 205:1.0 245:1.0 300:1.0 314:1.0 324:1.0 376:1.0 382:1.0 412:1.0 428:1.0 430:1.0 446:1.0 448:1.0 467:1.0 473:1.0 491:1.0 584:1.0 684:1.0 705:1.0 837:1.0 1057:1.0 1107:1.0 1130:1.0 1273:1.0 1311:1.0 1373:1.0 1522:1.0 1635:1.0 1662:1.0 1692:1.0
0.0037480262078339183 3:1.0 19:1.0 22:1.0 31:1.0 41:1.0 90:1.0 186:1.0 356:1.0 370:1.0 376:1.0 412:1.0 428:1.0 436:1.0 446:1.0 461:1.0 465:1.0 474:1.0 584:1.0 837:1.0 867:1.0 869:1.0 978:1.0 1027:1.0 1050:1.0 1294:1.0 1522:1.0 1539:1.0 1653:1.0 1660:1.0 1692:1.0
-2.568822672848069E-4 7:1.0 213:1.0 215:1.0 217:1.0 292:1.0 300:1.0 314:1.0 324:1.0 350:1.0 357:1.0 358:1.0 360:1.0 361:1.0 363:1.0 387:1.0 401:1.0 421:1.0 428:1.0 440:1.0 448:1.0 465:1.0 492:1.0 740:1.0 748:1.0 796:1.0 926:1.0 1005:1.0 1027:1.0 1120:1.0 1203:1.0 1294:1.0 1373:1.0 1422:1.0 1485:1.0 1531:1.0 1538:1.0 1566:1.0 1568:1.0 1672:1.0 1715:1.0
3.9495182011896964E-4 4:1.0 59:1.0 68:1.0 128:1.0 132:1.0 225:1.0 274:1.0 277:1.0 352:1.0 376:1.0 380:1.0 406:1.0 412:1.0 420:1.0 425:1.0 428:1.0 466:1.0 485:1.0 564:1.0 631:1.0 731:1.0 848:1.0 945:1.0 1140:1.0 1319:1.0 1390:1.0 1522:1.0 1597:1.0 1694:1.0
-8.026687299609448E-5 2:1.0 3:1.0 15:1.0 24:1.0 59:1.0 64:1.0 93:1.0 132:1.0 178:1.0 234:1.0 238:1.0 286:1.0 297:1.0 303:1.0 304:1.0 339:1.0 352:1.0 406:1.0 420:1.0 421:1.0 465:1.0 469:1.0 527:1.0 528:1.0 576:1.0 591:1.0 659:1.0 675:1.0 837:1.0 894:1.0 916:1.0 1005:1.0 1141:1.0 1265:1.0 1294:1.0 1420:1.0 1691:1.0
