SVM-light Version V6.01
0 # kernel type
3 # kernel parameter -d
1.0 # kernel parameter -g
1.0 # kernel parameter -s
0.0 # kernel parameter -r
empty# kernel parameter -u
3354 # highest feature index
1388 # number of training documents
516 # number of support vectors plus 1
1.118130873444009 # threshold b, each following line is a SV (starting with alpha*y)
-0.016485151114637962 3:1.0 5:1.0 65:1.0 86:1.0 87:1.0 212:1.0 231:1.0 245:1.0 282:1.0 309:1.0 337:1.0 398:1.0 416:1.0 525:1.0 531:1.0 567:1.0 639:1.0 809:1.0 813:1.0 947:1.0 1007:1.0 1023:1.0 1071:1.0 1076:1.0 1091:1.0 1116:1.0 1132:1.0 1139:1.0 1144:1.0 1160:1.0 1163:1.0 1167:1.0 1170:1.0 1207:1.0 1230:1.0 1244:1.0 1283:1.0 1294:1.0 1323:1.0 1382:1.0 1391:1.0 1427:1.0 1428:1.0 1432:1.0 1451:1.0 1452:1.0 1662:1.0 1784:1.0 1901:1.0 2020:1.0 2100:1.0 2355:1.0 2364:1.0 2371:1.0 2395:1.0 2408:1.0 2493:1.0 2569:1.0 2735:1.0 2749:1.0 2764:1.0 2773:1.0 2791:1.0 2794:1.0 2934:1.0 2997:1.0 3057:1.0 3105:1.0 3146:1.0 3259:1.0 3284:1.0 3318:1.0
-0.022101161824164266 20:1.0 150:1.0 227:1.0 588:1.0 630:1.0 824:1.0 966:1.0 1028:1.0 1062:1.0 1100:1.0 1114:1.0 1137:1.0 1140:1.0 1152:1.0 1160:1.0 1167:1.0 1207:1.0 1259:1.0 1268:1.0 1280:1.0 1358:1.0 1400:1.0 2408:1.0 2461:1.0 2609:1.0 2683:1.0 2717:1.0 2783:1.0 2822:1.0 2923:1.0 3146:1.0 3339:1.0 3345:1.0
-0.0058459529594564845 5:1.0 14:1.0 35:1.0 89:1.0 230:1.0 302:1.0 364:1.0 472:1.0 576:1.0 626:1.0 644:1.0 684:1.0 754:1.0 850:1.0 868:1.0 897:1.0 947:1.0 965:1.0 1014:1.0 1040:1.0 1058:1.0 1064:1.0 1067:1.0 1083:1.0 1153:1.0 1156:1.0 1160:1.0 1162:1.0 1167:1.0 1170:1.0 1196:1.0 1229:1.0 1290:1.0 1294:1.0 1315:1.0 1325:1.0 1328:1.0 1340:1.0 1358:1.0 1391:1.0 1402:1.0 1438:1.0 1440:1.0 1656:1.0 1662:1.0 1788:1.0 1940:1.0 2103:1.0 2294:1.0 2303:1.0 2361:1.0 2364:1.0 2368:1.0 2381:1.0 2460:1.0 2464:1.0 2472:1.0 2490:1.0 2558:1.0 2615:1.0 2646:1.0 2773:1.0 2783:1.0 2787:1.0 2844:1.0 2985:1.0 2997:1.0 3046:1.0 3109:1.0 3146:1.0 3182:1.0 3221:1.0 3296:1.0 3302:1.0 3316:1.0
-0.021627891011206345 103:1.0 378:1.0 625:1.0 971:1.0 1098:1.0 1236:1.0 1357:1.0 1358:1.0 1391:1.0 1396:1.0 1441:1.0 2295:1.0 2569:1.0 2801:1.0 3146:1.0 3221:1.0 3340:1.0
-0.021876312003045413 8:1.0 93:1.0 137:1.0 224:1.0 375:1.0 395:1.0 597:1.0 630:1.0 776:1.0 1003:1.0 1167:1.0 1174:1.0 1214:1.0 1241:1.0 1268:1.0 1283:1.0 1301:1.0 1318:1.0 1325:1.0 1338:1.0 1349:1.0 1358:1.0 1391:1.0 1393:1.0 1526:1.0 1543:1.0 1708:1.0 1829:1.0 1965:1.0 1979:1.0 2000:1.0 2115:1.0 2408:1.0 2472:1.0 2618:1.0 2649:1.0 2773:1.0 2843:1.0 3082:1.0 3146:1.0 3268:1.0 3318:1.0
-0.021605271219727558 22:1.0 225:1.0 521:1.0 785:1.0 1023:1.0 1039:1.0 1090:1.0 1121:1.0 1125:1.0 1170:1.0 1283:1.0 1384:1.0 1412:1.0 1440:1.0 2042:1.0 2329:1.0 2688:1.0 2798:1.0 2885:1.0 3066:1.0 3084:1.0 3146:1.0 3278:1.0
0.034213513001103465 1:1.0 521:1.0 650:1.0 828:1.0 923:1.0 1062:1.0 1090:1.0 1170:1.0 1181:1.0 1292:1.0 1384:1.0 1752:1.0 2234:1.0 2494:1.0 3046:1.0 3146:1.0 3183:1.0 3278:1.0
-0.0061687179729496165 3:1.0 21:1.0 76:1.0 88:1.0 90:1.0 111:1.0 121:1.0 199:1.0 230:1.0 278:1.0 309:1.0 431:1.0 470:1.0 510:1.0 544:1.0 574:1.0 623:1.0 630:1.0 742:1.0 753:1.0 771:1.0 797:1.0 854:1.0 877:1.0 879:1.0 946:1.0 1013:1.0 1023:1.0 1031:1.0 1040:1.0 1057:1.0 1066:1.0 1070:1.0 1071:1.0 1083:1.0 1102:1.0 1131:1.0 1143:1.0 1159:1.0 1160:1.0 1166:1.0 1167:1.0 1170:1.0 1178:1.0 1214:1.0 1230:1.0 1231:1.0 1302:1.0 1311:1.0 1322:1.0 1323:1.0 1324:1.0 1325:1.0 1326:1.0 1330:1.0 1347:1.0 1358:1.0 1371:1.0 1390:1.0 1408:1.0 1414:1.0 1415:1.0 1427:1.0 1436:1.0 1439:1.0 1451:1.0 1459:1.0 1562:1.0 1707:1.0 1740:1.0 1916:1.0 1927:1.0 1954:1.0 2073:1.0 2075:1.0 2117:1.0 2150:1.0 2191:1.0 2268:1.0 2317:1.0 2349:1.0 2364:1.0 2430:1.0 2461:1.0 2491:1.0 2493:1.0 2508:1.0 2649:1.0 2654:1.0 2668:1.0 2701:1.0 2719:1.0 2822:1.0 2852:1.0 2913:1.0 2919:1.0 2934:1.0 2940:1.0 2946:1.0 2966:1.0 2969:1.0 2997:1.0 3040:1.0 3146:1.0 3191:1.0 3212:1.0 3286:1.0 3287:1.0 3288:1.0
0.034213513001103465 129:1.0 351:1.0 416:1.0 736:1.0 844:1.0 913:1.0 916:1.0 1109:1.0 1122:1.0 1130:1.0 1160:1.0 1167:1.0 1236:1.0 1337:1.0 1357:1.0 1358:1.0 1388:1.0 1400:1.0 1822:1.0 1899:1.0 2290:1.0 2461:1.0 2676:1.0 2699:1.0 2741:1.0 2920:1.0 3146:1.0 3192:1.0 3278:1.0 3315:1.0
0.014591254587551655 5:1.0 53:1.0 138:1.0 325:1.0 437:1.0 502:1.0 542:1.0 588:1.0 597:1.0 630:1.0 771:1.0 891:1.0 915:1.0 1003:1.0 1023:1.0 1062:1.0 1091:1.0 1114:1.0 1158:1.0 1160:1.0 1167:1.0 1170:1.0 1241:1.0 1258:1.0 1268:1.0 1271:1.0 1347:1.0 1349:1.0 1358:1.0 1391:1.0 1413:1.0 1450:1.0 1552:1.0 1752:1.0 1901:1.0 2051:1.0 2115:1.0 2234:1.0 2364:1.0 2408:1.0 2410:1.0 2453:1.0 2472:1.0 2609:1.0 2736:1.0 2754:1.0 2773:1.0 2784:1.0 2820:1.0 3146:1.0 3278:1.0 3315:1.0
-0.015423335069074041 16:1.0 32:1.0 270:1.0 281:1.0 351:1.0 444:1.0 509:1.0 529:1.0 579:1.0 625:1.0 630:1.0 644:1.0 752:1.0 826:1.0 843:1.0 858:1.0 913:1.0 916:1.0 966:1.0 973:1.0 1064:1.0 1066:1.0 1098:1.0 1109:1.0 1135:1.0 1157:1.0 1158:1.0 1160:1.0 1167:1.0 1170:1.0 1175:1.0 1264:1.0 1274:1.0 1315:1.0 1337:1.0 1341:1.0 1347:1.0 1351:1.0 1358:1.0 1388:1.0 1400:1.0 1402:1.0 1455:1.0 1777:1.0 1819:1.0 2128:1.0 2186:1.0 2221:1.0 2373:1.0 2392:1.0 2424:1.0 2461:1.0 2472:1.0 2523:1.0 2627:1.0 2741:1.0 2773:1.0 2817:1.0 2923:1.0 2958:1.0 3036:1.0 3146:1.0 3162:1.0 3169:1.0 3192:1.0 3193:1.0 3195:1.0 3196:1.0 3221:1.0 3333:1.0
-0.03101361587706724 40:1.0 346:1.0 351:1.0 355:1.0 409:1.0 416:1.0 489:1.0 495:1.0 631:1.0 672:1.0 749:1.0 913:1.0 1054:1.0 1091:1.0 1109:1.0 1160:1.0 1165:1.0 1167:1.0 1314:1.0 1315:1.0 1357:1.0 1358:1.0 1381:1.0 1389:1.0 1396:1.0 1420:1.0 1450:1.0 2410:1.0 2419:1.0 2461:1.0 2472:1.0 2480:1.0 2517:1.0 2606:1.0 2686:1.0 2717:1.0 2990:1.0 3129:1.0 3145:1.0 3146:1.0
-0.034213513001103465 1:1.0 173:1.0 295:1.0 584:1.0 630:1.0 748:1.0 771:1.0 781:1.0 786:1.0 932:1.0 947:1.0 1016:1.0 1023:1.0 1062:1.0 1117:1.0 1167:1.0 1170:1.0 1261:1.0 1292:1.0 1327:1.0 1347:1.0 1358:1.0 1400:1.0 1509:1.0 1602:1.0 1918:1.0 1955:1.0 1988:1.0 2277:1.0 2364:1.0 2461:1.0 2609:1.0 2649:1.0 2668:1.0 2897:1.0 3146:1.0 3201:1.0 3278:1.0 3315:1.0
-0.034213513001103465 1:1.0 75:1.0 141:1.0 263:1.0 351:1.0 400:1.0 491:1.0 548:1.0 676:1.0 701:1.0 719:1.0 768:1.0 833:1.0 1062:1.0 1091:1.0 1109:1.0 1157:1.0 1160:1.0 1230:1.0 1245:1.0 1293:1.0 1323:1.0 1358:1.0 1394:1.0 1400:1.0 1427:1.0 1807:1.0 2009:1.0 2408:1.0 2471:1.0 2472:1.0 2569:1.0 2663:1.0 2664:1.0 2835:1.0 3146:1.0 3208:1.0
-0.034213513001103465 131:1.0 351:1.0 378:1.0 429:1.0 442:1.0 672:1.0 859:1.0 1090:1.0 1109:1.0 1166:1.0 1188:1.0 1223:1.0 1236:1.0 1357:1.0 1358:1.0 1364:1.0 1371:1.0 1391:1.0 1396:1.0 1434:1.0 1451:1.0 1633:1.0 2290:1.0 2461:1.0 2588:1.0 2649:1.0 2657:1.0 2767:1.0 3136:1.0 3146:1.0 3183:1.0 3212:1.0 3278:1.0 3288:1.0
0.034213513001103465 3:1.0 87:1.0 99:1.0 260:1.0 917:1.0 950:1.0 1106:1.0 1132:1.0 1143:1.0 1151:1.0 1200:1.0 1207:1.0 1214:1.0 1224:1.0 1236:1.0 1325:1.0 1356:1.0 1357:1.0 1358:1.0 1396:1.0 1526:1.0 1708:1.0 2115:1.0 2408:1.0 2442:1.0 2649:1.0 2674:1.0 2747:1.0 2855:1.0 2905:1.0 3146:1.0 3159:1.0 3268:1.0
0.034213513001103465 3:1.0 54:1.0 83:1.0 275:1.0 433:1.0 510:1.0 574:1.0 837:1.0 1040:1.0 1057:1.0 1071:1.0 1129:1.0 1214:1.0 1325:1.0 1339:1.0 1362:1.0 1415:1.0 1471:1.0 1839:1.0 1846:1.0 1857:1.0 1879:1.0 1968:1.0 2649:1.0 2674:1.0 2753:1.0 2913:1.0 2929:1.0 2997:1.0 3146:1.0 3259:1.0
0.034213513001103465 3:1.0 5:1.0 26:1.0 60:1.0 78:1.0 122:1.0 230:1.0 233:1.0 270:1.0 308:1.0 317:1.0 374:1.0 394:1.0 421:1.0 527:1.0 543:1.0 663:1.0 714:1.0 721:1.0 783:1.0 1023:1.0 1033:1.0 1040:1.0 1044:1.0 1066:1.0 1068:1.0 1083:1.0 1108:1.0 1112:1.0 1157:1.0 1160:1.0 1161:1.0 1210:1.0 1243:1.0 1261:1.0 1325:1.0 1330:1.0 1356:1.0 1358:1.0 1370:1.0 1391:1.0 1402:1.0 1408:1.0 1442:1.0 1751:1.0 1810:1.0 2003:1.0 2011:1.0 2020:1.0 2041:1.0 2070:1.0 2221:1.0 2364:1.0 2472:1.0 2502:1.0 2572:1.0 2580:1.0 2596:1.0 2620:1.0 2744:1.0 2781:1.0 2783:1.0 2897:1.0 2918:1.0 2932:1.0 2963:1.0 2966:1.0 2997:1.0 3088:1.0 3122:1.0 3146:1.0 3221:1.0 3315:1.0 3334:1.0
0.034213513001103465 21:1.0 137:1.0 230:1.0 481:1.0 530:1.0 644:1.0 966:1.0 1064:1.0 1083:1.0 1160:1.0 1174:1.0 1214:1.0 1325:1.0 1331:1.0 1362:1.0 1400:1.0 1664:1.0 1708:1.0 2000:1.0 2283:1.0 2295:1.0 2364:1.0 2368:1.0 2649:1.0 2847:1.0 3146:1.0 3268:1.0 3315:1.0
0.034213513001103465 3:1.0 54:1.0 268:1.0 463:1.0 553:1.0 563:1.0 595:1.0 977:1.0 996:1.0 1104:1.0 1128:1.0 1173:1.0 1214:1.0 1236:1.0 1315:1.0 1321:1.0 1325:1.0 1339:1.0 1343:1.0 1357:1.0 1400:1.0 1427:1.0 1443:1.0 1708:1.0 1802:1.0 1857:1.0 2495:1.0 2624:1.0 2649:1.0 2668:1.0 2674:1.0 2953:1.0 3146:1.0 3266:1.0 3268:1.0
-0.013059833768359314 3:1.0 5:1.0 21:1.0 88:1.0 137:1.0 230:1.0 301:1.0 347:1.0 412:1.0 413:1.0 669:1.0 744:1.0 798:1.0 963:1.0 996:1.0 1031:1.0 1040:1.0 1083:1.0 1118:1.0 1144:1.0 1174:1.0 1181:1.0 1200:1.0 1207:1.0 1214:1.0 1244:1.0 1278:1.0 1315:1.0 1325:1.0 1330:1.0 1342:1.0 1343:1.0 1362:1.0 1375:1.0 1656:1.0 1662:1.0 1701:1.0 1839:1.0 2249:1.0 2317:1.0 2370:1.0 2408:1.0 2464:1.0 2649:1.0 2717:1.0 2752:1.0 2764:1.0 2783:1.0 2805:1.0 2844:1.0 2864:1.0 2913:1.0 2997:1.0 3046:1.0 3146:1.0 3170:1.0 3251:1.0 3278:1.0 3286:1.0
-0.022347711015419217 45:1.0 1234:1.0 1357:1.0 1391:1.0 2834:1.0 3146:1.0
-0.031223051792395574 1:1.0 6:1.0 133:1.0 255:1.0 414:1.0 510:1.0 574:1.0 781:1.0 783:1.0 1040:1.0 1057:1.0 1062:1.0 1090:1.0 1214:1.0 1261:1.0 1325:1.0 1384:1.0 1471:1.0 1541:1.0 1839:1.0 1879:1.0 2276:1.0 2337:1.0 2351:1.0 2508:1.0 2649:1.0 2798:1.0 2913:1.0 2997:1.0 3146:1.0 3160:1.0
-0.034213513001103465 3:1.0 233:1.0 308:1.0 490:1.0 571:1.0 721:1.0 743:1.0 768:1.0 783:1.0 791:1.0 1023:1.0 1040:1.0 1062:1.0 1108:1.0 1152:1.0 1157:1.0 1163:1.0 1255:1.0 1261:1.0 1325:1.0 1400:1.0 1535:1.0 2113:1.0 2312:1.0 2364:1.0 2649:1.0 2734:1.0 2910:1.0 2997:1.0 3087:1.0 3111:1.0 3146:1.0 3315:1.0
-8.122045055784406E-4 43:1.0 123:1.0 206:1.0 850:1.0 1058:1.0 1170:1.0 1196:1.0 1272:1.0 1325:1.0 1358:1.0 1400:1.0 1403:1.0 1890:1.0 2284:1.0 2472:1.0 2535:1.0 2649:1.0 2916:1.0 3016:1.0 3069:1.0 3146:1.0 3257:1.0
0.034213513001103465 138:1.0 166:1.0 252:1.0 261:1.0 351:1.0 371:1.0 378:1.0 461:1.0 491:1.0 555:1.0 584:1.0 629:1.0 676:1.0 913:1.0 932:1.0 999:1.0 1046:1.0 1109:1.0 1117:1.0 1167:1.0 1197:1.0 1264:1.0 1271:1.0 1327:1.0 1332:1.0 1358:1.0 1391:1.0 1394:1.0 1396:1.0 1402:1.0 1427:1.0 1880:1.0 1934:1.0 2016:1.0 2159:1.0 2245:1.0 2372:1.0 2461:1.0 2690:1.0 2716:1.0 2833:1.0 2948:1.0 3146:1.0 3163:1.0 3218:1.0 3221:1.0
0.034213513001103465 123:1.0 232:1.0 317:1.0 351:1.0 429:1.0 506:1.0 729:1.0 836:1.0 939:1.0 1109:1.0 1125:1.0 1157:1.0 1223:1.0 1236:1.0 1315:1.0 1357:1.0 1358:1.0 1381:1.0 1400:1.0 1862:1.0 2319:1.0 2393:1.0 2461:1.0 2523:1.0 2540:1.0 2596:1.0 2893:1.0 3049:1.0 3063:1.0 3146:1.0 3278:1.0
0.034213513001103465 16:1.0 60:1.0 93:1.0 108:1.0 128:1.0 131:1.0 154:1.0 183:1.0 217:1.0 223:1.0 231:1.0 245:1.0 256:1.0 288:1.0 302:1.0 346:1.0 355:1.0 386:1.0 437:1.0 495:1.0 533:1.0 547:1.0 565:1.0 602:1.0 623:1.0 630:1.0 712:1.0 924:1.0 933:1.0 962:1.0 966:1.0 985:1.0 1014:1.0 1017:1.0 1032:1.0 1033:1.0 1040:1.0 1044:1.0 1070:1.0 1071:1.0 1074:1.0 1075:1.0 1091:1.0 1101:1.0 1155:1.0 1156:1.0 1160:1.0 1166:1.0 1167:1.0 1176:1.0 1244:1.0 1264:1.0 1284:1.0 1314:1.0 1315:1.0 1358:1.0 1393:1.0 1396:1.0 1400:1.0 1450:1.0 1451:1.0 1772:1.0 1875:1.0 1901:1.0 1997:1.0 2105:1.0 2138:1.0 2207:1.0 2219:1.0 2266:1.0 2396:1.0 2408:1.0 2410:1.0 2415:1.0 2423:1.0 2472:1.0 2502:1.0 2508:1.0 2609:1.0 2618:1.0 2620:1.0 2675:1.0 2773:1.0 2783:1.0 2801:1.0 2862:1.0 2947:1.0 2997:1.0 3077:1.0 3144:1.0 3146:1.0 3175:1.0 3212:1.0 3221:1.0 3265:1.0 3283:1.0 3284:1.0 3308:1.0
0.015756339010461883 1:1.0 92:1.0 93:1.0 137:1.0 413:1.0 480:1.0 832:1.0 1031:1.0 1062:1.0 1090:1.0 1174:1.0 1214:1.0 1325:1.0 1358:1.0 1384:1.0 1393:1.0 1598:1.0 1635:1.0 1651:1.0 2339:1.0 2461:1.0 2798:1.0 2908:1.0 3040:1.0 3146:1.0 3315:1.0 3316:1.0
0.034213513001103465 17:1.0 351:1.0 367:1.0 386:1.0 630:1.0 672:1.0 752:1.0 913:1.0 977:1.0 1032:1.0 1109:1.0 1167:1.0 1230:1.0 1264:1.0 1315:1.0 1332:1.0 1358:1.0 1396:1.0 1400:1.0 1685:1.0 2186:1.0 2237:1.0 2319:1.0 2393:1.0 2461:1.0 2506:1.0 2668:1.0 2773:1.0 3146:1.0 3212:1.0 3221:1.0 3252:1.0
-0.034213513001103465 1:1.0 6:1.0 133:1.0 731:1.0 781:1.0 1062:1.0 1261:1.0 1325:1.0 1415:1.0 1541:1.0 2276:1.0 2337:1.0 2508:1.0 2649:1.0 3146:1.0 3259:1.0
-0.018712462591775857 3:1.0 16:1.0 61:1.0 99:1.0 123:1.0 156:1.0 169:1.0 277:1.0 337:1.0 351:1.0 363:1.0 396:1.0 416:1.0 489:1.0 603:1.0 764:1.0 898:1.0 1009:1.0 1014:1.0 1071:1.0 1075:1.0 1109:1.0 1116:1.0 1132:1.0 1160:1.0 1167:1.0 1188:1.0 1199:1.0 1207:1.0 1236:1.0 1241:1.0 1314:1.0 1315:1.0 1343:1.0 1349:1.0 1357:1.0 1358:1.0 1400:1.0 1412:1.0 1423:1.0 1685:1.0 1881:1.0 1901:1.0 1908:1.0 2408:1.0 2461:1.0 2550:1.0 2644:1.0 2665:1.0 2668:1.0 2771:1.0 2773:1.0 2918:1.0 2947:1.0 3021:1.0 3146:1.0 3221:1.0 3263:1.0 3278:1.0 3284:1.0 3288:1.0 3314:1.0
-0.016714017157019232 123:1.0 216:1.0 965:1.0 970:1.0 1160:1.0 1246:1.0 1358:1.0 1374:1.0 1400:1.0 1402:1.0 1422:1.0 1680:1.0 1912:1.0 2154:1.0 2179:1.0 2399:1.0 2461:1.0 2556:1.0 2822:1.0 3081:1.0 3146:1.0 3221:1.0
-0.012223890483012074 5:1.0 16:1.0 211:1.0 334:1.0 341:1.0 351:1.0 407:1.0 486:1.0 542:1.0 558:1.0 581:1.0 620:1.0 623:1.0 672:1.0 758:1.0 774:1.0 809:1.0 913:1.0 929:1.0 943:1.0 953:1.0 973:1.0 977:1.0 1062:1.0 1070:1.0 1071:1.0 1091:1.0 1099:1.0 1109:1.0 1157:1.0 1167:1.0 1184:1.0 1207:1.0 1214:1.0 1226:1.0 1247:1.0 1302:1.0 1307:1.0 1315:1.0 1325:1.0 1353:1.0 1358:1.0 1396:1.0 1400:1.0 1402:1.0 1412:1.0 1426:1.0 1707:1.0 1819:1.0 1874:1.0 2031:1.0 2160:1.0 2179:1.0 2237:1.0 2290:1.0 2408:1.0 2461:1.0 2520:1.0 2556:1.0 2646:1.0 2668:1.0 2703:1.0 2748:1.0 2860:1.0 2898:1.0 2966:1.0 3105:1.0 3146:1.0 3200:1.0 3221:1.0 3252:1.0 3278:1.0 3293:1.0 3343:1.0
-0.034213513001103465 165:1.0 623:1.0 722:1.0 1062:1.0 1070:1.0 1071:1.0 1258:1.0 1415:1.0 2276:1.0 2754:1.0 2969:1.0 3146:1.0 3315:1.0
0.034213513001103465 68:1.0 131:1.0 272:1.0 326:1.0 509:1.0 570:1.0 600:1.0 703:1.0 744:1.0 768:1.0 1040:1.0 1157:1.0 1163:1.0 1166:1.0 1261:1.0 1273:1.0 1278:1.0 1283:1.0 1358:1.0 1375:1.0 1400:1.0 1451:1.0 1469:1.0 1537:1.0 1609:1.0 1732:1.0 1772:1.0 1825:1.0 1946:1.0 2136:1.0 2241:1.0 2461:1.0 2523:1.0 2649:1.0 2754:1.0 2908:1.0 2997:1.0 3042:1.0 3146:1.0 3288:1.0 3316:1.0
0.00232681095497131 1:1.0 22:1.0 68:1.0 104:1.0 308:1.0 721:1.0 744:1.0 781:1.0 783:1.0 1023:1.0 1040:1.0 1062:1.0 1108:1.0 1125:1.0 1261:1.0 1278:1.0 1375:1.0 1420:1.0 1823:1.0 2055:1.0 2364:1.0 2405:1.0 2688:1.0 2798:1.0 2997:1.0 3063:1.0 3146:1.0
0.016495527103247924 1:1.0 68:1.0 187:1.0 325:1.0 383:1.0 682:1.0 721:1.0 744:1.0 781:1.0 783:1.0 809:1.0 1023:1.0 1040:1.0 1062:1.0 1090:1.0 1091:1.0 1108:1.0 1207:1.0 1261:1.0 1278:1.0 1359:1.0 1375:1.0 2020:1.0 2346:1.0 2364:1.0 2408:1.0 2627:1.0 2688:1.0 2753:1.0 2798:1.0 2934:1.0 2997:1.0 3046:1.0 3146:1.0
0.034213513001103465 1:1.0 200:1.0 781:1.0 874:1.0 1062:1.0 1261:1.0 1367:1.0 1420:1.0 1755:1.0 2378:1.0 2798:1.0 2935:1.0 3146:1.0
0.034213513001103465 1:1.0 255:1.0 781:1.0 1062:1.0 1090:1.0 1261:1.0 1384:1.0 1764:1.0 2222:1.0 2798:1.0 2940:1.0 3146:1.0
-0.034213513001103465 1:1.0 255:1.0 781:1.0 1062:1.0 1090:1.0 1261:1.0 1384:1.0 1874:1.0 2783:1.0 2934:1.0 3146:1.0
-0.034213513001103465 1:1.0 781:1.0 1062:1.0 1261:1.0 1400:1.0 1432:1.0 2179:1.0 2346:1.0 2395:1.0 2753:1.0 3042:1.0 3146:1.0
-0.034213513001103465 1:1.0 781:1.0 873:1.0 1050:1.0 1062:1.0 1154:1.0 1261:1.0 1312:1.0 1777:1.0 2124:1.0 2522:1.0 2798:1.0 3146:1.0
-0.034213513001103465 1:1.0 781:1.0 1062:1.0 1261:1.0 1295:1.0 1874:1.0 2649:1.0 2781:1.0 2921:1.0 3146:1.0
-0.034213513001103465 1:1.0 93:1.0 104:1.0 329:1.0 480:1.0 1062:1.0 1125:1.0 1358:1.0 1393:1.0 1420:1.0 1749:1.0 2169:1.0 2447:1.0 2522:1.0 3028:1.0 3146:1.0 3295:1.0
0.034213513001103465 21:1.0 230:1.0 329:1.0 351:1.0 416:1.0 489:1.0 509:1.0 702:1.0 758:1.0 768:1.0 913:1.0 949:1.0 988:1.0 1048:1.0 1083:1.0 1109:1.0 1125:1.0 1148:1.0 1157:1.0 1160:1.0 1167:1.0 1173:1.0 1214:1.0 1302:1.0 1314:1.0 1325:1.0 1358:1.0 1392:1.0 1400:1.0 1403:1.0 1422:1.0 1707:1.0 1866:1.0 1990:1.0 2199:1.0 2461:1.0 2471:1.0 2556:1.0 2649:1.0 2842:1.0 2893:1.0 2903:1.0 2918:1.0 2966:1.0 3009:1.0 3032:1.0 3081:1.0 3146:1.0 3339:1.0
-0.013304477723429495 148:1.0 246:1.0 463:1.0 563:1.0 1024:1.0 1104:1.0 1127:1.0 1148:1.0 1236:1.0 1321:1.0 1357:1.0 1392:1.0 1400:1.0 1427:1.0 2791:1.0 2842:1.0 2918:1.0 3146:1.0 3152:1.0 3172:1.0
0.034213513001103465 156:1.0 194:1.0 206:1.0 301:1.0 317:1.0 351:1.0 370:1.0 446:1.0 522:1.0 528:1.0 542:1.0 623:1.0 677:1.0 690:1.0 809:1.0 1025:1.0 1070:1.0 1071:1.0 1072:1.0 1091:1.0 1104:1.0 1109:1.0 1127:1.0 1157:1.0 1207:1.0 1244:1.0 1249:1.0 1357:1.0 1358:1.0 1396:1.0 1403:1.0 1412:1.0 1644:1.0 1685:1.0 2062:1.0 2147:1.0 2266:1.0 2408:1.0 2426:1.0 2461:1.0 2512:1.0 2542:1.0 2615:1.0 2668:1.0 2675:1.0 2690:1.0 2745:1.0 2918:1.0 3006:1.0 3146:1.0 3313:1.0
-0.008150701290193893 341:1.0 382:1.0 400:1.0 489:1.0 517:1.0 946:1.0 1157:1.0 1160:1.0 1167:1.0 1314:1.0 1329:1.0 1362:1.0 1436:1.0 2052:1.0 2472:1.0 2523:1.0 2784:1.0 2797:1.0 3146:1.0 3178:1.0
0.034213513001103465 5:1.0 16:1.0 30:1.0 51:1.0 83:1.0 145:1.0 312:1.0 440:1.0 489:1.0 543:1.0 575:1.0 588:1.0 655:1.0 771:1.0 785:1.0 839:1.0 1003:1.0 1023:1.0 1033:1.0 1071:1.0 1160:1.0 1167:1.0 1170:1.0 1268:1.0 1314:1.0 1315:1.0 1347:1.0 1362:1.0 1391:1.0 1393:1.0 1412:1.0 1726:1.0 1777:1.0 1960:1.0 2043:1.0 2364:1.0 2444:1.0 2461:1.0 2533:1.0 2540:1.0 2679:1.0 2764:1.0 2773:1.0 2934:1.0 3084:1.0 3144:1.0 3146:1.0 3303:1.0
-0.001494177193122938 3:1.0 205:1.0 460:1.0 470:1.0 919:1.0 931:1.0 1022:1.0 1047:1.0 1048:1.0 1159:1.0 1164:1.0 1184:1.0 1214:1.0 1220:1.0 1240:1.0 1325:1.0 1329:1.0 1362:1.0 1406:1.0 1643:1.0 1941:1.0 2408:1.0 2542:1.0 2649:1.0 2801:1.0 2987:1.0 3146:1.0 3259:1.0 3286:1.0
-0.03135380886555925 3:1.0 32:1.0 229:1.0 303:1.0 334:1.0 404:1.0 501:1.0 838:1.0 977:1.0 1009:1.0 1135:1.0 1166:1.0 1175:1.0 1230:1.0 1234:1.0 1315:1.0 1357:1.0 1398:1.0 1400:1.0 1412:1.0 2919:1.0 2982:1.0 3061:1.0 3146:1.0 3220:1.0 3278:1.0 3288:1.0 3293:1.0
-0.012165674594341067 3:1.0 39:1.0 281:1.0 351:1.0 394:1.0 446:1.0 455:1.0 623:1.0 672:1.0 690:1.0 839:1.0 913:1.0 1025:1.0 1033:1.0 1070:1.0 1071:1.0 1109:1.0 1126:1.0 1142:1.0 1160:1.0 1167:1.0 1175:1.0 1249:1.0 1281:1.0 1327:1.0 1356:1.0 1358:1.0 1396:1.0 1412:1.0 2186:1.0 2257:1.0 2432:1.0 2461:1.0 2486:1.0 2574:1.0 2750:1.0 2773:1.0 2842:1.0 2918:1.0 3077:1.0 3084:1.0 3124:1.0 3146:1.0 3198:1.0 3267:1.0 3278:1.0
-0.003246294430661946 16:1.0 133:1.0 145:1.0 277:1.0 309:1.0 416:1.0 430:1.0 431:1.0 489:1.0 545:1.0 684:1.0 764:1.0 771:1.0 889:1.0 911:1.0 913:1.0 1014:1.0 1023:1.0 1071:1.0 1109:1.0 1160:1.0 1167:1.0 1170:1.0 1230:1.0 1261:1.0 1283:1.0 1314:1.0 1315:1.0 1325:1.0 1347:1.0 1367:1.0 1391:1.0 1726:1.0 1733:1.0 1801:1.0 1979:1.0 1980:1.0 2364:1.0 2461:1.0 2618:1.0 2649:1.0 2659:1.0 2717:1.0 2773:1.0 2798:1.0 2929:1.0 2954:1.0 3145:1.0 3146:1.0 3255:1.0 3259:1.0
-0.034213513001103465 305:1.0 317:1.0 351:1.0 509:1.0 696:1.0 713:1.0 768:1.0 882:1.0 1040:1.0 1051:1.0 1102:1.0 1109:1.0 1143:1.0 1157:1.0 1173:1.0 1358:1.0 1400:1.0 1680:1.0 2159:1.0 2198:1.0 2426:1.0 2461:1.0 2653:1.0 2716:1.0 2847:1.0 2997:1.0 3021:1.0 3146:1.0 3212:1.0
0.034213513001103465 1:1.0 604:1.0 748:1.0 781:1.0 1016:1.0 1062:1.0 1261:1.0 1290:1.0 1292:1.0 1420:1.0 1435:1.0 1636:1.0 1835:1.0 2196:1.0 2798:1.0 3146:1.0 3221:1.0 3284:1.0 3312:1.0 3315:1.0
0.034213513001103465 1:1.0 123:1.0 399:1.0 773:1.0 781:1.0 873:1.0 1050:1.0 1062:1.0 1154:1.0 1261:1.0 1358:1.0 1400:1.0 1981:1.0 2609:1.0 2798:1.0 2933:1.0 3146:1.0 3303:1.0
0.034213513001103465 1:1.0 657:1.0 899:1.0 1062:1.0 1188:1.0 1420:1.0 3146:1.0 3219:1.0
0.034213513001103465 297:1.0 809:1.0 899:1.0 1091:1.0 1188:1.0 1207:1.0 1357:1.0 1420:1.0 1970:1.0 2249:1.0 2370:1.0 2408:1.0 2452:1.0 3146:1.0 3200:1.0
0.034213513001103465 1:1.0 22:1.0 104:1.0 682:1.0 721:1.0 781:1.0 1023:1.0 1062:1.0 1108:1.0 1125:1.0 1261:1.0 1420:1.0 2364:1.0 2523:1.0 2740:1.0 2787:1.0 3146:1.0
-0.034213513001103465 1:1.0 217:1.0 222:1.0 226:1.0 245:1.0 301:1.0 392:1.0 523:1.0 805:1.0 857:1.0 1019:1.0 1033:1.0 1062:1.0 1103:1.0 1160:1.0 1207:1.0 1244:1.0 1315:1.0 1318:1.0 1353:1.0 1444:1.0 2372:1.0 2456:1.0 2736:1.0 2790:1.0 2868:1.0 3146:1.0 3160:1.0 3172:1.0 3240:1.0 3339:1.0
-0.013322548010508695 5:1.0 135:1.0 339:1.0 654:1.0 675:1.0 681:1.0 685:1.0 916:1.0 933:1.0 1014:1.0 1032:1.0 1066:1.0 1157:1.0 1200:1.0 1226:1.0 1264:1.0 1315:1.0 1337:1.0 1370:1.0 1388:1.0 1455:1.0 2323:1.0 2372:1.0 2480:1.0 2624:1.0 2688:1.0 2741:1.0 2805:1.0 2966:1.0 3041:1.0 3146:1.0 3221:1.0
-0.034213513001103465 1:1.0 3:1.0 5:1.0 297:1.0 586:1.0 613:1.0 624:1.0 809:1.0 908:1.0 1048:1.0 1062:1.0 1091:1.0 1188:1.0 1207:1.0 1294:1.0 1420:1.0 2408:1.0 2703:1.0 2754:1.0 2935:1.0 3081:1.0 3146:1.0
-0.034213513001103465 108:1.0 543:1.0 712:1.0 924:1.0 1032:1.0 1033:1.0 1160:1.0 1176:1.0 1234:1.0 1357:1.0 1391:1.0 2446:1.0 2504:1.0 3146:1.0 3221:1.0
-0.025157834854966896 5:1.0 16:1.0 435:1.0 624:1.0 740:1.0 988:1.0 1048:1.0 1125:1.0 1167:1.0 1315:1.0 1357:1.0 1420:1.0 1736:1.0 2245:1.0 2540:1.0 2806:1.0 3032:1.0 3146:1.0 3172:1.0
0.014065625637005518 1:1.0 3:1.0 47:1.0 70:1.0 93:1.0 133:1.0 183:1.0 270:1.0 300:1.0 321:1.0 337:1.0 351:1.0 411:1.0 414:1.0 601:1.0 657:1.0 695:1.0 739:1.0 858:1.0 861:1.0 864:1.0 889:1.0 939:1.0 962:1.0 1027:1.0 1040:1.0 1062:1.0 1066:1.0 1071:1.0 1109:1.0 1116:1.0 1148:1.0 1185:1.0 1188:1.0 1214:1.0 1261:1.0 1290:1.0 1325:1.0 1334:1.0 1335:1.0 1358:1.0 1381:1.0 1393:1.0 1396:1.0 1402:1.0 1421:1.0 1437:1.0 1455:1.0 1749:1.0 2079:1.0 2101:1.0 2153:1.0 2229:1.0 2275:1.0 2415:1.0 2447:1.0 2461:1.0 2508:1.0 2597:1.0 2649:1.0 2737:1.0 2943:1.0 2966:1.0 2969:1.0 2997:1.0 3032:1.0 3091:1.0 3146:1.0 3202:1.0 3221:1.0 3284:1.0 3320:1.0
0.010636455012732625 1:1.0 3:1.0 40:1.0 620:1.0 653:1.0 733:1.0 854:1.0 864:1.0 928:1.0 1020:1.0 1027:1.0 1040:1.0 1048:1.0 1062:1.0 1070:1.0 1071:1.0 1118:1.0 1125:1.0 1158:1.0 1164:1.0 1170:1.0 1179:1.0 1188:1.0 1200:1.0 1214:1.0 1243:1.0 1253:1.0 1315:1.0 1325:1.0 1329:1.0 1381:1.0 1426:1.0 1440:1.0 1642:1.0 2198:1.0 2381:1.0 2430:1.0 2461:1.0 2501:1.0 2649:1.0 2654:1.0 2749:1.0 2773:1.0 2805:1.0 2997:1.0 2998:1.0 3046:1.0 3109:1.0 3146:1.0 3169:1.0 3194:1.0 3212:1.0 3252:1.0 3277:1.0 3315:1.0 3347:1.0
-0.008240136385253526 3:1.0 59:1.0 102:1.0 114:1.0 131:1.0 224:1.0 280:1.0 315:1.0 326:1.0 329:1.0 342:1.0 346:1.0 436:1.0 437:1.0 542:1.0 577:1.0 583:1.0 653:1.0 662:1.0 673:1.0 688:1.0 695:1.0 718:1.0 744:1.0 748:1.0 836:1.0 850:1.0 1016:1.0 1023:1.0 1040:1.0 1068:1.0 1083:1.0 1091:1.0 1125:1.0 1148:1.0 1152:1.0 1156:1.0 1166:1.0 1170:1.0 1175:1.0 1179:1.0 1188:1.0 1196:1.0 1214:1.0 1261:1.0 1278:1.0 1283:1.0 1292:1.0 1325:1.0 1329:1.0 1330:1.0 1336:1.0 1358:1.0 1366:1.0 1375:1.0 1381:1.0 1391:1.0 1398:1.0 1421:1.0 1450:1.0 1451:1.0 1458:1.0 1500:1.0 1527:1.0 1772:1.0 1901:1.0 2025:1.0 2027:1.0 2153:1.0 2229:1.0 2274:1.0 2291:1.0 2307:1.0 2354:1.0 2364:1.0 2395:1.0 2397:1.0 2408:1.0 2472:1.0 2501:1.0 2744:1.0 2783:1.0 2932:1.0 2946:1.0 2963:1.0 2967:1.0 2978:1.0 2997:1.0 3023:1.0 3146:1.0 3196:1.0 3202:1.0 3238:1.0 3255:1.0 3278:1.0 3279:1.0 3284:1.0 3288:1.0 3312:1.0 3316:1.0 3324:1.0 3343:1.0 3344:1.0
0.0027270638764158254 1:1.0 3:1.0 5:1.0 93:1.0 113:1.0 123:1.0 156:1.0 169:1.0 170:1.0 253:1.0 351:1.0 480:1.0 578:1.0 630:1.0 646:1.0 794:1.0 864:1.0 868:1.0 913:1.0 930:1.0 1014:1.0 1027:1.0 1040:1.0 1062:1.0 1089:1.0 1109:1.0 1135:1.0 1167:1.0 1182:1.0 1211:1.0 1214:1.0 1271:1.0 1294:1.0 1300:1.0 1315:1.0 1325:1.0 1358:1.0 1393:1.0 1400:1.0 1412:1.0 1454:1.0 1685:1.0 1742:1.0 1810:1.0 1876:1.0 1908:1.0 2165:1.0 2239:1.0 2247:1.0 2461:1.0 2472:1.0 2522:1.0 2608:1.0 2619:1.0 2651:1.0 2654:1.0 2668:1.0 2679:1.0 2773:1.0 2834:1.0 2853:1.0 2934:1.0 2968:1.0 2997:1.0 3033:1.0 3076:1.0 3146:1.0 3237:1.0
0.022919104943160004 1:1.0 30:1.0 288:1.0 480:1.0 547:1.0 966:1.0 1062:1.0 1101:1.0 1160:1.0 1314:1.0 1393:1.0 1400:1.0 1674:1.0 2116:1.0 2372:1.0 2852:1.0 2932:1.0 3024:1.0 3069:1.0 3146:1.0
-0.0014714762439798 2:1.0 3:1.0 138:1.0 378:1.0 461:1.0 465:1.0 514:1.0 1071:1.0 1087:1.0 1237:1.0 1250:1.0 1271:1.0 1358:1.0 1391:1.0 1396:1.0 1580:1.0 1729:1.0 2111:1.0 2236:1.0 2461:1.0 2918:1.0 3082:1.0 3146:1.0 3303:1.0
-0.034213513001103465 3:1.0 44:1.0 53:1.0 93:1.0 122:1.0 131:1.0 256:1.0 325:1.0 341:1.0 509:1.0 510:1.0 574:1.0 640:1.0 771:1.0 786:1.0 792:1.0 809:1.0 854:1.0 947:1.0 962:1.0 1023:1.0 1040:1.0 1057:1.0 1091:1.0 1155:1.0 1157:1.0 1166:1.0 1167:1.0 1170:1.0 1207:1.0 1214:1.0 1241:1.0 1264:1.0 1325:1.0 1347:1.0 1358:1.0 1393:1.0 1402:1.0 1415:1.0 1451:1.0 1591:1.0 1769:1.0 1772:1.0 1793:1.0 1954:1.0 1977:1.0 2090:1.0 2204:1.0 2364:1.0 2394:1.0 2408:1.0 2410:1.0 2472:1.0 2540:1.0 2609:1.0 2649:1.0 2688:1.0 2699:1.0 2735:1.0 2744:1.0 2997:1.0 3039:1.0 3146:1.0 3163:1.0 3221:1.0 3288:1.0 3315:1.0
-0.013063854483562974 16:1.0 21:1.0 123:1.0 138:1.0 206:1.0 230:1.0 309:1.0 312:1.0 431:1.0 510:1.0 530:1.0 574:1.0 630:1.0 753:1.0 794:1.0 843:1.0 854:1.0 947:1.0 1040:1.0 1057:1.0 1064:1.0 1083:1.0 1167:1.0 1170:1.0 1214:1.0 1230:1.0 1271:1.0 1315:1.0 1325:1.0 1347:1.0 1358:1.0 1362:1.0 1400:1.0 1403:1.0 1480:1.0 1547:1.0 1569:1.0 1635:1.0 1712:1.0 1762:1.0 1871:1.0 1955:1.0 2006:1.0 2115:1.0 2148:1.0 2225:1.0 2254:1.0 2364:1.0 2472:1.0 2508:1.0 2522:1.0 2618:1.0 2668:1.0 2773:1.0 2908:1.0 2919:1.0 2997:1.0 3022:1.0 3032:1.0 3146:1.0 3186:1.0 3268:1.0 3284:1.0 3316:1.0
-0.034213513001103465 1:1.0 16:1.0 93:1.0 351:1.0 548:1.0 549:1.0 630:1.0 676:1.0 744:1.0 763:1.0 805:1.0 833:1.0 962:1.0 1019:1.0 1040:1.0 1062:1.0 1066:1.0 1109:1.0 1167:1.0 1230:1.0 1260:1.0 1278:1.0 1315:1.0 1358:1.0 1375:1.0 1393:1.0 1394:1.0 1444:1.0 1455:1.0 2153:1.0 2167:1.0 2229:1.0 2295:1.0 2395:1.0 2432:1.0 2448:1.0 2461:1.0 2668:1.0 2715:1.0 2752:1.0 2768:1.0 2997:1.0 3113:1.0 3146:1.0 3218:1.0 3284:1.0 3341:1.0
-0.034213513001103465 1:1.0 3:1.0 21:1.0 30:1.0 67:1.0 223:1.0 230:1.0 412:1.0 416:1.0 480:1.0 489:1.0 898:1.0 996:1.0 1062:1.0 1083:1.0 1109:1.0 1160:1.0 1166:1.0 1167:1.0 1200:1.0 1214:1.0 1244:1.0 1314:1.0 1325:1.0 1343:1.0 1354:1.0 1366:1.0 1393:1.0 1552:1.0 1617:1.0 1727:1.0 1941:1.0 2051:1.0 2100:1.0 2115:1.0 2430:1.0 2472:1.0 2481:1.0 2649:1.0 2686:1.0 2935:1.0 3043:1.0 3137:1.0 3146:1.0 3212:1.0 3259:1.0 3268:1.0 3284:1.0
0.034213513001103465 39:1.0 53:1.0 419:1.0 597:1.0 608:1.0 701:1.0 720:1.0 915:1.0 1091:1.0 1131:1.0 1160:1.0 1236:1.0 1241:1.0 1245:1.0 1263:1.0 1327:1.0 1349:1.0 1355:1.0 1357:1.0 1391:1.0 1412:1.0 1426:1.0 1824:1.0 2068:1.0 2408:1.0 2480:1.0 2578:1.0 3130:1.0 3146:1.0 3202:1.0 3218:1.0 3278:1.0 3314:1.0 3320:1.0
0.034213513001103465 115:1.0 270:1.0 489:1.0 625:1.0 725:1.0 822:1.0 858:1.0 966:1.0 1066:1.0 1098:1.0 1160:1.0 1302:1.0 1314:1.0 1358:1.0 1362:1.0 1400:1.0 1423:1.0 1455:1.0 2472:1.0 2522:1.0 2843:1.0 2844:1.0 2953:1.0 3146:1.0 3221:1.0 3247:1.0
0.034213513001103465 53:1.0 118:1.0 171:1.0 415:1.0 463:1.0 486:1.0 563:1.0 597:1.0 632:1.0 915:1.0 965:1.0 1054:1.0 1091:1.0 1160:1.0 1226:1.0 1236:1.0 1241:1.0 1290:1.0 1321:1.0 1349:1.0 1357:1.0 1371:1.0 1391:1.0 1402:1.0 1423:1.0 1427:1.0 1824:1.0 2355:1.0 2408:1.0 2466:1.0 2542:1.0 2893:1.0 3123:1.0 3146:1.0 3221:1.0 3292:1.0 3314:1.0
0.034213513001103465 114:1.0 239:1.0 270:1.0 351:1.0 515:1.0 740:1.0 845:1.0 913:1.0 1010:1.0 1066:1.0 1109:1.0 1135:1.0 1167:1.0 1175:1.0 1357:1.0 1358:1.0 1373:1.0 1391:1.0 1398:1.0 1399:1.0 1431:1.0 1723:1.0 2408:1.0 2472:1.0 2495:1.0 2538:1.0 2641:1.0 2656:1.0 3061:1.0 3146:1.0 3296:1.0 3339:1.0
0.034213513001103465 334:1.0 402:1.0 404:1.0 533:1.0 575:1.0 588:1.0 654:1.0 698:1.0 977:1.0 1006:1.0 1032:1.0 1033:1.0 1093:1.0 1160:1.0 1175:1.0 1226:1.0 1235:1.0 1264:1.0 1268:1.0 1306:1.0 1315:1.0 1398:1.0 1400:1.0 1412:1.0 1761:1.0 2372:1.0 2376:1.0 2438:1.0 2441:1.0 2696:1.0 2773:1.0 2884:1.0 2997:1.0 3023:1.0 3061:1.0 3146:1.0 3155:1.0 3162:1.0 3221:1.0 3270:1.0 3351:1.0
-0.034213513001103465 30:1.0 51:1.0 104:1.0 141:1.0 165:1.0 195:1.0 299:1.0 317:1.0 400:1.0 486:1.0 489:1.0 543:1.0 623:1.0 948:1.0 975:1.0 1017:1.0 1031:1.0 1033:1.0 1046:1.0 1062:1.0 1070:1.0 1071:1.0 1098:1.0 1125:1.0 1157:1.0 1160:1.0 1175:1.0 1226:1.0 1258:1.0 1271:1.0 1293:1.0 1314:1.0 1385:1.0 1391:1.0 1393:1.0 1398:1.0 1402:1.0 1413:1.0 1420:1.0 1669:1.0 2221:1.0 2276:1.0 2360:1.0 2399:1.0 2408:1.0 2430:1.0 2461:1.0 2501:1.0 2507:1.0 2537:1.0 2649:1.0 2822:1.0 2918:1.0 2929:1.0 2933:1.0 2969:1.0 3046:1.0 3079:1.0 3083:1.0 3125:1.0 3146:1.0 3202:1.0 3221:1.0 3315:1.0
-0.0214659164156651 270:1.0 311:1.0 314:1.0 351:1.0 367:1.0 390:1.0 529:1.0 625:1.0 848:1.0 858:1.0 954:1.0 1006:1.0 1032:1.0 1066:1.0 1098:1.0 1109:1.0 1189:1.0 1219:1.0 1263:1.0 1264:1.0 1267:1.0 1268:1.0 1274:1.0 1277:1.0 1332:1.0 1358:1.0 1407:1.0 1426:1.0 1430:1.0 1455:1.0 1457:1.0 1772:1.0 1875:1.0 1877:1.0 2020:1.0 2140:1.0 2207:1.0 2221:1.0 2396:1.0 2461:1.0 2472:1.0 2478:1.0 2668:1.0 2701:1.0 2846:1.0 2966:1.0 3146:1.0 3187:1.0 3221:1.0 3251:1.0 3252:1.0 3267:1.0
-0.01831188685214866 142:1.0 300:1.0 415:1.0 966:1.0 1024:1.0 1048:1.0 1060:1.0 1085:1.0 1148:1.0 1160:1.0 1236:1.0 1290:1.0 1357:1.0 1371:1.0 1392:1.0 1400:1.0 1402:1.0 2645:1.0 2683:1.0 2745:1.0 2947:1.0 3109:1.0 3146:1.0 3221:1.0 3268:1.0 3351:1.0
-0.034213513001103465 1:1.0 30:1.0 480:1.0 489:1.0 543:1.0 619:1.0 655:1.0 1033:1.0 1062:1.0 1066:1.0 1117:1.0 1160:1.0 1314:1.0 1391:1.0 1393:1.0 1431:1.0 2155:1.0 2374:1.0 2456:1.0 2472:1.0 2556:1.0 2571:1.0 2948:1.0 3037:1.0 3116:1.0 3146:1.0
-0.01224474035243023 3:1.0 5:1.0 141:1.0 216:1.0 270:1.0 425:1.0 437:1.0 486:1.0 593:1.0 681:1.0 712:1.0 827:1.0 858:1.0 965:1.0 966:1.0 975:1.0 1020:1.0 1032:1.0 1066:1.0 1160:1.0 1176:1.0 1194:1.0 1226:1.0 1293:1.0 1358:1.0 1370:1.0 1400:1.0 1402:1.0 1413:1.0 1420:1.0 1422:1.0 1450:1.0 1455:1.0 1772:1.0 2161:1.0 2208:1.0 2243:1.0 2259:1.0 2366:1.0 2408:1.0 2415:1.0 2430:1.0 2461:1.0 2553:1.0 2688:1.0 2893:1.0 2966:1.0 3141:1.0 3146:1.0 3221:1.0 3272:1.0
0.034213513001103465 5:1.0 16:1.0 131:1.0 138:1.0 212:1.0 312:1.0 410:1.0 502:1.0 630:1.0 753:1.0 762:1.0 791:1.0 947:1.0 1040:1.0 1062:1.0 1163:1.0 1166:1.0 1167:1.0 1170:1.0 1230:1.0 1258:1.0 1271:1.0 1315:1.0 1358:1.0 1436:1.0 1451:1.0 1552:1.0 2051:1.0 2115:1.0 2267:1.0 2270:1.0 2318:1.0 2472:1.0 2540:1.0 2649:1.0 2737:1.0 2847:1.0 2866:1.0 2898:1.0 2997:1.0 3003:1.0 3146:1.0 3284:1.0 3315:1.0
0.034213513001103465 1:1.0 5:1.0 128:1.0 309:1.0 510:1.0 548:1.0 574:1.0 678:1.0 809:1.0 854:1.0 868:1.0 908:1.0 1040:1.0 1057:1.0 1062:1.0 1091:1.0 1156:1.0 1170:1.0 1207:1.0 1214:1.0 1230:1.0 1294:1.0 1325:1.0 1415:1.0 1471:1.0 1516:1.0 1839:1.0 1879:1.0 1954:1.0 2410:1.0 2649:1.0 2703:1.0 2913:1.0 2997:1.0 3146:1.0 3160:1.0 3253:1.0 3273:1.0 3287:1.0 3348:1.0
0.034213513001103465 3:1.0 5:1.0 16:1.0 191:1.0 347:1.0 413:1.0 510:1.0 574:1.0 740:1.0 837:1.0 1031:1.0 1040:1.0 1057:1.0 1167:1.0 1214:1.0 1315:1.0 1325:1.0 1357:1.0 1380:1.0 1415:1.0 1443:1.0 1471:1.0 1502:1.0 1839:1.0 1879:1.0 2060:1.0 2103:1.0 2198:1.0 2597:1.0 2649:1.0 2674:1.0 2773:1.0 2913:1.0 2985:1.0 2997:1.0 3028:1.0 3065:1.0 3146:1.0
0.0181975621880382 38:1.0 156:1.0 251:1.0 277:1.0 294:1.0 313:1.0 489:1.0 567:1.0 811:1.0 856:1.0 1023:1.0 1109:1.0 1139:1.0 1149:1.0 1156:1.0 1160:1.0 1236:1.0 1314:1.0 1346:1.0 1357:1.0 1382:1.0 1388:1.0 1412:1.0 1428:1.0 1721:1.0 1818:1.0 1908:1.0 2224:1.0 2364:1.0 2472:1.0 2688:1.0 2730:1.0 2741:1.0 2764:1.0 2773:1.0 2997:1.0 3041:1.0 3121:1.0 3146:1.0
0.00406059868553943 1:1.0 93:1.0 412:1.0 480:1.0 510:1.0 574:1.0 630:1.0 796:1.0 854:1.0 947:1.0 1040:1.0 1057:1.0 1062:1.0 1167:1.0 1170:1.0 1200:1.0 1214:1.0 1244:1.0 1325:1.0 1358:1.0 1393:1.0 1471:1.0 1516:1.0 1674:1.0 1839:1.0 1879:1.0 1954:1.0 2116:1.0 2198:1.0 2372:1.0 2472:1.0 2649:1.0 2769:1.0 2852:1.0 2913:1.0 2997:1.0 3146:1.0 3212:1.0 3287:1.0
-0.034213513001103465 123:1.0 272:1.0 273:1.0 294:1.0 510:1.0 570:1.0 574:1.0 703:1.0 1040:1.0 1057:1.0 1163:1.0 1214:1.0 1236:1.0 1273:1.0 1325:1.0 1346:1.0 1357:1.0 1358:1.0 1400:1.0 1469:1.0 1471:1.0 1537:1.0 1609:1.0 1825:1.0 1839:1.0 1879:1.0 1946:1.0 2136:1.0 2241:1.0 2461:1.0 2523:1.0 2569:1.0 2649:1.0 2754:1.0 2913:1.0 2997:1.0 3146:1.0
-0.034213513001103465 59:1.0 60:1.0 128:1.0 238:1.0 253:1.0 419:1.0 440:1.0 761:1.0 771:1.0 783:1.0 785:1.0 868:1.0 1023:1.0 1028:1.0 1040:1.0 1044:1.0 1046:1.0 1079:1.0 1156:1.0 1170:1.0 1200:1.0 1236:1.0 1245:1.0 1261:1.0 1280:1.0 1294:1.0 1347:1.0 1357:1.0 1412:1.0 1454:1.0 1482:1.0 1740:1.0 1822:1.0 1940:1.0 1974:1.0 2147:1.0 2364:1.0 2390:1.0 2512:1.0 2615:1.0 2668:1.0 2783:1.0 2784:1.0 2893:1.0 2997:1.0 3038:1.0 3146:1.0 3315:1.0
-0.0186964842540813 5:1.0 53:1.0 123:1.0 351:1.0 354:1.0 542:1.0 630:1.0 677:1.0 705:1.0 753:1.0 833:1.0 864:1.0 913:1.0 915:1.0 934:1.0 986:1.0 1020:1.0 1027:1.0 1040:1.0 1070:1.0 1091:1.0 1104:1.0 1109:1.0 1127:1.0 1167:1.0 1230:1.0 1241:1.0 1324:1.0 1349:1.0 1358:1.0 1371:1.0 1400:1.0 1813:1.0 1866:1.0 2202:1.0 2408:1.0 2443:1.0 2461:1.0 2471:1.0 2688:1.0 2764:1.0 2918:1.0 2930:1.0 2969:1.0 2997:1.0 3086:1.0 3146:1.0 3175:1.0 3339:1.0 3348:1.0
-0.034213513001103465 1:1.0 123:1.0 138:1.0 187:1.0 383:1.0 708:1.0 794:1.0 828:1.0 854:1.0 984:1.0 1062:1.0 1143:1.0 1170:1.0 1207:1.0 1214:1.0 1261:1.0 1271:1.0 1292:1.0 1325:1.0 1358:1.0 1359:1.0 1369:1.0 1400:1.0 1745:1.0 1877:1.0 1948:1.0 1954:1.0 2143:1.0 2402:1.0 2408:1.0 2461:1.0 2649:1.0 2744:1.0 2783:1.0 3028:1.0 3066:1.0 3146:1.0 3160:1.0 3252:1.0 3287:1.0
-0.016532302242911363 15:1.0 16:1.0 169:1.0 246:1.0 463:1.0 594:1.0 630:1.0 669:1.0 745:1.0 764:1.0 773:1.0 784:1.0 941:1.0 1014:1.0 1040:1.0 1072:1.0 1096:1.0 1104:1.0 1127:1.0 1148:1.0 1154:1.0 1157:1.0 1167:1.0 1175:1.0 1181:1.0 1235:1.0 1236:1.0 1315:1.0 1333:1.0 1357:1.0 1358:1.0 1360:1.0 1392:1.0 1400:1.0 1412:1.0 1427:1.0 1828:1.0 1924:1.0 2401:1.0 2424:1.0 2441:1.0 2461:1.0 2605:1.0 2624:1.0 2644:1.0 2751:1.0 2997:1.0 3046:1.0 3069:1.0 3136:1.0 3146:1.0 3214:1.0 3250:1.0 3268:1.0
0.034213513001103465 3:1.0 17:1.0 229:1.0 435:1.0 501:1.0 623:1.0 671:1.0 674:1.0 838:1.0 1009:1.0 1032:1.0 1070:1.0 1071:1.0 1125:1.0 1145:1.0 1166:1.0 1189:1.0 1230:1.0 1234:1.0 1250:1.0 1290:1.0 1315:1.0 1337:1.0 1357:1.0 1368:1.0 2275:1.0 2422:1.0 2508:1.0 2627:1.0 2668:1.0 2741:1.0 2805:1.0 2935:1.0 2969:1.0 3032:1.0 3146:1.0 3192:1.0 3221:1.0 3237:1.0 3314:1.0
0.034213513001103465 1:1.0 3:1.0 133:1.0 195:1.0 217:1.0 245:1.0 455:1.0 489:1.0 781:1.0 835:1.0 966:1.0 1033:1.0 1062:1.0 1126:1.0 1142:1.0 1160:1.0 1244:1.0 1261:1.0 1271:1.0 1314:1.0 1325:1.0 1400:1.0 1687:1.0 2043:1.0 2067:1.0 2257:1.0 2286:1.0 2395:1.0 2461:1.0 2486:1.0 2508:1.0 2637:1.0 2847:1.0 3084:1.0 3144:1.0 3146:1.0 3164:1.0 3315:1.0
0.034213513001103465 3:1.0 16:1.0 122:1.0 132:1.0 133:1.0 270:1.0 288:1.0 290:1.0 315:1.0 327:1.0 351:1.0 367:1.0 372:1.0 430:1.0 533:1.0 569:1.0 577:1.0 599:1.0 644:1.0 664:1.0 705:1.0 833:1.0 843:1.0 858:1.0 888:1.0 977:1.0 1032:1.0 1033:1.0 1064:1.0 1066:1.0 1068:1.0 1101:1.0 1109:1.0 1160:1.0 1167:1.0 1170:1.0 1177:1.0 1230:1.0 1261:1.0 1301:1.0 1314:1.0 1315:1.0 1324:1.0 1325:1.0 1329:1.0 1332:1.0 1347:1.0 1353:1.0 1358:1.0 1400:1.0 1402:1.0 1404:1.0 1455:1.0 1637:1.0 1852:1.0 2020:1.0 2034:1.0 2048:1.0 2184:1.0 2191:1.0 2461:1.0 2472:1.0 2513:1.0 2540:1.0 2609:1.0 2618:1.0 2668:1.0 2688:1.0 2716:1.0 2766:1.0 2791:1.0 2929:1.0 2940:1.0 3146:1.0 3193:1.0 3212:1.0 3221:1.0 3252:1.0 3284:1.0 3286:1.0 3354:1.0
0.034213513001103465 2:1.0 3:1.0 348:1.0 486:1.0 489:1.0 565:1.0 619:1.0 965:1.0 1017:1.0 1038:1.0 1071:1.0 1072:1.0 1074:1.0 1087:1.0 1117:1.0 1157:1.0 1160:1.0 1226:1.0 1253:1.0 1284:1.0 1314:1.0 1400:1.0 1402:1.0 2006:1.0 2039:1.0 2472:1.0 2687:1.0 2812:1.0 2889:1.0 2911:1.0 2953:1.0 2998:1.0 3077:1.0 3146:1.0 3221:1.0 3284:1.0 3315:1.0
0.034213513001103465 133:1.0 165:1.0 412:1.0 623:1.0 889:1.0 1062:1.0 1070:1.0 1071:1.0 1200:1.0 1244:1.0 1258:1.0 1261:1.0 1325:1.0 2276:1.0 2494:1.0 2564:1.0 2929:1.0 2969:1.0 3146:1.0 3160:1.0 3315:1.0
-0.034213513001103465 1:1.0 620:1.0 623:1.0 682:1.0 722:1.0 781:1.0 854:1.0 1062:1.0 1070:1.0 1071:1.0 1108:1.0 1170:1.0 1214:1.0 1261:1.0 1325:1.0 1415:1.0 1651:1.0 2006:1.0 2281:1.0 2508:1.0 2624:1.0 2969:1.0 3146:1.0 3284:1.0 3315:1.0 3316:1.0 3354:1.0
-0.0170555477712138 3:1.0 78:1.0 115:1.0 131:1.0 212:1.0 229:1.0 394:1.0 410:1.0 785:1.0 839:1.0 1033:1.0 1112:1.0 1160:1.0 1161:1.0 1166:1.0 1170:1.0 1230:1.0 1356:1.0 1362:1.0 1412:1.0 1423:1.0 1436:1.0 1451:1.0 1661:1.0 2011:1.0 2070:1.0 2221:1.0 2651:1.0 2668:1.0 2780:1.0 2781:1.0 2844:1.0 2889:1.0 2918:1.0 3124:1.0 3146:1.0 3221:1.0 3284:1.0 3288:1.0
-0.034213513001103465 5:1.0 11:1.0 53:1.0 165:1.0 325:1.0 623:1.0 721:1.0 788:1.0 889:1.0 1023:1.0 1062:1.0 1070:1.0 1071:1.0 1091:1.0 1108:1.0 1241:1.0 1258:1.0 1261:1.0 1400:1.0 2276:1.0 2364:1.0 2410:1.0 2609:1.0 2703:1.0 2969:1.0 3146:1.0 3252:1.0 3315:1.0
-0.020132410396506345 3:1.0 5:1.0 22:1.0 47:1.0 56:1.0 102:1.0 104:1.0 131:1.0 185:1.0 240:1.0 251:1.0 263:1.0 326:1.0 334:1.0 355:1.0 400:1.0 402:1.0 428:1.0 528:1.0 530:1.0 547:1.0 688:1.0 721:1.0 788:1.0 850:1.0 889:1.0 1023:1.0 1071:1.0 1072:1.0 1083:1.0 1091:1.0 1101:1.0 1108:1.0 1111:1.0 1125:1.0 1157:1.0 1160:1.0 1166:1.0 1170:1.0 1196:1.0 1203:1.0 1261:1.0 1268:1.0 1290:1.0 1293:1.0 1315:1.0 1325:1.0 1362:1.0 1381:1.0 1382:1.0 1412:1.0 1420:1.0 1451:1.0 1694:1.0 1723:1.0 1777:1.0 1954:1.0 2108:1.0 2364:1.0 2398:1.0 2408:1.0 2493:1.0 2523:1.0 2546:1.0 2649:1.0 2706:1.0 2781:1.0 2844:1.0 2852:1.0 2879:1.0 2969:1.0 3059:1.0 3103:1.0 3105:1.0 3144:1.0 3146:1.0 3221:1.0 3253:1.0 3272:1.0 3278:1.0 3287:1.0 3339:1.0 3343:1.0
-0.034213513001103465 1:1.0 3:1.0 140:1.0 412:1.0 491:1.0 650:1.0 719:1.0 773:1.0 941:1.0 957:1.0 1062:1.0 1066:1.0 1154:1.0 1181:1.0 1200:1.0 1226:1.0 1244:1.0 1323:1.0 1358:1.0 1394:1.0 1427:1.0 1441:1.0 1769:1.0 1921:1.0 1933:1.0 2491:1.0 3028:1.0 3086:1.0 3092:1.0 3146:1.0 3212:1.0 3221:1.0
-0.01602560237415938 260:1.0 463:1.0 563:1.0 795:1.0 1104:1.0 1127:1.0 1200:1.0 1236:1.0 1321:1.0 1356:1.0 1357:1.0 1427:1.0 2663:1.0 2791:1.0 2918:1.0 3146:1.0 3172:1.0
0.034213513001103465 128:1.0 141:1.0 195:1.0 295:1.0 308:1.0 313:1.0 721:1.0 783:1.0 806:1.0 975:1.0 1023:1.0 1040:1.0 1104:1.0 1108:1.0 1127:1.0 1156:1.0 1160:1.0 1234:1.0 1261:1.0 1271:1.0 1293:1.0 1314:1.0 1357:1.0 1400:1.0 1413:1.0 2364:1.0 2399:1.0 2472:1.0 2503:1.0 2688:1.0 2904:1.0 2918:1.0 2997:1.0 3003:1.0 3043:1.0 3146:1.0
0.034213513001103465 145:1.0 162:1.0 194:1.0 243:1.0 351:1.0 551:1.0 672:1.0 677:1.0 913:1.0 934:1.0 1023:1.0 1031:1.0 1070:1.0 1104:1.0 1109:1.0 1127:1.0 1167:1.0 1168:1.0 1200:1.0 1357:1.0 1358:1.0 1371:1.0 1396:1.0 1740:1.0 2364:1.0 2502:1.0 2560:1.0 2760:1.0 2918:1.0 3032:1.0 3081:1.0 3146:1.0 3297:1.0 3332:1.0
0.034213513001103465 75:1.0 90:1.0 123:1.0 416:1.0 419:1.0 725:1.0 758:1.0 771:1.0 786:1.0 876:1.0 947:1.0 1023:1.0 1066:1.0 1160:1.0 1167:1.0 1170:1.0 1236:1.0 1245:1.0 1302:1.0 1347:1.0 1357:1.0 1358:1.0 1400:1.0 1455:1.0 1482:1.0 1740:1.0 1822:1.0 1923:1.0 2133:1.0 2147:1.0 2364:1.0 2449:1.0 2461:1.0 2512:1.0 2668:1.0 2805:1.0 3035:1.0 3040:1.0 3146:1.0 3315:1.0
-0.033567594714802564 240:1.0 251:1.0 295:1.0 312:1.0 334:1.0 545:1.0 721:1.0 771:1.0 786:1.0 911:1.0 947:1.0 1023:1.0 1071:1.0 1108:1.0 1167:1.0 1170:1.0 1247:1.0 1261:1.0 1283:1.0 1315:1.0 1347:1.0 1367:1.0 1382:1.0 1400:1.0 1412:1.0 1752:1.0 2222:1.0 2234:1.0 2364:1.0 2473:1.0 2548:1.0 2719:1.0 2737:1.0 2820:1.0 2860:1.0 2887:1.0 3146:1.0 3278:1.0 3320:1.0
-0.028704893491445508 92:1.0 216:1.0 243:1.0 289:1.0 351:1.0 521:1.0 630:1.0 677:1.0 725:1.0 758:1.0 821:1.0 925:1.0 947:1.0 1023:1.0 1031:1.0 1066:1.0 1070:1.0 1090:1.0 1104:1.0 1109:1.0 1127:1.0 1160:1.0 1167:1.0 1168:1.0 1170:1.0 1198:1.0 1302:1.0 1358:1.0 1382:1.0 1384:1.0 1422:1.0 1455:1.0 1539:1.0 1707:1.0 1930:1.0 1989:1.0 2364:1.0 2374:1.0 2395:1.0 2461:1.0 2773:1.0 2966:1.0 3036:1.0 3081:1.0 3146:1.0 3169:1.0 3263:1.0
-0.011066197093052054 5:1.0 39:1.0 260:1.0 334:1.0 384:1.0 416:1.0 454:1.0 547:1.0 610:1.0 644:1.0 720:1.0 786:1.0 839:1.0 843:1.0 888:1.0 947:1.0 1033:1.0 1064:1.0 1071:1.0 1101:1.0 1160:1.0 1167:1.0 1170:1.0 1200:1.0 1234:1.0 1250:1.0 1315:1.0 1327:1.0 1347:1.0 1355:1.0 1356:1.0 1357:1.0 1412:1.0 1419:1.0 1439:1.0 1750:1.0 1819:1.0 1918:1.0 1955:1.0 2075:1.0 2364:1.0 2370:1.0 2447:1.0 2490:1.0 2502:1.0 2668:1.0 2749:1.0 2773:1.0 2893:1.0 2919:1.0 3016:1.0 3043:1.0 3146:1.0 3277:1.0 3278:1.0 3284:1.0
-0.03170429992794864 3:1.0 5:1.0 175:1.0 195:1.0 416:1.0 489:1.0 539:1.0 835:1.0 977:1.0 1003:1.0 1114:1.0 1126:1.0 1160:1.0 1167:1.0 1251:1.0 1268:1.0 1271:1.0 1283:1.0 1314:1.0 1315:1.0 1400:1.0 1979:1.0 2049:1.0 2378:1.0 2432:1.0 2461:1.0 2486:1.0 2668:1.0 2773:1.0 2898:1.0 3053:1.0 3146:1.0 3189:1.0 3318:1.0
-0.01080289005687521 161:1.0 175:1.0 198:1.0 350:1.0 351:1.0 400:1.0 500:1.0 506:1.0 566:1.0 568:1.0 659:1.0 736:1.0 760:1.0 809:1.0 892:1.0 1013:1.0 1072:1.0 1091:1.0 1109:1.0 1114:1.0 1118:1.0 1122:1.0 1135:1.0 1157:1.0 1160:1.0 1207:1.0 1218:1.0 1287:1.0 1315:1.0 1342:1.0 1353:1.0 1358:1.0 1370:1.0 1391:1.0 1419:1.0 1640:1.0 1791:1.0 1792:1.0 1915:1.0 2194:1.0 2211:1.0 2408:1.0 2424:1.0 2472:1.0 2524:1.0 2609:1.0 2748:1.0 2773:1.0 2868:1.0 2893:1.0 2966:1.0 3059:1.0 3115:1.0 3146:1.0 3170:1.0 3179:1.0 3192:1.0 3278:1.0 3284:1.0 3314:1.0
0.034213513001103465 160:1.0 165:1.0 260:1.0 333:1.0 623:1.0 688:1.0 854:1.0 914:1.0 950:1.0 964:1.0 1054:1.0 1062:1.0 1070:1.0 1071:1.0 1170:1.0 1200:1.0 1214:1.0 1258:1.0 1294:1.0 1325:1.0 1356:1.0 1381:1.0 1454:1.0 2177:1.0 2276:1.0 2535:1.0 2707:1.0 2784:1.0 2943:1.0 2969:1.0 3109:1.0 3146:1.0 3253:1.0 3315:1.0 3343:1.0
0.034213513001103465 83:1.0 255:1.0 889:1.0 1071:1.0 1090:1.0 1261:1.0 1362:1.0 1384:1.0 2001:1.0 2508:1.0 2783:1.0 3146:1.0 3303:1.0
0.034213513001103465 2:1.0 3:1.0 21:1.0 88:1.0 93:1.0 123:1.0 143:1.0 230:1.0 702:1.0 1083:1.0 1087:1.0 1143:1.0 1148:1.0 1214:1.0 1325:1.0 1330:1.0 1358:1.0 1392:1.0 1393:1.0 1400:1.0 1629:1.0 1687:1.0 1990:1.0 2039:1.0 2317:1.0 2461:1.0 2498:1.0 2508:1.0 2649:1.0 2918:1.0 3044:1.0 3146:1.0 3257:1.0 3315:1.0
0.03034034608903428 1:1.0 123:1.0 138:1.0 696:1.0 708:1.0 794:1.0 854:1.0 1062:1.0 1102:1.0 1143:1.0 1170:1.0 1173:1.0 1214:1.0 1271:1.0 1325:1.0 1358:1.0 1400:1.0 1862:1.0 1993:1.0 2245:1.0 2427:1.0 2461:1.0 2649:1.0 2734:1.0 2958:1.0 3146:1.0 3172:1.0 3248:1.0
0.034213513001103465 24:1.0 224:1.0 253:1.0 367:1.0 510:1.0 521:1.0 574:1.0 868:1.0 1032:1.0 1040:1.0 1057:1.0 1090:1.0 1170:1.0 1214:1.0 1283:1.0 1294:1.0 1300:1.0 1325:1.0 1332:1.0 1384:1.0 1393:1.0 1454:1.0 1547:1.0 1592:1.0 1635:1.0 1772:1.0 1871:1.0 2042:1.0 2398:1.0 2798:1.0 2908:1.0 2997:1.0 3082:1.0 3146:1.0 3221:1.0 3253:1.0 3278:1.0 3284:1.0 3316:1.0
-0.034213513001103465 195:1.0 341:1.0 400:1.0 489:1.0 502:1.0 854:1.0 931:1.0 947:1.0 1022:1.0 1062:1.0 1157:1.0 1160:1.0 1167:1.0 1170:1.0 1214:1.0 1258:1.0 1271:1.0 1314:1.0 1325:1.0 1552:1.0 1993:1.0 2051:1.0 2115:1.0 2402:1.0 2427:1.0 2472:1.0 2649:1.0 2881:1.0 3014:1.0 3146:1.0 3253:1.0 3315:1.0
-0.008318074132925962 15:1.0 245:1.0 359:1.0 747:1.0 776:1.0 796:1.0 966:1.0 1040:1.0 1062:1.0 1096:1.0 1160:1.0 1174:1.0 1221:1.0 1244:1.0 1258:1.0 1325:1.0 1400:1.0 1466:1.0 1742:1.0 1777:1.0 1878:1.0 2098:1.0 2453:1.0 2458:1.0 2649:1.0 2997:1.0 3146:1.0 3237:1.0 3260:1.0 3315:1.0
-0.034213513001103465 1:1.0 123:1.0 399:1.0 773:1.0 781:1.0 873:1.0 1050:1.0 1062:1.0 1154:1.0 1261:1.0 1358:1.0 1400:1.0 2472:1.0 2494:1.0 3011:1.0 3081:1.0 3146:1.0
-0.01735778177692016 3:1.0 95:1.0 473:1.0 489:1.0 546:1.0 601:1.0 611:1.0 966:1.0 1027:1.0 1160:1.0 1188:1.0 1273:1.0 1314:1.0 1325:1.0 1372:1.0 1400:1.0 1442:1.0 1619:1.0 1703:1.0 1825:1.0 2019:1.0 2461:1.0 2502:1.0 2649:1.0 2997:1.0 3014:1.0 3146:1.0 3237:1.0 3315:1.0 3347:1.0
0.028354421547936052 1:1.0 5:1.0 16:1.0 53:1.0 64:1.0 93:1.0 140:1.0 198:1.0 322:1.0 334:1.0 355:1.0 467:1.0 480:1.0 506:1.0 509:1.0 528:1.0 849:1.0 943:1.0 945:1.0 957:1.0 1019:1.0 1060:1.0 1062:1.0 1066:1.0 1072:1.0 1091:1.0 1095:1.0 1138:1.0 1157:1.0 1167:1.0 1226:1.0 1241:1.0 1296:1.0 1315:1.0 1323:1.0 1350:1.0 1358:1.0 1373:1.0 1393:1.0 1412:1.0 1426:1.0 1427:1.0 1431:1.0 1441:1.0 1444:1.0 1739:1.0 2155:1.0 2355:1.0 2378:1.0 2387:1.0 2408:1.0 2471:1.0 2472:1.0 2569:1.0 2575:1.0 2689:1.0 2725:1.0 2773:1.0 2843:1.0 2855:1.0 2898:1.0 2975:1.0 3049:1.0 3146:1.0 3221:1.0 3339:1.0
0.034213513001103465 3:1.0 5:1.0 277:1.0 351:1.0 400:1.0 444:1.0 489:1.0 508:1.0 630:1.0 752:1.0 762:1.0 768:1.0 842:1.0 879:1.0 913:1.0 916:1.0 1109:1.0 1147:1.0 1157:1.0 1160:1.0 1163:1.0 1166:1.0 1167:1.0 1231:1.0 1264:1.0 1314:1.0 1319:1.0 1323:1.0 1337:1.0 1358:1.0 1388:1.0 1390:1.0 1400:1.0 1414:1.0 1427:1.0 1685:1.0 1719:1.0 1833:1.0 2245:1.0 2290:1.0 2372:1.0 2378:1.0 2461:1.0 2493:1.0 2515:1.0 2523:1.0 2668:1.0 2737:1.0 2741:1.0 2744:1.0 2751:1.0 2797:1.0 2997:1.0 3060:1.0 3086:1.0 3146:1.0 3240:1.0 3278:1.0
0.002918554063798683 1:1.0 309:1.0 489:1.0 548:1.0 695:1.0 854:1.0 966:1.0 1062:1.0 1148:1.0 1160:1.0 1170:1.0 1214:1.0 1230:1.0 1314:1.0 1325:1.0 1400:1.0 1421:1.0 1642:1.0 2443:1.0 2649:1.0 2652:1.0 2855:1.0 2896:1.0 2943:1.0 3146:1.0 3151:1.0 3192:1.0 3315:1.0
0.034213513001103465 1:1.0 93:1.0 480:1.0 521:1.0 630:1.0 947:1.0 1062:1.0 1090:1.0 1167:1.0 1170:1.0 1358:1.0 1384:1.0 1393:1.0 1485:1.0 1832:1.0 1991:1.0 2092:1.0 2301:1.0 2472:1.0 2783:1.0 3143:1.0 3146:1.0 3172:1.0 3278:1.0
0.034213513001103465 166:1.0 188:1.0 351:1.0 676:1.0 732:1.0 805:1.0 1019:1.0 1109:1.0 1192:1.0 1264:1.0 1315:1.0 1327:1.0 1358:1.0 1373:1.0 1394:1.0 1444:1.0 1777:1.0 1813:1.0 2024:1.0 2372:1.0 2461:1.0 2466:1.0 2540:1.0 3092:1.0 3146:1.0 3339:1.0
-0.022584501280645895 3:1.0 93:1.0 150:1.0 161:1.0 183:1.0 246:1.0 249:1.0 270:1.0 317:1.0 333:1.0 351:1.0 370:1.0 437:1.0 442:1.0 508:1.0 509:1.0 700:1.0 749:1.0 757:1.0 769:1.0 870:1.0 875:1.0 933:1.0 939:1.0 1019:1.0 1053:1.0 1054:1.0 1066:1.0 1072:1.0 1104:1.0 1109:1.0 1127:1.0 1140:1.0 1145:1.0 1148:1.0 1157:1.0 1223:1.0 1264:1.0 1315:1.0 1317:1.0 1319:1.0 1337:1.0 1358:1.0 1361:1.0 1381:1.0 1391:1.0 1392:1.0 1393:1.0 1396:1.0 1402:1.0 1450:1.0 1901:1.0 2020:1.0 2177:1.0 2186:1.0 2194:1.0 2372:1.0 2408:1.0 2422:1.0 2461:1.0 2472:1.0 2490:1.0 2504:1.0 2537:1.0 2619:1.0 2689:1.0 2694:1.0 2732:1.0 2741:1.0 2773:1.0 2900:1.0 2918:1.0 2932:1.0 3076:1.0 3077:1.0 3146:1.0 3172:1.0 3221:1.0 3272:1.0 3282:1.0 3302:1.0
-0.011514703909615578 3:1.0 122:1.0 298:1.0 339:1.0 351:1.0 447:1.0 486:1.0 496:1.0 508:1.0 607:1.0 752:1.0 1025:1.0 1102:1.0 1109:1.0 1143:1.0 1157:1.0 1166:1.0 1185:1.0 1191:1.0 1226:1.0 1264:1.0 1319:1.0 1337:1.0 1358:1.0 1402:1.0 2026:1.0 2406:1.0 2461:1.0 2493:1.0 2691:1.0 2741:1.0 2903:1.0 3020:1.0 3146:1.0 3212:1.0 3221:1.0 3239:1.0
-0.021508505854992834 2:1.0 3:1.0 16:1.0 188:1.0 351:1.0 514:1.0 630:1.0 977:1.0 1038:1.0 1071:1.0 1087:1.0 1104:1.0 1109:1.0 1113:1.0 1167:1.0 1237:1.0 1250:1.0 1304:1.0 1315:1.0 1358:1.0 1373:1.0 1400:1.0 1580:1.0 2111:1.0 2229:1.0 2236:1.0 2401:1.0 2461:1.0 2654:1.0 2707:1.0 2918:1.0 3033:1.0 3146:1.0 3191:1.0 3339:1.0
0.0048912684911528274 1:1.0 53:1.0 93:1.0 343:1.0 480:1.0 500:1.0 509:1.0 811:1.0 1062:1.0 1090:1.0 1091:1.0 1156:1.0 1157:1.0 1241:1.0 1358:1.0 1384:1.0 1393:1.0 1428:1.0 1705:1.0 2145:1.0 2217:1.0 2373:1.0 2408:1.0 2472:1.0 2596:1.0 2735:1.0 2783:1.0 2997:1.0 3116:1.0 3146:1.0
-0.022127003413276218 172:1.0 181:1.0 233:1.0 415:1.0 549:1.0 768:1.0 821:1.0 1023:1.0 1066:1.0 1157:1.0 1160:1.0 1242:1.0 1260:1.0 1362:1.0 1371:1.0 1400:1.0 1455:1.0 1680:1.0 2364:1.0 2767:1.0 2893:1.0 2923:1.0 3146:1.0 3247:1.0 3303:1.0 3351:1.0
0.034213513001103465 104:1.0 147:1.0 276:1.0 547:1.0 1101:1.0 1125:1.0 1160:1.0 1420:1.0 1422:1.0 2374:1.0 2542:1.0 3012:1.0 3092:1.0 3146:1.0
0.034213513001103465 1:1.0 5:1.0 89:1.0 202:1.0 489:1.0 498:1.0 613:1.0 657:1.0 688:1.0 850:1.0 966:1.0 1048:1.0 1062:1.0 1160:1.0 1170:1.0 1188:1.0 1196:1.0 1314:1.0 1325:1.0 1340:1.0 1381:1.0 1400:1.0 1682:1.0 1929:1.0 1954:1.0 2120:1.0 2190:1.0 2294:1.0 2472:1.0 2649:1.0 2705:1.0 2764:1.0 2797:1.0 2924:1.0 3146:1.0 3182:1.0 3252:1.0 3287:1.0
0.034213513001103465 5:1.0 295:1.0 429:1.0 666:1.0 707:1.0 735:1.0 771:1.0 828:1.0 1016:1.0 1023:1.0 1170:1.0 1223:1.0 1236:1.0 1292:1.0 1347:1.0 1357:1.0 1400:1.0 1900:1.0 1954:1.0 2364:1.0 2649:1.0 2898:1.0 2959:1.0 3146:1.0 3287:1.0
0.034213513001103465 429:1.0 588:1.0 966:1.0 1160:1.0 1223:1.0 1236:1.0 1268:1.0 1357:1.0 1400:1.0 2456:1.0 2896:1.0 3146:1.0 3278:1.0 3313:1.0
-0.01991256875752779 160:1.0 520:1.0 537:1.0 623:1.0 964:1.0 1060:1.0 1070:1.0 1071:1.0 1085:1.0 1236:1.0 1294:1.0 1357:1.0 1391:1.0 1454:1.0 2508:1.0 2969:1.0 3092:1.0 3146:1.0 3268:1.0 3320:1.0
-0.034213513001103465 162:1.0 400:1.0 644:1.0 768:1.0 1031:1.0 1064:1.0 1157:1.0 1160:1.0 1168:1.0 1357:1.0 1400:1.0 2340:1.0 2356:1.0 2364:1.0 2596:1.0 3143:1.0 3146:1.0 3218:1.0
0.0030898317715125313 1:1.0 51:1.0 93:1.0 122:1.0 123:1.0 270:1.0 351:1.0 548:1.0 620:1.0 623:1.0 630:1.0 746:1.0 758:1.0 845:1.0 854:1.0 890:1.0 913:1.0 932:1.0 944:1.0 974:1.0 1062:1.0 1066:1.0 1070:1.0 1071:1.0 1109:1.0 1112:1.0 1117:1.0 1167:1.0 1169:1.0 1170:1.0 1214:1.0 1230:1.0 1262:1.0 1302:1.0 1325:1.0 1358:1.0 1393:1.0 1400:1.0 1402:1.0 1431:1.0 1539:1.0 1913:1.0 1930:1.0 1954:1.0 1989:1.0 2006:1.0 2070:1.0 2089:1.0 2133:1.0 2186:1.0 2221:1.0 2297:1.0 2461:1.0 2508:1.0 2550:1.0 2649:1.0 2680:1.0 2741:1.0 2773:1.0 2781:1.0 2907:1.0 2969:1.0 3035:1.0 3036:1.0 3146:1.0 3163:1.0 3221:1.0 3284:1.0 3287:1.0 3293:1.0
-0.034213513001103465 1:1.0 348:1.0 666:1.0 748:1.0 781:1.0 828:1.0 854:1.0 884:1.0 1016:1.0 1038:1.0 1062:1.0 1170:1.0 1214:1.0 1261:1.0 1292:1.0 1325:1.0 1400:1.0 1635:1.0 1823:1.0 2006:1.0 2196:1.0 2798:1.0 2893:1.0 2908:1.0 3146:1.0 3284:1.0 3316:1.0
-0.002589207110369196 51:1.0 93:1.0 114:1.0 228:1.0 302:1.0 403:1.0 620:1.0 623:1.0 640:1.0 759:1.0 787:1.0 854:1.0 1070:1.0 1071:1.0 1092:1.0 1135:1.0 1156:1.0 1162:1.0 1170:1.0 1175:1.0 1214:1.0 1231:1.0 1264:1.0 1325:1.0 1358:1.0 1391:1.0 1393:1.0 1398:1.0 1414:1.0 1441:1.0 1712:1.0 1913:1.0 2126:1.0 2468:1.0 2472:1.0 2508:1.0 2523:1.0 2649:1.0 2700:1.0 2836:1.0 2913:1.0 2969:1.0 2997:1.0 3072:1.0 3146:1.0 3221:1.0 3278:1.0 3303:1.0
-0.034213513001103465 1:1.0 93:1.0 123:1.0 480:1.0 1062:1.0 1358:1.0 1393:1.0 1400:1.0 1699:1.0 2472:1.0 2752:1.0 3098:1.0 3146:1.0
-0.034213513001103465 39:1.0 128:1.0 179:1.0 279:1.0 302:1.0 444:1.0 578:1.0 837:1.0 916:1.0 932:1.0 1005:1.0 1040:1.0 1060:1.0 1117:1.0 1156:1.0 1167:1.0 1219:1.0 1236:1.0 1238:1.0 1262:1.0 1292:1.0 1294:1.0 1327:1.0 1332:1.0 1333:1.0 1337:1.0 1357:1.0 1358:1.0 1388:1.0 1412:1.0 1414:1.0 1415:1.0 1435:1.0 1454:1.0 2288:1.0 2461:1.0 2471:1.0 2609:1.0 2716:1.0 2719:1.0 2741:1.0 2855:1.0 2873:1.0 2997:1.0 3046:1.0 3146:1.0 3221:1.0 3237:1.0 3273:1.0 3285:1.0 3351:1.0
0.034213513001103465 3:1.0 41:1.0 93:1.0 131:1.0 229:1.0 329:1.0 351:1.0 509:1.0 768:1.0 833:1.0 882:1.0 962:1.0 1012:1.0 1040:1.0 1051:1.0 1069:1.0 1109:1.0 1125:1.0 1157:1.0 1166:1.0 1204:1.0 1230:1.0 1358:1.0 1393:1.0 1400:1.0 1451:1.0 1680:1.0 1793:1.0 1940:1.0 2020:1.0 2472:1.0 2522:1.0 2615:1.0 2649:1.0 2668:1.0 2754:1.0 2848:1.0 2948:1.0 3066:1.0 3146:1.0 3155:1.0 3222:1.0 3288:1.0
0.034213513001103465 1:1.0 579:1.0 761:1.0 768:1.0 772:1.0 781:1.0 965:1.0 1024:1.0 1028:1.0 1062:1.0 1071:1.0 1098:1.0 1157:1.0 1160:1.0 1249:1.0 1261:1.0 1280:1.0 1400:1.0 1402:1.0 1439:1.0 2165:1.0 2221:1.0 2395:1.0 2461:1.0 2567:1.0 2731:1.0 3069:1.0 3146:1.0 3221:1.0
0.034213513001103465 123:1.0 156:1.0 351:1.0 723:1.0 839:1.0 1033:1.0 1109:1.0 1158:1.0 1160:1.0 1357:1.0 1358:1.0 1400:1.0 1412:1.0 1644:1.0 1733:1.0 2461:1.0 2683:1.0 2717:1.0 2745:1.0 2842:1.0 2953:1.0 3146:1.0
0.034213513001103465 48:1.0 123:1.0 203:1.0 351:1.0 1109:1.0 1114:1.0 1358:1.0 1400:1.0 1422:1.0 2229:1.0 2401:1.0 2461:1.0 2531:1.0 2847:1.0 3146:1.0
0.034213513001103465 3:1.0 543:1.0 1031:1.0 1033:1.0 1050:1.0 1154:1.0 1160:1.0 1204:1.0 1357:1.0 1391:1.0 1439:1.0 2395:1.0 2461:1.0 2503:1.0 2890:1.0 3049:1.0 3146:1.0 3222:1.0
-0.034213513001103465 123:1.0 351:1.0 740:1.0 913:1.0 1109:1.0 1167:1.0 1357:1.0 1358:1.0 1400:1.0 2186:1.0 2461:1.0 2513:1.0 2773:1.0 3040:1.0 3146:1.0
-0.034213513001103465 351:1.0 509:1.0 740:1.0 768:1.0 913:1.0 1109:1.0 1157:1.0 1167:1.0 1357:1.0 1358:1.0 1400:1.0 1964:1.0 2114:1.0 2345:1.0 2472:1.0 2688:1.0 2748:1.0 3146:1.0 3218:1.0 3352:1.0
-0.026974521550850353 78:1.0 83:1.0 123:1.0 156:1.0 351:1.0 497:1.0 547:1.0 689:1.0 804:1.0 839:1.0 1033:1.0 1071:1.0 1101:1.0 1109:1.0 1160:1.0 1161:1.0 1250:1.0 1356:1.0 1358:1.0 1362:1.0 1400:1.0 1410:1.0 1412:1.0 1563:1.0 1712:1.0 1729:1.0 1862:1.0 2011:1.0 2013:1.0 2385:1.0 2461:1.0 2479:1.0 2540:1.0 2781:1.0 2918:1.0 3144:1.0 3146:1.0 3303:1.0
-0.019038501808266734 107:1.0 351:1.0 419:1.0 493:1.0 561:1.0 713:1.0 959:1.0 987:1.0 1020:1.0 1071:1.0 1109:1.0 1136:1.0 1173:1.0 1236:1.0 1245:1.0 1249:1.0 1323:1.0 1357:1.0 1358:1.0 1389:1.0 1427:1.0 1444:1.0 1968:1.0 2020:1.0 2355:1.0 2450:1.0 2472:1.0 2542:1.0 2569:1.0 2603:1.0 2641:1.0 2668:1.0 2753:1.0 2893:1.0 3146:1.0
-0.034213513001103465 157:1.0 351:1.0 509:1.0 679:1.0 939:1.0 1070:1.0 1088:1.0 1093:1.0 1109:1.0 1157:1.0 1358:1.0 1362:1.0 1381:1.0 1420:1.0 1862:1.0 2167:1.0 2281:1.0 2295:1.0 2461:1.0 2468:1.0 2508:1.0 2540:1.0 2969:1.0 3146:1.0 3218:1.0 3303:1.0 3316:1.0
0.034213513001103465 32:1.0 81:1.0 114:1.0 128:1.0 167:1.0 303:1.0 321:1.0 426:1.0 591:1.0 630:1.0 654:1.0 826:1.0 900:1.0 933:1.0 954:1.0 1032:1.0 1040:1.0 1106:1.0 1135:1.0 1143:1.0 1156:1.0 1167:1.0 1175:1.0 1226:1.0 1263:1.0 1264:1.0 1315:1.0 1335:1.0 1358:1.0 1368:1.0 1391:1.0 1398:1.0 1426:1.0 1772:1.0 2207:1.0 2214:1.0 2225:1.0 2274:1.0 2396:1.0 2472:1.0 2508:1.0 2696:1.0 2869:1.0 2883:1.0 2997:1.0 3023:1.0 3061:1.0 3071:1.0 3146:1.0 3221:1.0 3228:1.0 3255:1.0 3278:1.0
0.034213513001103465 165:1.0 175:1.0 231:1.0 306:1.0 623:1.0 977:1.0 1062:1.0 1070:1.0 1071:1.0 1114:1.0 1244:1.0 1258:1.0 1315:1.0 1400:1.0 1927:1.0 2276:1.0 2609:1.0 2831:1.0 2969:1.0 3146:1.0 3212:1.0 3278:1.0 3315:1.0
0.034213513001103465 165:1.0 412:1.0 623:1.0 1062:1.0 1070:1.0 1071:1.0 1200:1.0 1244:1.0 1258:1.0 1332:1.0 1418:1.0 1933:1.0 2276:1.0 2491:1.0 2570:1.0 2969:1.0 3146:1.0 3212:1.0 3221:1.0 3315:1.0
0.034213513001103465 3:1.0 30:1.0 44:1.0 93:1.0 122:1.0 123:1.0 131:1.0 256:1.0 272:1.0 302:1.0 371:1.0 489:1.0 570:1.0 571:1.0 640:1.0 680:1.0 703:1.0 791:1.0 792:1.0 965:1.0 1040:1.0 1155:1.0 1156:1.0 1160:1.0 1163:1.0 1166:1.0 1170:1.0 1264:1.0 1273:1.0 1314:1.0 1325:1.0 1332:1.0 1358:1.0 1393:1.0 1400:1.0 1402:1.0 1451:1.0 1591:1.0 1772:1.0 1821:1.0 1825:1.0 1951:1.0 1954:1.0 2041:1.0 2178:1.0 2204:1.0 2221:1.0 2461:1.0 2472:1.0 2493:1.0 2597:1.0 2620:1.0 2649:1.0 2734:1.0 2997:1.0 3035:1.0 3120:1.0 3146:1.0 3160:1.0 3203:1.0 3206:1.0 3221:1.0 3315:1.0 3343:1.0
-0.0055256320045169935 233:1.0 310:1.0 623:1.0 721:1.0 768:1.0 788:1.0 889:1.0 909:1.0 1023:1.0 1070:1.0 1071:1.0 1108:1.0 1157:1.0 1196:1.0 1261:1.0 1283:1.0 1325:1.0 1400:1.0 1411:1.0 1573:1.0 1713:1.0 1772:1.0 2237:1.0 2364:1.0 2508:1.0 2969:1.0 3077:1.0 3123:1.0 3146:1.0 3252:1.0 3316:1.0 3342:1.0
-0.034213513001103465 165:1.0 288:1.0 543:1.0 547:1.0 689:1.0 1033:1.0 1062:1.0 1070:1.0 1101:1.0 1121:1.0 1160:1.0 1258:1.0 1314:1.0 1335:1.0 1391:1.0 1440:1.0 1777:1.0 1980:1.0 2461:1.0 2485:1.0 2508:1.0 2659:1.0 2969:1.0 3035:1.0 3146:1.0 3255:1.0
-0.034213513001103465 1:1.0 133:1.0 414:1.0 510:1.0 538:1.0 574:1.0 629:1.0 717:1.0 781:1.0 872:1.0 900:1.0 1040:1.0 1057:1.0 1062:1.0 1075:1.0 1175:1.0 1200:1.0 1214:1.0 1261:1.0 1293:1.0 1325:1.0 1368:1.0 1395:1.0 1402:1.0 1427:1.0 1805:1.0 2218:1.0 2219:1.0 2276:1.0 2410:1.0 2580:1.0 2646:1.0 2651:1.0 2997:1.0 3049:1.0 3074:1.0 3146:1.0 3221:1.0 3244:1.0 3268:1.0 3315:1.0
-0.034213513001103465 51:1.0 93:1.0 123:1.0 165:1.0 623:1.0 1062:1.0 1070:1.0 1071:1.0 1258:1.0 1358:1.0 1393:1.0 1400:1.0 2276:1.0 2522:1.0 2947:1.0 3077:1.0 3146:1.0 3302:1.0 3315:1.0
0.03196689414216893 79:1.0 196:1.0 244:1.0 340:1.0 351:1.0 405:1.0 509:1.0 630:1.0 659:1.0 668:1.0 913:1.0 977:1.0 1013:1.0 1109:1.0 1157:1.0 1167:1.0 1173:1.0 1195:1.0 1236:1.0 1287:1.0 1291:1.0 1315:1.0 1357:1.0 1358:1.0 1360:1.0 1400:1.0 1419:1.0 1768:1.0 1791:1.0 1944:1.0 2020:1.0 2381:1.0 2461:1.0 2472:1.0 2540:1.0 2653:1.0 2668:1.0 2860:1.0 2978:1.0 2998:1.0 3146:1.0 3179:1.0 3214:1.0 3284:1.0 3340:1.0
0.034213513001103465 3:1.0 21:1.0 88:1.0 230:1.0 351:1.0 429:1.0 442:1.0 551:1.0 620:1.0 660:1.0 930:1.0 934:1.0 1070:1.0 1083:1.0 1109:1.0 1200:1.0 1211:1.0 1214:1.0 1223:1.0 1236:1.0 1325:1.0 1330:1.0 1357:1.0 1358:1.0 1371:1.0 1819:1.0 2317:1.0 2400:1.0 2401:1.0 2472:1.0 2649:1.0 2943:1.0 2947:1.0 3146:1.0 3218:1.0 3252:1.0 3286:1.0
0.034213513001103465 16:1.0 157:1.0 351:1.0 630:1.0 939:1.0 977:1.0 1109:1.0 1167:1.0 1315:1.0 1358:1.0 1362:1.0 1381:1.0 1400:1.0 1723:1.0 1908:1.0 2773:1.0 2802:1.0 3146:1.0 3151:1.0 3218:1.0 3339:1.0 3341:1.0
0.034213513001103465 129:1.0 277:1.0 400:1.0 416:1.0 489:1.0 527:1.0 686:1.0 768:1.0 775:1.0 913:1.0 1068:1.0 1109:1.0 1157:1.0 1160:1.0 1167:1.0 1288:1.0 1314:1.0 1357:1.0 1358:1.0 1388:1.0 1400:1.0 1644:1.0 1734:1.0 1891:1.0 2020:1.0 2407:1.0 2461:1.0 2472:1.0 2582:1.0 2668:1.0 2741:1.0 2745:1.0 2769:1.0 2897:1.0 2978:1.0 3146:1.0
0.034213513001103465 3:1.0 5:1.0 16:1.0 419:1.0 476:1.0 620:1.0 630:1.0 763:1.0 945:1.0 998:1.0 1019:1.0 1030:1.0 1055:1.0 1060:1.0 1069:1.0 1070:1.0 1081:1.0 1167:1.0 1214:1.0 1236:1.0 1245:1.0 1315:1.0 1323:1.0 1325:1.0 1357:1.0 1358:1.0 1424:1.0 1427:1.0 1482:1.0 1822:1.0 1941:1.0 2147:1.0 2229:1.0 2461:1.0 2512:1.0 2649:1.0 2674:1.0 2773:1.0 2966:1.0 3049:1.0 3146:1.0 3236:1.0 3259:1.0 3315:1.0
-0.015103118270724896 3:1.0 16:1.0 21:1.0 195:1.0 230:1.0 416:1.0 489:1.0 596:1.0 794:1.0 977:1.0 1083:1.0 1125:1.0 1160:1.0 1167:1.0 1214:1.0 1271:1.0 1314:1.0 1315:1.0 1325:1.0 1357:1.0 1400:1.0 1937:1.0 1992:1.0 2065:1.0 2472:1.0 2508:1.0 2615:1.0 2645:1.0 2649:1.0 2764:1.0 2773:1.0 2969:1.0 3069:1.0 3146:1.0
-0.01922810616880481 2:1.0 3:1.0 21:1.0 62:1.0 88:1.0 122:1.0 138:1.0 143:1.0 230:1.0 261:1.0 270:1.0 320:1.0 333:1.0 351:1.0 416:1.0 489:1.0 503:1.0 579:1.0 582:1.0 625:1.0 672:1.0 688:1.0 794:1.0 822:1.0 858:1.0 863:1.0 913:1.0 1046:1.0 1054:1.0 1066:1.0 1083:1.0 1087:1.0 1098:1.0 1109:1.0 1160:1.0 1167:1.0 1170:1.0 1175:1.0 1195:1.0 1210:1.0 1214:1.0 1271:1.0 1302:1.0 1314:1.0 1325:1.0 1330:1.0 1358:1.0 1381:1.0 1396:1.0 1398:1.0 1400:1.0 1402:1.0 1455:1.0 1629:1.0 2039:1.0 2067:1.0 2194:1.0 2221:1.0 2317:1.0 2381:1.0 2438:1.0 2452:1.0 2461:1.0 2472:1.0 2513:1.0 2535:1.0 2609:1.0 2637:1.0 2644:1.0 2649:1.0 2699:1.0 2741:1.0 2783:1.0 2836:1.0 2966:1.0 3036:1.0 3076:1.0 3082:1.0 3146:1.0 3221:1.0 3315:1.0
-0.029589106101068127 3:1.0 93:1.0 129:1.0 131:1.0 132:1.0 133:1.0 190:1.0 240:1.0 251:1.0 326:1.0 351:1.0 367:1.0 440:1.0 546:1.0 589:1.0 630:1.0 721:1.0 771:1.0 785:1.0 882:1.0 899:1.0 913:1.0 916:1.0 962:1.0 1023:1.0 1032:1.0 1040:1.0 1051:1.0 1089:1.0 1108:1.0 1109:1.0 1145:1.0 1166:1.0 1167:1.0 1170:1.0 1188:1.0 1261:1.0 1325:1.0 1332:1.0 1337:1.0 1347:1.0 1358:1.0 1382:1.0 1387:1.0 1388:1.0 1393:1.0 1412:1.0 1420:1.0 1451:1.0 1680:1.0 1908:1.0 1945:1.0 2152:1.0 2364:1.0 2461:1.0 2472:1.0 2493:1.0 2513:1.0 2606:1.0 2609:1.0 2649:1.0 2719:1.0 2741:1.0 2754:1.0 2773:1.0 2783:1.0 2822:1.0 2924:1.0 2929:1.0 3036:1.0 3066:1.0 3084:1.0 3146:1.0 3221:1.0 3231:1.0 3237:1.0 3333:1.0
-0.034213513001103465 3:1.0 21:1.0 44:1.0 88:1.0 93:1.0 131:1.0 175:1.0 230:1.0 240:1.0 256:1.0 269:1.0 328:1.0 488:1.0 640:1.0 660:1.0 721:1.0 782:1.0 906:1.0 1021:1.0 1023:1.0 1083:1.0 1090:1.0 1108:1.0 1114:1.0 1124:1.0 1155:1.0 1166:1.0 1170:1.0 1211:1.0 1214:1.0 1261:1.0 1264:1.0 1315:1.0 1325:1.0 1330:1.0 1358:1.0 1382:1.0 1393:1.0 1433:1.0 1451:1.0 1591:1.0 1769:1.0 1772:1.0 1861:1.0 1954:1.0 2204:1.0 2317:1.0 2364:1.0 2398:1.0 2423:1.0 2518:1.0 2523:1.0 2649:1.0 2688:1.0 2716:1.0 2932:1.0 3007:1.0 3028:1.0 3146:1.0 3221:1.0 3286:1.0 3315:1.0
-0.01221317821426104 11:1.0 12:1.0 48:1.0 53:1.0 195:1.0 351:1.0 465:1.0 542:1.0 598:1.0 867:1.0 911:1.0 1062:1.0 1071:1.0 1091:1.0 1109:1.0 1114:1.0 1241:1.0 1250:1.0 1260:1.0 1271:1.0 1307:1.0 1314:1.0 1358:1.0 1367:1.0 1400:1.0 1792:1.0 1984:1.0 2276:1.0 2371:1.0 2408:1.0 2472:1.0 2542:1.0 2609:1.0 2783:1.0 2893:1.0 3117:1.0 3146:1.0 3278:1.0 3284:1.0 3315:1.0
0.012265748504318025 1:1.0 240:1.0 251:1.0 682:1.0 721:1.0 781:1.0 994:1.0 1023:1.0 1062:1.0 1108:1.0 1261:1.0 1382:1.0 1412:1.0 1436:1.0 1920:1.0 1981:1.0 2364:1.0 2873:1.0 3146:1.0 3285:1.0 3303:1.0
0.0019522761214796707 1:1.0 39:1.0 357:1.0 523:1.0 547:1.0 689:1.0 839:1.0 955:1.0 1033:1.0 1062:1.0 1101:1.0 1160:1.0 1244:1.0 1263:1.0 1327:1.0 1391:1.0 1412:1.0 1426:1.0 2145:1.0 2373:1.0 2580:1.0 2609:1.0 2815:1.0 2855:1.0 2873:1.0 3146:1.0
0.034213513001103465 51:1.0 83:1.0 93:1.0 164:1.0 277:1.0 288:1.0 328:1.0 543:1.0 547:1.0 689:1.0 935:1.0 1033:1.0 1071:1.0 1101:1.0 1109:1.0 1124:1.0 1160:1.0 1292:1.0 1314:1.0 1358:1.0 1362:1.0 1391:1.0 1393:1.0 1487:1.0 1693:1.0 1723:1.0 2202:1.0 2244:1.0 2407:1.0 2441:1.0 2461:1.0 2472:1.0 2485:1.0 2517:1.0 2873:1.0 3046:1.0 3146:1.0 3315:1.0 3339:1.0
0.034213513001103465 1:1.0 5:1.0 524:1.0 543:1.0 547:1.0 689:1.0 748:1.0 781:1.0 896:1.0 1016:1.0 1033:1.0 1062:1.0 1101:1.0 1160:1.0 1261:1.0 1268:1.0 1292:1.0 1391:1.0 2494:1.0 2764:1.0 3107:1.0 3144:1.0 3146:1.0 3339:1.0
0.024358572285470212 1:1.0 141:1.0 245:1.0 486:1.0 523:1.0 538:1.0 543:1.0 717:1.0 810:1.0 948:1.0 965:1.0 1033:1.0 1062:1.0 1075:1.0 1160:1.0 1226:1.0 1244:1.0 1293:1.0 1391:1.0 1402:1.0 1881:1.0 2408:1.0 2518:1.0 2830:1.0 3125:1.0 3146:1.0 3221:1.0 3335:1.0
-0.034213513001103465 83:1.0 217:1.0 231:1.0 245:1.0 543:1.0 1033:1.0 1071:1.0 1160:1.0 1244:1.0 1362:1.0 1391:1.0 2437:1.0 3084:1.0 3134:1.0 3146:1.0 3159:1.0
-0.034213513001103465 1:1.0 412:1.0 708:1.0 1062:1.0 1143:1.0 1200:1.0 1244:1.0 1948:1.0 2480:1.0 3066:1.0 3146:1.0 3212:1.0
-0.034213513001103465 1:1.0 217:1.0 245:1.0 352:1.0 462:1.0 523:1.0 800:1.0 898:1.0 1033:1.0 1062:1.0 1104:1.0 1109:1.0 1127:1.0 1160:1.0 1244:1.0 1312:1.0 1343:1.0 1907:1.0 2276:1.0 2522:1.0 2895:1.0 3144:1.0 3146:1.0 3278:1.0 3285:1.0 3315:1.0
-0.034213513001103465 147:1.0 543:1.0 547:1.0 689:1.0 1033:1.0 1101:1.0 1160:1.0 1391:1.0 1422:1.0 2510:1.0 2797:1.0 3146:1.0
-0.034213513001103465 1:1.0 1062:1.0 1415:1.0 1777:1.0 2372:1.0 3146:1.0
0.021972432218512687 21:1.0 22:1.0 230:1.0 272:1.0 350:1.0 441:1.0 530:1.0 532:1.0 614:1.0 627:1.0 644:1.0 688:1.0 702:1.0 710:1.0 795:1.0 843:1.0 904:1.0 925:1.0 966:1.0 1023:1.0 1063:1.0 1064:1.0 1071:1.0 1083:1.0 1096:1.0 1104:1.0 1125:1.0 1127:1.0 1148:1.0 1160:1.0 1170:1.0 1176:1.0 1184:1.0 1205:1.0 1214:1.0 1225:1.0 1252:1.0 1273:1.0 1325:1.0 1347:1.0 1356:1.0 1358:1.0 1362:1.0 1367:1.0 1381:1.0 1382:1.0 1392:1.0 1400:1.0 1406:1.0 1413:1.0 1419:1.0 1698:1.0 1721:1.0 1825:1.0 2224:1.0 2267:1.0 2364:1.0 2444:1.0 2461:1.0 2494:1.0 2513:1.0 2643:1.0 2649:1.0 2680:1.0 2705:1.0 2711:1.0 2719:1.0 2789:1.0 2866:1.0 2904:1.0 2918:1.0 2997:1.0 3146:1.0 3221:1.0 3261:1.0 3284:1.0 3315:1.0
0.034213513001103465 2:1.0 3:1.0 21:1.0 88:1.0 122:1.0 143:1.0 230:1.0 272:1.0 371:1.0 574:1.0 899:1.0 1057:1.0 1083:1.0 1087:1.0 1188:1.0 1214:1.0 1273:1.0 1325:1.0 1330:1.0 1332:1.0 1358:1.0 1402:1.0 1420:1.0 1629:1.0 1745:1.0 1825:1.0 2039:1.0 2317:1.0 2461:1.0 2550:1.0 2649:1.0 2820:1.0 2987:1.0 2997:1.0 3146:1.0 3160:1.0 3221:1.0 3315:1.0
0.034213513001103465 93:1.0 122:1.0 123:1.0 351:1.0 486:1.0 882:1.0 913:1.0 962:1.0 1040:1.0 1051:1.0 1109:1.0 1167:1.0 1226:1.0 1358:1.0 1393:1.0 1400:1.0 1402:1.0 1680:1.0 1797:1.0 1843:1.0 1862:1.0 2370:1.0 2461:1.0 2472:1.0 2540:1.0 2619:1.0 3058:1.0 3066:1.0 3146:1.0 3159:1.0 3221:1.0
0.003974287596398619 1:1.0 3:1.0 21:1.0 71:1.0 88:1.0 146:1.0 195:1.0 230:1.0 300:1.0 374:1.0 489:1.0 733:1.0 794:1.0 965:1.0 1062:1.0 1083:1.0 1160:1.0 1214:1.0 1240:1.0 1243:1.0 1270:1.0 1271:1.0 1290:1.0 1314:1.0 1325:1.0 1330:1.0 1402:1.0 1420:1.0 1759:1.0 1874:1.0 1980:1.0 2393:1.0 2408:1.0 2461:1.0 2476:1.0 2542:1.0 2649:1.0 2654:1.0 2659:1.0 2921:1.0 3146:1.0 3221:1.0 3243:1.0
-0.01287490088457924 2:1.0 3:1.0 14:1.0 97:1.0 143:1.0 230:1.0 272:1.0 364:1.0 509:1.0 652:1.0 1066:1.0 1083:1.0 1087:1.0 1153:1.0 1157:1.0 1196:1.0 1202:1.0 1273:1.0 1325:1.0 1330:1.0 1358:1.0 1430:1.0 1825:1.0 2039:1.0 2400:1.0 2461:1.0 2651:1.0 2785:1.0 2805:1.0 2997:1.0 3146:1.0 3258:1.0 3315:1.0
-0.006630513433822786 2:1.0 3:1.0 350:1.0 351:1.0 554:1.0 630:1.0 653:1.0 659:1.0 766:1.0 789:1.0 899:1.0 913:1.0 1013:1.0 1040:1.0 1097:1.0 1109:1.0 1167:1.0 1188:1.0 1224:1.0 1276:1.0 1287:1.0 1358:1.0 1419:1.0 1420:1.0 1858:1.0 1862:1.0 2094:1.0 2198:1.0 2360:1.0 2461:1.0 2540:1.0 2664:1.0 2674:1.0 2987:1.0 2997:1.0 3146:1.0 3212:1.0 3258:1.0 3284:1.0
-0.034162677734244126 288:1.0 547:1.0 577:1.0 599:1.0 758:1.0 831:1.0 966:1.0 1062:1.0 1068:1.0 1101:1.0 1160:1.0 1302:1.0 1307:1.0 1314:1.0 1358:1.0 1400:1.0 1626:1.0 1707:1.0 1772:1.0 2020:1.0 2209:1.0 2461:1.0 2472:1.0 2581:1.0 2871:1.0 3146:1.0 3185:1.0 3296:1.0 3315:1.0
-0.007806385856903941 60:1.0 193:1.0 266:1.0 277:1.0 311:1.0 351:1.0 389:1.0 400:1.0 477:1.0 489:1.0 538:1.0 599:1.0 603:1.0 621:1.0 630:1.0 753:1.0 754:1.0 826:1.0 833:1.0 868:1.0 913:1.0 965:1.0 1022:1.0 1040:1.0 1044:1.0 1060:1.0 1066:1.0 1068:1.0 1075:1.0 1088:1.0 1094:1.0 1100:1.0 1109:1.0 1111:1.0 1135:1.0 1157:1.0 1160:1.0 1167:1.0 1207:1.0 1230:1.0 1236:1.0 1277:1.0 1294:1.0 1314:1.0 1322:1.0 1357:1.0 1358:1.0 1371:1.0 1402:1.0 1431:1.0 1805:1.0 1813:1.0 1825:1.0 1862:1.0 1881:1.0 1906:1.0 2067:1.0 2107:1.0 2190:1.0 2332:1.0 2351:1.0 2356:1.0 2390:1.0 2401:1.0 2408:1.0 2439:1.0 2461:1.0 2476:1.0 2491:1.0 2540:1.0 2637:1.0 2719:1.0 2805:1.0 2888:1.0 2916:1.0 2967:1.0 2987:1.0 2997:1.0 3098:1.0 3146:1.0 3160:1.0 3167:1.0 3221:1.0 3268:1.0 3339:1.0
0.013654564394689133 5:1.0 235:1.0 243:1.0 289:1.0 531:1.0 855:1.0 1023:1.0 1031:1.0 1168:1.0 1362:1.0 1382:1.0 1391:1.0 1440:1.0 1492:1.0 1566:1.0 1666:1.0 1777:1.0 1923:1.0 1960:1.0 2082:1.0 2364:1.0 2688:1.0 3129:1.0 3146:1.0 3303:1.0
0.034213513001103465 5:1.0 294:1.0 856:1.0 1149:1.0 1236:1.0 1285:1.0 1293:1.0 1346:1.0 1357:1.0 1371:1.0 2364:1.0 2408:1.0 2415:1.0 2638:1.0 3134:1.0 3146:1.0 3218:1.0
0.034213513001103465 642:1.0 1212:1.0 1312:1.0 1357:1.0 1419:1.0 2448:1.0 3146:1.0 3284:1.0
0.034213513001103465 5:1.0 235:1.0 243:1.0 289:1.0 531:1.0 855:1.0 1023:1.0 1031:1.0 1168:1.0 1362:1.0 1382:1.0 1391:1.0 1440:1.0 1492:1.0 1566:1.0 1666:1.0 1777:1.0 1960:1.0 2082:1.0 2364:1.0 2583:1.0 3129:1.0 3146:1.0 3303:1.0
0.034213513001103465 5:1.0 235:1.0 243:1.0 289:1.0 531:1.0 855:1.0 1023:1.0 1031:1.0 1168:1.0 1362:1.0 1382:1.0 1391:1.0 1440:1.0 1492:1.0 1566:1.0 1666:1.0 1777:1.0 1960:1.0 2082:1.0 2364:1.0 2772:1.0 3129:1.0 3146:1.0 3303:1.0
-0.034213513001103465 243:1.0 289:1.0 531:1.0 552:1.0 1011:1.0 1023:1.0 1031:1.0 1168:1.0 1324:1.0 1382:1.0 1391:1.0 1426:1.0 2102:1.0 2364:1.0 2940:1.0 3146:1.0 3247:1.0 3320:1.0
-0.02314182139636059 3:1.0 50:1.0 115:1.0 181:1.0 295:1.0 345:1.0 572:1.0 810:1.0 1023:1.0 1180:1.0 1226:1.0 1242:1.0 1260:1.0 1362:1.0 1377:1.0 1400:1.0 1402:1.0 1423:1.0 1712:1.0 2007:1.0 2364:1.0 2674:1.0 2680:1.0 2741:1.0 3032:1.0 3060:1.0 3146:1.0 3221:1.0
-0.02975151773040926 16:1.0 486:1.0 543:1.0 575:1.0 588:1.0 740:1.0 973:1.0 1033:1.0 1104:1.0 1115:1.0 1160:1.0 1167:1.0 1194:1.0 1226:1.0 1268:1.0 1272:1.0 1315:1.0 1341:1.0 1357:1.0 1391:1.0 1402:1.0 2582:1.0 2604:1.0 2713:1.0 3146:1.0 3169:1.0 3221:1.0 3222:1.0 3278:1.0 3314:1.0 3336:1.0
-0.034213513001103465 5:1.0 253:1.0 429:1.0 520:1.0 817:1.0 868:1.0 1040:1.0 1223:1.0 1236:1.0 1294:1.0 1333:1.0 1357:1.0 1391:1.0 1454:1.0 2318:1.0 2898:1.0 2997:1.0 3146:1.0 3160:1.0 3314:1.0
-0.019049395432363433 22:1.0 104:1.0 181:1.0 642:1.0 659:1.0 921:1.0 1013:1.0 1023:1.0 1125:1.0 1242:1.0 1260:1.0 1287:1.0 1357:1.0 1419:1.0 1420:1.0 2085:1.0 2364:1.0 2550:1.0 2741:1.0 2951:1.0 3146:1.0 3284:1.0
0.034213513001103465 1:1.0 3:1.0 16:1.0 30:1.0 123:1.0 169:1.0 351:1.0 416:1.0 480:1.0 489:1.0 637:1.0 713:1.0 764:1.0 1014:1.0 1062:1.0 1109:1.0 1160:1.0 1167:1.0 1173:1.0 1314:1.0 1315:1.0 1328:1.0 1358:1.0 1393:1.0 1400:1.0 1412:1.0 2035:1.0 2472:1.0 2522:1.0 2540:1.0 2611:1.0 2736:1.0 2884:1.0 2954:1.0 3002:1.0 3076:1.0 3079:1.0 3146:1.0 3339:1.0
-0.030071719833776225 1:1.0 262:1.0 781:1.0 1062:1.0 1191:1.0 1226:1.0 1261:1.0 1385:1.0 1444:1.0 1509:1.0 1918:1.0 2277:1.0 2649:1.0 3146:1.0 3221:1.0 3315:1.0
0.034213513001103465 150:1.0 509:1.0 768:1.0 1062:1.0 1140:1.0 1157:1.0 1259:1.0 1358:1.0 1400:1.0 2264:1.0 2646:1.0 3146:1.0
0.015557381618816488 5:1.0 9:1.0 93:1.0 138:1.0 183:1.0 194:1.0 270:1.0 277:1.0 502:1.0 691:1.0 768:1.0 800:1.0 875:1.0 898:1.0 1062:1.0 1066:1.0 1104:1.0 1109:1.0 1127:1.0 1157:1.0 1175:1.0 1258:1.0 1271:1.0 1314:1.0 1343:1.0 1358:1.0 1393:1.0 1396:1.0 1398:1.0 1400:1.0 1416:1.0 1559:1.0 1627:1.0 1876:1.0 1880:1.0 1982:1.0 2049:1.0 2051:1.0 2074:1.0 2220:1.0 2229:1.0 2438:1.0 2461:1.0 2501:1.0 2616:1.0 2898:1.0 2919:1.0 2992:1.0 3033:1.0 3144:1.0 3146:1.0 3163:1.0 3192:1.0 3315:1.0
-0.009190013784218272 144:1.0 224:1.0 272:1.0 446:1.0 620:1.0 623:1.0 630:1.0 710:1.0 946:1.0 1070:1.0 1071:1.0 1096:1.0 1167:1.0 1214:1.0 1249:1.0 1273:1.0 1283:1.0 1325:1.0 1358:1.0 1436:1.0 1772:1.0 1825:1.0 2206:1.0 2427:1.0 2461:1.0 2749:1.0 2847:1.0 2866:1.0 2997:1.0 3146:1.0 3214:1.0 3316:1.0
-0.030998481335176145 51:1.0 70:1.0 93:1.0 123:1.0 183:1.0 321:1.0 443:1.0 590:1.0 687:1.0 770:1.0 1026:1.0 1060:1.0 1061:1.0 1071:1.0 1081:1.0 1236:1.0 1249:1.0 1335:1.0 1357:1.0 1358:1.0 1393:1.0 1396:1.0 1400:1.0 2228:1.0 2259:1.0 2402:1.0 2461:1.0 2509:1.0 2749:1.0 2790:1.0 2946:1.0 2966:1.0 3032:1.0 3139:1.0 3146:1.0 3252:1.0
-0.034213513001103465 51:1.0 83:1.0 93:1.0 588:1.0 630:1.0 966:1.0 1003:1.0 1071:1.0 1160:1.0 1167:1.0 1268:1.0 1358:1.0 1362:1.0 1393:1.0 1400:1.0 1772:1.0 1908:1.0 2149:1.0 2207:1.0 2429:1.0 2472:1.0 2712:1.0 2749:1.0 2773:1.0 3146:1.0 3212:1.0
-0.034213513001103465 1:1.0 5:1.0 101:1.0 200:1.0 400:1.0 588:1.0 627:1.0 768:1.0 781:1.0 1062:1.0 1157:1.0 1160:1.0 1261:1.0 1268:1.0 1367:1.0 1381:1.0 1400:1.0 1509:1.0 1757:1.0 1918:1.0 2277:1.0 2558:1.0 2649:1.0 2924:1.0 3043:1.0 3120:1.0 3146:1.0 3278:1.0 3315:1.0
-0.024657700884956307 5:1.0 351:1.0 489:1.0 498:1.0 672:1.0 774:1.0 953:1.0 966:1.0 1062:1.0 1104:1.0 1109:1.0 1115:1.0 1160:1.0 1307:1.0 1314:1.0 1340:1.0 1353:1.0 1358:1.0 1396:1.0 1400:1.0 1922:1.0 2018:1.0 2049:1.0 2294:1.0 2461:1.0 2472:1.0 2898:1.0 3043:1.0 3082:1.0 3146:1.0 3182:1.0 3252:1.0
0.034213513001103465 162:1.0 233:1.0 243:1.0 341:1.0 524:1.0 543:1.0 547:1.0 689:1.0 1003:1.0 1023:1.0 1031:1.0 1033:1.0 1101:1.0 1157:1.0 1160:1.0 1167:1.0 1168:1.0 1268:1.0 1357:1.0 1391:1.0 2045:1.0 2364:1.0 2378:1.0 2490:1.0 2580:1.0 2609:1.0 2978:1.0 3146:1.0 3278:1.0
0.034213513001103465 3:1.0 54:1.0 268:1.0 463:1.0 563:1.0 931:1.0 1022:1.0 1214:1.0 1236:1.0 1321:1.0 1325:1.0 1339:1.0 1357:1.0 1412:1.0 1427:1.0 1443:1.0 1822:1.0 1857:1.0 2002:1.0 2649:1.0 2674:1.0 2773:1.0 2815:1.0 2908:1.0 3146:1.0 3315:1.0
0.034213513001103465 543:1.0 644:1.0 888:1.0 1033:1.0 1064:1.0 1069:1.0 1160:1.0 1352:1.0 1391:1.0 1422:1.0 1643:1.0 2089:1.0 2283:1.0 2364:1.0 2368:1.0 2889:1.0 3146:1.0
0.034213513001103465 75:1.0 128:1.0 217:1.0 245:1.0 313:1.0 419:1.0 543:1.0 796:1.0 1033:1.0 1040:1.0 1156:1.0 1160:1.0 1236:1.0 1244:1.0 1245:1.0 1357:1.0 1391:1.0 1818:1.0 2374:1.0 2479:1.0 2550:1.0 2730:1.0 2986:1.0 2997:1.0 3146:1.0 3320:1.0
-0.025894184378960072 3:1.0 5:1.0 15:1.0 447:1.0 456:1.0 543:1.0 607:1.0 609:1.0 622:1.0 644:1.0 843:1.0 869:1.0 888:1.0 890:1.0 962:1.0 1008:1.0 1023:1.0 1033:1.0 1040:1.0 1059:1.0 1064:1.0 1069:1.0 1096:1.0 1102:1.0 1106:1.0 1107:1.0 1143:1.0 1160:1.0 1166:1.0 1170:1.0 1185:1.0 1262:1.0 1297:1.0 1326:1.0 1347:1.0 1352:1.0 1357:1.0 1371:1.0 1373:1.0 1381:1.0 1391:1.0 1393:1.0 1439:1.0 1789:1.0 1800:1.0 1862:1.0 1924:1.0 2295:1.0 2311:1.0 2365:1.0 2393:1.0 2410:1.0 2423:1.0 2492:1.0 2535:1.0 2540:1.0 2654:1.0 2668:1.0 2674:1.0 2773:1.0 2784:1.0 2815:1.0 2898:1.0 2940:1.0 2997:1.0 3146:1.0 3191:1.0 3212:1.0 3214:1.0 3261:1.0 3268:1.0 3276:1.0 3284:1.0
-0.030154900707144376 59:1.0 128:1.0 155:1.0 164:1.0 277:1.0 489:1.0 565:1.0 669:1.0 703:1.0 780:1.0 791:1.0 923:1.0 966:1.0 997:1.0 1017:1.0 1023:1.0 1033:1.0 1040:1.0 1057:1.0 1074:1.0 1109:1.0 1156:1.0 1160:1.0 1161:1.0 1163:1.0 1174:1.0 1181:1.0 1284:1.0 1292:1.0 1309:1.0 1314:1.0 1331:1.0 1344:1.0 1400:1.0 1693:1.0 1781:1.0 1805:1.0 2011:1.0 2174:1.0 2202:1.0 2298:1.0 2364:1.0 2390:1.0 2503:1.0 2522:1.0 2587:1.0 2689:1.0 2908:1.0 2918:1.0 2938:1.0 2997:1.0 3046:1.0 3084:1.0 3146:1.0 3268:1.0 3284:1.0 3322:1.0 3339:1.0
-0.034213513001103465 156:1.0 277:1.0 454:1.0 489:1.0 543:1.0 655:1.0 1033:1.0 1109:1.0 1160:1.0 1234:1.0 1314:1.0 1357:1.0 1391:1.0 1412:1.0 1685:1.0 2537:1.0 2668:1.0 3144:1.0 3146:1.0 3267:1.0
-0.034213513001103465 5:1.0 128:1.0 410:1.0 753:1.0 936:1.0 1040:1.0 1156:1.0 1230:1.0 1357:1.0 1436:1.0 1736:1.0 2245:1.0 2930:1.0 2997:1.0 3146:1.0 3172:1.0 3339:1.0
0.032129709387943836 24:1.0 51:1.0 351:1.0 608:1.0 672:1.0 747:1.0 852:1.0 911:1.0 940:1.0 966:1.0 1061:1.0 1062:1.0 1071:1.0 1104:1.0 1109:1.0 1128:1.0 1160:1.0 1174:1.0 1219:1.0 1258:1.0 1300:1.0 1332:1.0 1355:1.0 1358:1.0 1367:1.0 1393:1.0 1396:1.0 1400:1.0 1423:1.0 1568:1.0 1627:1.0 1632:1.0 1674:1.0 1875:1.0 1982:1.0 2051:1.0 2140:1.0 2186:1.0 2395:1.0 2457:1.0 2461:1.0 2542:1.0 2556:1.0 2571:1.0 2595:1.0 2706:1.0 2773:1.0 2846:1.0 2939:1.0 3146:1.0 3163:1.0 3221:1.0 3315:1.0
0.034213513001103465 588:1.0 740:1.0 966:1.0 1003:1.0 1160:1.0 1167:1.0 1268:1.0 1357:1.0 1400:1.0 2385:1.0 2571:1.0 2668:1.0 3090:1.0 3146:1.0
0.034213513001103465 155:1.0 295:1.0 484:1.0 721:1.0 747:1.0 1023:1.0 1062:1.0 1104:1.0 1108:1.0 1174:1.0 1258:1.0 1261:1.0 1331:1.0 1382:1.0 1400:1.0 1464:1.0 1532:1.0 1664:1.0 2000:1.0 2051:1.0 2364:1.0 2402:1.0 2450:1.0 3082:1.0 3146:1.0 3315:1.0
0.034213513001103465 3:1.0 83:1.0 160:1.0 226:1.0 270:1.0 315:1.0 336:1.0 559:1.0 569:1.0 858:1.0 964:1.0 1066:1.0 1070:1.0 1071:1.0 1199:1.0 1201:1.0 1207:1.0 1220:1.0 1294:1.0 1318:1.0 1329:1.0 1334:1.0 1358:1.0 1362:1.0 1404:1.0 1454:1.0 1455:1.0 1777:1.0 1852:1.0 1960:1.0 2079:1.0 2408:1.0 2461:1.0 2491:1.0 2597:1.0 2735:1.0 2966:1.0 3146:1.0 3237:1.0 3286:1.0 3303:1.0 3332:1.0
0.034213513001103465 129:1.0 444:1.0 521:1.0 527:1.0 686:1.0 916:1.0 947:1.0 1068:1.0 1090:1.0 1167:1.0 1170:1.0 1337:1.0 1357:1.0 1358:1.0 1384:1.0 1388:1.0 2042:1.0 2306:1.0 2340:1.0 2472:1.0 2741:1.0 2798:1.0 3040:1.0 3143:1.0 3146:1.0 3218:1.0 3278:1.0
-0.029414299526411825 2:1.0 3:1.0 8:1.0 155:1.0 194:1.0 246:1.0 267:1.0 271:1.0 375:1.0 405:1.0 484:1.0 592:1.0 597:1.0 766:1.0 949:1.0 1014:1.0 1023:1.0 1046:1.0 1091:1.0 1104:1.0 1107:1.0 1126:1.0 1127:1.0 1148:1.0 1173:1.0 1174:1.0 1224:1.0 1241:1.0 1276:1.0 1315:1.0 1318:1.0 1331:1.0 1349:1.0 1358:1.0 1382:1.0 1391:1.0 1392:1.0 1396:1.0 1729:1.0 1819:1.0 1846:1.0 2094:1.0 2134:1.0 2213:1.0 2365:1.0 2408:1.0 2540:1.0 2674:1.0 2731:1.0 2740:1.0 2765:1.0 2815:1.0 2918:1.0 3044:1.0 3146:1.0 3315:1.0 3348:1.0
-0.034213513001103465 267:1.0 405:1.0 604:1.0 671:1.0 685:1.0 1014:1.0 1032:1.0 1062:1.0 1173:1.0 1259:1.0 1290:1.0 1315:1.0 1420:1.0 2304:1.0 2692:1.0 2716:1.0 3141:1.0 3146:1.0 3221:1.0
-0.00398668389928084 13:1.0 15:1.0 93:1.0 264:1.0 270:1.0 351:1.0 378:1.0 405:1.0 442:1.0 511:1.0 672:1.0 962:1.0 1019:1.0 1040:1.0 1062:1.0 1066:1.0 1096:1.0 1109:1.0 1173:1.0 1223:1.0 1307:1.0 1315:1.0 1316:1.0 1358:1.0 1391:1.0 1393:1.0 1396:1.0 1456:1.0 1475:1.0 1586:1.0 1626:1.0 1707:1.0 1772:1.0 2072:1.0 2149:1.0 2198:1.0 2209:1.0 2290:1.0 2421:1.0 2426:1.0 2472:1.0 2537:1.0 2540:1.0 2781:1.0 2997:1.0 3146:1.0 3190:1.0 3212:1.0 3278:1.0 3315:1.0
-0.012017043060924413 73:1.0 134:1.0 267:1.0 317:1.0 370:1.0 379:1.0 405:1.0 522:1.0 602:1.0 654:1.0 667:1.0 684:1.0 1014:1.0 1018:1.0 1032:1.0 1066:1.0 1072:1.0 1075:1.0 1104:1.0 1115:1.0 1157:1.0 1173:1.0 1226:1.0 1241:1.0 1315:1.0 1340:1.0 1357:1.0 1391:1.0 1429:1.0 1455:1.0 1881:1.0 2408:1.0 2482:1.0 2500:1.0 2556:1.0 2575:1.0 2596:1.0 2716:1.0 2868:1.0 2869:1.0 2916:1.0 3082:1.0 3107:1.0 3146:1.0 3221:1.0 3297:1.0
-0.034213513001103465 211:1.0 334:1.0 977:1.0 1029:1.0 1315:1.0 1357:1.0 1358:1.0 1396:1.0 1400:1.0 1412:1.0 2668:1.0 2675:1.0 2801:1.0 2869:1.0 3146:1.0
-0.008977272961806428 172:1.0 211:1.0 351:1.0 402:1.0 415:1.0 416:1.0 672:1.0 913:1.0 1109:1.0 1160:1.0 1167:1.0 1268:1.0 1295:1.0 1358:1.0 1362:1.0 1371:1.0 1396:1.0 1412:1.0 1866:1.0 2415:1.0 2461:1.0 2471:1.0 2540:1.0 2683:1.0 2781:1.0 2919:1.0 3082:1.0 3146:1.0 3239:1.0
0.012503363457874587 1:1.0 30:1.0 480:1.0 489:1.0 966:1.0 1062:1.0 1160:1.0 1314:1.0 1393:1.0 1400:1.0 1472:1.0 1843:1.0 1891:1.0 2299:1.0 2472:1.0 2769:1.0 2897:1.0 3146:1.0 3172:1.0
-0.02031609446839816 3:1.0 131:1.0 326:1.0 399:1.0 509:1.0 600:1.0 768:1.0 773:1.0 873:1.0 1050:1.0 1154:1.0 1157:1.0 1166:1.0 1261:1.0 1283:1.0 1358:1.0 1400:1.0 1451:1.0 1772:1.0 2152:1.0 2208:1.0 2395:1.0 2428:1.0 2493:1.0 2929:1.0 2933:1.0 3121:1.0 3146:1.0 3341:1.0
0.013849382791151794 1:1.0 93:1.0 350:1.0 480:1.0 659:1.0 910:1.0 921:1.0 1013:1.0 1062:1.0 1090:1.0 1260:1.0 1287:1.0 1358:1.0 1384:1.0 1393:1.0 1419:1.0 1472:1.0 1843:1.0 2006:1.0 2270:1.0 2299:1.0 2472:1.0 2649:1.0 2847:1.0 3146:1.0 3172:1.0 3284:1.0 3320:1.0
0.034213513001103465 489:1.0 599:1.0 686:1.0 966:1.0 1068:1.0 1160:1.0 1314:1.0 1357:1.0 1400:1.0 2450:1.0 2461:1.0 2787:1.0 3146:1.0 3326:1.0
-0.034213513001103465 123:1.0 126:1.0 145:1.0 167:1.0 270:1.0 321:1.0 344:1.0 351:1.0 529:1.0 858:1.0 913:1.0 1023:1.0 1062:1.0 1066:1.0 1109:1.0 1167:1.0 1175:1.0 1254:1.0 1274:1.0 1335:1.0 1358:1.0 1398:1.0 1400:1.0 1448:1.0 1455:1.0 1458:1.0 2364:1.0 2424:1.0 2472:1.0 2550:1.0 2699:1.0 2791:1.0 2894:1.0 3146:1.0 3196:1.0 3272:1.0
-0.034213513001103465 123:1.0 527:1.0 686:1.0 1068:1.0 1357:1.0 1358:1.0 1400:1.0 2461:1.0 2930:1.0 2941:1.0 3146:1.0
-0.023649494954468546 288:1.0 421:1.0 509:1.0 547:1.0 599:1.0 758:1.0 831:1.0 966:1.0 1062:1.0 1068:1.0 1101:1.0 1157:1.0 1160:1.0 1302:1.0 1307:1.0 1314:1.0 1358:1.0 1400:1.0 1772:1.0 2173:1.0 2209:1.0 2450:1.0 2472:1.0 2480:1.0 2522:1.0 2571:1.0 3146:1.0 3315:1.0
0.034213513001103465 98:1.0 176:1.0 1043:1.0 1058:1.0 1173:1.0 1206:1.0 1332:1.0 1436:1.0 1948:1.0 2540:1.0 2744:1.0 3066:1.0 3146:1.0 3221:1.0
0.034213513001103465 8:1.0 375:1.0 518:1.0 597:1.0 654:1.0 1032:1.0 1194:1.0 1226:1.0 1234:1.0 1241:1.0 1318:1.0 1349:1.0 1357:1.0 1391:1.0 2408:1.0 2790:1.0 3146:1.0 3221:1.0
0.034213513001103465 151:1.0 1357:1.0 1400:1.0 3146:1.0
0.034213513001103465 8:1.0 16:1.0 63:1.0 277:1.0 367:1.0 375:1.0 416:1.0 489:1.0 752:1.0 764:1.0 899:1.0 1014:1.0 1032:1.0 1109:1.0 1143:1.0 1160:1.0 1167:1.0 1188:1.0 1241:1.0 1264:1.0 1314:1.0 1315:1.0 1318:1.0 1332:1.0 1349:1.0 1420:1.0 1761:1.0 1792:1.0 2372:1.0 2408:1.0 2472:1.0 2529:1.0 2773:1.0 2890:1.0 2935:1.0 2990:1.0 3116:1.0 3146:1.0 3221:1.0 3257:1.0 3291:1.0
-0.014169386411132343 304:1.0 416:1.0 417:1.0 608:1.0 826:1.0 1135:1.0 1160:1.0 1167:1.0 1189:1.0 1236:1.0 1319:1.0 1355:1.0 1357:1.0 2215:1.0 2401:1.0 2659:1.0 2741:1.0 2768:1.0 3023:1.0 3061:1.0 3132:1.0 3146:1.0
-0.034213513001103465 463:1.0 563:1.0 1236:1.0 1321:1.0 1357:1.0 1391:1.0 1427:1.0 3146:1.0 3172:1.0 3267:1.0
-0.0033124654996744547 367:1.0 1032:1.0 1058:1.0 1090:1.0 1294:1.0 1332:1.0 1452:1.0 2222:1.0 2371:1.0 2768:1.0 3084:1.0 3136:1.0 3146:1.0 3221:1.0 3315:1.0
-0.034213513001103465 45:1.0 1234:1.0 1357:1.0 1391:1.0 3146:1.0 3218:1.0
-0.02735178344857894 203:1.0 521:1.0 891:1.0 1090:1.0 1114:1.0 1170:1.0 1384:1.0 1422:1.0 2529:1.0 2716:1.0 2798:1.0 3146:1.0
0.034213513001103465 104:1.0 329:1.0 932:1.0 1062:1.0 1117:1.0 1125:1.0 1254:1.0 1358:1.0 1420:1.0 1653:1.0 2327:1.0 2461:1.0 2688:1.0 3146:1.0 3347:1.0
0.034213513001103465 53:1.0 164:1.0 328:1.0 351:1.0 379:1.0 542:1.0 768:1.0 932:1.0 935:1.0 1062:1.0 1091:1.0 1109:1.0 1117:1.0 1124:1.0 1157:1.0 1241:1.0 1254:1.0 1292:1.0 1358:1.0 1400:1.0 1653:1.0 1674:1.0 1684:1.0 2327:1.0 2405:1.0 2410:1.0 2461:1.0 2540:1.0 2550:1.0 2733:1.0 2868:1.0 2932:1.0 3046:1.0 3146:1.0
0.034213513001103465 51:1.0 93:1.0 165:1.0 509:1.0 623:1.0 768:1.0 1062:1.0 1070:1.0 1071:1.0 1157:1.0 1258:1.0 1358:1.0 1393:1.0 1400:1.0 1927:1.0 2276:1.0 2472:1.0 2550:1.0 2969:1.0 3065:1.0 3130:1.0 3146:1.0 3315:1.0
0.02378812959687636 1:1.0 90:1.0 553:1.0 682:1.0 721:1.0 781:1.0 977:1.0 1023:1.0 1062:1.0 1066:1.0 1108:1.0 1261:1.0 1315:1.0 1343:1.0 1400:1.0 1459:1.0 2286:1.0 2364:1.0 2688:1.0 2893:1.0 3146:1.0 3268:1.0 3284:1.0 3315:1.0
0.034213513001103465 206:1.0 1104:1.0 1358:1.0 1396:1.0 1403:1.0 1415:1.0 1422:1.0 2461:1.0 2840:1.0 3146:1.0 3257:1.0 3292:1.0
-0.030390216690261873 93:1.0 123:1.0 128:1.0 369:1.0 747:1.0 776:1.0 865:1.0 962:1.0 1040:1.0 1062:1.0 1117:1.0 1138:1.0 1156:1.0 1171:1.0 1174:1.0 1190:1.0 1258:1.0 1266:1.0 1296:1.0 1323:1.0 1325:1.0 1358:1.0 1393:1.0 1400:1.0 1427:1.0 1466:1.0 1777:1.0 1878:1.0 2098:1.0 2461:1.0 2649:1.0 2777:1.0 2855:1.0 2920:1.0 2941:1.0 2997:1.0 3146:1.0 3264:1.0 3315:1.0
-0.005998489016101651 28:1.0 56:1.0 123:1.0 166:1.0 188:1.0 197:1.0 342:1.0 351:1.0 400:1.0 489:1.0 490:1.0 504:1.0 542:1.0 558:1.0 619:1.0 732:1.0 809:1.0 853:1.0 1000:1.0 1072:1.0 1091:1.0 1099:1.0 1109:1.0 1117:1.0 1151:1.0 1152:1.0 1155:1.0 1157:1.0 1160:1.0 1196:1.0 1205:1.0 1207:1.0 1262:1.0 1264:1.0 1277:1.0 1314:1.0 1325:1.0 1327:1.0 1358:1.0 1373:1.0 1400:1.0 1777:1.0 1792:1.0 1885:1.0 2024:1.0 2183:1.0 2229:1.0 2303:1.0 2372:1.0 2401:1.0 2408:1.0 2435:1.0 2461:1.0 2472:1.0 2540:1.0 2582:1.0 2651:1.0 2707:1.0 2916:1.0 3060:1.0 3146:1.0 3163:1.0 3182:1.0 3221:1.0 3259:1.0 3277:1.0 3278:1.0 3343:1.0
-0.011539356240997943 16:1.0 91:1.0 107:1.0 209:1.0 272:1.0 300:1.0 350:1.0 351:1.0 371:1.0 388:1.0 393:1.0 397:1.0 405:1.0 409:1.0 441:1.0 509:1.0 545:1.0 659:1.0 688:1.0 692:1.0 713:1.0 734:1.0 771:1.0 911:1.0 937:1.0 973:1.0 977:1.0 1013:1.0 1023:1.0 1042:1.0 1044:1.0 1071:1.0 1100:1.0 1109:1.0 1111:1.0 1157:1.0 1158:1.0 1165:1.0 1167:1.0 1170:1.0 1173:1.0 1193:1.0 1195:1.0 1207:1.0 1240:1.0 1252:1.0 1273:1.0 1283:1.0 1287:1.0 1290:1.0 1315:1.0 1332:1.0 1347:1.0 1358:1.0 1367:1.0 1381:1.0 1389:1.0 1400:1.0 1402:1.0 1417:1.0 1419:1.0 1437:1.0 1440:1.0 1513:1.0 1674:1.0 1772:1.0 1792:1.0 1875:1.0 2054:1.0 2139:1.0 2178:1.0 2260:1.0 2273:1.0 2300:1.0 2364:1.0 2408:1.0 2461:1.0 2464:1.0 2472:1.0 2488:1.0 2532:1.0 2540:1.0 2603:1.0 2773:1.0 2787:1.0 2820:1.0 2822:1.0 2823:1.0 2865:1.0 2893:1.0 2924:1.0 2947:1.0 2966:1.0 2970:1.0 2984:1.0 2997:1.0 3022:1.0 3078:1.0 3109:1.0 3146:1.0 3221:1.0 3278:1.0 3284:1.0 3316:1.0
-0.034213513001103465 1:1.0 35:1.0 295:1.0 341:1.0 509:1.0 523:1.0 771:1.0 786:1.0 947:1.0 1023:1.0 1062:1.0 1100:1.0 1157:1.0 1167:1.0 1170:1.0 1207:1.0 1244:1.0 1340:1.0 1347:1.0 1358:1.0 1400:1.0 1413:1.0 2245:1.0 2408:1.0 2472:1.0 2645:1.0 2668:1.0 2683:1.0 2809:1.0 3146:1.0 3212:1.0 3351:1.0 3352:1.0 3354:1.0
0.034213513001103465 38:1.0 440:1.0 531:1.0 589:1.0 771:1.0 785:1.0 811:1.0 936:1.0 1023:1.0 1024:1.0 1084:1.0 1139:1.0 1156:1.0 1170:1.0 1347:1.0 1357:1.0 1382:1.0 1391:1.0 1412:1.0 1428:1.0 1681:1.0 1721:1.0 2224:1.0 2345:1.0 2364:1.0 2365:1.0 2430:1.0 2748:1.0 2997:1.0 3053:1.0 3082:1.0 3146:1.0 3218:1.0
0.034213513001103465 151:1.0 1357:1.0 1400:1.0 1970:1.0 3146:1.0 3200:1.0
0.034213513001103465 237:1.0 463:1.0 538:1.0 629:1.0 891:1.0 1049:1.0 1075:1.0 1114:1.0 1138:1.0 1170:1.0 1216:1.0 1236:1.0 1268:1.0 1347:1.0 1357:1.0 1365:1.0 1402:1.0 1427:1.0 1457:1.0 1738:1.0 2219:1.0 2364:1.0 2401:1.0 2410:1.0 2470:1.0 2502:1.0 2688:1.0 2813:1.0 3039:1.0 3146:1.0 3221:1.0 3339:1.0
0.034213513001103465 301:1.0 596:1.0 603:1.0 1012:1.0 1075:1.0 1125:1.0 1207:1.0 1244:1.0 1279:1.0 1357:1.0 1386:1.0 1881:1.0 2397:1.0 2408:1.0 3146:1.0 3221:1.0 3222:1.0
0.034213513001103465 212:1.0 429:1.0 635:1.0 735:1.0 1170:1.0 1223:1.0 1236:1.0 1286:1.0 1357:1.0 1451:1.0 1954:1.0 2492:1.0 2649:1.0 3146:1.0 3287:1.0
-0.034213513001103465 151:1.0 1357:1.0 1400:1.0 3035:1.0 3146:1.0
-0.03048334880350993 104:1.0 596:1.0 1125:1.0 1357:1.0 1420:1.0 2705:1.0 3146:1.0 3282:1.0
-0.034213513001103465 19:1.0 1062:1.0 1254:1.0 1265:1.0 1420:1.0 2448:1.0 3146:1.0 3303:1.0
-0.022427553081821656 3:1.0 489:1.0 825:1.0 1022:1.0 1066:1.0 1075:1.0 1107:1.0 1160:1.0 1314:1.0 1357:1.0 1408:1.0 1418:1.0 1459:1.0 1846:1.0 1862:1.0 1867:1.0 1881:1.0 2408:1.0 2461:1.0 2493:1.0 2514:1.0 2674:1.0 2816:1.0 3035:1.0 3091:1.0 3146:1.0 3212:1.0 3221:1.0
0.022949884719894478 277:1.0 288:1.0 341:1.0 351:1.0 357:1.0 416:1.0 489:1.0 504:1.0 509:1.0 527:1.0 547:1.0 630:1.0 672:1.0 686:1.0 913:1.0 943:1.0 955:1.0 1001:1.0 1005:1.0 1068:1.0 1101:1.0 1104:1.0 1105:1.0 1109:1.0 1157:1.0 1160:1.0 1167:1.0 1201:1.0 1262:1.0 1263:1.0 1314:1.0 1327:1.0 1357:1.0 1358:1.0 1391:1.0 1396:1.0 1426:1.0 2101:1.0 2153:1.0 2186:1.0 2220:1.0 2229:1.0 2239:1.0 2290:1.0 2429:1.0 2448:1.0 2461:1.0 2560:1.0 2668:1.0 2773:1.0 2843:1.0 2852:1.0 2855:1.0 2869:1.0 2893:1.0 2966:1.0 2968:1.0 2984:1.0 3032:1.0 3137:1.0 3144:1.0 3146:1.0 3189:1.0 3277:1.0 3278:1.0 3284:1.0
-0.034213513001103465 277:1.0 363:1.0 489:1.0 655:1.0 667:1.0 697:1.0 913:1.0 1033:1.0 1061:1.0 1062:1.0 1075:1.0 1104:1.0 1109:1.0 1115:1.0 1160:1.0 1167:1.0 1202:1.0 1205:1.0 1213:1.0 1241:1.0 1255:1.0 1314:1.0 1332:1.0 1417:1.0 1423:1.0 1649:1.0 1917:1.0 2186:1.0 2220:1.0 2461:1.0 2490:1.0 2773:1.0 2904:1.0 2970:1.0 3144:1.0 3146:1.0 3182:1.0 3221:1.0 3242:1.0 3292:1.0
0.034213513001103465 1:1.0 16:1.0 399:1.0 630:1.0 773:1.0 781:1.0 873:1.0 977:1.0 1050:1.0 1062:1.0 1154:1.0 1167:1.0 1261:1.0 1315:1.0 1358:1.0 1400:1.0 2472:1.0 2523:1.0 2609:1.0 2773:1.0 2798:1.0 3146:1.0
-0.034213513001103465 3:1.0 51:1.0 79:1.0 241:1.0 244:1.0 270:1.0 391:1.0 428:1.0 848:1.0 1066:1.0 1071:1.0 1111:1.0 1236:1.0 1291:1.0 1312:1.0 1357:1.0 1358:1.0 1393:1.0 1430:1.0 2355:1.0 2461:1.0 2546:1.0 2780:1.0 2934:1.0 2969:1.0 3146:1.0 3284:1.0
-0.02223519192533046 506:1.0 768:1.0 800:1.0 802:1.0 806:1.0 898:1.0 1104:1.0 1109:1.0 1127:1.0 1157:1.0 1234:1.0 1300:1.0 1315:1.0 1343:1.0 1357:1.0 1400:1.0 1674:1.0 2520:1.0 2540:1.0 2556:1.0 2870:1.0 2952:1.0 3146:1.0 3284:1.0 3345:1.0
-0.005702836163839808 18:1.0 164:1.0 230:1.0 277:1.0 351:1.0 378:1.0 416:1.0 489:1.0 524:1.0 547:1.0 672:1.0 913:1.0 923:1.0 1003:1.0 1048:1.0 1083:1.0 1101:1.0 1109:1.0 1160:1.0 1167:1.0 1181:1.0 1268:1.0 1292:1.0 1314:1.0 1325:1.0 1358:1.0 1362:1.0 1366:1.0 1381:1.0 1391:1.0 1396:1.0 1487:1.0 1693:1.0 1694:1.0 1723:1.0 1777:1.0 1866:1.0 2091:1.0 2461:1.0 2471:1.0 2472:1.0 2480:1.0 2504:1.0 2513:1.0 2649:1.0 2749:1.0 2769:1.0 2773:1.0 2844:1.0 2947:1.0 2968:1.0 2998:1.0 3046:1.0 3146:1.0 3169:1.0 3222:1.0 3339:1.0 3341:1.0
0.034213513001103465 1:1.0 190:1.0 334:1.0 724:1.0 791:1.0 844:1.0 868:1.0 916:1.0 1040:1.0 1062:1.0 1145:1.0 1163:1.0 1294:1.0 1315:1.0 1337:1.0 1388:1.0 1400:1.0 1412:1.0 1523:1.0 1807:1.0 2344:1.0 2645:1.0 2719:1.0 2741:1.0 2815:1.0 2820:1.0 2997:1.0 3042:1.0 3146:1.0
0.034213513001103465 1:1.0 56:1.0 161:1.0 245:1.0 400:1.0 523:1.0 1062:1.0 1072:1.0 1157:1.0 1160:1.0 1244:1.0 1391:1.0 1921:1.0 2375:1.0 2596:1.0 3092:1.0 3146:1.0 3267:1.0
0.034213513001103465 1:1.0 3:1.0 650:1.0 683:1.0 1022:1.0 1062:1.0 1104:1.0 1121:1.0 1127:1.0 1181:1.0 1401:1.0 1440:1.0 2299:1.0 2734:1.0 3028:1.0 3146:1.0 3172:1.0 3286:1.0
0.034213513001103465 1:1.0 523:1.0 872:1.0 975:1.0 1062:1.0 1200:1.0 1244:1.0 1293:1.0 1413:1.0 2245:1.0 2408:1.0 3012:1.0 3146:1.0 3172:1.0 3345:1.0
0.034213513001103465 1:1.0 523:1.0 593:1.0 1020:1.0 1062:1.0 1244:1.0 1420:1.0 1948:1.0 2786:1.0 3066:1.0 3137:1.0 3146:1.0
-0.034213513001103465 1:1.0 586:1.0 1062:1.0 1294:1.0 1444:1.0 1452:1.0 1662:1.0 2447:1.0 3146:1.0
-0.034213513001103465 1:1.0 173:1.0 748:1.0 781:1.0 1016:1.0 1062:1.0 1200:1.0 1244:1.0 1261:1.0 1292:1.0 1325:1.0 1327:1.0 1386:1.0 1458:1.0 1509:1.0 1602:1.0 1918:1.0 1988:1.0 2277:1.0 2649:1.0 2769:1.0 2798:1.0 2812:1.0 3146:1.0 3160:1.0 3222:1.0 3278:1.0 3315:1.0
0.034213513001103465 11:1.0 53:1.0 171:1.0 292:1.0 463:1.0 486:1.0 771:1.0 786:1.0 810:1.0 947:1.0 1023:1.0 1091:1.0 1167:1.0 1170:1.0 1226:1.0 1236:1.0 1241:1.0 1347:1.0 1357:1.0 1400:1.0 1402:1.0 1427:1.0 1726:1.0 1822:1.0 2364:1.0 2410:1.0 2683:1.0 2773:1.0 2910:1.0 3077:1.0 3146:1.0 3221:1.0 3294:1.0 3306:1.0 3315:1.0
0.026835960391631906 5:1.0 86:1.0 131:1.0 256:1.0 270:1.0 295:1.0 429:1.0 442:1.0 471:1.0 641:1.0 681:1.0 762:1.0 791:1.0 858:1.0 891:1.0 904:1.0 975:1.0 1023:1.0 1040:1.0 1063:1.0 1066:1.0 1076:1.0 1109:1.0 1114:1.0 1144:1.0 1155:1.0 1163:1.0 1166:1.0 1170:1.0 1223:1.0 1224:1.0 1236:1.0 1293:1.0 1313:1.0 1357:1.0 1358:1.0 1370:1.0 1400:1.0 1406:1.0 1413:1.0 1451:1.0 1455:1.0 1643:1.0 1716:1.0 1752:1.0 1769:1.0 1781:1.0 1789:1.0 1888:1.0 1908:1.0 1931:1.0 1935:1.0 1968:1.0 2364:1.0 2408:1.0 2423:1.0 2488:1.0 2502:1.0 2556:1.0 2649:1.0 2753:1.0 2761:1.0 2764:1.0 2773:1.0 2847:1.0 2966:1.0 2997:1.0 3146:1.0 3221:1.0 3259:1.0 3268:1.0 3278:1.0
-0.008397907241969057 147:1.0 486:1.0 547:1.0 812:1.0 965:1.0 1101:1.0 1160:1.0 1226:1.0 1400:1.0 1402:1.0 1422:1.0 2751:1.0 2931:1.0 3146:1.0 3161:1.0 3221:1.0 3263:1.0
-0.034213513001103465 295:1.0 640:1.0 751:1.0 771:1.0 1023:1.0 1170:1.0 1264:1.0 1347:1.0 1400:1.0 1726:1.0 2364:1.0 2773:1.0 3146:1.0 3252:1.0
-2.937863853026625E-4 123:1.0 640:1.0 1170:1.0 1264:1.0 1358:1.0 1400:1.0 1712:1.0 2385:1.0 2651:1.0 2867:1.0 2933:1.0 3146:1.0 3303:1.0
0.034213513001103465 235:1.0 317:1.0 768:1.0 1157:1.0 1362:1.0 1400:1.0 1440:1.0 2903:1.0 2977:1.0 3101:1.0 3146:1.0 3218:1.0
0.034213513001103465 1:1.0 123:1.0 399:1.0 773:1.0 781:1.0 873:1.0 1050:1.0 1062:1.0 1154:1.0 1261:1.0 1358:1.0 1400:1.0 2461:1.0 2798:1.0 2848:1.0 3146:1.0
-0.034213513001103465 138:1.0 378:1.0 461:1.0 1060:1.0 1085:1.0 1236:1.0 1271:1.0 1357:1.0 1358:1.0 1391:1.0 1396:1.0 2907:1.0 3092:1.0 3146:1.0 3268:1.0 3320:1.0
0.034213513001103465 5:1.0 83:1.0 231:1.0 245:1.0 966:1.0 1071:1.0 1160:1.0 1244:1.0 1362:1.0 1400:1.0 1777:1.0 1960:1.0 2764:1.0 2794:1.0 2934:1.0 3146:1.0 3303:1.0
-0.034213513001103465 40:1.0 318:1.0 836:1.0 977:1.0 1125:1.0 1270:1.0 1282:1.0 1315:1.0 1381:1.0 1400:1.0 1440:1.0 2288:1.0 2668:1.0 2675:1.0 2805:1.0 3109:1.0 3146:1.0 3315:1.0
-0.034213513001103465 83:1.0 104:1.0 272:1.0 319:1.0 329:1.0 377:1.0 670:1.0 804:1.0 1071:1.0 1125:1.0 1148:1.0 1250:1.0 1273:1.0 1322:1.0 1358:1.0 1362:1.0 1420:1.0 1421:1.0 1825:1.0 2052:1.0 2073:1.0 2461:1.0 2924:1.0 2997:1.0 3040:1.0 3088:1.0 3146:1.0 3191:1.0
0.034213513001103465 59:1.0 128:1.0 294:1.0 837:1.0 856:1.0 1023:1.0 1040:1.0 1149:1.0 1156:1.0 1236:1.0 1346:1.0 1357:1.0 1415:1.0 2364:1.0 2378:1.0 2997:1.0 3146:1.0 3273:1.0 3294:1.0
0.034213513001103465 79:1.0 244:1.0 631:1.0 749:1.0 1054:1.0 1236:1.0 1291:1.0 1357:1.0 1358:1.0 1396:1.0 1420:1.0 1818:1.0 2461:1.0 2730:1.0 2787:1.0 3146:1.0 3292:1.0
0.034213513001103465 8:1.0 79:1.0 222:1.0 375:1.0 489:1.0 597:1.0 655:1.0 1033:1.0 1160:1.0 1236:1.0 1241:1.0 1291:1.0 1314:1.0 1318:1.0 1349:1.0 1357:1.0 1391:1.0 2408:1.0 2454:1.0 2461:1.0 2706:1.0 3146:1.0 3320:1.0
0.034213513001103465 3:1.0 79:1.0 102:1.0 244:1.0 635:1.0 662:1.0 1083:1.0 1236:1.0 1286:1.0 1291:1.0 1330:1.0 1357:1.0 1358:1.0 1396:1.0 1451:1.0 1793:1.0 2245:1.0 2317:1.0 2461:1.0 2649:1.0 2839:1.0 3114:1.0 3146:1.0 3286:1.0 3288:1.0
-0.011306012720321373 3:1.0 8:1.0 337:1.0 375:1.0 463:1.0 563:1.0 722:1.0 1009:1.0 1071:1.0 1116:1.0 1236:1.0 1241:1.0 1318:1.0 1321:1.0 1349:1.0 1357:1.0 1415:1.0 1427:1.0 2408:1.0 2508:1.0 2609:1.0 2969:1.0 3082:1.0 3146:1.0 3161:1.0 3314:1.0
-0.029577051685434955 601:1.0 653:1.0 837:1.0 864:1.0 1027:1.0 1040:1.0 1188:1.0 1236:1.0 1357:1.0 1379:1.0 1415:1.0 1659:1.0 2117:1.0 2190:1.0 2351:1.0 2705:1.0 2919:1.0 2997:1.0 3146:1.0 3160:1.0
-0.034213513001103465 5:1.0 304:1.0 768:1.0 1157:1.0 1236:1.0 1267:1.0 1288:1.0 1319:1.0 1357:1.0 1400:1.0 2638:1.0 2741:1.0 3068:1.0 3120:1.0 3146:1.0
-0.034213513001103465 317:1.0 463:1.0 768:1.0 861:1.0 1066:1.0 1157:1.0 1236:1.0 1357:1.0 1400:1.0 1427:1.0 1437:1.0 1455:1.0 1809:1.0 2193:1.0 3146:1.0
-0.008394745849958203 131:1.0 205:1.0 380:1.0 740:1.0 762:1.0 842:1.0 878:1.0 1005:1.0 1163:1.0 1166:1.0 1167:1.0 1240:1.0 1262:1.0 1268:1.0 1357:1.0 1400:1.0 1406:1.0 1414:1.0 1451:1.0 1457:1.0 1738:1.0 1946:1.0 1970:1.0 2401:1.0 2410:1.0 2618:1.0 2649:1.0 2716:1.0 2754:1.0 2813:1.0 2997:1.0 3146:1.0 3200:1.0 3238:1.0 3288:1.0
0.034213513001103465 73:1.0 104:1.0 138:1.0 270:1.0 329:1.0 351:1.0 752:1.0 858:1.0 1066:1.0 1109:1.0 1125:1.0 1197:1.0 1264:1.0 1271:1.0 1332:1.0 1358:1.0 1420:1.0 1429:1.0 1455:1.0 1777:1.0 2393:1.0 2461:1.0 2472:1.0 2869:1.0 3121:1.0 3146:1.0 3160:1.0 3221:1.0 3303:1.0 3347:1.0
0.034213513001103465 1:1.0 240:1.0 531:1.0 586:1.0 715:1.0 721:1.0 1023:1.0 1062:1.0 1104:1.0 1108:1.0 1261:1.0 1294:1.0 1382:1.0 1391:1.0 1454:1.0 2286:1.0 2365:1.0 2712:1.0 2734:1.0 3146:1.0 3285:1.0 3315:1.0
0.025345747534232625 1:1.0 543:1.0 586:1.0 715:1.0 997:1.0 1033:1.0 1062:1.0 1133:1.0 1160:1.0 1294:1.0 1344:1.0 1391:1.0 1454:1.0 1642:1.0 2450:1.0 2997:1.0 3146:1.0 3300:1.0 3315:1.0 3334:1.0
0.014489104675719771 1:1.0 17:1.0 226:1.0 505:1.0 548:1.0 624:1.0 1014:1.0 1046:1.0 1048:1.0 1062:1.0 1079:1.0 1106:1.0 1143:1.0 1207:1.0 1230:1.0 1238:1.0 1315:1.0 1318:1.0 1420:1.0 1901:1.0 2018:1.0 2408:1.0 2447:1.0 2490:1.0 2540:1.0 2749:1.0 3028:1.0 3141:1.0 3146:1.0 3163:1.0 3218:1.0 3293:1.0
0.0037761382128917755 1:1.0 3:1.0 19:1.0 415:1.0 456:1.0 477:1.0 548:1.0 583:1.0 648:1.0 695:1.0 854:1.0 1059:1.0 1062:1.0 1068:1.0 1118:1.0 1148:1.0 1160:1.0 1170:1.0 1179:1.0 1214:1.0 1230:1.0 1265:1.0 1325:1.0 1326:1.0 1371:1.0 1420:1.0 1421:1.0 2109:1.0 2282:1.0 2461:1.0 2491:1.0 2501:1.0 2649:1.0 2654:1.0 2748:1.0 2767:1.0 2773:1.0 3146:1.0 3160:1.0 3252:1.0 3303:1.0 3347:1.0
-0.034213513001103465 9:1.0 114:1.0 156:1.0 277:1.0 544:1.0 691:1.0 752:1.0 839:1.0 887:1.0 1013:1.0 1033:1.0 1109:1.0 1141:1.0 1160:1.0 1175:1.0 1178:1.0 1195:1.0 1222:1.0 1264:1.0 1314:1.0 1391:1.0 1398:1.0 1412:1.0 1416:1.0 1712:1.0 1862:1.0 1978:1.0 2022:1.0 2101:1.0 2364:1.0 2461:1.0 2502:1.0 2540:1.0 2676:1.0 2701:1.0 2707:1.0 2741:1.0 2853:1.0 3146:1.0 3214:1.0 3255:1.0 3284:1.0 3303:1.0
-0.034213513001103465 1:1.0 6:1.0 16:1.0 133:1.0 414:1.0 435:1.0 624:1.0 708:1.0 884:1.0 988:1.0 1038:1.0 1048:1.0 1062:1.0 1125:1.0 1143:1.0 1167:1.0 1214:1.0 1261:1.0 1315:1.0 1325:1.0 1420:1.0 1948:1.0 2316:1.0 2337:1.0 2406:1.0 2508:1.0 2556:1.0 2649:1.0 2787:1.0 2913:1.0 3066:1.0 3076:1.0 3146:1.0 3163:1.0 3278:1.0
0.034213513001103465 295:1.0 567:1.0 1023:1.0 1139:1.0 1236:1.0 1357:1.0 1379:1.0 1400:1.0 1428:1.0 1721:1.0 2224:1.0 2364:1.0 2997:1.0 3146:1.0 3330:1.0
-0.034213513001103465 141:1.0 938:1.0 948:1.0 1033:1.0 1061:1.0 1062:1.0 1067:1.0 1104:1.0 1128:1.0 1144:1.0 1160:1.0 1259:1.0 1293:1.0 1420:1.0 2246:1.0 2408:1.0 2426:1.0 2502:1.0 2935:1.0 3028:1.0 3146:1.0 3314:1.0
-0.034213513001103465 83:1.0 160:1.0 520:1.0 964:1.0 1071:1.0 1294:1.0 1362:1.0 1391:1.0 1454:1.0 2405:1.0 2617:1.0 3146:1.0 3334:1.0
-0.034213513001103465 2:1.0 3:1.0 123:1.0 998:1.0 1030:1.0 1045:1.0 1358:1.0 1400:1.0 2094:1.0 2229:1.0 2461:1.0 2550:1.0 3146:1.0 3315:1.0
0.034213513001103465 165:1.0 233:1.0 242:1.0 331:1.0 373:1.0 464:1.0 560:1.0 732:1.0 768:1.0 771:1.0 1023:1.0 1048:1.0 1062:1.0 1070:1.0 1071:1.0 1157:1.0 1170:1.0 1230:1.0 1258:1.0 1327:1.0 1347:1.0 1373:1.0 1400:1.0 1740:1.0 2276:1.0 2364:1.0 2609:1.0 2668:1.0 2811:1.0 2969:1.0 3040:1.0 3109:1.0 3146:1.0 3237:1.0 3278:1.0 3315:1.0
0.034213513001103465 93:1.0 503:1.0 509:1.0 583:1.0 686:1.0 718:1.0 768:1.0 864:1.0 962:1.0 1027:1.0 1040:1.0 1054:1.0 1068:1.0 1157:1.0 1175:1.0 1179:1.0 1357:1.0 1358:1.0 1393:1.0 1398:1.0 1400:1.0 2461:1.0 2472:1.0 2490:1.0 2853:1.0 2941:1.0 2997:1.0 3060:1.0 3075:1.0 3081:1.0 3146:1.0 3347:1.0
-0.014325420751304139 5:1.0 270:1.0 551:1.0 705:1.0 778:1.0 858:1.0 981:1.0 1026:1.0 1066:1.0 1200:1.0 1324:1.0 1358:1.0 1371:1.0 1455:1.0 2191:1.0 2764:1.0 2940:1.0 2966:1.0 3032:1.0 3146:1.0 3206:1.0
-0.029637302227186614 39:1.0 57:1.0 211:1.0 272:1.0 288:1.0 313:1.0 509:1.0 547:1.0 584:1.0 619:1.0 680:1.0 705:1.0 768:1.0 1101:1.0 1117:1.0 1156:1.0 1157:1.0 1160:1.0 1273:1.0 1314:1.0 1324:1.0 1327:1.0 1358:1.0 1396:1.0 1400:1.0 1412:1.0 1676:1.0 1777:1.0 2020:1.0 2124:1.0 2461:1.0 2522:1.0 2529:1.0 2668:1.0 2673:1.0 2917:1.0 2997:1.0 3066:1.0 3125:1.0 3143:1.0 3146:1.0 3176:1.0
0.034213513001103465 83:1.0 295:1.0 721:1.0 788:1.0 889:1.0 1023:1.0 1071:1.0 1108:1.0 1261:1.0 1362:1.0 1400:1.0 1777:1.0 1859:1.0 1960:1.0 2364:1.0 2597:1.0 2755:1.0 3146:1.0 3303:1.0
-0.034213513001103465 181:1.0 295:1.0 549:1.0 1023:1.0 1062:1.0 1066:1.0 1242:1.0 1254:1.0 1260:1.0 1400:1.0 1426:1.0 1455:1.0 2118:1.0 2364:1.0 2372:1.0 2728:1.0 2803:1.0 2966:1.0 3146:1.0
-0.034213513001103465 130:1.0 295:1.0 867:1.0 1023:1.0 1028:1.0 1062:1.0 1069:1.0 1260:1.0 1280:1.0 1307:1.0 1352:1.0 1400:1.0 2088:1.0 2364:1.0 2603:1.0 2783:1.0 3093:1.0 3146:1.0 3315:1.0
-0.034213513001103465 2:1.0 3:1.0 16:1.0 245:1.0 416:1.0 646:1.0 684:1.0 764:1.0 796:1.0 864:1.0 1014:1.0 1027:1.0 1040:1.0 1087:1.0 1160:1.0 1167:1.0 1182:1.0 1244:1.0 1315:1.0 1391:1.0 2236:1.0 2247:1.0 2374:1.0 2415:1.0 2471:1.0 2862:1.0 2997:1.0 3146:1.0 3303:1.0
-0.00714887747254213 3:1.0 5:1.0 16:1.0 152:1.0 630:1.0 763:1.0 789:1.0 805:1.0 1019:1.0 1167:1.0 1224:1.0 1269:1.0 1315:1.0 1357:1.0 1358:1.0 1402:1.0 1444:1.0 1502:1.0 2007:1.0 2060:1.0 2085:1.0 2103:1.0 2674:1.0 2773:1.0 2985:1.0 3146:1.0 3221:1.0
-0.034213513001103465 1:1.0 133:1.0 427:1.0 663:1.0 781:1.0 851:1.0 966:1.0 1062:1.0 1160:1.0 1210:1.0 1261:1.0 1325:1.0 1370:1.0 1400:1.0 2085:1.0 2741:1.0 2783:1.0 2784:1.0 2987:1.0 3146:1.0
-2.401855280823294E-4 3:1.0 121:1.0 152:1.0 290:1.0 348:1.0 413:1.0 489:1.0 884:1.0 1031:1.0 1038:1.0 1160:1.0 1177:1.0 1209:1.0 1214:1.0 1314:1.0 1325:1.0 1357:1.0 1378:1.0 1400:1.0 1402:1.0 1699:1.0 1980:1.0 2004:1.0 2048:1.0 2296:1.0 2461:1.0 2649:1.0 2659:1.0 2741:1.0 2744:1.0 2752:1.0 2860:1.0 3146:1.0 3221:1.0 3252:1.0 3286:1.0
0.034213513001103465 1:1.0 1062:1.0 1415:1.0 2190:1.0 2797:1.0 3146:1.0
0.034213513001103465 1:1.0 6:1.0 145:1.0 279:1.0 682:1.0 721:1.0 781:1.0 1001:1.0 1023:1.0 1062:1.0 1090:1.0 1108:1.0 1167:1.0 1238:1.0 1261:1.0 1327:1.0 1541:1.0 2276:1.0 2337:1.0 2364:1.0 2723:1.0 3028:1.0 3146:1.0 3181:1.0 3315:1.0 3320:1.0
-0.005193227812941548 123:1.0 317:1.0 321:1.0 370:1.0 490:1.0 1072:1.0 1152:1.0 1157:1.0 1190:1.0 1236:1.0 1325:1.0 1335:1.0 1357:1.0 1358:1.0 1397:1.0 1400:1.0 1426:1.0 2406:1.0 2411:1.0 2464:1.0 2522:1.0 2649:1.0 2733:1.0 2797:1.0 2812:1.0 2889:1.0 3101:1.0 3146:1.0
-0.034213513001103465 1:1.0 255:1.0 781:1.0 1062:1.0 1090:1.0 1261:1.0 1384:1.0 1509:1.0 1918:1.0 2277:1.0 2649:1.0 3146:1.0 3315:1.0
-0.034213513001103465 1:1.0 255:1.0 781:1.0 1062:1.0 1090:1.0 1261:1.0 1384:1.0 1509:1.0 1918:1.0 2277:1.0 3146:1.0
0.034213513001103465 16:1.0 272:1.0 302:1.0 630:1.0 642:1.0 680:1.0 977:1.0 1156:1.0 1167:1.0 1224:1.0 1273:1.0 1315:1.0 1357:1.0 1358:1.0 1400:1.0 1419:1.0 1825:1.0 2237:1.0 2461:1.0 2668:1.0 2785:1.0 2997:1.0 3146:1.0 3206:1.0 3218:1.0 3252:1.0 3284:1.0
0.034213513001103465 79:1.0 400:1.0 489:1.0 768:1.0 1157:1.0 1160:1.0 1236:1.0 1291:1.0 1314:1.0 1357:1.0 1400:1.0 1802:1.0 2502:1.0 2932:1.0 2953:1.0 3035:1.0 3121:1.0 3146:1.0
-0.019148603183274875 16:1.0 81:1.0 123:1.0 272:1.0 351:1.0 432:1.0 585:1.0 630:1.0 680:1.0 1109:1.0 1156:1.0 1167:1.0 1273:1.0 1282:1.0 1315:1.0 1358:1.0 1365:1.0 1400:1.0 1777:1.0 1819:1.0 1866:1.0 1908:1.0 2124:1.0 2144:1.0 2408:1.0 2461:1.0 2471:1.0 2773:1.0 2865:1.0 2997:1.0 3013:1.0 3146:1.0 3240:1.0 3284:1.0
-0.034213513001103465 123:1.0 351:1.0 752:1.0 1109:1.0 1264:1.0 1358:1.0 1400:1.0 1761:1.0 1792:1.0 2472:1.0 3146:1.0 3181:1.0 3278:1.0
0.028220785587771562 1:1.0 3:1.0 54:1.0 433:1.0 695:1.0 739:1.0 777:1.0 1062:1.0 1129:1.0 1148:1.0 1214:1.0 1325:1.0 1334:1.0 1339:1.0 1421:1.0 1857:1.0 2649:1.0 2674:1.0 2943:1.0 3146:1.0 3277:1.0
0.029924488741727116 1:1.0 548:1.0 684:1.0 1014:1.0 1062:1.0 1137:1.0 1230:1.0 1315:1.0 1365:1.0 1391:1.0 1901:1.0 2190:1.0 2408:1.0 2457:1.0 2797:1.0 2834:1.0 3146:1.0
0.025874177429028273 1:1.0 3:1.0 213:1.0 315:1.0 496:1.0 569:1.0 607:1.0 730:1.0 733:1.0 838:1.0 1009:1.0 1025:1.0 1062:1.0 1102:1.0 1143:1.0 1166:1.0 1243:1.0 1329:1.0 1358:1.0 1396:1.0 1404:1.0 2026:1.0 2493:1.0 2539:1.0 2654:1.0 3100:1.0 3146:1.0 3212:1.0 3300:1.0
0.031067626457315468 1:1.0 3:1.0 278:1.0 635:1.0 650:1.0 1031:1.0 1062:1.0 1181:1.0 1286:1.0 1451:1.0 1793:1.0 2301:1.0 2649:1.0 2805:1.0 3046:1.0 3146:1.0 3172:1.0 3288:1.0
-0.034213513001103465 108:1.0 543:1.0 587:1.0 924:1.0 971:1.0 1033:1.0 1160:1.0 1176:1.0 1203:1.0 1236:1.0 1357:1.0 1391:1.0 1441:1.0 1875:1.0 2140:1.0 2502:1.0 3084:1.0 3146:1.0 3221:1.0
-0.034213513001103465 140:1.0 812:1.0 971:1.0 1226:1.0 1236:1.0 1357:1.0 1400:1.0 1441:1.0 3146:1.0 3221:1.0
-0.034213513001103465 522:1.0 768:1.0 1157:1.0 1357:1.0 1400:1.0 2691:1.0 3036:1.0 3146:1.0
