SVM-light Version V6.01
0 # kernel type
3 # kernel parameter -d
1.0 # kernel parameter -g
1.0 # kernel parameter -s
0.0 # kernel parameter -r
empty# kernel parameter -u
1729 # highest feature index
462 # number of training documents
146 # number of support vectors plus 1
0.6897183451240516 # threshold b, each following line is a SV (starting with alpha*y)
-0.044182075779017144 311:1.0 416:1.0 442:1.0 583:1.0 653:1.0 695:1.0 1004:1.0 1559:1.0 1659:1.0 1690:1.0
-0.0030624995611292774 69:1.0 75:1.0 118:1.0 291:1.0 298:1.0 372:1.0 411:1.0 443:1.0 457:1.0 715:1.0 720:1.0 821:1.0 1116:1.0 1240:1.0 1293:1.0 1441:1.0 1521:1.0
-0.0018744144375396827 41:1.0 67:1.0 86:1.0 166:1.0 167:1.0 207:1.0 275:1.0 299:1.0 314:1.0 315:1.0 348:1.0 375:1.0 411:1.0 414:1.0 418:1.0 427:1.0 445:1.0 460:1.0 504:1.0 577:1.0 583:1.0 709:1.0 715:1.0 774:1.0 883:1.0 1116:1.0 1156:1.0 1176:1.0 1344:1.0 1372:1.0 1521:1.0 1538:1.0 1637:1.0 1659:1.0 1691:1.0
-0.002827800515420793 3:1.0 6:1.0 92:1.0 184:1.0 210:1.0 235:1.0 255:1.0 283:1.0 285:1.0 296:1.0 351:1.0 355:1.0 356:1.0 413:1.0 420:1.0 458:1.0 468:1.0 475:1.0 635:1.0 879:1.0 915:1.0 1148:1.0 1283:1.0 1521:1.0 1538:1.0 1663:1.0 1723:1.0
0.025388553545094474 1:1.0 29:1.0 30:1.0 45:1.0 110:1.0 125:1.0 231:1.0 295:1.0 311:1.0 321:1.0 359:1.0 375:1.0 427:1.0 445:1.0 455:1.0 460:1.0 543:1.0 557:1.0 560:1.0 723:1.0 836:1.0 1173:1.0 1283:1.0 1415:1.0 1521:1.0 1690:1.0 1691:1.0
0.044182075779017144 78:1.0 102:1.0 108:1.0 123:1.0 215:1.0 295:1.0 305:1.0 313:1.0 346:1.0 444:1.0 445:1.0 470:1.0 836:1.0 963:1.0 984:1.0 1173:1.0 1521:1.0 1632:1.0
0.044182075779017144 3:1.0 31:1.0 76:1.0 164:1.0 202:1.0 278:1.0 286:1.0 399:1.0 420:1.0 427:1.0 451:1.0 464:1.0 483:1.0 554:1.0 556:1.0 618:1.0 689:1.0 690:1.0 925:1.0 1024:1.0 1173:1.0 1304:1.0 1521:1.0 1659:1.0 1690:1.0
0.018217899594414742 1:1.0 103:1.0 176:1.0 215:1.0 266:1.0 311:1.0 346:1.0 362:1.0 445:1.0 458:1.0 462:1.0 659:1.0 914:1.0 1083:1.0 1521:1.0 1678:1.0 1689:1.0
0.044182075779017144 445:1.0 462:1.0 470:1.0 475:1.0 836:1.0 1215:1.0 1521:1.0 1632:1.0 1667:1.0
0.019889093831158493 1:1.0 10:1.0 25:1.0 34:1.0 87:1.0 194:1.0 199:1.0 219:1.0 220:1.0 291:1.0 299:1.0 311:1.0 328:1.0 336:1.0 399:1.0 408:1.0 472:1.0 677:1.0 696:1.0 739:1.0 780:1.0 1063:1.0 1173:1.0 1372:1.0 1438:1.0 1521:1.0
-0.044182075779017144 3:1.0 31:1.0 74:1.0 76:1.0 164:1.0 321:1.0 399:1.0 427:1.0 451:1.0 455:1.0 483:1.0 554:1.0 618:1.0 641:1.0 689:1.0 1024:1.0 1130:1.0 1173:1.0 1521:1.0 1690:1.0
0.0078742284449552 1:1.0 40:1.0 176:1.0 215:1.0 266:1.0 311:1.0 346:1.0 362:1.0 445:1.0 464:1.0 836:1.0 1103:1.0 1511:1.0 1521:1.0
0.044182075779017144 85:1.0 214:1.0 286:1.0 291:1.0 357:1.0 377:1.0 384:1.0 439:1.0 444:1.0 464:1.0 624:1.0 739:1.0 1024:1.0 1273:1.0 1334:1.0 1521:1.0 1662:1.0
-0.02864681870725537 200:1.0 274:1.0 294:1.0 311:1.0 359:1.0 372:1.0 397:1.0 492:1.0 606:1.0 660:1.0 887:1.0 1004:1.0 1024:1.0 1690:1.0
-0.010882681246316141 152:1.0 251:1.0 284:1.0 372:1.0 398:1.0 426:1.0 448:1.0 450:1.0 662:1.0 866:1.0 1173:1.0 1298:1.0 1315:1.0 1407:1.0 1521:1.0
0.044182075779017144 39:1.0 51:1.0 64:1.0 151:1.0 157:1.0 167:1.0 207:1.0 314:1.0 315:1.0 374:1.0 393:1.0 411:1.0 413:1.0 414:1.0 427:1.0 445:1.0 464:1.0 465:1.0 583:1.0 694:1.0 715:1.0 803:1.0 843:1.0 847:1.0 883:1.0 1116:1.0 1180:1.0 1309:1.0 1344:1.0 1407:1.0 1521:1.0 1596:1.0
0.044182075779017144 67:1.0 137:1.0 142:1.0 156:1.0 247:1.0 299:1.0 307:1.0 321:1.0 357:1.0 375:1.0 411:1.0 413:1.0 427:1.0 432:1.0 455:1.0 460:1.0 524:1.0 540:1.0 557:1.0 583:1.0 602:1.0 647:1.0 773:1.0 1173:1.0 1283:1.0 1372:1.0 1457:1.0 1521:1.0 1596:1.0 1628:1.0 1653:1.0 1659:1.0 1691:1.0
0.044182075779017144 2:1.0 3:1.0 29:1.0 30:1.0 47:1.0 110:1.0 185:1.0 250:1.0 291:1.0 295:1.0 313:1.0 319:1.0 320:1.0 375:1.0 427:1.0 430:1.0 433:1.0 445:1.0 460:1.0 473:1.0 489:1.0 646:1.0 718:1.0 723:1.0 739:1.0 836:1.0 1063:1.0 1230:1.0 1309:1.0 1342:1.0 1389:1.0 1513:1.0 1521:1.0 1690:1.0 1691:1.0
0.044182075779017144 53:1.0 111:1.0 167:1.0 311:1.0 314:1.0 315:1.0 372:1.0 390:1.0 397:1.0 432:1.0 708:1.0 866:1.0 945:1.0 1344:1.0 1521:1.0 1587:1.0 1596:1.0 1690:1.0
0.044182075779017144 85:1.0 291:1.0 464:1.0 475:1.0 739:1.0 984:1.0 1521:1.0 1547:1.0
-0.02869003159291367 78:1.0 133:1.0 190:1.0 243:1.0 292:1.0 299:1.0 313:1.0 325:1.0 343:1.0 426:1.0 445:1.0 489:1.0 691:1.0 692:1.0 756:1.0 984:1.0 1166:1.0 1372:1.0 1461:1.0 1521:1.0 1587:1.0
-0.010916506860821129 200:1.0 216:1.0 311:1.0 359:1.0 369:1.0 397:1.0 427:1.0 464:1.0 649:1.0 999:1.0 1004:1.0 1024:1.0 1557:1.0 1690:1.0
-0.044182075779017144 30:1.0 40:1.0 67:1.0 137:1.0 156:1.0 275:1.0 299:1.0 307:1.0 375:1.0 411:1.0 427:1.0 445:1.0 460:1.0 464:1.0 524:1.0 540:1.0 557:1.0 583:1.0 602:1.0 836:1.0 1283:1.0 1372:1.0 1452:1.0 1521:1.0 1691:1.0
-0.02522003144151118 165:1.0 213:1.0 234:1.0 299:1.0 309:1.0 318:1.0 371:1.0 384:1.0 425:1.0 444:1.0 470:1.0 655:1.0 944:1.0 1119:1.0 1341:1.0 1372:1.0 1521:1.0 1566:1.0
-3.3416635739978826E-4 40:1.0 67:1.0 79:1.0 137:1.0 154:1.0 156:1.0 189:1.0 299:1.0 307:1.0 353:1.0 375:1.0 406:1.0 411:1.0 427:1.0 445:1.0 464:1.0 517:1.0 524:1.0 540:1.0 549:1.0 557:1.0 583:1.0 591:1.0 602:1.0 622:1.0 704:1.0 836:1.0 1129:1.0 1283:1.0 1372:1.0 1521:1.0 1672:1.0 1691:1.0
0.022601006262078897 1:1.0 3:1.0 21:1.0 88:1.0 114:1.0 142:1.0 185:1.0 311:1.0 321:1.0 339:1.0 343:1.0 357:1.0 373:1.0 375:1.0 381:1.0 427:1.0 435:1.0 455:1.0 473:1.0 596:1.0 721:1.0 770:1.0 783:1.0 1024:1.0 1049:1.0 1119:1.0 1318:1.0 1521:1.0 1539:1.0 1652:1.0 1714:1.0
0.044182075779017144 74:1.0 254:1.0 315:1.0 321:1.0 399:1.0 446:1.0 455:1.0 883:1.0 1158:1.0 1521:1.0 1678:1.0
0.044182075779017144 142:1.0 261:1.0 270:1.0 321:1.0 356:1.0 357:1.0 434:1.0 444:1.0 445:1.0 455:1.0 457:1.0 647:1.0 715:1.0 847:1.0 1116:1.0 1173:1.0 1415:1.0 1518:1.0 1521:1.0 1593:1.0 1653:1.0
0.044182075779017144 158:1.0 277:1.0 351:1.0 377:1.0 384:1.0 402:1.0 444:1.0 464:1.0 831:1.0 1271:1.0 1521:1.0 1653:1.0 1688:1.0
-0.044182075779017144 10:1.0 69:1.0 142:1.0 291:1.0 298:1.0 321:1.0 334:1.0 336:1.0 357:1.0 411:1.0 455:1.0 468:1.0 647:1.0 720:1.0 1063:1.0 1173:1.0 1260:1.0 1441:1.0 1459:1.0 1521:1.0 1653:1.0
-0.044182075779017144 1:1.0 85:1.0 183:1.0 194:1.0 219:1.0 291:1.0 311:1.0 328:1.0 399:1.0 464:1.0 696:1.0 739:1.0 1128:1.0 1415:1.0 1521:1.0
-0.044182075779017144 1:1.0 95:1.0 202:1.0 219:1.0 242:1.0 253:1.0 286:1.0 297:1.0 311:1.0 357:1.0 375:1.0 399:1.0 427:1.0 464:1.0 557:1.0 638:1.0 690:1.0 1173:1.0 1268:1.0 1283:1.0 1521:1.0 1659:1.0 1691:1.0
-0.009772253653042833 2:1.0 3:1.0 70:1.0 93:1.0 144:1.0 265:1.0 288:1.0 315:1.0 320:1.0 331:1.0 390:1.0 412:1.0 485:1.0 518:1.0 609:1.0 612:1.0 883:1.0 1051:1.0 1313:1.0 1344:1.0 1496:1.0 1521:1.0 1568:1.0
-0.044182075779017144 2:1.0 3:1.0 57:1.0 119:1.0 314:1.0 315:1.0 320:1.0 422:1.0 436:1.0 472:1.0 700:1.0 921:1.0 1310:1.0 1521:1.0 1535:1.0 1659:1.0 1678:1.0
0.044182075779017144 25:1.0 42:1.0 79:1.0 138:1.0 154:1.0 160:1.0 189:1.0 199:1.0 212:1.0 299:1.0 349:1.0 353:1.0 355:1.0 399:1.0 406:1.0 408:1.0 411:1.0 445:1.0 464:1.0 487:1.0 497:1.0 517:1.0 549:1.0 583:1.0 591:1.0 622:1.0 675:1.0 704:1.0 836:1.0 898:1.0 1024:1.0 1129:1.0 1283:1.0 1372:1.0 1417:1.0 1521:1.0 1663:1.0 1691:1.0
0.03649508117408692 1:1.0 30:1.0 111:1.0 125:1.0 137:1.0 156:1.0 170:1.0 225:1.0 242:1.0 270:1.0 299:1.0 307:1.0 311:1.0 356:1.0 357:1.0 372:1.0 375:1.0 390:1.0 427:1.0 445:1.0 460:1.0 605:1.0 624:1.0 691:1.0 747:1.0 847:1.0 1024:1.0 1144:1.0 1227:1.0 1288:1.0 1372:1.0 1521:1.0 1587:1.0 1662:1.0
0.044182075779017144 30:1.0 39:1.0 40:1.0 97:1.0 127:1.0 260:1.0 275:1.0 299:1.0 329:1.0 356:1.0 379:1.0 445:1.0 460:1.0 464:1.0 465:1.0 598:1.0 745:1.0 836:1.0 847:1.0 915:1.0 994:1.0 1433:1.0 1441:1.0 1521:1.0 1534:1.0 1596:1.0
0.044182075779017144 2:1.0 3:1.0 9:1.0 28:1.0 30:1.0 40:1.0 47:1.0 188:1.0 319:1.0 320:1.0 343:1.0 375:1.0 427:1.0 430:1.0 445:1.0 459:1.0 460:1.0 464:1.0 633:1.0 646:1.0 836:1.0 873:1.0 883:1.0 1024:1.0 1293:1.0 1419:1.0 1521:1.0 1632:1.0 1690:1.0
0.044182075779017144 2:1.0 3:1.0 9:1.0 28:1.0 39:1.0 47:1.0 79:1.0 156:1.0 257:1.0 307:1.0 319:1.0 320:1.0 365:1.0 375:1.0 406:1.0 427:1.0 430:1.0 432:1.0 445:1.0 465:1.0 472:1.0 591:1.0 646:1.0 836:1.0 925:1.0 1024:1.0 1195:1.0 1362:1.0 1372:1.0 1521:1.0 1535:1.0 1596:1.0 1690:1.0
-0.01816810706007118 2:1.0 3:1.0 16:1.0 30:1.0 32:1.0 39:1.0 47:1.0 121:1.0 147:1.0 158:1.0 170:1.0 259:1.0 275:1.0 282:1.0 296:1.0 299:1.0 315:1.0 319:1.0 320:1.0 345:1.0 347:1.0 351:1.0 356:1.0 369:1.0 402:1.0 427:1.0 430:1.0 436:1.0 445:1.0 448:1.0 458:1.0 460:1.0 465:1.0 600:1.0 603:1.0 646:1.0 836:1.0 847:1.0 854:1.0 1124:1.0 1309:1.0 1345:1.0 1372:1.0 1408:1.0 1415:1.0 1521:1.0 1572:1.0 1596:1.0 1638:1.0 1653:1.0 1690:1.0 1691:1.0
-0.03756492675241249 3:1.0 40:1.0 79:1.0 154:1.0 208:1.0 353:1.0 355:1.0 406:1.0 444:1.0 445:1.0 464:1.0 497:1.0 517:1.0 591:1.0 622:1.0 675:1.0 836:1.0 868:1.0 898:1.0 1129:1.0 1372:1.0 1521:1.0 1690:1.0 1691:1.0
-0.044182075779017144 78:1.0 97:1.0 138:1.0 203:1.0 244:1.0 313:1.0 329:1.0 349:1.0 372:1.0 400:1.0 445:1.0 465:1.0 469:1.0 490:1.0 747:1.0 783:1.0 836:1.0 922:1.0 1002:1.0 1146:1.0 1227:1.0 1364:1.0 1387:1.0 1521:1.0 1596:1.0
-0.01812349514869072 29:1.0 60:1.0 97:1.0 103:1.0 104:1.0 110:1.0 137:1.0 156:1.0 170:1.0 179:1.0 203:1.0 225:1.0 260:1.0 295:1.0 299:1.0 307:1.0 329:1.0 356:1.0 375:1.0 390:1.0 400:1.0 427:1.0 437:1.0 445:1.0 456:1.0 458:1.0 462:1.0 522:1.0 532:1.0 571:1.0 584:1.0 697:1.0 717:1.0 748:1.0 836:1.0 912:1.0 1081:1.0 1123:1.0 1148:1.0 1273:1.0 1343:1.0 1372:1.0 1521:1.0 1597:1.0 1634:1.0 1655:1.0 1691:1.0
-0.03910395504032467 3:1.0 19:1.0 97:1.0 138:1.0 212:1.0 235:1.0 283:1.0 316:1.0 329:1.0 330:1.0 349:1.0 355:1.0 390:1.0 444:1.0 445:1.0 464:1.0 804:1.0 836:1.0 853:1.0 1160:1.0 1311:1.0 1521:1.0 1587:1.0 1616:1.0 1663:1.0 1723:1.0
0.044182075779017144 1:1.0 183:1.0 194:1.0 219:1.0 278:1.0 291:1.0 311:1.0 313:1.0 328:1.0 399:1.0 420:1.0 438:1.0 464:1.0 491:1.0 739:1.0 1063:1.0 1268:1.0 1521:1.0 1643:1.0 1659:1.0 1690:1.0
0.023945354256393967 1:1.0 27:1.0 150:1.0 168:1.0 304:1.0 311:1.0 381:1.0 447:1.0 472:1.0 659:1.0 1512:1.0 1521:1.0 1659:1.0 1678:1.0 1687:1.0
0.029166516106284537 1:1.0 219:1.0 311:1.0 399:1.0 448:1.0 472:1.0 579:1.0 753:1.0 1173:1.0 1310:1.0 1521:1.0
0.017192737071338 1:1.0 71:1.0 212:1.0 219:1.0 291:1.0 311:1.0 349:1.0 399:1.0 464:1.0 556:1.0 739:1.0 994:1.0 1108:1.0 1173:1.0 1521:1.0 1690:1.0
-0.030830364520745415 3:1.0 31:1.0 257:1.0 259:1.0 315:1.0 365:1.0 448:1.0 451:1.0 472:1.0 483:1.0 593:1.0 618:1.0 1026:1.0 1484:1.0 1521:1.0 1535:1.0 1690:1.0 1722:1.0
-0.044182075779017144 1:1.0 3:1.0 21:1.0 105:1.0 217:1.0 263:1.0 290:1.0 311:1.0 373:1.0 375:1.0 394:1.0 399:1.0 427:1.0 435:1.0 588:1.0 596:1.0 615:1.0 619:1.0 656:1.0 699:1.0 783:1.0 1024:1.0 1049:1.0 1173:1.0 1309:1.0 1521:1.0 1593:1.0 1637:1.0
-0.044182075779017144 4:1.0 30:1.0 40:1.0 106:1.0 200:1.0 216:1.0 311:1.0 359:1.0 397:1.0 427:1.0 445:1.0 460:1.0 464:1.0 521:1.0 668:1.0 708:1.0 722:1.0 847:1.0 1004:1.0 1024:1.0 1063:1.0 1643:1.0 1690:1.0
-0.011547466749954532 41:1.0 85:1.0 87:1.0 194:1.0 220:1.0 246:1.0 291:1.0 299:1.0 311:1.0 328:1.0 348:1.0 398:1.0 399:1.0 416:1.0 464:1.0 479:1.0 538:1.0 583:1.0 613:1.0 677:1.0 681:1.0 695:1.0 719:1.0 739:1.0 746:1.0 984:1.0 1004:1.0 1158:1.0 1372:1.0 1627:1.0 1690:1.0
-0.013433601648118205 34:1.0 79:1.0 89:1.0 91:1.0 101:1.0 336:1.0 345:1.0 369:1.0 406:1.0 411:1.0 427:1.0 445:1.0 472:1.0 561:1.0 591:1.0 836:1.0 1372:1.0 1498:1.0 1521:1.0 1572:1.0 1693:1.0 1722:1.0
0.044182075779017144 444:1.0 464:1.0 1521:1.0
0.044182075779017144 444:1.0 464:1.0 1521:1.0 1593:1.0
0.044182075779017144 418:1.0 444:1.0 471:1.0 673:1.0 823:1.0 1521:1.0 1659:1.0
0.044182075779017144 171:1.0 201:1.0 306:1.0 384:1.0 444:1.0 445:1.0 462:1.0 472:1.0 836:1.0 1105:1.0 1162:1.0 1521:1.0 1667:1.0
-0.044182075779017144 267:1.0 372:1.0 384:1.0 444:1.0 480:1.0 805:1.0 1521:1.0 1667:1.0
0.0062046300256427545 1:1.0 3:1.0 21:1.0 27:1.0 39:1.0 97:1.0 105:1.0 145:1.0 150:1.0 217:1.0 232:1.0 263:1.0 290:1.0 311:1.0 317:1.0 329:1.0 373:1.0 375:1.0 381:1.0 394:1.0 399:1.0 427:1.0 432:1.0 435:1.0 445:1.0 447:1.0 465:1.0 474:1.0 588:1.0 596:1.0 615:1.0 619:1.0 656:1.0 699:1.0 745:1.0 776:1.0 783:1.0 897:1.0 984:1.0 1024:1.0 1049:1.0 1092:1.0 1173:1.0 1309:1.0 1310:1.0 1521:1.0 1593:1.0 1596:1.0 1637:1.0
-0.03788671805414176 190:1.0 287:1.0 332:1.0 341:1.0 379:1.0 420:1.0 426:1.0 445:1.0 461:1.0 484:1.0 692:1.0 767:1.0 915:1.0 1339:1.0 1461:1.0 1475:1.0 1521:1.0 1558:1.0 1596:1.0 1696:1.0
-0.044182075779017144 40:1.0 46:1.0 98:1.0 296:1.0 337:1.0 351:1.0 405:1.0 445:1.0 464:1.0 475:1.0 764:1.0 847:1.0 990:1.0 1464:1.0 1521:1.0
-0.02324888409784809 3:1.0 18:1.0 42:1.0 142:1.0 160:1.0 321:1.0 355:1.0 357:1.0 411:1.0 455:1.0 460:1.0 487:1.0 583:1.0 686:1.0 883:1.0 1024:1.0 1521:1.0 1653:1.0 1659:1.0 1663:1.0 1691:1.0
-0.0438077070534804 6:1.0 245:1.0 250:1.0 278:1.0 291:1.0 313:1.0 319:1.0 356:1.0 420:1.0 446:1.0 464:1.0 482:1.0 489:1.0 567:1.0 663:1.0 739:1.0 1148:1.0 1159:1.0 1219:1.0 1341:1.0 1360:1.0 1521:1.0 1726:1.0
-0.02356806970185264 37:1.0 131:1.0 157:1.0 230:1.0 277:1.0 347:1.0 351:1.0 374:1.0 414:1.0 419:1.0 427:1.0 446:1.0 464:1.0 474:1.0 563:1.0 603:1.0 715:1.0 847:1.0 1035:1.0 1116:1.0 1139:1.0 1158:1.0 1521:1.0 1596:1.0
0.044182075779017144 53:1.0 70:1.0 167:1.0 278:1.0 311:1.0 314:1.0 315:1.0 330:1.0 390:1.0 397:1.0 420:1.0 464:1.0 708:1.0 984:1.0 1206:1.0 1344:1.0 1521:1.0 1587:1.0 1653:1.0 1690:1.0
0.044182075779017144 20:1.0 30:1.0 40:1.0 53:1.0 167:1.0 311:1.0 314:1.0 315:1.0 397:1.0 445:1.0 460:1.0 464:1.0 664:1.0 708:1.0 836:1.0 904:1.0 1344:1.0 1362:1.0 1521:1.0 1690:1.0
-0.044182075779017144 2:1.0 3:1.0 40:1.0 302:1.0 445:1.0 464:1.0 658:1.0 697:1.0 836:1.0 925:1.0 1521:1.0 1690:1.0
-0.036768975611455985 34:1.0 102:1.0 295:1.0 336:1.0 369:1.0 427:1.0 444:1.0 472:1.0 984:1.0 1207:1.0 1217:1.0 1521:1.0 1690:1.0 1691:1.0
-0.028584992200498743 102:1.0 110:1.0 227:1.0 281:1.0 287:1.0 295:1.0 375:1.0 420:1.0 427:1.0 438:1.0 444:1.0 484:1.0 1121:1.0 1521:1.0 1612:1.0 1653:1.0 1690:1.0 1691:1.0
-0.044182075779017144 2:1.0 168:1.0 172:1.0 304:1.0 320:1.0 354:1.0 472:1.0 612:1.0 1313:1.0 1322:1.0 1521:1.0
-0.038824969635363096 40:1.0 207:1.0 213:1.0 309:1.0 318:1.0 384:1.0 414:1.0 444:1.0 445:1.0 464:1.0 558:1.0 847:1.0 944:1.0 1521:1.0 1554:1.0 1638:1.0
0.044182075779017144 6:1.0 80:1.0 112:1.0 131:1.0 203:1.0 210:1.0 257:1.0 285:1.0 329:1.0 343:1.0 351:1.0 356:1.0 365:1.0 387:1.0 400:1.0 419:1.0 420:1.0 421:1.0 432:1.0 440:1.0 472:1.0 586:1.0 747:1.0 783:1.0 847:1.0 904:1.0 1148:1.0 1265:1.0 1310:1.0 1365:1.0 1491:1.0 1521:1.0 1596:1.0 1632:1.0 1666:1.0
0.044182075779017144 54:1.0 300:1.0 308:1.0 358:1.0 432:1.0 481:1.0 623:1.0 915:1.0 1119:1.0 1441:1.0 1521:1.0 1596:1.0
0.044182075779017144 143:1.0 291:1.0 384:1.0 444:1.0 454:1.0 458:1.0 739:1.0 1521:1.0 1579:1.0 1632:1.0
0.044182075779017144 40:1.0 46:1.0 311:1.0 340:1.0 397:1.0 405:1.0 445:1.0 461:1.0 464:1.0 486:1.0 649:1.0 668:1.0 783:1.0 847:1.0 1084:1.0 1521:1.0 1547:1.0 1690:1.0
-0.03509249701557062 58:1.0 131:1.0 277:1.0 337:1.0 340:1.0 351:1.0 384:1.0 387:1.0 405:1.0 419:1.0 440:1.0 444:1.0 464:1.0 730:1.0 783:1.0 847:1.0 990:1.0 999:1.0 1418:1.0 1521:1.0 1689:1.0
-0.025313299941217487 54:1.0 185:1.0 229:1.0 240:1.0 300:1.0 308:1.0 347:1.0 358:1.0 375:1.0 379:1.0 427:1.0 432:1.0 464:1.0 473:1.0 684:1.0 1004:1.0 1024:1.0 1043:1.0 1119:1.0 1318:1.0 1362:1.0 1596:1.0 1634:1.0 1690:1.0
-0.044182075779017144 383:1.0 444:1.0 458:1.0 822:1.0 1521:1.0
-0.04100403373742466 85:1.0 214:1.0 221:1.0 270:1.0 291:1.0 356:1.0 357:1.0 439:1.0 464:1.0 482:1.0 692:1.0 707:1.0 739:1.0 915:1.0 984:1.0 1313:1.0 1341:1.0 1521:1.0
-0.03114182686036742 51:1.0 80:1.0 131:1.0 206:1.0 260:1.0 277:1.0 315:1.0 329:1.0 351:1.0 356:1.0 413:1.0 419:1.0 446:1.0 464:1.0 846:1.0 957:1.0 1172:1.0 1268:1.0 1521:1.0 1535:1.0 1659:1.0 1670:1.0
0.044182075779017144 6:1.0 79:1.0 86:1.0 170:1.0 278:1.0 348:1.0 356:1.0 378:1.0 406:1.0 420:1.0 444:1.0 445:1.0 464:1.0 471:1.0 591:1.0 836:1.0 1043:1.0 1160:1.0 1372:1.0 1521:1.0 1581:1.0 1593:1.0 1627:1.0 1659:1.0
0.044182075779017144 1:1.0 176:1.0 311:1.0 321:1.0 362:1.0 1421:1.0 1521:1.0 1558:1.0
0.044182075779017144 1:1.0 3:1.0 21:1.0 114:1.0 185:1.0 311:1.0 339:1.0 375:1.0 427:1.0 433:1.0 435:1.0 473:1.0 596:1.0 1024:1.0 1049:1.0 1318:1.0 1521:1.0 1652:1.0
0.041700885395444476 1:1.0 33:1.0 311:1.0 470:1.0 687:1.0 1172:1.0 1521:1.0
0.044182075779017144 1:1.0 33:1.0 311:1.0 470:1.0 1521:1.0 1575:1.0
0.016842506759163843 1:1.0 80:1.0 97:1.0 131:1.0 146:1.0 150:1.0 186:1.0 192:1.0 228:1.0 232:1.0 277:1.0 311:1.0 322:1.0 325:1.0 329:1.0 343:1.0 351:1.0 358:1.0 373:1.0 381:1.0 419:1.0 445:1.0 464:1.0 631:1.0 697:1.0 730:1.0 776:1.0 783:1.0 836:1.0 897:1.0 1034:1.0 1056:1.0 1195:1.0 1217:1.0 1352:1.0 1362:1.0 1521:1.0
0.044182075779017144 1:1.0 33:1.0 311:1.0 470:1.0 1521:1.0
-0.04202553729400461 30:1.0 86:1.0 242:1.0 271:1.0 321:1.0 348:1.0 357:1.0 375:1.0 400:1.0 427:1.0 443:1.0 445:1.0 455:1.0 460:1.0 477:1.0 583:1.0 624:1.0 633:1.0 853:1.0 995:1.0 1024:1.0 1173:1.0 1243:1.0 1293:1.0 1307:1.0 1372:1.0 1521:1.0 1690:1.0
-0.015754348608492872 4:1.0 159:1.0 200:1.0 231:1.0 259:1.0 311:1.0 315:1.0 321:1.0 359:1.0 393:1.0 397:1.0 448:1.0 455:1.0 521:1.0 708:1.0 722:1.0 1004:1.0 1024:1.0 1086:1.0 1158:1.0 1643:1.0 1690:1.0
-0.044182075779017144 36:1.0 55:1.0 85:1.0 291:1.0 311:1.0 313:1.0 388:1.0 398:1.0 464:1.0 489:1.0 670:1.0 739:1.0 747:1.0 1103:1.0 1178:1.0 1341:1.0 1521:1.0
-0.005148524682483145 6:1.0 29:1.0 50:1.0 70:1.0 72:1.0 97:1.0 110:1.0 112:1.0 166:1.0 167:1.0 170:1.0 207:1.0 210:1.0 269:1.0 285:1.0 295:1.0 314:1.0 315:1.0 327:1.0 329:1.0 351:1.0 356:1.0 375:1.0 384:1.0 390:1.0 414:1.0 420:1.0 427:1.0 444:1.0 445:1.0 468:1.0 481:1.0 580:1.0 587:1.0 737:1.0 836:1.0 846:1.0 915:1.0 1079:1.0 1112:1.0 1142:1.0 1148:1.0 1214:1.0 1307:1.0 1322:1.0 1341:1.0 1435:1.0 1521:1.0 1643:1.0 1660:1.0 1691:1.0
-0.031197412302443554 3:1.0 54:1.0 293:1.0 300:1.0 308:1.0 309:1.0 378:1.0 445:1.0 461:1.0 472:1.0 924:1.0 1049:1.0 1219:1.0 1341:1.0 1362:1.0 1521:1.0 1596:1.0 1717:1.0
-0.044182075779017144 70:1.0 111:1.0 251:1.0 272:1.0 284:1.0 293:1.0 315:1.0 372:1.0 390:1.0 426:1.0 688:1.0 923:1.0 1315:1.0 1344:1.0 1362:1.0 1521:1.0 1618:1.0
-0.017091504923537927 40:1.0 67:1.0 79:1.0 185:1.0 201:1.0 239:1.0 306:1.0 375:1.0 406:1.0 411:1.0 425:1.0 427:1.0 429:1.0 445:1.0 462:1.0 464:1.0 473:1.0 494:1.0 561:1.0 591:1.0 604:1.0 655:1.0 836:1.0 897:1.0 1318:1.0 1372:1.0 1438:1.0 1476:1.0 1521:1.0 1566:1.0 1689:1.0 1693:1.0
-0.01285912094947185 67:1.0 79:1.0 166:1.0 167:1.0 170:1.0 269:1.0 314:1.0 315:1.0 323:1.0 356:1.0 375:1.0 406:1.0 411:1.0 427:1.0 445:1.0 481:1.0 583:1.0 591:1.0 802:1.0 836:1.0 1124:1.0 1222:1.0 1241:1.0 1372:1.0 1521:1.0 1589:1.0 1691:1.0
-0.015066029188040597 3:1.0 23:1.0 79:1.0 132:1.0 154:1.0 155:1.0 239:1.0 303:1.0 311:1.0 344:1.0 353:1.0 406:1.0 427:1.0 445:1.0 462:1.0 464:1.0 494:1.0 517:1.0 591:1.0 604:1.0 622:1.0 666:1.0 836:1.0 1004:1.0 1024:1.0 1129:1.0 1372:1.0 1417:1.0 1689:1.0 1690:1.0
0.04220051660755839 1:1.0 85:1.0 291:1.0 311:1.0 390:1.0 456:1.0 464:1.0 623:1.0 739:1.0 1018:1.0 1441:1.0 1468:1.0 1521:1.0
0.024308414284780738 1:1.0 288:1.0 311:1.0 390:1.0 472:1.0 623:1.0 1161:1.0 1441:1.0 1512:1.0 1521:1.0
-0.0430834290325764 152:1.0 264:1.0 314:1.0 337:1.0 372:1.0 383:1.0 444:1.0 450:1.0 1172:1.0 1293:1.0 1407:1.0 1426:1.0 1521:1.0
-0.019140237284532426 262:1.0 273:1.0 326:1.0 384:1.0 417:1.0 424:1.0 444:1.0 482:1.0 484:1.0 885:1.0 1341:1.0 1498:1.0 1521:1.0 1600:1.0 1673:1.0
0.0211862006847115 1:1.0 257:1.0 311:1.0 365:1.0 472:1.0 687:1.0 1083:1.0 1172:1.0 1521:1.0
0.017848379779580214 1:1.0 30:1.0 40:1.0 106:1.0 219:1.0 311:1.0 399:1.0 427:1.0 445:1.0 460:1.0 464:1.0 641:1.0 897:1.0 1046:1.0 1173:1.0 1315:1.0 1521:1.0 1534:1.0
-0.014925725696469511 207:1.0 311:1.0 350:1.0 372:1.0 414:1.0 416:1.0 445:1.0 570:1.0 583:1.0 695:1.0 760:1.0 836:1.0 1004:1.0 1690:1.0
-0.014125593486149548 3:1.0 79:1.0 103:1.0 115:1.0 239:1.0 301:1.0 310:1.0 316:1.0 349:1.0 355:1.0 364:1.0 406:1.0 413:1.0 420:1.0 445:1.0 446:1.0 458:1.0 462:1.0 480:1.0 749:1.0 797:1.0 840:1.0 855:1.0 914:1.0 1049:1.0 1136:1.0 1372:1.0 1480:1.0 1486:1.0 1521:1.0 1662:1.0 1667:1.0 1678:1.0
0.044182075779017144 1:1.0 257:1.0 311:1.0 365:1.0 472:1.0 1521:1.0 1594:1.0
0.031968470127616305 1:1.0 74:1.0 219:1.0 311:1.0 321:1.0 399:1.0 455:1.0 641:1.0 1173:1.0 1315:1.0 1521:1.0
-0.0012016223165279816 2:1.0 3:1.0 12:1.0 55:1.0 118:1.0 161:1.0 238:1.0 261:1.0 291:1.0 302:1.0 363:1.0 388:1.0 398:1.0 434:1.0 457:1.0 464:1.0 529:1.0 547:1.0 611:1.0 658:1.0 724:1.0 739:1.0 1063:1.0 1116:1.0 1341:1.0 1518:1.0 1521:1.0 1690:1.0
-0.03375183512556988 69:1.0 291:1.0 298:1.0 327:1.0 411:1.0 454:1.0 476:1.0 720:1.0 1190:1.0 1298:1.0 1441:1.0 1521:1.0
-0.012957855459242745 64:1.0 138:1.0 157:1.0 207:1.0 212:1.0 349:1.0 374:1.0 411:1.0 414:1.0 427:1.0 445:1.0 464:1.0 558:1.0 847:1.0 848:1.0 1521:1.0 1554:1.0
-0.009771694967234085 67:1.0 87:1.0 137:1.0 156:1.0 171:1.0 194:1.0 220:1.0 291:1.0 299:1.0 306:1.0 307:1.0 328:1.0 375:1.0 399:1.0 411:1.0 427:1.0 454:1.0 472:1.0 524:1.0 540:1.0 557:1.0 583:1.0 602:1.0 731:1.0 739:1.0 1283:1.0 1372:1.0 1521:1.0 1534:1.0 1689:1.0 1691:1.0
-0.010216396093755846 6:1.0 69:1.0 170:1.0 195:1.0 207:1.0 250:1.0 278:1.0 291:1.0 298:1.0 313:1.0 356:1.0 411:1.0 414:1.0 420:1.0 445:1.0 464:1.0 489:1.0 558:1.0 682:1.0 720:1.0 847:1.0 984:1.0 1063:1.0 1112:1.0 1148:1.0 1441:1.0 1521:1.0 1554:1.0
-0.0045732002068956164 13:1.0 131:1.0 137:1.0 156:1.0 177:1.0 212:1.0 240:1.0 275:1.0 296:1.0 299:1.0 303:1.0 307:1.0 347:1.0 349:1.0 351:1.0 375:1.0 396:1.0 404:1.0 419:1.0 427:1.0 429:1.0 460:1.0 464:1.0 469:1.0 475:1.0 590:1.0 594:1.0 603:1.0 605:1.0 836:1.0 880:1.0 1112:1.0 1140:1.0 1188:1.0 1279:1.0 1288:1.0 1308:1.0 1309:1.0 1322:1.0 1372:1.0 1373:1.0 1419:1.0 1521:1.0 1596:1.0 1691:1.0
-0.01615478470168902 51:1.0 148:1.0 151:1.0 159:1.0 167:1.0 259:1.0 314:1.0 315:1.0 393:1.0 411:1.0 413:1.0 448:1.0 464:1.0 519:1.0 583:1.0 672:1.0 883:1.0 1262:1.0 1273:1.0 1344:1.0 1498:1.0 1521:1.0 1691:1.0
-0.0015109806822135655 311:1.0 372:1.0 402:1.0 416:1.0 442:1.0 583:1.0 653:1.0 695:1.0 904:1.0 1004:1.0 1659:1.0 1690:1.0
-0.007675490723328183 84:1.0 214:1.0 237:1.0 291:1.0 296:1.0 351:1.0 352:1.0 357:1.0 400:1.0 439:1.0 443:1.0 458:1.0 465:1.0 468:1.0 583:1.0 639:1.0 707:1.0 739:1.0 771:1.0 962:1.0 1087:1.0 1148:1.0 1156:1.0 1230:1.0 1240:1.0 1293:1.0 1521:1.0 1596:1.0
-0.012255025471287205 3:1.0 4:1.0 158:1.0 276:1.0 286:1.0 314:1.0 319:1.0 321:1.0 351:1.0 368:1.0 402:1.0 411:1.0 432:1.0 455:1.0 465:1.0 630:1.0 741:1.0 883:1.0 1004:1.0 1024:1.0 1268:1.0 1273:1.0 1344:1.0 1596:1.0 1693:1.0
-0.0018229382325396306 4:1.0 124:1.0 200:1.0 216:1.0 226:1.0 311:1.0 340:1.0 359:1.0 387:1.0 397:1.0 413:1.0 427:1.0 441:1.0 484:1.0 488:1.0 521:1.0 708:1.0 722:1.0 785:1.0 1004:1.0 1024:1.0 1288:1.0 1547:1.0 1690:1.0
0.004483588636133157 1:1.0 30:1.0 85:1.0 86:1.0 125:1.0 291:1.0 311:1.0 348:1.0 445:1.0 460:1.0 464:1.0 477:1.0 739:1.0 847:1.0 1202:1.0 1372:1.0 1389:1.0 1521:1.0 1678:1.0
-0.01247400322436797 42:1.0 62:1.0 67:1.0 185:1.0 257:1.0 355:1.0 357:1.0 365:1.0 375:1.0 411:1.0 427:1.0 452:1.0 472:1.0 473:1.0 487:1.0 583:1.0 638:1.0 1119:1.0 1342:1.0 1428:1.0 1438:1.0 1521:1.0 1659:1.0 1663:1.0 1691:1.0
-0.009420428486419602 2:1.0 3:1.0 292:1.0 320:1.0 334:1.0 337:1.0 459:1.0 700:1.0 813:1.0 1521:1.0 1633:1.0 1643:1.0 1678:1.0
-0.006129708873190099 40:1.0 64:1.0 97:1.0 112:1.0 131:1.0 157:1.0 170:1.0 230:1.0 260:1.0 329:1.0 351:1.0 356:1.0 374:1.0 411:1.0 414:1.0 419:1.0 427:1.0 445:1.0 464:1.0 583:1.0 586:1.0 694:1.0 768:1.0 803:1.0 836:1.0 847:1.0 1019:1.0 1116:1.0 1139:1.0 1414:1.0 1521:1.0 1653:1.0 1722:1.0
-0.013442208089860613 2:1.0 3:1.0 144:1.0 265:1.0 320:1.0 331:1.0 334:1.0 390:1.0 409:1.0 412:1.0 456:1.0 485:1.0 518:1.0 609:1.0 612:1.0 883:1.0 1313:1.0 1344:1.0 1459:1.0 1521:1.0 1587:1.0
-0.0070037146751645105 82:1.0 174:1.0 298:1.0 312:1.0 313:1.0 351:1.0 411:1.0 433:1.0 467:1.0 478:1.0 634:1.0 720:1.0 825:1.0 1178:1.0 1268:1.0 1345:1.0 1441:1.0 1521:1.0
0.013363311299554299 1:1.0 97:1.0 138:1.0 202:1.0 212:1.0 219:1.0 286:1.0 311:1.0 329:1.0 349:1.0 399:1.0 445:1.0 464:1.0 697:1.0 748:1.0 776:1.0 836:1.0 964:1.0 1173:1.0 1197:1.0 1521:1.0
-0.009542194047793745 40:1.0 67:1.0 99:1.0 166:1.0 167:1.0 202:1.0 220:1.0 223:1.0 286:1.0 299:1.0 314:1.0 315:1.0 353:1.0 375:1.0 399:1.0 411:1.0 427:1.0 445:1.0 464:1.0 504:1.0 583:1.0 605:1.0 709:1.0 836:1.0 846:1.0 883:1.0 947:1.0 1024:1.0 1288:1.0 1304:1.0 1322:1.0 1372:1.0 1521:1.0 1652:1.0 1691:1.0
-0.006827739494023426 67:1.0 97:1.0 238:1.0 256:1.0 261:1.0 281:1.0 329:1.0 375:1.0 411:1.0 427:1.0 434:1.0 438:1.0 445:1.0 457:1.0 464:1.0 583:1.0 836:1.0 950:1.0 1055:1.0 1109:1.0 1116:1.0 1521:1.0 1691:1.0 1714:1.0
-0.0037159942109203847 80:1.0 97:1.0 103:1.0 112:1.0 131:1.0 179:1.0 260:1.0 282:1.0 311:1.0 323:1.0 329:1.0 332:1.0 351:1.0 356:1.0 371:1.0 386:1.0 402:1.0 416:1.0 419:1.0 445:1.0 458:1.0 462:1.0 469:1.0 697:1.0 708:1.0 711:1.0 776:1.0 785:1.0 836:1.0 890:1.0 912:1.0 1004:1.0 1034:1.0 1066:1.0 1148:1.0 1165:1.0 1187:1.0 1202:1.0 1302:1.0 1372:1.0 1448:1.0 1554:1.0 1567:1.0 1633:1.0 1653:1.0 1659:1.0 1664:1.0 1686:1.0 1690:1.0
-0.009992154676986347 278:1.0 336:1.0 404:1.0 410:1.0 420:1.0 453:1.0 464:1.0 1004:1.0 1043:1.0 1050:1.0 1180:1.0 1484:1.0 1690:1.0
-0.00797246182204444 3:1.0 11:1.0 31:1.0 212:1.0 349:1.0 451:1.0 464:1.0 479:1.0 483:1.0 545:1.0 569:1.0 620:1.0 1146:1.0 1158:1.0 1417:1.0 1521:1.0 1690:1.0
-0.010920445939452047 3:1.0 4:1.0 74:1.0 93:1.0 160:1.0 254:1.0 315:1.0 321:1.0 331:1.0 399:1.0 411:1.0 455:1.0 487:1.0 583:1.0 883:1.0 1024:1.0 1309:1.0 1344:1.0 1521:1.0 1691:1.0
-0.009158239055352874 67:1.0 85:1.0 214:1.0 271:1.0 291:1.0 330:1.0 357:1.0 375:1.0 411:1.0 427:1.0 439:1.0 443:1.0 464:1.0 561:1.0 739:1.0 1061:1.0 1206:1.0 1318:1.0 1521:1.0 1653:1.0 1693:1.0
-0.002619401602497338 6:1.0 170:1.0 209:1.0 227:1.0 287:1.0 311:1.0 356:1.0 416:1.0 420:1.0 445:1.0 484:1.0 570:1.0 583:1.0 695:1.0 937:1.0 1004:1.0 1123:1.0 1156:1.0 1176:1.0 1409:1.0 1690:1.0
-0.0036931766099637707 13:1.0 131:1.0 277:1.0 309:1.0 311:1.0 351:1.0 416:1.0 417:1.0 419:1.0 460:1.0 464:1.0 482:1.0 668:1.0 708:1.0 847:1.0 950:1.0 957:1.0 1004:1.0 1601:1.0 1643:1.0 1690:1.0
0.006475227658738158 1:1.0 33:1.0 311:1.0 470:1.0 1521:1.0 1575:1.0
-0.0032926242187993867 3:1.0 22:1.0 40:1.0 42:1.0 48:1.0 87:1.0 97:1.0 194:1.0 220:1.0 260:1.0 291:1.0 299:1.0 301:1.0 319:1.0 328:1.0 329:1.0 355:1.0 356:1.0 390:1.0 399:1.0 445:1.0 446:1.0 464:1.0 487:1.0 644:1.0 739:1.0 868:1.0 897:1.0 915:1.0 1110:1.0 1155:1.0 1219:1.0 1372:1.0 1433:1.0 1521:1.0 1540:1.0 1587:1.0 1691:1.0
-0.004959027435730718 2:1.0 124:1.0 139:1.0 151:1.0 205:1.0 216:1.0 315:1.0 320:1.0 359:1.0 385:1.0 393:1.0 413:1.0 427:1.0 464:1.0 612:1.0 883:1.0 984:1.0 1026:1.0 1283:1.0 1313:1.0 1521:1.0
-0.006747802172422815 40:1.0 311:1.0 416:1.0 445:1.0 464:1.0 570:1.0 583:1.0 695:1.0 937:1.0 1004:1.0 1156:1.0 1176:1.0 1690:1.0
-0.0026409488042997875 165:1.0 200:1.0 234:1.0 259:1.0 299:1.0 311:1.0 315:1.0 359:1.0 395:1.0 397:1.0 425:1.0 448:1.0 470:1.0 655:1.0 660:1.0 704:1.0 1004:1.0 1026:1.0 1129:1.0 1262:1.0 1372:1.0 1566:1.0 1690:1.0
-0.0022451423188520146 19:1.0 128:1.0 213:1.0 279:1.0 293:1.0 309:1.0 318:1.0 329:1.0 330:1.0 384:1.0 418:1.0 444:1.0 450:1.0 944:1.0 1218:1.0 1341:1.0 1516:1.0 1521:1.0 1653:1.0 1659:1.0
0.0019084315465680026 1:1.0 30:1.0 40:1.0 97:1.0 125:1.0 170:1.0 311:1.0 329:1.0 356:1.0 445:1.0 460:1.0 464:1.0 725:1.0 747:1.0 782:1.0 836:1.0 1148:1.0 1403:1.0 1521:1.0 1659:1.0 1667:1.0
-0.002510407733581768 3:1.0 32:1.0 319:1.0 321:1.0 333:1.0 369:1.0 426:1.0 427:1.0 430:1.0 662:1.0 1315:1.0 1338:1.0 1345:1.0 1420:1.0 1421:1.0 1521:1.0 1691:1.0
-0.0020683781878310676 246:1.0 311:1.0 398:1.0 416:1.0 479:1.0 583:1.0 640:1.0 695:1.0 996:1.0 1004:1.0 1432:1.0 1690:1.0
-3.804084034948953E-4 38:1.0 136:1.0 190:1.0 287:1.0 313:1.0 360:1.0 420:1.0 423:1.0 424:1.0 426:1.0 434:1.0 445:1.0 458:1.0 461:1.0 463:1.0 469:1.0 489:1.0 692:1.0 783:1.0 791:1.0 799:1.0 879:1.0 1058:1.0 1116:1.0 1148:1.0 1461:1.0 1521:1.0 1523:1.0 1554:1.0 1558:1.0 1579:1.0 1629:1.0
4.322500183929177E-4 1:1.0 6:1.0 48:1.0 176:1.0 278:1.0 291:1.0 311:1.0 356:1.0 362:1.0 420:1.0 464:1.0 739:1.0 1091:1.0 1112:1.0 1417:1.0 1421:1.0 1521:1.0 1690:1.0
-2.995028595403702E-4 131:1.0 174:1.0 188:1.0 240:1.0 277:1.0 312:1.0 342:1.0 347:1.0 348:1.0 351:1.0 375:1.0 384:1.0 419:1.0 427:1.0 444:1.0 459:1.0 464:1.0 477:1.0 580:1.0 603:1.0 739:1.0 847:1.0 885:1.0 899:1.0 925:1.0 982:1.0 1372:1.0 1384:1.0 1521:1.0 1558:1.0 1596:1.0 1643:1.0 1691:1.0
