SVM-light Version V6.01
0 # kernel type
3 # kernel parameter -d
1.0 # kernel parameter -g
1.0 # kernel parameter -s
0.0 # kernel parameter -r
empty# kernel parameter -u
1741 # highest feature index
464 # number of training documents
216 # number of support vectors plus 1
0.7225880456437124 # threshold b, each following line is a SV (starting with alpha*y)
-0.020859627937037228 2:1.0 3:1.0 29:1.0 30:1.0 47:1.0 112:1.0 189:1.0 253:1.0 313:1.0 321:1.0 354:1.0 370:1.0 371:1.0 377:1.0 381:1.0 387:1.0 415:1.0 440:1.0 461:1.0 490:1.0 494:1.0 656:1.0 729:1.0 734:1.0 751:1.0 848:1.0 1075:1.0 1242:1.0 1321:1.0 1354:1.0 1401:1.0 1525:1.0 1533:1.0 1702:1.0 1703:1.0
-0.00914609846540088 6:1.0 44:1.0 83:1.0 114:1.0 122:1.0 178:1.0 248:1.0 330:1.0 343:1.0 353:1.0 354:1.0 365:1.0 438:1.0 447:1.0 451:1.0 474:1.0 490:1.0 644:1.0 731:1.0 837:1.0 1160:1.0 1280:1.0 1353:1.0 1372:1.0 1453:1.0 1533:1.0
-0.017435879235012625 51:1.0 151:1.0 154:1.0 163:1.0 171:1.0 262:1.0 310:1.0 343:1.0 350:1.0 356:1.0 357:1.0 418:1.0 447:1.0 525:1.0 591:1.0 682:1.0 895:1.0 1274:1.0 1285:1.0 1356:1.0 1510:1.0 1533:1.0 1703:1.0
-0.02454866247394162 36:1.0 55:1.0 71:1.0 216:1.0 302:1.0 313:1.0 319:1.0 354:1.0 416:1.0 421:1.0 432:1.0 438:1.0 447:1.0 490:1.0 751:1.0 1154:1.0 1280:1.0 1310:1.0 1533:1.0 1634:1.0 1690:1.0 1738:1.0
-0.00393531154711945 45:1.0 67:1.0 102:1.0 220:1.0 256:1.0 329:1.0 343:1.0 377:1.0 435:1.0 459:1.0 486:1.0 494:1.0 511:1.0 544:1.0 591:1.0 654:1.0 690:1.0 1266:1.0 1280:1.0 1354:1.0 1533:1.0 1649:1.0 1703:1.0
-0.012620855916267656 40:1.0 46:1.0 100:1.0 322:1.0 328:1.0 409:1.0 415:1.0 438:1.0 447:1.0 462:1.0 776:1.0 859:1.0 1002:1.0 1476:1.0 1533:1.0
3.3405267782890823E-4 3:1.0 31:1.0 135:1.0 168:1.0 317:1.0 377:1.0 385:1.0 422:1.0 423:1.0 479:1.0 553:1.0 577:1.0 630:1.0 1170:1.0 1533:1.0 1599:1.0 1702:1.0
0.014519952622221062 2:1.0 3:1.0 24:1.0 40:1.0 50:1.0 98:1.0 201:1.0 240:1.0 322:1.0 371:1.0 378:1.0 391:1.0 415:1.0 421:1.0 438:1.0 447:1.0 454:1.0 501:1.0 573:1.0 711:1.0 859:1.0 927:1.0 974:1.0 1271:1.0 1533:1.0 1582:1.0 1690:1.0
0.044096413535494344 13:1.0 134:1.0 280:1.0 349:1.0 352:1.0 360:1.0 362:1.0 364:1.0 438:1.0 440:1.0 447:1.0 474:1.0 678:1.0 719:1.0 859:1.0 962:1.0 969:1.0 1533:1.0 1613:1.0 1655:1.0 1702:1.0
0.020668128947791457 2:1.0 3:1.0 79:1.0 215:1.0 288:1.0 297:1.0 337:1.0 354:1.0 415:1.0 425:1.0 467:1.0 476:1.0 668:1.0 910:1.0 927:1.0 1357:1.0 1444:1.0 1533:1.0 1702:1.0
-0.044096413535494344 2:1.0 3:1.0 6:1.0 12:1.0 91:1.0 174:1.0 211:1.0 281:1.0 334:1.0 355:1.0 365:1.0 415:1.0 447:1.0 451:1.0 469:1.0 500:1.0 535:1.0 578:1.0 668:1.0 735:1.0 848:1.0 1160:1.0 1353:1.0 1533:1.0 1702:1.0 1714:1.0
-0.044096413535494344 1:1.0 3:1.0 30:1.0 39:1.0 40:1.0 128:1.0 134:1.0 301:1.0 352:1.0 364:1.0 375:1.0 415:1.0 438:1.0 440:1.0 447:1.0 449:1.0 484:1.0 551:1.0 568:1.0 714:1.0 734:1.0 779:1.0 795:1.0 848:1.0 1192:1.0 1291:1.0 1533:1.0 1597:1.0 1608:1.0 1702:1.0
-0.044096413535494344 2:1.0 3:1.0 16:1.0 30:1.0 32:1.0 39:1.0 47:1.0 124:1.0 150:1.0 162:1.0 174:1.0 262:1.0 278:1.0 285:1.0 322:1.0 325:1.0 331:1.0 357:1.0 370:1.0 371:1.0 377:1.0 381:1.0 393:1.0 415:1.0 418:1.0 426:1.0 428:1.0 437:1.0 438:1.0 440:1.0 449:1.0 451:1.0 483:1.0 608:1.0 612:1.0 656:1.0 848:1.0 859:1.0 866:1.0 1136:1.0 1321:1.0 1357:1.0 1384:1.0 1420:1.0 1427:1.0 1533:1.0 1584:1.0 1608:1.0 1650:1.0 1665:1.0 1702:1.0 1703:1.0
-0.044096413535494344 2:1.0 3:1.0 40:1.0 334:1.0 415:1.0 447:1.0 668:1.0 708:1.0 848:1.0 937:1.0 1533:1.0 1702:1.0
-0.044096413535494344 2:1.0 3:1.0 317:1.0 371:1.0 403:1.0 409:1.0 439:1.0 711:1.0 825:1.0 1533:1.0 1645:1.0 1655:1.0 1690:1.0
0.044096413535494344 46:1.0 67:1.0 99:1.0 141:1.0 149:1.0 170:1.0 171:1.0 211:1.0 235:1.0 291:1.0 293:1.0 299:1.0 325:1.0 327:1.0 328:1.0 343:1.0 355:1.0 356:1.0 357:1.0 358:1.0 361:1.0 365:1.0 375:1.0 377:1.0 391:1.0 395:1.0 400:1.0 409:1.0 415:1.0 432:1.0 463:1.0 486:1.0 489:1.0 491:1.0 494:1.0 510:1.0 583:1.0 591:1.0 595:1.0 720:1.0 738:1.0 797:1.0 848:1.0 858:1.0 859:1.0 895:1.0 909:1.0 1055:1.0 1062:1.0 1140:1.0 1177:1.0 1216:1.0 1291:1.0 1305:1.0 1334:1.0 1353:1.0 1356:1.0 1448:1.0 1533:1.0 1608:1.0 1646:1.0 1674:1.0 1685:1.0 1703:1.0
0.044096413535494344 9:1.0 28:1.0 42:1.0 164:1.0 170:1.0 171:1.0 175:1.0 177:1.0 205:1.0 212:1.0 227:1.0 303:1.0 331:1.0 343:1.0 344:1.0 356:1.0 357:1.0 370:1.0 377:1.0 381:1.0 415:1.0 417:1.0 443:1.0 445:1.0 450:1.0 458:1.0 487:1.0 494:1.0 539:1.0 579:1.0 591:1.0 728:1.0 848:1.0 1036:1.0 1049:1.0 1253:1.0 1285:1.0 1356:1.0 1384:1.0 1533:1.0 1600:1.0 1645:1.0 1646:1.0 1655:1.0 1679:1.0 1703:1.0
0.044096413535494344 67:1.0 274:1.0 280:1.0 343:1.0 377:1.0 410:1.0 438:1.0 447:1.0 494:1.0 640:1.0 643:1.0 878:1.0 1305:1.0 1374:1.0 1533:1.0 1705:1.0
0.024587047743277985 3:1.0 42:1.0 138:1.0 164:1.0 177:1.0 212:1.0 227:1.0 228:1.0 303:1.0 328:1.0 331:1.0 343:1.0 357:1.0 363:1.0 367:1.0 377:1.0 425:1.0 445:1.0 450:1.0 487:1.0 494:1.0 503:1.0 512:1.0 539:1.0 558:1.0 579:1.0 591:1.0 667:1.0 676:1.0 681:1.0 696:1.0 728:1.0 868:1.0 895:1.0 933:1.0 1036:1.0 1041:1.0 1285:1.0 1384:1.0 1533:1.0 1646:1.0 1671:1.0 1703:1.0
0.044096413535494344 31:1.0 86:1.0 127:1.0 168:1.0 210:1.0 218:1.0 225:1.0 273:1.0 313:1.0 350:1.0 377:1.0 398:1.0 422:1.0 447:1.0 451:1.0 453:1.0 479:1.0 639:1.0 671:1.0 691:1.0 751:1.0 758:1.0 996:1.0 1280:1.0 1533:1.0 1702:1.0 1703:1.0 1726:1.0
-0.044096413535494344 3:1.0 9:1.0 42:1.0 89:1.0 164:1.0 208:1.0 212:1.0 227:1.0 228:1.0 291:1.0 327:1.0 328:1.0 331:1.0 343:1.0 370:1.0 377:1.0 445:1.0 450:1.0 453:1.0 458:1.0 487:1.0 494:1.0 503:1.0 512:1.0 558:1.0 591:1.0 667:1.0 679:1.0 681:1.0 728:1.0 868:1.0 943:1.0 1055:1.0 1170:1.0 1272:1.0 1285:1.0 1291:1.0 1306:1.0 1322:1.0 1354:1.0 1384:1.0 1533:1.0 1703:1.0
-0.011241898023700111 13:1.0 18:1.0 42:1.0 45:1.0 52:1.0 67:1.0 98:1.0 114:1.0 134:1.0 141:1.0 251:1.0 261:1.0 263:1.0 343:1.0 358:1.0 364:1.0 377:1.0 391:1.0 415:1.0 432:1.0 437:1.0 438:1.0 440:1.0 450:1.0 451:1.0 459:1.0 487:1.0 494:1.0 511:1.0 591:1.0 616:1.0 654:1.0 727:1.0 848:1.0 879:1.0 1036:1.0 1070:1.0 1075:1.0 1239:1.0 1533:1.0 1624:1.0 1649:1.0 1701:1.0 1703:1.0 1726:1.0
-0.044096413535494344 3:1.0 24:1.0 67:1.0 100:1.0 170:1.0 171:1.0 186:1.0 303:1.0 307:1.0 322:1.0 343:1.0 356:1.0 357:1.0 377:1.0 378:1.0 409:1.0 421:1.0 438:1.0 494:1.0 510:1.0 591:1.0 720:1.0 895:1.0 1041:1.0 1070:1.0 1356:1.0 1471:1.0 1533:1.0 1646:1.0 1660:1.0 1703:1.0
-0.006006582396999109 45:1.0 49:1.0 67:1.0 73:1.0 85:1.0 101:1.0 131:1.0 148:1.0 170:1.0 227:1.0 229:1.0 245:1.0 280:1.0 305:1.0 313:1.0 316:1.0 331:1.0 338:1.0 343:1.0 356:1.0 357:1.0 361:1.0 377:1.0 382:1.0 396:1.0 421:1.0 438:1.0 445:1.0 447:1.0 449:1.0 453:1.0 459:1.0 492:1.0 494:1.0 591:1.0 592:1.0 688:1.0 689:1.0 751:1.0 795:1.0 899:1.0 935:1.0 1002:1.0 1154:1.0 1170:1.0 1274:1.0 1285:1.0 1300:1.0 1334:1.0 1354:1.0 1356:1.0 1384:1.0 1423:1.0 1533:1.0 1608:1.0 1674:1.0 1683:1.0 1703:1.0
-0.018371891806059464 3:1.0 35:1.0 42:1.0 65:1.0 67:1.0 170:1.0 171:1.0 257:1.0 320:1.0 343:1.0 356:1.0 357:1.0 377:1.0 450:1.0 456:1.0 487:1.0 494:1.0 510:1.0 584:1.0 591:1.0 616:1.0 720:1.0 895:1.0 1036:1.0 1356:1.0 1533:1.0 1624:1.0 1649:1.0 1675:1.0 1703:1.0
-0.044096413535494344 3:1.0 42:1.0 45:1.0 67:1.0 68:1.0 212:1.0 261:1.0 292:1.0 343:1.0 377:1.0 445:1.0 450:1.0 459:1.0 480:1.0 487:1.0 494:1.0 591:1.0 809:1.0 1011:1.0 1300:1.0 1384:1.0 1533:1.0 1613:1.0 1703:1.0
0.033667101575868566 2:1.0 3:1.0 6:1.0 40:1.0 44:1.0 174:1.0 199:1.0 211:1.0 215:1.0 288:1.0 337:1.0 354:1.0 355:1.0 365:1.0 415:1.0 447:1.0 451:1.0 490:1.0 668:1.0 673:1.0 750:1.0 1160:1.0 1310:1.0 1319:1.0 1372:1.0 1401:1.0 1533:1.0 1702:1.0
-0.044096413535494344 413:1.0 447:1.0 1533:1.0
0.007445352242742326 2:1.0 3:1.0 55:1.0 59:1.0 120:1.0 143:1.0 241:1.0 264:1.0 290:1.0 302:1.0 308:1.0 313:1.0 319:1.0 357:1.0 371:1.0 389:1.0 436:1.0 447:1.0 509:1.0 656:1.0 658:1.0 680:1.0 729:1.0 751:1.0 900:1.0 1075:1.0 1128:1.0 1353:1.0 1533:1.0 1702:1.0
-0.044096413535494344 2:1.0 3:1.0 12:1.0 55:1.0 120:1.0 165:1.0 241:1.0 264:1.0 302:1.0 313:1.0 319:1.0 334:1.0 389:1.0 436:1.0 447:1.0 469:1.0 535:1.0 555:1.0 620:1.0 668:1.0 735:1.0 751:1.0 1075:1.0 1128:1.0 1353:1.0 1530:1.0 1533:1.0 1702:1.0
-0.022145673867344305 134:1.0 217:1.0 233:1.0 280:1.0 296:1.0 349:1.0 355:1.0 364:1.0 368:1.0 413:1.0 438:1.0 447:1.0 595:1.0 859:1.0 1275:1.0 1341:1.0 1353:1.0 1455:1.0 1533:1.0
-0.044096413535494344 86:1.0 218:1.0 225:1.0 273:1.0 313:1.0 398:1.0 447:1.0 451:1.0 453:1.0 474:1.0 702:1.0 718:1.0 751:1.0 927:1.0 996:1.0 1325:1.0 1353:1.0 1533:1.0
-0.007768741635174546 79:1.0 134:1.0 194:1.0 199:1.0 233:1.0 246:1.0 280:1.0 354:1.0 355:1.0 364:1.0 374:1.0 415:1.0 438:1.0 447:1.0 490:1.0 702:1.0 794:1.0 859:1.0 958:1.0 1214:1.0 1473:1.0 1500:1.0 1533:1.0
0.044096413535494344 3:1.0 85:1.0 148:1.0 151:1.0 198:1.0 202:1.0 257:1.0 262:1.0 290:1.0 308:1.0 313:1.0 319:1.0 320:1.0 343:1.0 357:1.0 361:1.0 377:1.0 390:1.0 418:1.0 449:1.0 456:1.0 525:1.0 591:1.0 682:1.0 689:1.0 751:1.0 935:1.0 1041:1.0 1170:1.0 1274:1.0 1285:1.0 1291:1.0 1306:1.0 1423:1.0 1533:1.0 1608:1.0 1703:1.0
0.044096413535494344 3:1.0 42:1.0 62:1.0 90:1.0 105:1.0 111:1.0 123:1.0 219:1.0 252:1.0 320:1.0 341:1.0 343:1.0 377:1.0 415:1.0 424:1.0 427:1.0 437:1.0 443:1.0 450:1.0 452:1.0 453:1.0 483:1.0 487:1.0 591:1.0 608:1.0 633:1.0 782:1.0 809:1.0 1036:1.0 1316:1.0 1320:1.0 1357:1.0 1424:1.0 1533:1.0 1571:1.0 1674:1.0 1703:1.0
0.044096413535494344 3:1.0 75:1.0 77:1.0 85:1.0 138:1.0 151:1.0 198:1.0 257:1.0 262:1.0 313:1.0 320:1.0 343:1.0 357:1.0 367:1.0 376:1.0 377:1.0 390:1.0 418:1.0 425:1.0 433:1.0 449:1.0 525:1.0 591:1.0 676:1.0 682:1.0 689:1.0 751:1.0 900:1.0 933:1.0 1036:1.0 1170:1.0 1274:1.0 1285:1.0 1350:1.0 1533:1.0 1547:1.0 1608:1.0 1703:1.0
0.044096413535494344 166:1.0 169:1.0 260:1.0 331:1.0 343:1.0 372:1.0 377:1.0 458:1.0 475:1.0 478:1.0 665:1.0 860:1.0 1168:1.0 1384:1.0 1451:1.0 1533:1.0 1578:1.0
0.044096413535494344 3:1.0 32:1.0 42:1.0 164:1.0 177:1.0 212:1.0 227:1.0 280:1.0 303:1.0 331:1.0 343:1.0 370:1.0 377:1.0 381:1.0 438:1.0 445:1.0 447:1.0 450:1.0 483:1.0 487:1.0 503:1.0 512:1.0 539:1.0 558:1.0 579:1.0 591:1.0 667:1.0 681:1.0 728:1.0 868:1.0 1041:1.0 1261:1.0 1285:1.0 1384:1.0 1434:1.0 1533:1.0 1646:1.0 1703:1.0 1730:1.0 1731:1.0
-0.01837880657149154 3:1.0 30:1.0 90:1.0 95:1.0 101:1.0 174:1.0 227:1.0 273:1.0 278:1.0 331:1.0 343:1.0 357:1.0 376:1.0 377:1.0 415:1.0 425:1.0 433:1.0 440:1.0 445:1.0 451:1.0 453:1.0 483:1.0 614:1.0 647:1.0 703:1.0 708:1.0 848:1.0 860:1.0 933:1.0 1023:1.0 1280:1.0 1300:1.0 1334:1.0 1384:1.0 1533:1.0 1547:1.0 1671:1.0 1703:1.0 1741:1.0
-0.044096413535494344 2:1.0 3:1.0 9:1.0 28:1.0 39:1.0 47:1.0 80:1.0 159:1.0 260:1.0 332:1.0 347:1.0 370:1.0 371:1.0 377:1.0 381:1.0 383:1.0 415:1.0 449:1.0 458:1.0 475:1.0 494:1.0 599:1.0 656:1.0 848:1.0 937:1.0 1036:1.0 1207:1.0 1374:1.0 1384:1.0 1533:1.0 1547:1.0 1608:1.0 1702:1.0
-0.044096413535494344 3:1.0 31:1.0 77:1.0 168:1.0 206:1.0 281:1.0 297:1.0 320:1.0 365:1.0 377:1.0 422:1.0 447:1.0 479:1.0 562:1.0 564:1.0 628:1.0 699:1.0 700:1.0 937:1.0 1036:1.0 1185:1.0 1316:1.0 1533:1.0 1671:1.0 1702:1.0
-0.044096413535494344 3:1.0 4:1.0 75:1.0 94:1.0 164:1.0 257:1.0 320:1.0 343:1.0 357:1.0 376:1.0 397:1.0 433:1.0 487:1.0 591:1.0 895:1.0 1036:1.0 1321:1.0 1356:1.0 1533:1.0 1703:1.0
0.044096413535494344 2:1.0 3:1.0 12:1.0 55:1.0 86:1.0 165:1.0 302:1.0 313:1.0 319:1.0 334:1.0 447:1.0 469:1.0 535:1.0 555:1.0 620:1.0 668:1.0 735:1.0 751:1.0 1353:1.0 1530:1.0 1533:1.0 1702:1.0
0.012017907319301347 2:1.0 3:1.0 110:1.0 201:1.0 350:1.0 371:1.0 378:1.0 386:1.0 421:1.0 480:1.0 485:1.0 711:1.0 761:1.0 1171:1.0 1353:1.0 1533:1.0 1559:1.0 1690:1.0
0.044096413535494344 3:1.0 40:1.0 67:1.0 91:1.0 98:1.0 156:1.0 189:1.0 233:1.0 263:1.0 283:1.0 315:1.0 326:1.0 343:1.0 355:1.0 364:1.0 377:1.0 391:1.0 415:1.0 447:1.0 451:1.0 461:1.0 469:1.0 494:1.0 500:1.0 578:1.0 591:1.0 606:1.0 735:1.0 848:1.0 927:1.0 968:1.0 1061:1.0 1353:1.0 1354:1.0 1440:1.0 1513:1.0 1533:1.0 1589:1.0 1703:1.0
0.044096413535494344 3:1.0 81:1.0 134:1.0 150:1.0 181:1.0 322:1.0 342:1.0 351:1.0 364:1.0 391:1.0 437:1.0 438:1.0 848:1.0 940:1.0 1061:1.0 1135:1.0 1471:1.0 1533:1.0 1571:1.0
0.013746551837370337 72:1.0 249:1.0 318:1.0 319:1.0 352:1.0 360:1.0 486:1.0 591:1.0 650:1.0 705:1.0 1008:1.0 1444:1.0 1533:1.0 1702:1.0
-0.00993373755037208 40:1.0 98:1.0 134:1.0 182:1.0 218:1.0 253:1.0 313:1.0 342:1.0 354:1.0 364:1.0 391:1.0 398:1.0 404:1.0 415:1.0 438:1.0 447:1.0 453:1.0 457:1.0 484:1.0 490:1.0 493:1.0 595:1.0 624:1.0 718:1.0 743:1.0 751:1.0 848:1.0 927:1.0 940:1.0 1086:1.0 1135:1.0 1166:1.0 1353:1.0 1533:1.0 1539:1.0 1651:1.0
-0.044096413535494344 3:1.0 6:1.0 93:1.0 188:1.0 214:1.0 238:1.0 258:1.0 287:1.0 294:1.0 322:1.0 350:1.0 365:1.0 437:1.0 438:1.0 450:1.0 451:1.0 454:1.0 462:1.0 645:1.0 891:1.0 927:1.0 1160:1.0 1295:1.0 1533:1.0 1550:1.0 1675:1.0 1735:1.0
-0.012386239967165577 3:1.0 81:1.0 124:1.0 134:1.0 151:1.0 181:1.0 208:1.0 235:1.0 238:1.0 258:1.0 262:1.0 287:1.0 291:1.0 300:1.0 322:1.0 331:1.0 343:1.0 357:1.0 364:1.0 376:1.0 391:1.0 418:1.0 426:1.0 431:1.0 433:1.0 438:1.0 450:1.0 466:1.0 475:1.0 591:1.0 708:1.0 782:1.0 848:1.0 880:1.0 1152:1.0 1224:1.0 1275:1.0 1314:1.0 1384:1.0 1411:1.0 1448:1.0 1496:1.0 1533:1.0 1550:1.0 1671:1.0 1703:1.0 1711:1.0
-0.01748889700255362 3:1.0 22:1.0 40:1.0 42:1.0 48:1.0 88:1.0 98:1.0 198:1.0 224:1.0 263:1.0 305:1.0 313:1.0 320:1.0 331:1.0 335:1.0 370:1.0 390:1.0 391:1.0 415:1.0 416:1.0 447:1.0 450:1.0 451:1.0 487:1.0 653:1.0 751:1.0 880:1.0 909:1.0 927:1.0 1122:1.0 1167:1.0 1231:1.0 1384:1.0 1445:1.0 1533:1.0 1552:1.0 1599:1.0 1703:1.0
0.044096413535494344 30:1.0 39:1.0 130:1.0 169:1.0 254:1.0 275:1.0 278:1.0 289:1.0 293:1.0 312:1.0 316:1.0 331:1.0 357:1.0 372:1.0 374:1.0 415:1.0 440:1.0 447:1.0 449:1.0 537:1.0 665:1.0 694:1.0 698:1.0 701:1.0 738:1.0 859:1.0 937:1.0 1327:1.0 1353:1.0 1356:1.0 1374:1.0 1384:1.0 1533:1.0 1578:1.0 1599:1.0 1608:1.0
0.044096413535494344 3:1.0 4:1.0 162:1.0 279:1.0 297:1.0 325:1.0 343:1.0 356:1.0 370:1.0 376:1.0 383:1.0 433:1.0 438:1.0 449:1.0 482:1.0 640:1.0 753:1.0 895:1.0 1036:1.0 1280:1.0 1285:1.0 1356:1.0 1533:1.0 1608:1.0 1705:1.0
0.044096413535494344 2:1.0 3:1.0 9:1.0 147:1.0 266:1.0 268:1.0 307:1.0 345:1.0 370:1.0 371:1.0 377:1.0 397:1.0 481:1.0 494:1.0 524:1.0 618:1.0 622:1.0 895:1.0 1141:1.0 1325:1.0 1356:1.0 1533:1.0 1703:1.0
0.004465021874461405 3:1.0 31:1.0 77:1.0 168:1.0 307:1.0 320:1.0 377:1.0 414:1.0 422:1.0 479:1.0 562:1.0 628:1.0 699:1.0 1036:1.0 1103:1.0 1185:1.0 1223:1.0 1354:1.0 1355:1.0 1433:1.0 1533:1.0 1702:1.0
0.044096413535494344 3:1.0 7:1.0 29:1.0 42:1.0 82:1.0 194:1.0 281:1.0 291:1.0 321:1.0 365:1.0 374:1.0 415:1.0 447:1.0 450:1.0 487:1.0 723:1.0 1038:1.0 1453:1.0 1533:1.0 1550:1.0 1671:1.0 1675:1.0 1682:1.0 1683:1.0
-0.027832858070725202 55:1.0 86:1.0 254:1.0 293:1.0 302:1.0 313:1.0 319:1.0 374:1.0 447:1.0 537:1.0 680:1.0 698:1.0 738:1.0 751:1.0 1327:1.0 1353:1.0 1365:1.0 1533:1.0
-0.037537332400698994 155:1.0 254:1.0 275:1.0 282:1.0 293:1.0 316:1.0 374:1.0 421:1.0 486:1.0 537:1.0 698:1.0 738:1.0 889:1.0 1327:1.0 1353:1.0 1521:1.0 1533:1.0
-0.044096413535494344 2:1.0 3:1.0 192:1.0 201:1.0 317:1.0 371:1.0 377:1.0 378:1.0 421:1.0 439:1.0 494:1.0 561:1.0 588:1.0 711:1.0 724:1.0 1230:1.0 1452:1.0 1533:1.0 1655:1.0 1690:1.0 1703:1.0
-0.044096413535494344 1:1.0 3:1.0 21:1.0 116:1.0 189:1.0 352:1.0 377:1.0 387:1.0 392:1.0 411:1.0 461:1.0 494:1.0 605:1.0 1036:1.0 1061:1.0 1330:1.0 1533:1.0 1664:1.0
-0.044096413535494344 3:1.0 32:1.0 370:1.0 374:1.0 376:1.0 377:1.0 381:1.0 402:1.0 483:1.0 672:1.0 1327:1.0 1350:1.0 1357:1.0 1432:1.0 1433:1.0 1533:1.0 1703:1.0
0.044096413535494344 6:1.0 216:1.0 218:1.0 220:1.0 300:1.0 313:1.0 323:1.0 331:1.0 354:1.0 365:1.0 377:1.0 379:1.0 398:1.0 419:1.0 432:1.0 447:1.0 451:1.0 453:1.0 459:1.0 465:1.0 470:1.0 496:1.0 751:1.0 759:1.0 807:1.0 937:1.0 1038:1.0 1131:1.0 1214:1.0 1305:1.0 1384:1.0 1433:1.0 1496:1.0 1533:1.0 1542:1.0 1549:1.0 1577:1.0 1579:1.0 1683:1.0 1726:1.0
0.044096413535494344 3:1.0 40:1.0 70:1.0 94:1.0 98:1.0 106:1.0 263:1.0 305:1.0 342:1.0 357:1.0 391:1.0 394:1.0 397:1.0 414:1.0 415:1.0 434:1.0 447:1.0 451:1.0 465:1.0 606:1.0 848:1.0 880:1.0 927:1.0 1094:1.0 1168:1.0 1275:1.0 1533:1.0 1556:1.0 1579:1.0 1599:1.0 1609:1.0 1702:1.0
0.01472045823860703 41:1.0 86:1.0 210:1.0 218:1.0 225:1.0 249:1.0 250:1.0 273:1.0 313:1.0 319:1.0 331:1.0 350:1.0 352:1.0 360:1.0 398:1.0 431:1.0 447:1.0 451:1.0 453:1.0 468:1.0 546:1.0 591:1.0 623:1.0 691:1.0 703:1.0 705:1.0 751:1.0 996:1.0 1051:1.0 1170:1.0 1384:1.0 1533:1.0 1547:1.0 1571:1.0 1702:1.0 1726:1.0
0.011933318862872098 81:1.0 98:1.0 105:1.0 114:1.0 134:1.0 183:1.0 263:1.0 285:1.0 300:1.0 325:1.0 352:1.0 360:1.0 364:1.0 379:1.0 391:1.0 400:1.0 415:1.0 437:1.0 438:1.0 443:1.0 451:1.0 455:1.0 488:1.0 708:1.0 719:1.0 722:1.0 788:1.0 797:1.0 848:1.0 902:1.0 924:1.0 1046:1.0 1078:1.0 1160:1.0 1177:1.0 1199:1.0 1214:1.0 1314:1.0 1384:1.0 1460:1.0 1533:1.0 1566:1.0 1579:1.0 1645:1.0 1665:1.0 1671:1.0 1676:1.0 1698:1.0 1702:1.0
0.008828847597972294 13:1.0 22:1.0 249:1.0 278:1.0 318:1.0 319:1.0 331:1.0 335:1.0 352:1.0 360:1.0 364:1.0 440:1.0 486:1.0 546:1.0 591:1.0 623:1.0 705:1.0 909:1.0 996:1.0 1154:1.0 1170:1.0 1384:1.0 1533:1.0 1576:1.0 1702:1.0
-0.02353287724705734 29:1.0 60:1.0 98:1.0 105:1.0 106:1.0 112:1.0 140:1.0 159:1.0 174:1.0 183:1.0 207:1.0 229:1.0 263:1.0 305:1.0 321:1.0 323:1.0 331:1.0 347:1.0 377:1.0 391:1.0 394:1.0 415:1.0 434:1.0 437:1.0 443:1.0 451:1.0 494:1.0 528:1.0 539:1.0 579:1.0 592:1.0 708:1.0 728:1.0 760:1.0 848:1.0 924:1.0 1093:1.0 1135:1.0 1160:1.0 1285:1.0 1355:1.0 1384:1.0 1533:1.0 1609:1.0 1646:1.0 1667:1.0 1703:1.0
-0.044096413535494344 53:1.0 70:1.0 171:1.0 281:1.0 305:1.0 314:1.0 352:1.0 356:1.0 357:1.0 365:1.0 396:1.0 447:1.0 719:1.0 996:1.0 1218:1.0 1356:1.0 1533:1.0 1599:1.0 1665:1.0 1702:1.0
-0.044096413535494344 64:1.0 154:1.0 169:1.0 250:1.0 331:1.0 343:1.0 350:1.0 372:1.0 377:1.0 447:1.0 488:1.0 492:1.0 591:1.0 665:1.0 701:1.0 704:1.0 815:1.0 1181:1.0 1353:1.0 1384:1.0 1533:1.0 1578:1.0 1599:1.0
-0.044096413535494344 53:1.0 113:1.0 171:1.0 305:1.0 314:1.0 352:1.0 356:1.0 357:1.0 383:1.0 486:1.0 719:1.0 878:1.0 957:1.0 1356:1.0 1533:1.0 1599:1.0 1608:1.0 1702:1.0
-0.044096413535494344 20:1.0 30:1.0 40:1.0 53:1.0 171:1.0 314:1.0 352:1.0 356:1.0 357:1.0 415:1.0 440:1.0 447:1.0 674:1.0 719:1.0 848:1.0 916:1.0 1356:1.0 1374:1.0 1533:1.0 1702:1.0
0.044096413535494344 3:1.0 155:1.0 296:1.0 349:1.0 368:1.0 373:1.0 378:1.0 413:1.0 421:1.0 486:1.0 724:1.0 1041:1.0 1230:1.0 1353:1.0 1533:1.0
0.044096413535494344 462:1.0 486:1.0 1231:1.0 1533:1.0
0.044096413535494344 45:1.0 67:1.0 234:1.0 343:1.0 376:1.0 377:1.0 433:1.0 459:1.0 494:1.0 640:1.0 1533:1.0 1646:1.0 1705:1.0 1741:1.0
0.044096413535494344 2:1.0 3:1.0 21:1.0 142:1.0 163:1.0 221:1.0 262:1.0 266:1.0 298:1.0 307:1.0 310:1.0 311:1.0 356:1.0 357:1.0 370:1.0 371:1.0 377:1.0 392:1.0 418:1.0 459:1.0 494:1.0 564:1.0 596:1.0 604:1.0 622:1.0 895:1.0 1061:1.0 1185:1.0 1300:1.0 1316:1.0 1325:1.0 1356:1.0 1496:1.0 1533:1.0 1703:1.0 1730:1.0
0.030421124284513778 2:1.0 3:1.0 55:1.0 86:1.0 110:1.0 201:1.0 302:1.0 313:1.0 319:1.0 371:1.0 378:1.0 386:1.0 421:1.0 447:1.0 540:1.0 561:1.0 581:1.0 680:1.0 711:1.0 724:1.0 751:1.0 1075:1.0 1230:1.0 1353:1.0 1533:1.0 1690:1.0
-0.044096413535494344 3:1.0 31:1.0 260:1.0 262:1.0 357:1.0 418:1.0 422:1.0 458:1.0 475:1.0 479:1.0 603:1.0 628:1.0 1038:1.0 1496:1.0 1533:1.0 1547:1.0 1702:1.0 1734:1.0
-0.044096413535494344 2:1.0 3:1.0 26:1.0 44:1.0 176:1.0 338:1.0 354:1.0 365:1.0 371:1.0 429:1.0 444:1.0 464:1.0 490:1.0 711:1.0 1353:1.0 1401:1.0 1521:1.0 1533:1.0 1671:1.0 1690:1.0
-0.022227785845720764 58:1.0 67:1.0 130:1.0 134:1.0 228:1.0 276:1.0 279:1.0 289:1.0 328:1.0 343:1.0 364:1.0 373:1.0 377:1.0 438:1.0 449:1.0 480:1.0 494:1.0 571:1.0 640:1.0 742:1.0 859:1.0 956:1.0 1151:1.0 1330:1.0 1401:1.0 1533:1.0 1608:1.0 1705:1.0
-0.044096413535494344 2:1.0 172:1.0 176:1.0 338:1.0 371:1.0 444:1.0 458:1.0 622:1.0 1325:1.0 1334:1.0 1533:1.0
0.00909845376352204 41:1.0 86:1.0 88:1.0 198:1.0 224:1.0 249:1.0 313:1.0 319:1.0 320:1.0 331:1.0 352:1.0 360:1.0 390:1.0 431:1.0 447:1.0 468:1.0 546:1.0 591:1.0 623:1.0 687:1.0 691:1.0 705:1.0 730:1.0 751:1.0 758:1.0 996:1.0 1170:1.0 1384:1.0 1533:1.0 1639:1.0 1702:1.0
0.044096413535494344 3:1.0 37:1.0 94:1.0 98:1.0 135:1.0 309:1.0 317:1.0 351:1.0 357:1.0 385:1.0 391:1.0 397:1.0 415:1.0 416:1.0 423:1.0 460:1.0 463:1.0 721:1.0 867:1.0 1061:1.0 1334:1.0 1364:1.0 1533:1.0 1599:1.0 1608:1.0 1671:1.0 1674:1.0 1675:1.0 1690:1.0
0.044096413535494344 54:1.0 189:1.0 243:1.0 333:1.0 346:1.0 348:1.0 377:1.0 383:1.0 428:1.0 457:1.0 458:1.0 461:1.0 494:1.0 694:1.0 1036:1.0 1055:1.0 1131:1.0 1330:1.0 1374:1.0 1533:1.0 1608:1.0 1646:1.0 1702:1.0
0.044096413535494344 3:1.0 18:1.0 29:1.0 30:1.0 42:1.0 82:1.0 87:1.0 194:1.0 280:1.0 321:1.0 374:1.0 415:1.0 431:1.0 438:1.0 440:1.0 447:1.0 450:1.0 487:1.0 723:1.0 786:1.0 848:1.0 1038:1.0 1046:1.0 1073:1.0 1208:1.0 1384:1.0 1410:1.0 1453:1.0 1533:1.0 1675:1.0
-0.044096413535494344 3:1.0 37:1.0 42:1.0 62:1.0 240:1.0 291:1.0 322:1.0 410:1.0 416:1.0 438:1.0 442:1.0 450:1.0 453:1.0 454:1.0 463:1.0 476:1.0 487:1.0 648:1.0 723:1.0 1038:1.0 1055:1.0 1167:1.0 1168:1.0 1231:1.0 1276:1.0 1305:1.0 1511:1.0 1533:1.0 1608:1.0 1671:1.0 1675:1.0
0.044096413535494344 3:1.0 31:1.0 127:1.0 154:1.0 168:1.0 350:1.0 377:1.0 422:1.0 447:1.0 479:1.0 506:1.0 628:1.0 645:1.0 1280:1.0 1533:1.0 1547:1.0 1702:1.0 1703:1.0
-0.044096413535494344 2:1.0 3:1.0 9:1.0 28:1.0 30:1.0 40:1.0 47:1.0 192:1.0 370:1.0 371:1.0 377:1.0 381:1.0 415:1.0 423:1.0 439:1.0 440:1.0 447:1.0 494:1.0 643:1.0 656:1.0 848:1.0 885:1.0 895:1.0 1036:1.0 1305:1.0 1431:1.0 1533:1.0 1644:1.0 1702:1.0
-0.044096413535494344 3:1.0 54:1.0 288:1.0 316:1.0 333:1.0 348:1.0 349:1.0 415:1.0 441:1.0 458:1.0 936:1.0 1061:1.0 1231:1.0 1353:1.0 1374:1.0 1533:1.0 1608:1.0 1729:1.0
-0.01644808688589948 1:1.0 3:1.0 21:1.0 27:1.0 39:1.0 98:1.0 107:1.0 148:1.0 153:1.0 221:1.0 235:1.0 266:1.0 291:1.0 307:1.0 311:1.0 320:1.0 352:1.0 361:1.0 377:1.0 383:1.0 391:1.0 392:1.0 415:1.0 419:1.0 449:1.0 463:1.0 491:1.0 494:1.0 596:1.0 605:1.0 625:1.0 629:1.0 666:1.0 710:1.0 757:1.0 788:1.0 795:1.0 909:1.0 996:1.0 1036:1.0 1061:1.0 1104:1.0 1185:1.0 1321:1.0 1322:1.0 1533:1.0 1605:1.0 1608:1.0 1649:1.0
-0.044096413535494344 30:1.0 87:1.0 245:1.0 274:1.0 323:1.0 376:1.0 377:1.0 410:1.0 415:1.0 431:1.0 433:1.0 440:1.0 453:1.0 466:1.0 494:1.0 591:1.0 633:1.0 643:1.0 865:1.0 1007:1.0 1036:1.0 1185:1.0 1255:1.0 1305:1.0 1319:1.0 1384:1.0 1533:1.0 1702:1.0
0.009317138272675888 2:1.0 3:1.0 6:1.0 73:1.0 114:1.0 179:1.0 188:1.0 214:1.0 229:1.0 255:1.0 294:1.0 305:1.0 331:1.0 365:1.0 371:1.0 437:1.0 438:1.0 451:1.0 471:1.0 513:1.0 711:1.0 716:1.0 761:1.0 802:1.0 858:1.0 1249:1.0 1384:1.0 1533:1.0 1690:1.0
0.044096413535494344 3:1.0 150:1.0 152:1.0 290:1.0 308:1.0 322:1.0 357:1.0 384:1.0 416:1.0 435:1.0 437:1.0 438:1.0 474:1.0 575:1.0 1041:1.0 1148:1.0 1226:1.0 1231:1.0 1353:1.0 1382:1.0 1512:1.0 1533:1.0
0.044096413535494344 281:1.0 327:1.0 342:1.0 365:1.0 407:1.0 429:1.0 447:1.0 1055:1.0 1062:1.0 1192:1.0 1496:1.0 1533:1.0 1702:1.0
0.044096413535494344 2:1.0 3:1.0 176:1.0 188:1.0 294:1.0 338:1.0 365:1.0 371:1.0 437:1.0 444:1.0 520:1.0 675:1.0 711:1.0 849:1.0 1154:1.0 1510:1.0 1533:1.0 1580:1.0 1690:1.0
0.016096664909514766 2:1.0 3:1.0 176:1.0 226:1.0 286:1.0 308:1.0 338:1.0 357:1.0 362:1.0 371:1.0 419:1.0 444:1.0 458:1.0 474:1.0 711:1.0 858:1.0 1193:1.0 1322:1.0 1353:1.0 1455:1.0 1533:1.0 1690:1.0
-0.044096413535494344 51:1.0 81:1.0 134:1.0 210:1.0 263:1.0 280:1.0 350:1.0 357:1.0 364:1.0 391:1.0 416:1.0 438:1.0 447:1.0 451:1.0 858:1.0 969:1.0 1184:1.0 1280:1.0 1533:1.0 1547:1.0 1671:1.0 1682:1.0
-0.044096413535494344 3:1.0 60:1.0 140:1.0 151:1.0 163:1.0 179:1.0 216:1.0 229:1.0 250:1.0 262:1.0 305:1.0 310:1.0 331:1.0 343:1.0 347:1.0 350:1.0 357:1.0 418:1.0 432:1.0 434:1.0 447:1.0 471:1.0 591:1.0 716:1.0 1041:1.0 1044:1.0 1152:1.0 1338:1.0 1341:1.0 1384:1.0 1475:1.0 1533:1.0 1646:1.0 1660:1.0 1703:1.0
-0.044096413535494344 3:1.0 70:1.0 94:1.0 113:1.0 305:1.0 357:1.0 380:1.0 397:1.0 416:1.0 486:1.0 711:1.0 721:1.0 810:1.0 909:1.0 1231:1.0 1264:1.0 1334:1.0 1533:1.0 1599:1.0
-0.03879067381790184 169:1.0 217:1.0 237:1.0 296:1.0 331:1.0 349:1.0 368:1.0 372:1.0 413:1.0 456:1.0 488:1.0 665:1.0 956:1.0 1131:1.0 1353:1.0 1384:1.0 1533:1.0 1578:1.0
0.044096413535494344 4:1.0 30:1.0 40:1.0 109:1.0 204:1.0 220:1.0 314:1.0 352:1.0 377:1.0 415:1.0 440:1.0 447:1.0 459:1.0 527:1.0 678:1.0 719:1.0 733:1.0 859:1.0 1036:1.0 1075:1.0 1533:1.0 1655:1.0 1702:1.0
0.0035910790645089096 4:1.0 43:1.0 109:1.0 204:1.0 220:1.0 293:1.0 314:1.0 352:1.0 377:1.0 420:1.0 440:1.0 459:1.0 486:1.0 527:1.0 629:1.0 719:1.0 733:1.0 738:1.0 909:1.0 1036:1.0 1266:1.0 1353:1.0 1533:1.0 1649:1.0 1702:1.0
0.03405422004768103 3:1.0 115:1.0 168:1.0 173:1.0 245:1.0 291:1.0 323:1.0 377:1.0 414:1.0 422:1.0 453:1.0 477:1.0 481:1.0 494:1.0 591:1.0 603:1.0 788:1.0 1038:1.0 1218:1.0 1355:1.0 1433:1.0 1533:1.0 1624:1.0 1657:1.0 1675:1.0 1702:1.0
0.019101311233121292 3:1.0 31:1.0 48:1.0 77:1.0 133:1.0 145:1.0 168:1.0 198:1.0 273:1.0 313:1.0 320:1.0 376:1.0 377:1.0 390:1.0 422:1.0 433:1.0 451:1.0 453:1.0 479:1.0 637:1.0 657:1.0 706:1.0 751:1.0 792:1.0 1036:1.0 1185:1.0 1427:1.0 1533:1.0 1665:1.0 1702:1.0
0.044096413535494344 204:1.0 220:1.0 314:1.0 352:1.0 377:1.0 459:1.0 480:1.0 659:1.0 956:1.0 1036:1.0 1533:1.0 1629:1.0 1702:1.0
-0.044096413535494344 1:1.0 6:1.0 48:1.0 180:1.0 281:1.0 313:1.0 352:1.0 365:1.0 447:1.0 451:1.0 470:1.0 751:1.0 1103:1.0 1124:1.0 1429:1.0 1433:1.0 1533:1.0 1702:1.0
-0.027990150455785207 45:1.0 67:1.0 297:1.0 299:1.0 343:1.0 365:1.0 377:1.0 414:1.0 459:1.0 477:1.0 494:1.0 591:1.0 777:1.0 858:1.0 1036:1.0 1055:1.0 1155:1.0 1384:1.0 1533:1.0 1685:1.0 1698:1.0 1703:1.0
-0.044096413535494344 1:1.0 187:1.0 198:1.0 223:1.0 281:1.0 313:1.0 320:1.0 352:1.0 354:1.0 365:1.0 390:1.0 395:1.0 447:1.0 496:1.0 751:1.0 1075:1.0 1280:1.0 1533:1.0 1655:1.0 1671:1.0 1702:1.0
-0.004699392734631417 104:1.0 112:1.0 231:1.0 284:1.0 299:1.0 321:1.0 365:1.0 377:1.0 395:1.0 413:1.0 480:1.0 494:1.0 1133:1.0 1533:1.0 1624:1.0 1665:1.0 1702:1.0 1703:1.0
-0.040912259782466896 34:1.0 104:1.0 321:1.0 377:1.0 407:1.0 413:1.0 458:1.0 483:1.0 996:1.0 1219:1.0 1229:1.0 1533:1.0 1702:1.0 1703:1.0
0.03031612258760719 3:1.0 6:1.0 20:1.0 30:1.0 50:1.0 98:1.0 134:1.0 174:1.0 183:1.0 232:1.0 262:1.0 281:1.0 295:1.0 355:1.0 357:1.0 364:1.0 365:1.0 369:1.0 375:1.0 391:1.0 413:1.0 415:1.0 418:1.0 425:1.0 438:1.0 440:1.0 443:1.0 447:1.0 451:1.0 454:1.0 491:1.0 578:1.0 676:1.0 722:1.0 797:1.0 834:1.0 848:1.0 909:1.0 933:1.0 1036:1.0 1179:1.0 1202:1.0 1268:1.0 1291:1.0 1353:1.0 1390:1.0 1423:1.0 1496:1.0 1533:1.0 1665:1.0
0.044096413535494344 3:1.0 79:1.0 132:1.0 216:1.0 246:1.0 248:1.0 288:1.0 323:1.0 354:1.0 415:1.0 432:1.0 447:1.0 474:1.0 490:1.0 760:1.0 935:1.0 996:1.0 1061:1.0 1533:1.0 1602:1.0 1678:1.0
0.03424915495251995 2:1.0 3:1.0 142:1.0 230:1.0 298:1.0 301:1.0 310:1.0 329:1.0 349:1.0 357:1.0 371:1.0 387:1.0 401:1.0 412:1.0 622:1.0 795:1.0 956:1.0 1305:1.0 1325:1.0 1533:1.0 1563:1.0
0.04317871546618122 2:1.0 3:1.0 57:1.0 121:1.0 356:1.0 357:1.0 367:1.0 371:1.0 393:1.0 458:1.0 711:1.0 933:1.0 1322:1.0 1533:1.0 1547:1.0 1671:1.0 1690:1.0
0.019116599260194652 2:1.0 3:1.0 96:1.0 179:1.0 232:1.0 250:1.0 255:1.0 329:1.0 331:1.0 350:1.0 371:1.0 375:1.0 447:1.0 471:1.0 489:1.0 491:1.0 513:1.0 711:1.0 716:1.0 761:1.0 795:1.0 1124:1.0 1249:1.0 1321:1.0 1384:1.0 1533:1.0 1690:1.0
-0.044096413535494344 64:1.0 141:1.0 161:1.0 211:1.0 216:1.0 343:1.0 355:1.0 377:1.0 415:1.0 432:1.0 447:1.0 492:1.0 566:1.0 859:1.0 860:1.0 1533:1.0 1566:1.0
-0.044096413535494344 40:1.0 46:1.0 314:1.0 328:1.0 352:1.0 412:1.0 415:1.0 441:1.0 447:1.0 484:1.0 659:1.0 678:1.0 795:1.0 859:1.0 1096:1.0 1533:1.0 1559:1.0 1702:1.0
-0.03102497602664665 43:1.0 79:1.0 185:1.0 194:1.0 246:1.0 354:1.0 374:1.0 415:1.0 420:1.0 486:1.0 490:1.0 698:1.0 1327:1.0 1353:1.0 1462:1.0 1533:1.0 1571:1.0
0.044096413535494344 99:1.0 325:1.0 352:1.0 360:1.0 404:1.0 486:1.0 591:1.0 663:1.0 705:1.0 916:1.0 1533:1.0 1671:1.0 1702:1.0
0.044096413535494344 352:1.0 360:1.0 404:1.0 591:1.0 663:1.0 705:1.0 1533:1.0 1571:1.0 1671:1.0 1702:1.0
0.018912760961628933 6:1.0 174:1.0 213:1.0 231:1.0 299:1.0 352:1.0 360:1.0 365:1.0 415:1.0 451:1.0 480:1.0 578:1.0 591:1.0 705:1.0 949:1.0 1135:1.0 1168:1.0 1188:1.0 1421:1.0 1533:1.0 1702:1.0
0.044096413535494344 40:1.0 352:1.0 360:1.0 415:1.0 447:1.0 578:1.0 591:1.0 705:1.0 949:1.0 1168:1.0 1188:1.0 1533:1.0 1702:1.0
-0.044096413535494344 3:1.0 18:1.0 42:1.0 145:1.0 164:1.0 343:1.0 376:1.0 433:1.0 440:1.0 450:1.0 453:1.0 487:1.0 591:1.0 696:1.0 895:1.0 1036:1.0 1533:1.0 1665:1.0 1671:1.0 1675:1.0 1703:1.0
-0.044096413535494344 1:1.0 105:1.0 180:1.0 219:1.0 269:1.0 352:1.0 415:1.0 427:1.0 437:1.0 443:1.0 470:1.0 669:1.0 926:1.0 1095:1.0 1533:1.0 1690:1.0 1701:1.0
-0.03302955273698988 265:1.0 276:1.0 296:1.0 362:1.0 373:1.0 386:1.0 413:1.0 474:1.0 480:1.0 897:1.0 1353:1.0 1510:1.0 1533:1.0 1612:1.0 1685:1.0
-0.044096413535494344 75:1.0 257:1.0 320:1.0 357:1.0 376:1.0 416:1.0 433:1.0 895:1.0 1170:1.0 1533:1.0 1690:1.0
-0.027872261191414945 151:1.0 163:1.0 262:1.0 310:1.0 329:1.0 340:1.0 343:1.0 357:1.0 358:1.0 418:1.0 432:1.0 525:1.0 591:1.0 682:1.0 1044:1.0 1248:1.0 1274:1.0 1300:1.0 1303:1.0 1442:1.0 1533:1.0 1703:1.0
0.044096413535494344 2:1.0 3:1.0 16:1.0 17:1.0 141:1.0 216:1.0 271:1.0 334:1.0 393:1.0 406:1.0 415:1.0 432:1.0 447:1.0 619:1.0 848:1.0 1327:1.0 1422:1.0 1456:1.0 1533:1.0 1733:1.0
0.044096413535494344 10:1.0 55:1.0 123:1.0 145:1.0 302:1.0 312:1.0 313:1.0 319:1.0 348:1.0 357:1.0 376:1.0 407:1.0 424:1.0 433:1.0 453:1.0 1075:1.0 1098:1.0 1110:1.0 1353:1.0 1533:1.0 1702:1.0 1726:1.0 1741:1.0
0.04320396436054198 3:1.0 40:1.0 90:1.0 98:1.0 110:1.0 149:1.0 197:1.0 211:1.0 232:1.0 343:1.0 355:1.0 375:1.0 377:1.0 378:1.0 386:1.0 391:1.0 402:1.0 415:1.0 421:1.0 424:1.0 447:1.0 452:1.0 483:1.0 491:1.0 578:1.0 591:1.0 608:1.0 662:1.0 708:1.0 788:1.0 795:1.0 822:1.0 848:1.0 1041:1.0 1235:1.0 1347:1.0 1353:1.0 1357:1.0 1430:1.0 1447:1.0 1533:1.0 1703:1.0
0.03412858646898583 3:1.0 23:1.0 80:1.0 157:1.0 158:1.0 242:1.0 332:1.0 336:1.0 352:1.0 377:1.0 415:1.0 425:1.0 443:1.0 445:1.0 447:1.0 499:1.0 523:1.0 599:1.0 613:1.0 631:1.0 676:1.0 848:1.0 1036:1.0 1141:1.0 1384:1.0 1429:1.0 1533:1.0 1701:1.0 1702:1.0
-0.044096413535494344 3:1.0 40:1.0 80:1.0 157:1.0 212:1.0 332:1.0 413:1.0 415:1.0 445:1.0 447:1.0 450:1.0 502:1.0 523:1.0 599:1.0 631:1.0 685:1.0 848:1.0 880:1.0 910:1.0 1141:1.0 1384:1.0 1533:1.0 1702:1.0 1703:1.0
-0.02176183980322151 1:1.0 81:1.0 98:1.0 134:1.0 149:1.0 153:1.0 190:1.0 196:1.0 232:1.0 235:1.0 280:1.0 291:1.0 352:1.0 364:1.0 375:1.0 385:1.0 391:1.0 415:1.0 423:1.0 438:1.0 447:1.0 457:1.0 491:1.0 641:1.0 708:1.0 742:1.0 788:1.0 795:1.0 848:1.0 909:1.0 1046:1.0 1068:1.0 1207:1.0 1229:1.0 1364:1.0 1374:1.0 1533:1.0
-0.044096413535494344 3:1.0 45:1.0 67:1.0 79:1.0 220:1.0 343:1.0 354:1.0 377:1.0 380:1.0 402:1.0 415:1.0 448:1.0 459:1.0 467:1.0 483:1.0 494:1.0 591:1.0 848:1.0 1041:1.0 1196:1.0 1300:1.0 1447:1.0 1533:1.0 1646:1.0 1703:1.0
0.044096413535494344 3:1.0 108:1.0 109:1.0 168:1.0 363:1.0 377:1.0 422:1.0 440:1.0 462:1.0 637:1.0 683:1.0 809:1.0 1036:1.0 1231:1.0 1474:1.0 1533:1.0 1608:1.0 1671:1.0
0.044096413535494344 2:1.0 143:1.0 155:1.0 282:1.0 290:1.0 308:1.0 316:1.0 349:1.0 357:1.0 368:1.0 371:1.0 421:1.0 486:1.0 488:1.0 622:1.0 802:1.0 1199:1.0 1325:1.0 1353:1.0 1419:1.0 1533:1.0
-0.03522431267155108 155:1.0 254:1.0 293:1.0 319:1.0 374:1.0 418:1.0 421:1.0 486:1.0 672:1.0 878:1.0 1185:1.0 1310:1.0 1327:1.0 1419:1.0 1533:1.0
-0.02099061419000853 1:1.0 3:1.0 21:1.0 89:1.0 116:1.0 145:1.0 189:1.0 291:1.0 352:1.0 376:1.0 377:1.0 392:1.0 411:1.0 423:1.0 433:1.0 453:1.0 461:1.0 491:1.0 494:1.0 605:1.0 732:1.0 782:1.0 795:1.0 1036:1.0 1061:1.0 1131:1.0 1330:1.0 1533:1.0 1551:1.0 1664:1.0 1726:1.0
-0.044096413535494344 3:1.0 20:1.0 30:1.0 56:1.0 61:1.0 90:1.0 338:1.0 343:1.0 357:1.0 377:1.0 392:1.0 415:1.0 440:1.0 443:1.0 454:1.0 483:1.0 591:1.0 605:1.0 848:1.0 863:1.0 933:1.0 1036:1.0 1061:1.0 1099:1.0 1160:1.0 1356:1.0 1533:1.0 1547:1.0 1629:1.0 1703:1.0
-0.024204989454443486 86:1.0 218:1.0 286:1.0 296:1.0 297:1.0 313:1.0 398:1.0 413:1.0 447:1.0 453:1.0 633:1.0 751:1.0 1036:1.0 1285:1.0 1346:1.0 1533:1.0 1674:1.0
-0.010193963488327799 155:1.0 194:1.0 267:1.0 356:1.0 374:1.0 409:1.0 415:1.0 421:1.0 443:1.0 486:1.0 702:1.0 817:1.0 863:1.0 1305:1.0 1473:1.0 1533:1.0 1659:1.0
0.041671874824905364 3:1.0 80:1.0 105:1.0 117:1.0 242:1.0 332:1.0 335:1.0 350:1.0 351:1.0 358:1.0 365:1.0 415:1.0 416:1.0 432:1.0 437:1.0 443:1.0 450:1.0 472:1.0 473:1.0 761:1.0 809:1.0 852:1.0 867:1.0 926:1.0 1061:1.0 1148:1.0 1384:1.0 1492:1.0 1498:1.0 1533:1.0 1674:1.0 1679:1.0 1690:1.0
0.044096413535494344 3:1.0 40:1.0 415:1.0 447:1.0 479:1.0 628:1.0 909:1.0 1306:1.0 1533:1.0 1702:1.0
-0.027843329145228808 3:1.0 40:1.0 69:1.0 117:1.0 167:1.0 313:1.0 330:1.0 343:1.0 385:1.0 415:1.0 417:1.0 423:1.0 447:1.0 450:1.0 473:1.0 731:1.0 786:1.0 817:1.0 1453:1.0 1530:1.0 1533:1.0 1599:1.0 1671:1.0 1675:1.0
-0.022607898658095957 3:1.0 90:1.0 95:1.0 117:1.0 167:1.0 343:1.0 377:1.0 385:1.0 414:1.0 423:1.0 425:1.0 429:1.0 450:1.0 468:1.0 473:1.0 477:1.0 483:1.0 591:1.0 653:1.0 788:1.0 880:1.0 919:1.0 929:1.0 1073:1.0 1185:1.0 1223:1.0 1533:1.0 1599:1.0 1637:1.0 1703:1.0
-0.03413414209223938 54:1.0 333:1.0 348:1.0 383:1.0 457:1.0 476:1.0 632:1.0 927:1.0 1131:1.0 1453:1.0 1533:1.0 1608:1.0
0.04317554848558247 72:1.0 204:1.0 277:1.0 314:1.0 318:1.0 352:1.0 459:1.0 486:1.0 497:1.0 615:1.0 670:1.0 899:1.0 1036:1.0 1533:1.0 1702:1.0
0.014022310300138681 72:1.0 204:1.0 277:1.0 314:1.0 318:1.0 352:1.0 459:1.0 486:1.0 497:1.0 615:1.0 670:1.0 1036:1.0 1171:1.0 1533:1.0 1702:1.0
0.044096413535494344 204:1.0 220:1.0 314:1.0 352:1.0 377:1.0 447:1.0 459:1.0 483:1.0 659:1.0 1011:1.0 1036:1.0 1533:1.0 1569:1.0 1702:1.0
0.021527445819097175 169:1.0 204:1.0 237:1.0 262:1.0 312:1.0 314:1.0 331:1.0 352:1.0 357:1.0 372:1.0 418:1.0 456:1.0 459:1.0 665:1.0 670:1.0 715:1.0 1038:1.0 1141:1.0 1274:1.0 1384:1.0 1533:1.0 1578:1.0 1702:1.0
-0.044096413535494344 415:1.0 443:1.0 456:1.0 462:1.0 848:1.0 1227:1.0 1533:1.0 1644:1.0 1679:1.0
-0.02006882455175584 1:1.0 71:1.0 216:1.0 223:1.0 313:1.0 320:1.0 352:1.0 432:1.0 447:1.0 564:1.0 751:1.0 1006:1.0 1120:1.0 1185:1.0 1533:1.0 1702:1.0
-0.031945397431586295 36:1.0 55:1.0 86:1.0 302:1.0 313:1.0 319:1.0 352:1.0 354:1.0 447:1.0 490:1.0 680:1.0 751:1.0 759:1.0 1115:1.0 1190:1.0 1353:1.0 1533:1.0
0.044096413535494344 3:1.0 130:1.0 162:1.0 164:1.0 279:1.0 285:1.0 289:1.0 325:1.0 343:1.0 397:1.0 438:1.0 447:1.0 449:1.0 451:1.0 487:1.0 640:1.0 694:1.0 1011:1.0 1015:1.0 1374:1.0 1414:1.0 1533:1.0 1575:1.0 1608:1.0 1675:1.0 1705:1.0 1726:1.0
0.03172445855471432 2:1.0 3:1.0 17:1.0 134:1.0 136:1.0 271:1.0 276:1.0 334:1.0 364:1.0 373:1.0 393:1.0 406:1.0 438:1.0 480:1.0 619:1.0 848:1.0 896:1.0 1063:1.0 1140:1.0 1327:1.0 1533:1.0 1733:1.0
0.024286891686732048 2:1.0 3:1.0 6:1.0 12:1.0 114:1.0 244:1.0 281:1.0 334:1.0 365:1.0 420:1.0 438:1.0 447:1.0 451:1.0 469:1.0 550:1.0 593:1.0 619:1.0 927:1.0 984:1.0 1203:1.0 1327:1.0 1353:1.0 1436:1.0 1533:1.0
0.003393752878339721 2:1.0 3:1.0 14:1.0 23:1.0 58:1.0 63:1.0 93:1.0 134:1.0 181:1.0 236:1.0 240:1.0 294:1.0 322:1.0 328:1.0 334:1.0 336:1.0 364:1.0 365:1.0 408:1.0 438:1.0 447:1.0 454:1.0 532:1.0 533:1.0 583:1.0 598:1.0 668:1.0 684:1.0 848:1.0 905:1.0 927:1.0 1152:1.0 1276:1.0 1305:1.0 1431:1.0 1533:1.0 1702:1.0
0.044096413535494344 211:1.0 352:1.0 355:1.0 360:1.0 415:1.0 435:1.0 486:1.0 578:1.0 591:1.0 705:1.0 772:1.0 848:1.0 1533:1.0 1702:1.0
-0.027827154138752457 79:1.0 98:1.0 141:1.0 207:1.0 247:1.0 323:1.0 354:1.0 391:1.0 415:1.0 432:1.0 449:1.0 455:1.0 486:1.0 493:1.0 759:1.0 795:1.0 848:1.0 934:1.0 1014:1.0 1158:1.0 1239:1.0 1376:1.0 1399:1.0 1533:1.0 1608:1.0
-0.031504616804800684 67:1.0 256:1.0 329:1.0 343:1.0 359:1.0 377:1.0 437:1.0 494:1.0 569:1.0 828:1.0 1285:1.0 1533:1.0 1705:1.0
-0.03749411818702969 363:1.0 413:1.0 460:1.0 683:1.0 835:1.0 1533:1.0 1671:1.0
-0.04279621730481191 295:1.0 413:1.0 437:1.0 834:1.0 1533:1.0
0.032062930512703716 2:1.0 3:1.0 147:1.0 268:1.0 305:1.0 340:1.0 345:1.0 371:1.0 397:1.0 403:1.0 434:1.0 481:1.0 524:1.0 618:1.0 622:1.0 895:1.0 1325:1.0 1356:1.0 1471:1.0 1533:1.0 1599:1.0
0.037364032002524354 2:1.0 3:1.0 30:1.0 56:1.0 105:1.0 179:1.0 255:1.0 278:1.0 331:1.0 371:1.0 415:1.0 437:1.0 440:1.0 443:1.0 471:1.0 513:1.0 711:1.0 716:1.0 924:1.0 1177:1.0 1384:1.0 1533:1.0 1550:1.0 1690:1.0
0.025882589617103456 31:1.0 38:1.0 168:1.0 377:1.0 422:1.0 437:1.0 446:1.0 465:1.0 479:1.0 639:1.0 671:1.0 758:1.0 797:1.0 888:1.0 1202:1.0 1533:1.0 1579:1.0 1702:1.0 1703:1.0
0.01882254081176634 15:1.0 134:1.0 249:1.0 280:1.0 319:1.0 352:1.0 360:1.0 364:1.0 377:1.0 438:1.0 447:1.0 478:1.0 571:1.0 591:1.0 650:1.0 705:1.0 859:1.0 1151:1.0 1444:1.0 1480:1.0 1533:1.0 1664:1.0 1702:1.0
-0.008971138021839456 1:1.0 3:1.0 21:1.0 107:1.0 221:1.0 266:1.0 307:1.0 311:1.0 320:1.0 352:1.0 377:1.0 392:1.0 491:1.0 494:1.0 596:1.0 605:1.0 625:1.0 629:1.0 666:1.0 710:1.0 795:1.0 1036:1.0 1061:1.0 1185:1.0 1321:1.0 1533:1.0 1605:1.0 1649:1.0
0.019520932985821565 2:1.0 3:1.0 6:1.0 44:1.0 174:1.0 182:1.0 215:1.0 288:1.0 337:1.0 354:1.0 365:1.0 404:1.0 415:1.0 451:1.0 476:1.0 490:1.0 663:1.0 668:1.0 673:1.0 996:1.0 1160:1.0 1353:1.0 1372:1.0 1533:1.0 1671:1.0 1702:1.0
0.009482446968072544 2:1.0 3:1.0 12:1.0 165:1.0 178:1.0 239:1.0 280:1.0 302:1.0 319:1.0 334:1.0 353:1.0 438:1.0 447:1.0 469:1.0 550:1.0 593:1.0 619:1.0 620:1.0 751:1.0 969:1.0 1075:1.0 1327:1.0 1353:1.0 1533:1.0
-0.020771380708831905 162:1.0 280:1.0 286:1.0 296:1.0 325:1.0 413:1.0 438:1.0 447:1.0 843:1.0 1283:1.0 1533:1.0 1665:1.0 1700:1.0
0.009411113078845443 3:1.0 35:1.0 42:1.0 64:1.0 82:1.0 98:1.0 141:1.0 168:1.0 251:1.0 288:1.0 320:1.0 321:1.0 343:1.0 358:1.0 377:1.0 391:1.0 404:1.0 409:1.0 410:1.0 415:1.0 422:1.0 423:1.0 432:1.0 450:1.0 456:1.0 487:1.0 492:1.0 591:1.0 637:1.0 704:1.0 723:1.0 758:1.0 782:1.0 809:1.0 815:1.0 875:1.0 911:1.0 943:1.0 996:1.0 1036:1.0 1038:1.0 1225:1.0 1305:1.0 1316:1.0 1533:1.0 1608:1.0 1639:1.0 1644:1.0 1646:1.0 1659:1.0 1671:1.0 1675:1.0
0.01928984555865706 2:1.0 3:1.0 24:1.0 93:1.0 201:1.0 240:1.0 322:1.0 354:1.0 365:1.0 371:1.0 378:1.0 421:1.0 438:1.0 454:1.0 496:1.0 501:1.0 573:1.0 583:1.0 711:1.0 877:1.0 974:1.0 1158:1.0 1160:1.0 1168:1.0 1305:1.0 1533:1.0 1690:1.0
0.043495750339765014 2:1.0 3:1.0 12:1.0 74:1.0 200:1.0 334:1.0 362:1.0 469:1.0 474:1.0 480:1.0 550:1.0 593:1.0 619:1.0 1327:1.0 1353:1.0 1533:1.0
0.02554232141654474 2:1.0 3:1.0 14:1.0 46:1.0 61:1.0 93:1.0 236:1.0 281:1.0 328:1.0 334:1.0 365:1.0 408:1.0 415:1.0 443:1.0 447:1.0 454:1.0 532:1.0 533:1.0 583:1.0 668:1.0 684:1.0 848:1.0 1160:1.0 1276:1.0 1305:1.0 1533:1.0 1702:1.0
-0.017035245053674715 67:1.0 155:1.0 170:1.0 267:1.0 343:1.0 356:1.0 377:1.0 421:1.0 486:1.0 494:1.0 640:1.0 643:1.0 1305:1.0 1385:1.0 1521:1.0 1533:1.0 1705:1.0
0.01606545054157666 3:1.0 77:1.0 86:1.0 133:1.0 168:1.0 198:1.0 288:1.0 313:1.0 320:1.0 323:1.0 377:1.0 390:1.0 415:1.0 422:1.0 447:1.0 473:1.0 591:1.0 603:1.0 747:1.0 751:1.0 783:1.0 786:1.0 1038:1.0 1061:1.0 1440:1.0 1533:1.0 1675:1.0
-0.009257792806837492 85:1.0 218:1.0 240:1.0 313:1.0 322:1.0 323:1.0 398:1.0 410:1.0 437:1.0 438:1.0 442:1.0 449:1.0 453:1.0 454:1.0 591:1.0 648:1.0 718:1.0 751:1.0 783:1.0 974:1.0 1099:1.0 1160:1.0 1168:1.0 1242:1.0 1252:1.0 1305:1.0 1533:1.0 1608:1.0
-0.027822953935451828 37:1.0 134:1.0 161:1.0 233:1.0 280:1.0 355:1.0 364:1.0 377:1.0 416:1.0 428:1.0 438:1.0 447:1.0 463:1.0 492:1.0 571:1.0 612:1.0 726:1.0 859:1.0 1047:1.0 1128:1.0 1151:1.0 1170:1.0 1533:1.0 1608:1.0
-0.016443199766456796 30:1.0 39:1.0 40:1.0 98:1.0 130:1.0 263:1.0 278:1.0 289:1.0 331:1.0 391:1.0 415:1.0 440:1.0 447:1.0 449:1.0 451:1.0 606:1.0 757:1.0 848:1.0 859:1.0 927:1.0 1006:1.0 1445:1.0 1453:1.0 1533:1.0 1546:1.0 1608:1.0
-0.030715424762224053 6:1.0 74:1.0 174:1.0 194:1.0 213:1.0 299:1.0 349:1.0 362:1.0 365:1.0 368:1.0 374:1.0 415:1.0 451:1.0 474:1.0 480:1.0 702:1.0 1160:1.0 1353:1.0 1455:1.0 1473:1.0 1533:1.0 1613:1.0 1714:1.0
0.030241753454279104 3:1.0 11:1.0 31:1.0 216:1.0 422:1.0 432:1.0 447:1.0 468:1.0 479:1.0 553:1.0 577:1.0 630:1.0 1158:1.0 1170:1.0 1429:1.0 1533:1.0 1702:1.0
0.01825375221147317 2:1.0 3:1.0 16:1.0 57:1.0 79:1.0 121:1.0 247:1.0 317:1.0 354:1.0 357:1.0 367:1.0 371:1.0 393:1.0 415:1.0 493:1.0 646:1.0 656:1.0 848:1.0 1234:1.0 1357:1.0 1486:1.0 1533:1.0 1702:1.0
0.044096413535494344 2:1.0 3:1.0 337:1.0 363:1.0 668:1.0 1533:1.0 1702:1.0
0.02680688050740665 2:1.0 3:1.0 126:1.0 176:1.0 226:1.0 308:1.0 338:1.0 354:1.0 357:1.0 371:1.0 444:1.0 456:1.0 474:1.0 711:1.0 935:1.0 1171:1.0 1533:1.0 1660:1.0 1690:1.0 1738:1.0
-0.012169773014428925 83:1.0 270:1.0 304:1.0 330:1.0 343:1.0 353:1.0 403:1.0 472:1.0 486:1.0 731:1.0 1171:1.0 1272:1.0 1345:1.0 1453:1.0 1533:1.0 1679:1.0
-0.03405910859571826 86:1.0 313:1.0 447:1.0 462:1.0 751:1.0 996:1.0 1533:1.0 1559:1.0
-0.00837446899497031 3:1.0 21:1.0 43:1.0 67:1.0 116:1.0 170:1.0 171:1.0 189:1.0 343:1.0 356:1.0 357:1.0 377:1.0 392:1.0 411:1.0 420:1.0 461:1.0 486:1.0 494:1.0 510:1.0 584:1.0 591:1.0 720:1.0 802:1.0 895:1.0 1038:1.0 1061:1.0 1305:1.0 1353:1.0 1356:1.0 1533:1.0 1649:1.0 1664:1.0 1703:1.0
0.009314001968150862 2:1.0 3:1.0 89:1.0 115:1.0 137:1.0 145:1.0 160:1.0 168:1.0 291:1.0 334:1.0 376:1.0 377:1.0 405:1.0 422:1.0 433:1.0 453:1.0 504:1.0 545:1.0 607:1.0 668:1.0 671:1.0 879:1.0 1185:1.0 1533:1.0 1640:1.0 1665:1.0 1702:1.0 1703:1.0
-0.015828041645111764 3:1.0 19:1.0 98:1.0 141:1.0 216:1.0 238:1.0 287:1.0 305:1.0 358:1.0 391:1.0 396:1.0 413:1.0 415:1.0 432:1.0 447:1.0 450:1.0 816:1.0 848:1.0 865:1.0 1172:1.0 1323:1.0 1533:1.0 1599:1.0 1628:1.0 1675:1.0 1735:1.0
-0.014999225431495284 69:1.0 71:1.0 122:1.0 184:1.0 248:1.0 313:1.0 330:1.0 343:1.0 354:1.0 432:1.0 447:1.0 474:1.0 490:1.0 640:1.0 900:1.0 1073:1.0 1353:1.0 1429:1.0 1453:1.0 1533:1.0
0.010218692149423737 2:1.0 3:1.0 24:1.0 81:1.0 100:1.0 134:1.0 201:1.0 259:1.0 280:1.0 322:1.0 364:1.0 371:1.0 378:1.0 391:1.0 395:1.0 409:1.0 421:1.0 438:1.0 447:1.0 501:1.0 573:1.0 606:1.0 711:1.0 848:1.0 908:1.0 927:1.0 974:1.0 1194:1.0 1305:1.0 1387:1.0 1533:1.0 1690:1.0
0.02307289768916011 4:1.0 163:1.0 204:1.0 234:1.0 262:1.0 310:1.0 314:1.0 352:1.0 357:1.0 376:1.0 418:1.0 433:1.0 459:1.0 527:1.0 719:1.0 733:1.0 1036:1.0 1098:1.0 1170:1.0 1533:1.0 1655:1.0 1702:1.0
-0.009511373655084499 38:1.0 79:1.0 182:1.0 194:1.0 246:1.0 354:1.0 374:1.0 404:1.0 414:1.0 415:1.0 437:1.0 446:1.0 465:1.0 490:1.0 702:1.0 828:1.0 888:1.0 927:1.0 1473:1.0 1526:1.0 1533:1.0 1684:1.0
-0.007562837061107048 13:1.0 90:1.0 95:1.0 134:1.0 203:1.0 278:1.0 280:1.0 331:1.0 339:1.0 343:1.0 364:1.0 377:1.0 425:1.0 438:1.0 440:1.0 447:1.0 483:1.0 591:1.0 727:1.0 848:1.0 919:1.0 1070:1.0 1384:1.0 1533:1.0 1624:1.0 1703:1.0 1741:1.0
-0.0032913517223431177 1:1.0 40:1.0 111:1.0 219:1.0 223:1.0 252:1.0 320:1.0 341:1.0 352:1.0 415:1.0 427:1.0 447:1.0 576:1.0 996:1.0 1185:1.0 1320:1.0 1533:1.0 1690:1.0
-0.007873462341578513 1:1.0 30:1.0 40:1.0 128:1.0 352:1.0 415:1.0 440:1.0 447:1.0 719:1.0 848:1.0 1431:1.0 1533:1.0 1702:1.0
0.008578880939982204 2:1.0 3:1.0 113:1.0 118:1.0 121:1.0 305:1.0 349:1.0 357:1.0 367:1.0 371:1.0 486:1.0 495:1.0 515:1.0 609:1.0 656:1.0 928:1.0 933:1.0 1411:1.0 1452:1.0 1533:1.0 1702:1.0
0.01219862915110345 8:1.0 15:1.0 249:1.0 319:1.0 324:1.0 352:1.0 360:1.0 377:1.0 458:1.0 478:1.0 591:1.0 705:1.0 1110:1.0 1444:1.0 1533:1.0 1699:1.0 1702:1.0
0.009169467919612491 4:1.0 68:1.0 204:1.0 220:1.0 292:1.0 314:1.0 352:1.0 365:1.0 377:1.0 423:1.0 424:1.0 431:1.0 459:1.0 480:1.0 527:1.0 719:1.0 733:1.0 910:1.0 1007:1.0 1036:1.0 1103:1.0 1384:1.0 1455:1.0 1519:1.0 1533:1.0 1702:1.0
0.013061215475545458 3:1.0 31:1.0 75:1.0 77:1.0 168:1.0 320:1.0 376:1.0 377:1.0 422:1.0 433:1.0 479:1.0 562:1.0 628:1.0 651:1.0 699:1.0 1036:1.0 1142:1.0 1185:1.0 1533:1.0 1702:1.0
0.006714657499462813 2:1.0 3:1.0 79:1.0 122:1.0 132:1.0 215:1.0 246:1.0 248:1.0 288:1.0 337:1.0 354:1.0 415:1.0 447:1.0 474:1.0 490:1.0 668:1.0 1280:1.0 1500:1.0 1533:1.0 1702:1.0
-0.0011965542113816184 3:1.0 10:1.0 46:1.0 70:1.0 94:1.0 218:1.0 228:1.0 243:1.0 245:1.0 304:1.0 305:1.0 306:1.0 313:1.0 328:1.0 338:1.0 342:1.0 357:1.0 377:1.0 397:1.0 398:1.0 407:1.0 415:1.0 428:1.0 429:1.0 453:1.0 473:1.0 494:1.0 612:1.0 654:1.0 721:1.0 751:1.0 777:1.0 809:1.0 830:1.0 837:1.0 909:1.0 940:1.0 1151:1.0 1252:1.0 1334:1.0 1384:1.0 1463:1.0 1504:1.0 1533:1.0 1599:1.0 1608:1.0 1649:1.0 1665:1.0 1703:1.0
-0.00673439465478375 70:1.0 113:1.0 254:1.0 275:1.0 293:1.0 305:1.0 316:1.0 357:1.0 374:1.0 486:1.0 698:1.0 935:1.0 1327:1.0 1356:1.0 1374:1.0 1533:1.0 1630:1.0
-0.002973781561227914 194:1.0 289:1.0 299:1.0 365:1.0 374:1.0 400:1.0 414:1.0 415:1.0 441:1.0 480:1.0 702:1.0 779:1.0 927:1.0 1351:1.0 1473:1.0 1487:1.0 1533:1.0 1570:1.0 1608:1.0 1708:1.0
-0.0027794391596883193 1:1.0 206:1.0 223:1.0 297:1.0 320:1.0 346:1.0 352:1.0 458:1.0 564:1.0 700:1.0 1185:1.0 1533:1.0 1608:1.0 1671:1.0 1699:1.0 1702:1.0
-0.002104524342251629 6:1.0 248:1.0 253:1.0 281:1.0 313:1.0 354:1.0 365:1.0 370:1.0 416:1.0 447:1.0 451:1.0 474:1.0 490:1.0 575:1.0 673:1.0 751:1.0 1160:1.0 1171:1.0 1231:1.0 1353:1.0 1372:1.0 1533:1.0 1738:1.0
-7.475447796310198E-4 3:1.0 27:1.0 67:1.0 79:1.0 208:1.0 247:1.0 291:1.0 331:1.0 343:1.0 354:1.0 377:1.0 379:1.0 380:1.0 415:1.0 419:1.0 448:1.0 458:1.0 493:1.0 494:1.0 591:1.0 693:1.0 715:1.0 848:1.0 1068:1.0 1118:1.0 1141:1.0 1284:1.0 1322:1.0 1384:1.0 1533:1.0 1646:1.0 1673:1.0 1703:1.0
-0.008738329446482805 1:1.0 33:1.0 352:1.0 456:1.0 1533:1.0
0.0016569527964033915 2:1.0 141:1.0 143:1.0 144:1.0 211:1.0 216:1.0 290:1.0 308:1.0 355:1.0 357:1.0 371:1.0 415:1.0 432:1.0 447:1.0 578:1.0 622:1.0 662:1.0 848:1.0 1070:1.0 1235:1.0 1325:1.0 1353:1.0 1533:1.0
-0.003688800218021146 45:1.0 67:1.0 76:1.0 102:1.0 220:1.0 274:1.0 343:1.0 377:1.0 410:1.0 459:1.0 486:1.0 494:1.0 511:1.0 591:1.0 616:1.0 643:1.0 654:1.0 889:1.0 1036:1.0 1305:1.0 1533:1.0 1649:1.0 1703:1.0
-0.001988553510721501 40:1.0 67:1.0 80:1.0 189:1.0 205:1.0 242:1.0 332:1.0 343:1.0 344:1.0 372:1.0 377:1.0 380:1.0 415:1.0 443:1.0 447:1.0 461:1.0 494:1.0 499:1.0 569:1.0 599:1.0 613:1.0 665:1.0 848:1.0 909:1.0 1330:1.0 1384:1.0 1450:1.0 1488:1.0 1533:1.0 1578:1.0 1701:1.0 1705:1.0
-2.2366793393235624E-4 1:1.0 33:1.0 352:1.0 456:1.0 1533:1.0 1587:1.0
0.0012055481375318894 2:1.0 3:1.0 17:1.0 134:1.0 136:1.0 271:1.0 280:1.0 334:1.0 364:1.0 393:1.0 406:1.0 438:1.0 447:1.0 619:1.0 646:1.0 848:1.0 962:1.0 1063:1.0 1327:1.0 1357:1.0 1533:1.0
0.00180422703891033 15:1.0 249:1.0 319:1.0 352:1.0 360:1.0 377:1.0 387:1.0 478:1.0 546:1.0 591:1.0 623:1.0 705:1.0 1170:1.0 1533:1.0 1702:1.0
-4.549225674011768E-4 79:1.0 155:1.0 194:1.0 222:1.0 246:1.0 282:1.0 316:1.0 354:1.0 374:1.0 415:1.0 421:1.0 486:1.0 490:1.0 672:1.0 1171:1.0 1274:1.0 1327:1.0 1353:1.0 1401:1.0 1533:1.0
1.2956185027173365E-4 84:1.0 141:1.0 152:1.0 211:1.0 280:1.0 352:1.0 355:1.0 360:1.0 364:1.0 384:1.0 415:1.0 432:1.0 438:1.0 447:1.0 591:1.0 705:1.0 837:1.0 859:1.0 867:1.0 909:1.0 958:1.0 1533:1.0 1702:1.0
