SVM-light Version V6.01
0 # kernel type
3 # kernel parameter -d
1.0 # kernel parameter -g
1.0 # kernel parameter -s
0.0 # kernel parameter -r
empty# kernel parameter -u
1729 # highest feature index
462 # number of training documents
198 # number of support vectors plus 1
0.5494382581760088 # threshold b, each following line is a SV (starting with alpha*y)
-0.044182075779017144 45:1.0 67:1.0 231:1.0 321:1.0 359:1.0 375:1.0 411:1.0 427:1.0 455:1.0 630:1.0 1004:1.0 1634:1.0 1693:1.0 1729:1.0
-0.005606435618642259 3:1.0 113:1.0 164:1.0 169:1.0 242:1.0 341:1.0 357:1.0 366:1.0 375:1.0 381:1.0 400:1.0 427:1.0 451:1.0 485:1.0 583:1.0 593:1.0 776:1.0 1004:1.0 1026:1.0 1206:1.0 1343:1.0 1421:1.0 1612:1.0 1645:1.0 1663:1.0 1690:1.0
0.044182075779017144 70:1.0 111:1.0 251:1.0 272:1.0 284:1.0 293:1.0 315:1.0 372:1.0 390:1.0 426:1.0 688:1.0 923:1.0 1315:1.0 1344:1.0 1362:1.0 1521:1.0 1618:1.0
-0.002762118865144763 3:1.0 127:1.0 158:1.0 160:1.0 229:1.0 276:1.0 282:1.0 331:1.0 351:1.0 356:1.0 379:1.0 402:1.0 411:1.0 464:1.0 465:1.0 487:1.0 630:1.0 684:1.0 999:1.0 1003:1.0 1004:1.0 1362:1.0 1402:1.0 1563:1.0 1596:1.0 1663:1.0 1693:1.0 1714:1.0
0.02135632312272536 6:1.0 69:1.0 170:1.0 195:1.0 207:1.0 250:1.0 278:1.0 291:1.0 298:1.0 313:1.0 356:1.0 411:1.0 414:1.0 420:1.0 445:1.0 464:1.0 489:1.0 558:1.0 682:1.0 720:1.0 847:1.0 984:1.0 1063:1.0 1112:1.0 1148:1.0 1441:1.0 1521:1.0 1554:1.0
0.004996259886536736 3:1.0 18:1.0 21:1.0 30:1.0 40:1.0 89:1.0 185:1.0 355:1.0 369:1.0 375:1.0 411:1.0 427:1.0 435:1.0 445:1.0 460:1.0 464:1.0 473:1.0 583:1.0 836:1.0 866:1.0 868:1.0 977:1.0 1026:1.0 1049:1.0 1293:1.0 1521:1.0 1538:1.0 1652:1.0 1659:1.0 1691:1.0
0.01724354546915122 41:1.0 67:1.0 86:1.0 166:1.0 167:1.0 207:1.0 275:1.0 299:1.0 314:1.0 315:1.0 348:1.0 375:1.0 411:1.0 414:1.0 418:1.0 427:1.0 445:1.0 460:1.0 504:1.0 577:1.0 583:1.0 709:1.0 715:1.0 774:1.0 883:1.0 1116:1.0 1156:1.0 1176:1.0 1344:1.0 1372:1.0 1521:1.0 1538:1.0 1637:1.0 1659:1.0 1691:1.0
0.014346521234146519 51:1.0 67:1.0 151:1.0 166:1.0 167:1.0 314:1.0 315:1.0 375:1.0 411:1.0 413:1.0 427:1.0 464:1.0 504:1.0 583:1.0 709:1.0 883:1.0 984:1.0 1273:1.0 1344:1.0 1521:1.0 1691:1.0
0.009377551039126646 36:1.0 55:1.0 71:1.0 212:1.0 291:1.0 313:1.0 349:1.0 351:1.0 388:1.0 398:1.0 446:1.0 450:1.0 464:1.0 489:1.0 739:1.0 1142:1.0 1268:1.0 1298:1.0 1521:1.0 1622:1.0 1678:1.0 1726:1.0
0.014873744350990743 82:1.0 174:1.0 298:1.0 312:1.0 313:1.0 351:1.0 411:1.0 433:1.0 467:1.0 478:1.0 634:1.0 720:1.0 825:1.0 1178:1.0 1268:1.0 1345:1.0 1441:1.0 1521:1.0
-0.044182075779017144 39:1.0 51:1.0 64:1.0 151:1.0 157:1.0 167:1.0 207:1.0 314:1.0 315:1.0 374:1.0 393:1.0 411:1.0 413:1.0 414:1.0 427:1.0 445:1.0 464:1.0 465:1.0 583:1.0 694:1.0 715:1.0 803:1.0 843:1.0 847:1.0 883:1.0 1116:1.0 1180:1.0 1309:1.0 1344:1.0 1407:1.0 1521:1.0 1596:1.0
-0.044182075779017144 67:1.0 137:1.0 142:1.0 156:1.0 247:1.0 299:1.0 307:1.0 321:1.0 357:1.0 375:1.0 411:1.0 413:1.0 427:1.0 432:1.0 455:1.0 460:1.0 524:1.0 540:1.0 557:1.0 583:1.0 602:1.0 647:1.0 773:1.0 1173:1.0 1283:1.0 1372:1.0 1457:1.0 1521:1.0 1596:1.0 1628:1.0 1653:1.0 1659:1.0 1691:1.0
-0.044182075779017144 25:1.0 42:1.0 79:1.0 138:1.0 154:1.0 160:1.0 189:1.0 199:1.0 212:1.0 299:1.0 349:1.0 353:1.0 355:1.0 399:1.0 406:1.0 408:1.0 411:1.0 445:1.0 464:1.0 487:1.0 497:1.0 517:1.0 549:1.0 583:1.0 591:1.0 622:1.0 675:1.0 704:1.0 836:1.0 898:1.0 1024:1.0 1129:1.0 1283:1.0 1372:1.0 1417:1.0 1521:1.0 1663:1.0 1691:1.0
-0.044182075779017144 85:1.0 291:1.0 464:1.0 475:1.0 739:1.0 984:1.0 1521:1.0 1547:1.0
-0.03291678639875918 46:1.0 67:1.0 138:1.0 146:1.0 166:1.0 167:1.0 207:1.0 232:1.0 278:1.0 284:1.0 287:1.0 314:1.0 315:1.0 316:1.0 317:1.0 322:1.0 329:1.0 332:1.0 337:1.0 349:1.0 370:1.0 373:1.0 375:1.0 381:1.0 404:1.0 405:1.0 411:1.0 414:1.0 420:1.0 427:1.0 438:1.0 445:1.0 464:1.0 474:1.0 504:1.0 575:1.0 583:1.0 587:1.0 709:1.0 726:1.0 785:1.0 836:1.0 846:1.0 847:1.0 883:1.0 897:1.0 1004:1.0 1043:1.0 1050:1.0 1128:1.0 1165:1.0 1204:1.0 1279:1.0 1293:1.0 1322:1.0 1341:1.0 1344:1.0 1436:1.0 1596:1.0 1634:1.0 1662:1.0 1673:1.0 1691:1.0
0.044182075779017144 2:1.0 3:1.0 6:1.0 12:1.0 90:1.0 170:1.0 207:1.0 278:1.0 302:1.0 356:1.0 363:1.0 414:1.0 420:1.0 445:1.0 464:1.0 495:1.0 529:1.0 570:1.0 658:1.0 724:1.0 836:1.0 1004:1.0 1148:1.0 1341:1.0 1521:1.0 1690:1.0 1702:1.0
0.044182075779017144 2:1.0 3:1.0 16:1.0 30:1.0 32:1.0 39:1.0 47:1.0 121:1.0 147:1.0 158:1.0 170:1.0 259:1.0 275:1.0 282:1.0 296:1.0 299:1.0 315:1.0 319:1.0 320:1.0 345:1.0 347:1.0 351:1.0 356:1.0 369:1.0 402:1.0 427:1.0 430:1.0 436:1.0 445:1.0 448:1.0 458:1.0 460:1.0 465:1.0 600:1.0 603:1.0 646:1.0 836:1.0 847:1.0 854:1.0 1124:1.0 1309:1.0 1345:1.0 1372:1.0 1408:1.0 1415:1.0 1521:1.0 1572:1.0 1596:1.0 1638:1.0 1653:1.0 1690:1.0 1691:1.0
0.044182075779017144 2:1.0 3:1.0 292:1.0 320:1.0 334:1.0 337:1.0 459:1.0 700:1.0 813:1.0 1521:1.0 1633:1.0 1643:1.0 1678:1.0
0.044182075779017144 2:1.0 3:1.0 40:1.0 302:1.0 445:1.0 464:1.0 658:1.0 697:1.0 836:1.0 925:1.0 1521:1.0 1690:1.0
0.044182075779017144 2:1.0 3:1.0 188:1.0 197:1.0 292:1.0 320:1.0 375:1.0 427:1.0 428:1.0 450:1.0 459:1.0 553:1.0 580:1.0 700:1.0 713:1.0 1218:1.0 1440:1.0 1521:1.0 1643:1.0 1678:1.0 1691:1.0
-0.04078974793779067 2:1.0 3:1.0 12:1.0 90:1.0 91:1.0 168:1.0 207:1.0 302:1.0 304:1.0 336:1.0 363:1.0 414:1.0 445:1.0 472:1.0 495:1.0 529:1.0 570:1.0 628:1.0 650:1.0 658:1.0 724:1.0 836:1.0 1341:1.0 1362:1.0 1521:1.0 1590:1.0 1687:1.0 1690:1.0
-0.044182075779017144 2:1.0 3:1.0 6:1.0 40:1.0 44:1.0 170:1.0 195:1.0 207:1.0 211:1.0 313:1.0 356:1.0 378:1.0 407:1.0 414:1.0 420:1.0 445:1.0 464:1.0 489:1.0 658:1.0 663:1.0 738:1.0 1148:1.0 1298:1.0 1307:1.0 1360:1.0 1389:1.0 1521:1.0 1690:1.0
-0.044182075779017144 2:1.0 3:1.0 29:1.0 30:1.0 47:1.0 110:1.0 185:1.0 250:1.0 291:1.0 295:1.0 313:1.0 319:1.0 320:1.0 375:1.0 427:1.0 430:1.0 433:1.0 445:1.0 460:1.0 473:1.0 489:1.0 646:1.0 718:1.0 723:1.0 739:1.0 836:1.0 1063:1.0 1230:1.0 1309:1.0 1342:1.0 1389:1.0 1513:1.0 1521:1.0 1690:1.0 1691:1.0
0.044182075779017144 64:1.0 138:1.0 157:1.0 207:1.0 212:1.0 349:1.0 374:1.0 411:1.0 414:1.0 427:1.0 445:1.0 464:1.0 558:1.0 847:1.0 848:1.0 1521:1.0 1554:1.0
0.013569769548133579 40:1.0 67:1.0 79:1.0 137:1.0 154:1.0 156:1.0 189:1.0 299:1.0 307:1.0 353:1.0 375:1.0 406:1.0 411:1.0 427:1.0 445:1.0 464:1.0 517:1.0 524:1.0 540:1.0 549:1.0 557:1.0 583:1.0 591:1.0 602:1.0 622:1.0 704:1.0 836:1.0 1129:1.0 1283:1.0 1372:1.0 1521:1.0 1672:1.0 1691:1.0
0.002305982492665621 40:1.0 67:1.0 97:1.0 137:1.0 156:1.0 204:1.0 232:1.0 299:1.0 307:1.0 329:1.0 375:1.0 381:1.0 411:1.0 427:1.0 445:1.0 464:1.0 524:1.0 540:1.0 557:1.0 583:1.0 586:1.0 602:1.0 704:1.0 847:1.0 1019:1.0 1129:1.0 1283:1.0 1372:1.0 1521:1.0 1653:1.0 1691:1.0
0.014925668574830183 82:1.0 267:1.0 288:1.0 298:1.0 312:1.0 334:1.0 372:1.0 411:1.0 480:1.0 720:1.0 1159:1.0 1260:1.0 1333:1.0 1441:1.0 1521:1.0 1667:1.0
0.010315654102298151 67:1.0 87:1.0 137:1.0 156:1.0 194:1.0 212:1.0 220:1.0 291:1.0 299:1.0 307:1.0 328:1.0 349:1.0 375:1.0 399:1.0 411:1.0 427:1.0 454:1.0 464:1.0 524:1.0 540:1.0 557:1.0 583:1.0 602:1.0 739:1.0 984:1.0 1283:1.0 1372:1.0 1386:1.0 1417:1.0 1457:1.0 1521:1.0 1691:1.0
0.044182075779017144 3:1.0 18:1.0 42:1.0 142:1.0 160:1.0 321:1.0 355:1.0 357:1.0 411:1.0 455:1.0 460:1.0 487:1.0 583:1.0 686:1.0 883:1.0 1024:1.0 1521:1.0 1653:1.0 1659:1.0 1663:1.0 1691:1.0
-0.044182075779017144 3:1.0 42:1.0 62:1.0 89:1.0 103:1.0 108:1.0 215:1.0 249:1.0 305:1.0 346:1.0 355:1.0 357:1.0 369:1.0 399:1.0 411:1.0 427:1.0 445:1.0 452:1.0 458:1.0 462:1.0 467:1.0 487:1.0 583:1.0 600:1.0 624:1.0 770:1.0 797:1.0 1024:1.0 1304:1.0 1308:1.0 1345:1.0 1412:1.0 1521:1.0 1559:1.0 1662:1.0 1691:1.0
-0.044182075779017144 1:1.0 30:1.0 111:1.0 125:1.0 137:1.0 156:1.0 170:1.0 225:1.0 242:1.0 270:1.0 299:1.0 307:1.0 311:1.0 356:1.0 357:1.0 372:1.0 375:1.0 390:1.0 427:1.0 445:1.0 460:1.0 605:1.0 624:1.0 691:1.0 747:1.0 847:1.0 1024:1.0 1144:1.0 1227:1.0 1288:1.0 1372:1.0 1521:1.0 1587:1.0 1662:1.0
-0.016803517677110393 3:1.0 42:1.0 132:1.0 135:1.0 160:1.0 173:1.0 208:1.0 223:1.0 281:1.0 299:1.0 315:1.0 344:1.0 353:1.0 355:1.0 375:1.0 389:1.0 411:1.0 422:1.0 427:1.0 438:1.0 481:1.0 487:1.0 498:1.0 506:1.0 532:1.0 550:1.0 571:1.0 583:1.0 657:1.0 666:1.0 671:1.0 686:1.0 717:1.0 856:1.0 883:1.0 921:1.0 1004:1.0 1024:1.0 1029:1.0 1273:1.0 1372:1.0 1634:1.0 1659:1.0 1691:1.0
-0.044182075779017144 2:1.0 3:1.0 9:1.0 144:1.0 263:1.0 265:1.0 290:1.0 319:1.0 320:1.0 331:1.0 375:1.0 412:1.0 427:1.0 485:1.0 518:1.0 609:1.0 612:1.0 883:1.0 1129:1.0 1313:1.0 1344:1.0 1521:1.0 1691:1.0
0.004912215199691571 78:1.0 131:1.0 190:1.0 195:1.0 230:1.0 243:1.0 277:1.0 313:1.0 351:1.0 414:1.0 419:1.0 426:1.0 445:1.0 464:1.0 489:1.0 692:1.0 782:1.0 847:1.0 946:1.0 1202:1.0 1461:1.0 1488:1.0 1521:1.0
0.0020140413758054803 6:1.0 29:1.0 50:1.0 70:1.0 72:1.0 97:1.0 110:1.0 112:1.0 166:1.0 167:1.0 170:1.0 207:1.0 210:1.0 269:1.0 285:1.0 295:1.0 314:1.0 315:1.0 327:1.0 329:1.0 351:1.0 356:1.0 375:1.0 384:1.0 390:1.0 414:1.0 420:1.0 427:1.0 444:1.0 445:1.0 468:1.0 481:1.0 580:1.0 587:1.0 737:1.0 836:1.0 846:1.0 915:1.0 1079:1.0 1112:1.0 1142:1.0 1148:1.0 1214:1.0 1307:1.0 1322:1.0 1341:1.0 1435:1.0 1521:1.0 1643:1.0 1660:1.0 1691:1.0
0.04152174252886294 131:1.0 213:1.0 230:1.0 277:1.0 309:1.0 318:1.0 351:1.0 384:1.0 414:1.0 419:1.0 444:1.0 464:1.0 587:1.0 847:1.0 1263:1.0 1329:1.0 1341:1.0 1443:1.0 1521:1.0
0.010115751324695313 40:1.0 97:1.0 131:1.0 178:1.0 214:1.0 250:1.0 291:1.0 313:1.0 329:1.0 351:1.0 357:1.0 358:1.0 410:1.0 419:1.0 439:1.0 442:1.0 445:1.0 464:1.0 486:1.0 489:1.0 490:1.0 587:1.0 614:1.0 707:1.0 731:1.0 739:1.0 836:1.0 915:1.0 928:1.0 1074:1.0 1123:1.0 1154:1.0 1341:1.0 1521:1.0 1527:1.0 1639:1.0
0.044182075779017144 37:1.0 131:1.0 157:1.0 230:1.0 277:1.0 347:1.0 351:1.0 374:1.0 414:1.0 419:1.0 427:1.0 446:1.0 464:1.0 474:1.0 563:1.0 603:1.0 715:1.0 847:1.0 1035:1.0 1116:1.0 1139:1.0 1158:1.0 1521:1.0 1596:1.0
-0.044182075779017144 158:1.0 277:1.0 351:1.0 377:1.0 384:1.0 402:1.0 444:1.0 464:1.0 831:1.0 1271:1.0 1521:1.0 1653:1.0 1688:1.0
-0.044182075779017144 384:1.0 444:1.0 484:1.0 1004:1.0 1219:1.0
-0.010251287946206738 1:1.0 80:1.0 97:1.0 131:1.0 146:1.0 150:1.0 186:1.0 192:1.0 228:1.0 232:1.0 277:1.0 311:1.0 322:1.0 325:1.0 329:1.0 343:1.0 351:1.0 358:1.0 373:1.0 381:1.0 419:1.0 445:1.0 464:1.0 631:1.0 697:1.0 730:1.0 776:1.0 783:1.0 836:1.0 897:1.0 1034:1.0 1056:1.0 1195:1.0 1217:1.0 1352:1.0 1362:1.0 1521:1.0
-0.044182075779017144 3:1.0 40:1.0 67:1.0 90:1.0 97:1.0 153:1.0 185:1.0 230:1.0 260:1.0 280:1.0 329:1.0 356:1.0 363:1.0 375:1.0 396:1.0 403:1.0 411:1.0 414:1.0 419:1.0 427:1.0 445:1.0 464:1.0 473:1.0 495:1.0 570:1.0 583:1.0 598:1.0 724:1.0 836:1.0 915:1.0 956:1.0 1049:1.0 1341:1.0 1342:1.0 1428:1.0 1501:1.0 1521:1.0 1577:1.0 1691:1.0
-0.044182075779017144 444:1.0 464:1.0 1521:1.0
0.044182075779017144 30:1.0 86:1.0 242:1.0 271:1.0 321:1.0 348:1.0 357:1.0 375:1.0 400:1.0 427:1.0 443:1.0 445:1.0 455:1.0 460:1.0 477:1.0 583:1.0 624:1.0 633:1.0 853:1.0 995:1.0 1024:1.0 1173:1.0 1243:1.0 1293:1.0 1307:1.0 1372:1.0 1521:1.0 1690:1.0
0.038299063364496906 3:1.0 9:1.0 42:1.0 88:1.0 160:1.0 204:1.0 208:1.0 223:1.0 224:1.0 299:1.0 319:1.0 353:1.0 355:1.0 357:1.0 375:1.0 381:1.0 404:1.0 405:1.0 411:1.0 427:1.0 472:1.0 487:1.0 498:1.0 506:1.0 550:1.0 583:1.0 657:1.0 669:1.0 671:1.0 717:1.0 856:1.0 931:1.0 1043:1.0 1158:1.0 1260:1.0 1273:1.0 1279:1.0 1294:1.0 1310:1.0 1342:1.0 1372:1.0 1521:1.0 1691:1.0
0.044182075779017144 1:1.0 3:1.0 21:1.0 105:1.0 217:1.0 263:1.0 290:1.0 311:1.0 373:1.0 375:1.0 394:1.0 399:1.0 427:1.0 435:1.0 588:1.0 596:1.0 615:1.0 619:1.0 656:1.0 699:1.0 783:1.0 1024:1.0 1049:1.0 1173:1.0 1309:1.0 1521:1.0 1593:1.0 1637:1.0
0.044182075779017144 3:1.0 4:1.0 74:1.0 93:1.0 160:1.0 254:1.0 315:1.0 321:1.0 331:1.0 399:1.0 411:1.0 455:1.0 487:1.0 583:1.0 883:1.0 1024:1.0 1309:1.0 1344:1.0 1521:1.0 1691:1.0
0.021497591679912657 3:1.0 30:1.0 89:1.0 94:1.0 99:1.0 170:1.0 223:1.0 270:1.0 275:1.0 299:1.0 315:1.0 321:1.0 344:1.0 353:1.0 356:1.0 357:1.0 369:1.0 411:1.0 427:1.0 445:1.0 455:1.0 460:1.0 605:1.0 638:1.0 693:1.0 697:1.0 836:1.0 848:1.0 921:1.0 1011:1.0 1268:1.0 1288:1.0 1322:1.0 1372:1.0 1521:1.0 1535:1.0 1659:1.0 1691:1.0 1729:1.0
-0.044182075779017144 74:1.0 254:1.0 315:1.0 321:1.0 399:1.0 446:1.0 455:1.0 883:1.0 1158:1.0 1521:1.0 1678:1.0
-0.018680171414161152 3:1.0 74:1.0 76:1.0 84:1.0 132:1.0 135:1.0 148:1.0 194:1.0 254:1.0 259:1.0 291:1.0 315:1.0 321:1.0 328:1.0 344:1.0 399:1.0 411:1.0 422:1.0 427:1.0 448:1.0 455:1.0 465:1.0 519:1.0 583:1.0 666:1.0 672:1.0 679:1.0 739:1.0 888:1.0 921:1.0 1004:1.0 1024:1.0 1158:1.0 1262:1.0 1273:1.0 1338:1.0 1535:1.0 1596:1.0 1691:1.0
-0.002017146737223613 3:1.0 31:1.0 74:1.0 76:1.0 164:1.0 321:1.0 399:1.0 427:1.0 451:1.0 455:1.0 483:1.0 554:1.0 618:1.0 641:1.0 689:1.0 1024:1.0 1130:1.0 1173:1.0 1521:1.0 1690:1.0
0.02401607865939841 3:1.0 22:1.0 40:1.0 42:1.0 48:1.0 87:1.0 97:1.0 194:1.0 220:1.0 260:1.0 291:1.0 299:1.0 301:1.0 319:1.0 328:1.0 329:1.0 355:1.0 356:1.0 390:1.0 399:1.0 445:1.0 446:1.0 464:1.0 487:1.0 644:1.0 739:1.0 868:1.0 897:1.0 915:1.0 1110:1.0 1155:1.0 1219:1.0 1372:1.0 1433:1.0 1521:1.0 1540:1.0 1587:1.0 1691:1.0
-0.03489381771609277 3:1.0 31:1.0 88:1.0 113:1.0 142:1.0 164:1.0 321:1.0 357:1.0 381:1.0 427:1.0 451:1.0 455:1.0 483:1.0 500:1.0 618:1.0 635:1.0 1024:1.0 1439:1.0 1521:1.0 1690:1.0 1691:1.0 1714:1.0
0.044182075779017144 3:1.0 19:1.0 97:1.0 138:1.0 212:1.0 235:1.0 283:1.0 316:1.0 329:1.0 330:1.0 349:1.0 355:1.0 390:1.0 444:1.0 445:1.0 464:1.0 804:1.0 836:1.0 853:1.0 1160:1.0 1311:1.0 1521:1.0 1587:1.0 1616:1.0 1663:1.0 1723:1.0
0.044182075779017144 3:1.0 54:1.0 293:1.0 300:1.0 308:1.0 309:1.0 378:1.0 445:1.0 461:1.0 472:1.0 924:1.0 1049:1.0 1219:1.0 1341:1.0 1362:1.0 1521:1.0 1596:1.0 1717:1.0
0.044182075779017144 2:1.0 3:1.0 26:1.0 44:1.0 172:1.0 304:1.0 313:1.0 320:1.0 354:1.0 420:1.0 453:1.0 476:1.0 489:1.0 700:1.0 1341:1.0 1389:1.0 1509:1.0 1521:1.0 1659:1.0 1678:1.0
0.044182075779017144 2:1.0 168:1.0 172:1.0 304:1.0 320:1.0 354:1.0 472:1.0 612:1.0 1313:1.0 1322:1.0 1521:1.0
0.044182075779017144 78:1.0 97:1.0 138:1.0 203:1.0 244:1.0 313:1.0 329:1.0 349:1.0 372:1.0 400:1.0 445:1.0 465:1.0 469:1.0 490:1.0 747:1.0 783:1.0 836:1.0 922:1.0 1002:1.0 1146:1.0 1227:1.0 1364:1.0 1387:1.0 1521:1.0 1596:1.0
-0.044182075779017144 6:1.0 79:1.0 86:1.0 170:1.0 278:1.0 348:1.0 356:1.0 378:1.0 406:1.0 420:1.0 444:1.0 445:1.0 464:1.0 471:1.0 591:1.0 836:1.0 1043:1.0 1160:1.0 1372:1.0 1521:1.0 1581:1.0 1593:1.0 1627:1.0 1659:1.0
-0.044182075779017144 2:1.0 3:1.0 57:1.0 119:1.0 314:1.0 315:1.0 320:1.0 422:1.0 436:1.0 472:1.0 700:1.0 921:1.0 1310:1.0 1521:1.0 1535:1.0 1659:1.0 1678:1.0
-0.044182075779017144 171:1.0 201:1.0 306:1.0 384:1.0 444:1.0 445:1.0 462:1.0 472:1.0 836:1.0 1105:1.0 1162:1.0 1521:1.0 1667:1.0
-0.044182075779017144 418:1.0 444:1.0 471:1.0 673:1.0 823:1.0 1521:1.0 1659:1.0
-0.044182075779017144 6:1.0 80:1.0 112:1.0 131:1.0 203:1.0 210:1.0 257:1.0 285:1.0 329:1.0 343:1.0 351:1.0 356:1.0 365:1.0 387:1.0 400:1.0 419:1.0 420:1.0 421:1.0 432:1.0 440:1.0 472:1.0 586:1.0 747:1.0 783:1.0 847:1.0 904:1.0 1148:1.0 1265:1.0 1310:1.0 1365:1.0 1491:1.0 1521:1.0 1596:1.0 1632:1.0 1666:1.0
0.044182075779017144 3:1.0 31:1.0 257:1.0 259:1.0 315:1.0 365:1.0 448:1.0 451:1.0 472:1.0 483:1.0 593:1.0 618:1.0 1026:1.0 1484:1.0 1521:1.0 1535:1.0 1690:1.0 1722:1.0
0.044182075779017144 1:1.0 85:1.0 183:1.0 194:1.0 219:1.0 291:1.0 311:1.0 328:1.0 399:1.0 464:1.0 696:1.0 739:1.0 1128:1.0 1415:1.0 1521:1.0
0.044182075779017144 102:1.0 110:1.0 227:1.0 281:1.0 287:1.0 295:1.0 375:1.0 420:1.0 427:1.0 438:1.0 444:1.0 484:1.0 1121:1.0 1521:1.0 1612:1.0 1653:1.0 1690:1.0 1691:1.0
0.044182075779017144 3:1.0 32:1.0 319:1.0 321:1.0 333:1.0 369:1.0 426:1.0 427:1.0 430:1.0 662:1.0 1315:1.0 1338:1.0 1345:1.0 1420:1.0 1421:1.0 1521:1.0 1691:1.0
0.044182075779017144 34:1.0 102:1.0 295:1.0 336:1.0 369:1.0 427:1.0 444:1.0 472:1.0 984:1.0 1207:1.0 1217:1.0 1521:1.0 1690:1.0 1691:1.0
-0.023921987807614675 1:1.0 10:1.0 25:1.0 34:1.0 87:1.0 194:1.0 199:1.0 219:1.0 220:1.0 291:1.0 299:1.0 311:1.0 328:1.0 336:1.0 399:1.0 408:1.0 472:1.0 677:1.0 696:1.0 739:1.0 780:1.0 1063:1.0 1173:1.0 1372:1.0 1438:1.0 1521:1.0
-0.044182075779017144 3:1.0 32:1.0 42:1.0 160:1.0 173:1.0 208:1.0 223:1.0 277:1.0 299:1.0 319:1.0 351:1.0 353:1.0 355:1.0 369:1.0 389:1.0 411:1.0 427:1.0 430:1.0 464:1.0 487:1.0 498:1.0 506:1.0 532:1.0 550:1.0 571:1.0 583:1.0 657:1.0 671:1.0 717:1.0 856:1.0 1004:1.0 1029:1.0 1249:1.0 1273:1.0 1372:1.0 1422:1.0 1634:1.0 1691:1.0 1718:1.0 1719:1.0
0.007659482656545481 67:1.0 152:1.0 166:1.0 264:1.0 314:1.0 372:1.0 375:1.0 411:1.0 427:1.0 450:1.0 630:1.0 633:1.0 1293:1.0 1373:1.0 1509:1.0 1521:1.0 1693:1.0
-0.03395878564490735 1:1.0 183:1.0 194:1.0 219:1.0 278:1.0 291:1.0 311:1.0 313:1.0 328:1.0 399:1.0 420:1.0 438:1.0 464:1.0 491:1.0 739:1.0 1063:1.0 1268:1.0 1521:1.0 1643:1.0 1659:1.0 1690:1.0
-0.017600903721540013 1:1.0 288:1.0 311:1.0 390:1.0 472:1.0 623:1.0 1161:1.0 1441:1.0 1512:1.0 1521:1.0
0.044182075779017144 51:1.0 80:1.0 131:1.0 206:1.0 260:1.0 277:1.0 315:1.0 329:1.0 351:1.0 356:1.0 413:1.0 419:1.0 446:1.0 464:1.0 846:1.0 957:1.0 1172:1.0 1268:1.0 1521:1.0 1535:1.0 1659:1.0 1670:1.0
7.703251170756483E-4 40:1.0 64:1.0 97:1.0 112:1.0 131:1.0 157:1.0 170:1.0 230:1.0 260:1.0 329:1.0 351:1.0 356:1.0 374:1.0 411:1.0 414:1.0 419:1.0 427:1.0 445:1.0 464:1.0 583:1.0 586:1.0 694:1.0 768:1.0 803:1.0 836:1.0 847:1.0 1019:1.0 1116:1.0 1139:1.0 1414:1.0 1521:1.0 1653:1.0 1722:1.0
0.044182075779017144 58:1.0 131:1.0 277:1.0 337:1.0 340:1.0 351:1.0 384:1.0 387:1.0 405:1.0 419:1.0 440:1.0 444:1.0 464:1.0 730:1.0 783:1.0 847:1.0 990:1.0 999:1.0 1418:1.0 1521:1.0 1689:1.0
0.034924382425955296 40:1.0 67:1.0 79:1.0 185:1.0 201:1.0 239:1.0 306:1.0 375:1.0 406:1.0 411:1.0 425:1.0 427:1.0 429:1.0 445:1.0 462:1.0 464:1.0 473:1.0 494:1.0 561:1.0 591:1.0 604:1.0 655:1.0 836:1.0 897:1.0 1318:1.0 1372:1.0 1438:1.0 1476:1.0 1521:1.0 1566:1.0 1689:1.0 1693:1.0
-0.04398823351316922 2:1.0 3:1.0 107:1.0 193:1.0 197:1.0 207:1.0 273:1.0 320:1.0 326:1.0 414:1.0 424:1.0 428:1.0 445:1.0 450:1.0 461:1.0 484:1.0 570:1.0 700:1.0 753:1.0 836:1.0 886:1.0 1159:1.0 1341:1.0 1467:1.0 1521:1.0 1678:1.0
-0.044182075779017144 67:1.0 271:1.0 277:1.0 351:1.0 375:1.0 411:1.0 427:1.0 443:1.0 464:1.0 630:1.0 633:1.0 866:1.0 1004:1.0 1293:1.0 1362:1.0 1693:1.0
-0.044182075779017144 444:1.0 464:1.0 1521:1.0 1593:1.0
-0.044182075779017144 78:1.0 102:1.0 108:1.0 123:1.0 215:1.0 295:1.0 305:1.0 313:1.0 346:1.0 444:1.0 445:1.0 470:1.0 836:1.0 963:1.0 984:1.0 1173:1.0 1521:1.0 1632:1.0
-0.044182075779017144 40:1.0 46:1.0 311:1.0 340:1.0 397:1.0 405:1.0 445:1.0 461:1.0 464:1.0 486:1.0 649:1.0 668:1.0 783:1.0 847:1.0 1084:1.0 1521:1.0 1547:1.0 1690:1.0
-0.044182075779017144 143:1.0 291:1.0 384:1.0 444:1.0 454:1.0 458:1.0 739:1.0 1521:1.0 1579:1.0 1632:1.0
0.044182075779017144 1:1.0 95:1.0 202:1.0 219:1.0 242:1.0 253:1.0 286:1.0 297:1.0 311:1.0 357:1.0 375:1.0 399:1.0 427:1.0 464:1.0 557:1.0 638:1.0 690:1.0 1173:1.0 1268:1.0 1283:1.0 1521:1.0 1659:1.0 1691:1.0
0.044182075779017144 2:1.0 3:1.0 12:1.0 55:1.0 118:1.0 161:1.0 238:1.0 261:1.0 291:1.0 302:1.0 363:1.0 388:1.0 398:1.0 434:1.0 457:1.0 464:1.0 529:1.0 547:1.0 611:1.0 658:1.0 724:1.0 739:1.0 1063:1.0 1116:1.0 1341:1.0 1518:1.0 1521:1.0 1690:1.0
0.044182075779017144 6:1.0 245:1.0 250:1.0 278:1.0 291:1.0 313:1.0 319:1.0 356:1.0 420:1.0 446:1.0 464:1.0 482:1.0 489:1.0 567:1.0 663:1.0 739:1.0 1148:1.0 1159:1.0 1219:1.0 1341:1.0 1360:1.0 1521:1.0 1726:1.0
0.03793273836955315 3:1.0 6:1.0 92:1.0 184:1.0 210:1.0 235:1.0 255:1.0 283:1.0 285:1.0 296:1.0 351:1.0 355:1.0 356:1.0 413:1.0 420:1.0 458:1.0 468:1.0 475:1.0 635:1.0 879:1.0 915:1.0 1148:1.0 1283:1.0 1521:1.0 1538:1.0 1663:1.0 1723:1.0
-0.0026108145197991993 2:1.0 3:1.0 12:1.0 55:1.0 85:1.0 161:1.0 291:1.0 302:1.0 363:1.0 388:1.0 398:1.0 464:1.0 529:1.0 547:1.0 611:1.0 658:1.0 724:1.0 739:1.0 1004:1.0 1341:1.0 1518:1.0 1690:1.0
-0.044182075779017144 2:1.0 3:1.0 24:1.0 92:1.0 197:1.0 237:1.0 296:1.0 313:1.0 320:1.0 351:1.0 420:1.0 428:1.0 450:1.0 468:1.0 491:1.0 496:1.0 565:1.0 575:1.0 700:1.0 865:1.0 962:1.0 1146:1.0 1148:1.0 1156:1.0 1293:1.0 1521:1.0 1678:1.0
-0.044182075779017144 2:1.0 3:1.0 21:1.0 139:1.0 159:1.0 217:1.0 259:1.0 263:1.0 290:1.0 314:1.0 315:1.0 319:1.0 320:1.0 359:1.0 375:1.0 385:1.0 393:1.0 394:1.0 427:1.0 435:1.0 448:1.0 556:1.0 588:1.0 594:1.0 612:1.0 883:1.0 1049:1.0 1173:1.0 1288:1.0 1304:1.0 1313:1.0 1344:1.0 1484:1.0 1521:1.0 1691:1.0 1718:1.0
-0.016175637771868465 1:1.0 219:1.0 311:1.0 399:1.0 448:1.0 472:1.0 579:1.0 753:1.0 1173:1.0 1310:1.0 1521:1.0
-9.34143912134454E-4 2:1.0 3:1.0 151:1.0 155:1.0 172:1.0 222:1.0 223:1.0 247:1.0 299:1.0 304:1.0 315:1.0 320:1.0 353:1.0 354:1.0 391:1.0 398:1.0 413:1.0 427:1.0 464:1.0 528:1.0 667:1.0 700:1.0 746:1.0 923:1.0 999:1.0 1004:1.0 1158:1.0 1268:1.0 1372:1.0 1492:1.0 1678:1.0
0.044182075779017144 40:1.0 207:1.0 213:1.0 309:1.0 318:1.0 384:1.0 414:1.0 444:1.0 445:1.0 464:1.0 558:1.0 847:1.0 944:1.0 1521:1.0 1554:1.0 1638:1.0
0.044182075779017144 383:1.0 444:1.0 458:1.0 822:1.0 1521:1.0
0.044182075779017144 267:1.0 372:1.0 384:1.0 444:1.0 480:1.0 805:1.0 1521:1.0 1667:1.0
0.044182075779017144 262:1.0 273:1.0 326:1.0 384:1.0 417:1.0 424:1.0 444:1.0 482:1.0 484:1.0 885:1.0 1341:1.0 1498:1.0 1521:1.0 1600:1.0 1673:1.0
0.044182075779017144 152:1.0 264:1.0 314:1.0 337:1.0 372:1.0 383:1.0 444:1.0 450:1.0 1172:1.0 1293:1.0 1407:1.0 1426:1.0 1521:1.0
-0.044182075779017144 142:1.0 261:1.0 270:1.0 321:1.0 356:1.0 357:1.0 434:1.0 444:1.0 445:1.0 455:1.0 457:1.0 647:1.0 715:1.0 847:1.0 1116:1.0 1173:1.0 1415:1.0 1518:1.0 1521:1.0 1593:1.0 1653:1.0
-0.044182075779017144 54:1.0 300:1.0 308:1.0 358:1.0 432:1.0 481:1.0 623:1.0 915:1.0 1119:1.0 1441:1.0 1521:1.0 1596:1.0
-0.044182075779017144 3:1.0 79:1.0 103:1.0 115:1.0 239:1.0 301:1.0 310:1.0 316:1.0 349:1.0 355:1.0 364:1.0 406:1.0 413:1.0 420:1.0 445:1.0 446:1.0 458:1.0 462:1.0 480:1.0 749:1.0 797:1.0 840:1.0 855:1.0 914:1.0 1049:1.0 1136:1.0 1372:1.0 1480:1.0 1486:1.0 1521:1.0 1662:1.0 1667:1.0 1678:1.0
-0.044182075779017144 85:1.0 214:1.0 286:1.0 291:1.0 357:1.0 377:1.0 384:1.0 439:1.0 444:1.0 464:1.0 624:1.0 739:1.0 1024:1.0 1273:1.0 1334:1.0 1521:1.0 1662:1.0
0.017614683975892602 3:1.0 60:1.0 137:1.0 148:1.0 159:1.0 175:1.0 212:1.0 225:1.0 247:1.0 259:1.0 299:1.0 307:1.0 315:1.0 349:1.0 361:1.0 390:1.0 393:1.0 411:1.0 413:1.0 448:1.0 456:1.0 464:1.0 583:1.0 705:1.0 1029:1.0 1032:1.0 1140:1.0 1326:1.0 1329:1.0 1372:1.0 1463:1.0 1521:1.0 1634:1.0 1648:1.0 1691:1.0
0.044182075779017144 51:1.0 148:1.0 151:1.0 159:1.0 167:1.0 259:1.0 314:1.0 315:1.0 393:1.0 411:1.0 413:1.0 448:1.0 464:1.0 519:1.0 583:1.0 672:1.0 883:1.0 1262:1.0 1273:1.0 1344:1.0 1498:1.0 1521:1.0 1691:1.0
0.044182075779017144 3:1.0 40:1.0 79:1.0 154:1.0 208:1.0 353:1.0 355:1.0 406:1.0 444:1.0 445:1.0 464:1.0 497:1.0 517:1.0 591:1.0 622:1.0 675:1.0 836:1.0 868:1.0 898:1.0 1129:1.0 1372:1.0 1521:1.0 1690:1.0 1691:1.0
-0.044182075779017144 30:1.0 39:1.0 40:1.0 97:1.0 127:1.0 260:1.0 275:1.0 299:1.0 329:1.0 356:1.0 379:1.0 445:1.0 460:1.0 464:1.0 465:1.0 598:1.0 745:1.0 836:1.0 847:1.0 915:1.0 994:1.0 1433:1.0 1441:1.0 1521:1.0 1534:1.0 1596:1.0
-0.02165549826581598 3:1.0 40:1.0 89:1.0 97:1.0 107:1.0 146:1.0 193:1.0 207:1.0 228:1.0 322:1.0 326:1.0 329:1.0 333:1.0 369:1.0 373:1.0 411:1.0 414:1.0 427:1.0 428:1.0 445:1.0 450:1.0 452:1.0 464:1.0 467:1.0 570:1.0 583:1.0 600:1.0 652:1.0 697:1.0 776:1.0 783:1.0 810:1.0 836:1.0 1004:1.0 1029:1.0 1223:1.0 1335:1.0 1341:1.0 1345:1.0 1418:1.0 1435:1.0 1691:1.0
-0.004276101780774873 1:1.0 30:1.0 40:1.0 191:1.0 311:1.0 343:1.0 445:1.0 460:1.0 464:1.0 687:1.0 836:1.0 984:1.0 999:1.0 1172:1.0 1521:1.0
-0.014931893029697637 1:1.0 30:1.0 40:1.0 97:1.0 125:1.0 170:1.0 311:1.0 329:1.0 356:1.0 445:1.0 460:1.0 464:1.0 725:1.0 747:1.0 782:1.0 836:1.0 1148:1.0 1403:1.0 1521:1.0 1659:1.0 1667:1.0
-0.007456956611367817 3:1.0 7:1.0 29:1.0 42:1.0 81:1.0 190:1.0 278:1.0 295:1.0 355:1.0 381:1.0 420:1.0 426:1.0 445:1.0 464:1.0 487:1.0 712:1.0 1004:1.0 1026:1.0 1441:1.0 1538:1.0 1659:1.0 1663:1.0 1670:1.0 1671:1.0
0.044182075779017144 10:1.0 69:1.0 142:1.0 291:1.0 298:1.0 321:1.0 334:1.0 336:1.0 357:1.0 411:1.0 455:1.0 468:1.0 647:1.0 720:1.0 1063:1.0 1173:1.0 1260:1.0 1441:1.0 1459:1.0 1521:1.0 1653:1.0
0.020987581980753067 84:1.0 214:1.0 237:1.0 291:1.0 296:1.0 351:1.0 352:1.0 357:1.0 400:1.0 439:1.0 443:1.0 458:1.0 465:1.0 468:1.0 583:1.0 639:1.0 707:1.0 739:1.0 771:1.0 962:1.0 1087:1.0 1148:1.0 1156:1.0 1230:1.0 1240:1.0 1293:1.0 1521:1.0 1596:1.0
0.044182075779017144 36:1.0 55:1.0 85:1.0 291:1.0 311:1.0 313:1.0 388:1.0 398:1.0 464:1.0 489:1.0 670:1.0 739:1.0 747:1.0 1103:1.0 1178:1.0 1341:1.0 1521:1.0
0.044182075779017144 85:1.0 214:1.0 221:1.0 270:1.0 291:1.0 356:1.0 357:1.0 439:1.0 464:1.0 482:1.0 692:1.0 707:1.0 739:1.0 915:1.0 984:1.0 1313:1.0 1341:1.0 1521:1.0
-0.044182075779017144 3:1.0 11:1.0 31:1.0 212:1.0 349:1.0 451:1.0 464:1.0 479:1.0 483:1.0 545:1.0 569:1.0 620:1.0 1146:1.0 1158:1.0 1417:1.0 1521:1.0 1690:1.0
-0.03307609322276371 3:1.0 147:1.0 149:1.0 296:1.0 315:1.0 324:1.0 350:1.0 351:1.0 380:1.0 391:1.0 446:1.0 458:1.0 482:1.0 567:1.0 1004:1.0 1029:1.0 1136:1.0 1214:1.0 1219:1.0 1341:1.0 1370:1.0 1500:1.0
-0.04317706690997568 53:1.0 70:1.0 167:1.0 278:1.0 311:1.0 314:1.0 315:1.0 330:1.0 390:1.0 397:1.0 420:1.0 464:1.0 708:1.0 984:1.0 1206:1.0 1344:1.0 1521:1.0 1587:1.0 1653:1.0 1690:1.0
-0.044182075779017144 3:1.0 152:1.0 309:1.0 318:1.0 372:1.0 384:1.0 424:1.0 428:1.0 444:1.0 450:1.0 713:1.0 1004:1.0 1029:1.0 1218:1.0 1341:1.0
0.044182075779017144 190:1.0 287:1.0 332:1.0 341:1.0 379:1.0 420:1.0 426:1.0 445:1.0 461:1.0 484:1.0 692:1.0 767:1.0 915:1.0 1339:1.0 1461:1.0 1475:1.0 1521:1.0 1558:1.0 1596:1.0 1696:1.0
0.03603961704991683 3:1.0 20:1.0 30:1.0 56:1.0 61:1.0 89:1.0 304:1.0 315:1.0 369:1.0 411:1.0 427:1.0 435:1.0 445:1.0 460:1.0 462:1.0 468:1.0 583:1.0 596:1.0 836:1.0 851:1.0 921:1.0 1024:1.0 1049:1.0 1087:1.0 1148:1.0 1344:1.0 1521:1.0 1535:1.0 1617:1.0 1691:1.0
0.044182075779017144 40:1.0 46:1.0 98:1.0 296:1.0 337:1.0 351:1.0 405:1.0 445:1.0 464:1.0 475:1.0 764:1.0 847:1.0 990:1.0 1464:1.0 1521:1.0
-0.044182075779017144 445:1.0 462:1.0 470:1.0 475:1.0 836:1.0 1215:1.0 1521:1.0 1632:1.0 1667:1.0
-0.044182075779017144 1:1.0 176:1.0 311:1.0 321:1.0 362:1.0 1421:1.0 1521:1.0 1558:1.0
-0.043013446552125044 1:1.0 3:1.0 21:1.0 114:1.0 185:1.0 311:1.0 339:1.0 375:1.0 427:1.0 433:1.0 435:1.0 473:1.0 596:1.0 1024:1.0 1049:1.0 1318:1.0 1521:1.0 1652:1.0
0.012206635957339841 174:1.0 213:1.0 236:1.0 277:1.0 309:1.0 312:1.0 318:1.0 351:1.0 384:1.0 388:1.0 398:1.0 444:1.0 464:1.0 634:1.0 670:1.0 739:1.0 825:1.0 971:1.0 1215:1.0 1341:1.0 1521:1.0
-0.044182075779017144 162:1.0 165:1.0 257:1.0 299:1.0 365:1.0 367:1.0 411:1.0 425:1.0 427:1.0 472:1.0 655:1.0 848:1.0 1004:1.0 1156:1.0 1372:1.0 1439:1.0 1566:1.0
-0.044182075779017144 2:1.0 3:1.0 12:1.0 90:1.0 138:1.0 207:1.0 212:1.0 302:1.0 349:1.0 363:1.0 414:1.0 445:1.0 464:1.0 529:1.0 587:1.0 658:1.0 724:1.0 847:1.0 968:1.0 1341:1.0 1408:1.0 1521:1.0 1690:1.0
0.01522176978434567 3:1.0 40:1.0 69:1.0 115:1.0 163:1.0 291:1.0 298:1.0 325:1.0 342:1.0 343:1.0 355:1.0 364:1.0 411:1.0 445:1.0 464:1.0 720:1.0 774:1.0 805:1.0 1441:1.0 1518:1.0 1521:1.0 1587:1.0 1659:1.0 1663:1.0
0.0337081440522521 29:1.0 60:1.0 97:1.0 103:1.0 104:1.0 110:1.0 137:1.0 156:1.0 170:1.0 179:1.0 203:1.0 225:1.0 260:1.0 295:1.0 299:1.0 307:1.0 329:1.0 356:1.0 375:1.0 390:1.0 400:1.0 427:1.0 437:1.0 445:1.0 456:1.0 458:1.0 462:1.0 522:1.0 532:1.0 571:1.0 584:1.0 697:1.0 717:1.0 748:1.0 836:1.0 912:1.0 1081:1.0 1123:1.0 1148:1.0 1273:1.0 1343:1.0 1372:1.0 1521:1.0 1597:1.0 1634:1.0 1655:1.0 1691:1.0
-0.044182075779017144 1:1.0 85:1.0 291:1.0 311:1.0 390:1.0 456:1.0 464:1.0 623:1.0 739:1.0 1018:1.0 1441:1.0 1468:1.0 1521:1.0
0.004029147111418495 36:1.0 174:1.0 236:1.0 277:1.0 312:1.0 313:1.0 351:1.0 388:1.0 398:1.0 444:1.0 464:1.0 489:1.0 634:1.0 670:1.0 739:1.0 825:1.0 1268:1.0 1341:1.0 1424:1.0 1521:1.0
0.044182075779017144 165:1.0 213:1.0 234:1.0 299:1.0 309:1.0 318:1.0 371:1.0 384:1.0 425:1.0 444:1.0 470:1.0 655:1.0 944:1.0 1119:1.0 1341:1.0 1372:1.0 1521:1.0 1566:1.0
-0.025521268559860526 3:1.0 18:1.0 29:1.0 30:1.0 42:1.0 81:1.0 86:1.0 190:1.0 277:1.0 295:1.0 348:1.0 351:1.0 355:1.0 426:1.0 445:1.0 460:1.0 464:1.0 487:1.0 712:1.0 774:1.0 836:1.0 1004:1.0 1026:1.0 1034:1.0 1061:1.0 1196:1.0 1372:1.0 1398:1.0 1441:1.0 1663:1.0
0.012162274588725123 73:1.0 136:1.0 180:1.0 245:1.0 313:1.0 349:1.0 384:1.0 417:1.0 423:1.0 434:1.0 444:1.0 482:1.0 484:1.0 489:1.0 888:1.0 944:1.0 1116:1.0 1143:1.0 1341:1.0 1354:1.0 1521:1.0
0.02746635109185829 34:1.0 79:1.0 89:1.0 91:1.0 101:1.0 336:1.0 345:1.0 369:1.0 406:1.0 411:1.0 427:1.0 445:1.0 472:1.0 561:1.0 591:1.0 836:1.0 1372:1.0 1498:1.0 1521:1.0 1572:1.0 1693:1.0 1722:1.0
0.044182075779017144 152:1.0 251:1.0 284:1.0 372:1.0 398:1.0 426:1.0 448:1.0 450:1.0 662:1.0 866:1.0 1173:1.0 1298:1.0 1315:1.0 1407:1.0 1521:1.0
-0.040982347510086135 2:1.0 124:1.0 139:1.0 151:1.0 205:1.0 216:1.0 315:1.0 320:1.0 359:1.0 385:1.0 393:1.0 413:1.0 427:1.0 464:1.0 612:1.0 883:1.0 984:1.0 1026:1.0 1283:1.0 1313:1.0 1521:1.0
-0.028535127635970964 3:1.0 84:1.0 145:1.0 148:1.0 194:1.0 198:1.0 254:1.0 259:1.0 291:1.0 315:1.0 317:1.0 328:1.0 380:1.0 391:1.0 398:1.0 399:1.0 411:1.0 427:1.0 448:1.0 465:1.0 470:1.0 519:1.0 583:1.0 672:1.0 679:1.0 739:1.0 923:1.0 1004:1.0 1029:1.0 1158:1.0 1262:1.0 1273:1.0 1279:1.0 1294:1.0 1411:1.0 1596:1.0 1691:1.0
-0.015743908132833502 1:1.0 33:1.0 311:1.0 470:1.0 1521:1.0 1575:1.0
0.02858830170791985 3:1.0 37:1.0 42:1.0 62:1.0 109:1.0 237:1.0 296:1.0 351:1.0 352:1.0 355:1.0 357:1.0 381:1.0 443:1.0 446:1.0 468:1.0 474:1.0 481:1.0 487:1.0 639:1.0 712:1.0 1026:1.0 1043:1.0 1155:1.0 1156:1.0 1219:1.0 1264:1.0 1293:1.0 1499:1.0 1521:1.0 1596:1.0 1659:1.0 1663:1.0
-0.015469887260105187 3:1.0 80:1.0 131:1.0 147:1.0 177:1.0 296:1.0 310:1.0 329:1.0 351:1.0 410:1.0 419:1.0 458:1.0 836:1.0 928:1.0 1004:1.0 1049:1.0 1123:1.0 1459:1.0 1559:1.0
0.014862765007539896 3:1.0 35:1.0 42:1.0 65:1.0 67:1.0 166:1.0 167:1.0 254:1.0 314:1.0 315:1.0 355:1.0 375:1.0 399:1.0 411:1.0 427:1.0 470:1.0 487:1.0 504:1.0 577:1.0 583:1.0 607:1.0 709:1.0 883:1.0 1024:1.0 1344:1.0 1521:1.0 1612:1.0 1637:1.0 1663:1.0 1691:1.0
0.044182075779017144 3:1.0 70:1.0 93:1.0 111:1.0 315:1.0 331:1.0 372:1.0 390:1.0 429:1.0 446:1.0 700:1.0 710:1.0 798:1.0 897:1.0 1219:1.0 1252:1.0 1322:1.0 1521:1.0 1587:1.0
-0.027756371544198927 53:1.0 111:1.0 167:1.0 311:1.0 314:1.0 315:1.0 372:1.0 390:1.0 397:1.0 432:1.0 708:1.0 866:1.0 945:1.0 1344:1.0 1521:1.0 1587:1.0 1596:1.0 1690:1.0
-0.011385270825416445 9:1.0 28:1.0 42:1.0 160:1.0 166:1.0 167:1.0 171:1.0 173:1.0 201:1.0 208:1.0 223:1.0 299:1.0 306:1.0 314:1.0 315:1.0 319:1.0 342:1.0 353:1.0 355:1.0 375:1.0 389:1.0 411:1.0 427:1.0 430:1.0 445:1.0 462:1.0 472:1.0 487:1.0 532:1.0 571:1.0 583:1.0 717:1.0 836:1.0 1004:1.0 1024:1.0 1037:1.0 1241:1.0 1273:1.0 1344:1.0 1372:1.0 1588:1.0 1633:1.0 1634:1.0 1643:1.0 1667:1.0 1691:1.0
-0.020273223246337787 10:1.0 55:1.0 291:1.0 308:1.0 315:1.0 336:1.0 357:1.0 388:1.0 395:1.0 398:1.0 439:1.0 452:1.0 1004:1.0 1063:1.0 1086:1.0 1098:1.0 1341:1.0 1690:1.0 1714:1.0 1729:1.0
-0.02696007266216765 30:1.0 39:1.0 127:1.0 165:1.0 229:1.0 251:1.0 272:1.0 275:1.0 284:1.0 293:1.0 299:1.0 315:1.0 379:1.0 395:1.0 425:1.0 426:1.0 445:1.0 460:1.0 464:1.0 465:1.0 531:1.0 655:1.0 684:1.0 688:1.0 691:1.0 726:1.0 847:1.0 925:1.0 1004:1.0 1315:1.0 1341:1.0 1344:1.0 1362:1.0 1372:1.0 1566:1.0 1587:1.0 1596:1.0
-0.04206516323078541 3:1.0 31:1.0 88:1.0 113:1.0 142:1.0 164:1.0 321:1.0 357:1.0 381:1.0 427:1.0 451:1.0 455:1.0 483:1.0 500:1.0 618:1.0 635:1.0 1024:1.0 1129:1.0 1521:1.0 1690:1.0 1691:1.0 1714:1.0
0.01685759866149276 3:1.0 18:1.0 21:1.0 30:1.0 40:1.0 67:1.0 185:1.0 355:1.0 375:1.0 411:1.0 427:1.0 435:1.0 445:1.0 460:1.0 464:1.0 473:1.0 505:1.0 583:1.0 645:1.0 729:1.0 735:1.0 836:1.0 868:1.0 956:1.0 1049:1.0 1342:1.0 1521:1.0 1637:1.0 1652:1.0 1691:1.0
0.021070537498674224 78:1.0 133:1.0 190:1.0 243:1.0 292:1.0 299:1.0 313:1.0 325:1.0 343:1.0 426:1.0 445:1.0 489:1.0 691:1.0 692:1.0 756:1.0 984:1.0 1166:1.0 1372:1.0 1461:1.0 1521:1.0 1587:1.0
0.020540754890183695 3:1.0 45:1.0 67:1.0 78:1.0 216:1.0 313:1.0 333:1.0 359:1.0 369:1.0 375:1.0 411:1.0 427:1.0 429:1.0 445:1.0 466:1.0 478:1.0 583:1.0 836:1.0 1029:1.0 1184:1.0 1288:1.0 1435:1.0 1521:1.0 1634:1.0 1691:1.0
0.00530342009760016 67:1.0 97:1.0 238:1.0 256:1.0 261:1.0 281:1.0 329:1.0 375:1.0 411:1.0 427:1.0 434:1.0 438:1.0 445:1.0 457:1.0 464:1.0 583:1.0 836:1.0 950:1.0 1055:1.0 1109:1.0 1116:1.0 1521:1.0 1691:1.0 1714:1.0
0.029524056054484372 67:1.0 253:1.0 297:1.0 375:1.0 411:1.0 415:1.0 427:1.0 458:1.0 561:1.0 816:1.0 1273:1.0 1521:1.0 1693:1.0
0.017425181855811187 8:1.0 67:1.0 185:1.0 375:1.0 401:1.0 411:1.0 427:1.0 472:1.0 473:1.0 583:1.0 1248:1.0 1342:1.0 1521:1.0 1566:1.0 1691:1.0
0.013231478850532748 67:1.0 97:1.0 138:1.0 212:1.0 256:1.0 281:1.0 329:1.0 349:1.0 375:1.0 411:1.0 427:1.0 438:1.0 445:1.0 464:1.0 583:1.0 711:1.0 836:1.0 984:1.0 1050:1.0 1294:1.0 1521:1.0 1653:1.0 1691:1.0
0.037798310490537654 69:1.0 291:1.0 298:1.0 327:1.0 411:1.0 454:1.0 476:1.0 720:1.0 1190:1.0 1298:1.0 1441:1.0 1521:1.0
-0.0205107176875483 2:1.0 3:1.0 144:1.0 265:1.0 320:1.0 331:1.0 334:1.0 390:1.0 409:1.0 412:1.0 456:1.0 485:1.0 518:1.0 609:1.0 612:1.0 883:1.0 1313:1.0 1344:1.0 1459:1.0 1521:1.0 1587:1.0
-0.02644227517069886 2:1.0 3:1.0 12:1.0 161:1.0 174:1.0 236:1.0 277:1.0 302:1.0 312:1.0 351:1.0 363:1.0 388:1.0 398:1.0 464:1.0 542:1.0 585:1.0 610:1.0 611:1.0 739:1.0 957:1.0 1004:1.0 1063:1.0 1315:1.0 1341:1.0
-0.004009847748342021 2:1.0 3:1.0 70:1.0 93:1.0 144:1.0 265:1.0 288:1.0 315:1.0 320:1.0 331:1.0 390:1.0 412:1.0 485:1.0 518:1.0 609:1.0 612:1.0 883:1.0 1051:1.0 1313:1.0 1344:1.0 1496:1.0 1521:1.0 1568:1.0
0.013894000007168408 152:1.0 190:1.0 264:1.0 314:1.0 337:1.0 372:1.0 426:1.0 445:1.0 450:1.0 462:1.0 692:1.0 805:1.0 851:1.0 1293:1.0 1461:1.0 1521:1.0 1647:1.0
-0.02605430064740508 1:1.0 30:1.0 40:1.0 106:1.0 219:1.0 311:1.0 399:1.0 427:1.0 445:1.0 460:1.0 464:1.0 641:1.0 897:1.0 1046:1.0 1173:1.0 1315:1.0 1521:1.0 1534:1.0
-0.015358149175218869 1:1.0 257:1.0 311:1.0 365:1.0 472:1.0 687:1.0 1083:1.0 1172:1.0 1521:1.0
-0.029318479952365088 1:1.0 257:1.0 311:1.0 365:1.0 472:1.0 1521:1.0 1594:1.0
-0.044182075779017144 1:1.0 33:1.0 311:1.0 470:1.0 1521:1.0
0.01693859545621981 40:1.0 67:1.0 99:1.0 166:1.0 167:1.0 202:1.0 220:1.0 223:1.0 286:1.0 299:1.0 314:1.0 315:1.0 353:1.0 375:1.0 399:1.0 411:1.0 427:1.0 445:1.0 464:1.0 504:1.0 583:1.0 605:1.0 709:1.0 836:1.0 846:1.0 883:1.0 947:1.0 1024:1.0 1288:1.0 1304:1.0 1322:1.0 1372:1.0 1521:1.0 1652:1.0 1691:1.0
0.024355218157344947 64:1.0 151:1.0 165:1.0 247:1.0 299:1.0 371:1.0 374:1.0 411:1.0 413:1.0 425:1.0 427:1.0 464:1.0 583:1.0 655:1.0 691:1.0 694:1.0 803:1.0 1169:1.0 1341:1.0 1372:1.0 1521:1.0 1566:1.0 1587:1.0
0.013351043781968427 3:1.0 24:1.0 67:1.0 98:1.0 166:1.0 167:1.0 182:1.0 290:1.0 296:1.0 314:1.0 315:1.0 337:1.0 351:1.0 375:1.0 389:1.0 411:1.0 427:1.0 428:1.0 450:1.0 504:1.0 583:1.0 709:1.0 883:1.0 1029:1.0 1058:1.0 1344:1.0 1459:1.0 1521:1.0 1634:1.0 1648:1.0 1691:1.0
-0.018671603568140908 2:1.0 3:1.0 9:1.0 28:1.0 30:1.0 40:1.0 47:1.0 188:1.0 319:1.0 320:1.0 343:1.0 375:1.0 427:1.0 430:1.0 445:1.0 459:1.0 460:1.0 464:1.0 633:1.0 646:1.0 836:1.0 873:1.0 883:1.0 1024:1.0 1293:1.0 1419:1.0 1521:1.0 1632:1.0 1690:1.0
-0.013143253035132661 1:1.0 97:1.0 138:1.0 202:1.0 212:1.0 219:1.0 286:1.0 311:1.0 329:1.0 349:1.0 399:1.0 445:1.0 464:1.0 697:1.0 748:1.0 776:1.0 836:1.0 964:1.0 1173:1.0 1197:1.0 1521:1.0
-0.0011329559392263897 1:1.0 79:1.0 142:1.0 154:1.0 170:1.0 270:1.0 311:1.0 321:1.0 353:1.0 356:1.0 357:1.0 406:1.0 445:1.0 455:1.0 497:1.0 517:1.0 591:1.0 622:1.0 647:1.0 675:1.0 687:1.0 836:1.0 898:1.0 1172:1.0 1173:1.0 1372:1.0 1521:1.0 1653:1.0
0.004804497819014834 38:1.0 78:1.0 178:1.0 190:1.0 243:1.0 313:1.0 341:1.0 360:1.0 426:1.0 442:1.0 445:1.0 458:1.0 463:1.0 489:1.0 692:1.0 816:1.0 876:1.0 915:1.0 1461:1.0 1514:1.0 1521:1.0 1672:1.0
-0.0036361174904219994 3:1.0 78:1.0 123:1.0 129:1.0 243:1.0 245:1.0 313:1.0 378:1.0 400:1.0 445:1.0 470:1.0 482:1.0 489:1.0 748:1.0 923:1.0 984:1.0 1004:1.0 1049:1.0 1590:1.0 1666:1.0
0.00951275438409117 148:1.0 159:1.0 259:1.0 297:1.0 315:1.0 316:1.0 349:1.0 393:1.0 409:1.0 411:1.0 448:1.0 519:1.0 583:1.0 672:1.0 1032:1.0 1236:1.0 1262:1.0 1288:1.0 1291:1.0 1430:1.0 1521:1.0 1691:1.0
0.005534230098960854 9:1.0 52:1.0 128:1.0 166:1.0 264:1.0 285:1.0 314:1.0 316:1.0 319:1.0 330:1.0 349:1.0 375:1.0 387:1.0 420:1.0 421:1.0 427:1.0 446:1.0 450:1.0 458:1.0 567:1.0 729:1.0 783:1.0 853:1.0 915:1.0 1081:1.0 1136:1.0 1219:1.0 1342:1.0 1509:1.0 1521:1.0 1691:1.0
0.011769509136847978 67:1.0 85:1.0 214:1.0 271:1.0 291:1.0 330:1.0 357:1.0 375:1.0 411:1.0 427:1.0 439:1.0 443:1.0 464:1.0 561:1.0 739:1.0 1061:1.0 1206:1.0 1318:1.0 1521:1.0 1653:1.0 1693:1.0
0.009382327219070131 19:1.0 128:1.0 213:1.0 279:1.0 293:1.0 309:1.0 318:1.0 329:1.0 330:1.0 384:1.0 418:1.0 444:1.0 450:1.0 944:1.0 1218:1.0 1341:1.0 1516:1.0 1521:1.0 1653:1.0 1659:1.0
0.0057169057705834395 58:1.0 67:1.0 127:1.0 131:1.0 224:1.0 273:1.0 276:1.0 351:1.0 375:1.0 379:1.0 405:1.0 411:1.0 419:1.0 424:1.0 427:1.0 465:1.0 484:1.0 563:1.0 630:1.0 730:1.0 847:1.0 944:1.0 1139:1.0 1318:1.0 1389:1.0 1521:1.0 1596:1.0 1693:1.0
0.009105628236489444 43:1.0 78:1.0 181:1.0 190:1.0 243:1.0 313:1.0 372:1.0 426:1.0 445:1.0 449:1.0 489:1.0 688:1.0 1315:1.0 1341:1.0 1450:1.0 1521:1.0 1559:1.0
-0.006765198744405632 1:1.0 27:1.0 150:1.0 168:1.0 304:1.0 311:1.0 381:1.0 447:1.0 472:1.0 659:1.0 1512:1.0 1521:1.0 1659:1.0 1678:1.0 1687:1.0
-0.011507696031302738 2:1.0 140:1.0 152:1.0 279:1.0 293:1.0 309:1.0 315:1.0 318:1.0 320:1.0 371:1.0 372:1.0 380:1.0 391:1.0 450:1.0 612:1.0 790:1.0 1004:1.0 1187:1.0 1313:1.0 1341:1.0 1407:1.0
-0.007606023487399565 1:1.0 6:1.0 48:1.0 183:1.0 194:1.0 219:1.0 278:1.0 291:1.0 311:1.0 328:1.0 356:1.0 399:1.0 420:1.0 464:1.0 739:1.0 794:1.0 1061:1.0 1126:1.0 1521:1.0 1695:1.0
-0.030824711131327207 1:1.0 33:1.0 311:1.0 470:1.0 687:1.0 1172:1.0 1521:1.0
-0.00376346017009083 2:1.0 3:1.0 4:1.0 13:1.0 14:1.0 18:1.0 42:1.0 65:1.0 66:1.0 76:1.0 77:1.0 131:1.0 147:1.0 177:1.0 216:1.0 296:1.0 302:1.0 338:1.0 351:1.0 355:1.0 359:1.0 399:1.0 419:1.0 421:1.0 427:1.0 458:1.0 460:1.0 486:1.0 487:1.0 535:1.0 539:1.0 566:1.0 619:1.0 658:1.0 680:1.0 716:1.0 722:1.0 785:1.0 836:1.0 867:1.0 883:1.0 895:1.0 1004:1.0 1024:1.0 1058:1.0 1612:1.0 1637:1.0 1689:1.0 1690:1.0 1691:1.0
-0.012391475352138514 3:1.0 31:1.0 76:1.0 164:1.0 202:1.0 278:1.0 286:1.0 399:1.0 420:1.0 427:1.0 451:1.0 464:1.0 483:1.0 554:1.0 556:1.0 618:1.0 689:1.0 690:1.0 925:1.0 1024:1.0 1173:1.0 1304:1.0 1521:1.0 1659:1.0 1690:1.0
-0.0031080695793569654 2:1.0 3:1.0 57:1.0 75:1.0 98:1.0 119:1.0 131:1.0 134:1.0 177:1.0 296:1.0 315:1.0 320:1.0 337:1.0 351:1.0 372:1.0 419:1.0 422:1.0 436:1.0 443:1.0 509:1.0 601:1.0 646:1.0 805:1.0 836:1.0 921:1.0 1004:1.0 1377:1.0 1399:1.0 1440:1.0 1690:1.0
-3.940169246119023E-4 2:1.0 3:1.0 14:1.0 23:1.0 58:1.0 63:1.0 92:1.0 131:1.0 177:1.0 233:1.0 237:1.0 285:1.0 296:1.0 302:1.0 303:1.0 338:1.0 351:1.0 405:1.0 419:1.0 420:1.0 464:1.0 468:1.0 526:1.0 527:1.0 575:1.0 590:1.0 658:1.0 674:1.0 836:1.0 893:1.0 915:1.0 1004:1.0 1140:1.0 1264:1.0 1293:1.0 1419:1.0 1690:1.0
-0.0029353311305542014 3:1.0 40:1.0 70:1.0 93:1.0 97:1.0 104:1.0 260:1.0 315:1.0 329:1.0 331:1.0 341:1.0 356:1.0 360:1.0 390:1.0 410:1.0 437:1.0 445:1.0 456:1.0 464:1.0 598:1.0 836:1.0 868:1.0 915:1.0 1004:1.0 1082:1.0 1156:1.0 1263:1.0 1544:1.0 1567:1.0 1587:1.0 1597:1.0 1690:1.0
0.011809920371896265 42:1.0 62:1.0 67:1.0 185:1.0 257:1.0 355:1.0 357:1.0 365:1.0 375:1.0 411:1.0 427:1.0 452:1.0 472:1.0 473:1.0 487:1.0 583:1.0 638:1.0 1119:1.0 1342:1.0 1428:1.0 1438:1.0 1521:1.0 1659:1.0 1663:1.0 1691:1.0
0.015352274933011504 55:1.0 85:1.0 251:1.0 284:1.0 291:1.0 388:1.0 398:1.0 426:1.0 464:1.0 531:1.0 670:1.0 688:1.0 726:1.0 739:1.0 1315:1.0 1341:1.0 1353:1.0 1521:1.0
0.003300813769316611 152:1.0 251:1.0 272:1.0 279:1.0 284:1.0 293:1.0 372:1.0 426:1.0 450:1.0 531:1.0 688:1.0 726:1.0 877:1.0 1315:1.0 1341:1.0 1509:1.0 1521:1.0
0.01533823101822272 30:1.0 40:1.0 67:1.0 137:1.0 156:1.0 275:1.0 299:1.0 307:1.0 375:1.0 411:1.0 427:1.0 445:1.0 460:1.0 464:1.0 524:1.0 540:1.0 557:1.0 583:1.0 602:1.0 836:1.0 1283:1.0 1372:1.0 1452:1.0 1521:1.0 1691:1.0
0.006226440465818326 40:1.0 50:1.0 89:1.0 97:1.0 101:1.0 121:1.0 220:1.0 299:1.0 329:1.0 345:1.0 369:1.0 399:1.0 411:1.0 427:1.0 445:1.0 464:1.0 468:1.0 479:1.0 615:1.0 683:1.0 847:1.0 848:1.0 1106:1.0 1173:1.0 1309:1.0 1372:1.0 1408:1.0 1451:1.0 1521:1.0 1712:1.0
0.005448784983135155 45:1.0 67:1.0 286:1.0 287:1.0 341:1.0 359:1.0 366:1.0 375:1.0 411:1.0 420:1.0 427:1.0 583:1.0 765:1.0 846:1.0 1024:1.0 1043:1.0 1143:1.0 1372:1.0 1521:1.0 1673:1.0 1686:1.0 1691:1.0
-0.0037895605334720547 1:1.0 30:1.0 85:1.0 86:1.0 125:1.0 291:1.0 311:1.0 348:1.0 445:1.0 460:1.0 464:1.0 477:1.0 739:1.0 847:1.0 1202:1.0 1372:1.0 1389:1.0 1521:1.0 1678:1.0
0.008549223206441366 3:1.0 35:1.0 42:1.0 65:1.0 67:1.0 166:1.0 167:1.0 254:1.0 314:1.0 315:1.0 355:1.0 375:1.0 399:1.0 411:1.0 427:1.0 470:1.0 487:1.0 504:1.0 577:1.0 583:1.0 680:1.0 709:1.0 883:1.0 1344:1.0 1439:1.0 1521:1.0 1637:1.0 1663:1.0 1691:1.0
-4.355793504102895E-4 1:1.0 27:1.0 150:1.0 168:1.0 304:1.0 311:1.0 381:1.0 447:1.0 472:1.0 659:1.0 1512:1.0 1521:1.0 1659:1.0 1678:1.0 1687:1.0
8.392104316381538E-4 3:1.0 27:1.0 67:1.0 78:1.0 204:1.0 244:1.0 299:1.0 313:1.0 323:1.0 375:1.0 381:1.0 411:1.0 427:1.0 429:1.0 445:1.0 447:1.0 466:1.0 472:1.0 490:1.0 583:1.0 683:1.0 704:1.0 836:1.0 1056:1.0 1106:1.0 1129:1.0 1272:1.0 1310:1.0 1372:1.0 1521:1.0 1634:1.0 1661:1.0 1691:1.0
9.653287758853973E-4 78:1.0 181:1.0 190:1.0 241:1.0 243:1.0 277:1.0 313:1.0 351:1.0 426:1.0 445:1.0 449:1.0 464:1.0 489:1.0 692:1.0 1039:1.0 1139:1.0 1341:1.0 1417:1.0 1461:1.0 1521:1.0
