SVM-light Version V6.01
0 # kernel type
3 # kernel parameter -d
1.0 # kernel parameter -g
1.0 # kernel parameter -s
0.0 # kernel parameter -r
empty# kernel parameter -u
3354 # highest feature index
1388 # number of training documents
691 # number of support vectors plus 1
0.7664818993714402 # threshold b, each following line is a SV (starting with alpha*y)
-0.007745164875116596 3:1.0 5:1.0 49:1.0 380:1.0 404:1.0 411:1.0 447:1.0 591:1.0 626:1.0 705:1.0 767:1.0 785:1.0 863:1.0 1097:1.0 1162:1.0 1166:1.0 1170:1.0 1175:1.0 1185:1.0 1210:1.0 1324:1.0 1325:1.0 1358:1.0 1368:1.0 1398:1.0 1400:1.0 1402:1.0 1412:1.0 1414:1.0 1437:1.0 1481:1.0 1777:1.0 2261:1.0 2427:1.0 2493:1.0 2624:1.0 2699:1.0 2741:1.0 2783:1.0 2836:1.0 2982:1.0 2997:1.0 3089:1.0 3146:1.0 3221:1.0 3239:1.0 3255:1.0
-0.0207796546995606 16:1.0 740:1.0 977:1.0 1167:1.0 1315:1.0 1357:1.0 1400:1.0 2222:1.0 2668:1.0 3146:1.0
-0.034213513001103465 5:1.0 1062:1.0 1307:1.0 1308:1.0 1400:1.0 1427:1.0 1437:1.0 2353:1.0 2624:1.0 3146:1.0
-0.034213513001103465 3:1.0 115:1.0 182:1.0 624:1.0 847:1.0 884:1.0 1038:1.0 1048:1.0 1066:1.0 1155:1.0 1214:1.0 1325:1.0 1362:1.0 1420:1.0 1423:1.0 1430:1.0 1712:1.0 1762:1.0 1875:1.0 2490:1.0 2542:1.0 2674:1.0 2842:1.0 3032:1.0 3146:1.0 3221:1.0 3268:1.0 3303:1.0 3316:1.0
-0.016456889205680014 8:1.0 93:1.0 137:1.0 224:1.0 375:1.0 395:1.0 597:1.0 630:1.0 776:1.0 1003:1.0 1167:1.0 1174:1.0 1214:1.0 1241:1.0 1268:1.0 1283:1.0 1301:1.0 1318:1.0 1325:1.0 1338:1.0 1349:1.0 1358:1.0 1391:1.0 1393:1.0 1526:1.0 1543:1.0 1708:1.0 1829:1.0 1965:1.0 1979:1.0 2000:1.0 2115:1.0 2408:1.0 2472:1.0 2618:1.0 2649:1.0 2773:1.0 2843:1.0 3082:1.0 3146:1.0 3268:1.0 3318:1.0
0.034213513001103465 34:1.0 141:1.0 966:1.0 975:1.0 1160:1.0 1293:1.0 1400:1.0 1413:1.0 1422:1.0 2408:1.0 2411:1.0 2503:1.0 2843:1.0 3146:1.0
0.034213513001103465 3:1.0 463:1.0 476:1.0 551:1.0 562:1.0 665:1.0 1060:1.0 1081:1.0 1200:1.0 1236:1.0 1323:1.0 1326:1.0 1357:1.0 1371:1.0 1427:1.0 2654:1.0 2843:1.0 2966:1.0 3146:1.0
0.034213513001103465 83:1.0 160:1.0 520:1.0 964:1.0 1071:1.0 1294:1.0 1362:1.0 1391:1.0 1454:1.0 2405:1.0 2617:1.0 3146:1.0 3334:1.0
0.034213513001103465 2:1.0 3:1.0 27:1.0 1045:1.0 1180:1.0 1201:1.0 1334:1.0 1887:1.0 2741:1.0 2804:1.0 2940:1.0 3146:1.0
0.025938313350370338 5:1.0 6:1.0 30:1.0 44:1.0 128:1.0 131:1.0 200:1.0 308:1.0 383:1.0 489:1.0 494:1.0 598:1.0 783:1.0 903:1.0 911:1.0 936:1.0 966:1.0 1040:1.0 1071:1.0 1108:1.0 1156:1.0 1160:1.0 1166:1.0 1174:1.0 1207:1.0 1250:1.0 1261:1.0 1314:1.0 1357:1.0 1367:1.0 1376:1.0 1393:1.0 1400:1.0 1451:1.0 1682:1.0 1831:1.0 1967:1.0 1992:1.0 2308:1.0 2337:1.0 2410:1.0 2472:1.0 2508:1.0 2615:1.0 2649:1.0 2764:1.0 2866:1.0 2997:1.0 3035:1.0 3098:1.0 3109:1.0 3146:1.0 3164:1.0 3262:1.0 3343:1.0 3354:1.0
-0.015414201986040363 32:1.0 218:1.0 282:1.0 471:1.0 641:1.0 760:1.0 784:1.0 847:1.0 950:1.0 1109:1.0 1118:1.0 1135:1.0 1155:1.0 1175:1.0 1207:1.0 1214:1.0 1230:1.0 1282:1.0 1313:1.0 1325:1.0 1341:1.0 1356:1.0 1400:1.0 1745:1.0 1769:1.0 1777:1.0 1902:1.0 1917:1.0 2124:1.0 2144:1.0 2249:1.0 2370:1.0 2401:1.0 2408:1.0 2539:1.0 2649:1.0 2773:1.0 2941:1.0 3146:1.0 3160:1.0 3169:1.0 3192:1.0 3221:1.0 3222:1.0
-0.024168508276095048 596:1.0 872:1.0 975:1.0 1071:1.0 1101:1.0 1125:1.0 1200:1.0 1247:1.0 1293:1.0 1357:1.0 1370:1.0 1413:1.0 2142:1.0 2408:1.0 2430:1.0 2503:1.0 2571:1.0 2805:1.0 2935:1.0 2966:1.0 3146:1.0
-0.013552020026091426 58:1.0 422:1.0 693:1.0 705:1.0 729:1.0 945:1.0 959:1.0 1019:1.0 1223:1.0 1315:1.0 1323:1.0 1324:1.0 1358:1.0 1394:1.0 1427:1.0 1444:1.0 1777:1.0 2124:1.0 2373:1.0 2944:1.0 3112:1.0 3146:1.0
-0.026679766405220733 137:1.0 224:1.0 361:1.0 462:1.0 621:1.0 670:1.0 695:1.0 753:1.0 776:1.0 833:1.0 1040:1.0 1109:1.0 1148:1.0 1174:1.0 1214:1.0 1230:1.0 1283:1.0 1312:1.0 1322:1.0 1325:1.0 1421:1.0 1560:1.0 1581:1.0 1710:1.0 1772:1.0 2073:1.0 2187:1.0 2348:1.0 2570:1.0 2748:1.0 2943:1.0 2997:1.0 3146:1.0 3191:1.0 3259:1.0 3284:1.0 3316:1.0 3343:1.0
-0.009265031346681898 489:1.0 658:1.0 770:1.0 822:1.0 966:1.0 1060:1.0 1081:1.0 1160:1.0 1236:1.0 1302:1.0 1314:1.0 1357:1.0 1400:1.0 1810:1.0 2472:1.0 2888:1.0 2954:1.0 2966:1.0 3068:1.0 3146:1.0
0.009438724835733173 5:1.0 6:1.0 10:1.0 93:1.0 137:1.0 138:1.0 341:1.0 395:1.0 471:1.0 509:1.0 630:1.0 641:1.0 747:1.0 776:1.0 794:1.0 832:1.0 847:1.0 854:1.0 898:1.0 947:1.0 996:1.0 1062:1.0 1090:1.0 1109:1.0 1155:1.0 1157:1.0 1167:1.0 1170:1.0 1174:1.0 1214:1.0 1258:1.0 1271:1.0 1313:1.0 1325:1.0 1343:1.0 1358:1.0 1384:1.0 1385:1.0 1393:1.0 1473:1.0 1526:1.0 1541:1.0 1596:1.0 1597:1.0 1708:1.0 1769:1.0 1875:1.0 1941:1.0 1991:1.0 2031:1.0 2038:1.0 2092:1.0 2115:1.0 2196:1.0 2267:1.0 2276:1.0 2292:1.0 2337:1.0 2405:1.0 2472:1.0 2550:1.0 2649:1.0 2783:1.0 2898:1.0 2927:1.0 3143:1.0 3146:1.0 3221:1.0 3259:1.0 3268:1.0 3278:1.0 3284:1.0 3315:1.0 3316:1.0
0.034213513001103465 53:1.0 73:1.0 137:1.0 182:1.0 185:1.0 248:1.0 273:1.0 310:1.0 379:1.0 405:1.0 435:1.0 542:1.0 584:1.0 632:1.0 675:1.0 702:1.0 832:1.0 836:1.0 847:1.0 853:1.0 932:1.0 949:1.0 1054:1.0 1066:1.0 1090:1.0 1091:1.0 1111:1.0 1117:1.0 1125:1.0 1148:1.0 1155:1.0 1157:1.0 1173:1.0 1174:1.0 1191:1.0 1196:1.0 1214:1.0 1215:1.0 1226:1.0 1241:1.0 1283:1.0 1310:1.0 1315:1.0 1325:1.0 1327:1.0 1346:1.0 1358:1.0 1381:1.0 1384:1.0 1392:1.0 1423:1.0 1429:1.0 1455:1.0 1496:1.0 1772:1.0 1875:1.0 2138:1.0 2328:1.0 2390:1.0 2408:1.0 2449:1.0 2472:1.0 2668:1.0 2783:1.0 2805:1.0 2823:1.0 2924:1.0 2982:1.0 3042:1.0 3146:1.0 3160:1.0 3173:1.0 3197:1.0 3221:1.0 3236:1.0 3251:1.0 3296:1.0 3316:1.0
0.003359317016180997 3:1.0 93:1.0 122:1.0 123:1.0 156:1.0 211:1.0 233:1.0 261:1.0 265:1.0 269:1.0 351:1.0 358:1.0 411:1.0 488:1.0 538:1.0 611:1.0 659:1.0 672:1.0 721:1.0 758:1.0 797:1.0 801:1.0 847:1.0 913:1.0 939:1.0 978:1.0 1013:1.0 1023:1.0 1046:1.0 1075:1.0 1077:1.0 1108:1.0 1109:1.0 1148:1.0 1155:1.0 1157:1.0 1167:1.0 1185:1.0 1203:1.0 1214:1.0 1261:1.0 1287:1.0 1302:1.0 1305:1.0 1316:1.0 1325:1.0 1358:1.0 1372:1.0 1381:1.0 1393:1.0 1396:1.0 1400:1.0 1402:1.0 1412:1.0 1419:1.0 1422:1.0 1444:1.0 1649:1.0 1707:1.0 1791:1.0 1862:1.0 1875:1.0 2072:1.0 2115:1.0 2169:1.0 2193:1.0 2254:1.0 2269:1.0 2281:1.0 2364:1.0 2401:1.0 2414:1.0 2461:1.0 2472:1.0 2481:1.0 2522:1.0 2540:1.0 2550:1.0 2649:1.0 2662:1.0 2781:1.0 2805:1.0 2866:1.0 2872:1.0 2904:1.0 2966:1.0 3116:1.0 3123:1.0 3143:1.0 3146:1.0 3179:1.0 3184:1.0 3204:1.0 3221:1.0 3268:1.0 3284:1.0 3295:1.0 3316:1.0 3322:1.0
0.034213513001103465 3:1.0 93:1.0 150:1.0 161:1.0 183:1.0 246:1.0 249:1.0 270:1.0 317:1.0 333:1.0 351:1.0 370:1.0 437:1.0 442:1.0 508:1.0 509:1.0 700:1.0 749:1.0 757:1.0 769:1.0 870:1.0 875:1.0 933:1.0 939:1.0 1019:1.0 1053:1.0 1054:1.0 1066:1.0 1072:1.0 1104:1.0 1109:1.0 1127:1.0 1140:1.0 1145:1.0 1148:1.0 1157:1.0 1223:1.0 1264:1.0 1315:1.0 1317:1.0 1319:1.0 1337:1.0 1358:1.0 1361:1.0 1381:1.0 1391:1.0 1392:1.0 1393:1.0 1396:1.0 1402:1.0 1450:1.0 1901:1.0 2020:1.0 2177:1.0 2186:1.0 2194:1.0 2372:1.0 2408:1.0 2422:1.0 2461:1.0 2472:1.0 2490:1.0 2504:1.0 2537:1.0 2619:1.0 2689:1.0 2694:1.0 2732:1.0 2741:1.0 2773:1.0 2900:1.0 2918:1.0 2932:1.0 3076:1.0 3077:1.0 3146:1.0 3172:1.0 3221:1.0 3272:1.0 3282:1.0 3302:1.0
-0.01604573708900518 3:1.0 48:1.0 65:1.0 76:1.0 102:1.0 123:1.0 337:1.0 351:1.0 530:1.0 975:1.0 1064:1.0 1071:1.0 1083:1.0 1102:1.0 1109:1.0 1114:1.0 1116:1.0 1141:1.0 1143:1.0 1222:1.0 1293:1.0 1358:1.0 1362:1.0 1400:1.0 1413:1.0 1451:1.0 1819:1.0 2021:1.0 2085:1.0 2401:1.0 2408:1.0 2481:1.0 2784:1.0 2801:1.0 2842:1.0 2969:1.0 2976:1.0 3057:1.0 3146:1.0 3252:1.0 3268:1.0 3354:1.0
-0.008055029266143583 5:1.0 109:1.0 224:1.0 249:1.0 272:1.0 329:1.0 351:1.0 388:1.0 401:1.0 509:1.0 542:1.0 567:1.0 598:1.0 702:1.0 710:1.0 911:1.0 939:1.0 958:1.0 1023:1.0 1071:1.0 1078:1.0 1086:1.0 1091:1.0 1096:1.0 1109:1.0 1125:1.0 1139:1.0 1148:1.0 1157:1.0 1214:1.0 1250:1.0 1270:1.0 1273:1.0 1283:1.0 1317:1.0 1325:1.0 1358:1.0 1361:1.0 1367:1.0 1375:1.0 1381:1.0 1389:1.0 1392:1.0 1400:1.0 1406:1.0 1428:1.0 1676:1.0 1772:1.0 1792:1.0 1825:1.0 1892:1.0 1901:1.0 2020:1.0 2161:1.0 2206:1.0 2330:1.0 2360:1.0 2365:1.0 2408:1.0 2476:1.0 2522:1.0 2523:1.0 2624:1.0 2628:1.0 2641:1.0 2840:1.0 2866:1.0 2903:1.0 2924:1.0 2932:1.0 2997:1.0 3046:1.0 3143:1.0 3146:1.0 3214:1.0 3236:1.0 3238:1.0 3278:1.0 3316:1.0 3343:1.0
-0.020710566189010272 1:1.0 3:1.0 53:1.0 66:1.0 93:1.0 134:1.0 375:1.0 379:1.0 415:1.0 424:1.0 480:1.0 509:1.0 543:1.0 575:1.0 588:1.0 592:1.0 618:1.0 659:1.0 753:1.0 870:1.0 921:1.0 978:1.0 982:1.0 1002:1.0 1013:1.0 1033:1.0 1040:1.0 1046:1.0 1062:1.0 1072:1.0 1075:1.0 1091:1.0 1107:1.0 1133:1.0 1157:1.0 1160:1.0 1230:1.0 1240:1.0 1241:1.0 1260:1.0 1268:1.0 1287:1.0 1305:1.0 1318:1.0 1326:1.0 1358:1.0 1371:1.0 1391:1.0 1393:1.0 1418:1.0 1419:1.0 1531:1.0 1575:1.0 1690:1.0 1846:1.0 1881:1.0 2015:1.0 2068:1.0 2177:1.0 2321:1.0 2408:1.0 2410:1.0 2450:1.0 2461:1.0 2479:1.0 2488:1.0 2550:1.0 2587:1.0 2609:1.0 2636:1.0 2649:1.0 2654:1.0 2668:1.0 2674:1.0 2706:1.0 2833:1.0 2929:1.0 2997:1.0 3146:1.0 3160:1.0 3175:1.0 3218:1.0 3221:1.0 3255:1.0 3286:1.0 3292:1.0
-0.010456076235685348 1:1.0 3:1.0 54:1.0 123:1.0 138:1.0 268:1.0 480:1.0 794:1.0 1062:1.0 1214:1.0 1230:1.0 1271:1.0 1325:1.0 1339:1.0 1358:1.0 1393:1.0 1400:1.0 1439:1.0 1443:1.0 1857:1.0 1902:1.0 1913:1.0 2347:1.0 2370:1.0 2372:1.0 2393:1.0 2401:1.0 2472:1.0 2508:1.0 2649:1.0 2674:1.0 2946:1.0 2995:1.0 3146:1.0
-0.013908460502707162 5:1.0 94:1.0 110:1.0 137:1.0 227:1.0 259:1.0 310:1.0 342:1.0 366:1.0 399:1.0 460:1.0 490:1.0 542:1.0 556:1.0 627:1.0 688:1.0 692:1.0 704:1.0 773:1.0 776:1.0 809:1.0 814:1.0 852:1.0 854:1.0 911:1.0 991:1.0 996:1.0 1047:1.0 1050:1.0 1071:1.0 1090:1.0 1091:1.0 1100:1.0 1152:1.0 1154:1.0 1170:1.0 1174:1.0 1196:1.0 1207:1.0 1214:1.0 1252:1.0 1283:1.0 1325:1.0 1343:1.0 1358:1.0 1367:1.0 1381:1.0 1384:1.0 1710:1.0 1713:1.0 1722:1.0 1772:1.0 1851:1.0 1882:1.0 1894:1.0 2030:1.0 2315:1.0 2408:1.0 2472:1.0 2532:1.0 2649:1.0 2749:1.0 2808:1.0 2827:1.0 2898:1.0 3103:1.0 3138:1.0 3146:1.0 3178:1.0 3243:1.0 3259:1.0 3262:1.0 3316:1.0 3342:1.0 3354:1.0
-0.034213513001103465 151:1.0 1357:1.0 1400:1.0 1777:1.0 2024:1.0 3101:1.0 3146:1.0
0.034213513001103465 26:1.0 224:1.0 230:1.0 253:1.0 470:1.0 554:1.0 624:1.0 767:1.0 868:1.0 914:1.0 1040:1.0 1048:1.0 1054:1.0 1083:1.0 1097:1.0 1159:1.0 1210:1.0 1214:1.0 1283:1.0 1294:1.0 1325:1.0 1330:1.0 1420:1.0 1454:1.0 1590:1.0 1941:1.0 1979:1.0 2398:1.0 2662:1.0 2781:1.0 2837:1.0 2987:1.0 2997:1.0 3057:1.0 3084:1.0 3146:1.0 3259:1.0 3318:1.0
0.034213513001103465 2:1.0 3:1.0 16:1.0 245:1.0 416:1.0 646:1.0 684:1.0 764:1.0 796:1.0 864:1.0 1014:1.0 1027:1.0 1040:1.0 1087:1.0 1160:1.0 1167:1.0 1182:1.0 1244:1.0 1315:1.0 1391:1.0 2236:1.0 2247:1.0 2374:1.0 2415:1.0 2471:1.0 2862:1.0 2997:1.0 3146:1.0 3303:1.0
0.034213513001103465 16:1.0 133:1.0 145:1.0 277:1.0 309:1.0 416:1.0 430:1.0 431:1.0 489:1.0 545:1.0 684:1.0 764:1.0 771:1.0 889:1.0 911:1.0 913:1.0 1014:1.0 1023:1.0 1071:1.0 1109:1.0 1160:1.0 1167:1.0 1170:1.0 1230:1.0 1261:1.0 1283:1.0 1314:1.0 1315:1.0 1325:1.0 1347:1.0 1367:1.0 1391:1.0 1726:1.0 1733:1.0 1801:1.0 1979:1.0 1980:1.0 2364:1.0 2461:1.0 2618:1.0 2649:1.0 2659:1.0 2717:1.0 2773:1.0 2798:1.0 2929:1.0 2954:1.0 3145:1.0 3146:1.0 3255:1.0 3259:1.0
0.034213513001103465 270:1.0 705:1.0 725:1.0 822:1.0 858:1.0 885:1.0 1066:1.0 1200:1.0 1302:1.0 1314:1.0 1324:1.0 1358:1.0 1455:1.0 1707:1.0 2202:1.0 2461:1.0 2966:1.0 3086:1.0 3123:1.0 3146:1.0 3311:1.0
0.034213513001103465 192:1.0 467:1.0 530:1.0 644:1.0 799:1.0 821:1.0 861:1.0 1064:1.0 1066:1.0 1083:1.0 1132:1.0 1146:1.0 1160:1.0 1241:1.0 1308:1.0 1350:1.0 1362:1.0 1437:1.0 1444:1.0 1455:1.0 1712:1.0 2356:1.0 2364:1.0 2410:1.0 2569:1.0 2966:1.0 3014:1.0 3146:1.0 3303:1.0
-0.006629877807036428 48:1.0 351:1.0 439:1.0 491:1.0 508:1.0 630:1.0 676:1.0 705:1.0 719:1.0 725:1.0 822:1.0 913:1.0 959:1.0 1066:1.0 1109:1.0 1114:1.0 1167:1.0 1302:1.0 1314:1.0 1319:1.0 1323:1.0 1324:1.0 1337:1.0 1358:1.0 1394:1.0 1427:1.0 1444:1.0 1455:1.0 1577:1.0 1707:1.0 1794:1.0 2067:1.0 2186:1.0 2202:1.0 2461:1.0 2588:1.0 2637:1.0 2741:1.0 2773:1.0 2966:1.0 3072:1.0 3076:1.0 3086:1.0 3112:1.0 3146:1.0 3187:1.0 3215:1.0
0.014629319222929727 3:1.0 5:1.0 48:1.0 137:1.0 191:1.0 291:1.0 306:1.0 355:1.0 457:1.0 460:1.0 473:1.0 490:1.0 499:1.0 510:1.0 545:1.0 560:1.0 574:1.0 581:1.0 598:1.0 601:1.0 620:1.0 624:1.0 704:1.0 748:1.0 783:1.0 796:1.0 911:1.0 976:1.0 991:1.0 1016:1.0 1027:1.0 1040:1.0 1047:1.0 1048:1.0 1057:1.0 1070:1.0 1071:1.0 1078:1.0 1091:1.0 1103:1.0 1109:1.0 1114:1.0 1123:1.0 1152:1.0 1167:1.0 1170:1.0 1174:1.0 1184:1.0 1188:1.0 1195:1.0 1214:1.0 1244:1.0 1250:1.0 1261:1.0 1273:1.0 1283:1.0 1292:1.0 1314:1.0 1315:1.0 1325:1.0 1343:1.0 1367:1.0 1375:1.0 1414:1.0 1420:1.0 1443:1.0 1606:1.0 1772:1.0 1825:1.0 1841:1.0 1851:1.0 1879:1.0 1898:1.0 1929:1.0 1940:1.0 1941:1.0 2022:1.0 2147:1.0 2163:1.0 2398:1.0 2415:1.0 2461:1.0 2512:1.0 2546:1.0 2615:1.0 2649:1.0 2674:1.0 2676:1.0 2705:1.0 2743:1.0 2754:1.0 2783:1.0 2898:1.0 2904:1.0 2913:1.0 2919:1.0 2946:1.0 2966:1.0 2997:1.0 3032:1.0 3042:1.0 3128:1.0 3137:1.0 3146:1.0 3243:1.0 3259:1.0 3261:1.0 3278:1.0 3284:1.0 3290:1.0 3316:1.0
0.023367462786254133 12:1.0 40:1.0 627:1.0 805:1.0 867:1.0 1019:1.0 1062:1.0 1260:1.0 1307:1.0 1315:1.0 1367:1.0 1381:1.0 1444:1.0 1772:1.0 2209:1.0 2540:1.0 2705:1.0 3057:1.0 3068:1.0 3146:1.0 3315:1.0
-0.003299079059237305 3:1.0 16:1.0 30:1.0 90:1.0 102:1.0 131:1.0 225:1.0 255:1.0 326:1.0 362:1.0 416:1.0 489:1.0 503:1.0 554:1.0 583:1.0 718:1.0 876:1.0 962:1.0 1023:1.0 1039:1.0 1040:1.0 1054:1.0 1066:1.0 1068:1.0 1083:1.0 1090:1.0 1097:1.0 1160:1.0 1166:1.0 1167:1.0 1175:1.0 1179:1.0 1261:1.0 1283:1.0 1314:1.0 1315:1.0 1384:1.0 1393:1.0 1398:1.0 1451:1.0 1455:1.0 1462:1.0 1501:1.0 1522:1.0 1540:1.0 1546:1.0 1604:1.0 1607:1.0 1614:1.0 1753:1.0 1776:1.0 1855:1.0 1868:1.0 1979:1.0 1996:1.0 2017:1.0 2106:1.0 2129:1.0 2152:1.0 2203:1.0 2334:1.0 2336:1.0 2374:1.0 2472:1.0 2493:1.0 2494:1.0 2582:1.0 2662:1.0 2773:1.0 2783:1.0 2946:1.0 2997:1.0 3058:1.0 3061:1.0 3066:1.0 3146:1.0 3163:1.0 3179:1.0 3255:1.0 3351:1.0
0.034213513001103465 2:1.0 3:1.0 1087:1.0 1420:1.0 2039:1.0 3146:1.0 3315:1.0
-0.007588962869927238 108:1.0 543:1.0 587:1.0 924:1.0 971:1.0 1033:1.0 1160:1.0 1176:1.0 1203:1.0 1236:1.0 1357:1.0 1391:1.0 1441:1.0 1875:1.0 2140:1.0 2502:1.0 3084:1.0 3146:1.0 3221:1.0
-0.025797805878695634 3:1.0 5:1.0 25:1.0 40:1.0 51:1.0 105:1.0 142:1.0 193:1.0 312:1.0 428:1.0 487:1.0 869:1.0 913:1.0 1048:1.0 1062:1.0 1071:1.0 1100:1.0 1109:1.0 1111:1.0 1123:1.0 1138:1.0 1167:1.0 1171:1.0 1201:1.0 1202:1.0 1207:1.0 1216:1.0 1298:1.0 1307:1.0 1315:1.0 1371:1.0 1381:1.0 1393:1.0 1413:1.0 1426:1.0 1439:1.0 1447:1.0 2049:1.0 2245:1.0 2408:1.0 2461:1.0 2472:1.0 2486:1.0 2508:1.0 2546:1.0 2633:1.0 2681:1.0 2724:1.0 2812:1.0 2898:1.0 2947:1.0 2999:1.0 3076:1.0 3093:1.0 3117:1.0 3134:1.0 3146:1.0 3192:1.0 3236:1.0 3341:1.0
0.034213513001103465 51:1.0 93:1.0 114:1.0 228:1.0 302:1.0 403:1.0 620:1.0 623:1.0 640:1.0 759:1.0 787:1.0 854:1.0 1070:1.0 1071:1.0 1092:1.0 1135:1.0 1156:1.0 1162:1.0 1170:1.0 1175:1.0 1214:1.0 1231:1.0 1264:1.0 1325:1.0 1358:1.0 1391:1.0 1393:1.0 1398:1.0 1414:1.0 1441:1.0 1712:1.0 1913:1.0 2126:1.0 2468:1.0 2472:1.0 2508:1.0 2523:1.0 2649:1.0 2700:1.0 2836:1.0 2913:1.0 2969:1.0 2997:1.0 3072:1.0 3146:1.0 3221:1.0 3278:1.0 3303:1.0
0.02844174494973234 3:1.0 16:1.0 35:1.0 56:1.0 92:1.0 123:1.0 156:1.0 218:1.0 248:1.0 277:1.0 351:1.0 400:1.0 418:1.0 428:1.0 489:1.0 524:1.0 528:1.0 547:1.0 556:1.0 630:1.0 689:1.0 701:1.0 736:1.0 752:1.0 764:1.0 809:1.0 826:1.0 839:1.0 913:1.0 927:1.0 943:1.0 1003:1.0 1014:1.0 1031:1.0 1033:1.0 1071:1.0 1072:1.0 1091:1.0 1100:1.0 1101:1.0 1109:1.0 1111:1.0 1118:1.0 1122:1.0 1135:1.0 1151:1.0 1157:1.0 1160:1.0 1167:1.0 1196:1.0 1207:1.0 1253:1.0 1262:1.0 1264:1.0 1268:1.0 1310:1.0 1314:1.0 1315:1.0 1325:1.0 1340:1.0 1358:1.0 1400:1.0 1405:1.0 1412:1.0 1426:1.0 1777:1.0 1792:1.0 1845:1.0 1862:1.0 1944:1.0 2186:1.0 2194:1.0 2273:1.0 2290:1.0 2387:1.0 2408:1.0 2461:1.0 2472:1.0 2504:1.0 2516:1.0 2540:1.0 2578:1.0 2595:1.0 2617:1.0 2633:1.0 2668:1.0 2712:1.0 2773:1.0 2812:1.0 2850:1.0 2861:1.0 2862:1.0 2932:1.0 2947:1.0 2970:1.0 3028:1.0 3036:1.0 3061:1.0 3074:1.0 3076:1.0 3144:1.0 3146:1.0 3196:1.0 3263:1.0 3278:1.0 3336:1.0 3343:1.0
0.034213513001103465 28:1.0 94:1.0 205:1.0 276:1.0 277:1.0 310:1.0 311:1.0 489:1.0 503:1.0 631:1.0 692:1.0 911:1.0 958:1.0 1054:1.0 1071:1.0 1109:1.0 1125:1.0 1152:1.0 1160:1.0 1175:1.0 1196:1.0 1240:1.0 1252:1.0 1277:1.0 1283:1.0 1314:1.0 1325:1.0 1367:1.0 1398:1.0 1406:1.0 1420:1.0 1792:1.0 2161:1.0 2222:1.0 2330:1.0 2408:1.0 2472:1.0 2473:1.0 2480:1.0 2490:1.0 2636:1.0 2700:1.0 2798:1.0 2853:1.0 2960:1.0 3136:1.0 3146:1.0 3158:1.0 3278:1.0 3324:1.0 3343:1.0
0.026567623025988273 2:1.0 3:1.0 8:1.0 155:1.0 194:1.0 246:1.0 267:1.0 271:1.0 375:1.0 405:1.0 484:1.0 592:1.0 597:1.0 766:1.0 949:1.0 1014:1.0 1023:1.0 1046:1.0 1091:1.0 1104:1.0 1107:1.0 1126:1.0 1127:1.0 1148:1.0 1173:1.0 1174:1.0 1224:1.0 1241:1.0 1276:1.0 1315:1.0 1318:1.0 1331:1.0 1349:1.0 1358:1.0 1382:1.0 1391:1.0 1392:1.0 1396:1.0 1729:1.0 1819:1.0 1846:1.0 2094:1.0 2134:1.0 2213:1.0 2365:1.0 2408:1.0 2540:1.0 2674:1.0 2731:1.0 2740:1.0 2765:1.0 2815:1.0 2918:1.0 3044:1.0 3146:1.0 3315:1.0 3348:1.0
0.034213513001103465 5:1.0 224:1.0 543:1.0 575:1.0 588:1.0 996:1.0 1033:1.0 1160:1.0 1162:1.0 1214:1.0 1268:1.0 1283:1.0 1325:1.0 1343:1.0 1391:1.0 1435:1.0 1697:1.0 1963:1.0 1979:1.0 2665:1.0 2898:1.0 2927:1.0 3146:1.0 3221:1.0 3285:1.0 3318:1.0
-0.034213513001103465 2:1.0 3:1.0 5:1.0 6:1.0 11:1.0 31:1.0 53:1.0 271:1.0 430:1.0 471:1.0 701:1.0 709:1.0 736:1.0 776:1.0 830:1.0 833:1.0 841:1.0 1045:1.0 1091:1.0 1109:1.0 1122:1.0 1126:1.0 1160:1.0 1162:1.0 1174:1.0 1179:1.0 1197:1.0 1230:1.0 1241:1.0 1313:1.0 1325:1.0 1332:1.0 1385:1.0 1400:1.0 1505:1.0 1572:1.0 1589:1.0 1692:1.0 1945:1.0 1963:1.0 2031:1.0 2080:1.0 2094:1.0 2337:1.0 2410:1.0 2472:1.0 2508:1.0 2617:1.0 2649:1.0 2681:1.0 2754:1.0 2805:1.0 2853:1.0 2898:1.0 3060:1.0 3146:1.0 3221:1.0 3315:1.0
0.034213513001103465 2:1.0 3:1.0 534:1.0 768:1.0 1053:1.0 1087:1.0 1157:1.0 1289:1.0 1400:1.0 1445:1.0 2039:1.0 2493:1.0 2968:1.0 3123:1.0 3146:1.0 3315:1.0
-0.02661308078897019 5:1.0 160:1.0 545:1.0 550:1.0 598:1.0 623:1.0 674:1.0 911:1.0 1070:1.0 1071:1.0 1250:1.0 1283:1.0 1294:1.0 1367:1.0 1400:1.0 1772:1.0 2122:1.0 2508:1.0 2887:1.0 2898:1.0 2969:1.0 3123:1.0 3146:1.0 3316:1.0
-0.0032608848539129867 160:1.0 165:1.0 260:1.0 333:1.0 623:1.0 688:1.0 854:1.0 914:1.0 950:1.0 964:1.0 1054:1.0 1062:1.0 1070:1.0 1071:1.0 1170:1.0 1200:1.0 1214:1.0 1258:1.0 1294:1.0 1325:1.0 1356:1.0 1381:1.0 1454:1.0 2177:1.0 2276:1.0 2535:1.0 2707:1.0 2784:1.0 2943:1.0 2969:1.0 3109:1.0 3146:1.0 3253:1.0 3315:1.0 3343:1.0
-0.022662593025571595 267:1.0 405:1.0 618:1.0 637:1.0 837:1.0 1014:1.0 1040:1.0 1133:1.0 1173:1.0 1264:1.0 1315:1.0 1328:1.0 1415:1.0 2099:1.0 2373:1.0 2426:1.0 2934:1.0 2997:1.0 3146:1.0 3278:1.0 3285:1.0
0.014963281011053665 3:1.0 5:1.0 6:1.0 16:1.0 83:1.0 102:1.0 109:1.0 131:1.0 220:1.0 223:1.0 244:1.0 269:1.0 272:1.0 351:1.0 376:1.0 494:1.0 504:1.0 542:1.0 630:1.0 676:1.0 753:1.0 763:1.0 776:1.0 804:1.0 840:1.0 974:1.0 1019:1.0 1040:1.0 1071:1.0 1083:1.0 1091:1.0 1109:1.0 1166:1.0 1167:1.0 1174:1.0 1230:1.0 1244:1.0 1250:1.0 1261:1.0 1262:1.0 1270:1.0 1273:1.0 1291:1.0 1315:1.0 1321:1.0 1325:1.0 1358:1.0 1362:1.0 1386:1.0 1391:1.0 1394:1.0 1427:1.0 1451:1.0 1460:1.0 1557:1.0 1656:1.0 1662:1.0 1696:1.0 1727:1.0 1825:1.0 1908:1.0 1939:1.0 2014:1.0 2093:1.0 2161:1.0 2253:1.0 2307:1.0 2337:1.0 2343:1.0 2408:1.0 2461:1.0 2481:1.0 2508:1.0 2649:1.0 2657:1.0 2659:1.0 2668:1.0 2744:1.0 2768:1.0 2773:1.0 2783:1.0 2844:1.0 2866:1.0 2898:1.0 2995:1.0 2997:1.0 3036:1.0 3146:1.0 3212:1.0 3262:1.0 3284:1.0 3290:1.0 3299:1.0 3316:1.0
0.034213513001103465 1:1.0 35:1.0 295:1.0 341:1.0 509:1.0 523:1.0 771:1.0 786:1.0 947:1.0 1023:1.0 1062:1.0 1100:1.0 1157:1.0 1167:1.0 1170:1.0 1207:1.0 1244:1.0 1340:1.0 1347:1.0 1358:1.0 1400:1.0 1413:1.0 2245:1.0 2408:1.0 2472:1.0 2645:1.0 2668:1.0 2683:1.0 2809:1.0 3146:1.0 3212:1.0 3351:1.0 3352:1.0 3354:1.0
0.034213513001103465 1:1.0 123:1.0 133:1.0 150:1.0 781:1.0 1062:1.0 1140:1.0 1221:1.0 1261:1.0 1325:1.0 1358:1.0 1400:1.0 1464:1.0 1945:1.0 2000:1.0 2051:1.0 2472:1.0 2649:1.0 2666:1.0 3146:1.0 3261:1.0 3268:1.0
0.034213513001103465 3:1.0 51:1.0 65:1.0 93:1.0 224:1.0 337:1.0 462:1.0 620:1.0 623:1.0 630:1.0 913:1.0 1070:1.0 1071:1.0 1109:1.0 1110:1.0 1116:1.0 1143:1.0 1167:1.0 1214:1.0 1260:1.0 1283:1.0 1312:1.0 1325:1.0 1358:1.0 1393:1.0 1451:1.0 1494:1.0 1772:1.0 1905:1.0 1958:1.0 2149:1.0 2163:1.0 2281:1.0 2422:1.0 2472:1.0 2508:1.0 2781:1.0 2783:1.0 2966:1.0 2969:1.0 3146:1.0 3212:1.0 3259:1.0 3263:1.0 3278:1.0 3284:1.0 3316:1.0
0.0139345957905593 5:1.0 208:1.0 350:1.0 351:1.0 478:1.0 504:1.0 659:1.0 747:1.0 802:1.0 921:1.0 926:1.0 940:1.0 1013:1.0 1016:1.0 1062:1.0 1109:1.0 1174:1.0 1176:1.0 1200:1.0 1258:1.0 1260:1.0 1262:1.0 1287:1.0 1292:1.0 1300:1.0 1325:1.0 1358:1.0 1418:1.0 1419:1.0 1466:1.0 1777:1.0 1878:1.0 1941:1.0 2031:1.0 2098:1.0 2472:1.0 2596:1.0 2649:1.0 2668:1.0 2733:1.0 2741:1.0 2898:1.0 2918:1.0 3146:1.0 3221:1.0 3259:1.0 3284:1.0
-0.009861592171372906 277:1.0 288:1.0 341:1.0 351:1.0 357:1.0 416:1.0 489:1.0 504:1.0 509:1.0 527:1.0 547:1.0 630:1.0 672:1.0 686:1.0 913:1.0 943:1.0 955:1.0 1001:1.0 1005:1.0 1068:1.0 1101:1.0 1104:1.0 1105:1.0 1109:1.0 1157:1.0 1160:1.0 1167:1.0 1201:1.0 1262:1.0 1263:1.0 1314:1.0 1327:1.0 1357:1.0 1358:1.0 1391:1.0 1396:1.0 1426:1.0 2101:1.0 2153:1.0 2186:1.0 2220:1.0 2229:1.0 2239:1.0 2290:1.0 2429:1.0 2448:1.0 2461:1.0 2560:1.0 2668:1.0 2773:1.0 2843:1.0 2852:1.0 2855:1.0 2869:1.0 2893:1.0 2966:1.0 2968:1.0 2984:1.0 3032:1.0 3137:1.0 3144:1.0 3146:1.0 3189:1.0 3277:1.0 3278:1.0 3284:1.0
-0.008640523340200993 1:1.0 173:1.0 295:1.0 584:1.0 630:1.0 748:1.0 771:1.0 781:1.0 786:1.0 932:1.0 947:1.0 1016:1.0 1023:1.0 1062:1.0 1117:1.0 1167:1.0 1170:1.0 1261:1.0 1292:1.0 1327:1.0 1347:1.0 1358:1.0 1400:1.0 1509:1.0 1602:1.0 1918:1.0 1955:1.0 1988:1.0 2277:1.0 2364:1.0 2461:1.0 2609:1.0 2649:1.0 2668:1.0 2897:1.0 3146:1.0 3201:1.0 3278:1.0 3315:1.0
-0.034213513001103465 314:1.0 1006:1.0 1264:1.0 1267:1.0 1268:1.0 1391:1.0 1407:1.0 1457:1.0 1772:1.0 2207:1.0 2396:1.0 2701:1.0 3146:1.0 3175:1.0
-0.034213513001103465 3:1.0 18:1.0 35:1.0 89:1.0 93:1.0 94:1.0 218:1.0 270:1.0 351:1.0 395:1.0 490:1.0 628:1.0 630:1.0 676:1.0 760:1.0 826:1.0 845:1.0 853:1.0 1048:1.0 1066:1.0 1071:1.0 1109:1.0 1118:1.0 1135:1.0 1152:1.0 1155:1.0 1167:1.0 1196:1.0 1252:1.0 1325:1.0 1334:1.0 1340:1.0 1358:1.0 1362:1.0 1393:1.0 1394:1.0 1431:1.0 1441:1.0 1771:1.0 1821:1.0 2020:1.0 2167:1.0 2221:1.0 2295:1.0 2401:1.0 2461:1.0 2472:1.0 2546:1.0 2668:1.0 2733:1.0 2768:1.0 2848:1.0 3009:1.0 3146:1.0 3221:1.0 3247:1.0 3293:1.0 3303:1.0 3324:1.0 3343:1.0
-0.03333508084252002 127:1.0 159:1.0 292:1.0 295:1.0 626:1.0 666:1.0 707:1.0 771:1.0 828:1.0 1013:1.0 1016:1.0 1023:1.0 1162:1.0 1170:1.0 1260:1.0 1282:1.0 1292:1.0 1347:1.0 1400:1.0 1402:1.0 1450:1.0 1754:1.0 1777:1.0 1875:1.0 2124:1.0 2140:1.0 2144:1.0 2164:1.0 2260:1.0 2297:1.0 2364:1.0 2468:1.0 2540:1.0 2553:1.0 2741:1.0 2783:1.0 3022:1.0 3146:1.0 3221:1.0 3284:1.0
0.034213513001103465 5:1.0 267:1.0 405:1.0 680:1.0 684:1.0 987:1.0 1014:1.0 1071:1.0 1156:1.0 1173:1.0 1175:1.0 1249:1.0 1273:1.0 1281:1.0 1290:1.0 1313:1.0 1315:1.0 1391:1.0 2178:1.0 2716:1.0 2749:1.0 2997:1.0 3060:1.0 3082:1.0 3146:1.0 3151:1.0 3192:1.0 3221:1.0 3248:1.0
0.0019148003548453323 2:1.0 3:1.0 5:1.0 90:1.0 168:1.0 181:1.0 475:1.0 516:1.0 1023:1.0 1066:1.0 1071:1.0 1087:1.0 1227:1.0 1242:1.0 1247:1.0 1260:1.0 1415:1.0 1837:1.0 2055:1.0 2364:1.0 2548:1.0 2624:1.0 2688:1.0 3146:1.0 3315:1.0
0.03391354573874679 288:1.0 477:1.0 489:1.0 547:1.0 599:1.0 822:1.0 831:1.0 966:1.0 1062:1.0 1068:1.0 1101:1.0 1160:1.0 1302:1.0 1307:1.0 1314:1.0 1400:1.0 1626:1.0 1707:1.0 1772:1.0 2209:1.0 2461:1.0 2515:1.0 2577:1.0 3075:1.0 3146:1.0 3315:1.0
0.034213513001103465 1:1.0 133:1.0 414:1.0 510:1.0 538:1.0 574:1.0 629:1.0 717:1.0 781:1.0 872:1.0 900:1.0 1040:1.0 1057:1.0 1062:1.0 1075:1.0 1175:1.0 1200:1.0 1214:1.0 1261:1.0 1293:1.0 1325:1.0 1368:1.0 1395:1.0 1402:1.0 1427:1.0 1805:1.0 2218:1.0 2219:1.0 2276:1.0 2410:1.0 2580:1.0 2646:1.0 2651:1.0 2997:1.0 3049:1.0 3074:1.0 3146:1.0 3221:1.0 3244:1.0 3268:1.0 3315:1.0
0.034213513001103465 106:1.0 232:1.0 319:1.0 482:1.0 509:1.0 545:1.0 598:1.0 829:1.0 911:1.0 932:1.0 1070:1.0 1071:1.0 1083:1.0 1090:1.0 1117:1.0 1125:1.0 1148:1.0 1157:1.0 1197:1.0 1250:1.0 1283:1.0 1332:1.0 1358:1.0 1367:1.0 1384:1.0 1421:1.0 1423:1.0 2157:1.0 2202:1.0 2461:1.0 2469:1.0 2771:1.0 2887:1.0 2918:1.0 2969:1.0 3060:1.0 3146:1.0 3178:1.0 3221:1.0 3343:1.0
-0.034213513001103465 2:1.0 12:1.0 168:1.0 240:1.0 308:1.0 510:1.0 516:1.0 531:1.0 598:1.0 721:1.0 783:1.0 911:1.0 1023:1.0 1040:1.0 1057:1.0 1071:1.0 1087:1.0 1108:1.0 1227:1.0 1247:1.0 1250:1.0 1260:1.0 1261:1.0 1367:1.0 1382:1.0 1391:1.0 1781:1.0 1903:1.0 1984:1.0 2198:1.0 2364:1.0 2548:1.0 2749:1.0 2783:1.0 2938:1.0 2997:1.0 3146:1.0 3212:1.0 3268:1.0 3331:1.0
-0.034213513001103465 83:1.0 319:1.0 739:1.0 804:1.0 1071:1.0 1148:1.0 1250:1.0 1334:1.0 1362:1.0 1421:1.0 2804:1.0 2844:1.0 2918:1.0 3146:1.0
0.004742630893754883 2:1.0 3:1.0 13:1.0 16:1.0 442:1.0 462:1.0 638:1.0 763:1.0 897:1.0 1019:1.0 1048:1.0 1087:1.0 1109:1.0 1164:1.0 1167:1.0 1223:1.0 1312:1.0 1315:1.0 1440:1.0 1517:1.0 1959:1.0 1966:1.0 2236:1.0 2419:1.0 2668:1.0 2686:1.0 2748:1.0 2768:1.0 3146:1.0 3284:1.0 3303:1.0
-0.004852046780393856 1:1.0 93:1.0 295:1.0 480:1.0 630:1.0 771:1.0 786:1.0 947:1.0 1023:1.0 1062:1.0 1167:1.0 1170:1.0 1347:1.0 1358:1.0 1393:1.0 1400:1.0 2364:1.0 2471:1.0 2556:1.0 2688:1.0 3036:1.0 3146:1.0
-0.008258883913907155 3:1.0 138:1.0 161:1.0 166:1.0 270:1.0 272:1.0 283:1.0 315:1.0 386:1.0 426:1.0 509:1.0 542:1.0 569:1.0 573:1.0 584:1.0 630:1.0 654:1.0 680:1.0 727:1.0 730:1.0 809:1.0 870:1.0 932:1.0 970:1.0 1032:1.0 1066:1.0 1072:1.0 1091:1.0 1117:1.0 1156:1.0 1157:1.0 1167:1.0 1199:1.0 1207:1.0 1226:1.0 1243:1.0 1246:1.0 1264:1.0 1271:1.0 1273:1.0 1327:1.0 1329:1.0 1358:1.0 1374:1.0 1391:1.0 1396:1.0 1404:1.0 1639:1.0 1777:1.0 1908:1.0 1931:1.0 1982:1.0 2024:1.0 2179:1.0 2372:1.0 2408:1.0 2461:1.0 2490:1.0 2556:1.0 2618:1.0 2654:1.0 2680:1.0 2773:1.0 2890:1.0 2939:1.0 2955:1.0 2997:1.0 3033:1.0 3146:1.0 3163:1.0 3176:1.0 3221:1.0 3268:1.0
0.009345042433570571 3:1.0 16:1.0 42:1.0 51:1.0 93:1.0 156:1.0 226:1.0 227:1.0 293:1.0 351:1.0 454:1.0 489:1.0 556:1.0 630:1.0 672:1.0 701:1.0 809:1.0 911:1.0 977:1.0 1071:1.0 1091:1.0 1100:1.0 1109:1.0 1152:1.0 1160:1.0 1167:1.0 1207:1.0 1218:1.0 1234:1.0 1246:1.0 1302:1.0 1314:1.0 1315:1.0 1318:1.0 1357:1.0 1358:1.0 1367:1.0 1393:1.0 1396:1.0 1400:1.0 1412:1.0 1476:1.0 1652:1.0 1707:1.0 1750:1.0 1918:1.0 1967:1.0 1985:1.0 2113:1.0 2173:1.0 2290:1.0 2410:1.0 2447:1.0 2461:1.0 2522:1.0 2546:1.0 2649:1.0 2792:1.0 2815:1.0 2881:1.0 2904:1.0 2966:1.0 3003:1.0 3036:1.0 3109:1.0 3146:1.0 3278:1.0
0.034213513001103465 95:1.0 295:1.0 479:1.0 611:1.0 754:1.0 771:1.0 786:1.0 947:1.0 1023:1.0 1167:1.0 1170:1.0 1294:1.0 1325:1.0 1347:1.0 1372:1.0 1400:1.0 1442:1.0 2003:1.0 2364:1.0 2371:1.0 2609:1.0 2893:1.0 3146:1.0 3315:1.0 3316:1.0 3339:1.0
0.034213513001103465 3:1.0 16:1.0 21:1.0 195:1.0 230:1.0 416:1.0 489:1.0 596:1.0 794:1.0 977:1.0 1083:1.0 1125:1.0 1160:1.0 1167:1.0 1214:1.0 1271:1.0 1314:1.0 1315:1.0 1325:1.0 1357:1.0 1400:1.0 1937:1.0 1992:1.0 2065:1.0 2472:1.0 2508:1.0 2615:1.0 2645:1.0 2649:1.0 2764:1.0 2773:1.0 2969:1.0 3069:1.0 3146:1.0
0.014280339919270572 3:1.0 5:1.0 70:1.0 95:1.0 116:1.0 277:1.0 315:1.0 321:1.0 489:1.0 569:1.0 611:1.0 630:1.0 730:1.0 913:1.0 966:1.0 1109:1.0 1160:1.0 1167:1.0 1243:1.0 1314:1.0 1325:1.0 1329:1.0 1335:1.0 1358:1.0 1372:1.0 1396:1.0 1400:1.0 1404:1.0 1442:1.0 1630:1.0 1862:1.0 1885:1.0 1937:1.0 2192:1.0 2461:1.0 2537:1.0 2582:1.0 2644:1.0 2649:1.0 2692:1.0 2925:1.0 2934:1.0 2955:1.0 2963:1.0 3040:1.0 3146:1.0 3315:1.0
0.02048607696290743 2:1.0 3:1.0 123:1.0 351:1.0 430:1.0 611:1.0 833:1.0 995:1.0 1109:1.0 1230:1.0 1248:1.0 1276:1.0 1325:1.0 1354:1.0 1358:1.0 1372:1.0 1400:1.0 1907:1.0 1995:1.0 2094:1.0 2371:1.0 2522:1.0 3146:1.0 3263:1.0 3278:1.0 3288:1.0 3315:1.0 3316:1.0
-0.031083781347090444 3:1.0 16:1.0 61:1.0 99:1.0 123:1.0 156:1.0 169:1.0 277:1.0 337:1.0 351:1.0 363:1.0 396:1.0 416:1.0 489:1.0 603:1.0 764:1.0 898:1.0 1009:1.0 1014:1.0 1071:1.0 1075:1.0 1109:1.0 1116:1.0 1132:1.0 1160:1.0 1167:1.0 1188:1.0 1199:1.0 1207:1.0 1236:1.0 1241:1.0 1314:1.0 1315:1.0 1343:1.0 1349:1.0 1357:1.0 1358:1.0 1400:1.0 1412:1.0 1423:1.0 1685:1.0 1881:1.0 1901:1.0 1908:1.0 2408:1.0 2461:1.0 2550:1.0 2644:1.0 2665:1.0 2668:1.0 2771:1.0 2773:1.0 2918:1.0 2947:1.0 3021:1.0 3146:1.0 3221:1.0 3263:1.0 3278:1.0 3284:1.0 3288:1.0 3314:1.0
-0.034213513001103465 2:1.0 3:1.0 21:1.0 88:1.0 93:1.0 123:1.0 143:1.0 230:1.0 702:1.0 1083:1.0 1087:1.0 1143:1.0 1148:1.0 1214:1.0 1325:1.0 1330:1.0 1358:1.0 1392:1.0 1393:1.0 1400:1.0 1629:1.0 1687:1.0 1990:1.0 2039:1.0 2317:1.0 2461:1.0 2498:1.0 2508:1.0 2649:1.0 2918:1.0 3044:1.0 3146:1.0 3257:1.0 3315:1.0
-0.018909340058647976 3:1.0 21:1.0 73:1.0 88:1.0 92:1.0 137:1.0 138:1.0 230:1.0 413:1.0 489:1.0 647:1.0 794:1.0 821:1.0 832:1.0 1031:1.0 1066:1.0 1083:1.0 1090:1.0 1160:1.0 1162:1.0 1174:1.0 1177:1.0 1214:1.0 1271:1.0 1314:1.0 1324:1.0 1325:1.0 1330:1.0 1358:1.0 1384:1.0 1429:1.0 1435:1.0 1455:1.0 1625:1.0 1687:1.0 1913:1.0 2048:1.0 2112:1.0 2202:1.0 2317:1.0 2461:1.0 2508:1.0 2649:1.0 2783:1.0 2910:1.0 2934:1.0 2966:1.0 3086:1.0 3146:1.0 3221:1.0 3264:1.0 3284:1.0 3286:1.0 3324:1.0
-0.018791279507611943 2:1.0 3:1.0 21:1.0 62:1.0 88:1.0 122:1.0 138:1.0 143:1.0 230:1.0 261:1.0 270:1.0 320:1.0 333:1.0 351:1.0 416:1.0 489:1.0 503:1.0 579:1.0 582:1.0 625:1.0 672:1.0 688:1.0 794:1.0 822:1.0 858:1.0 863:1.0 913:1.0 1046:1.0 1054:1.0 1066:1.0 1083:1.0 1087:1.0 1098:1.0 1109:1.0 1160:1.0 1167:1.0 1170:1.0 1175:1.0 1195:1.0 1210:1.0 1214:1.0 1271:1.0 1302:1.0 1314:1.0 1325:1.0 1330:1.0 1358:1.0 1381:1.0 1396:1.0 1398:1.0 1400:1.0 1402:1.0 1455:1.0 1629:1.0 2039:1.0 2067:1.0 2194:1.0 2221:1.0 2317:1.0 2381:1.0 2438:1.0 2452:1.0 2461:1.0 2472:1.0 2513:1.0 2535:1.0 2609:1.0 2637:1.0 2644:1.0 2649:1.0 2699:1.0 2741:1.0 2783:1.0 2836:1.0 2966:1.0 3036:1.0 3076:1.0 3082:1.0 3146:1.0 3221:1.0 3315:1.0
-0.034213513001103465 2:1.0 3:1.0 21:1.0 88:1.0 122:1.0 143:1.0 230:1.0 272:1.0 371:1.0 574:1.0 899:1.0 1057:1.0 1083:1.0 1087:1.0 1188:1.0 1214:1.0 1273:1.0 1325:1.0 1330:1.0 1332:1.0 1358:1.0 1402:1.0 1420:1.0 1629:1.0 1745:1.0 1825:1.0 2039:1.0 2317:1.0 2461:1.0 2550:1.0 2649:1.0 2820:1.0 2987:1.0 2997:1.0 3146:1.0 3160:1.0 3221:1.0 3315:1.0
0.034213513001103465 3:1.0 5:1.0 6:1.0 54:1.0 60:1.0 101:1.0 131:1.0 220:1.0 253:1.0 270:1.0 333:1.0 336:1.0 409:1.0 433:1.0 588:1.0 621:1.0 695:1.0 705:1.0 706:1.0 739:1.0 783:1.0 858:1.0 868:1.0 914:1.0 1026:1.0 1028:1.0 1040:1.0 1044:1.0 1054:1.0 1066:1.0 1071:1.0 1083:1.0 1129:1.0 1148:1.0 1160:1.0 1165:1.0 1166:1.0 1201:1.0 1214:1.0 1247:1.0 1261:1.0 1268:1.0 1280:1.0 1294:1.0 1322:1.0 1324:1.0 1325:1.0 1334:1.0 1339:1.0 1358:1.0 1381:1.0 1389:1.0 1421:1.0 1451:1.0 1454:1.0 1455:1.0 1615:1.0 1773:1.0 1816:1.0 1826:1.0 1849:1.0 1983:1.0 2073:1.0 2148:1.0 2229:1.0 2295:1.0 2308:1.0 2423:1.0 2432:1.0 2520:1.0 2608:1.0 2674:1.0 2708:1.0 2764:1.0 2783:1.0 2943:1.0 2966:1.0 2969:1.0 2982:1.0 2997:1.0 3032:1.0 3146:1.0 3191:1.0 3231:1.0 3259:1.0 3262:1.0 3263:1.0 3277:1.0 3322:1.0 3343:1.0
0.034213513001103465 1:1.0 30:1.0 480:1.0 489:1.0 543:1.0 619:1.0 655:1.0 1033:1.0 1062:1.0 1066:1.0 1117:1.0 1160:1.0 1314:1.0 1391:1.0 1393:1.0 1431:1.0 2155:1.0 2374:1.0 2456:1.0 2472:1.0 2556:1.0 2571:1.0 2948:1.0 3037:1.0 3116:1.0 3146:1.0
0.034213513001103465 596:1.0 1022:1.0 1071:1.0 1125:1.0 1250:1.0 1357:1.0 2020:1.0 2687:1.0 2734:1.0 2749:1.0 3146:1.0
0.034213513001103465 1200:1.0 1204:1.0 1362:1.0 1896:1.0 2447:1.0 3125:1.0 3146:1.0
0.034213513001103465 119:1.0 1362:1.0 1420:1.0 2935:1.0 3146:1.0
-0.034213513001103465 2:1.0 3:1.0 489:1.0 966:1.0 1030:1.0 1045:1.0 1160:1.0 1314:1.0 1400:1.0 1819:1.0 2094:1.0 2213:1.0 2472:1.0 2595:1.0 2893:1.0 3146:1.0 3315:1.0
-0.034213513001103465 334:1.0 545:1.0 692:1.0 911:1.0 977:1.0 1071:1.0 1215:1.0 1252:1.0 1283:1.0 1310:1.0 1315:1.0 1367:1.0 1400:1.0 1412:1.0 2222:1.0 2707:1.0 2743:1.0 2749:1.0 3057:1.0 3128:1.0 3146:1.0 3182:1.0
-0.01698172855851704 1:1.0 474:1.0 489:1.0 619:1.0 708:1.0 966:1.0 1062:1.0 1106:1.0 1117:1.0 1143:1.0 1160:1.0 1314:1.0 1400:1.0 1642:1.0 2387:1.0 2472:1.0 2999:1.0 3079:1.0 3146:1.0 3315:1.0
-0.010359487899215127 5:1.0 360:1.0 1200:1.0 1422:1.0 1654:1.0 2764:1.0 3146:1.0
-0.027721137842242036 5:1.0 489:1.0 647:1.0 966:1.0 1160:1.0 1314:1.0 1324:1.0 1400:1.0 1682:1.0 1777:1.0 2718:1.0 2764:1.0 3146:1.0 3239:1.0
0.034213513001103465 3:1.0 5:1.0 21:1.0 88:1.0 137:1.0 155:1.0 224:1.0 230:1.0 332:1.0 387:1.0 456:1.0 481:1.0 484:1.0 512:1.0 620:1.0 679:1.0 847:1.0 996:1.0 1008:1.0 1023:1.0 1054:1.0 1059:1.0 1069:1.0 1070:1.0 1083:1.0 1155:1.0 1162:1.0 1174:1.0 1214:1.0 1220:1.0 1283:1.0 1325:1.0 1326:1.0 1330:1.0 1331:1.0 1343:1.0 1371:1.0 1382:1.0 1420:1.0 1423:1.0 1435:1.0 1473:1.0 1590:1.0 1745:1.0 1769:1.0 1941:1.0 1963:1.0 1979:1.0 2255:1.0 2317:1.0 2364:1.0 2390:1.0 2438:1.0 2526:1.0 2649:1.0 2654:1.0 2708:1.0 2898:1.0 3046:1.0 3146:1.0 3160:1.0 3221:1.0 3259:1.0 3286:1.0 3316:1.0 3318:1.0
0.034213513001103465 21:1.0 109:1.0 123:1.0 216:1.0 230:1.0 333:1.0 351:1.0 674:1.0 701:1.0 749:1.0 794:1.0 829:1.0 939:1.0 1054:1.0 1070:1.0 1071:1.0 1083:1.0 1091:1.0 1109:1.0 1160:1.0 1214:1.0 1246:1.0 1250:1.0 1270:1.0 1271:1.0 1325:1.0 1358:1.0 1381:1.0 1396:1.0 1400:1.0 1422:1.0 1526:1.0 1708:1.0 1786:1.0 2065:1.0 2115:1.0 2229:1.0 2401:1.0 2461:1.0 2508:1.0 2539:1.0 2556:1.0 2649:1.0 2904:1.0 2969:1.0 2986:1.0 2987:1.0 3123:1.0 3146:1.0 3268:1.0 3290:1.0
0.019923721823313447 5:1.0 6:1.0 113:1.0 224:1.0 546:1.0 616:1.0 738:1.0 776:1.0 830:1.0 884:1.0 899:1.0 960:1.0 996:1.0 1038:1.0 1089:1.0 1174:1.0 1188:1.0 1197:1.0 1214:1.0 1241:1.0 1268:1.0 1283:1.0 1325:1.0 1332:1.0 1343:1.0 1350:1.0 1389:1.0 1413:1.0 1420:1.0 1441:1.0 1505:1.0 1772:1.0 2080:1.0 2337:1.0 2374:1.0 2401:1.0 2408:1.0 2508:1.0 2641:1.0 2649:1.0 2781:1.0 2967:1.0 3146:1.0 3221:1.0 3311:1.0 3316:1.0
0.034213513001103465 228:1.0 351:1.0 491:1.0 676:1.0 709:1.0 719:1.0 971:1.0 1109:1.0 1162:1.0 1236:1.0 1266:1.0 1323:1.0 1357:1.0 1358:1.0 1394:1.0 1427:1.0 1441:1.0 2416:1.0 2461:1.0 2894:1.0 3140:1.0 3146:1.0 3148:1.0 3221:1.0
0.004283475808742488 3:1.0 122:1.0 486:1.0 519:1.0 737:1.0 758:1.0 799:1.0 831:1.0 929:1.0 957:1.0 966:1.0 1018:1.0 1062:1.0 1071:1.0 1132:1.0 1160:1.0 1172:1.0 1191:1.0 1206:1.0 1226:1.0 1227:1.0 1241:1.0 1247:1.0 1297:1.0 1302:1.0 1305:1.0 1307:1.0 1323:1.0 1332:1.0 1350:1.0 1358:1.0 1360:1.0 1400:1.0 1402:1.0 1427:1.0 1441:1.0 1594:1.0 1640:1.0 1707:1.0 2046:1.0 2088:1.0 2194:1.0 2221:1.0 2255:1.0 2408:1.0 2410:1.0 2454:1.0 2461:1.0 2472:1.0 2858:1.0 2884:1.0 2938:1.0 2966:1.0 3060:1.0 3079:1.0 3146:1.0 3214:1.0 3221:1.0 3286:1.0 3315:1.0
-0.015318600170039946 5:1.0 16:1.0 211:1.0 334:1.0 341:1.0 351:1.0 407:1.0 486:1.0 542:1.0 558:1.0 581:1.0 620:1.0 623:1.0 672:1.0 758:1.0 774:1.0 809:1.0 913:1.0 929:1.0 943:1.0 953:1.0 973:1.0 977:1.0 1062:1.0 1070:1.0 1071:1.0 1091:1.0 1099:1.0 1109:1.0 1157:1.0 1167:1.0 1184:1.0 1207:1.0 1214:1.0 1226:1.0 1247:1.0 1302:1.0 1307:1.0 1315:1.0 1325:1.0 1353:1.0 1358:1.0 1396:1.0 1400:1.0 1402:1.0 1412:1.0 1426:1.0 1707:1.0 1819:1.0 1874:1.0 2031:1.0 2160:1.0 2179:1.0 2237:1.0 2290:1.0 2408:1.0 2461:1.0 2520:1.0 2556:1.0 2646:1.0 2668:1.0 2703:1.0 2748:1.0 2860:1.0 2898:1.0 2966:1.0 3105:1.0 3146:1.0 3200:1.0 3221:1.0 3252:1.0 3278:1.0 3293:1.0 3343:1.0
0.034213513001103465 3:1.0 227:1.0 259:1.0 1090:1.0 1100:1.0 1152:1.0 1207:1.0 1282:1.0 1384:1.0 1652:1.0 2288:1.0 2546:1.0 3146:1.0 3315:1.0 3343:1.0
-0.034213513001103465 3:1.0 224:1.0 275:1.0 620:1.0 623:1.0 1070:1.0 1071:1.0 1111:1.0 1123:1.0 1129:1.0 1214:1.0 1283:1.0 1325:1.0 1420:1.0 1494:1.0 1772:1.0 1773:1.0 2281:1.0 2508:1.0 2674:1.0 2935:1.0 2969:1.0 3146:1.0 3258:1.0 3259:1.0 3316:1.0
-9.483418365041178E-4 224:1.0 620:1.0 623:1.0 722:1.0 1070:1.0 1071:1.0 1214:1.0 1283:1.0 1325:1.0 1415:1.0 1494:1.0 1772:1.0 1958:1.0 2281:1.0 2508:1.0 2969:1.0 3146:1.0 3259:1.0 3316:1.0
-0.023046589235482855 8:1.0 42:1.0 152:1.0 283:1.0 375:1.0 847:1.0 931:1.0 970:1.0 1022:1.0 1155:1.0 1186:1.0 1214:1.0 1241:1.0 1246:1.0 1318:1.0 1325:1.0 1349:1.0 1357:1.0 1358:1.0 1374:1.0 1396:1.0 1402:1.0 1473:1.0 1769:1.0 1901:1.0 1941:1.0 2085:1.0 2179:1.0 2408:1.0 2461:1.0 2556:1.0 2649:1.0 2790:1.0 3146:1.0 3195:1.0 3221:1.0 3259:1.0
0.034213513001103465 489:1.0 647:1.0 966:1.0 1160:1.0 1314:1.0 1324:1.0 1400:1.0 2202:1.0 2220:1.0 2550:1.0 3086:1.0 3144:1.0 3146:1.0
0.034213513001103465 489:1.0 647:1.0 966:1.0 1160:1.0 1314:1.0 1324:1.0 1400:1.0 2191:1.0 2522:1.0 2771:1.0 3024:1.0 3146:1.0
0.034213513001103465 2:1.0 3:1.0 5:1.0 31:1.0 56:1.0 161:1.0 195:1.0 400:1.0 489:1.0 835:1.0 1045:1.0 1072:1.0 1126:1.0 1157:1.0 1160:1.0 1271:1.0 1314:1.0 1391:1.0 1553:1.0 1669:1.0 1819:1.0 2094:1.0 2134:1.0 2213:1.0 2570:1.0 2764:1.0 2912:1.0 2918:1.0 2933:1.0 3146:1.0 3315:1.0
-0.008987254295257919 28:1.0 53:1.0 81:1.0 118:1.0 137:1.0 182:1.0 185:1.0 355:1.0 366:1.0 375:1.0 405:1.0 428:1.0 449:1.0 551:1.0 756:1.0 776:1.0 794:1.0 811:1.0 847:1.0 853:1.0 880:1.0 915:1.0 987:1.0 1013:1.0 1060:1.0 1071:1.0 1091:1.0 1094:1.0 1111:1.0 1155:1.0 1156:1.0 1173:1.0 1174:1.0 1196:1.0 1200:1.0 1205:1.0 1214:1.0 1241:1.0 1249:1.0 1271:1.0 1275:1.0 1277:1.0 1290:1.0 1315:1.0 1318:1.0 1324:1.0 1325:1.0 1349:1.0 1350:1.0 1371:1.0 1423:1.0 1428:1.0 1439:1.0 1473:1.0 1617:1.0 1661:1.0 1715:1.0 1769:1.0 1884:1.0 1889:1.0 1941:1.0 2100:1.0 2102:1.0 2151:1.0 2224:1.0 2306:1.0 2408:1.0 2464:1.0 2491:1.0 2540:1.0 2569:1.0 2609:1.0 2649:1.0 2707:1.0 2741:1.0 2787:1.0 2940:1.0 2970:1.0 2997:1.0 3057:1.0 3071:1.0 3134:1.0 3146:1.0 3221:1.0 3238:1.0 3259:1.0 3284:1.0
-0.005545133849304579 1:1.0 329:1.0 351:1.0 548:1.0 833:1.0 1062:1.0 1071:1.0 1109:1.0 1125:1.0 1230:1.0 1247:1.0 1358:1.0 1424:1.0 2566:1.0 2711:1.0 2933:1.0 3070:1.0 3146:1.0 3284:1.0
-0.005023929273949239 59:1.0 128:1.0 155:1.0 164:1.0 277:1.0 489:1.0 565:1.0 669:1.0 703:1.0 780:1.0 791:1.0 923:1.0 966:1.0 997:1.0 1017:1.0 1023:1.0 1033:1.0 1040:1.0 1057:1.0 1074:1.0 1109:1.0 1156:1.0 1160:1.0 1161:1.0 1163:1.0 1174:1.0 1181:1.0 1284:1.0 1292:1.0 1309:1.0 1314:1.0 1331:1.0 1344:1.0 1400:1.0 1693:1.0 1781:1.0 1805:1.0 2011:1.0 2174:1.0 2202:1.0 2298:1.0 2364:1.0 2390:1.0 2503:1.0 2522:1.0 2587:1.0 2689:1.0 2908:1.0 2918:1.0 2938:1.0 2997:1.0 3046:1.0 3084:1.0 3146:1.0 3268:1.0 3284:1.0 3322:1.0 3339:1.0
-0.034213513001103465 2:1.0 3:1.0 551:1.0 665:1.0 726:1.0 1087:1.0 1200:1.0 1326:1.0 1371:1.0 2236:1.0 2480:1.0 3146:1.0 3303:1.0
-0.019272507519793418 128:1.0 141:1.0 195:1.0 295:1.0 308:1.0 313:1.0 721:1.0 783:1.0 806:1.0 975:1.0 1023:1.0 1040:1.0 1104:1.0 1108:1.0 1127:1.0 1156:1.0 1160:1.0 1234:1.0 1261:1.0 1271:1.0 1293:1.0 1314:1.0 1357:1.0 1400:1.0 1413:1.0 2364:1.0 2399:1.0 2472:1.0 2503:1.0 2688:1.0 2904:1.0 2918:1.0 2997:1.0 3003:1.0 3043:1.0 3146:1.0
-0.01621186301217619 140:1.0 156:1.0 351:1.0 466:1.0 467:1.0 491:1.0 676:1.0 719:1.0 736:1.0 799:1.0 820:1.0 839:1.0 1033:1.0 1109:1.0 1122:1.0 1132:1.0 1136:1.0 1160:1.0 1179:1.0 1191:1.0 1226:1.0 1241:1.0 1266:1.0 1323:1.0 1324:1.0 1350:1.0 1358:1.0 1394:1.0 1412:1.0 1427:1.0 1441:1.0 1444:1.0 2186:1.0 2202:1.0 2366:1.0 2383:1.0 2408:1.0 2416:1.0 2461:1.0 2621:1.0 2641:1.0 2665:1.0 2773:1.0 2800:1.0 2836:1.0 2918:1.0 3002:1.0 3068:1.0 3086:1.0 3146:1.0 3148:1.0 3221:1.0
0.01681540493786401 61:1.0 109:1.0 138:1.0 219:1.0 224:1.0 242:1.0 317:1.0 353:1.0 363:1.0 370:1.0 509:1.0 542:1.0 553:1.0 594:1.0 603:1.0 620:1.0 623:1.0 645:1.0 727:1.0 758:1.0 797:1.0 800:1.0 833:1.0 887:1.0 1013:1.0 1019:1.0 1070:1.0 1071:1.0 1072:1.0 1075:1.0 1091:1.0 1104:1.0 1109:1.0 1118:1.0 1127:1.0 1130:1.0 1157:1.0 1199:1.0 1200:1.0 1207:1.0 1214:1.0 1230:1.0 1268:1.0 1270:1.0 1271:1.0 1283:1.0 1302:1.0 1315:1.0 1325:1.0 1343:1.0 1358:1.0 1423:1.0 1494:1.0 1649:1.0 1695:1.0 1729:1.0 1772:1.0 1810:1.0 1958:1.0 2163:1.0 2281:1.0 2349:1.0 2410:1.0 2461:1.0 2471:1.0 2472:1.0 2508:1.0 2522:1.0 2668:1.0 2675:1.0 2753:1.0 2790:1.0 2829:1.0 2904:1.0 2918:1.0 2947:1.0 2966:1.0 2969:1.0 3061:1.0 3146:1.0 3221:1.0 3259:1.0 3287:1.0 3298:1.0 3316:1.0
0.034213513001103465 5:1.0 20:1.0 123:1.0 310:1.0 450:1.0 850:1.0 891:1.0 912:1.0 927:1.0 970:1.0 1028:1.0 1083:1.0 1111:1.0 1114:1.0 1170:1.0 1196:1.0 1246:1.0 1280:1.0 1283:1.0 1325:1.0 1358:1.0 1374:1.0 1400:1.0 1405:1.0 1417:1.0 1772:1.0 1788:1.0 1849:1.0 1928:1.0 2006:1.0 2179:1.0 2461:1.0 2556:1.0 2764:1.0 2783:1.0 2969:1.0 2970:1.0 2989:1.0 2999:1.0 3146:1.0 3182:1.0 3258:1.0 3284:1.0 3316:1.0
0.034213513001103465 131:1.0 137:1.0 224:1.0 295:1.0 620:1.0 623:1.0 771:1.0 847:1.0 859:1.0 903:1.0 1023:1.0 1070:1.0 1071:1.0 1155:1.0 1166:1.0 1170:1.0 1174:1.0 1188:1.0 1198:1.0 1214:1.0 1283:1.0 1325:1.0 1347:1.0 1400:1.0 1418:1.0 1451:1.0 1494:1.0 1633:1.0 1730:1.0 1769:1.0 1772:1.0 1939:1.0 2014:1.0 2212:1.0 2281:1.0 2508:1.0 2649:1.0 2657:1.0 2688:1.0 2969:1.0 3057:1.0 3146:1.0 3212:1.0 3221:1.0 3262:1.0 3288:1.0 3316:1.0 3339:1.0 3354:1.0
0.034213513001103465 51:1.0 93:1.0 122:1.0 224:1.0 486:1.0 620:1.0 623:1.0 812:1.0 1070:1.0 1071:1.0 1214:1.0 1226:1.0 1283:1.0 1325:1.0 1358:1.0 1393:1.0 1400:1.0 1402:1.0 1913:1.0 1979:1.0 2021:1.0 2115:1.0 2185:1.0 2472:1.0 2508:1.0 2523:1.0 2969:1.0 2987:1.0 3146:1.0 3221:1.0 3268:1.0 3318:1.0
0.034213513001103465 224:1.0 446:1.0 620:1.0 623:1.0 1025:1.0 1070:1.0 1071:1.0 1214:1.0 1249:1.0 1283:1.0 1325:1.0 1360:1.0 2157:1.0 2202:1.0 2858:1.0 2947:1.0 3146:1.0 3214:1.0 3268:1.0 3343:1.0
-0.034213513001103465 137:1.0 224:1.0 361:1.0 446:1.0 620:1.0 623:1.0 776:1.0 1070:1.0 1071:1.0 1174:1.0 1214:1.0 1249:1.0 1283:1.0 1325:1.0 1979:1.0 2649:1.0 2943:1.0 3127:1.0 3258:1.0 3318:1.0
-0.034213513001103465 3:1.0 131:1.0 137:1.0 224:1.0 607:1.0 903:1.0 1050:1.0 1102:1.0 1141:1.0 1143:1.0 1154:1.0 1166:1.0 1174:1.0 1214:1.0 1283:1.0 1312:1.0 1325:1.0 1451:1.0 1590:1.0 1941:1.0 1979:1.0 2481:1.0 2556:1.0 2783:1.0 2866:1.0 3057:1.0 3146:1.0 3242:1.0 3259:1.0 3318:1.0
-0.034213513001103465 3:1.0 65:1.0 71:1.0 242:1.0 309:1.0 337:1.0 600:1.0 850:1.0 1071:1.0 1116:1.0 1170:1.0 1196:1.0 1230:1.0 1270:1.0 1283:1.0 1325:1.0 1420:1.0 1451:1.0 1695:1.0 1772:1.0 2040:1.0 2410:1.0 2422:1.0 2546:1.0 2947:1.0 2969:1.0 3146:1.0 3259:1.0 3287:1.0 3316:1.0
-0.010559004159318833 1:1.0 3:1.0 72:1.0 733:1.0 1046:1.0 1062:1.0 1079:1.0 1121:1.0 1243:1.0 1391:1.0 1401:1.0 1440:1.0 1807:1.0 2441:1.0 2654:1.0 2869:1.0 3146:1.0
0.02963529911667545 3:1.0 5:1.0 16:1.0 35:1.0 145:1.0 191:1.0 234:1.0 280:1.0 457:1.0 499:1.0 630:1.0 763:1.0 945:1.0 961:1.0 1019:1.0 1023:1.0 1055:1.0 1123:1.0 1152:1.0 1167:1.0 1223:1.0 1251:1.0 1315:1.0 1323:1.0 1336:1.0 1340:1.0 1358:1.0 1362:1.0 1427:1.0 1436:1.0 1443:1.0 1463:1.0 1712:1.0 1720:1.0 1735:1.0 1877:1.0 2175:1.0 2364:1.0 2461:1.0 2540:1.0 2674:1.0 2746:1.0 2783:1.0 2898:1.0 2931:1.0 2970:1.0 3011:1.0 3146:1.0 3252:1.0 3303:1.0
0.034213513001103465 16:1.0 81:1.0 123:1.0 272:1.0 351:1.0 432:1.0 585:1.0 630:1.0 680:1.0 1109:1.0 1156:1.0 1167:1.0 1273:1.0 1282:1.0 1315:1.0 1358:1.0 1365:1.0 1400:1.0 1777:1.0 1819:1.0 1866:1.0 1908:1.0 2124:1.0 2144:1.0 2408:1.0 2461:1.0 2471:1.0 2773:1.0 2865:1.0 2997:1.0 3013:1.0 3146:1.0 3240:1.0 3284:1.0
0.034213513001103465 39:1.0 57:1.0 211:1.0 272:1.0 288:1.0 313:1.0 509:1.0 547:1.0 584:1.0 619:1.0 680:1.0 705:1.0 768:1.0 1101:1.0 1117:1.0 1156:1.0 1157:1.0 1160:1.0 1273:1.0 1314:1.0 1324:1.0 1327:1.0 1358:1.0 1396:1.0 1400:1.0 1412:1.0 1676:1.0 1777:1.0 2020:1.0 2124:1.0 2461:1.0 2522:1.0 2529:1.0 2668:1.0 2673:1.0 2917:1.0 2997:1.0 3066:1.0 3125:1.0 3143:1.0 3146:1.0 3176:1.0
0.034213513001103465 277:1.0 363:1.0 489:1.0 655:1.0 667:1.0 697:1.0 913:1.0 1033:1.0 1061:1.0 1062:1.0 1075:1.0 1104:1.0 1109:1.0 1115:1.0 1160:1.0 1167:1.0 1202:1.0 1205:1.0 1213:1.0 1241:1.0 1255:1.0 1314:1.0 1332:1.0 1417:1.0 1423:1.0 1649:1.0 1917:1.0 2186:1.0 2220:1.0 2461:1.0 2490:1.0 2773:1.0 2904:1.0 2970:1.0 3144:1.0 3146:1.0 3182:1.0 3221:1.0 3242:1.0 3292:1.0
0.034213513001103465 56:1.0 334:1.0 344:1.0 400:1.0 402:1.0 404:1.0 528:1.0 588:1.0 805:1.0 849:1.0 1019:1.0 1062:1.0 1072:1.0 1157:1.0 1160:1.0 1175:1.0 1268:1.0 1274:1.0 1307:1.0 1315:1.0 1398:1.0 1412:1.0 1444:1.0 2088:1.0 2379:1.0 2540:1.0 2773:1.0 2784:1.0 2794:1.0 2869:1.0 3061:1.0 3068:1.0 3146:1.0 3179:1.0
-0.0011331065080810315 5:1.0 16:1.0 288:1.0 351:1.0 416:1.0 442:1.0 506:1.0 547:1.0 630:1.0 647:1.0 652:1.0 672:1.0 676:1.0 763:1.0 775:1.0 823:1.0 1019:1.0 1024:1.0 1037:1.0 1066:1.0 1080:1.0 1101:1.0 1109:1.0 1138:1.0 1157:1.0 1160:1.0 1167:1.0 1183:1.0 1192:1.0 1223:1.0 1288:1.0 1296:1.0 1314:1.0 1315:1.0 1324:1.0 1358:1.0 1394:1.0 1396:1.0 1417:1.0 1430:1.0 1862:1.0 1906:1.0 1908:1.0 2059:1.0 2159:1.0 2202:1.0 2356:1.0 2392:1.0 2419:1.0 2450:1.0 2461:1.0 2540:1.0 2569:1.0 2609:1.0 2716:1.0 2773:1.0 2970:1.0 3017:1.0 3039:1.0 3049:1.0 3086:1.0 3092:1.0 3146:1.0 3199:1.0 3221:1.0 3339:1.0
-0.011176786806052209 16:1.0 35:1.0 277:1.0 362:1.0 489:1.0 509:1.0 599:1.0 629:1.0 630:1.0 691:1.0 705:1.0 725:1.0 758:1.0 768:1.0 821:1.0 913:1.0 1066:1.0 1068:1.0 1109:1.0 1157:1.0 1160:1.0 1167:1.0 1175:1.0 1269:1.0 1299:1.0 1302:1.0 1314:1.0 1315:1.0 1324:1.0 1340:1.0 1358:1.0 1395:1.0 1400:1.0 1402:1.0 1416:1.0 1427:1.0 1455:1.0 1777:1.0 2020:1.0 2186:1.0 2193:1.0 2461:1.0 2472:1.0 2488:1.0 2544:1.0 2589:1.0 2596:1.0 2653:1.0 2683:1.0 2773:1.0 2817:1.0 2822:1.0 3119:1.0 3146:1.0 3179:1.0 3221:1.0 3237:1.0 3239:1.0 3321:1.0
-0.007420892248658702 55:1.0 123:1.0 139:1.0 288:1.0 351:1.0 400:1.0 444:1.0 452:1.0 508:1.0 547:1.0 647:1.0 658:1.0 676:1.0 758:1.0 802:1.0 913:1.0 940:1.0 1060:1.0 1073:1.0 1081:1.0 1101:1.0 1109:1.0 1157:1.0 1158:1.0 1160:1.0 1167:1.0 1300:1.0 1302:1.0 1314:1.0 1319:1.0 1324:1.0 1337:1.0 1341:1.0 1351:1.0 1358:1.0 1394:1.0 1400:1.0 1577:1.0 1640:1.0 1794:1.0 1942:1.0 2095:1.0 2186:1.0 2194:1.0 2202:1.0 2444:1.0 2452:1.0 2461:1.0 2472:1.0 2741:1.0 2773:1.0 2847:1.0 3059:1.0 3069:1.0 3072:1.0 3086:1.0 3123:1.0 3146:1.0 3169:1.0 3179:1.0 3284:1.0 3297:1.0
-0.008789228050025107 5:1.0 9:1.0 93:1.0 138:1.0 183:1.0 194:1.0 270:1.0 277:1.0 502:1.0 691:1.0 768:1.0 800:1.0 875:1.0 898:1.0 1062:1.0 1066:1.0 1104:1.0 1109:1.0 1127:1.0 1157:1.0 1175:1.0 1258:1.0 1271:1.0 1314:1.0 1343:1.0 1358:1.0 1393:1.0 1396:1.0 1398:1.0 1400:1.0 1416:1.0 1559:1.0 1627:1.0 1876:1.0 1880:1.0 1982:1.0 2049:1.0 2051:1.0 2074:1.0 2220:1.0 2229:1.0 2438:1.0 2461:1.0 2501:1.0 2616:1.0 2898:1.0 2919:1.0 2992:1.0 3033:1.0 3144:1.0 3146:1.0 3163:1.0 3192:1.0 3315:1.0
-0.006418056410883397 5:1.0 22:1.0 137:1.0 155:1.0 224:1.0 354:1.0 394:1.0 481:1.0 533:1.0 666:1.0 690:1.0 828:1.0 854:1.0 922:1.0 950:1.0 996:1.0 1016:1.0 1020:1.0 1023:1.0 1025:1.0 1032:1.0 1033:1.0 1071:1.0 1125:1.0 1160:1.0 1162:1.0 1170:1.0 1174:1.0 1214:1.0 1249:1.0 1283:1.0 1292:1.0 1325:1.0 1331:1.0 1333:1.0 1343:1.0 1356:1.0 1371:1.0 1428:1.0 1683:1.0 1875:1.0 1895:1.0 1900:1.0 1954:1.0 2049:1.0 2157:1.0 2202:1.0 2224:1.0 2364:1.0 2469:1.0 2631:1.0 2649:1.0 2767:1.0 2898:1.0 2918:1.0 2997:1.0 3032:1.0 3053:1.0 3088:1.0 3093:1.0 3137:1.0 3146:1.0 3164:1.0 3185:1.0 3221:1.0 3287:1.0 3290:1.0 3343:1.0
0.034213513001103465 3:1.0 115:1.0 260:1.0 512:1.0 854:1.0 950:1.0 1055:1.0 1162:1.0 1170:1.0 1200:1.0 1214:1.0 1325:1.0 1356:1.0 1362:1.0 1366:1.0 1423:1.0 1656:1.0 1662:1.0 1720:1.0 1875:1.0 1954:1.0 2210:1.0 2529:1.0 2649:1.0 2674:1.0 2844:1.0 2943:1.0 3032:1.0 3146:1.0 3221:1.0 3287:1.0
0.034213513001103465 3:1.0 65:1.0 109:1.0 156:1.0 160:1.0 249:1.0 337:1.0 447:1.0 506:1.0 578:1.0 600:1.0 908:1.0 923:1.0 964:1.0 1011:1.0 1029:1.0 1071:1.0 1091:1.0 1109:1.0 1116:1.0 1157:1.0 1166:1.0 1181:1.0 1185:1.0 1207:1.0 1265:1.0 1270:1.0 1283:1.0 1292:1.0 1294:1.0 1315:1.0 1317:1.0 1412:1.0 1440:1.0 1451:1.0 1454:1.0 1662:1.0 1901:1.0 1992:1.0 2020:1.0 2401:1.0 2408:1.0 2472:1.0 2492:1.0 2493:1.0 2508:1.0 2615:1.0 2651:1.0 2668:1.0 2805:1.0 2890:1.0 2919:1.0 2934:1.0 2947:1.0 2968:1.0 3021:1.0 3023:1.0 3028:1.0 3109:1.0 3146:1.0 3191:1.0 3227:1.0
0.034213513001103465 3:1.0 65:1.0 80:1.0 337:1.0 600:1.0 1041:1.0 1071:1.0 1106:1.0 1116:1.0 1143:1.0 1173:1.0 1283:1.0 1443:1.0 1451:1.0 1453:1.0 1927:1.0 1979:1.0 2426:1.0 2508:1.0 2674:1.0 2969:1.0 3146:1.0 3212:1.0 3278:1.0 3293:1.0 3318:1.0
-0.02349534197010051 152:1.0 1013:1.0 1269:1.0 1287:1.0 1357:1.0 1402:1.0 1424:1.0 1784:1.0 2085:1.0 2945:1.0 3146:1.0 3221:1.0 3284:1.0
-0.034213513001103465 3:1.0 6:1.0 65:1.0 255:1.0 337:1.0 600:1.0 889:1.0 1071:1.0 1090:1.0 1116:1.0 1261:1.0 1283:1.0 1384:1.0 1451:1.0 1496:1.0 1772:1.0 1850:1.0 2328:1.0 2508:1.0 2649:1.0 2934:1.0 2969:1.0 3146:1.0 3316:1.0
0.024454637329143054 1062:1.0 1122:1.0 1200:1.0 1307:1.0 1316:1.0 1475:1.0 1626:1.0 1707:1.0 1772:1.0 2072:1.0 2209:1.0 2442:1.0 2781:1.0 3061:1.0 3146:1.0 3315:1.0
-0.034213513001103465 50:1.0 115:1.0 812:1.0 1226:1.0 1362:1.0 1400:1.0 1423:1.0 1786:1.0 2185:1.0 2987:1.0 3146:1.0 3221:1.0
-0.008030707012196709 115:1.0 182:1.0 415:1.0 716:1.0 871:1.0 966:1.0 981:1.0 1026:1.0 1155:1.0 1160:1.0 1210:1.0 1325:1.0 1362:1.0 1371:1.0 1400:1.0 1423:1.0 1656:1.0 1662:1.0 1683:1.0 1875:1.0 2138:1.0 2633:1.0 2767:1.0 2783:1.0 2844:1.0 3032:1.0 3146:1.0 3221:1.0 3252:1.0
-0.030252429659397683 3:1.0 65:1.0 74:1.0 337:1.0 600:1.0 790:1.0 1008:1.0 1069:1.0 1071:1.0 1116:1.0 1196:1.0 1202:1.0 1243:1.0 1283:1.0 1325:1.0 1326:1.0 1371:1.0 1451:1.0 1496:1.0 1715:1.0 1772:1.0 1850:1.0 1864:1.0 1927:1.0 2328:1.0 2508:1.0 2654:1.0 2969:1.0 2970:1.0 2998:1.0 3057:1.0 3146:1.0 3243:1.0 3316:1.0
0.034213513001103465 11:1.0 12:1.0 48:1.0 53:1.0 195:1.0 351:1.0 465:1.0 542:1.0 598:1.0 867:1.0 911:1.0 1062:1.0 1071:1.0 1091:1.0 1109:1.0 1114:1.0 1241:1.0 1250:1.0 1260:1.0 1271:1.0 1307:1.0 1314:1.0 1358:1.0 1367:1.0 1400:1.0 1792:1.0 1984:1.0 2276:1.0 2371:1.0 2408:1.0 2472:1.0 2542:1.0 2609:1.0 2783:1.0 2893:1.0 3117:1.0 3146:1.0 3278:1.0 3284:1.0 3315:1.0
0.006168759658975147 2:1.0 3:1.0 66:1.0 277:1.0 352:1.0 415:1.0 489:1.0 726:1.0 800:1.0 898:1.0 966:1.0 1033:1.0 1087:1.0 1104:1.0 1109:1.0 1127:1.0 1160:1.0 1314:1.0 1326:1.0 1343:1.0 1371:1.0 1400:1.0 1468:1.0 1690:1.0 1862:1.0 2236:1.0 2461:1.0 2521:1.0 2540:1.0 2587:1.0 2807:1.0 2918:1.0 3000:1.0 3146:1.0 3303:1.0
0.034213513001103465 2:1.0 3:1.0 5:1.0 270:1.0 475:1.0 638:1.0 758:1.0 929:1.0 1048:1.0 1066:1.0 1071:1.0 1087:1.0 1164:1.0 1247:1.0 1302:1.0 1358:1.0 1415:1.0 2236:1.0 2472:1.0 2548:1.0 2609:1.0 2624:1.0 3117:1.0 3146:1.0 3303:1.0
0.024629160498781666 2:1.0 3:1.0 350:1.0 351:1.0 554:1.0 630:1.0 653:1.0 659:1.0 766:1.0 789:1.0 899:1.0 913:1.0 1013:1.0 1040:1.0 1097:1.0 1109:1.0 1167:1.0 1188:1.0 1224:1.0 1276:1.0 1287:1.0 1358:1.0 1419:1.0 1420:1.0 1858:1.0 1862:1.0 2094:1.0 2198:1.0 2360:1.0 2461:1.0 2540:1.0 2664:1.0 2674:1.0 2987:1.0 2997:1.0 3146:1.0 3212:1.0 3258:1.0 3284:1.0
0.034213513001103465 305:1.0 317:1.0 351:1.0 509:1.0 696:1.0 713:1.0 768:1.0 882:1.0 1040:1.0 1051:1.0 1102:1.0 1109:1.0 1143:1.0 1157:1.0 1173:1.0 1358:1.0 1400:1.0 1680:1.0 2159:1.0 2198:1.0 2426:1.0 2461:1.0 2653:1.0 2716:1.0 2847:1.0 2997:1.0 3021:1.0 3146:1.0 3212:1.0
-0.003676680666479257 1:1.0 90:1.0 475:1.0 586:1.0 715:1.0 771:1.0 1023:1.0 1062:1.0 1066:1.0 1076:1.0 1144:1.0 1151:1.0 1170:1.0 1294:1.0 1300:1.0 1347:1.0 1415:1.0 1450:1.0 1454:1.0 1772:1.0 1935:1.0 2090:1.0 2305:1.0 2364:1.0 2408:1.0 2539:1.0 2540:1.0 2620:1.0 2649:1.0 2860:1.0 3146:1.0 3266:1.0
-0.021458734060275337 123:1.0 232:1.0 317:1.0 351:1.0 429:1.0 506:1.0 729:1.0 836:1.0 939:1.0 1109:1.0 1125:1.0 1157:1.0 1223:1.0 1236:1.0 1315:1.0 1357:1.0 1358:1.0 1381:1.0 1400:1.0 1862:1.0 2319:1.0 2393:1.0 2461:1.0 2523:1.0 2540:1.0 2596:1.0 2893:1.0 3049:1.0 3063:1.0 3146:1.0 3278:1.0
-0.008571132540249063 53:1.0 164:1.0 328:1.0 351:1.0 379:1.0 542:1.0 768:1.0 932:1.0 935:1.0 1062:1.0 1091:1.0 1109:1.0 1117:1.0 1124:1.0 1157:1.0 1241:1.0 1254:1.0 1292:1.0 1358:1.0 1400:1.0 1653:1.0 1674:1.0 1684:1.0 2327:1.0 2405:1.0 2410:1.0 2461:1.0 2540:1.0 2550:1.0 2733:1.0 2868:1.0 2932:1.0 3046:1.0 3146:1.0
-0.014475176107136258 28:1.0 56:1.0 123:1.0 166:1.0 188:1.0 197:1.0 342:1.0 351:1.0 400:1.0 489:1.0 490:1.0 504:1.0 542:1.0 558:1.0 619:1.0 732:1.0 809:1.0 853:1.0 1000:1.0 1072:1.0 1091:1.0 1099:1.0 1109:1.0 1117:1.0 1151:1.0 1152:1.0 1155:1.0 1157:1.0 1160:1.0 1196:1.0 1205:1.0 1207:1.0 1262:1.0 1264:1.0 1277:1.0 1314:1.0 1325:1.0 1327:1.0 1358:1.0 1373:1.0 1400:1.0 1777:1.0 1792:1.0 1885:1.0 2024:1.0 2183:1.0 2229:1.0 2303:1.0 2372:1.0 2401:1.0 2408:1.0 2435:1.0 2461:1.0 2472:1.0 2540:1.0 2582:1.0 2651:1.0 2707:1.0 2916:1.0 3060:1.0 3146:1.0 3163:1.0 3182:1.0 3221:1.0 3259:1.0 3277:1.0 3278:1.0 3343:1.0
-0.027387982673703935 247:1.0 1058:1.0 1065:1.0 1491:1.0 2265:1.0 2284:1.0 3257:1.0
0.034213513001103465 182:1.0 259:1.0 342:1.0 605:1.0 853:1.0 1090:1.0 1152:1.0 1155:1.0 1196:1.0 1283:1.0 1290:1.0 1325:1.0 1384:1.0 1385:1.0 1423:1.0 1704:1.0 1769:1.0 1772:1.0 2395:1.0 2649:1.0 2923:1.0 3146:1.0 3221:1.0 3316:1.0
0.034213513001103465 199:1.0 299:1.0 400:1.0 413:1.0 415:1.0 582:1.0 860:1.0 907:1.0 931:1.0 980:1.0 1022:1.0 1031:1.0 1157:1.0 1160:1.0 1210:1.0 1214:1.0 1282:1.0 1302:1.0 1325:1.0 1371:1.0 1406:1.0 1439:1.0 1486:1.0 1777:1.0 1915:1.0 1941:1.0 2124:1.0 2144:1.0 2216:1.0 2306:1.0 2408:1.0 2430:1.0 2472:1.0 2602:1.0 2649:1.0 2741:1.0 2783:1.0 2987:1.0 3134:1.0 3146:1.0 3259:1.0
0.034213513001103465 5:1.0 14:1.0 114:1.0 185:1.0 230:1.0 365:1.0 504:1.0 530:1.0 718:1.0 841:1.0 1083:1.0 1109:1.0 1111:1.0 1175:1.0 1179:1.0 1196:1.0 1262:1.0 1325:1.0 1362:1.0 1381:1.0 1391:1.0 1398:1.0 1656:1.0 1662:1.0 1715:1.0 2049:1.0 2461:1.0 2781:1.0 2844:1.0 2853:1.0 2898:1.0 2970:1.0 3057:1.0 3146:1.0 3255:1.0 3278:1.0
0.034213513001103465 224:1.0 756:1.0 794:1.0 959:1.0 1013:1.0 1175:1.0 1214:1.0 1271:1.0 1274:1.0 1283:1.0 1323:1.0 1325:1.0 1395:1.0 1427:1.0 1444:1.0 1772:1.0 2349:1.0 2522:1.0 2934:1.0 2966:1.0 3146:1.0 3172:1.0 3246:1.0 3316:1.0
0.034213513001103465 3:1.0 121:1.0 152:1.0 290:1.0 348:1.0 413:1.0 489:1.0 884:1.0 1031:1.0 1038:1.0 1160:1.0 1177:1.0 1209:1.0 1214:1.0 1314:1.0 1325:1.0 1357:1.0 1378:1.0 1400:1.0 1402:1.0 1699:1.0 1980:1.0 2004:1.0 2048:1.0 2296:1.0 2461:1.0 2649:1.0 2659:1.0 2741:1.0 2744:1.0 2752:1.0 2860:1.0 3146:1.0 3221:1.0 3252:1.0 3286:1.0
-0.034213513001103465 5:1.0 353:1.0 616:1.0 919:1.0 980:1.0 996:1.0 1200:1.0 1214:1.0 1268:1.0 1282:1.0 1325:1.0 1343:1.0 1406:1.0 1643:1.0 1777:1.0 2124:1.0 2144:1.0 2553:1.0 2649:1.0 2898:1.0 2943:1.0 3146:1.0 3184:1.0
-0.02532197910874908 3:1.0 185:1.0 231:1.0 306:1.0 342:1.0 428:1.0 490:1.0 891:1.0 901:1.0 918:1.0 976:1.0 977:1.0 980:1.0 1000:1.0 1016:1.0 1071:1.0 1111:1.0 1114:1.0 1152:1.0 1170:1.0 1187:1.0 1196:1.0 1244:1.0 1282:1.0 1292:1.0 1315:1.0 1325:1.0 1400:1.0 1406:1.0 1409:1.0 1486:1.0 1673:1.0 1777:1.0 1915:1.0 1985:1.0 2124:1.0 2144:1.0 2216:1.0 2408:1.0 2546:1.0 2612:1.0 2649:1.0 2668:1.0 2783:1.0 2904:1.0 2969:1.0 3146:1.0 3152:1.0 3160:1.0 3188:1.0 3189:1.0
-0.034213513001103465 137:1.0 832:1.0 919:1.0 980:1.0 1090:1.0 1174:1.0 1214:1.0 1282:1.0 1325:1.0 1384:1.0 1406:1.0 1643:1.0 1777:1.0 2124:1.0 2144:1.0 2553:1.0 2649:1.0 2783:1.0 2929:1.0 3146:1.0
-0.025753904803040142 3:1.0 5:1.0 10:1.0 16:1.0 312:1.0 470:1.0 555:1.0 824:1.0 847:1.0 897:1.0 977:1.0 980:1.0 1043:1.0 1046:1.0 1120:1.0 1137:1.0 1155:1.0 1159:1.0 1167:1.0 1214:1.0 1282:1.0 1294:1.0 1315:1.0 1325:1.0 1332:1.0 1385:1.0 1400:1.0 1406:1.0 1440:1.0 1454:1.0 1473:1.0 1674:1.0 1769:1.0 1777:1.0 1941:1.0 2103:1.0 2124:1.0 2144:1.0 2161:1.0 2184:1.0 2330:1.0 2408:1.0 2540:1.0 2553:1.0 2649:1.0 2654:1.0 2741:1.0 2773:1.0 2895:1.0 2929:1.0 2985:1.0 3082:1.0 3109:1.0 3146:1.0 3212:1.0 3221:1.0 3257:1.0 3259:1.0 3264:1.0 3285:1.0 3343:1.0
-3.9541196318368117E-4 22:1.0 126:1.0 127:1.0 389:1.0 415:1.0 485:1.0 854:1.0 891:1.0 966:1.0 1018:1.0 1023:1.0 1111:1.0 1114:1.0 1125:1.0 1160:1.0 1170:1.0 1214:1.0 1282:1.0 1325:1.0 1371:1.0 1383:1.0 1400:1.0 1410:1.0 1448:1.0 1450:1.0 1458:1.0 1686:1.0 1777:1.0 1941:1.0 2124:1.0 2144:1.0 2200:1.0 2364:1.0 2418:1.0 2502:1.0 2522:1.0 2535:1.0 2553:1.0 2649:1.0 2687:1.0 2737:1.0 2767:1.0 2781:1.0 2969:1.0 2970:1.0 3134:1.0 3146:1.0 3202:1.0 3259:1.0
0.034213513001103465 123:1.0 351:1.0 740:1.0 913:1.0 1109:1.0 1167:1.0 1357:1.0 1358:1.0 1400:1.0 2186:1.0 2461:1.0 2513:1.0 2773:1.0 3040:1.0 3146:1.0
0.034213513001103465 40:1.0 346:1.0 351:1.0 355:1.0 409:1.0 416:1.0 489:1.0 495:1.0 631:1.0 672:1.0 749:1.0 913:1.0 1054:1.0 1091:1.0 1109:1.0 1160:1.0 1165:1.0 1167:1.0 1314:1.0 1315:1.0 1357:1.0 1358:1.0 1381:1.0 1389:1.0 1396:1.0 1420:1.0 1450:1.0 2410:1.0 2419:1.0 2461:1.0 2472:1.0 2480:1.0 2517:1.0 2606:1.0 2686:1.0 2717:1.0 2990:1.0 3129:1.0 3145:1.0 3146:1.0
0.034213513001103465 123:1.0 527:1.0 686:1.0 1068:1.0 1357:1.0 1358:1.0 1400:1.0 2461:1.0 2930:1.0 2941:1.0 3146:1.0
-0.02630680524285337 32:1.0 92:1.0 117:1.0 195:1.0 224:1.0 237:1.0 265:1.0 303:1.0 351:1.0 413:1.0 585:1.0 598:1.0 602:1.0 702:1.0 794:1.0 886:1.0 911:1.0 949:1.0 1031:1.0 1032:1.0 1071:1.0 1075:1.0 1109:1.0 1135:1.0 1148:1.0 1155:1.0 1173:1.0 1175:1.0 1189:1.0 1203:1.0 1214:1.0 1232:1.0 1250:1.0 1271:1.0 1283:1.0 1314:1.0 1325:1.0 1358:1.0 1365:1.0 1367:1.0 1392:1.0 1398:1.0 1649:1.0 1769:1.0 1877:1.0 1979:1.0 2004:1.0 2159:1.0 2424:1.0 2461:1.0 2478:1.0 2649:1.0 2716:1.0 2815:1.0 2904:1.0 2932:1.0 2943:1.0 3024:1.0 3065:1.0 3146:1.0 3221:1.0 3252:1.0 3268:1.0 3318:1.0 3324:1.0 3339:1.0
-0.013303172720744837 122:1.0 123:1.0 300:1.0 351:1.0 512:1.0 605:1.0 709:1.0 741:1.0 746:1.0 758:1.0 944:1.0 1109:1.0 1112:1.0 1162:1.0 1169:1.0 1290:1.0 1302:1.0 1313:1.0 1324:1.0 1358:1.0 1400:1.0 1402:1.0 1423:1.0 1810:1.0 2070:1.0 2080:1.0 2221:1.0 2295:1.0 2432:1.0 2461:1.0 2472:1.0 2588:1.0 2749:1.0 2781:1.0 2966:1.0 3039:1.0 3137:1.0 3146:1.0 3221:1.0
-0.003917592647538926 123:1.0 270:1.0 351:1.0 564:1.0 612:1.0 647:1.0 725:1.0 750:1.0 758:1.0 858:1.0 913:1.0 1066:1.0 1109:1.0 1167:1.0 1257:1.0 1267:1.0 1302:1.0 1314:1.0 1324:1.0 1358:1.0 1400:1.0 1455:1.0 1707:1.0 1862:1.0 2202:1.0 2380:1.0 2461:1.0 2540:1.0 2638:1.0 2688:1.0 2966:1.0 3040:1.0 3086:1.0 3146:1.0
-0.034213513001103465 700:1.0 805:1.0 933:1.0 1019:1.0 1264:1.0 1315:1.0 1444:1.0 2009:1.0 2335:1.0 2471:1.0 3146:1.0
-0.034213513001103465 123:1.0 746:1.0 758:1.0 1169:1.0 1302:1.0 1309:1.0 1316:1.0 1358:1.0 1400:1.0 2174:1.0 2202:1.0 2296:1.0 2306:1.0 2472:1.0 2671:1.0 2741:1.0 2781:1.0 2938:1.0 3146:1.0
0.017883628484710534 3:1.0 90:1.0 233:1.0 269:1.0 488:1.0 490:1.0 721:1.0 883:1.0 904:1.0 967:1.0 980:1.0 1023:1.0 1060:1.0 1063:1.0 1066:1.0 1073:1.0 1094:1.0 1108:1.0 1152:1.0 1157:1.0 1217:1.0 1261:1.0 1282:1.0 1310:1.0 1325:1.0 1406:1.0 1430:1.0 1444:1.0 1643:1.0 1777:1.0 1971:1.0 2113:1.0 2124:1.0 2144:1.0 2194:1.0 2364:1.0 2546:1.0 2553:1.0 2569:1.0 2649:1.0 2688:1.0 2970:1.0 3091:1.0 3143:1.0 3146:1.0 3354:1.0
0.034213513001103465 6:1.0 128:1.0 255:1.0 258:1.0 262:1.0 383:1.0 479:1.0 603:1.0 669:1.0 678:1.0 776:1.0 963:1.0 1040:1.0 1075:1.0 1090:1.0 1144:1.0 1156:1.0 1174:1.0 1181:1.0 1199:1.0 1207:1.0 1261:1.0 1282:1.0 1294:1.0 1325:1.0 1384:1.0 1385:1.0 1597:1.0 1708:1.0 1777:1.0 1795:1.0 1881:1.0 1901:1.0 2124:1.0 2144:1.0 2233:1.0 2241:1.0 2246:1.0 2337:1.0 2395:1.0 2408:1.0 2508:1.0 2553:1.0 2620:1.0 2649:1.0 2754:1.0 2934:1.0 2997:1.0 3028:1.0 3146:1.0 3221:1.0 3252:1.0 3268:1.0
0.034213513001103465 5:1.0 309:1.0 430:1.0 478:1.0 603:1.0 624:1.0 634:1.0 716:1.0 793:1.0 863:1.0 1026:1.0 1048:1.0 1075:1.0 1170:1.0 1186:1.0 1207:1.0 1210:1.0 1218:1.0 1230:1.0 1260:1.0 1282:1.0 1325:1.0 1420:1.0 1777:1.0 1881:1.0 1915:1.0 2124:1.0 2144:1.0 2211:1.0 2408:1.0 2443:1.0 2553:1.0 2741:1.0 2898:1.0 2913:1.0 2966:1.0 3057:1.0 3146:1.0 3221:1.0 3347:1.0
0.034213513001103465 13:1.0 113:1.0 553:1.0 645:1.0 693:1.0 729:1.0 805:1.0 907:1.0 980:1.0 996:1.0 1019:1.0 1089:1.0 1210:1.0 1214:1.0 1223:1.0 1282:1.0 1315:1.0 1325:1.0 1343:1.0 1406:1.0 1444:1.0 1739:1.0 1777:1.0 2124:1.0 2144:1.0 2401:1.0 2449:1.0 2540:1.0 2553:1.0 2569:1.0 2641:1.0 2943:1.0 3057:1.0 3068:1.0 3146:1.0 3318:1.0
-0.034213513001103465 26:1.0 230:1.0 392:1.0 545:1.0 617:1.0 805:1.0 857:1.0 1019:1.0 1048:1.0 1083:1.0 1210:1.0 1283:1.0 1315:1.0 1325:1.0 1353:1.0 1367:1.0 1444:1.0 1883:1.0 1976:1.0 2162:1.0 2473:1.0 2540:1.0 2741:1.0 2987:1.0 3057:1.0 3068:1.0 3146:1.0 3312:1.0
-0.034213513001103465 413:1.0 553:1.0 645:1.0 805:1.0 996:1.0 1019:1.0 1031:1.0 1214:1.0 1315:1.0 1325:1.0 1343:1.0 1357:1.0 1444:1.0 1680:1.0 2746:1.0 3146:1.0 3237:1.0 3278:1.0 3315:1.0 3316:1.0
-0.0035413127287203866 1:1.0 93:1.0 452:1.0 480:1.0 928:1.0 1062:1.0 1158:1.0 1200:1.0 1358:1.0 1393:1.0 1663:1.0 2461:1.0 2518:1.0 2687:1.0 3146:1.0 3303:1.0
-0.012761468817005338 225:1.0 295:1.0 1023:1.0 1039:1.0 1283:1.0 1400:1.0 1772:1.0 2208:1.0 3066:1.0 3146:1.0
-0.030241957928766914 52:1.0 907:1.0 980:1.0 1210:1.0 1282:1.0 1325:1.0 1406:1.0 1424:1.0 1486:1.0 1777:1.0 1915:1.0 2124:1.0 2144:1.0 2216:1.0 2408:1.0 2783:1.0 2869:1.0 3146:1.0
0.034213513001103465 5:1.0 152:1.0 265:1.0 277:1.0 434:1.0 538:1.0 621:1.0 670:1.0 695:1.0 753:1.0 812:1.0 833:1.0 847:1.0 886:1.0 919:1.0 1040:1.0 1075:1.0 1109:1.0 1148:1.0 1155:1.0 1203:1.0 1214:1.0 1226:1.0 1230:1.0 1314:1.0 1322:1.0 1325:1.0 1357:1.0 1400:1.0 1402:1.0 1406:1.0 1421:1.0 1435:1.0 1560:1.0 1567:1.0 1649:1.0 1674:1.0 1821:1.0 2073:1.0 2085:1.0 2198:1.0 2221:1.0 2348:1.0 2472:1.0 2526:1.0 2540:1.0 2651:1.0 2898:1.0 2904:1.0 2934:1.0 2943:1.0 2997:1.0 3146:1.0 3191:1.0 3212:1.0 3217:1.0 3221:1.0 3343:1.0
0.023455907286950375 2:1.0 3:1.0 16:1.0 188:1.0 351:1.0 514:1.0 630:1.0 977:1.0 1038:1.0 1071:1.0 1087:1.0 1104:1.0 1109:1.0 1113:1.0 1167:1.0 1237:1.0 1250:1.0 1304:1.0 1315:1.0 1358:1.0 1373:1.0 1400:1.0 1580:1.0 2111:1.0 2229:1.0 2236:1.0 2401:1.0 2461:1.0 2654:1.0 2707:1.0 2918:1.0 3033:1.0 3146:1.0 3191:1.0 3339:1.0
0.034213513001103465 16:1.0 341:1.0 509:1.0 746:1.0 758:1.0 1049:1.0 1157:1.0 1167:1.0 1169:1.0 1216:1.0 1302:1.0 1315:1.0 1358:1.0 2411:1.0 2540:1.0 2741:1.0 2907:1.0 2938:1.0 2959:1.0 3146:1.0 3295:1.0
0.034213513001103465 506:1.0 768:1.0 800:1.0 802:1.0 806:1.0 898:1.0 1104:1.0 1109:1.0 1127:1.0 1157:1.0 1234:1.0 1300:1.0 1315:1.0 1343:1.0 1357:1.0 1400:1.0 1674:1.0 2520:1.0 2540:1.0 2556:1.0 2870:1.0 2952:1.0 3146:1.0 3284:1.0 3345:1.0
0.034213513001103465 123:1.0 399:1.0 773:1.0 1050:1.0 1154:1.0 1283:1.0 1358:1.0 1400:1.0 1883:1.0 2472:1.0 3014:1.0 3057:1.0 3146:1.0
-0.034213513001103465 2:1.0 3:1.0 348:1.0 486:1.0 489:1.0 565:1.0 619:1.0 965:1.0 1017:1.0 1038:1.0 1071:1.0 1072:1.0 1074:1.0 1087:1.0 1117:1.0 1157:1.0 1160:1.0 1226:1.0 1253:1.0 1284:1.0 1314:1.0 1400:1.0 1402:1.0 2006:1.0 2039:1.0 2472:1.0 2687:1.0 2812:1.0 2889:1.0 2911:1.0 2953:1.0 2998:1.0 3077:1.0 3146:1.0 3221:1.0 3284:1.0 3315:1.0
0.025957207617825627 2:1.0 3:1.0 140:1.0 466:1.0 638:1.0 1048:1.0 1087:1.0 1120:1.0 1130:1.0 1164:1.0 1189:1.0 1191:1.0 1226:1.0 1440:1.0 1441:1.0 1517:1.0 1966:1.0 2236:1.0 2654:1.0 2748:1.0 2768:1.0 3061:1.0 3146:1.0 3221:1.0 3298:1.0
-0.0010491135345201815 5:1.0 67:1.0 73:1.0 270:1.0 341:1.0 384:1.0 400:1.0 598:1.0 705:1.0 772:1.0 858:1.0 911:1.0 1024:1.0 1066:1.0 1071:1.0 1084:1.0 1155:1.0 1157:1.0 1160:1.0 1167:1.0 1249:1.0 1250:1.0 1324:1.0 1356:1.0 1358:1.0 1366:1.0 1367:1.0 1391:1.0 1429:1.0 1455:1.0 1769:1.0 2202:1.0 2401:1.0 2459:1.0 2649:1.0 2711:1.0 2876:1.0 2924:1.0 2966:1.0 2976:1.0 3086:1.0 3120:1.0 3146:1.0 3160:1.0 3215:1.0 3221:1.0 3264:1.0
0.0012709636519370306 2:1.0 3:1.0 163:1.0 204:1.0 270:1.0 285:1.0 766:1.0 848:1.0 1016:1.0 1066:1.0 1152:1.0 1224:1.0 1276:1.0 1292:1.0 1358:1.0 1430:1.0 1436:1.0 2094:1.0 2523:1.0 2540:1.0 2970:1.0 3057:1.0 3146:1.0 3315:1.0
-0.01627430519752903 1:1.0 3:1.0 54:1.0 84:1.0 122:1.0 351:1.0 383:1.0 538:1.0 548:1.0 603:1.0 833:1.0 931:1.0 1022:1.0 1062:1.0 1075:1.0 1109:1.0 1207:1.0 1214:1.0 1230:1.0 1251:1.0 1261:1.0 1325:1.0 1332:1.0 1339:1.0 1358:1.0 1366:1.0 1402:1.0 1423:1.0 1857:1.0 1881:1.0 1902:1.0 1939:1.0 2231:1.0 2254:1.0 2370:1.0 2401:1.0 2408:1.0 2522:1.0 2609:1.0 2649:1.0 2674:1.0 2717:1.0 2798:1.0 2934:1.0 2935:1.0 3146:1.0 3218:1.0 3221:1.0 3262:1.0
0.034213513001103465 177:1.0 310:1.0 1090:1.0 1119:1.0 1196:1.0 1283:1.0 1325:1.0 1772:1.0 2208:1.0 2783:1.0 3137:1.0 3146:1.0 3152:1.0
0.034213513001103465 5:1.0 85:1.0 124:1.0 137:1.0 182:1.0 201:1.0 304:1.0 508:1.0 776:1.0 815:1.0 847:1.0 863:1.0 919:1.0 931:1.0 947:1.0 1003:1.0 1020:1.0 1022:1.0 1024:1.0 1071:1.0 1155:1.0 1158:1.0 1167:1.0 1170:1.0 1174:1.0 1195:1.0 1210:1.0 1214:1.0 1236:1.0 1253:1.0 1265:1.0 1268:1.0 1319:1.0 1325:1.0 1337:1.0 1351:1.0 1357:1.0 1406:1.0 1423:1.0 1473:1.0 1643:1.0 1769:1.0 1777:1.0 1941:1.0 1978:1.0 2103:1.0 2163:1.0 2408:1.0 2649:1.0 2657:1.0 2688:1.0 2705:1.0 2741:1.0 2764:1.0 2773:1.0 2783:1.0 2811:1.0 2985:1.0 3109:1.0 3146:1.0 3214:1.0 3221:1.0 3259:1.0
0.034213513001103465 164:1.0 224:1.0 351:1.0 467:1.0 510:1.0 540:1.0 574:1.0 676:1.0 748:1.0 783:1.0 799:1.0 1016:1.0 1040:1.0 1057:1.0 1109:1.0 1132:1.0 1214:1.0 1241:1.0 1261:1.0 1283:1.0 1292:1.0 1325:1.0 1350:1.0 1358:1.0 1394:1.0 1444:1.0 1471:1.0 1839:1.0 1879:1.0 1979:1.0 2001:1.0 2020:1.0 2225:1.0 2410:1.0 2472:1.0 2508:1.0 2649:1.0 2668:1.0 2695:1.0 2783:1.0 2913:1.0 2997:1.0 3146:1.0
0.034213513001103465 1:1.0 133:1.0 427:1.0 663:1.0 781:1.0 851:1.0 966:1.0 1062:1.0 1160:1.0 1210:1.0 1261:1.0 1325:1.0 1370:1.0 1400:1.0 2085:1.0 2741:1.0 2783:1.0 2784:1.0 2987:1.0 3146:1.0
-0.030288980710031367 214:1.0 550:1.0 621:1.0 706:1.0 868:1.0 1040:1.0 1201:1.0 1210:1.0 1283:1.0 1294:1.0 1322:1.0 1325:1.0 1400:1.0 1567:1.0 1615:1.0 1751:1.0 1772:1.0 1826:1.0 2073:1.0 2198:1.0 2208:1.0 2428:1.0 2794:1.0 2966:1.0 2997:1.0 3146:1.0 3191:1.0 3212:1.0
-0.034213513001103465 3:1.0 5:1.0 16:1.0 191:1.0 347:1.0 413:1.0 510:1.0 574:1.0 740:1.0 837:1.0 1031:1.0 1040:1.0 1057:1.0 1167:1.0 1214:1.0 1315:1.0 1325:1.0 1357:1.0 1380:1.0 1415:1.0 1443:1.0 1471:1.0 1502:1.0 1839:1.0 1879:1.0 2060:1.0 2103:1.0 2198:1.0 2597:1.0 2649:1.0 2674:1.0 2773:1.0 2913:1.0 2985:1.0 2997:1.0 3028:1.0 3065:1.0 3146:1.0
-0.031981813942949584 93:1.0 128:1.0 224:1.0 302:1.0 510:1.0 574:1.0 868:1.0 962:1.0 1007:1.0 1040:1.0 1057:1.0 1156:1.0 1214:1.0 1231:1.0 1283:1.0 1294:1.0 1323:1.0 1325:1.0 1358:1.0 1379:1.0 1393:1.0 1414:1.0 1427:1.0 1444:1.0 1452:1.0 1606:1.0 1772:1.0 1841:1.0 1879:1.0 2241:1.0 2405:1.0 2522:1.0 2569:1.0 2913:1.0 2997:1.0 3077:1.0 3146:1.0 3263:1.0 3316:1.0
-0.011328065152199059 224:1.0 510:1.0 574:1.0 653:1.0 899:1.0 1040:1.0 1057:1.0 1188:1.0 1214:1.0 1283:1.0 1325:1.0 1420:1.0 1772:1.0 2198:1.0 2705:1.0 2997:1.0 3088:1.0 3146:1.0 3212:1.0 3316:1.0
-0.034213513001103465 5:1.0 43:1.0 60:1.0 309:1.0 310:1.0 338:1.0 521:1.0 753:1.0 1040:1.0 1044:1.0 1090:1.0 1170:1.0 1196:1.0 1230:1.0 1272:1.0 1283:1.0 1325:1.0 1384:1.0 1514:1.0 1706:1.0 1772:1.0 2208:1.0 2428:1.0 2471:1.0 2649:1.0 2764:1.0 2934:1.0 2970:1.0 2997:1.0 3146:1.0
0.034213513001103465 3:1.0 16:1.0 185:1.0 312:1.0 428:1.0 640:1.0 763:1.0 805:1.0 850:1.0 923:1.0 1019:1.0 1071:1.0 1111:1.0 1167:1.0 1170:1.0 1181:1.0 1196:1.0 1264:1.0 1292:1.0 1315:1.0 1325:1.0 1444:1.0 1674:1.0 1784:1.0 2102:1.0 2205:1.0 2540:1.0 2546:1.0 2911:1.0 2917:1.0 2940:1.0 2969:1.0 3046:1.0 3057:1.0 3068:1.0 3146:1.0 3278:1.0
0.034213513001103465 3:1.0 37:1.0 93:1.0 131:1.0 229:1.0 302:1.0 327:1.0 350:1.0 351:1.0 395:1.0 438:1.0 600:1.0 611:1.0 659:1.0 744:1.0 759:1.0 833:1.0 837:1.0 1013:1.0 1040:1.0 1109:1.0 1135:1.0 1156:1.0 1166:1.0 1170:1.0 1223:1.0 1230:1.0 1231:1.0 1233:1.0 1278:1.0 1283:1.0 1287:1.0 1325:1.0 1353:1.0 1358:1.0 1372:1.0 1375:1.0 1393:1.0 1414:1.0 1415:1.0 1419:1.0 1445:1.0 1451:1.0 1499:1.0 1772:1.0 1831:1.0 1833:1.0 1840:1.0 1843:1.0 2020:1.0 2026:1.0 2196:1.0 2392:1.0 2395:1.0 2401:1.0 2472:1.0 2493:1.0 2651:1.0 2668:1.0 2859:1.0 2869:1.0 2997:1.0 3068:1.0 3146:1.0 3151:1.0 3159:1.0 3164:1.0 3212:1.0 3252:1.0 3278:1.0 3284:1.0 3315:1.0 3316:1.0
0.034213513001103465 463:1.0 562:1.0 966:1.0 1018:1.0 1160:1.0 1172:1.0 1236:1.0 1291:1.0 1323:1.0 1357:1.0 1400:1.0 1427:1.0 2361:1.0 2429:1.0 2472:1.0 3146:1.0
0.034213513001103465 141:1.0 966:1.0 1160:1.0 1282:1.0 1293:1.0 1400:1.0 1777:1.0 2124:1.0 2144:1.0 2408:1.0 2451:1.0 2998:1.0 3146:1.0
-0.011733756449890389 5:1.0 246:1.0 304:1.0 327:1.0 350:1.0 351:1.0 478:1.0 508:1.0 509:1.0 617:1.0 659:1.0 768:1.0 863:1.0 921:1.0 932:1.0 940:1.0 1013:1.0 1104:1.0 1109:1.0 1117:1.0 1127:1.0 1145:1.0 1148:1.0 1157:1.0 1170:1.0 1201:1.0 1210:1.0 1236:1.0 1260:1.0 1287:1.0 1300:1.0 1319:1.0 1325:1.0 1337:1.0 1353:1.0 1357:1.0 1358:1.0 1392:1.0 1400:1.0 1419:1.0 2177:1.0 2222:1.0 2395:1.0 2461:1.0 2523:1.0 2535:1.0 2664:1.0 2741:1.0 2783:1.0 2784:1.0 2823:1.0 2838:1.0 2898:1.0 2918:1.0 2923:1.0 3146:1.0 3172:1.0 3202:1.0 3284:1.0
-0.034213513001103465 20:1.0 150:1.0 227:1.0 588:1.0 630:1.0 824:1.0 966:1.0 1028:1.0 1062:1.0 1100:1.0 1114:1.0 1137:1.0 1140:1.0 1152:1.0 1160:1.0 1167:1.0 1207:1.0 1259:1.0 1268:1.0 1280:1.0 1358:1.0 1400:1.0 2408:1.0 2461:1.0 2609:1.0 2683:1.0 2717:1.0 2783:1.0 2822:1.0 2923:1.0 3146:1.0 3339:1.0 3345:1.0
-0.016866292046390136 5:1.0 11:1.0 53:1.0 216:1.0 701:1.0 1091:1.0 1160:1.0 1241:1.0 1400:1.0 1422:1.0 1484:1.0 1893:1.0 1932:1.0 3146:1.0 3172:1.0
-0.013141537829110515 53:1.0 216:1.0 295:1.0 352:1.0 677:1.0 697:1.0 711:1.0 771:1.0 786:1.0 947:1.0 1023:1.0 1033:1.0 1070:1.0 1091:1.0 1104:1.0 1127:1.0 1160:1.0 1167:1.0 1170:1.0 1241:1.0 1347:1.0 1400:1.0 1422:1.0 1772:1.0 1800:1.0 1862:1.0 2207:1.0 2365:1.0 2408:1.0 2540:1.0 2653:1.0 2688:1.0 3084:1.0 3092:1.0 3146:1.0 3222:1.0 3268:1.0
-1.3433986870308064E-4 5:1.0 121:1.0 255:1.0 413:1.0 489:1.0 621:1.0 647:1.0 687:1.0 716:1.0 783:1.0 792:1.0 871:1.0 996:1.0 1026:1.0 1031:1.0 1040:1.0 1071:1.0 1090:1.0 1155:1.0 1160:1.0 1210:1.0 1214:1.0 1253:1.0 1261:1.0 1314:1.0 1322:1.0 1324:1.0 1325:1.0 1327:1.0 1343:1.0 1384:1.0 1402:1.0 1414:1.0 1567:1.0 1675:1.0 1751:1.0 1759:1.0 1851:1.0 1875:1.0 1980:1.0 2004:1.0 2073:1.0 2138:1.0 2198:1.0 2202:1.0 2649:1.0 2659:1.0 2783:1.0 2798:1.0 2805:1.0 2811:1.0 2898:1.0 2947:1.0 2966:1.0 2997:1.0 3086:1.0 3146:1.0 3191:1.0 3203:1.0 3212:1.0 3221:1.0 3243:1.0 3252:1.0
0.034213513001103465 123:1.0 272:1.0 273:1.0 294:1.0 510:1.0 570:1.0 574:1.0 703:1.0 1040:1.0 1057:1.0 1163:1.0 1214:1.0 1236:1.0 1273:1.0 1325:1.0 1346:1.0 1357:1.0 1358:1.0 1400:1.0 1469:1.0 1471:1.0 1537:1.0 1609:1.0 1825:1.0 1839:1.0 1879:1.0 1946:1.0 2136:1.0 2241:1.0 2461:1.0 2523:1.0 2569:1.0 2649:1.0 2754:1.0 2913:1.0 2997:1.0 3146:1.0
0.034213513001103465 176:1.0 187:1.0 510:1.0 574:1.0 783:1.0 847:1.0 1040:1.0 1043:1.0 1057:1.0 1058:1.0 1090:1.0 1155:1.0 1214:1.0 1261:1.0 1325:1.0 1359:1.0 1471:1.0 1769:1.0 1839:1.0 1879:1.0 2284:1.0 2649:1.0 2783:1.0 2913:1.0 2997:1.0 3137:1.0 3146:1.0 3221:1.0 3253:1.0 3257:1.0
0.034213513001103465 77:1.0 205:1.0 270:1.0 351:1.0 554:1.0 653:1.0 728:1.0 767:1.0 858:1.0 907:1.0 939:1.0 1040:1.0 1066:1.0 1097:1.0 1109:1.0 1188:1.0 1210:1.0 1240:1.0 1325:1.0 1358:1.0 1362:1.0 1381:1.0 1406:1.0 1424:1.0 1455:1.0 1656:1.0 1662:1.0 1785:1.0 1929:1.0 1996:1.0 2241:1.0 2548:1.0 2705:1.0 2754:1.0 2844:1.0 2904:1.0 2997:1.0 3022:1.0 3057:1.0 3146:1.0 3151:1.0 3178:1.0 3179:1.0
0.034213513001103465 224:1.0 931:1.0 1022:1.0 1214:1.0 1283:1.0 1325:1.0 1895:1.0 2157:1.0 2202:1.0 2918:1.0 3146:1.0 3343:1.0
-0.034213513001103465 3:1.0 242:1.0 428:1.0 734:1.0 783:1.0 791:1.0 817:1.0 1040:1.0 1062:1.0 1071:1.0 1082:1.0 1111:1.0 1163:1.0 1230:1.0 1252:1.0 1255:1.0 1261:1.0 1333:1.0 1432:1.0 1444:1.0 1977:1.0 2312:1.0 2546:1.0 2569:1.0 2649:1.0 2735:1.0 2969:1.0 2997:1.0 3091:1.0 3146:1.0 3231:1.0 3284:1.0 3315:1.0
-0.009602218473103608 122:1.0 132:1.0 133:1.0 167:1.0 225:1.0 321:1.0 371:1.0 403:1.0 414:1.0 483:1.0 787:1.0 800:1.0 925:1.0 931:1.0 1022:1.0 1023:1.0 1039:1.0 1092:1.0 1104:1.0 1127:1.0 1135:1.0 1175:1.0 1214:1.0 1261:1.0 1283:1.0 1325:1.0 1332:1.0 1335:1.0 1343:1.0 1358:1.0 1382:1.0 1398:1.0 1402:1.0 1868:1.0 1979:1.0 2004:1.0 2237:1.0 2273:1.0 2374:1.0 2438:1.0 2472:1.0 2649:1.0 2748:1.0 2821:1.0 2857:1.0 3022:1.0 3061:1.0 3066:1.0 3146:1.0 3221:1.0 3286:1.0 3295:1.0
-0.034213513001103465 360:1.0 1200:1.0 1422:1.0 3146:1.0 3184:1.0
-0.034213513001103465 3:1.0 54:1.0 83:1.0 275:1.0 433:1.0 510:1.0 574:1.0 837:1.0 1040:1.0 1057:1.0 1071:1.0 1129:1.0 1214:1.0 1325:1.0 1339:1.0 1362:1.0 1415:1.0 1471:1.0 1839:1.0 1846:1.0 1857:1.0 1879:1.0 1968:1.0 2649:1.0 2674:1.0 2753:1.0 2913:1.0 2929:1.0 2997:1.0 3146:1.0 3259:1.0
-0.019403273768251298 1:1.0 3:1.0 55:1.0 124:1.0 131:1.0 132:1.0 133:1.0 262:1.0 269:1.0 326:1.0 400:1.0 427:1.0 489:1.0 781:1.0 1041:1.0 1062:1.0 1073:1.0 1140:1.0 1157:1.0 1160:1.0 1166:1.0 1195:1.0 1210:1.0 1251:1.0 1261:1.0 1314:1.0 1325:1.0 1332:1.0 1346:1.0 1385:1.0 1451:1.0 1808:1.0 1978:1.0 2085:1.0 2184:1.0 2472:1.0 2569:1.0 2649:1.0 2674:1.0 2741:1.0 2783:1.0 2798:1.0 2929:1.0 2934:1.0 3146:1.0 3189:1.0 3214:1.0 3221:1.0 3264:1.0 3288:1.0 3316:1.0
0.034213513001103465 3:1.0 5:1.0 175:1.0 195:1.0 416:1.0 489:1.0 539:1.0 835:1.0 977:1.0 1003:1.0 1114:1.0 1126:1.0 1160:1.0 1167:1.0 1251:1.0 1268:1.0 1271:1.0 1283:1.0 1314:1.0 1315:1.0 1400:1.0 1979:1.0 2049:1.0 2378:1.0 2432:1.0 2461:1.0 2486:1.0 2668:1.0 2773:1.0 2898:1.0 3053:1.0 3146:1.0 3189:1.0 3318:1.0
0.034213513001103465 5:1.0 175:1.0 203:1.0 977:1.0 1114:1.0 1315:1.0 1400:1.0 1422:1.0 2452:1.0 2710:1.0 2864:1.0 3146:1.0
-0.034213513001103465 224:1.0 794:1.0 1018:1.0 1025:1.0 1214:1.0 1271:1.0 1283:1.0 1325:1.0 1979:1.0 2556:1.0 2866:1.0 3146:1.0 3318:1.0 3346:1.0
-0.013166868514711614 5:1.0 124:1.0 186:1.0 356:1.0 443:1.0 687:1.0 778:1.0 937:1.0 960:1.0 977:1.0 987:1.0 989:1.0 1026:1.0 1066:1.0 1071:1.0 1089:1.0 1173:1.0 1195:1.0 1210:1.0 1249:1.0 1262:1.0 1315:1.0 1325:1.0 1357:1.0 1389:1.0 1400:1.0 1455:1.0 1845:1.0 2418:1.0 2531:1.0 2608:1.0 2645:1.0 2675:1.0 2741:1.0 2773:1.0 2783:1.0 2966:1.0 2969:1.0 3028:1.0 3146:1.0
-0.021329407929621954 5:1.0 195:1.0 224:1.0 794:1.0 862:1.0 1214:1.0 1257:1.0 1271:1.0 1283:1.0 1285:1.0 1314:1.0 1325:1.0 1729:1.0 1952:1.0 1979:1.0 1990:1.0 2461:1.0 2638:1.0 2918:1.0 3146:1.0 3318:1.0
-0.004033506044207227 129:1.0 224:1.0 351:1.0 844:1.0 898:1.0 916:1.0 996:1.0 1109:1.0 1214:1.0 1283:1.0 1325:1.0 1337:1.0 1343:1.0 1358:1.0 1388:1.0 1400:1.0 1772:1.0 1813:1.0 2461:1.0 2575:1.0 2680:1.0 2734:1.0 2741:1.0 3146:1.0 3316:1.0 3339:1.0
-0.034213513001103465 2:1.0 3:1.0 633:1.0 1212:1.0 1276:1.0 1312:1.0 2094:1.0 3146:1.0 3315:1.0
0.034213513001103465 123:1.0 317:1.0 321:1.0 370:1.0 490:1.0 1072:1.0 1152:1.0 1157:1.0 1190:1.0 1236:1.0 1325:1.0 1335:1.0 1357:1.0 1358:1.0 1397:1.0 1400:1.0 1426:1.0 2406:1.0 2411:1.0 2464:1.0 2522:1.0 2649:1.0 2733:1.0 2797:1.0 2812:1.0 2889:1.0 3101:1.0 3146:1.0
0.024279562445670307 3:1.0 233:1.0 308:1.0 490:1.0 571:1.0 721:1.0 743:1.0 768:1.0 783:1.0 791:1.0 1023:1.0 1040:1.0 1062:1.0 1108:1.0 1152:1.0 1157:1.0 1163:1.0 1255:1.0 1261:1.0 1325:1.0 1400:1.0 1535:1.0 2113:1.0 2312:1.0 2364:1.0 2649:1.0 2734:1.0 2910:1.0 2997:1.0 3087:1.0 3111:1.0 3146:1.0 3315:1.0
0.034213513001103465 230:1.0 400:1.0 450:1.0 608:1.0 768:1.0 1062:1.0 1083:1.0 1111:1.0 1157:1.0 1160:1.0 1190:1.0 1255:1.0 1325:1.0 1355:1.0 1400:1.0 2676:1.0 2688:1.0 2969:1.0 3098:1.0 3146:1.0 3293:1.0 3315:1.0 3316:1.0
0.034213513001103465 3:1.0 94:1.0 310:1.0 507:1.0 1071:1.0 1152:1.0 1196:1.0 1252:1.0 1283:1.0 1320:1.0 1325:1.0 1400:1.0 1432:1.0 1573:1.0 1713:1.0 1732:1.0 1772:1.0 2649:1.0 2916:1.0 2963:1.0 3042:1.0 3146:1.0 3316:1.0 3342:1.0
-0.0034848545876459518 3:1.0 13:1.0 37:1.0 56:1.0 123:1.0 131:1.0 156:1.0 351:1.0 400:1.0 526:1.0 528:1.0 544:1.0 600:1.0 609:1.0 693:1.0 729:1.0 735:1.0 742:1.0 760:1.0 863:1.0 1019:1.0 1072:1.0 1106:1.0 1109:1.0 1118:1.0 1143:1.0 1157:1.0 1160:1.0 1166:1.0 1170:1.0 1178:1.0 1210:1.0 1223:1.0 1231:1.0 1274:1.0 1283:1.0 1311:1.0 1315:1.0 1322:1.0 1325:1.0 1358:1.0 1400:1.0 1412:1.0 1414:1.0 1439:1.0 1451:1.0 1499:1.0 1772:1.0 1833:1.0 1917:1.0 2053:1.0 2073:1.0 2186:1.0 2268:1.0 2401:1.0 2461:1.0 2493:1.0 2502:1.0 2504:1.0 2522:1.0 2535:1.0 2540:1.0 2569:1.0 2589:1.0 2701:1.0 2735:1.0 2751:1.0 2773:1.0 2966:1.0 2997:1.0 3057:1.0 3146:1.0 3191:1.0 3192:1.0 3316:1.0 3322:1.0
-0.034213513001103465 255:1.0 310:1.0 342:1.0 490:1.0 621:1.0 783:1.0 918:1.0 1000:1.0 1040:1.0 1090:1.0 1152:1.0 1196:1.0 1261:1.0 1283:1.0 1322:1.0 1325:1.0 1384:1.0 1409:1.0 1715:1.0 1883:1.0 1889:1.0 2073:1.0 2083:1.0 2405:1.0 2473:1.0 2649:1.0 2970:1.0 2997:1.0 3057:1.0 3146:1.0 3191:1.0 3342:1.0
-0.014413563977075263 20:1.0 48:1.0 128:1.0 130:1.0 277:1.0 308:1.0 313:1.0 341:1.0 400:1.0 489:1.0 543:1.0 549:1.0 557:1.0 575:1.0 588:1.0 644:1.0 647:1.0 783:1.0 821:1.0 1003:1.0 1028:1.0 1033:1.0 1040:1.0 1064:1.0 1066:1.0 1108:1.0 1109:1.0 1114:1.0 1156:1.0 1157:1.0 1160:1.0 1167:1.0 1260:1.0 1261:1.0 1268:1.0 1280:1.0 1314:1.0 1324:1.0 1391:1.0 1455:1.0 1792:1.0 1819:1.0 1892:1.0 2202:1.0 2401:1.0 2502:1.0 2624:1.0 2666:1.0 2783:1.0 2861:1.0 2877:1.0 2923:1.0 2932:1.0 2976:1.0 2997:1.0 3040:1.0 3086:1.0 3146:1.0 3215:1.0 3248:1.0 3273:1.0 3278:1.0 3353:1.0
-0.0030599257473074397 21:1.0 230:1.0 318:1.0 376:1.0 621:1.0 670:1.0 695:1.0 962:1.0 1040:1.0 1083:1.0 1148:1.0 1179:1.0 1214:1.0 1233:1.0 1270:1.0 1282:1.0 1322:1.0 1325:1.0 1393:1.0 1420:1.0 1421:1.0 1560:1.0 1579:1.0 1777:1.0 1805:1.0 2073:1.0 2115:1.0 2124:1.0 2144:1.0 2161:1.0 2343:1.0 2348:1.0 2553:1.0 2651:1.0 2943:1.0 2997:1.0 3141:1.0 3146:1.0 3151:1.0 3191:1.0 3192:1.0 3268:1.0 3290:1.0
-0.03291747795548239 3:1.0 41:1.0 93:1.0 131:1.0 229:1.0 329:1.0 351:1.0 509:1.0 768:1.0 833:1.0 882:1.0 962:1.0 1012:1.0 1040:1.0 1051:1.0 1069:1.0 1109:1.0 1125:1.0 1157:1.0 1166:1.0 1204:1.0 1230:1.0 1358:1.0 1393:1.0 1400:1.0 1451:1.0 1680:1.0 1793:1.0 1940:1.0 2020:1.0 2472:1.0 2522:1.0 2615:1.0 2649:1.0 2668:1.0 2754:1.0 2848:1.0 2948:1.0 3066:1.0 3146:1.0 3155:1.0 3222:1.0 3288:1.0
0.034213513001103465 186:1.0 188:1.0 462:1.0 515:1.0 861:1.0 1066:1.0 1109:1.0 1312:1.0 1357:1.0 1373:1.0 1431:1.0 1437:1.0 1455:1.0 1786:1.0 1810:1.0 2427:1.0 2804:1.0 2805:1.0 2966:1.0 3146:1.0 3284:1.0
0.034213513001103465 23:1.0 58:1.0 705:1.0 1324:1.0 1358:1.0 1394:1.0 1444:1.0 2202:1.0 2461:1.0 3146:1.0
0.034213513001103465 9:1.0 503:1.0 631:1.0 691:1.0 797:1.0 822:1.0 877:1.0 1013:1.0 1054:1.0 1175:1.0 1302:1.0 1314:1.0 1324:1.0 1398:1.0 1416:1.0 1420:1.0 1867:1.0 2102:1.0 2296:1.0 2461:1.0 2501:1.0 2741:1.0 2816:1.0 2987:1.0 3146:1.0 3284:1.0 3334:1.0
-0.007065845558582054 21:1.0 230:1.0 329:1.0 351:1.0 416:1.0 489:1.0 509:1.0 702:1.0 758:1.0 768:1.0 913:1.0 949:1.0 988:1.0 1048:1.0 1083:1.0 1109:1.0 1125:1.0 1148:1.0 1157:1.0 1160:1.0 1167:1.0 1173:1.0 1214:1.0 1302:1.0 1314:1.0 1325:1.0 1358:1.0 1392:1.0 1400:1.0 1403:1.0 1422:1.0 1707:1.0 1866:1.0 1990:1.0 2199:1.0 2461:1.0 2471:1.0 2556:1.0 2649:1.0 2842:1.0 2893:1.0 2903:1.0 2918:1.0 2966:1.0 3009:1.0 3032:1.0 3081:1.0 3146:1.0 3339:1.0
-0.034213513001103465 2:1.0 3:1.0 123:1.0 998:1.0 1030:1.0 1045:1.0 1358:1.0 1400:1.0 1819:1.0 2094:1.0 2213:1.0 2472:1.0 2622:1.0 3146:1.0 3315:1.0
-0.029637322795699753 5:1.0 101:1.0 805:1.0 869:1.0 1019:1.0 1268:1.0 1315:1.0 1324:1.0 1341:1.0 1381:1.0 1439:1.0 1444:1.0 2295:1.0 2432:1.0 2657:1.0 2898:1.0 3032:1.0 3146:1.0 3169:1.0
-0.034213513001103465 5:1.0 462:1.0 697:1.0 913:1.0 1010:1.0 1109:1.0 1167:1.0 1241:1.0 1281:1.0 1312:1.0 2311:1.0 2410:1.0 2805:1.0 2853:1.0 2898:1.0 3146:1.0 3284:1.0
-0.001939169197622102 16:1.0 93:1.0 129:1.0 184:1.0 214:1.0 344:1.0 351:1.0 416:1.0 422:1.0 444:1.0 526:1.0 588:1.0 618:1.0 684:1.0 764:1.0 913:1.0 916:1.0 962:1.0 1014:1.0 1040:1.0 1109:1.0 1133:1.0 1160:1.0 1167:1.0 1175:1.0 1210:1.0 1223:1.0 1268:1.0 1274:1.0 1283:1.0 1315:1.0 1325:1.0 1337:1.0 1358:1.0 1388:1.0 1391:1.0 1393:1.0 1394:1.0 1398:1.0 1772:1.0 1792:1.0 2208:1.0 2273:1.0 2406:1.0 2424:1.0 2428:1.0 2443:1.0 2461:1.0 2472:1.0 2520:1.0 2633:1.0 2741:1.0 2773:1.0 2830:1.0 2893:1.0 2997:1.0 3022:1.0 3102:1.0 3146:1.0 3278:1.0 3339:1.0
0.034109543908518156 6:1.0 51:1.0 93:1.0 224:1.0 252:1.0 371:1.0 509:1.0 620:1.0 623:1.0 769:1.0 830:1.0 832:1.0 1070:1.0 1071:1.0 1090:1.0 1157:1.0 1174:1.0 1197:1.0 1214:1.0 1283:1.0 1325:1.0 1332:1.0 1358:1.0 1384:1.0 1393:1.0 1402:1.0 1505:1.0 1913:1.0 1979:1.0 2021:1.0 2080:1.0 2115:1.0 2337:1.0 2508:1.0 2523:1.0 2649:1.0 2852:1.0 2932:1.0 2969:1.0 3146:1.0 3221:1.0 3268:1.0 3318:1.0
0.034213513001103465 3:1.0 5:1.0 92:1.0 93:1.0 95:1.0 131:1.0 229:1.0 278:1.0 395:1.0 410:1.0 611:1.0 1031:1.0 1166:1.0 1230:1.0 1325:1.0 1358:1.0 1372:1.0 1393:1.0 1436:1.0 1442:1.0 1451:1.0 1526:1.0 1619:1.0 1703:1.0 1708:1.0 1847:1.0 1850:1.0 2019:1.0 2115:1.0 2328:1.0 2644:1.0 2649:1.0 2703:1.0 2716:1.0 2801:1.0 3146:1.0 3268:1.0 3288:1.0 3315:1.0 3316:1.0
0.034213513001103465 60:1.0 93:1.0 123:1.0 962:1.0 1040:1.0 1044:1.0 1358:1.0 1393:1.0 1400:1.0 1422:1.0 1777:1.0 1816:1.0 2178:1.0 2397:1.0 2522:1.0 2883:1.0 2997:1.0 3146:1.0 3165:1.0
0.034213513001103465 11:1.0 53:1.0 224:1.0 588:1.0 616:1.0 701:1.0 996:1.0 1091:1.0 1160:1.0 1214:1.0 1241:1.0 1268:1.0 1283:1.0 1325:1.0 1343:1.0 1400:1.0 1590:1.0 1638:1.0 1941:1.0 1979:1.0 2408:1.0 2579:1.0 2939:1.0 3146:1.0 3252:1.0 3259:1.0 3278:1.0 3318:1.0
-0.010121396889554468 3:1.0 30:1.0 44:1.0 93:1.0 122:1.0 123:1.0 131:1.0 256:1.0 272:1.0 302:1.0 371:1.0 489:1.0 570:1.0 571:1.0 640:1.0 680:1.0 703:1.0 791:1.0 792:1.0 965:1.0 1040:1.0 1155:1.0 1156:1.0 1160:1.0 1163:1.0 1166:1.0 1170:1.0 1264:1.0 1273:1.0 1314:1.0 1325:1.0 1332:1.0 1358:1.0 1393:1.0 1400:1.0 1402:1.0 1451:1.0 1591:1.0 1772:1.0 1821:1.0 1825:1.0 1951:1.0 1954:1.0 2041:1.0 2178:1.0 2204:1.0 2221:1.0 2461:1.0 2472:1.0 2493:1.0 2597:1.0 2620:1.0 2649:1.0 2734:1.0 2997:1.0 3035:1.0 3120:1.0 3146:1.0 3160:1.0 3203:1.0 3206:1.0 3221:1.0 3315:1.0 3343:1.0
-0.034213513001103465 3:1.0 77:1.0 224:1.0 470:1.0 1066:1.0 1159:1.0 1214:1.0 1283:1.0 1325:1.0 1424:1.0 1440:1.0 1455:1.0 1590:1.0 1941:1.0 1979:1.0 2649:1.0 2654:1.0 3093:1.0 3146:1.0 3197:1.0 3259:1.0
-9.469412426763821E-4 59:1.0 92:1.0 128:1.0 177:1.0 259:1.0 310:1.0 351:1.0 404:1.0 440:1.0 585:1.0 669:1.0 771:1.0 785:1.0 963:1.0 1023:1.0 1031:1.0 1040:1.0 1090:1.0 1109:1.0 1119:1.0 1134:1.0 1144:1.0 1152:1.0 1156:1.0 1158:1.0 1168:1.0 1170:1.0 1175:1.0 1181:1.0 1196:1.0 1283:1.0 1325:1.0 1342:1.0 1347:1.0 1358:1.0 1365:1.0 1384:1.0 1398:1.0 1412:1.0 1701:1.0 1772:1.0 2208:1.0 2246:1.0 2307:1.0 2364:1.0 2408:1.0 2424:1.0 2428:1.0 2441:1.0 2633:1.0 2716:1.0 2717:1.0 2744:1.0 2783:1.0 2843:1.0 2893:1.0 2997:1.0 3023:1.0 3028:1.0 3061:1.0 3146:1.0 3182:1.0 3252:1.0 3278:1.0 3284:1.0
-0.010956782791156902 272:1.0 296:1.0 310:1.0 509:1.0 710:1.0 768:1.0 912:1.0 1096:1.0 1157:1.0 1196:1.0 1273:1.0 1283:1.0 1325:1.0 1358:1.0 1400:1.0 1417:1.0 1662:1.0 2178:1.0 2407:1.0 2472:1.0 2550:1.0 2841:1.0 2997:1.0 3146:1.0 3318:1.0 3344:1.0
-0.0060388666645501115 93:1.0 503:1.0 509:1.0 583:1.0 686:1.0 718:1.0 768:1.0 864:1.0 962:1.0 1027:1.0 1040:1.0 1054:1.0 1068:1.0 1157:1.0 1175:1.0 1179:1.0 1357:1.0 1358:1.0 1393:1.0 1398:1.0 1400:1.0 2461:1.0 2472:1.0 2490:1.0 2853:1.0 2941:1.0 2997:1.0 3060:1.0 3075:1.0 3081:1.0 3146:1.0 3347:1.0
0.034213513001103465 3:1.0 5:1.0 16:1.0 152:1.0 630:1.0 763:1.0 789:1.0 805:1.0 1019:1.0 1167:1.0 1224:1.0 1269:1.0 1315:1.0 1357:1.0 1358:1.0 1402:1.0 1444:1.0 1502:1.0 2007:1.0 2060:1.0 2085:1.0 2103:1.0 2674:1.0 2773:1.0 2985:1.0 3146:1.0 3221:1.0
0.034213513001103465 3:1.0 149:1.0 520:1.0 700:1.0 879:1.0 933:1.0 1019:1.0 1166:1.0 1264:1.0 1294:1.0 1315:1.0 1390:1.0 1391:1.0 1454:1.0 1772:1.0 2204:1.0 2569:1.0 2934:1.0 3146:1.0 3285:1.0 3287:1.0 3288:1.0
0.034213513001103465 1:1.0 217:1.0 245:1.0 352:1.0 462:1.0 523:1.0 800:1.0 898:1.0 1033:1.0 1062:1.0 1104:1.0 1109:1.0 1127:1.0 1160:1.0 1244:1.0 1312:1.0 1343:1.0 1907:1.0 2276:1.0 2522:1.0 2895:1.0 3144:1.0 3146:1.0 3278:1.0 3285:1.0 3315:1.0
0.034213513001103465 356:1.0 977:1.0 1262:1.0 1264:1.0 1315:1.0 1400:1.0 1845:1.0 2773:1.0 3146:1.0 3218:1.0 3322:1.0
0.034213513001103465 774:1.0 1036:1.0 1062:1.0 1307:1.0 1353:1.0 1578:1.0 1772:1.0 2061:1.0 2209:1.0 3146:1.0 3184:1.0 3284:1.0 3315:1.0
-0.008706770441313476 295:1.0 441:1.0 688:1.0 771:1.0 836:1.0 1023:1.0 1062:1.0 1125:1.0 1170:1.0 1254:1.0 1347:1.0 1381:1.0 1400:1.0 1426:1.0 1653:1.0 1721:1.0 2224:1.0 2364:1.0 2705:1.0 2719:1.0 3146:1.0 3273:1.0 3304:1.0
-0.034213513001103465 16:1.0 463:1.0 476:1.0 562:1.0 630:1.0 658:1.0 758:1.0 763:1.0 945:1.0 959:1.0 1019:1.0 1060:1.0 1081:1.0 1167:1.0 1236:1.0 1302:1.0 1315:1.0 1323:1.0 1357:1.0 1358:1.0 1427:1.0 1444:1.0 1707:1.0 2355:1.0 2461:1.0 2569:1.0 2688:1.0 2773:1.0 2850:1.0 2966:1.0 3146:1.0
-0.0179467140873775 621:1.0 706:1.0 770:1.0 837:1.0 1040:1.0 1060:1.0 1081:1.0 1201:1.0 1236:1.0 1322:1.0 1357:1.0 1415:1.0 1615:1.0 1826:1.0 2073:1.0 2245:1.0 2307:1.0 2569:1.0 2744:1.0 2966:1.0 2997:1.0 3146:1.0 3191:1.0
-0.034213513001103465 3:1.0 859:1.0 899:1.0 1166:1.0 1188:1.0 1420:1.0 1442:1.0 1703:1.0 2744:1.0 2924:1.0 3146:1.0 3315:1.0
-0.034213513001103465 3:1.0 463:1.0 563:1.0 595:1.0 857:1.0 977:1.0 1104:1.0 1128:1.0 1173:1.0 1180:1.0 1236:1.0 1315:1.0 1321:1.0 1353:1.0 1357:1.0 1400:1.0 1427:1.0 1443:1.0 1802:1.0 2495:1.0 2668:1.0 2674:1.0 2741:1.0 2872:1.0 2953:1.0 3013:1.0 3146:1.0 3266:1.0
0.0021348107475784436 30:1.0 369:1.0 468:1.0 489:1.0 606:1.0 621:1.0 747:1.0 776:1.0 966:1.0 984:1.0 1040:1.0 1062:1.0 1160:1.0 1174:1.0 1190:1.0 1207:1.0 1258:1.0 1314:1.0 1322:1.0 1325:1.0 1369:1.0 1393:1.0 1400:1.0 1466:1.0 1777:1.0 1824:1.0 1878:1.0 1945:1.0 2073:1.0 2098:1.0 2408:1.0 2472:1.0 2649:1.0 2735:1.0 2881:1.0 2997:1.0 3014:1.0 3065:1.0 3146:1.0 3191:1.0 3315:1.0
0.034213513001103465 52:1.0 214:1.0 1210:1.0 1283:1.0 1325:1.0 1424:1.0 1883:1.0 3057:1.0 3113:1.0 3146:1.0
0.034213513001103465 3:1.0 310:1.0 790:1.0 1196:1.0 1202:1.0 1283:1.0 1325:1.0 2205:1.0 2222:1.0 2473:1.0 2546:1.0 3146:1.0
-0.034213513001103465 1:1.0 3:1.0 133:1.0 195:1.0 217:1.0 245:1.0 455:1.0 489:1.0 781:1.0 835:1.0 966:1.0 1033:1.0 1062:1.0 1126:1.0 1142:1.0 1160:1.0 1244:1.0 1261:1.0 1271:1.0 1314:1.0 1325:1.0 1400:1.0 1687:1.0 2043:1.0 2067:1.0 2257:1.0 2286:1.0 2395:1.0 2461:1.0 2486:1.0 2508:1.0 2637:1.0 2847:1.0 3084:1.0 3144:1.0 3146:1.0 3164:1.0 3315:1.0
-0.02350420980748855 24:1.0 51:1.0 351:1.0 608:1.0 672:1.0 747:1.0 852:1.0 911:1.0 940:1.0 966:1.0 1061:1.0 1062:1.0 1071:1.0 1104:1.0 1109:1.0 1128:1.0 1160:1.0 1174:1.0 1219:1.0 1258:1.0 1300:1.0 1332:1.0 1355:1.0 1358:1.0 1367:1.0 1393:1.0 1396:1.0 1400:1.0 1423:1.0 1568:1.0 1627:1.0 1632:1.0 1674:1.0 1875:1.0 1982:1.0 2051:1.0 2140:1.0 2186:1.0 2395:1.0 2457:1.0 2461:1.0 2542:1.0 2556:1.0 2571:1.0 2595:1.0 2706:1.0 2773:1.0 2846:1.0 2939:1.0 3146:1.0 3163:1.0 3221:1.0 3315:1.0
-0.034213513001103465 3:1.0 790:1.0 1058:1.0 1150:1.0 1196:1.0 1202:1.0 1325:1.0 1856:1.0 2205:1.0 2546:1.0 2844:1.0 3057:1.0 3146:1.0
-0.034213513001103465 51:1.0 93:1.0 123:1.0 165:1.0 623:1.0 1062:1.0 1070:1.0 1071:1.0 1258:1.0 1358:1.0 1393:1.0 1400:1.0 2276:1.0 2522:1.0 2947:1.0 3077:1.0 3146:1.0 3302:1.0 3315:1.0
-0.034213513001103465 165:1.0 412:1.0 623:1.0 1062:1.0 1070:1.0 1071:1.0 1200:1.0 1244:1.0 1258:1.0 1332:1.0 1418:1.0 1933:1.0 2276:1.0 2491:1.0 2570:1.0 2969:1.0 3146:1.0 3212:1.0 3221:1.0 3315:1.0
0.034213513001103465 211:1.0 334:1.0 977:1.0 1029:1.0 1315:1.0 1357:1.0 1358:1.0 1396:1.0 1400:1.0 1412:1.0 2668:1.0 2675:1.0 2801:1.0 2869:1.0 3146:1.0
0.034213513001103465 2:1.0 3:1.0 36:1.0 295:1.0 373:1.0 464:1.0 771:1.0 1023:1.0 1045:1.0 1060:1.0 1095:1.0 1123:1.0 1170:1.0 1217:1.0 1310:1.0 1347:1.0 1373:1.0 1400:1.0 1735:1.0 2094:1.0 2355:1.0 2970:1.0 3033:1.0 3146:1.0 3277:1.0 3315:1.0 3339:1.0 3353:1.0
-0.027555672421486307 3:1.0 131:1.0 224:1.0 278:1.0 295:1.0 373:1.0 420:1.0 464:1.0 609:1.0 622:1.0 771:1.0 890:1.0 996:1.0 1023:1.0 1031:1.0 1106:1.0 1143:1.0 1166:1.0 1170:1.0 1214:1.0 1262:1.0 1283:1.0 1325:1.0 1343:1.0 1347:1.0 1373:1.0 1400:1.0 1451:1.0 1772:1.0 2026:1.0 2212:1.0 2493:1.0 2513:1.0 2688:1.0 2716:1.0 2723:1.0 3057:1.0 3146:1.0 3212:1.0 3243:1.0 3284:1.0 3316:1.0 3339:1.0 3354:1.0
-0.034213513001103465 295:1.0 640:1.0 751:1.0 771:1.0 1023:1.0 1170:1.0 1264:1.0 1347:1.0 1400:1.0 1726:1.0 2364:1.0 2773:1.0 3146:1.0 3252:1.0
-0.034213513001103465 147:1.0 547:1.0 966:1.0 1101:1.0 1160:1.0 1400:1.0 1422:1.0 2085:1.0 3146:1.0
-0.034213513001103465 588:1.0 740:1.0 966:1.0 1003:1.0 1160:1.0 1167:1.0 1268:1.0 1357:1.0 1400:1.0 2385:1.0 2571:1.0 2668:1.0 3090:1.0 3146:1.0
-0.034213513001103465 216:1.0 966:1.0 1160:1.0 1400:1.0 1422:1.0 2676:1.0 3023:1.0 3146:1.0
0.034213513001103465 209:1.0 396:1.0 818:1.0 920:1.0 1051:1.0 1071:1.0 1090:1.0 1181:1.0 1188:1.0 1207:1.0 1240:1.0 1438:1.0 1680:1.0 2408:1.0 2717:1.0 2744:1.0 2754:1.0 3028:1.0 3066:1.0 3109:1.0 3146:1.0
0.034213513001103465 1058:1.0 1420:1.0 2284:1.0 2887:1.0 3146:1.0 3257:1.0
0.034213513001103465 176:1.0 604:1.0 1043:1.0 1058:1.0 1290:1.0 1420:1.0 1972:1.0 2887:1.0 3146:1.0 3221:1.0 3320:1.0
0.034213513001103465 969:1.0 1236:1.0 1357:1.0 1444:1.0 2355:1.0 3146:1.0
0.034213513001103465 304:1.0 416:1.0 417:1.0 608:1.0 826:1.0 1135:1.0 1160:1.0 1167:1.0 1189:1.0 1236:1.0 1319:1.0 1355:1.0 1357:1.0 2215:1.0 2401:1.0 2659:1.0 2741:1.0 2768:1.0 3023:1.0 3061:1.0 3132:1.0 3146:1.0
-0.034213513001103465 176:1.0 208:1.0 1043:1.0 1058:1.0 1176:1.0 1200:1.0 2284:1.0 3146:1.0 3184:1.0 3221:1.0 3257:1.0
-0.034213513001103465 180:1.0 1036:1.0 1058:1.0 2284:1.0 3146:1.0 3257:1.0
-9.881651189795E-4 1046:1.0 1077:1.0 1234:1.0 1357:1.0 1444:1.0 1750:1.0 1918:1.0 2447:1.0 3146:1.0
-0.034213513001103465 180:1.0 1036:1.0 1058:1.0 1972:1.0 3146:1.0 3320:1.0
-0.034213513001103465 98:1.0 176:1.0 1043:1.0 1058:1.0 1173:1.0 1206:1.0 1332:1.0 1436:1.0 1948:1.0 2540:1.0 2744:1.0 3066:1.0 3146:1.0 3221:1.0
0.034213513001103465 51:1.0 83:1.0 93:1.0 588:1.0 630:1.0 966:1.0 1003:1.0 1071:1.0 1160:1.0 1167:1.0 1268:1.0 1358:1.0 1362:1.0 1393:1.0 1400:1.0 1772:1.0 1908:1.0 2149:1.0 2207:1.0 2429:1.0 2472:1.0 2712:1.0 2749:1.0 2773:1.0 3146:1.0 3212:1.0
0.034213513001103465 216:1.0 966:1.0 1160:1.0 1400:1.0 1422:1.0 2648:1.0 3093:1.0 3146:1.0
0.034213513001103465 288:1.0 421:1.0 509:1.0 547:1.0 599:1.0 758:1.0 831:1.0 966:1.0 1062:1.0 1068:1.0 1101:1.0 1157:1.0 1160:1.0 1302:1.0 1307:1.0 1314:1.0 1358:1.0 1400:1.0 1772:1.0 2173:1.0 2209:1.0 2450:1.0 2472:1.0 2480:1.0 2522:1.0 2571:1.0 3146:1.0 3315:1.0
0.034213513001103465 295:1.0 640:1.0 751:1.0 771:1.0 1023:1.0 1170:1.0 1264:1.0 1347:1.0 1400:1.0 1777:1.0 2128:1.0 2364:1.0 2401:1.0 3146:1.0 3295:1.0
-0.004838016704226112 3:1.0 83:1.0 160:1.0 226:1.0 270:1.0 315:1.0 336:1.0 559:1.0 569:1.0 858:1.0 964:1.0 1066:1.0 1070:1.0 1071:1.0 1199:1.0 1201:1.0 1207:1.0 1220:1.0 1294:1.0 1318:1.0 1329:1.0 1334:1.0 1358:1.0 1362:1.0 1404:1.0 1454:1.0 1455:1.0 1777:1.0 1852:1.0 1960:1.0 2079:1.0 2408:1.0 2461:1.0 2491:1.0 2597:1.0 2735:1.0 2966:1.0 3146:1.0 3237:1.0 3286:1.0 3303:1.0 3332:1.0
-0.033141995194451206 216:1.0 966:1.0 1160:1.0 1400:1.0 1422:1.0 2572:1.0 3120:1.0 3146:1.0
-0.01749078360712061 214:1.0 415:1.0 716:1.0 981:1.0 1026:1.0 1034:1.0 1160:1.0 1210:1.0 1283:1.0 1325:1.0 1371:1.0 1444:1.0 1772:1.0 2032:1.0 2208:1.0 2428:1.0 2669:1.0 2741:1.0 3109:1.0 3146:1.0
-0.034213513001103465 16:1.0 115:1.0 363:1.0 434:1.0 582:1.0 630:1.0 758:1.0 907:1.0 977:1.0 1075:1.0 1167:1.0 1210:1.0 1302:1.0 1315:1.0 1325:1.0 1358:1.0 1362:1.0 1400:1.0 1406:1.0 1423:1.0 1543:1.0 1712:1.0 1829:1.0 1881:1.0 1965:1.0 2306:1.0 2408:1.0 2472:1.0 2618:1.0 2741:1.0 2773:1.0 2794:1.0 3057:1.0 3146:1.0 3221:1.0 3303:1.0
-0.029919546387002803 123:1.0 351:1.0 752:1.0 1109:1.0 1264:1.0 1358:1.0 1400:1.0 1761:1.0 1792:1.0 2472:1.0 3146:1.0 3181:1.0 3278:1.0
0.034213513001103465 3:1.0 790:1.0 1058:1.0 1150:1.0 1196:1.0 1202:1.0 1325:1.0 2108:1.0 2284:1.0 2546:1.0 2649:1.0 3146:1.0 3257:1.0
0.034213513001103465 180:1.0 1036:1.0 1058:1.0 3146:1.0 3184:1.0
0.034213513001103465 6:1.0 10:1.0 131:1.0 137:1.0 229:1.0 230:1.0 309:1.0 521:1.0 525:1.0 571:1.0 847:1.0 903:1.0 1083:1.0 1090:1.0 1116:1.0 1155:1.0 1163:1.0 1166:1.0 1170:1.0 1174:1.0 1214:1.0 1220:1.0 1230:1.0 1289:1.0 1325:1.0 1362:1.0 1384:1.0 1385:1.0 1428:1.0 1445:1.0 1451:1.0 1697:1.0 1712:1.0 1719:1.0 1769:1.0 2224:1.0 2492:1.0 2649:1.0 2662:1.0 2716:1.0 2744:1.0 2919:1.0 2927:1.0 2969:1.0 2997:1.0 3032:1.0 3057:1.0 3146:1.0 3221:1.0 3288:1.0
0.034213513001103465 3:1.0 551:1.0 665:1.0 1058:1.0 1200:1.0 1326:1.0 1371:1.0 2284:1.0 2654:1.0 2766:1.0 3146:1.0 3257:1.0
-0.025874117864240823 119:1.0 1362:1.0 1420:1.0 1777:1.0 2124:1.0 2844:1.0 3146:1.0
-0.034213513001103465 21:1.0 230:1.0 376:1.0 453:1.0 620:1.0 623:1.0 881:1.0 1058:1.0 1070:1.0 1071:1.0 1083:1.0 1090:1.0 1214:1.0 1253:1.0 1270:1.0 1325:1.0 1384:1.0 1458:1.0 2284:1.0 2783:1.0 2904:1.0 2943:1.0 2951:1.0 3146:1.0 3257:1.0 3277:1.0 3290:1.0 3343:1.0
-0.0027379026288014714 128:1.0 160:1.0 620:1.0 623:1.0 640:1.0 678:1.0 703:1.0 854:1.0 1040:1.0 1070:1.0 1071:1.0 1156:1.0 1163:1.0 1170:1.0 1214:1.0 1264:1.0 1294:1.0 1325:1.0 1681:1.0 1847:1.0 2021:1.0 2115:1.0 2245:1.0 2271:1.0 2281:1.0 2310:1.0 2508:1.0 2805:1.0 2969:1.0 2997:1.0 3053:1.0 3146:1.0 3268:1.0 3303:1.0 3316:1.0
-0.034213513001103465 247:1.0 1058:1.0 1065:1.0 1491:1.0 2265:1.0 2284:1.0 3315:1.0
0.034213513001103465 78:1.0 83:1.0 123:1.0 156:1.0 351:1.0 497:1.0 547:1.0 689:1.0 804:1.0 839:1.0 1033:1.0 1071:1.0 1101:1.0 1109:1.0 1160:1.0 1161:1.0 1250:1.0 1356:1.0 1358:1.0 1362:1.0 1400:1.0 1410:1.0 1412:1.0 1563:1.0 1712:1.0 1729:1.0 1862:1.0 2011:1.0 2013:1.0 2385:1.0 2461:1.0 2479:1.0 2540:1.0 2781:1.0 2918:1.0 3144:1.0 3146:1.0 3303:1.0
0.02312656191451233 2:1.0 3:1.0 35:1.0 123:1.0 189:1.0 351:1.0 448:1.0 459:1.0 630:1.0 913:1.0 1071:1.0 1087:1.0 1109:1.0 1167:1.0 1252:1.0 1320:1.0 1340:1.0 1358:1.0 1400:1.0 1837:1.0 1912:1.0 2159:1.0 2399:1.0 2461:1.0 2675:1.0 2716:1.0 2970:1.0 3146:1.0 3284:1.0 3315:1.0
0.034213513001103465 2:1.0 3:1.0 27:1.0 323:1.0 489:1.0 584:1.0 619:1.0 630:1.0 892:1.0 932:1.0 966:1.0 1001:1.0 1045:1.0 1114:1.0 1117:1.0 1160:1.0 1167:1.0 1180:1.0 1314:1.0 1327:1.0 1358:1.0 1370:1.0 1400:1.0 1753:1.0 1887:1.0 2439:1.0 2472:1.0 2556:1.0 2582:1.0 2814:1.0 2882:1.0 2940:1.0 2948:1.0 2966:1.0 3041:1.0 3146:1.0 3278:1.0
0.034213513001103465 5:1.0 48:1.0 50:1.0 115:1.0 434:1.0 663:1.0 704:1.0 812:1.0 863:1.0 892:1.0 919:1.0 996:1.0 1075:1.0 1098:1.0 1109:1.0 1114:1.0 1170:1.0 1210:1.0 1214:1.0 1226:1.0 1313:1.0 1325:1.0 1343:1.0 1362:1.0 1370:1.0 1400:1.0 1406:1.0 1423:1.0 1439:1.0 1498:1.0 1617:1.0 1649:1.0 1656:1.0 1662:1.0 1698:1.0 1784:1.0 1819:1.0 1941:1.0 2100:1.0 2185:1.0 2311:1.0 2414:1.0 2458:1.0 2649:1.0 2844:1.0 2898:1.0 2904:1.0 2907:1.0 2935:1.0 2987:1.0 3057:1.0 3146:1.0 3221:1.0 3259:1.0 3284:1.0
0.018718661983703668 13:1.0 15:1.0 93:1.0 264:1.0 270:1.0 351:1.0 378:1.0 405:1.0 442:1.0 511:1.0 672:1.0 962:1.0 1019:1.0 1040:1.0 1062:1.0 1066:1.0 1096:1.0 1109:1.0 1173:1.0 1223:1.0 1307:1.0 1315:1.0 1316:1.0 1358:1.0 1391:1.0 1393:1.0 1396:1.0 1456:1.0 1475:1.0 1586:1.0 1626:1.0 1707:1.0 1772:1.0 2072:1.0 2149:1.0 2198:1.0 2209:1.0 2290:1.0 2421:1.0 2426:1.0 2472:1.0 2537:1.0 2540:1.0 2781:1.0 2997:1.0 3146:1.0 3190:1.0 3212:1.0 3278:1.0 3315:1.0
-4.727852934533619E-4 83:1.0 211:1.0 283:1.0 351:1.0 402:1.0 491:1.0 564:1.0 588:1.0 612:1.0 676:1.0 822:1.0 913:1.0 929:1.0 966:1.0 970:1.0 992:1.0 1071:1.0 1109:1.0 1160:1.0 1167:1.0 1246:1.0 1247:1.0 1257:1.0 1267:1.0 1268:1.0 1302:1.0 1314:1.0 1358:1.0 1362:1.0 1374:1.0 1394:1.0 1396:1.0 1400:1.0 1412:1.0 1427:1.0 1478:1.0 1582:1.0 1674:1.0 1707:1.0 1723:1.0 1777:1.0 1862:1.0 1987:1.0 2179:1.0 2201:1.0 2461:1.0 2505:1.0 2540:1.0 2556:1.0 2609:1.0 2638:1.0 2665:1.0 2815:1.0 2966:1.0 3015:1.0 3071:1.0 3146:1.0 3296:1.0 3339:1.0
-0.034213513001103465 2:1.0 3:1.0 246:1.0 1025:1.0 1087:1.0 1104:1.0 1121:1.0 1127:1.0 1148:1.0 1392:1.0 1401:1.0 1440:1.0 2236:1.0 2438:1.0 3146:1.0 3258:1.0 3268:1.0 3303:1.0
-0.005890432975278169 1:1.0 5:1.0 524:1.0 543:1.0 547:1.0 689:1.0 748:1.0 781:1.0 896:1.0 1016:1.0 1033:1.0 1062:1.0 1101:1.0 1160:1.0 1261:1.0 1268:1.0 1292:1.0 1391:1.0 2494:1.0 2764:1.0 3107:1.0 3144:1.0 3146:1.0 3339:1.0
-0.005270796280025377 3:1.0 65:1.0 76:1.0 137:1.0 224:1.0 337:1.0 496:1.0 903:1.0 1025:1.0 1071:1.0 1102:1.0 1116:1.0 1143:1.0 1174:1.0 1214:1.0 1283:1.0 1325:1.0 1451:1.0 1772:1.0 1916:1.0 2491:1.0 2493:1.0 2649:1.0 2947:1.0 3146:1.0 3212:1.0 3296:1.0 3316:1.0
-0.034213513001103465 2:1.0 3:1.0 123:1.0 998:1.0 1030:1.0 1045:1.0 1358:1.0 1400:1.0 2094:1.0 2229:1.0 2461:1.0 2550:1.0 3146:1.0 3315:1.0
0.034213513001103465 1:1.0 6:1.0 16:1.0 133:1.0 414:1.0 435:1.0 624:1.0 708:1.0 884:1.0 988:1.0 1038:1.0 1048:1.0 1062:1.0 1125:1.0 1143:1.0 1167:1.0 1214:1.0 1261:1.0 1315:1.0 1325:1.0 1420:1.0 1948:1.0 2316:1.0 2337:1.0 2406:1.0 2508:1.0 2556:1.0 2649:1.0 2787:1.0 2913:1.0 3066:1.0 3076:1.0 3146:1.0 3163:1.0 3278:1.0
0.034213513001103465 1:1.0 322:1.0 586:1.0 959:1.0 1007:1.0 1062:1.0 1294:1.0 1323:1.0 1427:1.0 1444:1.0 1452:1.0 2569:1.0 3146:1.0 3315:1.0
0.034213513001103465 1058:1.0 1420:1.0 2284:1.0 3146:1.0 3257:1.0
0.034213513001103465 545:1.0 624:1.0 1048:1.0 1283:1.0 1367:1.0 1420:1.0 2157:1.0 2202:1.0 2469:1.0 2781:1.0 3146:1.0 3213:1.0
0.034213513001103465 22:1.0 181:1.0 464:1.0 521:1.0 1023:1.0 1058:1.0 1071:1.0 1090:1.0 1125:1.0 1170:1.0 1242:1.0 1253:1.0 1260:1.0 1373:1.0 1384:1.0 2212:1.0 2284:1.0 2688:1.0 2711:1.0 2723:1.0 2966:1.0 3146:1.0 3315:1.0 3339:1.0 3354:1.0
-0.03195173768648073 291:1.0 521:1.0 545:1.0 598:1.0 704:1.0 911:1.0 1071:1.0 1090:1.0 1170:1.0 1250:1.0 1283:1.0 1343:1.0 1367:1.0 1384:1.0 2157:1.0 2160:1.0 2202:1.0 2469:1.0 2748:1.0 2749:1.0 2798:1.0 3105:1.0 3146:1.0
-0.028209158498333907 267:1.0 405:1.0 604:1.0 671:1.0 685:1.0 1014:1.0 1032:1.0 1062:1.0 1173:1.0 1259:1.0 1290:1.0 1315:1.0 1420:1.0 2304:1.0 2692:1.0 2716:1.0 3141:1.0 3146:1.0 3221:1.0
-0.024641454509196567 1:1.0 604:1.0 748:1.0 781:1.0 1016:1.0 1062:1.0 1261:1.0 1290:1.0 1292:1.0 1420:1.0 1435:1.0 1636:1.0 1835:1.0 2196:1.0 2798:1.0 3146:1.0 3221:1.0 3284:1.0 3312:1.0 3315:1.0
-0.034213513001103465 1:1.0 6:1.0 145:1.0 279:1.0 682:1.0 721:1.0 781:1.0 1001:1.0 1023:1.0 1062:1.0 1090:1.0 1108:1.0 1167:1.0 1238:1.0 1261:1.0 1327:1.0 1541:1.0 2276:1.0 2337:1.0 2364:1.0 2723:1.0 3028:1.0 3146:1.0 3181:1.0 3315:1.0 3320:1.0
0.034213513001103465 3:1.0 123:1.0 324:1.0 656:1.0 758:1.0 961:1.0 1055:1.0 1180:1.0 1302:1.0 1358:1.0 1362:1.0 1400:1.0 1463:1.0 1684:1.0 1712:1.0 1720:1.0 2296:1.0 2461:1.0 2550:1.0 2674:1.0 2741:1.0 3032:1.0 3146:1.0
0.034213513001103465 127:1.0 129:1.0 437:1.0 1200:1.0 1282:1.0 1288:1.0 1358:1.0 1388:1.0 1450:1.0 1777:1.0 2124:1.0 2144:1.0 2161:1.0 2461:1.0 2553:1.0 2688:1.0 2741:1.0 3146:1.0 3184:1.0
0.034213513001103465 216:1.0 966:1.0 1160:1.0 1400:1.0 1422:1.0 1777:1.0 2852:1.0 3146:1.0
0.034213513001103465 216:1.0 966:1.0 1160:1.0 1400:1.0 1422:1.0 3075:1.0 3117:1.0 3146:1.0
-0.034213513001103465 216:1.0 966:1.0 1160:1.0 1400:1.0 1422:1.0 2614:1.0 2688:1.0 3146:1.0
-0.0035512912534534156 1:1.0 123:1.0 217:1.0 245:1.0 351:1.0 523:1.0 565:1.0 585:1.0 744:1.0 780:1.0 798:1.0 1017:1.0 1033:1.0 1040:1.0 1062:1.0 1074:1.0 1106:1.0 1109:1.0 1143:1.0 1160:1.0 1174:1.0 1240:1.0 1244:1.0 1265:1.0 1278:1.0 1284:1.0 1358:1.0 1365:1.0 1375:1.0 1400:1.0 1732:1.0 1749:1.0 1819:1.0 2020:1.0 2410:1.0 2447:1.0 2472:1.0 2649:1.0 2668:1.0 2811:1.0 2852:1.0 2929:1.0 2935:1.0 2997:1.0 3040:1.0 3144:1.0 3146:1.0 3163:1.0 3284:1.0
-0.034213513001103465 429:1.0 588:1.0 966:1.0 1160:1.0 1223:1.0 1236:1.0 1268:1.0 1357:1.0 1400:1.0 2456:1.0 2896:1.0 3146:1.0 3278:1.0 3313:1.0
-0.034213513001103465 127:1.0 194:1.0 260:1.0 437:1.0 795:1.0 1104:1.0 1127:1.0 1200:1.0 1282:1.0 1356:1.0 1358:1.0 1396:1.0 1450:1.0 1777:1.0 2124:1.0 2144:1.0 2161:1.0 2380:1.0 2461:1.0 2553:1.0 2571:1.0 2918:1.0 3146:1.0
-0.0010349805332278683 3:1.0 21:1.0 44:1.0 88:1.0 93:1.0 131:1.0 175:1.0 230:1.0 240:1.0 256:1.0 269:1.0 328:1.0 488:1.0 640:1.0 660:1.0 721:1.0 782:1.0 906:1.0 1021:1.0 1023:1.0 1083:1.0 1090:1.0 1108:1.0 1114:1.0 1124:1.0 1155:1.0 1166:1.0 1170:1.0 1211:1.0 1214:1.0 1261:1.0 1264:1.0 1315:1.0 1325:1.0 1330:1.0 1358:1.0 1382:1.0 1393:1.0 1433:1.0 1451:1.0 1591:1.0 1769:1.0 1772:1.0 1861:1.0 1954:1.0 2204:1.0 2317:1.0 2364:1.0 2398:1.0 2423:1.0 2518:1.0 2523:1.0 2649:1.0 2688:1.0 2716:1.0 2932:1.0 3007:1.0 3028:1.0 3146:1.0 3221:1.0 3286:1.0 3315:1.0
0.034213513001103465 1:1.0 6:1.0 133:1.0 255:1.0 414:1.0 510:1.0 574:1.0 781:1.0 783:1.0 1040:1.0 1057:1.0 1062:1.0 1090:1.0 1214:1.0 1261:1.0 1325:1.0 1384:1.0 1471:1.0 1541:1.0 1839:1.0 1879:1.0 2276:1.0 2337:1.0 2351:1.0 2508:1.0 2649:1.0 2798:1.0 2913:1.0 2997:1.0 3146:1.0 3160:1.0
