SVM-light Version V6.01
0 # kernel type
3 # kernel parameter -d
1.0 # kernel parameter -g
1.0 # kernel parameter -s
0.0 # kernel parameter -r
empty# kernel parameter -u
3354 # highest feature index
1388 # number of training documents
808 # number of support vectors plus 1
0.8116899660409264 # threshold b, each following line is a SV (starting with alpha*y)
-0.027372859183885104 551:1.0 620:1.0 934:1.0 1058:1.0 1070:1.0 1150:1.0 1200:1.0 1214:1.0 1325:1.0 1371:1.0 2176:1.0 2284:1.0 2491:1.0 2967:1.0 3032:1.0 3146:1.0 3257:1.0 3316:1.0
0.034213513001103465 5:1.0 104:1.0 564:1.0 647:1.0 750:1.0 1125:1.0 1257:1.0 1267:1.0 1314:1.0 1324:1.0 1420:1.0 2202:1.0 2469:1.0 2553:1.0 3086:1.0 3146:1.0 3218:1.0
-0.020163073563489335 5:1.0 14:1.0 35:1.0 89:1.0 230:1.0 302:1.0 364:1.0 472:1.0 576:1.0 626:1.0 644:1.0 684:1.0 754:1.0 850:1.0 868:1.0 897:1.0 947:1.0 965:1.0 1014:1.0 1040:1.0 1058:1.0 1064:1.0 1067:1.0 1083:1.0 1153:1.0 1156:1.0 1160:1.0 1162:1.0 1167:1.0 1170:1.0 1196:1.0 1229:1.0 1290:1.0 1294:1.0 1315:1.0 1325:1.0 1328:1.0 1340:1.0 1358:1.0 1391:1.0 1402:1.0 1438:1.0 1440:1.0 1656:1.0 1662:1.0 1788:1.0 1940:1.0 2103:1.0 2294:1.0 2303:1.0 2361:1.0 2364:1.0 2368:1.0 2381:1.0 2460:1.0 2464:1.0 2472:1.0 2490:1.0 2558:1.0 2615:1.0 2646:1.0 2773:1.0 2783:1.0 2787:1.0 2844:1.0 2985:1.0 2997:1.0 3046:1.0 3109:1.0 3146:1.0 3182:1.0 3221:1.0 3296:1.0 3302:1.0 3316:1.0
-0.034213513001103465 969:1.0 1236:1.0 1357:1.0 1444:1.0 3146:1.0 3298:1.0
0.015209719120157337 5:1.0 16:1.0 564:1.0 612:1.0 647:1.0 750:1.0 763:1.0 945:1.0 959:1.0 1019:1.0 1167:1.0 1257:1.0 1267:1.0 1314:1.0 1315:1.0 1323:1.0 1324:1.0 1427:1.0 1444:1.0 1601:1.0 1952:1.0 2202:1.0 2355:1.0 2540:1.0 3086:1.0 3146:1.0 3172:1.0 3180:1.0 3306:1.0
0.034213513001103465 351:1.0 509:1.0 740:1.0 768:1.0 913:1.0 1109:1.0 1157:1.0 1167:1.0 1357:1.0 1358:1.0 1400:1.0 1964:1.0 2114:1.0 2345:1.0 2472:1.0 2688:1.0 2748:1.0 3146:1.0 3218:1.0 3352:1.0
0.034213513001103465 360:1.0 1200:1.0 1422:1.0 3146:1.0
0.023285072097243776 5:1.0 22:1.0 137:1.0 155:1.0 224:1.0 354:1.0 394:1.0 481:1.0 533:1.0 666:1.0 690:1.0 828:1.0 854:1.0 922:1.0 950:1.0 996:1.0 1016:1.0 1020:1.0 1023:1.0 1025:1.0 1032:1.0 1033:1.0 1071:1.0 1125:1.0 1160:1.0 1162:1.0 1170:1.0 1174:1.0 1214:1.0 1249:1.0 1283:1.0 1292:1.0 1325:1.0 1331:1.0 1333:1.0 1343:1.0 1356:1.0 1371:1.0 1428:1.0 1683:1.0 1875:1.0 1895:1.0 1900:1.0 1954:1.0 2049:1.0 2157:1.0 2202:1.0 2224:1.0 2364:1.0 2469:1.0 2631:1.0 2649:1.0 2767:1.0 2898:1.0 2918:1.0 2997:1.0 3032:1.0 3053:1.0 3088:1.0 3093:1.0 3137:1.0 3146:1.0 3164:1.0 3185:1.0 3221:1.0 3287:1.0 3290:1.0 3343:1.0
0.034213513001103465 1:1.0 412:1.0 708:1.0 1062:1.0 1143:1.0 1200:1.0 1244:1.0 1948:1.0 2480:1.0 3066:1.0 3146:1.0 3212:1.0
0.034213513001103465 3:1.0 5:1.0 89:1.0 310:1.0 489:1.0 498:1.0 966:1.0 1160:1.0 1196:1.0 1283:1.0 1314:1.0 1325:1.0 1340:1.0 1400:1.0 1883:1.0 1922:1.0 2081:1.0 2205:1.0 2472:1.0 2473:1.0 2546:1.0 3043:1.0 3093:1.0 3146:1.0
0.022226749736288295 5:1.0 67:1.0 73:1.0 270:1.0 341:1.0 384:1.0 400:1.0 598:1.0 705:1.0 772:1.0 858:1.0 911:1.0 1024:1.0 1066:1.0 1071:1.0 1084:1.0 1155:1.0 1157:1.0 1160:1.0 1167:1.0 1249:1.0 1250:1.0 1324:1.0 1356:1.0 1358:1.0 1366:1.0 1367:1.0 1391:1.0 1429:1.0 1455:1.0 1769:1.0 2202:1.0 2401:1.0 2459:1.0 2649:1.0 2711:1.0 2876:1.0 2924:1.0 2966:1.0 2976:1.0 3086:1.0 3120:1.0 3146:1.0 3160:1.0 3215:1.0 3221:1.0 3264:1.0
-0.010149753957385757 32:1.0 140:1.0 219:1.0 466:1.0 700:1.0 933:1.0 1019:1.0 1118:1.0 1130:1.0 1135:1.0 1175:1.0 1191:1.0 1226:1.0 1264:1.0 1315:1.0 1395:1.0 1441:1.0 1444:1.0 2401:1.0 2668:1.0 2713:1.0 2768:1.0 3061:1.0 3146:1.0 3221:1.0 3298:1.0
-0.034213513001103465 5:1.0 89:1.0 310:1.0 489:1.0 498:1.0 966:1.0 1160:1.0 1196:1.0 1283:1.0 1314:1.0 1325:1.0 1340:1.0 1400:1.0 1715:1.0 1883:1.0 1889:1.0 1971:1.0 2194:1.0 2473:1.0 2764:1.0 2932:1.0 2970:1.0 3033:1.0 3146:1.0
-0.009789612490030911 5:1.0 353:1.0 616:1.0 919:1.0 980:1.0 996:1.0 1200:1.0 1214:1.0 1268:1.0 1282:1.0 1325:1.0 1343:1.0 1406:1.0 1643:1.0 1777:1.0 2124:1.0 2144:1.0 2553:1.0 2649:1.0 2898:1.0 2943:1.0 3146:1.0 3184:1.0
-0.009567997481489865 277:1.0 489:1.0 740:1.0 913:1.0 966:1.0 1109:1.0 1160:1.0 1167:1.0 1314:1.0 1357:1.0 1400:1.0 1723:1.0 2472:1.0 2609:1.0 2683:1.0 2929:1.0 3146:1.0 3339:1.0
0.0017887962698200715 3:1.0 5:1.0 53:1.0 92:1.0 103:1.0 106:1.0 122:1.0 137:1.0 182:1.0 325:1.0 337:1.0 380:1.0 413:1.0 434:1.0 625:1.0 705:1.0 716:1.0 721:1.0 788:1.0 798:1.0 820:1.0 871:1.0 889:1.0 906:1.0 919:1.0 1021:1.0 1023:1.0 1026:1.0 1031:1.0 1066:1.0 1071:1.0 1075:1.0 1091:1.0 1098:1.0 1108:1.0 1116:1.0 1125:1.0 1155:1.0 1174:1.0 1191:1.0 1210:1.0 1214:1.0 1226:1.0 1241:1.0 1261:1.0 1278:1.0 1324:1.0 1325:1.0 1358:1.0 1375:1.0 1400:1.0 1402:1.0 1406:1.0 1414:1.0 1423:1.0 1440:1.0 1441:1.0 1456:1.0 1686:1.0 1701:1.0 1751:1.0 1875:1.0 1881:1.0 1915:1.0 2138:1.0 2221:1.0 2228:1.0 2364:1.0 2408:1.0 2461:1.0 2493:1.0 2503:1.0 2569:1.0 2688:1.0 2749:1.0 2754:1.0 2783:1.0 2805:1.0 2844:1.0 2934:1.0 2966:1.0 2974:1.0 2997:1.0 3134:1.0 3146:1.0 3154:1.0 3221:1.0 3252:1.0 3259:1.0 3316:1.0
0.023635730798941382 3:1.0 5:1.0 23:1.0 44:1.0 93:1.0 138:1.0 157:1.0 184:1.0 202:1.0 329:1.0 420:1.0 441:1.0 465:1.0 560:1.0 598:1.0 620:1.0 688:1.0 771:1.0 838:1.0 854:1.0 911:1.0 1009:1.0 1023:1.0 1031:1.0 1048:1.0 1070:1.0 1071:1.0 1083:1.0 1125:1.0 1146:1.0 1166:1.0 1170:1.0 1214:1.0 1250:1.0 1271:1.0 1325:1.0 1347:1.0 1358:1.0 1362:1.0 1367:1.0 1381:1.0 1382:1.0 1393:1.0 1394:1.0 1444:1.0 1952:1.0 1975:1.0 1982:1.0 2055:1.0 2315:1.0 2364:1.0 2461:1.0 2471:1.0 2493:1.0 2615:1.0 2624:1.0 2711:1.0 2806:1.0 3011:1.0 3032:1.0 3082:1.0 3134:1.0 3142:1.0 3146:1.0 3178:1.0 3268:1.0 3303:1.0 3316:1.0 3354:1.0
0.026791055043155806 3:1.0 15:1.0 30:1.0 144:1.0 157:1.0 164:1.0 185:1.0 250:1.0 277:1.0 290:1.0 302:1.0 311:1.0 334:1.0 343:1.0 351:1.0 428:1.0 489:1.0 655:1.0 688:1.0 765:1.0 792:1.0 811:1.0 839:1.0 850:1.0 853:1.0 880:1.0 912:1.0 962:1.0 965:1.0 973:1.0 1033:1.0 1040:1.0 1067:1.0 1071:1.0 1090:1.0 1096:1.0 1104:1.0 1109:1.0 1111:1.0 1115:1.0 1121:1.0 1155:1.0 1156:1.0 1160:1.0 1170:1.0 1177:1.0 1196:1.0 1249:1.0 1277:1.0 1292:1.0 1314:1.0 1315:1.0 1325:1.0 1358:1.0 1362:1.0 1381:1.0 1384:1.0 1393:1.0 1401:1.0 1402:1.0 1412:1.0 1417:1.0 1428:1.0 1440:1.0 1544:1.0 1706:1.0 1792:1.0 1805:1.0 1875:1.0 2048:1.0 2138:1.0 2183:1.0 2315:1.0 2395:1.0 2444:1.0 2472:1.0 2480:1.0 2490:1.0 2504:1.0 2539:1.0 2651:1.0 2773:1.0 2783:1.0 2893:1.0 2907:1.0 2916:1.0 2960:1.0 2970:1.0 2985:1.0 2997:1.0 2998:1.0 3028:1.0 3146:1.0 3152:1.0 3178:1.0 3190:1.0 3221:1.0 3268:1.0 3278:1.0 3286:1.0 3303:1.0 3324:1.0 3339:1.0
-0.023898004669326272 2:1.0 3:1.0 5:1.0 90:1.0 168:1.0 181:1.0 475:1.0 516:1.0 1023:1.0 1066:1.0 1071:1.0 1087:1.0 1227:1.0 1242:1.0 1247:1.0 1260:1.0 1415:1.0 1837:1.0 2055:1.0 2364:1.0 2548:1.0 2624:1.0 2688:1.0 3146:1.0 3315:1.0
0.016625281759967855 3:1.0 59:1.0 102:1.0 114:1.0 131:1.0 224:1.0 280:1.0 315:1.0 326:1.0 329:1.0 342:1.0 346:1.0 436:1.0 437:1.0 542:1.0 577:1.0 583:1.0 653:1.0 662:1.0 673:1.0 688:1.0 695:1.0 718:1.0 744:1.0 748:1.0 836:1.0 850:1.0 1016:1.0 1023:1.0 1040:1.0 1068:1.0 1083:1.0 1091:1.0 1125:1.0 1148:1.0 1152:1.0 1156:1.0 1166:1.0 1170:1.0 1175:1.0 1179:1.0 1188:1.0 1196:1.0 1214:1.0 1261:1.0 1278:1.0 1283:1.0 1292:1.0 1325:1.0 1329:1.0 1330:1.0 1336:1.0 1358:1.0 1366:1.0 1375:1.0 1381:1.0 1391:1.0 1398:1.0 1421:1.0 1450:1.0 1451:1.0 1458:1.0 1500:1.0 1527:1.0 1772:1.0 1901:1.0 2025:1.0 2027:1.0 2153:1.0 2229:1.0 2274:1.0 2291:1.0 2307:1.0 2354:1.0 2364:1.0 2395:1.0 2397:1.0 2408:1.0 2472:1.0 2501:1.0 2744:1.0 2783:1.0 2932:1.0 2946:1.0 2963:1.0 2967:1.0 2978:1.0 2997:1.0 3023:1.0 3146:1.0 3196:1.0 3202:1.0 3238:1.0 3255:1.0 3278:1.0 3279:1.0 3284:1.0 3288:1.0 3312:1.0 3316:1.0 3324:1.0 3343:1.0 3344:1.0
-0.010456792586672578 3:1.0 5:1.0 48:1.0 137:1.0 191:1.0 291:1.0 306:1.0 355:1.0 457:1.0 460:1.0 473:1.0 490:1.0 499:1.0 510:1.0 545:1.0 560:1.0 574:1.0 581:1.0 598:1.0 601:1.0 620:1.0 624:1.0 704:1.0 748:1.0 783:1.0 796:1.0 911:1.0 976:1.0 991:1.0 1016:1.0 1027:1.0 1040:1.0 1047:1.0 1048:1.0 1057:1.0 1070:1.0 1071:1.0 1078:1.0 1091:1.0 1103:1.0 1109:1.0 1114:1.0 1123:1.0 1152:1.0 1167:1.0 1170:1.0 1174:1.0 1184:1.0 1188:1.0 1195:1.0 1214:1.0 1244:1.0 1250:1.0 1261:1.0 1273:1.0 1283:1.0 1292:1.0 1314:1.0 1315:1.0 1325:1.0 1343:1.0 1367:1.0 1375:1.0 1414:1.0 1420:1.0 1443:1.0 1606:1.0 1772:1.0 1825:1.0 1841:1.0 1851:1.0 1879:1.0 1898:1.0 1929:1.0 1940:1.0 1941:1.0 2022:1.0 2147:1.0 2163:1.0 2398:1.0 2415:1.0 2461:1.0 2512:1.0 2546:1.0 2615:1.0 2649:1.0 2674:1.0 2676:1.0 2705:1.0 2743:1.0 2754:1.0 2783:1.0 2898:1.0 2904:1.0 2913:1.0 2919:1.0 2946:1.0 2966:1.0 2997:1.0 3032:1.0 3042:1.0 3128:1.0 3137:1.0 3146:1.0 3243:1.0 3259:1.0 3261:1.0 3278:1.0 3284:1.0 3290:1.0 3316:1.0
-0.03193560298179336 5:1.0 94:1.0 110:1.0 137:1.0 227:1.0 259:1.0 310:1.0 342:1.0 366:1.0 399:1.0 460:1.0 490:1.0 542:1.0 556:1.0 627:1.0 688:1.0 692:1.0 704:1.0 773:1.0 776:1.0 809:1.0 814:1.0 852:1.0 854:1.0 911:1.0 991:1.0 996:1.0 1047:1.0 1050:1.0 1071:1.0 1090:1.0 1091:1.0 1100:1.0 1152:1.0 1154:1.0 1170:1.0 1174:1.0 1196:1.0 1207:1.0 1214:1.0 1252:1.0 1283:1.0 1325:1.0 1343:1.0 1358:1.0 1367:1.0 1381:1.0 1384:1.0 1710:1.0 1713:1.0 1722:1.0 1772:1.0 1851:1.0 1882:1.0 1894:1.0 2030:1.0 2315:1.0 2408:1.0 2472:1.0 2532:1.0 2649:1.0 2749:1.0 2808:1.0 2827:1.0 2898:1.0 3103:1.0 3138:1.0 3146:1.0 3178:1.0 3243:1.0 3259:1.0 3262:1.0 3316:1.0 3342:1.0 3354:1.0
-0.03273980361683019 5:1.0 137:1.0 142:1.0 155:1.0 224:1.0 245:1.0 292:1.0 434:1.0 481:1.0 485:1.0 538:1.0 560:1.0 620:1.0 687:1.0 716:1.0 791:1.0 796:1.0 854:1.0 891:1.0 907:1.0 966:1.0 1023:1.0 1026:1.0 1040:1.0 1048:1.0 1070:1.0 1071:1.0 1075:1.0 1114:1.0 1160:1.0 1163:1.0 1170:1.0 1174:1.0 1210:1.0 1214:1.0 1244:1.0 1283:1.0 1325:1.0 1331:1.0 1371:1.0 1400:1.0 1402:1.0 1406:1.0 1772:1.0 1790:1.0 1881:1.0 1915:1.0 1940:1.0 2040:1.0 2156:1.0 2216:1.0 2364:1.0 2408:1.0 2512:1.0 2548:1.0 2615:1.0 2767:1.0 2783:1.0 2887:1.0 2898:1.0 2913:1.0 2947:1.0 2967:1.0 2969:1.0 2997:1.0 3036:1.0 3146:1.0 3221:1.0 3287:1.0 3296:1.0 3316:1.0
-0.009708935931371716 123:1.0 746:1.0 758:1.0 1169:1.0 1302:1.0 1309:1.0 1316:1.0 1358:1.0 1400:1.0 2174:1.0 2202:1.0 2296:1.0 2306:1.0 2472:1.0 2671:1.0 2741:1.0 2781:1.0 2938:1.0 3146:1.0
-0.029047509932589033 3:1.0 66:1.0 92:1.0 116:1.0 133:1.0 413:1.0 414:1.0 415:1.0 620:1.0 623:1.0 692:1.0 705:1.0 722:1.0 783:1.0 817:1.0 911:1.0 996:1.0 1031:1.0 1033:1.0 1040:1.0 1070:1.0 1071:1.0 1151:1.0 1160:1.0 1214:1.0 1243:1.0 1252:1.0 1261:1.0 1277:1.0 1324:1.0 1325:1.0 1326:1.0 1333:1.0 1343:1.0 1358:1.0 1367:1.0 1371:1.0 1415:1.0 1690:1.0 1798:1.0 1958:1.0 1971:1.0 2122:1.0 2178:1.0 2194:1.0 2228:1.0 2281:1.0 2438:1.0 2508:1.0 2587:1.0 2654:1.0 2748:1.0 2887:1.0 2934:1.0 2946:1.0 2967:1.0 2969:1.0 2970:1.0 2997:1.0 3009:1.0 3091:1.0 3146:1.0 3252:1.0 3259:1.0 3316:1.0
0.034213513001103465 16:1.0 312:1.0 341:1.0 506:1.0 630:1.0 705:1.0 977:1.0 1157:1.0 1167:1.0 1315:1.0 1324:1.0 1358:1.0 1400:1.0 1777:1.0 2540:1.0 2619:1.0 2773:1.0 2847:1.0 2917:1.0 3123:1.0 3136:1.0 3146:1.0 3239:1.0
0.034213513001103465 20:1.0 150:1.0 227:1.0 588:1.0 630:1.0 824:1.0 966:1.0 1028:1.0 1062:1.0 1100:1.0 1114:1.0 1137:1.0 1140:1.0 1152:1.0 1160:1.0 1167:1.0 1207:1.0 1259:1.0 1268:1.0 1280:1.0 1358:1.0 1400:1.0 2408:1.0 2461:1.0 2609:1.0 2683:1.0 2717:1.0 2783:1.0 2822:1.0 2923:1.0 3146:1.0 3339:1.0 3345:1.0
0.034213513001103465 267:1.0 405:1.0 604:1.0 671:1.0 685:1.0 1014:1.0 1032:1.0 1062:1.0 1173:1.0 1259:1.0 1290:1.0 1315:1.0 1420:1.0 2304:1.0 2692:1.0 2716:1.0 3141:1.0 3146:1.0 3221:1.0
0.034213513001103465 221:1.0 334:1.0 358:1.0 587:1.0 827:1.0 977:1.0 1176:1.0 1203:1.0 1241:1.0 1315:1.0 1349:1.0 1400:1.0 1412:1.0 1413:1.0 1422:1.0 1875:1.0 2140:1.0 2408:1.0 2490:1.0 2503:1.0 2510:1.0 2773:1.0 2794:1.0 3146:1.0 3221:1.0
0.034213513001103465 5:1.0 489:1.0 647:1.0 966:1.0 1160:1.0 1314:1.0 1324:1.0 1400:1.0 1682:1.0 1777:1.0 2718:1.0 2764:1.0 3146:1.0 3239:1.0
-0.005605330931056607 123:1.0 276:1.0 288:1.0 351:1.0 547:1.0 647:1.0 658:1.0 676:1.0 713:1.0 758:1.0 987:1.0 1060:1.0 1071:1.0 1081:1.0 1101:1.0 1109:1.0 1125:1.0 1160:1.0 1173:1.0 1249:1.0 1302:1.0 1314:1.0 1324:1.0 1358:1.0 1394:1.0 1400:1.0 1625:1.0 1707:1.0 1862:1.0 2112:1.0 2202:1.0 2363:1.0 2392:1.0 2461:1.0 2540:1.0 2609:1.0 2685:1.0 2947:1.0 2966:1.0 3086:1.0 3146:1.0 3242:1.0 3324:1.0
-0.018129912865477125 931:1.0 1022:1.0 1214:1.0 1309:1.0 1325:1.0 1945:1.0 2174:1.0 2202:1.0 2649:1.0 2754:1.0 2938:1.0 3146:1.0
-0.0025016163316724698 103:1.0 272:1.0 316:1.0 322:1.0 377:1.0 491:1.0 509:1.0 595:1.0 625:1.0 673:1.0 675:1.0 681:1.0 719:1.0 787:1.0 957:1.0 1042:1.0 1062:1.0 1066:1.0 1092:1.0 1098:1.0 1104:1.0 1128:1.0 1157:1.0 1173:1.0 1175:1.0 1192:1.0 1254:1.0 1273:1.0 1274:1.0 1312:1.0 1322:1.0 1323:1.0 1329:1.0 1358:1.0 1366:1.0 1370:1.0 1394:1.0 1398:1.0 1427:1.0 1441:1.0 1455:1.0 1777:1.0 1825:1.0 2221:1.0 2392:1.0 2447:1.0 2461:1.0 2639:1.0 2641:1.0 2731:1.0 2853:1.0 2857:1.0 2882:1.0 2966:1.0 2996:1.0 2997:1.0 3043:1.0 3086:1.0 3090:1.0 3146:1.0 3179:1.0 3221:1.0 3236:1.0 3278:1.0 3284:1.0
-0.027501479813667903 123:1.0 399:1.0 773:1.0 1050:1.0 1154:1.0 1283:1.0 1358:1.0 1400:1.0 1883:1.0 2472:1.0 3014:1.0 3057:1.0 3146:1.0
-0.0014380252878483336 305:1.0 317:1.0 351:1.0 509:1.0 696:1.0 713:1.0 768:1.0 882:1.0 1040:1.0 1051:1.0 1102:1.0 1109:1.0 1143:1.0 1157:1.0 1173:1.0 1358:1.0 1400:1.0 1680:1.0 2159:1.0 2198:1.0 2426:1.0 2461:1.0 2653:1.0 2716:1.0 2847:1.0 2997:1.0 3021:1.0 3146:1.0 3212:1.0
0.034213513001103465 104:1.0 128:1.0 133:1.0 309:1.0 313:1.0 430:1.0 445:1.0 472:1.0 489:1.0 545:1.0 692:1.0 783:1.0 854:1.0 873:1.0 884:1.0 911:1.0 1038:1.0 1040:1.0 1050:1.0 1071:1.0 1125:1.0 1153:1.0 1154:1.0 1156:1.0 1160:1.0 1170:1.0 1214:1.0 1230:1.0 1252:1.0 1261:1.0 1283:1.0 1314:1.0 1325:1.0 1367:1.0 1420:1.0 1513:1.0 1617:1.0 1772:1.0 1836:1.0 1941:1.0 2006:1.0 2041:1.0 2054:1.0 2100:1.0 2472:1.0 2480:1.0 2620:1.0 2649:1.0 2737:1.0 2837:1.0 2929:1.0 2935:1.0 2967:1.0 2997:1.0 3109:1.0 3146:1.0 3259:1.0 3284:1.0 3316:1.0
0.032938788897072455 60:1.0 131:1.0 137:1.0 212:1.0 223:1.0 224:1.0 282:1.0 309:1.0 510:1.0 554:1.0 574:1.0 581:1.0 837:1.0 962:1.0 1040:1.0 1044:1.0 1057:1.0 1076:1.0 1097:1.0 1110:1.0 1143:1.0 1144:1.0 1166:1.0 1170:1.0 1174:1.0 1184:1.0 1207:1.0 1214:1.0 1230:1.0 1244:1.0 1283:1.0 1325:1.0 1393:1.0 1415:1.0 1450:1.0 1451:1.0 1633:1.0 1708:1.0 1742:1.0 1772:1.0 1781:1.0 1810:1.0 1816:1.0 1901:1.0 1935:1.0 2010:1.0 2149:1.0 2225:1.0 2267:1.0 2408:1.0 2508:1.0 2522:1.0 2556:1.0 2649:1.0 2794:1.0 2966:1.0 2997:1.0 3146:1.0 3164:1.0 3165:1.0 3212:1.0 3237:1.0 3243:1.0 3268:1.0 3284:1.0 3288:1.0 3316:1.0
0.018555335211728557 5:1.0 28:1.0 40:1.0 120:1.0 131:1.0 212:1.0 242:1.0 309:1.0 310:1.0 311:1.0 346:1.0 351:1.0 365:1.0 452:1.0 464:1.0 535:1.0 610:1.0 620:1.0 623:1.0 659:1.0 695:1.0 701:1.0 734:1.0 850:1.0 859:1.0 919:1.0 1013:1.0 1070:1.0 1071:1.0 1091:1.0 1109:1.0 1111:1.0 1148:1.0 1158:1.0 1160:1.0 1166:1.0 1170:1.0 1188:1.0 1194:1.0 1196:1.0 1203:1.0 1214:1.0 1226:1.0 1230:1.0 1252:1.0 1270:1.0 1277:1.0 1283:1.0 1287:1.0 1315:1.0 1325:1.0 1358:1.0 1361:1.0 1370:1.0 1373:1.0 1381:1.0 1391:1.0 1406:1.0 1417:1.0 1419:1.0 1421:1.0 1450:1.0 1451:1.0 1510:1.0 1665:1.0 1674:1.0 1695:1.0 1772:1.0 1789:1.0 1848:1.0 1870:1.0 1888:1.0 1890:1.0 1954:1.0 1985:1.0 2115:1.0 2151:1.0 2200:1.0 2267:1.0 2281:1.0 2300:1.0 2408:1.0 2410:1.0 2423:1.0 2472:1.0 2488:1.0 2508:1.0 2522:1.0 2540:1.0 2554:1.0 2649:1.0 2676:1.0 2686:1.0 2750:1.0 2781:1.0 2808:1.0 2904:1.0 2916:1.0 2947:1.0 2966:1.0 2967:1.0 2969:1.0 2970:1.0 3013:1.0 3023:1.0 3043:1.0 3053:1.0 3078:1.0 3139:1.0 3146:1.0 3221:1.0 3259:1.0 3268:1.0 3278:1.0 3284:1.0 3287:1.0 3316:1.0
0.034213513001103465 5:1.0 137:1.0 224:1.0 624:1.0 852:1.0 1048:1.0 1174:1.0 1214:1.0 1283:1.0 1325:1.0 1367:1.0 1420:1.0 1610:1.0 1683:1.0 1772:1.0 2252:1.0 2649:1.0 2767:1.0 3032:1.0 3088:1.0 3146:1.0 3316:1.0
0.034213513001103465 3:1.0 51:1.0 93:1.0 123:1.0 131:1.0 224:1.0 229:1.0 275:1.0 309:1.0 433:1.0 620:1.0 623:1.0 854:1.0 1070:1.0 1071:1.0 1129:1.0 1166:1.0 1170:1.0 1214:1.0 1230:1.0 1283:1.0 1325:1.0 1339:1.0 1358:1.0 1393:1.0 1400:1.0 1451:1.0 1494:1.0 1772:1.0 1773:1.0 2040:1.0 2210:1.0 2281:1.0 2508:1.0 2522:1.0 2674:1.0 2969:1.0 3146:1.0 3237:1.0 3259:1.0 3287:1.0 3288:1.0 3316:1.0 3340:1.0
-0.034213513001103465 131:1.0 212:1.0 224:1.0 464:1.0 535:1.0 695:1.0 859:1.0 899:1.0 1148:1.0 1166:1.0 1170:1.0 1188:1.0 1214:1.0 1283:1.0 1325:1.0 1373:1.0 1420:1.0 1421:1.0 1451:1.0 1665:1.0 1772:1.0 2006:1.0 2744:1.0 2967:1.0 3053:1.0 3063:1.0 3146:1.0 3284:1.0 3288:1.0 3316:1.0
0.034213513001103465 112:1.0 128:1.0 194:1.0 246:1.0 277:1.0 302:1.0 305:1.0 351:1.0 477:1.0 489:1.0 496:1.0 527:1.0 672:1.0 713:1.0 752:1.0 758:1.0 797:1.0 949:1.0 951:1.0 1013:1.0 1025:1.0 1040:1.0 1061:1.0 1068:1.0 1102:1.0 1104:1.0 1109:1.0 1127:1.0 1143:1.0 1148:1.0 1156:1.0 1160:1.0 1173:1.0 1264:1.0 1302:1.0 1314:1.0 1329:1.0 1358:1.0 1392:1.0 1396:1.0 1772:1.0 1862:1.0 1965:1.0 2067:1.0 2198:1.0 2204:1.0 2399:1.0 2426:1.0 2461:1.0 2472:1.0 2520:1.0 2522:1.0 2540:1.0 2603:1.0 2618:1.0 2637:1.0 2842:1.0 2918:1.0 2997:1.0 3146:1.0 3212:1.0 3290:1.0 3314:1.0 3315:1.0
-0.02925971134224125 3:1.0 37:1.0 93:1.0 131:1.0 229:1.0 302:1.0 327:1.0 350:1.0 351:1.0 395:1.0 438:1.0 600:1.0 611:1.0 659:1.0 744:1.0 759:1.0 833:1.0 837:1.0 1013:1.0 1040:1.0 1109:1.0 1135:1.0 1156:1.0 1166:1.0 1170:1.0 1223:1.0 1230:1.0 1231:1.0 1233:1.0 1278:1.0 1283:1.0 1287:1.0 1325:1.0 1353:1.0 1358:1.0 1372:1.0 1375:1.0 1393:1.0 1414:1.0 1415:1.0 1419:1.0 1445:1.0 1451:1.0 1499:1.0 1772:1.0 1831:1.0 1833:1.0 1840:1.0 1843:1.0 2020:1.0 2026:1.0 2196:1.0 2392:1.0 2395:1.0 2401:1.0 2472:1.0 2493:1.0 2651:1.0 2668:1.0 2859:1.0 2869:1.0 2997:1.0 3068:1.0 3146:1.0 3151:1.0 3159:1.0 3164:1.0 3212:1.0 3252:1.0 3278:1.0 3284:1.0 3315:1.0 3316:1.0
-0.02039379733558048 5:1.0 6:1.0 30:1.0 44:1.0 128:1.0 131:1.0 200:1.0 308:1.0 383:1.0 489:1.0 494:1.0 598:1.0 783:1.0 903:1.0 911:1.0 936:1.0 966:1.0 1040:1.0 1071:1.0 1108:1.0 1156:1.0 1160:1.0 1166:1.0 1174:1.0 1207:1.0 1250:1.0 1261:1.0 1314:1.0 1357:1.0 1367:1.0 1376:1.0 1393:1.0 1400:1.0 1451:1.0 1682:1.0 1831:1.0 1967:1.0 1992:1.0 2308:1.0 2337:1.0 2410:1.0 2472:1.0 2508:1.0 2615:1.0 2649:1.0 2764:1.0 2866:1.0 2997:1.0 3035:1.0 3098:1.0 3109:1.0 3146:1.0 3164:1.0 3262:1.0 3343:1.0 3354:1.0
-0.034213513001103465 596:1.0 1022:1.0 1071:1.0 1125:1.0 1250:1.0 1357:1.0 2020:1.0 2687:1.0 2734:1.0 2749:1.0 3146:1.0
-0.013238742112299756 3:1.0 30:1.0 44:1.0 93:1.0 122:1.0 123:1.0 131:1.0 256:1.0 272:1.0 302:1.0 371:1.0 489:1.0 570:1.0 571:1.0 640:1.0 680:1.0 703:1.0 791:1.0 792:1.0 965:1.0 1040:1.0 1155:1.0 1156:1.0 1160:1.0 1163:1.0 1166:1.0 1170:1.0 1264:1.0 1273:1.0 1314:1.0 1325:1.0 1332:1.0 1358:1.0 1393:1.0 1400:1.0 1402:1.0 1451:1.0 1591:1.0 1772:1.0 1821:1.0 1825:1.0 1951:1.0 1954:1.0 2041:1.0 2178:1.0 2204:1.0 2221:1.0 2461:1.0 2472:1.0 2493:1.0 2597:1.0 2620:1.0 2649:1.0 2734:1.0 2997:1.0 3035:1.0 3120:1.0 3146:1.0 3160:1.0 3203:1.0 3206:1.0 3221:1.0 3315:1.0 3343:1.0
-0.034213513001103465 3:1.0 65:1.0 71:1.0 242:1.0 309:1.0 337:1.0 600:1.0 850:1.0 1071:1.0 1116:1.0 1170:1.0 1196:1.0 1230:1.0 1270:1.0 1283:1.0 1325:1.0 1420:1.0 1451:1.0 1695:1.0 1772:1.0 2040:1.0 2410:1.0 2422:1.0 2546:1.0 2947:1.0 2969:1.0 3146:1.0 3259:1.0 3287:1.0 3316:1.0
0.034213513001103465 1:1.0 217:1.0 222:1.0 226:1.0 245:1.0 301:1.0 392:1.0 523:1.0 805:1.0 857:1.0 1019:1.0 1033:1.0 1062:1.0 1103:1.0 1160:1.0 1207:1.0 1244:1.0 1315:1.0 1318:1.0 1353:1.0 1444:1.0 2372:1.0 2456:1.0 2736:1.0 2790:1.0 2868:1.0 3146:1.0 3160:1.0 3172:1.0 3240:1.0 3339:1.0
0.034213513001103465 16:1.0 90:1.0 148:1.0 280:1.0 441:1.0 469:1.0 515:1.0 630:1.0 688:1.0 705:1.0 763:1.0 945:1.0 1019:1.0 1023:1.0 1024:1.0 1060:1.0 1066:1.0 1094:1.0 1152:1.0 1167:1.0 1170:1.0 1315:1.0 1323:1.0 1324:1.0 1336:1.0 1347:1.0 1358:1.0 1366:1.0 1373:1.0 1381:1.0 1400:1.0 1427:1.0 1431:1.0 1634:1.0 2202:1.0 2355:1.0 2364:1.0 2401:1.0 2523:1.0 2787:1.0 2874:1.0 3030:1.0 3040:1.0 3086:1.0 3089:1.0 3146:1.0 3152:1.0 3172:1.0 3278:1.0 3293:1.0 3333:1.0
0.03046718692583763 3:1.0 142:1.0 172:1.0 336:1.0 531:1.0 621:1.0 653:1.0 706:1.0 818:1.0 1023:1.0 1040:1.0 1048:1.0 1066:1.0 1148:1.0 1164:1.0 1188:1.0 1201:1.0 1229:1.0 1238:1.0 1240:1.0 1301:1.0 1322:1.0 1362:1.0 1371:1.0 1382:1.0 1391:1.0 1421:1.0 1434:1.0 1455:1.0 1567:1.0 1586:1.0 1615:1.0 1678:1.0 1826:1.0 1915:1.0 2073:1.0 2109:1.0 2149:1.0 2167:1.0 2198:1.0 2295:1.0 2364:1.0 2408:1.0 2452:1.0 2512:1.0 2646:1.0 2654:1.0 2767:1.0 2814:1.0 2947:1.0 2966:1.0 2967:1.0 2997:1.0 3028:1.0 3146:1.0 3191:1.0 3193:1.0 3212:1.0 3334:1.0
0.034213513001103465 58:1.0 422:1.0 693:1.0 705:1.0 729:1.0 945:1.0 959:1.0 1019:1.0 1223:1.0 1315:1.0 1323:1.0 1324:1.0 1358:1.0 1394:1.0 1427:1.0 1444:1.0 1777:1.0 2124:1.0 2373:1.0 2944:1.0 3112:1.0 3146:1.0
0.034213513001103465 5:1.0 16:1.0 236:1.0 630:1.0 705:1.0 763:1.0 1019:1.0 1060:1.0 1094:1.0 1167:1.0 1200:1.0 1272:1.0 1315:1.0 1324:1.0 1358:1.0 1842:1.0 2202:1.0 2401:1.0 2970:1.0 3043:1.0 3086:1.0 3120:1.0 3146:1.0
-0.034213513001103465 16:1.0 48:1.0 156:1.0 277:1.0 351:1.0 422:1.0 476:1.0 489:1.0 630:1.0 655:1.0 676:1.0 693:1.0 705:1.0 729:1.0 763:1.0 805:1.0 839:1.0 892:1.0 945:1.0 1019:1.0 1033:1.0 1060:1.0 1081:1.0 1109:1.0 1114:1.0 1160:1.0 1167:1.0 1223:1.0 1314:1.0 1315:1.0 1323:1.0 1324:1.0 1358:1.0 1370:1.0 1394:1.0 1412:1.0 1427:1.0 1444:1.0 1819:1.0 2186:1.0 2202:1.0 2401:1.0 2461:1.0 2502:1.0 2556:1.0 2569:1.0 2745:1.0 2773:1.0 2864:1.0 2966:1.0 3072:1.0 3086:1.0 3146:1.0 3283:1.0 3352:1.0
-0.012986094179374106 16:1.0 140:1.0 186:1.0 466:1.0 658:1.0 725:1.0 737:1.0 763:1.0 805:1.0 815:1.0 993:1.0 1018:1.0 1019:1.0 1024:1.0 1060:1.0 1066:1.0 1081:1.0 1167:1.0 1191:1.0 1226:1.0 1302:1.0 1315:1.0 1357:1.0 1441:1.0 1444:1.0 1455:1.0 1810:1.0 1908:1.0 2472:1.0 2595:1.0 2596:1.0 2688:1.0 2773:1.0 2966:1.0 3146:1.0 3172:1.0 3221:1.0
-0.025476059895290223 16:1.0 463:1.0 476:1.0 562:1.0 630:1.0 658:1.0 758:1.0 763:1.0 945:1.0 959:1.0 1019:1.0 1060:1.0 1081:1.0 1167:1.0 1236:1.0 1302:1.0 1315:1.0 1323:1.0 1357:1.0 1358:1.0 1427:1.0 1444:1.0 1707:1.0 2355:1.0 2461:1.0 2569:1.0 2688:1.0 2773:1.0 2850:1.0 2966:1.0 3146:1.0
-0.015788471869636327 90:1.0 225:1.0 551:1.0 778:1.0 876:1.0 981:1.0 1023:1.0 1026:1.0 1039:1.0 1066:1.0 1200:1.0 1283:1.0 1371:1.0 1455:1.0 1686:1.0 2329:1.0 2688:1.0 2966:1.0 3066:1.0 3118:1.0 3134:1.0 3146:1.0
-0.034213513001103465 5:1.0 16:1.0 90:1.0 393:1.0 530:1.0 861:1.0 876:1.0 977:1.0 1023:1.0 1066:1.0 1083:1.0 1146:1.0 1167:1.0 1315:1.0 1362:1.0 1400:1.0 1437:1.0 1455:1.0 1694:1.0 1777:1.0 2103:1.0 2364:1.0 2773:1.0 2784:1.0 2844:1.0 2966:1.0 2985:1.0 3146:1.0 3351:1.0
0.034213513001103465 3:1.0 212:1.0 224:1.0 311:1.0 351:1.0 485:1.0 509:1.0 510:1.0 574:1.0 627:1.0 653:1.0 688:1.0 692:1.0 768:1.0 814:1.0 891:1.0 911:1.0 1040:1.0 1057:1.0 1071:1.0 1109:1.0 1114:1.0 1157:1.0 1170:1.0 1188:1.0 1214:1.0 1252:1.0 1277:1.0 1283:1.0 1325:1.0 1358:1.0 1367:1.0 1371:1.0 1381:1.0 1400:1.0 1451:1.0 1674:1.0 1879:1.0 1954:1.0 1967:1.0 2157:1.0 2202:1.0 2291:1.0 2469:1.0 2471:1.0 2472:1.0 2523:1.0 2540:1.0 2649:1.0 2767:1.0 2847:1.0 2913:1.0 2997:1.0 3076:1.0 3103:1.0 3109:1.0 3146:1.0 3287:1.0 3288:1.0 3291:1.0 3343:1.0 3344:1.0
0.029154201952774173 3:1.0 13:1.0 37:1.0 56:1.0 123:1.0 131:1.0 156:1.0 351:1.0 400:1.0 526:1.0 528:1.0 544:1.0 600:1.0 609:1.0 693:1.0 729:1.0 735:1.0 742:1.0 760:1.0 863:1.0 1019:1.0 1072:1.0 1106:1.0 1109:1.0 1118:1.0 1143:1.0 1157:1.0 1160:1.0 1166:1.0 1170:1.0 1178:1.0 1210:1.0 1223:1.0 1231:1.0 1274:1.0 1283:1.0 1311:1.0 1315:1.0 1322:1.0 1325:1.0 1358:1.0 1400:1.0 1412:1.0 1414:1.0 1439:1.0 1451:1.0 1499:1.0 1772:1.0 1833:1.0 1917:1.0 2053:1.0 2073:1.0 2186:1.0 2268:1.0 2401:1.0 2461:1.0 2493:1.0 2502:1.0 2504:1.0 2522:1.0 2535:1.0 2540:1.0 2569:1.0 2589:1.0 2701:1.0 2735:1.0 2751:1.0 2773:1.0 2966:1.0 2997:1.0 3057:1.0 3146:1.0 3191:1.0 3192:1.0 3316:1.0 3322:1.0
0.034213513001103465 3:1.0 5:1.0 123:1.0 128:1.0 302:1.0 310:1.0 345:1.0 351:1.0 364:1.0 472:1.0 736:1.0 753:1.0 833:1.0 900:1.0 965:1.0 998:1.0 1030:1.0 1040:1.0 1109:1.0 1122:1.0 1153:1.0 1156:1.0 1160:1.0 1196:1.0 1230:1.0 1283:1.0 1325:1.0 1358:1.0 1368:1.0 1377:1.0 1400:1.0 1402:1.0 1674:1.0 1772:1.0 1788:1.0 1797:1.0 1819:1.0 2007:1.0 2038:1.0 2213:1.0 2360:1.0 2407:1.0 2472:1.0 2540:1.0 2550:1.0 2644:1.0 2674:1.0 2764:1.0 2997:1.0 3146:1.0 3159:1.0 3182:1.0 3192:1.0 3221:1.0 3316:1.0
0.034213513001103465 46:1.0 65:1.0 92:1.0 137:1.0 139:1.0 224:1.0 231:1.0 330:1.0 337:1.0 351:1.0 381:1.0 413:1.0 489:1.0 619:1.0 702:1.0 903:1.0 966:1.0 1031:1.0 1071:1.0 1109:1.0 1116:1.0 1117:1.0 1148:1.0 1160:1.0 1174:1.0 1214:1.0 1244:1.0 1283:1.0 1314:1.0 1325:1.0 1341:1.0 1358:1.0 1383:1.0 1386:1.0 1392:1.0 1400:1.0 1451:1.0 1495:1.0 1504:1.0 1762:1.0 1772:1.0 1910:1.0 1924:1.0 2014:1.0 2030:1.0 2308:1.0 2423:1.0 2461:1.0 2522:1.0 2657:1.0 2855:1.0 2874:1.0 3022:1.0 3103:1.0 3146:1.0 3158:1.0 3169:1.0 3212:1.0 3214:1.0 3262:1.0 3268:1.0 3316:1.0 3343:1.0
0.02154629164221523 3:1.0 5:1.0 44:1.0 93:1.0 131:1.0 183:1.0 380:1.0 600:1.0 1133:1.0 1166:1.0 1283:1.0 1358:1.0 1393:1.0 1396:1.0 1400:1.0 1414:1.0 1451:1.0 1470:1.0 1772:1.0 2121:1.0 2178:1.0 2481:1.0 2537:1.0 2805:1.0 2934:1.0 2997:1.0 3146:1.0 3314:1.0 3316:1.0
-0.034213513001103465 123:1.0 224:1.0 351:1.0 510:1.0 574:1.0 753:1.0 833:1.0 1040:1.0 1057:1.0 1109:1.0 1214:1.0 1230:1.0 1283:1.0 1325:1.0 1358:1.0 1400:1.0 1547:1.0 1592:1.0 1635:1.0 1772:1.0 1792:1.0 1871:1.0 2241:1.0 2472:1.0 2644:1.0 2754:1.0 2908:1.0 2997:1.0 3146:1.0 3278:1.0 3316:1.0
-0.034213513001103465 60:1.0 123:1.0 139:1.0 224:1.0 351:1.0 381:1.0 406:1.0 796:1.0 950:1.0 1040:1.0 1044:1.0 1109:1.0 1214:1.0 1244:1.0 1283:1.0 1325:1.0 1341:1.0 1356:1.0 1358:1.0 1386:1.0 1400:1.0 1500:1.0 1772:1.0 2099:1.0 2285:1.0 2354:1.0 2446:1.0 2522:1.0 2550:1.0 2748:1.0 2934:1.0 2967:1.0 2997:1.0 3146:1.0 3222:1.0 3316:1.0
-0.01309729920927813 13:1.0 15:1.0 93:1.0 264:1.0 270:1.0 351:1.0 378:1.0 405:1.0 442:1.0 511:1.0 672:1.0 962:1.0 1019:1.0 1040:1.0 1062:1.0 1066:1.0 1096:1.0 1109:1.0 1173:1.0 1223:1.0 1307:1.0 1315:1.0 1316:1.0 1358:1.0 1391:1.0 1393:1.0 1396:1.0 1456:1.0 1475:1.0 1586:1.0 1626:1.0 1707:1.0 1772:1.0 2072:1.0 2149:1.0 2198:1.0 2209:1.0 2290:1.0 2421:1.0 2426:1.0 2472:1.0 2537:1.0 2540:1.0 2781:1.0 2997:1.0 3146:1.0 3190:1.0 3212:1.0 3278:1.0 3315:1.0
-0.009281929397279905 3:1.0 44:1.0 54:1.0 93:1.0 123:1.0 224:1.0 695:1.0 1148:1.0 1166:1.0 1214:1.0 1283:1.0 1325:1.0 1339:1.0 1358:1.0 1393:1.0 1400:1.0 1421:1.0 1495:1.0 1772:1.0 2030:1.0 2210:1.0 2232:1.0 2354:1.0 2360:1.0 2461:1.0 2493:1.0 2581:1.0 2674:1.0 2967:1.0 3146:1.0 3262:1.0 3277:1.0 3316:1.0
-0.034213513001103465 148:1.0 224:1.0 446:1.0 620:1.0 623:1.0 772:1.0 1024:1.0 1070:1.0 1071:1.0 1214:1.0 1249:1.0 1283:1.0 1325:1.0 1400:1.0 1551:1.0 1762:1.0 1772:1.0 2607:1.0 2805:1.0 2947:1.0 3146:1.0 3268:1.0 3316:1.0
0.034213513001103465 5:1.0 463:1.0 476:1.0 562:1.0 658:1.0 822:1.0 862:1.0 992:1.0 1060:1.0 1081:1.0 1236:1.0 1257:1.0 1285:1.0 1302:1.0 1314:1.0 1323:1.0 1357:1.0 1427:1.0 1520:1.0 1707:1.0 1952:1.0 2461:1.0 2511:1.0 2569:1.0 2638:1.0 2966:1.0 3146:1.0
0.034213513001103465 133:1.0 427:1.0 463:1.0 716:1.0 1026:1.0 1066:1.0 1210:1.0 1236:1.0 1261:1.0 1325:1.0 1357:1.0 1420:1.0 1427:1.0 1675:1.0 1751:1.0 2783:1.0 2947:1.0 2966:1.0 3123:1.0 3146:1.0 3187:1.0
0.034213513001103465 16:1.0 186:1.0 341:1.0 400:1.0 544:1.0 725:1.0 763:1.0 805:1.0 822:1.0 866:1.0 992:1.0 1019:1.0 1066:1.0 1157:1.0 1160:1.0 1167:1.0 1178:1.0 1257:1.0 1270:1.0 1302:1.0 1314:1.0 1315:1.0 1357:1.0 1413:1.0 1444:1.0 1455:1.0 1478:1.0 1707:1.0 1987:1.0 2408:1.0 2461:1.0 2502:1.0 2523:1.0 2540:1.0 2578:1.0 2638:1.0 2701:1.0 2880:1.0 2964:1.0 2966:1.0 3068:1.0 3146:1.0
0.034213513001103465 90:1.0 225:1.0 320:1.0 876:1.0 1023:1.0 1025:1.0 1039:1.0 1066:1.0 1195:1.0 1283:1.0 1455:1.0 2329:1.0 2595:1.0 2688:1.0 2966:1.0 3066:1.0 3146:1.0
0.034213513001103465 5:1.0 214:1.0 582:1.0 822:1.0 862:1.0 992:1.0 1210:1.0 1257:1.0 1283:1.0 1285:1.0 1302:1.0 1314:1.0 1325:1.0 1883:1.0 1952:1.0 2296:1.0 2461:1.0 2473:1.0 2638:1.0 2741:1.0 3146:1.0
-0.034213513001103465 3:1.0 61:1.0 216:1.0 603:1.0 607:1.0 711:1.0 838:1.0 1009:1.0 1022:1.0 1033:1.0 1071:1.0 1075:1.0 1102:1.0 1143:1.0 1160:1.0 1166:1.0 1172:1.0 1199:1.0 1203:1.0 1205:1.0 1207:1.0 1252:1.0 1290:1.0 1422:1.0 1820:1.0 1881:1.0 2150:1.0 2221:1.0 2408:1.0 2431:1.0 2603:1.0 2769:1.0 3146:1.0 3212:1.0 3221:1.0 3258:1.0 3273:1.0 3288:1.0 3290:1.0 3313:1.0
-0.021638664314567548 2:1.0 3:1.0 223:1.0 412:1.0 816:1.0 995:1.0 1166:1.0 1200:1.0 1244:1.0 1248:1.0 1276:1.0 1354:1.0 1727:1.0 2102:1.0 2481:1.0 2502:1.0 3146:1.0 3212:1.0 3284:1.0
-0.0027997812097211865 25:1.0 196:1.0 316:1.0 489:1.0 517:1.0 564:1.0 659:1.0 673:1.0 822:1.0 937:1.0 966:1.0 992:1.0 1013:1.0 1138:1.0 1160:1.0 1173:1.0 1195:1.0 1257:1.0 1267:1.0 1287:1.0 1298:1.0 1302:1.0 1314:1.0 1329:1.0 1366:1.0 1400:1.0 1419:1.0 1447:1.0 1478:1.0 1582:1.0 1707:1.0 1799:1.0 1814:1.0 1987:1.0 2006:1.0 2201:1.0 2461:1.0 2544:1.0 2624:1.0 2638:1.0 2842:1.0 2966:1.0 3017:1.0 3146:1.0 3284:1.0 3296:1.0 3324:1.0 3339:1.0
-0.022333429611930345 83:1.0 211:1.0 283:1.0 351:1.0 402:1.0 491:1.0 564:1.0 588:1.0 612:1.0 676:1.0 822:1.0 913:1.0 929:1.0 966:1.0 970:1.0 992:1.0 1071:1.0 1109:1.0 1160:1.0 1167:1.0 1246:1.0 1247:1.0 1257:1.0 1267:1.0 1268:1.0 1302:1.0 1314:1.0 1358:1.0 1362:1.0 1374:1.0 1394:1.0 1396:1.0 1400:1.0 1412:1.0 1427:1.0 1478:1.0 1582:1.0 1674:1.0 1707:1.0 1723:1.0 1777:1.0 1862:1.0 1987:1.0 2179:1.0 2201:1.0 2461:1.0 2505:1.0 2540:1.0 2556:1.0 2609:1.0 2638:1.0 2665:1.0 2815:1.0 2966:1.0 3015:1.0 3071:1.0 3146:1.0 3296:1.0 3339:1.0
-0.034213513001103465 5:1.0 294:1.0 856:1.0 1149:1.0 1236:1.0 1285:1.0 1293:1.0 1346:1.0 1357:1.0 1371:1.0 2364:1.0 2408:1.0 2415:1.0 2638:1.0 3134:1.0 3146:1.0 3218:1.0
0.034213513001103465 16:1.0 222:1.0 224:1.0 270:1.0 277:1.0 327:1.0 351:1.0 375:1.0 489:1.0 521:1.0 655:1.0 664:1.0 697:1.0 764:1.0 800:1.0 802:1.0 858:1.0 898:1.0 940:1.0 996:1.0 1014:1.0 1033:1.0 1066:1.0 1090:1.0 1104:1.0 1109:1.0 1127:1.0 1160:1.0 1167:1.0 1170:1.0 1214:1.0 1241:1.0 1283:1.0 1300:1.0 1314:1.0 1315:1.0 1318:1.0 1325:1.0 1343:1.0 1353:1.0 1358:1.0 1384:1.0 1455:1.0 1772:1.0 1902:1.0 1942:1.0 2153:1.0 2186:1.0 2229:1.0 2232:1.0 2370:1.0 2395:1.0 2401:1.0 2417:1.0 2452:1.0 2461:1.0 2495:1.0 2535:1.0 2537:1.0 2581:1.0 2644:1.0 2736:1.0 2773:1.0 2933:1.0 3084:1.0 3144:1.0 3146:1.0 3262:1.0 3284:1.0 3316:1.0
0.034213513001103465 194:1.0 224:1.0 281:1.0 351:1.0 672:1.0 913:1.0 1038:1.0 1104:1.0 1109:1.0 1127:1.0 1167:1.0 1175:1.0 1214:1.0 1232:1.0 1283:1.0 1304:1.0 1325:1.0 1358:1.0 1391:1.0 1396:1.0 1495:1.0 1772:1.0 2030:1.0 2186:1.0 2424:1.0 2461:1.0 2520:1.0 2574:1.0 2773:1.0 2918:1.0 3146:1.0 3262:1.0 3285:1.0 3316:1.0
0.034213513001103465 3:1.0 16:1.0 44:1.0 93:1.0 131:1.0 264:1.0 329:1.0 405:1.0 615:1.0 630:1.0 637:1.0 763:1.0 805:1.0 864:1.0 868:1.0 878:1.0 932:1.0 1019:1.0 1027:1.0 1035:1.0 1040:1.0 1060:1.0 1095:1.0 1117:1.0 1125:1.0 1166:1.0 1167:1.0 1173:1.0 1283:1.0 1294:1.0 1315:1.0 1328:1.0 1358:1.0 1389:1.0 1393:1.0 1406:1.0 1432:1.0 1444:1.0 1451:1.0 1687:1.0 1785:1.0 1883:1.0 1908:1.0 2241:1.0 2319:1.0 2393:1.0 2422:1.0 2461:1.0 2464:1.0 2473:1.0 2508:1.0 2569:1.0 2609:1.0 2668:1.0 2695:1.0 2754:1.0 2773:1.0 2814:1.0 2904:1.0 2985:1.0 2997:1.0 3057:1.0 3075:1.0 3136:1.0 3146:1.0 3278:1.0
0.034213513001103465 5:1.0 16:1.0 224:1.0 277:1.0 312:1.0 416:1.0 489:1.0 553:1.0 684:1.0 764:1.0 913:1.0 996:1.0 1014:1.0 1109:1.0 1160:1.0 1167:1.0 1214:1.0 1283:1.0 1314:1.0 1315:1.0 1325:1.0 1343:1.0 1391:1.0 1500:1.0 1772:1.0 1813:1.0 2095:1.0 2354:1.0 2461:1.0 2540:1.0 2609:1.0 2773:1.0 2967:1.0 3069:1.0 3088:1.0 3146:1.0 3316:1.0 3339:1.0
0.034213513001103465 123:1.0 224:1.0 234:1.0 351:1.0 442:1.0 702:1.0 993:1.0 1018:1.0 1024:1.0 1080:1.0 1109:1.0 1140:1.0 1148:1.0 1214:1.0 1223:1.0 1283:1.0 1323:1.0 1325:1.0 1358:1.0 1360:1.0 1392:1.0 1400:1.0 1427:1.0 1708:1.0 1924:1.0 1979:1.0 2186:1.0 2461:1.0 2470:1.0 2577:1.0 2751:1.0 2773:1.0 3146:1.0 3161:1.0 3199:1.0 3214:1.0 3268:1.0 3318:1.0
-0.020232186929367825 16:1.0 21:1.0 100:1.0 137:1.0 201:1.0 224:1.0 230:1.0 329:1.0 351:1.0 376:1.0 621:1.0 630:1.0 670:1.0 695:1.0 753:1.0 763:1.0 776:1.0 833:1.0 919:1.0 932:1.0 1019:1.0 1040:1.0 1083:1.0 1109:1.0 1117:1.0 1120:1.0 1125:1.0 1132:1.0 1148:1.0 1167:1.0 1174:1.0 1210:1.0 1214:1.0 1230:1.0 1270:1.0 1275:1.0 1283:1.0 1315:1.0 1322:1.0 1325:1.0 1358:1.0 1406:1.0 1421:1.0 1440:1.0 1444:1.0 1495:1.0 1560:1.0 1696:1.0 1751:1.0 1772:1.0 2030:1.0 2073:1.0 2114:1.0 2161:1.0 2310:1.0 2319:1.0 2343:1.0 2348:1.0 2393:1.0 2408:1.0 2461:1.0 2651:1.0 2668:1.0 2695:1.0 2748:1.0 2768:1.0 2783:1.0 2904:1.0 2933:1.0 2939:1.0 2943:1.0 2966:1.0 2997:1.0 3053:1.0 3108:1.0 3146:1.0 3191:1.0 3262:1.0 3290:1.0 3316:1.0 3347:1.0
-0.034213513001103465 5:1.0 16:1.0 334:1.0 351:1.0 372:1.0 463:1.0 476:1.0 491:1.0 528:1.0 562:1.0 676:1.0 745:1.0 763:1.0 802:1.0 849:1.0 939:1.0 940:1.0 1015:1.0 1019:1.0 1025:1.0 1060:1.0 1072:1.0 1081:1.0 1109:1.0 1157:1.0 1167:1.0 1236:1.0 1300:1.0 1301:1.0 1315:1.0 1323:1.0 1345:1.0 1357:1.0 1358:1.0 1370:1.0 1381:1.0 1394:1.0 1412:1.0 1427:1.0 1568:1.0 1632:1.0 2186:1.0 2394:1.0 2461:1.0 2471:1.0 2504:1.0 2540:1.0 2556:1.0 2569:1.0 2700:1.0 2703:1.0 2773:1.0 2923:1.0 3034:1.0 3146:1.0 3169:1.0 3172:1.0 3222:1.0 3226:1.0 3319:1.0
-0.026501857122514707 53:1.0 73:1.0 137:1.0 182:1.0 185:1.0 248:1.0 273:1.0 310:1.0 379:1.0 405:1.0 435:1.0 542:1.0 584:1.0 632:1.0 675:1.0 702:1.0 832:1.0 836:1.0 847:1.0 853:1.0 932:1.0 949:1.0 1054:1.0 1066:1.0 1090:1.0 1091:1.0 1111:1.0 1117:1.0 1125:1.0 1148:1.0 1155:1.0 1157:1.0 1173:1.0 1174:1.0 1191:1.0 1196:1.0 1214:1.0 1215:1.0 1226:1.0 1241:1.0 1283:1.0 1310:1.0 1315:1.0 1325:1.0 1327:1.0 1346:1.0 1358:1.0 1381:1.0 1384:1.0 1392:1.0 1423:1.0 1429:1.0 1455:1.0 1496:1.0 1772:1.0 1875:1.0 2138:1.0 2328:1.0 2390:1.0 2408:1.0 2449:1.0 2472:1.0 2668:1.0 2783:1.0 2805:1.0 2823:1.0 2924:1.0 2982:1.0 3042:1.0 3146:1.0 3160:1.0 3173:1.0 3197:1.0 3221:1.0 3236:1.0 3251:1.0 3296:1.0 3316:1.0
-0.014920890947941925 46:1.0 150:1.0 224:1.0 246:1.0 330:1.0 443:1.0 521:1.0 630:1.0 687:1.0 807:1.0 884:1.0 890:1.0 952:1.0 1005:1.0 1013:1.0 1026:1.0 1038:1.0 1071:1.0 1090:1.0 1104:1.0 1117:1.0 1127:1.0 1140:1.0 1148:1.0 1167:1.0 1170:1.0 1214:1.0 1249:1.0 1262:1.0 1283:1.0 1304:1.0 1325:1.0 1358:1.0 1383:1.0 1384:1.0 1392:1.0 1772:1.0 1791:1.0 1845:1.0 1924:1.0 2292:1.0 2461:1.0 2491:1.0 2618:1.0 2707:1.0 2773:1.0 2798:1.0 2927:1.0 3028:1.0 3109:1.0 3146:1.0 3179:1.0 3214:1.0 3258:1.0 3268:1.0 3284:1.0 3316:1.0
-0.034213513001103465 224:1.0 756:1.0 794:1.0 959:1.0 1013:1.0 1175:1.0 1214:1.0 1271:1.0 1274:1.0 1283:1.0 1323:1.0 1325:1.0 1395:1.0 1427:1.0 1444:1.0 1772:1.0 2349:1.0 2522:1.0 2934:1.0 2966:1.0 3146:1.0 3172:1.0 3246:1.0 3316:1.0
0.034213513001103465 10:1.0 29:1.0 294:1.0 396:1.0 560:1.0 620:1.0 847:1.0 899:1.0 1020:1.0 1048:1.0 1070:1.0 1071:1.0 1155:1.0 1188:1.0 1214:1.0 1236:1.0 1240:1.0 1293:1.0 1325:1.0 1346:1.0 1357:1.0 1385:1.0 1420:1.0 1643:1.0 1769:1.0 1929:1.0 1945:1.0 2408:1.0 2649:1.0 2705:1.0 2749:1.0 2754:1.0 2781:1.0 2798:1.0 3049:1.0 3146:1.0 3221:1.0 3238:1.0
0.034213513001103465 3:1.0 18:1.0 35:1.0 89:1.0 93:1.0 94:1.0 218:1.0 270:1.0 351:1.0 395:1.0 490:1.0 628:1.0 630:1.0 676:1.0 760:1.0 826:1.0 845:1.0 853:1.0 1048:1.0 1066:1.0 1071:1.0 1109:1.0 1118:1.0 1135:1.0 1152:1.0 1155:1.0 1167:1.0 1196:1.0 1252:1.0 1325:1.0 1334:1.0 1340:1.0 1358:1.0 1362:1.0 1393:1.0 1394:1.0 1431:1.0 1441:1.0 1771:1.0 1821:1.0 2020:1.0 2167:1.0 2221:1.0 2295:1.0 2401:1.0 2461:1.0 2472:1.0 2546:1.0 2668:1.0 2733:1.0 2768:1.0 2848:1.0 3009:1.0 3146:1.0 3221:1.0 3247:1.0 3293:1.0 3303:1.0 3324:1.0 3343:1.0
0.034213513001103465 123:1.0 216:1.0 965:1.0 970:1.0 1160:1.0 1246:1.0 1358:1.0 1374:1.0 1400:1.0 1402:1.0 1422:1.0 1680:1.0 1912:1.0 2154:1.0 2179:1.0 2399:1.0 2461:1.0 2556:1.0 2822:1.0 3081:1.0 3146:1.0 3221:1.0
0.034213513001103465 141:1.0 216:1.0 263:1.0 701:1.0 966:1.0 1091:1.0 1160:1.0 1293:1.0 1400:1.0 1422:1.0 2408:1.0 2531:1.0 2784:1.0 2893:1.0 3120:1.0 3146:1.0
0.034213513001103465 165:1.0 623:1.0 722:1.0 1062:1.0 1070:1.0 1071:1.0 1258:1.0 1415:1.0 2276:1.0 2754:1.0 2969:1.0 3146:1.0 3315:1.0
-0.006619744152209976 3:1.0 83:1.0 94:1.0 233:1.0 269:1.0 424:1.0 488:1.0 490:1.0 604:1.0 721:1.0 1023:1.0 1071:1.0 1072:1.0 1108:1.0 1152:1.0 1157:1.0 1252:1.0 1261:1.0 1290:1.0 1313:1.0 1318:1.0 1325:1.0 1362:1.0 1420:1.0 1450:1.0 1712:1.0 1745:1.0 1901:1.0 1920:1.0 2010:1.0 2113:1.0 2364:1.0 2408:1.0 2500:1.0 2546:1.0 2556:1.0 2649:1.0 3123:1.0 3146:1.0 3160:1.0 3213:1.0 3221:1.0 3303:1.0
-0.011602935998525889 453:1.0 619:1.0 623:1.0 640:1.0 677:1.0 885:1.0 1056:1.0 1070:1.0 1071:1.0 1104:1.0 1117:1.0 1127:1.0 1170:1.0 1200:1.0 1253:1.0 1264:1.0 1314:1.0 1432:1.0 1712:1.0 1756:1.0 2649:1.0 2711:1.0 2918:1.0 2955:1.0 3084:1.0 3144:1.0 3146:1.0 3277:1.0 3303:1.0
-0.011673689507531226 1:1.0 3:1.0 53:1.0 93:1.0 122:1.0 123:1.0 346:1.0 437:1.0 480:1.0 489:1.0 579:1.0 701:1.0 1062:1.0 1091:1.0 1098:1.0 1160:1.0 1241:1.0 1314:1.0 1358:1.0 1393:1.0 1400:1.0 1402:1.0 1450:1.0 1598:1.0 1651:1.0 2221:1.0 2339:1.0 2392:1.0 2408:1.0 2461:1.0 2805:1.0 2904:1.0 3146:1.0 3210:1.0 3221:1.0 3315:1.0
-0.029079755997710937 133:1.0 165:1.0 412:1.0 623:1.0 889:1.0 1062:1.0 1070:1.0 1071:1.0 1200:1.0 1244:1.0 1258:1.0 1261:1.0 1325:1.0 2276:1.0 2494:1.0 2564:1.0 2929:1.0 2969:1.0 3146:1.0 3160:1.0 3315:1.0
-0.018338888709320367 3:1.0 40:1.0 131:1.0 202:1.0 277:1.0 432:1.0 434:1.0 489:1.0 538:1.0 585:1.0 613:1.0 859:1.0 878:1.0 965:1.0 977:1.0 1048:1.0 1075:1.0 1109:1.0 1160:1.0 1166:1.0 1188:1.0 1282:1.0 1314:1.0 1315:1.0 1365:1.0 1366:1.0 1381:1.0 1400:1.0 1402:1.0 1406:1.0 1451:1.0 1643:1.0 1685:1.0 1777:1.0 1793:1.0 1881:1.0 2124:1.0 2143:1.0 2144:1.0 2408:1.0 2461:1.0 2471:1.0 2523:1.0 2588:1.0 2649:1.0 2668:1.0 2716:1.0 2760:1.0 2781:1.0 2935:1.0 3018:1.0 3146:1.0 3160:1.0 3221:1.0 3288:1.0
0.03373213280166894 48:1.0 105:1.0 142:1.0 224:1.0 277:1.0 292:1.0 315:1.0 322:1.0 351:1.0 363:1.0 385:1.0 476:1.0 485:1.0 489:1.0 491:1.0 538:1.0 588:1.0 590:1.0 603:1.0 620:1.0 630:1.0 632:1.0 634:1.0 655:1.0 719:1.0 771:1.0 786:1.0 872:1.0 893:1.0 913:1.0 934:1.0 947:1.0 956:1.0 975:1.0 1002:1.0 1023:1.0 1026:1.0 1033:1.0 1048:1.0 1054:1.0 1060:1.0 1070:1.0 1075:1.0 1081:1.0 1109:1.0 1114:1.0 1148:1.0 1160:1.0 1167:1.0 1170:1.0 1200:1.0 1207:1.0 1214:1.0 1218:1.0 1224:1.0 1230:1.0 1268:1.0 1283:1.0 1293:1.0 1314:1.0 1323:1.0 1325:1.0 1329:1.0 1347:1.0 1358:1.0 1371:1.0 1394:1.0 1402:1.0 1413:1.0 1419:1.0 1423:1.0 1427:1.0 1500:1.0 1649:1.0 1675:1.0 1678:1.0 1772:1.0 1810:1.0 1881:1.0 1915:1.0 1985:1.0 2029:1.0 2186:1.0 2211:1.0 2220:1.0 2281:1.0 2354:1.0 2355:1.0 2362:1.0 2408:1.0 2461:1.0 2471:1.0 2472:1.0 2507:1.0 2508:1.0 2512:1.0 2569:1.0 2646:1.0 2748:1.0 2773:1.0 2781:1.0 2904:1.0 2947:1.0 2951:1.0 2966:1.0 2967:1.0 3014:1.0 3124:1.0 3134:1.0 3144:1.0 3146:1.0 3172:1.0 3215:1.0 3221:1.0 3259:1.0 3284:1.0 3296:1.0 3316:1.0 3353:1.0
0.022618338795791622 16:1.0 91:1.0 107:1.0 209:1.0 272:1.0 300:1.0 350:1.0 351:1.0 371:1.0 388:1.0 393:1.0 397:1.0 405:1.0 409:1.0 441:1.0 509:1.0 545:1.0 659:1.0 688:1.0 692:1.0 713:1.0 734:1.0 771:1.0 911:1.0 937:1.0 973:1.0 977:1.0 1013:1.0 1023:1.0 1042:1.0 1044:1.0 1071:1.0 1100:1.0 1109:1.0 1111:1.0 1157:1.0 1158:1.0 1165:1.0 1167:1.0 1170:1.0 1173:1.0 1193:1.0 1195:1.0 1207:1.0 1240:1.0 1252:1.0 1273:1.0 1283:1.0 1287:1.0 1290:1.0 1315:1.0 1332:1.0 1347:1.0 1358:1.0 1367:1.0 1381:1.0 1389:1.0 1400:1.0 1402:1.0 1417:1.0 1419:1.0 1437:1.0 1440:1.0 1513:1.0 1674:1.0 1772:1.0 1792:1.0 1875:1.0 2054:1.0 2139:1.0 2178:1.0 2260:1.0 2273:1.0 2300:1.0 2364:1.0 2408:1.0 2461:1.0 2464:1.0 2472:1.0 2488:1.0 2532:1.0 2540:1.0 2603:1.0 2773:1.0 2787:1.0 2820:1.0 2822:1.0 2823:1.0 2865:1.0 2893:1.0 2924:1.0 2947:1.0 2966:1.0 2970:1.0 2984:1.0 2997:1.0 3022:1.0 3078:1.0 3109:1.0 3146:1.0 3221:1.0 3278:1.0 3284:1.0 3316:1.0
0.025586604901731178 28:1.0 43:1.0 60:1.0 310:1.0 311:1.0 315:1.0 329:1.0 338:1.0 341:1.0 351:1.0 509:1.0 676:1.0 753:1.0 826:1.0 833:1.0 901:1.0 1010:1.0 1040:1.0 1044:1.0 1109:1.0 1125:1.0 1135:1.0 1157:1.0 1167:1.0 1196:1.0 1230:1.0 1235:1.0 1272:1.0 1277:1.0 1283:1.0 1306:1.0 1325:1.0 1329:1.0 1345:1.0 1358:1.0 1394:1.0 1406:1.0 1772:1.0 1816:1.0 1862:1.0 1870:1.0 1915:1.0 1971:1.0 2009:1.0 2194:1.0 2274:1.0 2408:1.0 2461:1.0 2471:1.0 2472:1.0 2540:1.0 2605:1.0 2644:1.0 2700:1.0 2773:1.0 2889:1.0 2970:1.0 2997:1.0 3023:1.0 3061:1.0 3063:1.0 3109:1.0 3165:1.0 3197:1.0 3316:1.0
0.034213513001103465 40:1.0 93:1.0 123:1.0 164:1.0 204:1.0 310:1.0 342:1.0 355:1.0 510:1.0 540:1.0 573:1.0 783:1.0 809:1.0 864:1.0 887:1.0 952:1.0 962:1.0 979:1.0 1013:1.0 1016:1.0 1026:1.0 1027:1.0 1040:1.0 1057:1.0 1091:1.0 1109:1.0 1152:1.0 1196:1.0 1199:1.0 1207:1.0 1233:1.0 1261:1.0 1283:1.0 1292:1.0 1315:1.0 1325:1.0 1342:1.0 1358:1.0 1381:1.0 1393:1.0 1400:1.0 1536:1.0 1675:1.0 1684:1.0 1827:1.0 1879:1.0 2157:1.0 2196:1.0 2202:1.0 2254:1.0 2349:1.0 2397:1.0 2408:1.0 2424:1.0 2444:1.0 2461:1.0 2469:1.0 2522:1.0 2532:1.0 2550:1.0 2743:1.0 2798:1.0 2903:1.0 2913:1.0 2947:1.0 2966:1.0 2997:1.0 3109:1.0 3146:1.0 3170:1.0 3284:1.0
0.004817249375419745 5:1.0 16:1.0 195:1.0 224:1.0 322:1.0 341:1.0 400:1.0 465:1.0 485:1.0 489:1.0 598:1.0 620:1.0 763:1.0 814:1.0 891:1.0 911:1.0 934:1.0 945:1.0 959:1.0 1019:1.0 1070:1.0 1071:1.0 1114:1.0 1157:1.0 1160:1.0 1167:1.0 1170:1.0 1214:1.0 1250:1.0 1271:1.0 1283:1.0 1314:1.0 1315:1.0 1323:1.0 1325:1.0 1367:1.0 1371:1.0 1427:1.0 1444:1.0 1500:1.0 1661:1.0 1682:1.0 1772:1.0 2115:1.0 2354:1.0 2472:1.0 2491:1.0 2523:1.0 2651:1.0 2668:1.0 2747:1.0 2764:1.0 2796:1.0 2822:1.0 2967:1.0 3032:1.0 3114:1.0 3146:1.0 3268:1.0 3284:1.0 3312:1.0 3316:1.0
-0.034213513001103465 28:1.0 94:1.0 205:1.0 276:1.0 277:1.0 310:1.0 311:1.0 489:1.0 503:1.0 631:1.0 692:1.0 911:1.0 958:1.0 1054:1.0 1071:1.0 1109:1.0 1125:1.0 1152:1.0 1160:1.0 1175:1.0 1196:1.0 1240:1.0 1252:1.0 1277:1.0 1283:1.0 1314:1.0 1325:1.0 1367:1.0 1398:1.0 1406:1.0 1420:1.0 1792:1.0 2161:1.0 2222:1.0 2330:1.0 2408:1.0 2472:1.0 2473:1.0 2480:1.0 2490:1.0 2636:1.0 2700:1.0 2798:1.0 2853:1.0 2960:1.0 3136:1.0 3146:1.0 3158:1.0 3278:1.0 3324:1.0 3343:1.0
-0.01647686765278778 5:1.0 253:1.0 429:1.0 520:1.0 817:1.0 868:1.0 1040:1.0 1223:1.0 1236:1.0 1294:1.0 1333:1.0 1357:1.0 1391:1.0 1454:1.0 2318:1.0 2898:1.0 2997:1.0 3146:1.0 3160:1.0 3314:1.0
0.034213513001103465 123:1.0 346:1.0 437:1.0 542:1.0 658:1.0 758:1.0 770:1.0 1060:1.0 1081:1.0 1091:1.0 1236:1.0 1302:1.0 1357:1.0 1358:1.0 1394:1.0 1400:1.0 1450:1.0 1810:1.0 2038:1.0 2161:1.0 2408:1.0 2461:1.0 2472:1.0 2745:1.0 2966:1.0 3146:1.0
-0.0018268692787991056 40:1.0 346:1.0 351:1.0 355:1.0 409:1.0 416:1.0 489:1.0 495:1.0 631:1.0 672:1.0 749:1.0 913:1.0 1054:1.0 1091:1.0 1109:1.0 1160:1.0 1165:1.0 1167:1.0 1314:1.0 1315:1.0 1357:1.0 1358:1.0 1381:1.0 1389:1.0 1396:1.0 1420:1.0 1450:1.0 2410:1.0 2419:1.0 2461:1.0 2472:1.0 2480:1.0 2517:1.0 2606:1.0 2686:1.0 2717:1.0 2990:1.0 3129:1.0 3145:1.0 3146:1.0
-0.034213513001103465 3:1.0 159:1.0 185:1.0 248:1.0 310:1.0 428:1.0 572:1.0 631:1.0 651:1.0 881:1.0 1016:1.0 1054:1.0 1071:1.0 1091:1.0 1107:1.0 1111:1.0 1135:1.0 1180:1.0 1196:1.0 1228:1.0 1253:1.0 1260:1.0 1283:1.0 1292:1.0 1306:1.0 1310:1.0 1325:1.0 1414:1.0 1420:1.0 1458:1.0 1510:1.0 1670:1.0 1772:1.0 1846:1.0 1870:1.0 1905:1.0 2210:1.0 2342:1.0 2408:1.0 2453:1.0 2649:1.0 2674:1.0 2748:1.0 2781:1.0 2783:1.0 2853:1.0 2860:1.0 2966:1.0 2970:1.0 2997:1.0 3109:1.0 3146:1.0 3316:1.0
0.034213513001103465 1:1.0 173:1.0 748:1.0 781:1.0 1016:1.0 1062:1.0 1200:1.0 1244:1.0 1261:1.0 1292:1.0 1325:1.0 1327:1.0 1386:1.0 1458:1.0 1509:1.0 1602:1.0 1918:1.0 1988:1.0 2277:1.0 2649:1.0 2769:1.0 2798:1.0 2812:1.0 3146:1.0 3160:1.0 3222:1.0 3278:1.0 3315:1.0
0.034213513001103465 1:1.0 255:1.0 781:1.0 1062:1.0 1090:1.0 1261:1.0 1384:1.0 1509:1.0 1918:1.0 2277:1.0 2649:1.0 3146:1.0 3315:1.0
0.034213513001103465 1:1.0 255:1.0 781:1.0 1062:1.0 1090:1.0 1261:1.0 1384:1.0 1874:1.0 2783:1.0 2934:1.0 3146:1.0
0.034213513001103465 5:1.0 11:1.0 53:1.0 165:1.0 325:1.0 623:1.0 721:1.0 788:1.0 889:1.0 1023:1.0 1062:1.0 1070:1.0 1071:1.0 1091:1.0 1108:1.0 1241:1.0 1258:1.0 1261:1.0 1400:1.0 2276:1.0 2364:1.0 2410:1.0 2609:1.0 2703:1.0 2969:1.0 3146:1.0 3252:1.0 3315:1.0
-0.01038527315396191 173:1.0 357:1.0 618:1.0 748:1.0 783:1.0 806:1.0 819:1.0 1016:1.0 1040:1.0 1104:1.0 1127:1.0 1133:1.0 1175:1.0 1232:1.0 1234:1.0 1261:1.0 1292:1.0 1327:1.0 1357:1.0 1398:1.0 1400:1.0 1426:1.0 2397:1.0 2471:1.0 2494:1.0 2609:1.0 2853:1.0 2997:1.0 3146:1.0 3268:1.0 3293:1.0
-0.034213513001103465 1:1.0 22:1.0 104:1.0 682:1.0 721:1.0 781:1.0 1023:1.0 1062:1.0 1108:1.0 1125:1.0 1261:1.0 1420:1.0 2364:1.0 2523:1.0 2740:1.0 2787:1.0 3146:1.0
-0.034213513001103465 1025:1.0 1357:1.0 1388:1.0 2142:1.0 2741:1.0 2805:1.0 2842:1.0 3146:1.0
-0.03141225414231034 1:1.0 5:1.0 92:1.0 137:1.0 240:1.0 321:1.0 413:1.0 682:1.0 721:1.0 781:1.0 832:1.0 1023:1.0 1031:1.0 1062:1.0 1090:1.0 1108:1.0 1174:1.0 1214:1.0 1261:1.0 1325:1.0 1335:1.0 1358:1.0 1382:1.0 1384:1.0 1900:1.0 1912:1.0 2049:1.0 2364:1.0 2395:1.0 2399:1.0 2461:1.0 2649:1.0 2869:1.0 2898:1.0 3146:1.0
-0.03387234279735689 1:1.0 781:1.0 873:1.0 1050:1.0 1062:1.0 1154:1.0 1261:1.0 1312:1.0 1777:1.0 2124:1.0 2522:1.0 2798:1.0 3146:1.0
0.034213513001103465 2:1.0 3:1.0 14:1.0 17:1.0 35:1.0 63:1.0 89:1.0 97:1.0 128:1.0 143:1.0 230:1.0 241:1.0 242:1.0 270:1.0 277:1.0 302:1.0 342:1.0 428:1.0 489:1.0 490:1.0 505:1.0 511:1.0 575:1.0 585:1.0 588:1.0 848:1.0 853:1.0 956:1.0 1000:1.0 1014:1.0 1033:1.0 1040:1.0 1054:1.0 1066:1.0 1071:1.0 1083:1.0 1087:1.0 1109:1.0 1111:1.0 1152:1.0 1155:1.0 1156:1.0 1160:1.0 1173:1.0 1196:1.0 1230:1.0 1268:1.0 1314:1.0 1315:1.0 1318:1.0 1325:1.0 1330:1.0 1340:1.0 1358:1.0 1363:1.0 1365:1.0 1418:1.0 1430:1.0 1456:1.0 1884:1.0 1958:1.0 2039:1.0 2083:1.0 2153:1.0 2229:1.0 2255:1.0 2297:1.0 2328:1.0 2408:1.0 2441:1.0 2461:1.0 2540:1.0 2546:1.0 2579:1.0 2748:1.0 2823:1.0 2864:1.0 2969:1.0 2997:1.0 3014:1.0 3057:1.0 3062:1.0 3146:1.0 3154:1.0 3221:1.0 3259:1.0 3272:1.0 3284:1.0 3315:1.0 3316:1.0 3341:1.0 3342:1.0
0.034213513001103465 18:1.0 164:1.0 230:1.0 277:1.0 351:1.0 378:1.0 416:1.0 489:1.0 524:1.0 547:1.0 672:1.0 913:1.0 923:1.0 1003:1.0 1048:1.0 1083:1.0 1101:1.0 1109:1.0 1160:1.0 1167:1.0 1181:1.0 1268:1.0 1292:1.0 1314:1.0 1325:1.0 1358:1.0 1362:1.0 1366:1.0 1381:1.0 1391:1.0 1396:1.0 1487:1.0 1693:1.0 1694:1.0 1723:1.0 1777:1.0 1866:1.0 2091:1.0 2461:1.0 2471:1.0 2472:1.0 2480:1.0 2504:1.0 2513:1.0 2649:1.0 2749:1.0 2769:1.0 2773:1.0 2844:1.0 2947:1.0 2968:1.0 2998:1.0 3046:1.0 3146:1.0 3169:1.0 3222:1.0 3339:1.0 3341:1.0
0.034213513001103465 2:1.0 3:1.0 14:1.0 16:1.0 30:1.0 97:1.0 143:1.0 185:1.0 230:1.0 272:1.0 347:1.0 364:1.0 416:1.0 418:1.0 472:1.0 489:1.0 542:1.0 556:1.0 809:1.0 962:1.0 1031:1.0 1040:1.0 1083:1.0 1087:1.0 1091:1.0 1100:1.0 1111:1.0 1153:1.0 1160:1.0 1167:1.0 1196:1.0 1207:1.0 1273:1.0 1314:1.0 1315:1.0 1325:1.0 1330:1.0 1358:1.0 1393:1.0 1400:1.0 1440:1.0 1659:1.0 1825:1.0 1885:1.0 1961:1.0 1997:1.0 2039:1.0 2253:1.0 2255:1.0 2361:1.0 2374:1.0 2408:1.0 2461:1.0 2582:1.0 2618:1.0 2653:1.0 2763:1.0 2773:1.0 2997:1.0 3093:1.0 3146:1.0 3315:1.0 3316:1.0 3344:1.0
0.034213513001103465 3:1.0 30:1.0 131:1.0 177:1.0 223:1.0 245:1.0 325:1.0 334:1.0 434:1.0 489:1.0 578:1.0 692:1.0 901:1.0 904:1.0 911:1.0 958:1.0 962:1.0 966:1.0 967:1.0 980:1.0 990:1.0 1023:1.0 1029:1.0 1040:1.0 1063:1.0 1071:1.0 1075:1.0 1091:1.0 1119:1.0 1160:1.0 1166:1.0 1196:1.0 1244:1.0 1252:1.0 1282:1.0 1294:1.0 1314:1.0 1315:1.0 1317:1.0 1325:1.0 1367:1.0 1375:1.0 1393:1.0 1400:1.0 1406:1.0 1412:1.0 1451:1.0 1454:1.0 1458:1.0 1460:1.0 1586:1.0 1622:1.0 1649:1.0 1673:1.0 1727:1.0 1809:1.0 1915:1.0 1985:1.0 2149:1.0 2198:1.0 2253:1.0 2356:1.0 2364:1.0 2367:1.0 2408:1.0 2472:1.0 2481:1.0 2490:1.0 2523:1.0 2553:1.0 2688:1.0 2773:1.0 2781:1.0 2783:1.0 2893:1.0 2904:1.0 2997:1.0 3028:1.0 3053:1.0 3146:1.0 3152:1.0 3197:1.0 3212:1.0 3221:1.0 3262:1.0 3316:1.0
0.034213513001103465 214:1.0 489:1.0 576:1.0 582:1.0 626:1.0 822:1.0 965:1.0 977:1.0 1160:1.0 1162:1.0 1210:1.0 1283:1.0 1302:1.0 1314:1.0 1315:1.0 1325:1.0 1400:1.0 1402:1.0 1772:1.0 2126:1.0 2208:1.0 2306:1.0 2392:1.0 2428:1.0 2472:1.0 2741:1.0 3012:1.0 3146:1.0 3221:1.0 3278:1.0
-0.002267345482203228 16:1.0 60:1.0 93:1.0 108:1.0 128:1.0 131:1.0 154:1.0 183:1.0 217:1.0 223:1.0 231:1.0 245:1.0 256:1.0 288:1.0 302:1.0 346:1.0 355:1.0 386:1.0 437:1.0 495:1.0 533:1.0 547:1.0 565:1.0 602:1.0 623:1.0 630:1.0 712:1.0 924:1.0 933:1.0 962:1.0 966:1.0 985:1.0 1014:1.0 1017:1.0 1032:1.0 1033:1.0 1040:1.0 1044:1.0 1070:1.0 1071:1.0 1074:1.0 1075:1.0 1091:1.0 1101:1.0 1155:1.0 1156:1.0 1160:1.0 1166:1.0 1167:1.0 1176:1.0 1244:1.0 1264:1.0 1284:1.0 1314:1.0 1315:1.0 1358:1.0 1393:1.0 1396:1.0 1400:1.0 1450:1.0 1451:1.0 1772:1.0 1875:1.0 1901:1.0 1997:1.0 2105:1.0 2138:1.0 2207:1.0 2219:1.0 2266:1.0 2396:1.0 2408:1.0 2410:1.0 2415:1.0 2423:1.0 2472:1.0 2502:1.0 2508:1.0 2609:1.0 2618:1.0 2620:1.0 2675:1.0 2773:1.0 2783:1.0 2801:1.0 2862:1.0 2947:1.0 2997:1.0 3077:1.0 3144:1.0 3146:1.0 3175:1.0 3212:1.0 3221:1.0 3265:1.0 3283:1.0 3284:1.0 3308:1.0
0.024112420759823235 83:1.0 123:1.0 144:1.0 437:1.0 779:1.0 808:1.0 1071:1.0 1096:1.0 1132:1.0 1231:1.0 1249:1.0 1358:1.0 1362:1.0 1400:1.0 1414:1.0 1450:1.0 1565:1.0 1634:1.0 1656:1.0 1662:1.0 2076:1.0 2161:1.0 2178:1.0 2408:1.0 2461:1.0 2569:1.0 2844:1.0 2997:1.0 3040:1.0 3146:1.0 3258:1.0
-0.034213513001103465 21:1.0 230:1.0 329:1.0 351:1.0 416:1.0 489:1.0 509:1.0 702:1.0 758:1.0 768:1.0 913:1.0 949:1.0 988:1.0 1048:1.0 1083:1.0 1109:1.0 1125:1.0 1148:1.0 1157:1.0 1160:1.0 1167:1.0 1173:1.0 1214:1.0 1302:1.0 1314:1.0 1325:1.0 1358:1.0 1392:1.0 1400:1.0 1403:1.0 1422:1.0 1707:1.0 1866:1.0 1990:1.0 2199:1.0 2461:1.0 2471:1.0 2556:1.0 2649:1.0 2842:1.0 2893:1.0 2903:1.0 2918:1.0 2966:1.0 3009:1.0 3032:1.0 3081:1.0 3146:1.0 3339:1.0
-0.00591056210290001 53:1.0 93:1.0 207:1.0 222:1.0 351:1.0 504:1.0 510:1.0 542:1.0 574:1.0 575:1.0 588:1.0 630:1.0 919:1.0 926:1.0 962:1.0 966:1.0 1003:1.0 1006:1.0 1016:1.0 1031:1.0 1033:1.0 1040:1.0 1057:1.0 1091:1.0 1109:1.0 1160:1.0 1167:1.0 1214:1.0 1241:1.0 1262:1.0 1264:1.0 1268:1.0 1292:1.0 1318:1.0 1325:1.0 1358:1.0 1393:1.0 1400:1.0 1406:1.0 1488:1.0 1754:1.0 1762:1.0 1777:1.0 1781:1.0 1915:1.0 2159:1.0 2215:1.0 2216:1.0 2239:1.0 2266:1.0 2408:1.0 2461:1.0 2472:1.0 2540:1.0 2624:1.0 2659:1.0 2675:1.0 2706:1.0 2716:1.0 2748:1.0 2773:1.0 2783:1.0 2968:1.0 2997:1.0 2998:1.0 3023:1.0 3146:1.0 3253:1.0 3268:1.0 3316:1.0
-0.01677168006496874 1:1.0 56:1.0 62:1.0 141:1.0 245:1.0 307:1.0 400:1.0 424:1.0 523:1.0 948:1.0 1033:1.0 1046:1.0 1062:1.0 1072:1.0 1157:1.0 1160:1.0 1244:1.0 1293:1.0 1318:1.0 1400:1.0 2299:1.0 2410:1.0 2503:1.0 2596:1.0 2868:1.0 2958:1.0 3146:1.0 3172:1.0 3271:1.0 3294:1.0
0.034213513001103465 240:1.0 251:1.0 295:1.0 312:1.0 334:1.0 545:1.0 721:1.0 771:1.0 786:1.0 911:1.0 947:1.0 1023:1.0 1071:1.0 1108:1.0 1167:1.0 1170:1.0 1247:1.0 1261:1.0 1283:1.0 1315:1.0 1347:1.0 1367:1.0 1382:1.0 1400:1.0 1412:1.0 1752:1.0 2222:1.0 2234:1.0 2364:1.0 2473:1.0 2548:1.0 2719:1.0 2737:1.0 2820:1.0 2860:1.0 2887:1.0 3146:1.0 3278:1.0 3320:1.0
0.034213513001103465 443:1.0 590:1.0 687:1.0 690:1.0 770:1.0 1025:1.0 1026:1.0 1060:1.0 1071:1.0 1081:1.0 1236:1.0 1249:1.0 1357:1.0 2425:1.0 2476:1.0 2569:1.0 2966:1.0 3146:1.0
0.034213513001103465 317:1.0 463:1.0 768:1.0 861:1.0 1066:1.0 1157:1.0 1236:1.0 1357:1.0 1400:1.0 1427:1.0 1437:1.0 1455:1.0 1809:1.0 2193:1.0 3146:1.0
0.034213513001103465 3:1.0 859:1.0 899:1.0 1166:1.0 1188:1.0 1420:1.0 1442:1.0 1703:1.0 2744:1.0 2924:1.0 3146:1.0 3315:1.0
0.034213513001103465 19:1.0 1062:1.0 1254:1.0 1265:1.0 1420:1.0 2448:1.0 3146:1.0 3303:1.0
-0.0019302236788663663 250:1.0 347:1.0 418:1.0 576:1.0 741:1.0 912:1.0 1031:1.0 1067:1.0 1090:1.0 1162:1.0 1196:1.0 1313:1.0 1315:1.0 1324:1.0 1325:1.0 1417:1.0 1875:1.0 2140:1.0 2295:1.0 2384:1.0 2432:1.0 2540:1.0 3057:1.0 3136:1.0 3146:1.0 3152:1.0 3221:1.0 3344:1.0
-0.004883527191271954 16:1.0 69:1.0 91:1.0 405:1.0 506:1.0 630:1.0 705:1.0 768:1.0 823:1.0 1066:1.0 1157:1.0 1167:1.0 1173:1.0 1315:1.0 1324:1.0 1358:1.0 1400:1.0 1417:1.0 1430:1.0 2202:1.0 2603:1.0 2609:1.0 2668:1.0 2675:1.0 2745:1.0 2773:1.0 2970:1.0 3086:1.0 3146:1.0 3225:1.0
-0.034213513001103465 18:1.0 142:1.0 208:1.0 587:1.0 1048:1.0 1176:1.0 1200:1.0 1203:1.0 1362:1.0 1371:1.0 1704:1.0 2167:1.0 2295:1.0 2784:1.0 2947:1.0 3141:1.0 3146:1.0 3221:1.0 3303:1.0
-0.034213513001103465 5:1.0 142:1.0 551:1.0 741:1.0 905:1.0 1020:1.0 1048:1.0 1176:1.0 1200:1.0 1313:1.0 1324:1.0 1371:1.0 1704:1.0 2295:1.0 2432:1.0 2947:1.0 3043:1.0 3146:1.0 3221:1.0
-0.034213513001103465 545:1.0 624:1.0 1048:1.0 1283:1.0 1367:1.0 1420:1.0 2157:1.0 2202:1.0 2469:1.0 2781:1.0 3146:1.0 3213:1.0
0.009269446287164446 5:1.0 98:1.0 234:1.0 315:1.0 446:1.0 491:1.0 620:1.0 623:1.0 673:1.0 719:1.0 735:1.0 854:1.0 877:1.0 987:1.0 1013:1.0 1070:1.0 1071:1.0 1170:1.0 1173:1.0 1214:1.0 1223:1.0 1249:1.0 1323:1.0 1324:1.0 1325:1.0 1329:1.0 1353:1.0 1358:1.0 1366:1.0 1394:1.0 1427:1.0 1436:1.0 1562:1.0 1661:1.0 1952:1.0 2191:1.0 2258:1.0 2349:1.0 2401:1.0 2461:1.0 2542:1.0 2566:1.0 2651:1.0 2716:1.0 2806:1.0 2940:1.0 2966:1.0 3146:1.0 3268:1.0 3284:1.0
0.034213513001103465 42:1.0 90:1.0 135:1.0 207:1.0 494:1.0 598:1.0 640:1.0 681:1.0 725:1.0 751:1.0 758:1.0 771:1.0 776:1.0 876:1.0 911:1.0 958:1.0 984:1.0 1023:1.0 1066:1.0 1071:1.0 1170:1.0 1174:1.0 1200:1.0 1207:1.0 1250:1.0 1264:1.0 1294:1.0 1302:1.0 1318:1.0 1325:1.0 1347:1.0 1358:1.0 1367:1.0 1369:1.0 1370:1.0 1396:1.0 1406:1.0 1455:1.0 1591:1.0 1643:1.0 1674:1.0 1772:1.0 1859:1.0 1954:1.0 2204:1.0 2364:1.0 2408:1.0 2597:1.0 2609:1.0 2649:1.0 2749:1.0 2798:1.0 2805:1.0 2869:1.0 2897:1.0 2907:1.0 2934:1.0 2966:1.0 2987:1.0 3146:1.0 3179:1.0 3315:1.0
0.025367569965488338 5:1.0 16:1.0 211:1.0 334:1.0 341:1.0 351:1.0 407:1.0 486:1.0 542:1.0 558:1.0 581:1.0 620:1.0 623:1.0 672:1.0 758:1.0 774:1.0 809:1.0 913:1.0 929:1.0 943:1.0 953:1.0 973:1.0 977:1.0 1062:1.0 1070:1.0 1071:1.0 1091:1.0 1099:1.0 1109:1.0 1157:1.0 1167:1.0 1184:1.0 1207:1.0 1214:1.0 1226:1.0 1247:1.0 1302:1.0 1307:1.0 1315:1.0 1325:1.0 1353:1.0 1358:1.0 1396:1.0 1400:1.0 1402:1.0 1412:1.0 1426:1.0 1707:1.0 1819:1.0 1874:1.0 2031:1.0 2160:1.0 2179:1.0 2237:1.0 2290:1.0 2408:1.0 2461:1.0 2520:1.0 2556:1.0 2646:1.0 2668:1.0 2703:1.0 2748:1.0 2860:1.0 2898:1.0 2966:1.0 3105:1.0 3146:1.0 3200:1.0 3221:1.0 3252:1.0 3278:1.0 3293:1.0 3343:1.0
0.034213513001103465 3:1.0 5:1.0 15:1.0 447:1.0 456:1.0 543:1.0 607:1.0 609:1.0 622:1.0 644:1.0 843:1.0 869:1.0 888:1.0 890:1.0 962:1.0 1008:1.0 1023:1.0 1033:1.0 1040:1.0 1059:1.0 1064:1.0 1069:1.0 1096:1.0 1102:1.0 1106:1.0 1107:1.0 1143:1.0 1160:1.0 1166:1.0 1170:1.0 1185:1.0 1262:1.0 1297:1.0 1326:1.0 1347:1.0 1352:1.0 1357:1.0 1371:1.0 1373:1.0 1381:1.0 1391:1.0 1393:1.0 1439:1.0 1789:1.0 1800:1.0 1862:1.0 1924:1.0 2295:1.0 2311:1.0 2365:1.0 2393:1.0 2410:1.0 2423:1.0 2492:1.0 2535:1.0 2540:1.0 2654:1.0 2668:1.0 2674:1.0 2773:1.0 2784:1.0 2815:1.0 2898:1.0 2940:1.0 2997:1.0 3146:1.0 3191:1.0 3212:1.0 3214:1.0 3261:1.0 3268:1.0 3276:1.0 3284:1.0
0.0115487385987983 3:1.0 21:1.0 76:1.0 88:1.0 90:1.0 111:1.0 121:1.0 199:1.0 230:1.0 278:1.0 309:1.0 431:1.0 470:1.0 510:1.0 544:1.0 574:1.0 623:1.0 630:1.0 742:1.0 753:1.0 771:1.0 797:1.0 854:1.0 877:1.0 879:1.0 946:1.0 1013:1.0 1023:1.0 1031:1.0 1040:1.0 1057:1.0 1066:1.0 1070:1.0 1071:1.0 1083:1.0 1102:1.0 1131:1.0 1143:1.0 1159:1.0 1160:1.0 1166:1.0 1167:1.0 1170:1.0 1178:1.0 1214:1.0 1230:1.0 1231:1.0 1302:1.0 1311:1.0 1322:1.0 1323:1.0 1324:1.0 1325:1.0 1326:1.0 1330:1.0 1347:1.0 1358:1.0 1371:1.0 1390:1.0 1408:1.0 1414:1.0 1415:1.0 1427:1.0 1436:1.0 1439:1.0 1451:1.0 1459:1.0 1562:1.0 1707:1.0 1740:1.0 1916:1.0 1927:1.0 1954:1.0 2073:1.0 2075:1.0 2117:1.0 2150:1.0 2191:1.0 2268:1.0 2317:1.0 2349:1.0 2364:1.0 2430:1.0 2461:1.0 2491:1.0 2493:1.0 2508:1.0 2649:1.0 2654:1.0 2668:1.0 2701:1.0 2719:1.0 2822:1.0 2852:1.0 2913:1.0 2919:1.0 2934:1.0 2940:1.0 2946:1.0 2966:1.0 2969:1.0 2997:1.0 3040:1.0 3146:1.0 3191:1.0 3212:1.0 3286:1.0 3287:1.0 3288:1.0
-0.027762510640723406 1:1.0 3:1.0 40:1.0 620:1.0 653:1.0 733:1.0 854:1.0 864:1.0 928:1.0 1020:1.0 1027:1.0 1040:1.0 1048:1.0 1062:1.0 1070:1.0 1071:1.0 1118:1.0 1125:1.0 1158:1.0 1164:1.0 1170:1.0 1179:1.0 1188:1.0 1200:1.0 1214:1.0 1243:1.0 1253:1.0 1315:1.0 1325:1.0 1329:1.0 1381:1.0 1426:1.0 1440:1.0 1642:1.0 2198:1.0 2381:1.0 2430:1.0 2461:1.0 2501:1.0 2649:1.0 2654:1.0 2749:1.0 2773:1.0 2805:1.0 2997:1.0 2998:1.0 3046:1.0 3109:1.0 3146:1.0 3169:1.0 3194:1.0 3212:1.0 3252:1.0 3277:1.0 3315:1.0 3347:1.0
-0.008413075199500717 2:1.0 3:1.0 5:1.0 36:1.0 123:1.0 204:1.0 351:1.0 457:1.0 504:1.0 926:1.0 1016:1.0 1045:1.0 1109:1.0 1123:1.0 1152:1.0 1262:1.0 1292:1.0 1358:1.0 1400:1.0 1735:1.0 1862:1.0 2094:1.0 2175:1.0 2461:1.0 2540:1.0 2783:1.0 2898:1.0 2970:1.0 3123:1.0 3146:1.0 3315:1.0
-8.01529864091881E-4 3:1.0 16:1.0 122:1.0 132:1.0 133:1.0 270:1.0 288:1.0 290:1.0 315:1.0 327:1.0 351:1.0 367:1.0 372:1.0 430:1.0 533:1.0 569:1.0 577:1.0 599:1.0 644:1.0 664:1.0 705:1.0 833:1.0 843:1.0 858:1.0 888:1.0 977:1.0 1032:1.0 1033:1.0 1064:1.0 1066:1.0 1068:1.0 1101:1.0 1109:1.0 1160:1.0 1167:1.0 1170:1.0 1177:1.0 1230:1.0 1261:1.0 1301:1.0 1314:1.0 1315:1.0 1324:1.0 1325:1.0 1329:1.0 1332:1.0 1347:1.0 1353:1.0 1358:1.0 1400:1.0 1402:1.0 1404:1.0 1455:1.0 1637:1.0 1852:1.0 2020:1.0 2034:1.0 2048:1.0 2184:1.0 2191:1.0 2461:1.0 2472:1.0 2513:1.0 2540:1.0 2609:1.0 2618:1.0 2668:1.0 2688:1.0 2716:1.0 2766:1.0 2791:1.0 2929:1.0 2940:1.0 3146:1.0 3193:1.0 3212:1.0 3221:1.0 3252:1.0 3284:1.0 3286:1.0 3354:1.0
-0.0014852662717161126 3:1.0 83:1.0 160:1.0 226:1.0 270:1.0 315:1.0 336:1.0 559:1.0 569:1.0 858:1.0 964:1.0 1066:1.0 1070:1.0 1071:1.0 1199:1.0 1201:1.0 1207:1.0 1220:1.0 1294:1.0 1318:1.0 1329:1.0 1334:1.0 1358:1.0 1362:1.0 1404:1.0 1454:1.0 1455:1.0 1777:1.0 1852:1.0 1960:1.0 2079:1.0 2408:1.0 2461:1.0 2491:1.0 2597:1.0 2735:1.0 2966:1.0 3146:1.0 3237:1.0 3286:1.0 3303:1.0 3332:1.0
-0.024928669995960107 5:1.0 86:1.0 131:1.0 256:1.0 270:1.0 295:1.0 429:1.0 442:1.0 471:1.0 641:1.0 681:1.0 762:1.0 791:1.0 858:1.0 891:1.0 904:1.0 975:1.0 1023:1.0 1040:1.0 1063:1.0 1066:1.0 1076:1.0 1109:1.0 1114:1.0 1144:1.0 1155:1.0 1163:1.0 1166:1.0 1170:1.0 1223:1.0 1224:1.0 1236:1.0 1293:1.0 1313:1.0 1357:1.0 1358:1.0 1370:1.0 1400:1.0 1406:1.0 1413:1.0 1451:1.0 1455:1.0 1643:1.0 1716:1.0 1752:1.0 1769:1.0 1781:1.0 1789:1.0 1888:1.0 1908:1.0 1931:1.0 1935:1.0 1968:1.0 2364:1.0 2408:1.0 2423:1.0 2488:1.0 2502:1.0 2556:1.0 2649:1.0 2753:1.0 2761:1.0 2764:1.0 2773:1.0 2847:1.0 2966:1.0 2997:1.0 3146:1.0 3221:1.0 3259:1.0 3268:1.0 3278:1.0
0.034213513001103465 3:1.0 44:1.0 93:1.0 131:1.0 170:1.0 184:1.0 404:1.0 417:1.0 491:1.0 600:1.0 698:1.0 1093:1.0 1135:1.0 1166:1.0 1175:1.0 1189:1.0 1283:1.0 1358:1.0 1393:1.0 1394:1.0 1398:1.0 1412:1.0 1427:1.0 1451:1.0 1470:1.0 1772:1.0 2121:1.0 2287:1.0 2461:1.0 2481:1.0 2504:1.0 2773:1.0 2853:1.0 2929:1.0 3060:1.0 3146:1.0 3316:1.0
0.034213513001103465 172:1.0 211:1.0 351:1.0 402:1.0 415:1.0 416:1.0 672:1.0 913:1.0 1109:1.0 1160:1.0 1167:1.0 1268:1.0 1295:1.0 1358:1.0 1362:1.0 1371:1.0 1396:1.0 1412:1.0 1866:1.0 2415:1.0 2461:1.0 2471:1.0 2540:1.0 2683:1.0 2781:1.0 2919:1.0 3082:1.0 3146:1.0 3239:1.0
0.034213513001103465 1:1.0 93:1.0 104:1.0 329:1.0 480:1.0 1062:1.0 1125:1.0 1358:1.0 1393:1.0 1420:1.0 1749:1.0 2169:1.0 2447:1.0 2522:1.0 3028:1.0 3146:1.0 3295:1.0
0.034213513001103465 683:1.0 986:1.0 1022:1.0 1104:1.0 1127:1.0 1241:1.0 1282:1.0 1349:1.0 1777:1.0 2124:1.0 2144:1.0 2553:1.0 3146:1.0 3228:1.0 3285:1.0
0.034213513001103465 3:1.0 54:1.0 57:1.0 194:1.0 695:1.0 705:1.0 739:1.0 1104:1.0 1127:1.0 1148:1.0 1214:1.0 1324:1.0 1325:1.0 1334:1.0 1339:1.0 1358:1.0 1396:1.0 1421:1.0 1773:1.0 1983:1.0 2202:1.0 2229:1.0 2674:1.0 2943:1.0 3067:1.0 3084:1.0 3146:1.0 3259:1.0 3277:1.0 3343:1.0
-0.015093229585207759 91:1.0 123:1.0 351:1.0 444:1.0 463:1.0 469:1.0 562:1.0 672:1.0 713:1.0 913:1.0 1060:1.0 1094:1.0 1109:1.0 1167:1.0 1173:1.0 1183:1.0 1236:1.0 1323:1.0 1337:1.0 1357:1.0 1358:1.0 1396:1.0 1400:1.0 1417:1.0 1427:1.0 1674:1.0 2355:1.0 2439:1.0 2472:1.0 2478:1.0 2504:1.0 2540:1.0 2569:1.0 2609:1.0 2970:1.0 3017:1.0 3146:1.0 3147:1.0
-0.001625124339437453 3:1.0 224:1.0 620:1.0 683:1.0 925:1.0 934:1.0 1022:1.0 1023:1.0 1070:1.0 1083:1.0 1104:1.0 1127:1.0 1146:1.0 1214:1.0 1283:1.0 1325:1.0 1330:1.0 1371:1.0 1382:1.0 1678:1.0 1772:1.0 2156:1.0 2364:1.0 2512:1.0 2918:1.0 2947:1.0 2963:1.0 2967:1.0 2987:1.0 3146:1.0 3316:1.0
-0.034213513001103465 5:1.0 160:1.0 545:1.0 550:1.0 598:1.0 623:1.0 674:1.0 911:1.0 1070:1.0 1071:1.0 1250:1.0 1283:1.0 1294:1.0 1367:1.0 1400:1.0 1772:1.0 2122:1.0 2508:1.0 2887:1.0 2898:1.0 2969:1.0 3123:1.0 3146:1.0 3316:1.0
-0.034213513001103465 2:1.0 3:1.0 5:1.0 31:1.0 56:1.0 161:1.0 195:1.0 400:1.0 489:1.0 835:1.0 1045:1.0 1072:1.0 1126:1.0 1157:1.0 1160:1.0 1271:1.0 1314:1.0 1391:1.0 1553:1.0 1669:1.0 1819:1.0 2094:1.0 2134:1.0 2213:1.0 2570:1.0 2764:1.0 2912:1.0 2918:1.0 2933:1.0 3146:1.0 3315:1.0
-0.034213513001103465 224:1.0 446:1.0 620:1.0 623:1.0 1025:1.0 1070:1.0 1071:1.0 1214:1.0 1249:1.0 1283:1.0 1325:1.0 1360:1.0 2157:1.0 2202:1.0 2858:1.0 2947:1.0 3146:1.0 3214:1.0 3268:1.0 3343:1.0
0.034213513001103465 142:1.0 270:1.0 437:1.0 551:1.0 634:1.0 705:1.0 778:1.0 858:1.0 1026:1.0 1048:1.0 1066:1.0 1200:1.0 1275:1.0 1324:1.0 1358:1.0 1371:1.0 1450:1.0 1455:1.0 1686:1.0 2161:1.0 2202:1.0 2408:1.0 2461:1.0 2575:1.0 2791:1.0 2966:1.0 2998:1.0 3086:1.0 3134:1.0 3146:1.0 3295:1.0
0.034213513001103465 1:1.0 16:1.0 93:1.0 351:1.0 548:1.0 549:1.0 630:1.0 676:1.0 744:1.0 763:1.0 805:1.0 833:1.0 962:1.0 1019:1.0 1040:1.0 1062:1.0 1066:1.0 1109:1.0 1167:1.0 1230:1.0 1260:1.0 1278:1.0 1315:1.0 1358:1.0 1375:1.0 1393:1.0 1394:1.0 1444:1.0 1455:1.0 2153:1.0 2167:1.0 2229:1.0 2295:1.0 2395:1.0 2432:1.0 2448:1.0 2461:1.0 2668:1.0 2715:1.0 2752:1.0 2768:1.0 2997:1.0 3113:1.0 3146:1.0 3218:1.0 3284:1.0 3341:1.0
0.034213513001103465 5:1.0 121:1.0 255:1.0 413:1.0 489:1.0 621:1.0 647:1.0 687:1.0 716:1.0 783:1.0 792:1.0 871:1.0 996:1.0 1026:1.0 1031:1.0 1040:1.0 1071:1.0 1090:1.0 1155:1.0 1160:1.0 1210:1.0 1214:1.0 1253:1.0 1261:1.0 1314:1.0 1322:1.0 1324:1.0 1325:1.0 1327:1.0 1343:1.0 1384:1.0 1402:1.0 1414:1.0 1567:1.0 1675:1.0 1751:1.0 1759:1.0 1851:1.0 1875:1.0 1980:1.0 2004:1.0 2073:1.0 2138:1.0 2198:1.0 2202:1.0 2649:1.0 2659:1.0 2783:1.0 2798:1.0 2805:1.0 2811:1.0 2898:1.0 2947:1.0 2966:1.0 2997:1.0 3086:1.0 3146:1.0 3191:1.0 3203:1.0 3212:1.0 3221:1.0 3243:1.0 3252:1.0
0.034213513001103465 131:1.0 205:1.0 380:1.0 740:1.0 762:1.0 842:1.0 878:1.0 1005:1.0 1163:1.0 1166:1.0 1167:1.0 1240:1.0 1262:1.0 1268:1.0 1357:1.0 1400:1.0 1406:1.0 1414:1.0 1451:1.0 1457:1.0 1738:1.0 1946:1.0 1970:1.0 2401:1.0 2410:1.0 2618:1.0 2649:1.0 2716:1.0 2754:1.0 2813:1.0 2997:1.0 3146:1.0 3200:1.0 3238:1.0 3288:1.0
0.034213513001103465 5:1.0 90:1.0 471:1.0 549:1.0 641:1.0 876:1.0 910:1.0 1023:1.0 1052:1.0 1066:1.0 1090:1.0 1109:1.0 1155:1.0 1260:1.0 1313:1.0 1348:1.0 1384:1.0 1422:1.0 1455:1.0 1908:1.0 1931:1.0 2055:1.0 2364:1.0 2431:1.0 2556:1.0 2688:1.0 2773:1.0 2783:1.0 2837:1.0 3146:1.0 3221:1.0
-0.023431962898748913 3:1.0 5:1.0 6:1.0 54:1.0 60:1.0 101:1.0 131:1.0 220:1.0 253:1.0 270:1.0 333:1.0 336:1.0 409:1.0 433:1.0 588:1.0 621:1.0 695:1.0 705:1.0 706:1.0 739:1.0 783:1.0 858:1.0 868:1.0 914:1.0 1026:1.0 1028:1.0 1040:1.0 1044:1.0 1054:1.0 1066:1.0 1071:1.0 1083:1.0 1129:1.0 1148:1.0 1160:1.0 1165:1.0 1166:1.0 1201:1.0 1214:1.0 1247:1.0 1261:1.0 1268:1.0 1280:1.0 1294:1.0 1322:1.0 1324:1.0 1325:1.0 1334:1.0 1339:1.0 1358:1.0 1381:1.0 1389:1.0 1421:1.0 1451:1.0 1454:1.0 1455:1.0 1615:1.0 1773:1.0 1816:1.0 1826:1.0 1849:1.0 1983:1.0 2073:1.0 2148:1.0 2229:1.0 2295:1.0 2308:1.0 2423:1.0 2432:1.0 2520:1.0 2608:1.0 2674:1.0 2708:1.0 2764:1.0 2783:1.0 2943:1.0 2966:1.0 2969:1.0 2982:1.0 2997:1.0 3032:1.0 3146:1.0 3191:1.0 3231:1.0 3259:1.0 3262:1.0 3263:1.0 3277:1.0 3322:1.0 3343:1.0
-0.034213513001103465 48:1.0 351:1.0 439:1.0 491:1.0 508:1.0 630:1.0 676:1.0 705:1.0 719:1.0 725:1.0 822:1.0 913:1.0 959:1.0 1066:1.0 1109:1.0 1114:1.0 1167:1.0 1302:1.0 1314:1.0 1319:1.0 1323:1.0 1324:1.0 1337:1.0 1358:1.0 1394:1.0 1427:1.0 1444:1.0 1455:1.0 1577:1.0 1707:1.0 1794:1.0 2067:1.0 2186:1.0 2202:1.0 2461:1.0 2588:1.0 2637:1.0 2741:1.0 2773:1.0 2966:1.0 3072:1.0 3076:1.0 3086:1.0 3112:1.0 3146:1.0 3187:1.0 3215:1.0
-0.0020383787414625194 15:1.0 156:1.0 169:1.0 270:1.0 320:1.0 351:1.0 403:1.0 416:1.0 417:1.0 489:1.0 647:1.0 826:1.0 858:1.0 900:1.0 1014:1.0 1040:1.0 1066:1.0 1092:1.0 1096:1.0 1109:1.0 1118:1.0 1135:1.0 1160:1.0 1167:1.0 1189:1.0 1195:1.0 1314:1.0 1315:1.0 1324:1.0 1358:1.0 1368:1.0 1412:1.0 1455:1.0 2186:1.0 2198:1.0 2202:1.0 2232:1.0 2400:1.0 2461:1.0 2581:1.0 2716:1.0 2773:1.0 2803:1.0 2859:1.0 2864:1.0 2966:1.0 2997:1.0 3061:1.0 3065:1.0 3084:1.0 3086:1.0 3146:1.0 3238:1.0 3270:1.0
0.018184163290589844 5:1.0 39:1.0 260:1.0 334:1.0 384:1.0 416:1.0 454:1.0 547:1.0 610:1.0 644:1.0 720:1.0 786:1.0 839:1.0 843:1.0 888:1.0 947:1.0 1033:1.0 1064:1.0 1071:1.0 1101:1.0 1160:1.0 1167:1.0 1170:1.0 1200:1.0 1234:1.0 1250:1.0 1315:1.0 1327:1.0 1347:1.0 1355:1.0 1356:1.0 1357:1.0 1412:1.0 1419:1.0 1439:1.0 1750:1.0 1819:1.0 1918:1.0 1955:1.0 2075:1.0 2364:1.0 2370:1.0 2447:1.0 2490:1.0 2502:1.0 2668:1.0 2749:1.0 2773:1.0 2893:1.0 2919:1.0 3016:1.0 3043:1.0 3146:1.0 3277:1.0 3278:1.0 3284:1.0
-0.0011636488994015506 224:1.0 620:1.0 623:1.0 722:1.0 1070:1.0 1071:1.0 1214:1.0 1283:1.0 1325:1.0 1415:1.0 1494:1.0 1772:1.0 1958:1.0 2281:1.0 2508:1.0 2969:1.0 3146:1.0 3259:1.0 3316:1.0
0.034213513001103465 3:1.0 21:1.0 65:1.0 230:1.0 295:1.0 337:1.0 600:1.0 702:1.0 771:1.0 889:1.0 949:1.0 1004:1.0 1023:1.0 1048:1.0 1071:1.0 1083:1.0 1116:1.0 1148:1.0 1164:1.0 1170:1.0 1173:1.0 1214:1.0 1261:1.0 1283:1.0 1325:1.0 1347:1.0 1392:1.0 1400:1.0 1451:1.0 1496:1.0 1772:1.0 1808:1.0 1850:1.0 1955:1.0 2110:1.0 2328:1.0 2354:1.0 2364:1.0 2437:1.0 2649:1.0 2654:1.0 2668:1.0 2688:1.0 2749:1.0 2934:1.0 2947:1.0 2967:1.0 3146:1.0 3288:1.0 3316:1.0
0.034213513001103465 92:1.0 150:1.0 224:1.0 413:1.0 446:1.0 620:1.0 623:1.0 931:1.0 1022:1.0 1031:1.0 1070:1.0 1071:1.0 1140:1.0 1214:1.0 1249:1.0 1283:1.0 1325:1.0 1358:1.0 1551:1.0 1762:1.0 1772:1.0 2472:1.0 2607:1.0 2749:1.0 2794:1.0 3014:1.0 3146:1.0 3268:1.0 3316:1.0
0.034213513001103465 3:1.0 224:1.0 275:1.0 620:1.0 623:1.0 1070:1.0 1071:1.0 1111:1.0 1123:1.0 1129:1.0 1214:1.0 1283:1.0 1325:1.0 1420:1.0 1494:1.0 1772:1.0 1773:1.0 2281:1.0 2508:1.0 2674:1.0 2935:1.0 2969:1.0 3146:1.0 3258:1.0 3259:1.0 3316:1.0
0.034213513001103465 3:1.0 65:1.0 76:1.0 137:1.0 224:1.0 337:1.0 496:1.0 903:1.0 1025:1.0 1071:1.0 1102:1.0 1116:1.0 1143:1.0 1174:1.0 1214:1.0 1283:1.0 1325:1.0 1451:1.0 1772:1.0 1916:1.0 2491:1.0 2493:1.0 2649:1.0 2947:1.0 3146:1.0 3212:1.0 3296:1.0 3316:1.0
-0.034213513001103465 3:1.0 6:1.0 65:1.0 255:1.0 337:1.0 600:1.0 889:1.0 1071:1.0 1090:1.0 1116:1.0 1261:1.0 1283:1.0 1384:1.0 1451:1.0 1496:1.0 1772:1.0 1850:1.0 2328:1.0 2508:1.0 2649:1.0 2934:1.0 2969:1.0 3146:1.0 3316:1.0
-0.034213513001103465 65:1.0 137:1.0 224:1.0 255:1.0 337:1.0 889:1.0 903:1.0 1071:1.0 1090:1.0 1116:1.0 1174:1.0 1214:1.0 1261:1.0 1283:1.0 1325:1.0 1384:1.0 1451:1.0 1581:1.0 1710:1.0 1772:1.0 1864:1.0 1882:1.0 1927:1.0 2508:1.0 2649:1.0 2798:1.0 2969:1.0 3146:1.0 3243:1.0 3259:1.0 3316:1.0
-6.889805166416275E-4 131:1.0 137:1.0 224:1.0 295:1.0 620:1.0 623:1.0 771:1.0 847:1.0 859:1.0 903:1.0 1023:1.0 1070:1.0 1071:1.0 1155:1.0 1166:1.0 1170:1.0 1174:1.0 1188:1.0 1198:1.0 1214:1.0 1283:1.0 1325:1.0 1347:1.0 1400:1.0 1418:1.0 1451:1.0 1494:1.0 1633:1.0 1730:1.0 1769:1.0 1772:1.0 1939:1.0 2014:1.0 2212:1.0 2281:1.0 2508:1.0 2649:1.0 2657:1.0 2688:1.0 2969:1.0 3057:1.0 3146:1.0 3212:1.0 3221:1.0 3262:1.0 3288:1.0 3316:1.0 3339:1.0 3354:1.0
-0.02175786065559051 5:1.0 6:1.0 113:1.0 224:1.0 546:1.0 616:1.0 738:1.0 776:1.0 830:1.0 884:1.0 899:1.0 960:1.0 996:1.0 1038:1.0 1089:1.0 1174:1.0 1188:1.0 1197:1.0 1214:1.0 1241:1.0 1268:1.0 1283:1.0 1325:1.0 1332:1.0 1343:1.0 1350:1.0 1389:1.0 1413:1.0 1420:1.0 1441:1.0 1505:1.0 1772:1.0 2080:1.0 2337:1.0 2374:1.0 2401:1.0 2408:1.0 2508:1.0 2641:1.0 2649:1.0 2781:1.0 2967:1.0 3146:1.0 3221:1.0 3311:1.0 3316:1.0
-0.008653167805827061 3:1.0 131:1.0 224:1.0 278:1.0 295:1.0 373:1.0 420:1.0 464:1.0 609:1.0 622:1.0 771:1.0 890:1.0 996:1.0 1023:1.0 1031:1.0 1106:1.0 1143:1.0 1166:1.0 1170:1.0 1214:1.0 1262:1.0 1283:1.0 1325:1.0 1343:1.0 1347:1.0 1373:1.0 1400:1.0 1451:1.0 1772:1.0 2026:1.0 2212:1.0 2493:1.0 2513:1.0 2688:1.0 2716:1.0 2723:1.0 3057:1.0 3146:1.0 3212:1.0 3243:1.0 3284:1.0 3316:1.0 3339:1.0 3354:1.0
0.034213513001103465 20:1.0 48:1.0 128:1.0 130:1.0 277:1.0 308:1.0 313:1.0 341:1.0 400:1.0 489:1.0 543:1.0 549:1.0 557:1.0 575:1.0 588:1.0 644:1.0 647:1.0 783:1.0 821:1.0 1003:1.0 1028:1.0 1033:1.0 1040:1.0 1064:1.0 1066:1.0 1108:1.0 1109:1.0 1114:1.0 1156:1.0 1157:1.0 1160:1.0 1167:1.0 1260:1.0 1261:1.0 1268:1.0 1280:1.0 1314:1.0 1324:1.0 1391:1.0 1455:1.0 1792:1.0 1819:1.0 1892:1.0 2202:1.0 2401:1.0 2502:1.0 2624:1.0 2666:1.0 2783:1.0 2861:1.0 2877:1.0 2923:1.0 2932:1.0 2976:1.0 2997:1.0 3040:1.0 3086:1.0 3146:1.0 3215:1.0 3248:1.0 3273:1.0 3278:1.0 3353:1.0
0.034213513001103465 59:1.0 128:1.0 155:1.0 164:1.0 277:1.0 489:1.0 565:1.0 669:1.0 703:1.0 780:1.0 791:1.0 923:1.0 966:1.0 997:1.0 1017:1.0 1023:1.0 1033:1.0 1040:1.0 1057:1.0 1074:1.0 1109:1.0 1156:1.0 1160:1.0 1161:1.0 1163:1.0 1174:1.0 1181:1.0 1284:1.0 1292:1.0 1309:1.0 1314:1.0 1331:1.0 1344:1.0 1400:1.0 1693:1.0 1781:1.0 1805:1.0 2011:1.0 2174:1.0 2202:1.0 2298:1.0 2364:1.0 2390:1.0 2503:1.0 2522:1.0 2587:1.0 2689:1.0 2908:1.0 2918:1.0 2938:1.0 2997:1.0 3046:1.0 3084:1.0 3146:1.0 3268:1.0 3284:1.0 3322:1.0 3339:1.0
0.034213513001103465 28:1.0 56:1.0 123:1.0 166:1.0 188:1.0 197:1.0 342:1.0 351:1.0 400:1.0 489:1.0 490:1.0 504:1.0 542:1.0 558:1.0 619:1.0 732:1.0 809:1.0 853:1.0 1000:1.0 1072:1.0 1091:1.0 1099:1.0 1109:1.0 1117:1.0 1151:1.0 1152:1.0 1155:1.0 1157:1.0 1160:1.0 1196:1.0 1205:1.0 1207:1.0 1262:1.0 1264:1.0 1277:1.0 1314:1.0 1325:1.0 1327:1.0 1358:1.0 1373:1.0 1400:1.0 1777:1.0 1792:1.0 1885:1.0 2024:1.0 2183:1.0 2229:1.0 2303:1.0 2372:1.0 2401:1.0 2408:1.0 2435:1.0 2461:1.0 2472:1.0 2540:1.0 2582:1.0 2651:1.0 2707:1.0 2916:1.0 3060:1.0 3146:1.0 3163:1.0 3182:1.0 3221:1.0 3259:1.0 3277:1.0 3278:1.0 3343:1.0
0.026771377432181116 60:1.0 193:1.0 266:1.0 277:1.0 311:1.0 351:1.0 389:1.0 400:1.0 477:1.0 489:1.0 538:1.0 599:1.0 603:1.0 621:1.0 630:1.0 753:1.0 754:1.0 826:1.0 833:1.0 868:1.0 913:1.0 965:1.0 1022:1.0 1040:1.0 1044:1.0 1060:1.0 1066:1.0 1068:1.0 1075:1.0 1088:1.0 1094:1.0 1100:1.0 1109:1.0 1111:1.0 1135:1.0 1157:1.0 1160:1.0 1167:1.0 1207:1.0 1230:1.0 1236:1.0 1277:1.0 1294:1.0 1314:1.0 1322:1.0 1357:1.0 1358:1.0 1371:1.0 1402:1.0 1431:1.0 1805:1.0 1813:1.0 1825:1.0 1862:1.0 1881:1.0 1906:1.0 2067:1.0 2107:1.0 2190:1.0 2332:1.0 2351:1.0 2356:1.0 2390:1.0 2401:1.0 2408:1.0 2439:1.0 2461:1.0 2476:1.0 2491:1.0 2540:1.0 2637:1.0 2719:1.0 2805:1.0 2888:1.0 2916:1.0 2967:1.0 2987:1.0 2997:1.0 3098:1.0 3146:1.0 3160:1.0 3167:1.0 3221:1.0 3268:1.0 3339:1.0
0.034213513001103465 277:1.0 489:1.0 740:1.0 913:1.0 966:1.0 1109:1.0 1160:1.0 1167:1.0 1314:1.0 1357:1.0 1400:1.0 1964:1.0 2114:1.0 2345:1.0 2472:1.0 2572:1.0 2748:1.0 3146:1.0 3218:1.0
-0.008173426753676938 1:1.0 30:1.0 128:1.0 167:1.0 282:1.0 302:1.0 321:1.0 489:1.0 962:1.0 966:1.0 984:1.0 1002:1.0 1040:1.0 1062:1.0 1156:1.0 1160:1.0 1175:1.0 1207:1.0 1230:1.0 1268:1.0 1314:1.0 1335:1.0 1358:1.0 1369:1.0 1393:1.0 1398:1.0 1400:1.0 1446:1.0 1457:1.0 1674:1.0 1738:1.0 1749:1.0 1795:1.0 1824:1.0 2393:1.0 2397:1.0 2401:1.0 2408:1.0 2447:1.0 2472:1.0 2508:1.0 2769:1.0 2813:1.0 2955:1.0 2997:1.0 3040:1.0 3061:1.0 3146:1.0
-0.029114747372113954 5:1.0 235:1.0 243:1.0 289:1.0 531:1.0 855:1.0 1023:1.0 1031:1.0 1168:1.0 1362:1.0 1382:1.0 1391:1.0 1440:1.0 1492:1.0 1566:1.0 1666:1.0 1777:1.0 1960:1.0 2082:1.0 2364:1.0 2772:1.0 3129:1.0 3146:1.0 3303:1.0
-0.02698261374044984 5:1.0 16:1.0 30:1.0 51:1.0 83:1.0 145:1.0 312:1.0 440:1.0 489:1.0 543:1.0 575:1.0 588:1.0 655:1.0 771:1.0 785:1.0 839:1.0 1003:1.0 1023:1.0 1033:1.0 1071:1.0 1160:1.0 1167:1.0 1170:1.0 1268:1.0 1314:1.0 1315:1.0 1347:1.0 1362:1.0 1391:1.0 1393:1.0 1412:1.0 1726:1.0 1777:1.0 1960:1.0 2043:1.0 2364:1.0 2444:1.0 2461:1.0 2533:1.0 2540:1.0 2679:1.0 2764:1.0 2773:1.0 2934:1.0 3084:1.0 3144:1.0 3146:1.0 3303:1.0
-0.00911344965347615 3:1.0 185:1.0 231:1.0 306:1.0 342:1.0 428:1.0 490:1.0 891:1.0 901:1.0 918:1.0 976:1.0 977:1.0 980:1.0 1000:1.0 1016:1.0 1071:1.0 1111:1.0 1114:1.0 1152:1.0 1170:1.0 1187:1.0 1196:1.0 1244:1.0 1282:1.0 1292:1.0 1315:1.0 1325:1.0 1400:1.0 1406:1.0 1409:1.0 1486:1.0 1673:1.0 1777:1.0 1915:1.0 1985:1.0 2124:1.0 2144:1.0 2216:1.0 2408:1.0 2546:1.0 2612:1.0 2649:1.0 2668:1.0 2783:1.0 2904:1.0 2969:1.0 3146:1.0 3152:1.0 3160:1.0 3188:1.0 3189:1.0
-0.034213513001103465 199:1.0 299:1.0 400:1.0 413:1.0 415:1.0 582:1.0 860:1.0 907:1.0 931:1.0 980:1.0 1022:1.0 1031:1.0 1157:1.0 1160:1.0 1210:1.0 1214:1.0 1282:1.0 1302:1.0 1325:1.0 1371:1.0 1406:1.0 1439:1.0 1486:1.0 1777:1.0 1915:1.0 1941:1.0 2124:1.0 2144:1.0 2216:1.0 2306:1.0 2408:1.0 2430:1.0 2472:1.0 2602:1.0 2649:1.0 2741:1.0 2783:1.0 2987:1.0 3134:1.0 3146:1.0 3259:1.0
0.034213513001103465 3:1.0 65:1.0 74:1.0 337:1.0 600:1.0 790:1.0 1008:1.0 1069:1.0 1071:1.0 1116:1.0 1196:1.0 1202:1.0 1243:1.0 1283:1.0 1325:1.0 1326:1.0 1371:1.0 1451:1.0 1496:1.0 1715:1.0 1772:1.0 1850:1.0 1864:1.0 1927:1.0 2328:1.0 2508:1.0 2654:1.0 2969:1.0 2970:1.0 2998:1.0 3057:1.0 3146:1.0 3243:1.0 3316:1.0
0.034213513001103465 3:1.0 215:1.0 248:1.0 273:1.0 284:1.0 310:1.0 693:1.0 729:1.0 945:1.0 959:1.0 1007:1.0 1019:1.0 1148:1.0 1196:1.0 1214:1.0 1217:1.0 1223:1.0 1283:1.0 1294:1.0 1310:1.0 1315:1.0 1323:1.0 1325:1.0 1346:1.0 1427:1.0 1444:1.0 1452:1.0 1772:1.0 1850:1.0 2328:1.0 2763:1.0 3146:1.0 3316:1.0
0.034213513001103465 3:1.0 5:1.0 84:1.0 185:1.0 242:1.0 337:1.0 418:1.0 428:1.0 545:1.0 722:1.0 1031:1.0 1071:1.0 1111:1.0 1116:1.0 1175:1.0 1196:1.0 1230:1.0 1239:1.0 1283:1.0 1325:1.0 1366:1.0 1367:1.0 1415:1.0 1445:1.0 1641:1.0 1662:1.0 2546:1.0 2651:1.0 2773:1.0 2887:1.0 2898:1.0 2947:1.0 2969:1.0 3061:1.0 3103:1.0 3146:1.0 3262:1.0 3264:1.0 3288:1.0 3318:1.0
-0.021954811000344906 5:1.0 13:1.0 28:1.0 32:1.0 35:1.0 89:1.0 114:1.0 122:1.0 175:1.0 176:1.0 185:1.0 303:1.0 365:1.0 434:1.0 485:1.0 735:1.0 792:1.0 853:1.0 901:1.0 1019:1.0 1043:1.0 1058:1.0 1075:1.0 1111:1.0 1114:1.0 1135:1.0 1155:1.0 1170:1.0 1175:1.0 1176:1.0 1178:1.0 1196:1.0 1203:1.0 1223:1.0 1262:1.0 1277:1.0 1315:1.0 1325:1.0 1340:1.0 1347:1.0 1358:1.0 1366:1.0 1371:1.0 1381:1.0 1391:1.0 1398:1.0 1402:1.0 1406:1.0 1435:1.0 1544:1.0 1599:1.0 1622:1.0 1649:1.0 1673:1.0 1706:1.0 1875:1.0 1957:1.0 1985:1.0 2031:1.0 2138:1.0 2284:1.0 2401:1.0 2540:1.0 2556:1.0 2657:1.0 2701:1.0 2717:1.0 2783:1.0 2784:1.0 2836:1.0 2867:1.0 2898:1.0 2904:1.0 2969:1.0 2970:1.0 3012:1.0 3022:1.0 3076:1.0 3146:1.0 3221:1.0 3255:1.0 3257:1.0 3333:1.0
-0.034213513001103465 5:1.0 43:1.0 74:1.0 185:1.0 310:1.0 389:1.0 551:1.0 1069:1.0 1111:1.0 1196:1.0 1200:1.0 1272:1.0 1283:1.0 1325:1.0 1371:1.0 1514:1.0 1706:1.0 1772:1.0 2208:1.0 2430:1.0 2480:1.0 2783:1.0 2970:1.0 3109:1.0 3146:1.0
-0.034213513001103465 185:1.0 310:1.0 342:1.0 490:1.0 1000:1.0 1111:1.0 1152:1.0 1196:1.0 1283:1.0 1325:1.0 1420:1.0 1772:1.0 1928:1.0 2989:1.0 3032:1.0 3146:1.0 3316:1.0
-0.004512322038611323 28:1.0 310:1.0 364:1.0 449:1.0 472:1.0 525:1.0 703:1.0 901:1.0 977:1.0 1040:1.0 1076:1.0 1144:1.0 1153:1.0 1163:1.0 1196:1.0 1277:1.0 1283:1.0 1315:1.0 1325:1.0 1400:1.0 1406:1.0 1428:1.0 1681:1.0 1715:1.0 1772:1.0 1785:1.0 2310:1.0 2361:1.0 2722:1.0 2798:1.0 2904:1.0 2970:1.0 2997:1.0 3028:1.0 3053:1.0 3057:1.0 3146:1.0 3316:1.0
-0.023106176304214916 16:1.0 35:1.0 89:1.0 145:1.0 215:1.0 318:1.0 401:1.0 441:1.0 688:1.0 763:1.0 771:1.0 945:1.0 1019:1.0 1023:1.0 1167:1.0 1170:1.0 1196:1.0 1270:1.0 1282:1.0 1315:1.0 1323:1.0 1325:1.0 1340:1.0 1346:1.0 1347:1.0 1358:1.0 1381:1.0 1427:1.0 1579:1.0 1777:1.0 1961:1.0 2033:1.0 2124:1.0 2144:1.0 2161:1.0 2343:1.0 2364:1.0 2553:1.0 2569:1.0 2668:1.0 2828:1.0 2932:1.0 3278:1.0 3290:1.0 3316:1.0 3344:1.0
0.034213513001103465 195:1.0 341:1.0 400:1.0 489:1.0 502:1.0 854:1.0 931:1.0 947:1.0 1022:1.0 1062:1.0 1157:1.0 1160:1.0 1167:1.0 1170:1.0 1214:1.0 1258:1.0 1271:1.0 1314:1.0 1325:1.0 1552:1.0 1993:1.0 2051:1.0 2115:1.0 2402:1.0 2427:1.0 2472:1.0 2649:1.0 2881:1.0 3014:1.0 3146:1.0 3253:1.0 3315:1.0
0.034213513001103465 30:1.0 51:1.0 104:1.0 141:1.0 165:1.0 195:1.0 299:1.0 317:1.0 400:1.0 486:1.0 489:1.0 543:1.0 623:1.0 948:1.0 975:1.0 1017:1.0 1031:1.0 1033:1.0 1046:1.0 1062:1.0 1070:1.0 1071:1.0 1098:1.0 1125:1.0 1157:1.0 1160:1.0 1175:1.0 1226:1.0 1258:1.0 1271:1.0 1293:1.0 1314:1.0 1385:1.0 1391:1.0 1393:1.0 1398:1.0 1402:1.0 1413:1.0 1420:1.0 1669:1.0 2221:1.0 2276:1.0 2360:1.0 2399:1.0 2408:1.0 2430:1.0 2461:1.0 2501:1.0 2507:1.0 2537:1.0 2649:1.0 2822:1.0 2918:1.0 2929:1.0 2933:1.0 2969:1.0 3046:1.0 3079:1.0 3083:1.0 3125:1.0 3146:1.0 3202:1.0 3221:1.0 3315:1.0
0.034213513001103465 1:1.0 123:1.0 138:1.0 187:1.0 383:1.0 708:1.0 794:1.0 828:1.0 854:1.0 984:1.0 1062:1.0 1143:1.0 1170:1.0 1207:1.0 1214:1.0 1261:1.0 1271:1.0 1292:1.0 1325:1.0 1358:1.0 1359:1.0 1369:1.0 1400:1.0 1745:1.0 1877:1.0 1948:1.0 1954:1.0 2143:1.0 2402:1.0 2408:1.0 2461:1.0 2649:1.0 2744:1.0 2783:1.0 3028:1.0 3066:1.0 3146:1.0 3160:1.0 3252:1.0 3287:1.0
0.034213513001103465 1:1.0 123:1.0 399:1.0 773:1.0 781:1.0 873:1.0 1050:1.0 1062:1.0 1154:1.0 1261:1.0 1358:1.0 1400:1.0 2472:1.0 2494:1.0 3011:1.0 3081:1.0 3146:1.0
0.034213513001103465 1:1.0 173:1.0 295:1.0 584:1.0 630:1.0 748:1.0 771:1.0 781:1.0 786:1.0 932:1.0 947:1.0 1016:1.0 1023:1.0 1062:1.0 1117:1.0 1167:1.0 1170:1.0 1261:1.0 1292:1.0 1327:1.0 1347:1.0 1358:1.0 1400:1.0 1509:1.0 1602:1.0 1918:1.0 1955:1.0 1988:1.0 2277:1.0 2364:1.0 2461:1.0 2609:1.0 2649:1.0 2668:1.0 2897:1.0 3146:1.0 3201:1.0 3278:1.0 3315:1.0
-0.018739066147188208 5:1.0 224:1.0 543:1.0 575:1.0 588:1.0 996:1.0 1033:1.0 1160:1.0 1162:1.0 1214:1.0 1268:1.0 1283:1.0 1325:1.0 1343:1.0 1391:1.0 1435:1.0 1697:1.0 1963:1.0 1979:1.0 2665:1.0 2898:1.0 2927:1.0 3146:1.0 3221:1.0 3285:1.0 3318:1.0
0.034213513001103465 5:1.0 358:1.0 380:1.0 426:1.0 1156:1.0 1203:1.0 1226:1.0 1400:1.0 1414:1.0 1422:1.0 1654:1.0 2096:1.0 2178:1.0 2764:1.0 2805:1.0 2997:1.0 3146:1.0 3221:1.0
-0.03273013374583913 463:1.0 562:1.0 966:1.0 1018:1.0 1160:1.0 1172:1.0 1236:1.0 1291:1.0 1323:1.0 1357:1.0 1400:1.0 1427:1.0 2361:1.0 2429:1.0 2472:1.0 3146:1.0
-0.016587541453222672 1:1.0 3:1.0 5:1.0 30:1.0 104:1.0 138:1.0 261:1.0 350:1.0 351:1.0 480:1.0 489:1.0 573:1.0 609:1.0 630:1.0 672:1.0 701:1.0 727:1.0 809:1.0 913:1.0 932:1.0 1017:1.0 1046:1.0 1062:1.0 1091:1.0 1106:1.0 1109:1.0 1117:1.0 1125:1.0 1143:1.0 1160:1.0 1166:1.0 1167:1.0 1199:1.0 1207:1.0 1271:1.0 1284:1.0 1314:1.0 1358:1.0 1393:1.0 1396:1.0 1419:1.0 1420:1.0 1583:1.0 1784:1.0 1876:1.0 1911:1.0 2026:1.0 2074:1.0 2077:1.0 2407:1.0 2408:1.0 2461:1.0 2472:1.0 2493:1.0 2595:1.0 2616:1.0 2716:1.0 2911:1.0 2924:1.0 2948:1.0 2992:1.0 3033:1.0 3146:1.0 3212:1.0 3284:1.0
-0.02569683972918536 5:1.0 53:1.0 138:1.0 325:1.0 437:1.0 502:1.0 542:1.0 588:1.0 597:1.0 630:1.0 771:1.0 891:1.0 915:1.0 1003:1.0 1023:1.0 1062:1.0 1091:1.0 1114:1.0 1158:1.0 1160:1.0 1167:1.0 1170:1.0 1241:1.0 1258:1.0 1268:1.0 1271:1.0 1347:1.0 1349:1.0 1358:1.0 1391:1.0 1413:1.0 1450:1.0 1552:1.0 1752:1.0 1901:1.0 2051:1.0 2115:1.0 2234:1.0 2364:1.0 2408:1.0 2410:1.0 2453:1.0 2472:1.0 2609:1.0 2736:1.0 2754:1.0 2773:1.0 2784:1.0 2820:1.0 3146:1.0 3278:1.0 3315:1.0
0.016384165214748225 3:1.0 5:1.0 14:1.0 16:1.0 89:1.0 97:1.0 100:1.0 185:1.0 230:1.0 310:1.0 332:1.0 416:1.0 489:1.0 498:1.0 763:1.0 901:1.0 966:1.0 1019:1.0 1083:1.0 1111:1.0 1132:1.0 1160:1.0 1167:1.0 1196:1.0 1220:1.0 1283:1.0 1314:1.0 1315:1.0 1325:1.0 1330:1.0 1340:1.0 1400:1.0 1406:1.0 1510:1.0 1674:1.0 1772:1.0 1852:1.0 1870:1.0 1915:1.0 2020:1.0 2408:1.0 2415:1.0 2472:1.0 2540:1.0 2546:1.0 2781:1.0 2879:1.0 2970:1.0 3011:1.0 3146:1.0 3286:1.0 3299:1.0 3316:1.0 3343:1.0 3346:1.0
0.034213513001103465 52:1.0 907:1.0 980:1.0 1210:1.0 1282:1.0 1325:1.0 1406:1.0 1424:1.0 1486:1.0 1777:1.0 1915:1.0 2124:1.0 2144:1.0 2216:1.0 2408:1.0 2783:1.0 2869:1.0 3146:1.0
0.034213513001103465 185:1.0 310:1.0 389:1.0 551:1.0 1111:1.0 1196:1.0 1200:1.0 1283:1.0 1325:1.0 1371:1.0 1510:1.0 1772:1.0 1870:1.0 2491:1.0 2542:1.0 2970:1.0 3146:1.0 3316:1.0
0.034213513001103465 5:1.0 35:1.0 89:1.0 310:1.0 356:1.0 509:1.0 532:1.0 614:1.0 919:1.0 977:1.0 996:1.0 1066:1.0 1157:1.0 1196:1.0 1214:1.0 1262:1.0 1283:1.0 1315:1.0 1325:1.0 1340:1.0 1343:1.0 1356:1.0 1358:1.0 1400:1.0 1406:1.0 1413:1.0 1459:1.0 1772:1.0 1845:1.0 1895:1.0 2161:1.0 2330:1.0 2408:1.0 2461:1.0 2607:1.0 2624:1.0 2671:1.0 2773:1.0 2918:1.0 3028:1.0 3058:1.0 3146:1.0 3273:1.0 3316:1.0 3343:1.0
0.034213513001103465 123:1.0 582:1.0 758:1.0 907:1.0 980:1.0 1210:1.0 1282:1.0 1302:1.0 1325:1.0 1358:1.0 1400:1.0 1406:1.0 1486:1.0 1751:1.0 1777:1.0 1810:1.0 1915:1.0 2124:1.0 2144:1.0 2216:1.0 2472:1.0 2553:1.0 2783:1.0 2829:1.0 2966:1.0 3146:1.0
-0.004763465664417826 19:1.0 224:1.0 453:1.0 620:1.0 623:1.0 1070:1.0 1071:1.0 1214:1.0 1253:1.0 1265:1.0 1283:1.0 1325:1.0 1420:1.0 1772:1.0 2156:1.0 2737:1.0 2787:1.0 2947:1.0 2967:1.0 3146:1.0 3316:1.0
-0.013882564258871764 716:1.0 871:1.0 907:1.0 980:1.0 1026:1.0 1155:1.0 1210:1.0 1282:1.0 1325:1.0 1406:1.0 1420:1.0 1429:1.0 1486:1.0 1777:1.0 1875:1.0 1915:1.0 2124:1.0 2138:1.0 2144:1.0 2216:1.0 2553:1.0 2741:1.0 2783:1.0 2887:1.0 3146:1.0 3221:1.0
-0.034213513001103465 224:1.0 551:1.0 620:1.0 934:1.0 1070:1.0 1200:1.0 1214:1.0 1283:1.0 1325:1.0 1371:1.0 1772:1.0 2176:1.0 2491:1.0 2967:1.0 3032:1.0 3146:1.0 3316:1.0
-0.034213513001103465 224:1.0 551:1.0 620:1.0 934:1.0 1070:1.0 1200:1.0 1214:1.0 1283:1.0 1325:1.0 1371:1.0 1678:1.0 1772:1.0 2156:1.0 2512:1.0 2947:1.0 2967:1.0 3146:1.0 3316:1.0
-0.034213513001103465 53:1.0 216:1.0 295:1.0 352:1.0 677:1.0 697:1.0 711:1.0 771:1.0 786:1.0 947:1.0 1023:1.0 1033:1.0 1070:1.0 1091:1.0 1104:1.0 1127:1.0 1160:1.0 1167:1.0 1170:1.0 1241:1.0 1347:1.0 1400:1.0 1422:1.0 1772:1.0 1800:1.0 1862:1.0 2207:1.0 2365:1.0 2408:1.0 2540:1.0 2653:1.0 2688:1.0 3084:1.0 3092:1.0 3146:1.0 3222:1.0 3268:1.0
0.005648808774302595 3:1.0 5:1.0 60:1.0 131:1.0 220:1.0 223:1.0 237:1.0 245:1.0 277:1.0 287:1.0 417:1.0 423:1.0 538:1.0 564:1.0 585:1.0 783:1.0 924:1.0 965:1.0 1039:1.0 1040:1.0 1044:1.0 1064:1.0 1068:1.0 1075:1.0 1109:1.0 1135:1.0 1160:1.0 1166:1.0 1176:1.0 1189:1.0 1244:1.0 1257:1.0 1261:1.0 1267:1.0 1283:1.0 1300:1.0 1314:1.0 1365:1.0 1402:1.0 1451:1.0 1716:1.0 1772:1.0 1793:1.0 1881:1.0 1882:1.0 1932:1.0 1952:1.0 2208:1.0 2290:1.0 2333:1.0 2408:1.0 2461:1.0 2540:1.0 2556:1.0 2557:1.0 2638:1.0 2649:1.0 2666:1.0 2997:1.0 3043:1.0 3120:1.0 3146:1.0 3160:1.0 3192:1.0 3221:1.0 3259:1.0 3278:1.0 3288:1.0 3333:1.0
0.034213513001103465 131:1.0 351:1.0 378:1.0 429:1.0 442:1.0 672:1.0 859:1.0 1090:1.0 1109:1.0 1166:1.0 1188:1.0 1223:1.0 1236:1.0 1357:1.0 1358:1.0 1364:1.0 1371:1.0 1391:1.0 1396:1.0 1434:1.0 1451:1.0 1633:1.0 2290:1.0 2461:1.0 2588:1.0 2649:1.0 2657:1.0 2767:1.0 3136:1.0 3146:1.0 3183:1.0 3212:1.0 3278:1.0 3288:1.0
0.034213513001103465 59:1.0 60:1.0 128:1.0 238:1.0 253:1.0 419:1.0 440:1.0 761:1.0 771:1.0 783:1.0 785:1.0 868:1.0 1023:1.0 1028:1.0 1040:1.0 1044:1.0 1046:1.0 1079:1.0 1156:1.0 1170:1.0 1200:1.0 1236:1.0 1245:1.0 1261:1.0 1280:1.0 1294:1.0 1347:1.0 1357:1.0 1412:1.0 1454:1.0 1482:1.0 1740:1.0 1822:1.0 1940:1.0 1974:1.0 2147:1.0 2364:1.0 2390:1.0 2512:1.0 2615:1.0 2668:1.0 2783:1.0 2784:1.0 2893:1.0 2997:1.0 3038:1.0 3146:1.0 3315:1.0
0.034213513001103465 3:1.0 122:1.0 298:1.0 339:1.0 351:1.0 447:1.0 486:1.0 496:1.0 508:1.0 607:1.0 752:1.0 1025:1.0 1102:1.0 1109:1.0 1143:1.0 1157:1.0 1166:1.0 1185:1.0 1191:1.0 1226:1.0 1264:1.0 1319:1.0 1337:1.0 1358:1.0 1402:1.0 2026:1.0 2406:1.0 2461:1.0 2493:1.0 2691:1.0 2741:1.0 2903:1.0 3020:1.0 3146:1.0 3212:1.0 3221:1.0 3239:1.0
-0.03136833052727995 3:1.0 51:1.0 57:1.0 65:1.0 93:1.0 123:1.0 212:1.0 213:1.0 326:1.0 337:1.0 666:1.0 705:1.0 748:1.0 828:1.0 838:1.0 1009:1.0 1016:1.0 1071:1.0 1116:1.0 1166:1.0 1170:1.0 1261:1.0 1292:1.0 1324:1.0 1358:1.0 1393:1.0 1396:1.0 1400:1.0 1451:1.0 1712:1.0 1843:1.0 2229:1.0 2291:1.0 2431:1.0 2493:1.0 2494:1.0 2508:1.0 2700:1.0 2801:1.0 2893:1.0 2969:1.0 3146:1.0 3159:1.0 3160:1.0 3287:1.0 3343:1.0
-0.003958476200401099 3:1.0 152:1.0 293:1.0 345:1.0 457:1.0 598:1.0 911:1.0 1022:1.0 1071:1.0 1123:1.0 1152:1.0 1250:1.0 1357:1.0 1367:1.0 1377:1.0 1402:1.0 1476:1.0 1699:1.0 1898:1.0 1967:1.0 2007:1.0 2113:1.0 2546:1.0 2649:1.0 2674:1.0 2752:1.0 3091:1.0 3109:1.0 3146:1.0 3221:1.0
-0.017097019157054732 3:1.0 123:1.0 150:1.0 225:1.0 447:1.0 607:1.0 1023:1.0 1039:1.0 1102:1.0 1140:1.0 1143:1.0 1166:1.0 1185:1.0 1283:1.0 1358:1.0 1400:1.0 2150:1.0 2329:1.0 2399:1.0 2430:1.0 3066:1.0 3143:1.0 3146:1.0 3212:1.0 3284:1.0 3288:1.0
-0.02992210851313532 123:1.0 156:1.0 351:1.0 489:1.0 564:1.0 647:1.0 725:1.0 821:1.0 822:1.0 992:1.0 1066:1.0 1109:1.0 1160:1.0 1257:1.0 1267:1.0 1302:1.0 1314:1.0 1324:1.0 1358:1.0 1400:1.0 1407:1.0 1412:1.0 1455:1.0 1862:1.0 2095:1.0 2193:1.0 2202:1.0 2232:1.0 2461:1.0 2540:1.0 2581:1.0 2645:1.0 2688:1.0 3069:1.0 3086:1.0 3126:1.0 3146:1.0 3179:1.0
-0.028118112856186935 3:1.0 79:1.0 102:1.0 244:1.0 635:1.0 662:1.0 1083:1.0 1236:1.0 1286:1.0 1291:1.0 1330:1.0 1357:1.0 1358:1.0 1396:1.0 1451:1.0 1793:1.0 2245:1.0 2317:1.0 2461:1.0 2649:1.0 2839:1.0 3114:1.0 3146:1.0 3286:1.0 3288:1.0
0.034213513001103465 5:1.0 47:1.0 176:1.0 319:1.0 388:1.0 598:1.0 608:1.0 688:1.0 702:1.0 854:1.0 911:1.0 960:1.0 966:1.0 1023:1.0 1043:1.0 1058:1.0 1071:1.0 1089:1.0 1141:1.0 1148:1.0 1160:1.0 1170:1.0 1214:1.0 1222:1.0 1250:1.0 1290:1.0 1325:1.0 1355:1.0 1367:1.0 1381:1.0 1389:1.0 1392:1.0 1400:1.0 1421:1.0 2006:1.0 2122:1.0 2364:1.0 2464:1.0 2864:1.0 2865:1.0 2866:1.0 2879:1.0 2887:1.0 2957:1.0 2967:1.0 3146:1.0 3184:1.0 3221:1.0 3284:1.0 3312:1.0 3316:1.0 3344:1.0
0.034213513001103465 5:1.0 22:1.0 104:1.0 137:1.0 155:1.0 224:1.0 481:1.0 1023:1.0 1125:1.0 1174:1.0 1214:1.0 1283:1.0 1325:1.0 1331:1.0 1420:1.0 1772:1.0 1841:1.0 2364:1.0 2703:1.0 2705:1.0 2913:1.0 3146:1.0 3316:1.0
0.034213513001103465 5:1.0 224:1.0 884:1.0 916:1.0 1038:1.0 1147:1.0 1214:1.0 1283:1.0 1325:1.0 1337:1.0 1388:1.0 1444:1.0 1662:1.0 2741:1.0 3049:1.0 3088:1.0 3146:1.0 3282:1.0 3318:1.0
0.034213513001103465 224:1.0 695:1.0 739:1.0 1148:1.0 1214:1.0 1283:1.0 1325:1.0 1334:1.0 1421:1.0 1772:1.0 2855:1.0 2967:1.0 3146:1.0 3316:1.0
-0.018726209768738348 188:1.0 224:1.0 535:1.0 695:1.0 841:1.0 1109:1.0 1148:1.0 1179:1.0 1189:1.0 1214:1.0 1283:1.0 1325:1.0 1373:1.0 1421:1.0 1500:1.0 1772:1.0 2093:1.0 2354:1.0 2668:1.0 2723:1.0 2967:1.0 3146:1.0 3192:1.0 3284:1.0 3316:1.0
-0.019028070873932042 21:1.0 22:1.0 230:1.0 272:1.0 350:1.0 441:1.0 530:1.0 532:1.0 614:1.0 627:1.0 644:1.0 688:1.0 702:1.0 710:1.0 795:1.0 843:1.0 904:1.0 925:1.0 966:1.0 1023:1.0 1063:1.0 1064:1.0 1071:1.0 1083:1.0 1096:1.0 1104:1.0 1125:1.0 1127:1.0 1148:1.0 1160:1.0 1170:1.0 1176:1.0 1184:1.0 1205:1.0 1214:1.0 1225:1.0 1252:1.0 1273:1.0 1325:1.0 1347:1.0 1356:1.0 1358:1.0 1362:1.0 1367:1.0 1381:1.0 1382:1.0 1392:1.0 1400:1.0 1406:1.0 1413:1.0 1419:1.0 1698:1.0 1721:1.0 1825:1.0 2224:1.0 2267:1.0 2364:1.0 2444:1.0 2461:1.0 2494:1.0 2513:1.0 2643:1.0 2649:1.0 2680:1.0 2705:1.0 2711:1.0 2719:1.0 2789:1.0 2866:1.0 2904:1.0 2918:1.0 2997:1.0 3146:1.0 3221:1.0 3261:1.0 3284:1.0 3315:1.0
-0.019270548235753568 92:1.0 255:1.0 383:1.0 399:1.0 413:1.0 621:1.0 670:1.0 695:1.0 773:1.0 783:1.0 873:1.0 882:1.0 984:1.0 1031:1.0 1040:1.0 1050:1.0 1051:1.0 1090:1.0 1148:1.0 1154:1.0 1207:1.0 1214:1.0 1261:1.0 1322:1.0 1325:1.0 1358:1.0 1369:1.0 1384:1.0 1421:1.0 1680:1.0 1824:1.0 2001:1.0 2073:1.0 2225:1.0 2371:1.0 2399:1.0 2408:1.0 2508:1.0 2735:1.0 2783:1.0 2967:1.0 2997:1.0 3146:1.0 3191:1.0 3284:1.0 3316:1.0
-0.034213513001103465 10:1.0 262:1.0 545:1.0 598:1.0 847:1.0 889:1.0 911:1.0 931:1.0 1022:1.0 1057:1.0 1071:1.0 1155:1.0 1214:1.0 1250:1.0 1261:1.0 1283:1.0 1325:1.0 1367:1.0 1385:1.0 1438:1.0 1473:1.0 1769:1.0 1772:1.0 1941:1.0 2339:1.0 2395:1.0 2649:1.0 2934:1.0 2997:1.0 3088:1.0 3103:1.0 3127:1.0 3146:1.0 3221:1.0 3259:1.0 3316:1.0
-0.02814198054301677 489:1.0 658:1.0 770:1.0 822:1.0 966:1.0 1060:1.0 1081:1.0 1160:1.0 1236:1.0 1302:1.0 1314:1.0 1357:1.0 1400:1.0 1810:1.0 2472:1.0 2888:1.0 2954:1.0 2966:1.0 3068:1.0 3146:1.0
0.034213513001103465 5:1.0 53:1.0 123:1.0 351:1.0 354:1.0 542:1.0 630:1.0 677:1.0 705:1.0 753:1.0 833:1.0 864:1.0 913:1.0 915:1.0 934:1.0 986:1.0 1020:1.0 1027:1.0 1040:1.0 1070:1.0 1091:1.0 1104:1.0 1109:1.0 1127:1.0 1167:1.0 1230:1.0 1241:1.0 1324:1.0 1349:1.0 1358:1.0 1371:1.0 1400:1.0 1813:1.0 1866:1.0 2202:1.0 2408:1.0 2443:1.0 2461:1.0 2471:1.0 2688:1.0 2764:1.0 2918:1.0 2930:1.0 2969:1.0 2997:1.0 3086:1.0 3146:1.0 3175:1.0 3339:1.0 3348:1.0
0.034213513001103465 3:1.0 123:1.0 315:1.0 501:1.0 838:1.0 859:1.0 1009:1.0 1166:1.0 1188:1.0 1234:1.0 1329:1.0 1357:1.0 1358:1.0 1400:1.0 2150:1.0 2470:1.0 2472:1.0 2476:1.0 2883:1.0 3146:1.0 3212:1.0 3288:1.0
0.034213513001103465 123:1.0 705:1.0 1324:1.0 1358:1.0 1400:1.0 1777:1.0 2450:1.0 2472:1.0 3146:1.0
0.034213513001103465 1:1.0 75:1.0 141:1.0 263:1.0 351:1.0 400:1.0 491:1.0 548:1.0 676:1.0 701:1.0 719:1.0 768:1.0 833:1.0 1062:1.0 1091:1.0 1109:1.0 1157:1.0 1160:1.0 1230:1.0 1245:1.0 1293:1.0 1323:1.0 1358:1.0 1394:1.0 1400:1.0 1427:1.0 1807:1.0 2009:1.0 2408:1.0 2471:1.0 2472:1.0 2569:1.0 2663:1.0 2664:1.0 2835:1.0 3146:1.0 3208:1.0
0.034213513001103465 1:1.0 1062:1.0 1415:1.0 1777:1.0 2372:1.0 3146:1.0
-0.034213513001103465 5:1.0 99:1.0 195:1.0 489:1.0 966:1.0 986:1.0 1104:1.0 1127:1.0 1132:1.0 1160:1.0 1236:1.0 1241:1.0 1271:1.0 1314:1.0 1349:1.0 1357:1.0 1400:1.0 1922:1.0 1992:1.0 2020:1.0 2355:1.0 2408:1.0 2472:1.0 2615:1.0 2624:1.0 3043:1.0 3146:1.0 3314:1.0
-0.034213513001103465 3:1.0 5:1.0 277:1.0 351:1.0 400:1.0 444:1.0 489:1.0 508:1.0 630:1.0 752:1.0 762:1.0 768:1.0 842:1.0 879:1.0 913:1.0 916:1.0 1109:1.0 1147:1.0 1157:1.0 1160:1.0 1163:1.0 1166:1.0 1167:1.0 1231:1.0 1264:1.0 1314:1.0 1319:1.0 1323:1.0 1337:1.0 1358:1.0 1388:1.0 1390:1.0 1400:1.0 1414:1.0 1427:1.0 1685:1.0 1719:1.0 1833:1.0 2245:1.0 2290:1.0 2372:1.0 2378:1.0 2461:1.0 2493:1.0 2515:1.0 2523:1.0 2668:1.0 2737:1.0 2741:1.0 2744:1.0 2751:1.0 2797:1.0 2997:1.0 3060:1.0 3086:1.0 3146:1.0 3240:1.0 3278:1.0
-0.034213513001103465 131:1.0 209:1.0 600:1.0 818:1.0 859:1.0 1166:1.0 1188:1.0 1207:1.0 1240:1.0 1283:1.0 1372:1.0 1415:1.0 1451:1.0 1662:1.0 2408:1.0 2452:1.0 2624:1.0 2651:1.0 2754:1.0 3146:1.0 3288:1.0 3318:1.0
-0.03410973635522155 128:1.0 141:1.0 195:1.0 295:1.0 308:1.0 313:1.0 721:1.0 783:1.0 806:1.0 975:1.0 1023:1.0 1040:1.0 1104:1.0 1108:1.0 1127:1.0 1156:1.0 1160:1.0 1234:1.0 1261:1.0 1271:1.0 1293:1.0 1314:1.0 1357:1.0 1400:1.0 1413:1.0 2364:1.0 2399:1.0 2472:1.0 2503:1.0 2688:1.0 2904:1.0 2918:1.0 2997:1.0 3003:1.0 3043:1.0 3146:1.0
-0.03146309404936136 1:1.0 5:1.0 16:1.0 53:1.0 64:1.0 93:1.0 140:1.0 198:1.0 322:1.0 334:1.0 355:1.0 467:1.0 480:1.0 506:1.0 509:1.0 528:1.0 849:1.0 943:1.0 945:1.0 957:1.0 1019:1.0 1060:1.0 1062:1.0 1066:1.0 1072:1.0 1091:1.0 1095:1.0 1138:1.0 1157:1.0 1167:1.0 1226:1.0 1241:1.0 1296:1.0 1315:1.0 1323:1.0 1350:1.0 1358:1.0 1373:1.0 1393:1.0 1412:1.0 1426:1.0 1427:1.0 1431:1.0 1441:1.0 1444:1.0 1739:1.0 2155:1.0 2355:1.0 2378:1.0 2387:1.0 2408:1.0 2471:1.0 2472:1.0 2569:1.0 2575:1.0 2689:1.0 2725:1.0 2773:1.0 2843:1.0 2855:1.0 2898:1.0 2975:1.0 3049:1.0 3146:1.0 3221:1.0 3339:1.0
0.034213513001103465 3:1.0 51:1.0 65:1.0 337:1.0 551:1.0 600:1.0 620:1.0 641:1.0 847:1.0 934:1.0 1070:1.0 1071:1.0 1116:1.0 1155:1.0 1200:1.0 1214:1.0 1283:1.0 1313:1.0 1325:1.0 1371:1.0 1393:1.0 1451:1.0 1496:1.0 1772:1.0 1850:1.0 1864:1.0 1875:1.0 1927:1.0 2328:1.0 2354:1.0 2508:1.0 2522:1.0 2967:1.0 2969:1.0 3032:1.0 3146:1.0 3221:1.0 3243:1.0 3247:1.0 3316:1.0
0.034213513001103465 3:1.0 22:1.0 65:1.0 80:1.0 126:1.0 212:1.0 337:1.0 490:1.0 624:1.0 704:1.0 988:1.0 991:1.0 996:1.0 1023:1.0 1048:1.0 1071:1.0 1106:1.0 1116:1.0 1125:1.0 1134:1.0 1143:1.0 1152:1.0 1170:1.0 1214:1.0 1325:1.0 1343:1.0 1420:1.0 1422:1.0 1448:1.0 1451:1.0 1458:1.0 1710:1.0 2006:1.0 2100:1.0 2121:1.0 2316:1.0 2481:1.0 2546:1.0 2751:1.0 2755:1.0 2760:1.0 2787:1.0 2812:1.0 3076:1.0 3146:1.0 3212:1.0 3259:1.0 3284:1.0 3316:1.0 3354:1.0
-0.021634810983208734 3:1.0 30:1.0 32:1.0 44:1.0 288:1.0 298:1.0 303:1.0 341:1.0 400:1.0 447:1.0 489:1.0 503:1.0 547:1.0 631:1.0 647:1.0 826:1.0 1054:1.0 1101:1.0 1135:1.0 1157:1.0 1160:1.0 1166:1.0 1167:1.0 1175:1.0 1185:1.0 1314:1.0 1324:1.0 1393:1.0 1398:1.0 1420:1.0 2202:1.0 2424:1.0 2461:1.0 2471:1.0 2550:1.0 2604:1.0 2683:1.0 2708:1.0 3086:1.0 3146:1.0 3195:1.0 3208:1.0 3217:1.0 3288:1.0
-0.034213513001103465 1:1.0 5:1.0 128:1.0 309:1.0 510:1.0 548:1.0 574:1.0 678:1.0 809:1.0 854:1.0 868:1.0 908:1.0 1040:1.0 1057:1.0 1062:1.0 1091:1.0 1156:1.0 1170:1.0 1207:1.0 1214:1.0 1230:1.0 1294:1.0 1325:1.0 1415:1.0 1471:1.0 1516:1.0 1839:1.0 1879:1.0 1954:1.0 2410:1.0 2649:1.0 2703:1.0 2913:1.0 2997:1.0 3146:1.0 3160:1.0 3253:1.0 3273:1.0 3287:1.0 3348:1.0
-0.034213513001103465 51:1.0 65:1.0 93:1.0 123:1.0 337:1.0 351:1.0 504:1.0 600:1.0 630:1.0 1005:1.0 1071:1.0 1109:1.0 1116:1.0 1167:1.0 1262:1.0 1283:1.0 1358:1.0 1393:1.0 1400:1.0 1451:1.0 1772:1.0 1845:1.0 2186:1.0 2199:1.0 2371:1.0 2461:1.0 2508:1.0 2773:1.0 2860:1.0 2903:1.0 2969:1.0 3028:1.0 3146:1.0 3316:1.0
-0.034213513001103465 3:1.0 231:1.0 337:1.0 382:1.0 412:1.0 1071:1.0 1116:1.0 1200:1.0 1244:1.0 1329:1.0 1354:1.0 1362:1.0 2236:1.0 2423:1.0 2522:1.0 2844:1.0 2877:1.0 2947:1.0 3146:1.0 3212:1.0
-0.034213513001103465 3:1.0 65:1.0 80:1.0 337:1.0 600:1.0 1041:1.0 1071:1.0 1106:1.0 1116:1.0 1143:1.0 1173:1.0 1283:1.0 1443:1.0 1451:1.0 1453:1.0 1927:1.0 1979:1.0 2426:1.0 2508:1.0 2674:1.0 2969:1.0 3146:1.0 3212:1.0 3278:1.0 3293:1.0 3318:1.0
0.034213513001103465 5:1.0 32:1.0 48:1.0 114:1.0 225:1.0 254:1.0 277:1.0 286:1.0 303:1.0 372:1.0 483:1.0 636:1.0 826:1.0 1023:1.0 1039:1.0 1104:1.0 1109:1.0 1114:1.0 1115:1.0 1135:1.0 1167:1.0 1175:1.0 1256:1.0 1272:1.0 1283:1.0 1301:1.0 1314:1.0 1382:1.0 1391:1.0 1398:1.0 2290:1.0 2329:1.0 2370:1.0 2461:1.0 2657:1.0 2773:1.0 2984:1.0 3043:1.0 3061:1.0 3066:1.0 3146:1.0 3255:1.0 3278:1.0 3314:1.0
0.034213513001103465 267:1.0 405:1.0 618:1.0 637:1.0 837:1.0 1014:1.0 1040:1.0 1133:1.0 1173:1.0 1264:1.0 1315:1.0 1328:1.0 1415:1.0 2099:1.0 2373:1.0 2426:1.0 2934:1.0 2997:1.0 3146:1.0 3278:1.0 3285:1.0
0.034213513001103465 2:1.0 3:1.0 489:1.0 966:1.0 1030:1.0 1045:1.0 1160:1.0 1314:1.0 1400:1.0 1819:1.0 2094:1.0 2213:1.0 2472:1.0 2595:1.0 2893:1.0 3146:1.0 3315:1.0
0.034213513001103465 108:1.0 543:1.0 587:1.0 924:1.0 971:1.0 1033:1.0 1160:1.0 1176:1.0 1203:1.0 1236:1.0 1357:1.0 1391:1.0 1441:1.0 1875:1.0 2140:1.0 2502:1.0 3084:1.0 3146:1.0 3221:1.0
-0.02878074641716187 22:1.0 126:1.0 127:1.0 389:1.0 415:1.0 485:1.0 854:1.0 891:1.0 966:1.0 1018:1.0 1023:1.0 1111:1.0 1114:1.0 1125:1.0 1160:1.0 1170:1.0 1214:1.0 1282:1.0 1325:1.0 1371:1.0 1383:1.0 1400:1.0 1410:1.0 1448:1.0 1450:1.0 1458:1.0 1686:1.0 1777:1.0 1941:1.0 2124:1.0 2144:1.0 2200:1.0 2364:1.0 2418:1.0 2502:1.0 2522:1.0 2535:1.0 2553:1.0 2649:1.0 2687:1.0 2737:1.0 2767:1.0 2781:1.0 2969:1.0 2970:1.0 3134:1.0 3146:1.0 3202:1.0 3259:1.0
-0.034213513001103465 11:1.0 53:1.0 75:1.0 171:1.0 419:1.0 486:1.0 965:1.0 1091:1.0 1160:1.0 1226:1.0 1236:1.0 1241:1.0 1245:1.0 1357:1.0 1400:1.0 1402:1.0 2068:1.0 2408:1.0 2571:1.0 2609:1.0 3146:1.0 3206:1.0 3218:1.0 3221:1.0
-0.034213513001103465 216:1.0 538:1.0 965:1.0 1075:1.0 1160:1.0 1188:1.0 1200:1.0 1204:1.0 1402:1.0 1408:1.0 1422:1.0 2219:1.0 2388:1.0 2410:1.0 2492:1.0 2522:1.0 3070:1.0 3146:1.0 3212:1.0 3217:1.0 3221:1.0 3222:1.0
-0.034213513001103465 5:1.0 287:1.0 644:1.0 1039:1.0 1064:1.0 1066:1.0 1160:1.0 1283:1.0 1334:1.0 1409:1.0 1430:1.0 2329:1.0 2450:1.0 2803:1.0 2893:1.0 2970:1.0 3066:1.0 3146:1.0
-0.034213513001103465 5:1.0 360:1.0 1200:1.0 1422:1.0 2190:1.0 3081:1.0 3146:1.0
0.02928114716877503 3:1.0 5:1.0 51:1.0 65:1.0 93:1.0 102:1.0 128:1.0 146:1.0 224:1.0 255:1.0 302:1.0 337:1.0 376:1.0 503:1.0 620:1.0 783:1.0 1040:1.0 1054:1.0 1070:1.0 1071:1.0 1083:1.0 1090:1.0 1116:1.0 1156:1.0 1175:1.0 1214:1.0 1239:1.0 1240:1.0 1261:1.0 1270:1.0 1283:1.0 1325:1.0 1358:1.0 1384:1.0 1393:1.0 1398:1.0 1451:1.0 1772:1.0 1833:1.0 1975:1.0 2233:1.0 2395:1.0 2408:1.0 2441:1.0 2461:1.0 2493:1.0 2501:1.0 2615:1.0 2624:1.0 2708:1.0 2711:1.0 2934:1.0 2997:1.0 3011:1.0 3127:1.0 3146:1.0 3213:1.0 3316:1.0
0.034213513001103465 1:1.0 3:1.0 140:1.0 412:1.0 491:1.0 650:1.0 719:1.0 773:1.0 941:1.0 957:1.0 1062:1.0 1066:1.0 1154:1.0 1181:1.0 1200:1.0 1226:1.0 1244:1.0 1323:1.0 1358:1.0 1394:1.0 1427:1.0 1441:1.0 1769:1.0 1921:1.0 1933:1.0 2491:1.0 3028:1.0 3086:1.0 3092:1.0 3146:1.0 3212:1.0 3221:1.0
0.034213513001103465 3:1.0 65:1.0 123:1.0 160:1.0 337:1.0 351:1.0 600:1.0 754:1.0 913:1.0 1071:1.0 1109:1.0 1116:1.0 1167:1.0 1283:1.0 1294:1.0 1358:1.0 1400:1.0 1451:1.0 1499:1.0 1772:1.0 1833:1.0 2298:1.0 2493:1.0 2508:1.0 2522:1.0 3146:1.0 3302:1.0 3316:1.0 3322:1.0 3339:1.0
0.034213513001103465 83:1.0 123:1.0 144:1.0 437:1.0 779:1.0 808:1.0 1071:1.0 1096:1.0 1132:1.0 1231:1.0 1249:1.0 1358:1.0 1362:1.0 1400:1.0 1414:1.0 1450:1.0 1565:1.0 1634:1.0 1656:1.0 1662:1.0 2076:1.0 2161:1.0 2408:1.0 2461:1.0 2569:1.0 2844:1.0 2997:1.0 3040:1.0 3146:1.0 3258:1.0
0.034213513001103465 3:1.0 51:1.0 79:1.0 241:1.0 244:1.0 270:1.0 391:1.0 428:1.0 848:1.0 1066:1.0 1071:1.0 1111:1.0 1236:1.0 1291:1.0 1312:1.0 1357:1.0 1358:1.0 1393:1.0 1430:1.0 2355:1.0 2461:1.0 2546:1.0 2780:1.0 2934:1.0 2969:1.0 3146:1.0 3284:1.0
-0.02533679181239161 1:1.0 123:1.0 164:1.0 351:1.0 650:1.0 923:1.0 1062:1.0 1109:1.0 1181:1.0 1292:1.0 1358:1.0 1400:1.0 1693:1.0 1813:1.0 2231:1.0 2461:1.0 3046:1.0 3058:1.0 3146:1.0 3218:1.0 3339:1.0
-0.0018317591138094324 148:1.0 246:1.0 463:1.0 563:1.0 1024:1.0 1104:1.0 1127:1.0 1148:1.0 1236:1.0 1321:1.0 1357:1.0 1392:1.0 1400:1.0 1427:1.0 2791:1.0 2842:1.0 2918:1.0 3146:1.0 3152:1.0 3172:1.0
-0.034213513001103465 234:1.0 493:1.0 561:1.0 630:1.0 705:1.0 729:1.0 913:1.0 959:1.0 989:1.0 1109:1.0 1136:1.0 1167:1.0 1223:1.0 1311:1.0 1315:1.0 1323:1.0 1324:1.0 1358:1.0 1389:1.0 1427:1.0 1439:1.0 1444:1.0 1813:1.0 2202:1.0 2268:1.0 2461:1.0 2589:1.0 2640:1.0 2641:1.0 2701:1.0 2988:1.0 3086:1.0 3146:1.0 3162:1.0 3183:1.0 3196:1.0 3339:1.0
-0.007898091482869272 123:1.0 164:1.0 175:1.0 214:1.0 351:1.0 485:1.0 618:1.0 669:1.0 716:1.0 923:1.0 981:1.0 1014:1.0 1026:1.0 1040:1.0 1109:1.0 1114:1.0 1133:1.0 1181:1.0 1210:1.0 1283:1.0 1292:1.0 1315:1.0 1325:1.0 1358:1.0 1371:1.0 1400:1.0 1751:1.0 1772:1.0 1825:1.0 2059:1.0 2208:1.0 2332:1.0 2370:1.0 2428:1.0 2453:1.0 2461:1.0 2542:1.0 2719:1.0 2848:1.0 2966:1.0 2997:1.0 3046:1.0 3146:1.0 3278:1.0 3314:1.0
-0.034213513001103465 2:1.0 3:1.0 123:1.0 998:1.0 1030:1.0 1045:1.0 1358:1.0 1400:1.0 2094:1.0 2229:1.0 2461:1.0 2550:1.0 3146:1.0 3315:1.0
0.034213513001103465 203:1.0 521:1.0 891:1.0 1090:1.0 1114:1.0 1170:1.0 1384:1.0 1422:1.0 2529:1.0 2716:1.0 2798:1.0 3146:1.0
0.034213513001103465 135:1.0 663:1.0 907:1.0 980:1.0 1200:1.0 1210:1.0 1282:1.0 1325:1.0 1370:1.0 1406:1.0 1673:1.0 1809:1.0 1985:1.0 2553:1.0 2741:1.0 2783:1.0 3146:1.0
0.034213513001103465 18:1.0 142:1.0 551:1.0 1048:1.0 1200:1.0 1362:1.0 1371:1.0 1712:1.0 3134:1.0 3146:1.0 3303:1.0
0.034213513001103465 5:1.0 919:1.0 931:1.0 980:1.0 1022:1.0 1214:1.0 1282:1.0 1325:1.0 1406:1.0 1777:1.0 2124:1.0 2144:1.0 2161:1.0 2330:1.0 2374:1.0 2553:1.0 3146:1.0 3343:1.0
0.034213513001103465 5:1.0 26:1.0 199:1.0 230:1.0 415:1.0 582:1.0 860:1.0 966:1.0 1083:1.0 1086:1.0 1160:1.0 1210:1.0 1302:1.0 1325:1.0 1371:1.0 1400:1.0 1439:1.0 1640:1.0 1744:1.0 2194:1.0 2472:1.0 2792:1.0 2844:1.0 2887:1.0 3043:1.0 3057:1.0 3146:1.0 3179:1.0
-0.022042281398614798 21:1.0 137:1.0 185:1.0 230:1.0 310:1.0 450:1.0 803:1.0 832:1.0 884:1.0 919:1.0 1038:1.0 1083:1.0 1090:1.0 1111:1.0 1132:1.0 1174:1.0 1196:1.0 1214:1.0 1283:1.0 1303:1.0 1325:1.0 1384:1.0 1406:1.0 1573:1.0 1643:1.0 1713:1.0 1772:1.0 2405:1.0 2408:1.0 2649:1.0 2787:1.0 2934:1.0 3146:1.0 3316:1.0 3342:1.0 3354:1.0
